0.290160 -4.272729 -4.120079 -4.930619 -4.155074 -5.154560 -5.102396 -5.984971 -5.221061 -5.381842 -6.795290 -6.048375 -6.037514 -4.991117 -5.834784 -5.010728 -4.699118 4.052176 5.166790 5.917435 5.890656 3.470932 2.782810 4.571726 4.945664 6.323347 5.990114 5.313894 3.848699 6.194171 5.273621 6.746300 7.542082 1.153495 1.872186 2.636278 3.066857 -2.458065 -2.011577 -1.634242 -0.687910 -1.243603 -0.157401 0.130031 -0.642182 -0.318253 0.095724 -0.388711 -0.306986 -1.238903 -1.034085 -0.218536 -0.927022 -0.336906 -0.135334 0.298394 0.168232 -0.430859 0.250527 1.036084 1.163147 0.444545 0.813352 0.686682 0.645200 -0.480615 -0.037294 0.770520 -0.525325 0.028329 0.213730 4.032241 -0.484305 0.585121 0.167050 0.883776 -0.789375 -0.433891 1.609023 0.324934 -0.716896 -0.680096 0.167050 1.273845 -0.345661 0.036716 -0.302568 0.639208 0.409556 -0.600972 -0.667248 -0.163984 0.422162 0.448224 -0.148024 0.324934 1.711728 -1.224544 0.167050 1.306131 1.103030 0.036716 -0.568295 -1.076195 1.422177 -0.094120 -0.188446 -1.322589 1.040112 -0.235285 0.516577 1.533588 0.573249 0.951853 -0.667248 -0.254849 0.005913 0.238913 0.857420 0.535086 1.180962 0.245102 0.167050 -0.673089 0.218578 -0.480615 -0.037294 0.324934 0.536628 0.953182 0.167050 0.198160 -0.424063 0.036716 -0.402499 0.438787 -0.822645 0.017967 0.226623 -0.006774 -1.613910 -0.657558 1.295314 0.789478 -0.392806 -0.687771 -0.188446 0.385087 0.088603 -0.200543 -0.303833 -0.163984 0.037116 -0.740352 0.167050 -1.211954 -0.975512 0.770520 -0.525325 0.324934 -1.387380 0.549898 -0.667248 0.133452 0.936563 0.033973 -1.298400 -0.185400 -1.281161 0.393008 0.123300 -0.556341 -0.681486 -0.459232 -0.809768 0.261614 -1.617646 -0.037270 0.167050 -0.454398 -0.312765 -1.258463 -0.906044 -0.655177 -0.964342 0.117026 -0.667248 0.770520 -0.525325 0.028329 0.213730
0.081060 -2.122476 -0.037085 -0.411816 -0.380024 0.446839 0.809587 3.626595 5.280594 2.087604 1.074980 0.112800 -0.609080 -0.652953 -2.504073 -2.522466 -2.374033 -2.644176 -4.217401 -3.419371 -4.334754 -0.997647 -0.076007 2.389487 4.544237 1.086776 -0.957285 -1.931088 0.374418 -1.859442 12.939622 -1.599588 -1.041713 -7.061653 -6.865762 -10.811548 -11.463617 -7.051429 -5.681514 -1.591993 -1.364032 -6.394479 -4.927389 -6.672357 -6.604062 -5.405859 -7.089914 -6.846911 -13.365747 8.314818 7.930846 7.966581 7.514444 7.570118 7.168450 7.138355 7.580978 5.797998 5.882226 5.841856 6.195940 6.321954 6.608537 5.181013 6.265215 0.305108 -0.501373 -0.099450 -0.226880 0.285074 0.863087 0.297577 -0.189235 0.055910 0.570651 0.502560 1.220479 0.795682 0.966161 0.115750 1.351831 -0.236197 0.570651 -0.748208 -1.226315 0.349576 -2.700270 -0.907743 0.454310 -0.088486 0.437068 -0.130104 -0.211339 -0.978766 -0.192269 0.115750 -0.694892 -1.064334 0.570651 -0.096716 -0.806759 0.349576 -1.550098 0.369997 -0.028779 -0.451033 -0.373523 -0.455601 -1.077480 -1.491950 -0.244896 -7.959153 0.552590 0.297144 0.437068 -0.257668 2.834013 1.123463 -0.807979 0.102445 1.663551 0.898175 0.570651 0.285824 0.667264 0.305108 -0.501373 0.115750 -1.370678 0.720695 0.570651 0.737738 1.313753 0.349576 1.348763 -0.220092 -0.270334 1.189706 -0.728319 0.066113 -0.384116 2.186750 -1.396193 -1.316658 -0.530994 -0.808161 -0.373523 0.170109 0.614160 0.435136 0.396208 -0.130104 -2.205507 -0.305517 0.570651 1.037640 1.266963 -0.099450 -0.226880 0.115750 -0.694228 -0.407213 0.437068 0.943260 0.063005 -0.514956 0.638542 -0.937578 -0.221598 1.001651 0.957781 1.544428 -0.407697 -2.420029 -2.181990 0.412774 0.531359 0.038154 0.570651 0.068905 -1.139823 0.482108 -1.719179 0.963249 0.460186 0.566266 0.437068 -0.099450 -0.226880 0.285074 0.863087
-0.096726 -3.606084 -3.737303 -4.186124 -4.103212 -3.519898 -3.231302 -4.604354 -4.244018 -3.859762 -4.361964 -4.459954 -4.151493 -3.537203 -3.938891 -3.498827 -3.541574 2.070794 2.411341 4.449981 4.987354 2.454680 3.089209 6.034945 6.696712 3.018592 3.344270 2.559660 1.652014 4.817479 3.738643 5.114090 6.045473 1.494245 1.486718 2.025736 2.286655 2.552914 2.391338 2.616117 3.014582 0.538922 1.011829 0.611363 0.765178 0.201138 0.594678 0.093706 0.989509 -2.467183 -2.166371 -1.500787 -2.233355 -1.747467 -1.708954 -2.099493 -1.503551 -1.722038 -1.287174 -0.967319 -0.858789 -0.936221 -0.801367 -0.107188 -0.664100 -0.342890 0.033147 -0.022554 -0.295179 0.175930 -0.126767 6.564065 -0.965691 0.245245 0.066456 -0.999846 -0.527926 -1.122786 -1.547997 -0.096598 -0.604293 0.053574 0.066456 0.911460 0.510437 0.040007 0.356266 1.459332 -0.072224 -0.139394 0.315909 0.484444 0.591942 1.381016 -0.608361 -0.096598 1.558255 -0.842041 0.066456 0.621915 0.231663 0.040007 -0.470713 0.193412 2.093595 -0.264401 0.384430 -1.063242 1.897615 -0.547771 0.891311 2.878825 0.854325 0.185118 0.315909 0.699828 -0.580560 0.413259 0.693525 0.372117 0.663432 -0.803769 0.066456 -0.203209 -0.098055 -0.342890 0.033147 -0.096598 0.578274 0.596308 0.066456 0.127534 -0.669690 0.040007 -0.196096 0.831081 -0.737256 0.038946 0.259319 -0.011630 -0.632871 -0.214740 0.930061 0.692470 -0.790983 -0.409390 0.384430 0.438083 -0.420127 -0.518522 0.121443 0.484444 0.236936 -0.401655 0.066456 -1.576637 -1.931184 -0.022554 -0.295179 -0.096598 -1.295850 0.735153 0.315909 -0.039930 0.134774 0.551049 -1.553256 -0.319620 -0.152361 0.154025 0.107905 -0.931900 -0.627988 -0.569110 -0.213841 0.479332 -1.280930 -0.658946 0.066456 -0.026652 -0.296659 -0.797255 -0.506684 -0.508950 -0.504022 0.539365 0.315909 -0.022554 -0.295179 0.175930 -0.126767
-0.637326 -1.172178 1.573223 2.202079 2.505927 0.011466 0.331083 1.736448 2.319296 1.230871 -0.779304 1.495250 2.543085 0.420104 0.019166 -0.483353 -1.223707 -0.716565 -0.546148 1.898766 1.654961 -4.996039 -4.443021 -2.451141 -0.281465 0.540444 -1.235632 -0.328610 -0.089845 -1.564505 1.434233 -0.708727 -1.533486 -5.988283 -5.608833 -5.470167 -4.870303 -5.674849 -5.461012 -5.636082 -5.873097 -4.604777 -4.160920 -3.904456 -4.551858 -3.226110 -3.382771 -2.361894 -4.825246 5.781886 4.850523 4.252222 4.168379 3.639796 3.574266 2.528057 3.040301 4.409181 4.614370 5.701605 4.612506 6.226924 6.432402 6.486392 4.644521 -0.072373 -1.623217 -0.013414 -1.354068 -0.203681 0.089168 -0.463734 0.109016 -0.472536 0.377460 1.019046 3.361118 -0.286129 0.161037 -0.635115 -0.461059 -0.357903 0.377460 -0.433812 0.048939 0.396665 -1.734852 -1.263830 1.003199 0.391000 0.505032 -0.363643 -0.178831 -1.291552 1.086697 -0.635115 0.564123 -0.139929 0.377460 0.425505 -0.363910 0.396665 -0.492856 0.202305 -0.575238 -0.053407 -0.743301 -0.276840 -1.714297 -0.462990 -0.238928 -4.994104 0.733342 0.947300 0.505032 -1.109347 -1.296151 -0.005014 -1.705539 1.452711 1.259825 0.538448 0.377460 -0.716299 -0.510189 -0.072373 -1.623217 -0.635115 -0.184270 0.210723 0.377460 0.258521 1.533687 0.396665 2.904308 0.168869 0.280503 0.190861 -0.362082 0.952534 -1.274040 0.509139 -0.385730 -1.924733 -0.389500 -0.102394 -0.743301 0.260528 1.545277 0.474679 0.517700 -0.363643 -1.543536 2.210245 0.377460 1.800209 0.358199 -0.013414 -1.354068 -0.635115 -0.390752 -0.386204 0.505032 0.820156 1.441539 0.144624 0.245826 -0.591071 -0.015094 1.007608 1.562806 0.577073 0.685339 -0.612393 -1.192940 0.478034 -0.065374 -0.251844 0.377460 1.274058 -2.623657 1.424769 2.512356 0.449987 0.327063 0.574365 0.505032 -0.013414 -1.354068 -0.203681 0.089168
0.724784 2.473967 2.007834 1.160460 2.045776 2.537956 2.231967 1.637908 1.056139 1.161007 3.412724 3.089453 1.355320 1.926364 2.783979 2.728077 3.984010 -1.199923 -1.050814 -1.817528 -1.040458 -1.567836 -5.693354 -1.448331 -0.437959 -0.638758 -1.928204 -8.306016 -1.200579 -1.609067 -2.661177 -2.069322 -2.198830 2.470909 2.045916 1.907226 2.076274 0.298512 1.407550 1.715289 2.248322 -0.992145 -1.154438 -0.460328 0.512233 -1.909938 -0.289087 1.900738 1.221795 -2.012471 -1.700891 -1.389636 -1.618791 -0.042263 -0.679905 0.323234 -1.104028 0.246762 0.001918 -0.144675 -1.384865 0.294907 -0.761379 -1.831513 -0.470448 0.681889 0.383064 -0.825466 0.435120 -0.650644 -0.275332 -0.066933 0.073035 -0.021371 -0.092066 -0.062049 -1.082840 0.167328 0.728431 0.666659 0.440151 1.334233 -0.092066 0.663231 -0.202347 -0.316457 -0.103309 0.612023 -0.444047 -0.001610 -0.050484 0.009004 -0.408567 -0.219910 0.256814 0.666659 -0.372997 0.054749 -0.092066 -0.369564 -0.735028 -0.316457 0.105171 -0.922324 -0.172188 0.230176 -0.413511 0.517314 -2.938272 0.132274 0.660795 0.147998 -0.071112 -0.273523 -0.050484 0.719113 1.611225 0.921776 -0.530481 -0.812959 0.240582 -0.262781 -0.092066 0.133437 1.029090 0.681889 0.383064 0.666659 -0.167111 -0.481913 -0.092066 -0.546857 0.120080 -0.316457 0.262822 0.358468 -0.806176 0.551494 0.331312 -0.320024 1.086598 -0.217617 0.245261 0.798305 -0.000044 0.215934 -0.413511 -0.513139 -0.381426 0.766186 -0.468394 0.009004 -0.019843 -0.547330 -0.092066 0.622089 0.959782 -0.825466 0.435120 0.666659 -0.046132 -0.122221 -0.050484 -0.293069 -0.563008 -1.098844 0.610888 0.974567 -0.064718 -1.063517 0.929425 0.000493 -0.149745 -0.249730 1.178194 -2.142244 0.617244 -0.208519 -0.092066 -0.413948 0.821548 -1.012472 -0.853713 -1.341947 1.050639 -0.350179 -0.050484 -0.825466 0.435120 -0.650644 -0.275332
0.214946 -8.118134 3.186850 2.628002 3.203993 0.652702 1.214827 2.479904 3.435777 11.635983 13.500679 9.942939 11.750449 8.179290 6.445981 6.456818 3.526495 -9.559302 -12.586525 3.096617 0.830877 -1.241925 -5.591677 0.545562 1.078519 -6.784428 -7.164313 -6.154500 -6.626777 -7.894382 -6.765472 -7.865886 -7.223999 0.499940 -0.533317 0.345370 0.302375 0.682361 0.940350 0.838127 -0.044833 2.416182 2.791362 3.080162 2.224740 2.900253 3.813070 2.320515 2.044263 7.836393 6.988346 -3.698564 8.771320 -5.187107 -5.057049 -4.899205 4.462139 -5.506296 -4.801720 -7.205966 -6.687584 -5.797081 -5.753130 6.385969 -4.256437 0.203080 -0.832468 -0.271284 -0.058476 -0.185208 1.363936 -0.019624 -0.219649 0.355808 -0.090348 0.585861 0.948343 0.105864 8.370150 0.211786 1.297242 -0.273914 -0.090348 0.314712 -1.425220 0.148152 -2.509326 0.263381 1.313119 0.221250 -0.157011 -0.488444 1.535749 -0.916639 1.332494 0.211786 -0.651847 0.420359 -0.090348 0.291199 -0.888475 0.148152 0.927354 0.277179 0.742914 0.502704 -0.745725 0.123975 2.547360 -0.340805 -0.075340 -5.531907 -0.260689 -0.010707 -0.157011 0.070267 2.597080 0.960862 0.575003 0.507902 -0.764368 0.354176 -0.090348 -0.120417 -0.477416 0.203080 -0.832468 0.211786 -0.511194 -0.058438 -0.090348 -1.180413 0.963569 0.148152 0.717568 -0.716321 -0.018724 -0.727268 0.265158 -0.433005 0.350887 1.181120 -1.314059 0.286829 -0.437448 0.100352 -0.745725 0.013924 -0.108769 0.072331 -0.591237 -0.488444 -1.971333 0.216640 -0.090348 1.921000 1.049636 -0.271284 -0.058476 0.211786 -0.306980 -0.159902 -0.157011 -0.182663 0.970665 0.013528 -1.110172 -1.025814 0.918533 0.012240 -0.365320 0.834582 -1.028367 -0.334403 -1.343100 -1.427153 1.354091 -0.631920 -0.090348 -0.921197 -0.658775 -0.598034 -2.376382 1.150301 0.842010 -0.153168 -0.157011 -0.271284 -0.058476 -0.185208 1.363936
1.162338 -1.894485 -1.781671 -2.070364 -2.173933 -0.472129 -0.336016 -2.449325 -2.465095 -1.862714 -3.417678 -3.258751 -2.460354 -3.106479 -3.040125 -2.900308 -2.549380 0.988459 2.327443 1.629254 1.342062 2.252057 1.293845 2.693797 2.871402 0.524626 1.350980 2.107923 2.486749 2.314476 2.813627 4.365800 6.038644 1.097530 1.031760 1.510912 1.288325 1.707864 1.497784 1.595006 1.546957 5.001665 4.403257 4.637357 3.626282 3.348447 3.085492 0.497829 3.626767 -3.073348 -2.624726 -1.998925 -2.832558 -2.332779 -2.970799 -2.280948 -2.116438 -2.588861 -2.808970 -2.647404 -2.600166 -3.284205 -2.895520 0.887495 -2.172744 -0.151675 0.158941 0.529677 -0.014259 -0.585677 -0.146442 0.096840 -0.988036 2.104752 -0.195471 -0.002463 -1.125390 -0.877694 -0.261584 1.130020 -0.458023 0.684527 -0.195471 0.302692 1.044663 0.585573 1.259342 -0.179140 -0.151986 -0.463502 -0.569534 0.320707 0.849056 0.867525 0.156166 1.130020 1.296536 -0.167069 -0.195471 0.749148 0.433725 0.585573 -1.223708 -0.547038 1.767002 2.546804 1.382907 -0.183415 0.164515 -0.163585 1.637961 3.903144 -1.127094 1.197374 -0.569534 1.940975 -1.746346 0.720191 1.482875 -0.127785 0.513006 0.467437 -0.195471 -0.583817 0.025054 -0.151675 0.158941 1.130020 0.051177 -1.513242 -0.195471 -0.195317 -0.799399 0.585573 -0.613025 -0.136996 -1.983860 -1.127106 -0.785492 -2.022083 -1.576262 -0.235796 0.708002 1.284126 0.726417 -1.273588 1.382907 0.581386 0.365997 0.088839 0.009162 0.320707 3.276911 -0.747891 -0.195471 -1.826984 -0.464892 0.529677 -0.014259 1.130020 -0.744683 -1.603795 -0.569534 -0.500220 -0.540119 -1.000289 -2.135237 -0.556521 0.431859 -0.470393 0.253907 -0.058156 -0.679399 0.718726 1.377340 0.665069 -1.549337 -1.086111 -0.195471 0.875721 0.889789 -1.695753 -1.242660 -0.781947 -0.727498 0.397738 -0.569534 0.529677 -0.014259 -0.585677 -0.146442
-0.301102 -0.132654 0.266555 1.467247 1.152842 -0.408929 -0.544067 0.365084 0.672089 -0.604505 -0.405557 0.198089 -0.385052 -0.457928 -1.310366 -0.959907 -1.779846 -0.315081 1.598068 -0.212666 0.360307 -2.840645 -1.412843 -0.437883 1.397468 1.876458 1.407133 1.536388 -0.278830 0.480407 -0.008911 0.075016 -0.658583 -2.864867 -2.181706 -2.874646 -2.560512 -3.408185 -3.387171 -3.373491 -2.956680 -2.721720 -2.195232 -1.463734 -2.356246 -1.741558 -1.381980 0.861512 -2.593610 2.658571 2.210873 2.234153 1.891845 1.399486 0.952703 0.945905 1.472388 2.832166 2.545035 2.748666 2.531065 3.732338 3.224462 3.269432 2.249638 -0.085098 -1.045173 -0.037777 -0.594197 -0.247377 0.188901 0.602265 -1.418345 -0.342454 -0.095578 1.150232 1.665403 -0.100031 -0.765372 -0.253504 -0.517024 -0.362053 -0.095578 -0.665204 -0.844028 0.198825 -0.160503 -0.529580 1.713411 0.258652 0.267018 0.020752 0.743026 -0.627956 -0.936074 -0.253504 2.010268 0.699275 -0.095578 0.262343 0.585131 0.198825 -0.725826 0.810072 -0.407787 0.543058 0.341997 -0.359648 1.781987 -0.325962 0.797384 -3.750739 2.026599 0.190631 0.267018 -1.042516 -0.084176 0.180921 -0.443877 0.782349 0.666691 0.317710 -0.095578 -0.422790 -0.626714 -0.085098 -1.045173 -0.253504 -0.346515 -0.721987 -0.095578 0.234317 -0.757899 0.198825 1.098770 -0.340946 0.603278 -0.727025 1.546189 0.523858 -1.093833 0.148355 0.024093 -0.821228 0.866030 0.512263 0.341997 0.076465 0.976983 0.722162 0.483919 0.020752 -1.829281 0.821793 -0.095578 0.469948 0.558891 -0.037777 -0.594197 -0.253504 -1.138533 0.388744 0.267018 0.956405 -0.496427 -0.185493 0.050893 0.977892 -0.088838 0.026668 1.301280 -0.600840 0.255842 -0.560083 -0.519770 -1.269941 -0.693436 0.821844 -0.095578 0.957655 -2.362556 -0.031322 1.176165 0.525741 0.093261 0.473605 0.267018 -0.037777 -0.594197 -0.247377 0.188901
0.968050 2.004812 2.286464 1.340474 1.517270 2.982361 2.167781 1.972366 1.750232 1.131643 2.515530 1.944858 0.507526 1.428413 1.858619 2.172661 2.813122 -1.203257 -1.422333 -1.981561 -0.841800 -0.711766 -5.951783 -1.327214 -0.430734 -0.459123 -1.808098 -6.302784 -1.046433 -1.141360 -1.775667 -1.344904 -1.677265 2.371421 1.818980 1.217508 2.095807 -0.202378 1.247403 1.400196 2.116372 -1.055404 -1.687638 -0.353147 0.532837 -1.712190 -0.033171 1.997788 0.864106 -1.163269 -1.168958 -0.894417 -1.237421 0.214388 -0.256425 0.683362 -0.737224 -0.244700 -0.163641 -0.105659 -1.309736 -0.397941 -0.898667 -1.505275 -0.464856 0.693065 0.170933 -0.612996 0.298591 0.191249 -0.524355 -2.001880 0.523995 -2.290730 0.092145 -0.108578 -0.490341 0.107764 1.082235 0.896008 0.281512 0.688980 0.092145 1.536818 -0.185309 -0.174937 -0.461457 1.432669 -0.412492 -0.858165 -0.159230 -0.208659 -0.566514 -0.176757 0.238061 0.896008 0.264514 0.008640 0.092145 -0.259427 -0.363614 -0.174937 0.166169 -0.937662 -0.149943 0.854385 -0.356491 0.676229 -2.432210 0.061466 0.395026 -0.233432 -0.295890 0.135326 -0.159230 0.675548 0.801726 0.719622 -0.300121 -0.757034 0.459578 -0.098533 0.092145 0.124422 0.171848 0.693065 0.170933 0.896008 -0.260236 -0.141951 0.092145 -0.691912 -0.287253 -0.174937 0.107128 0.133045 -0.978701 -0.412838 0.079768 -0.361029 0.738027 -0.123966 0.105353 0.151123 -0.140511 1.056990 -0.356491 -0.994671 -0.151175 0.728855 -0.371533 -0.208659 -0.208058 0.026671 0.092145 0.603650 0.521274 -0.612996 0.298591 0.896008 -0.064180 0.729963 -0.159230 0.321910 -0.738626 -0.943315 0.363850 0.642051 0.403620 -1.226725 0.399429 -0.048119 0.561255 -0.025368 1.049725 -1.129323 0.144559 -0.291624 0.092145 -0.558215 -0.247561 -0.640424 -0.369515 -1.236717 1.778992 -0.740498 -0.159230 -0.612996 0.298591 0.191249 -0.524355
-2.721779 2.088308 2.583854 1.144200 0.830807 0.927054 0.755642 1.069808 1.666373 4.540178 7.651778 5.648684 6.012943 6.402934 8.759050 7.983018 8.437228 -2.720552 -6.067431 1.196663 0.567392 0.057535 -3.373993 -0.078094 0.344565 -8.204751 -6.799758 -7.120905 -6.230586 -9.329136 -8.626191 -6.700317 -6.138081 1.287553 1.074706 2.317268 1.947497 3.084584 3.221129 2.686467 2.669201 2.327818 3.100371 2.948832 3.357356 1.974874 2.721663 2.596842 2.806056 -4.801122 -4.070718 -4.093418 -4.695533 -3.449977 -2.493746 -6.315257 -3.451970 -3.267807 -1.798340 -2.213042 -2.189859 -0.806677 -3.001074 4.376315 -0.571770 -0.974707 -0.253443 0.229702 -0.056877 -0.410630 0.215502 2.295781 0.490872 0.050483 -0.132305 -0.767023 -0.066530 -0.345594 -6.234534 -2.682701 1.344476 -0.146344 -0.132305 0.509316 0.658805 0.370494 0.568418 1.565493 0.173459 -0.215458 3.281166 -0.462671 0.231142 -0.043284 0.816899 -2.682701 -0.993024 -1.025746 -0.132305 0.478144 0.041432 0.370494 0.507451 0.257517 -0.138296 -1.499566 -0.784838 -0.757408 3.089637 0.509178 -0.119644 -0.151911 -0.138139 1.038076 3.281166 0.424240 -0.681907 -0.020591 -0.172591 -0.153666 0.567132 -0.370174 -0.132305 0.378460 1.985175 -0.974707 -0.253443 -2.682701 0.507456 1.556131 -0.132305 -0.402675 0.075358 0.370494 0.489021 0.089066 0.288306 1.019172 -0.371007 1.094272 0.281997 -0.040670 0.719628 0.573260 -0.642959 -0.148250 -0.784838 -0.230308 0.415886 0.120797 -0.466734 -0.462671 -1.259668 1.425760 -0.132305 0.249009 0.159080 0.229702 -0.056877 -2.682701 -0.010857 -0.923182 3.281166 0.093838 0.887144 0.343414 0.068619 0.287659 0.304900 1.009893 -1.569428 0.388723 -1.105412 0.137378 -0.522255 -0.569290 0.511184 -0.532584 -0.132305 0.005344 1.134335 0.439649 -1.003432 -0.255420 -0.810144 -0.137716 3.281166 0.229702 -0.056877 -0.410630 0.215502
1.274907 2.000022 3.791729 2.266417 3.854944 2.173045 5.486602 1.661955 -1.054170 1.169887 6.660940 2.925412 -1.376168 3.633820 4.112470 4.412051 5.414583 -2.597704 -2.754038 -3.377797 -2.542316 -2.086634 -5.163246 -1.870653 -1.409915 -2.801786 -3.786300 -3.287786 -2.101879 -3.313822 -2.503189 -3.207365 -3.054205 2.114767 1.929352 1.942895 2.069520 1.500530 2.032797 2.369404 2.447255 0.151829 0.920804 0.722382 1.673679 -0.432130 1.154838 1.784707 1.364518 -1.849555 -1.771745 -1.637167 -1.234089 -1.132565 -1.895056 -0.438312 -1.054141 -0.568916 -1.086076 -2.493202 -2.867356 -0.514222 -1.047412 -1.684754 -1.197674 -2.899385 0.595493 -0.234730 0.184659 -0.165643 -0.497999 -0.485923 0.472636 0.220767 -0.041538 -1.430947 0.160240 0.501327 3.414057 1.264792 0.028112 0.114780 -0.041538 1.660112 -0.682119 -0.039845 -0.078598 1.176157 -0.306632 -0.404460 0.014713 -0.243841 0.190350 0.080262 0.050819 1.264792 0.541764 0.481942 -0.041538 0.105387 0.350525 -0.039845 0.114233 -1.477286 0.359008 0.991519 -0.528841 0.439218 -3.553598 0.487283 -0.251855 1.618155 0.219823 -0.234522 0.014713 0.463723 0.569407 0.032682 0.104135 0.551644 0.047267 0.165766 -0.041538 -0.503016 1.045505 -2.899385 0.595493 1.264792 -0.283974 0.205727 -0.041538 -0.014622 0.398222 -0.039845 -0.330357 1.035290 -0.877499 -0.530297 0.118703 0.155604 0.828229 -0.428857 1.798638 0.747343 0.466032 0.275094 -0.528841 -0.213403 -1.147298 0.295427 -0.426975 -0.243841 -0.263879 -0.198277 -0.041538 -0.045145 0.145031 -0.234730 0.184659 1.264792 -0.483641 -0.178265 0.014713 0.355179 0.110885 -0.196706 0.007342 0.802848 -0.438807 -0.542375 -0.539373 0.057183 -0.498234 -0.266909 0.159126 -0.777929 0.347997 -0.373858 -0.041538 -0.735852 0.133376 0.189584 -0.693495 -0.702873 0.783811 -1.490862 0.014713 -0.234730 0.184659 -0.165643 -0.497999
0.208831 0.017496 -1.001414 2.155245 2.503091 0.315787 0.333037 2.894605 3.457046 7.230147 8.344865 8.958687 10.740541 6.931509 6.784436 5.359817 8.242029 -11.706971 -0.337318 -0.220815 -0.208242 1.298410 -13.356555 1.717695 2.429625 -6.538350 -7.800368 -5.193227 -4.397249 -7.859966 -5.340294 -7.762721 -7.781746 1.835956 1.999863 2.386800 1.841770 1.765859 1.759287 1.503357 1.101349 3.336073 3.280640 4.548738 3.457843 3.242265 3.511735 3.011439 2.575371 5.576120 4.566145 -4.053331 5.785168 -6.706452 -6.614646 -6.939443 4.813189 -6.279542 -5.618205 -6.139782 -5.918601 -7.998995 -7.892266 7.744238 -5.273111 0.302546 -0.407421 -0.140159 -0.556853 -0.418478 1.235206 0.098247 -0.549503 0.357487 0.568085 0.479627 1.508911 0.110394 6.983957 0.190497 0.382644 -0.135190 0.568085 -0.682388 0.525319 -0.011433 -0.162515 -0.630292 -0.189163 0.791309 -0.371476 -0.184219 1.089253 -0.571520 0.928989 0.190497 -0.697554 -0.574381 0.568085 0.488429 -1.699320 -0.011433 -0.480838 0.728295 0.241408 0.277335 -0.329904 -0.245644 1.950486 0.459185 -0.079515 -5.837845 0.640853 0.616933 -0.371476 0.033366 0.619848 0.880026 0.113370 0.356914 1.283746 -0.348345 0.568085 -0.537552 0.835171 0.302546 -0.407421 0.190497 0.674988 0.331546 0.568085 -0.113509 1.445708 -0.011433 1.676137 -0.453306 -0.462291 -0.324373 0.043805 0.304963 -0.174390 0.288175 -0.359286 -1.000040 0.140522 -0.722659 -0.329904 -0.471072 0.421549 -1.002254 0.419978 -0.184219 -1.241862 1.176624 0.568085 0.394696 1.012775 -0.140159 -0.556853 0.190497 0.542672 -0.286082 -0.371476 0.972227 0.341950 -0.373121 -1.149290 -1.446627 0.078379 1.502772 -1.256682 -0.672120 -1.797093 -0.435355 -1.765760 0.299451 -1.108081 -0.134207 0.568085 0.296765 -0.438419 -1.014288 0.106737 0.457342 0.265790 -0.755920 -0.371476 -0.140159 -0.556853 -0.418478 1.235206
-1.722393 -22.563791 -22.790834 -5.268467 -4.620286 5.356845 -2.942298 3.065727 2.346820 -22.512356 -21.859061 -3.280707 -11.640903 -11.059163 -3.315026 -2.256797 3.986920 6.634430 6.346159 5.822744 3.671054 6.131437 5.486057 5.669883 6.246629 9.138710 9.157098 7.986771 9.025609 9.372856 8.859945 9.142131 8.939470 -4.686289 -4.832104 -5.068253 -4.674283 -5.507437 -4.687722 -4.184502 -4.194028 -6.632539 -6.373107 -5.486199 -5.477435 -4.564791 -5.096389 -4.169720 -5.477503 -2.408131 -2.636401 2.927620 -1.810618 10.721906 10.487889 -2.237700 -1.820248 17.964555 18.001734 15.988145 18.384555 -1.247804 -0.760861 -2.003466 -0.161266 0.004729 1.044647 0.534612 0.361957 -0.054902 -0.234831 1.762267 -0.345093 -0.184638 0.056450 -0.356367 0.261855 0.121599 -2.629703 -1.733792 0.052923 0.425029 0.056450 -0.678124 0.175467 0.582462 -1.575462 -0.132553 -0.620416 -0.306294 0.199397 0.268634 1.009591 1.025635 -0.373692 -1.733792 0.317574 -0.022835 0.056450 0.019075 1.085641 0.582462 0.674119 0.149022 0.041013 0.970638 -0.064408 0.837805 0.427840 -0.041624 -0.390789 1.147055 0.329975 -0.127739 0.199397 -0.163404 0.113697 0.113498 -0.181271 -0.462571 -0.279510 1.041740 0.056450 -0.064050 -0.490268 0.004729 1.044647 -1.733792 0.174998 -0.206535 0.056450 0.184681 -0.598193 0.582462 -0.192012 -0.147725 -0.436426 -0.744448 0.376192 -0.132343 0.743762 -0.101643 -0.535461 -0.404328 0.272599 0.685148 -0.064408 -0.251392 0.154892 0.305805 0.281593 0.268634 -1.661943 -0.717218 0.056450 0.096419 0.412221 0.534612 0.361957 -1.733792 0.433408 -0.260383 0.199397 -0.443121 0.316066 0.596999 0.005938 0.384002 -0.119823 1.095169 -0.151206 -0.207205 -0.826524 0.092152 0.503307 1.359470 0.325219 0.137512 0.056450 -0.259676 0.640281 -0.119462 0.392137 0.390582 0.116181 -0.521957 0.199397 0.534612 0.361957 -0.054902 -0.234831
-0.116077 -5.688706 -5.611358 -5.233091 -5.517056 -5.030733 -4.752411 -5.048953 -5.294875 -4.850816 -4.486460 -4.199891 -4.364993 -4.821860 -4.204128 -4.718308 -4.936907 5.335722 5.264606 4.901311 5.379475 4.667059 4.294859 4.897074 5.266028 5.151283 4.825343 4.312925 4.621511 5.075648 4.510469 4.977695 5.163460 1.139367 0.581245 0.615875 0.420518 0.553759 0.564187 0.392804 0.421639 0.276728 0.326806 0.338534 0.319573 -0.015583 0.255680 0.129707 0.286547 -0.591943 -0.522741 -0.583550 -0.457891 -0.512017 -0.606966 -0.331579 -0.472887 -0.513388 -0.553549 -0.466825 -0.670506 -0.007542 -0.046816 -0.101388 -0.283876 0.035024 0.043062 0.080303 -0.016987 0.046259 -0.002219 -0.039121 -0.044718 0.106093 0.041276 0.020347 0.087835 -0.014899 0.038817 -0.115665 0.035726 0.033040 0.041276 0.057157 0.023930 0.005558 0.135748 0.070733 -0.023047 -0.024512 0.027915 -0.004781 0.031079 0.004015 0.246940 -0.115665 -0.015138 -0.011571 0.041276 -0.025257 0.056581 0.005558 -0.106891 -0.048299 0.085224 -0.029955 -0.033770 -0.007355 0.011922 -0.002048 0.072534 0.042649 -0.039854 0.007963 0.027915 0.061243 -0.036961 0.047412 0.044451 -0.026470 0.075437 -0.025121 0.041276 0.074727 0.018448 0.035024 0.043062 -0.115665 0.068462 -0.073964 0.041276 -0.071599 -0.045058 0.005558 -0.011204 0.066035 -0.035084 0.031973 -0.068350 -0.024792 0.010974 0.004847 0.081120 0.039299 -0.060866 0.013490 -0.033770 -0.036756 0.002080 -0.007371 -0.086558 -0.004781 -0.013804 0.018018 0.041276 0.090550 0.045893 0.080303 -0.016987 -0.115665 -0.056287 -0.021854 0.027915 0.019339 -0.020360 -0.035807 -0.022771 -0.146465 0.044840 -0.043872 0.017674 0.150724 0.088568 0.002215 -0.009464 -0.217918 0.088588 -0.056120 0.041276 -0.019180 -0.045016 0.248950 -0.023484 -0.233835 0.060715 -0.003476 0.027915 0.080303 -0.016987 0.046259 -0.002219
0.263431 0.033692 0.018450 0.004474 0.019358 0.017987 0.003095 0.010163 0.009687 0.014727 0.004303 0.001485 0.001902 0.018982 0.002012 0.005594 0.006731 0.016202 0.009769 0.002706 0.005121 0.003867 0.001041 0.002390 0.001686 0.011328 0.004350 0.001820 0.002285 0.010612 0.002225 0.007289 0.008098 0.006372 0.006169 0.010007 0.007018 0.007737 0.010800 0.006548 0.007151 0.010348 0.006958 0.011293 0.005740 0.006601 0.008038 0.006000 0.007334 0.011323 0.007162 0.005877 0.007394 0.017634 0.014103 0.008279 0.005385 0.005683 0.012038 0.007143 0.010695 0.005165 0.006612 0.007048 0.007778 0.181224 0.069465 0.207112 0.071194 0.138892 0.109417 0.230068 0.073224 0.138743 0.039561 0.179501 0.109302 0.078070 0.113279 0.238213 0.068741 0.130000 0.039561 0.174091 0.053816 0.057773 0.107981 0.194189 0.110799 0.106403 0.046188 0.129104 0.106317 0.158305 0.073212 0.238213 0.059692 0.116765 0.039561 0.156721 0.054748 0.057773 0.111089 0.186675 0.052036 0.089910 0.035368 0.100547 0.114826 0.151065 0.126732 0.223683 0.105550 0.108340 0.046188 0.164507 0.052153 0.121763 0.079384 0.159483 0.103773 0.176823 0.039561 0.191972 0.075081 0.181224 0.069465 0.238213 0.060587 0.114876 0.039561 0.140766 0.054274 0.057773 0.112736 0.170482 0.064655 0.096206 0.044379 0.084966 0.111311 0.144454 0.172991 0.218860 0.046560 0.087682 0.035368 0.149209 0.044293 0.113567 0.121332 0.129104 0.104939 0.180270 0.039561 0.180586 0.110565 0.207112 0.071194 0.238213 0.093181 0.115919 0.046188 0.168330 0.056171 0.066037 0.082923 0.187707 0.053185 0.142087 0.043419 0.170932 0.075125 0.186908 0.118034 0.213653 0.094253 0.179958 0.039561 0.209931 0.052045 0.140939 0.072384 0.208962 0.075050 0.183967 0.046188 0.207112 0.071194 0.138892 0.109417
-0.939072 0.053742 0.613695 1.390726 1.100838 -0.674178 -0.093806 0.422482 0.978856 -0.197965 0.116151 -0.014581 -0.153654 -0.223777 -1.008311 -0.455107 -1.243359 0.097013 0.743632 -1.035750 0.058639 -2.200538 -2.652675 -0.476467 1.237259 1.612293 1.435773 0.278919 -0.782993 0.751504 0.249366 -0.169265 -0.697536 -2.068256 -2.139745 -3.017007 -2.575145 -3.065396 -2.816587 -3.213727 -2.711882 -2.914387 -2.654842 -1.334780 -2.089197 -1.742771 -1.576299 -0.091908 -2.555490 2.349590 1.713128 1.506352 1.265606 1.506209 1.070667 1.010069 1.570382 2.794301 2.496798 2.797729 2.320956 3.735169 3.208892 3.801784 2.480714 -0.025217 -0.843619 -0.140488 -0.496898 -0.307821 0.078518 0.760346 -0.366410 -0.160716 -0.084129 1.306781 1.877379 0.034940 -0.648724 -0.883660 -1.957336 -0.837065 -0.084129 -0.929446 -0.307082 0.236336 -0.290792 -0.443719 0.380878 0.348650 0.199158 -0.175277 0.363626 -0.519462 -1.019779 -0.883660 1.934654 -0.592996 -0.084129 0.045768 -0.449062 0.236336 -0.722393 0.635961 -0.414989 0.381304 0.470628 -0.257052 2.017664 -0.476021 0.695862 -2.073093 3.822605 -0.804171 0.199158 -1.067977 0.201478 0.287486 -0.544375 0.435059 0.827928 0.463923 -0.084129 -0.168097 -0.184245 -0.025217 -0.843619 -0.883660 -0.094264 0.998331 -0.084129 0.230869 0.345136 0.236336 1.020512 -0.173459 -0.497187 -0.542896 0.847162 0.665264 -1.077248 0.005186 0.101326 -1.299498 1.369933 -0.202874 0.470628 0.099262 1.304786 0.194113 0.889488 -0.175277 -1.234678 0.584830 -0.084129 0.423625 0.206731 -0.140488 -0.496898 -0.883660 -0.766444 1.000225 0.199158 1.116473 -0.405758 0.507871 0.290770 0.307008 0.067834 -0.205469 0.332116 -0.680446 -0.002227 -0.543627 -0.636406 0.457022 -1.031068 0.569879 -0.084129 1.043806 -1.782651 -0.188139 0.821336 0.252495 0.107112 0.669496 0.199158 -0.140488 -0.496898 -0.307821 0.078518
0.596047 2.223635 1.534380 0.987825 1.140826 2.095627 1.823040 1.762869 1.690778 0.546584 0.396107 2.296465 1.205344 1.017417 2.579050 2.236216 3.021863 -0.647631 -1.001208 -1.536132 -0.634501 -1.280053 -5.702851 -1.205447 -0.087189 0.083092 -0.833784 -7.070696 -1.150412 -0.665158 -1.569697 -1.091364 -1.568944 1.917107 1.377704 0.731485 1.646662 -0.350896 1.174403 1.321596 1.771559 -1.614347 -1.905583 -0.432089 0.225696 -1.295932 -0.073295 1.965667 0.797754 -1.615427 -1.631966 -1.141427 -1.681502 0.219593 -0.107030 0.360345 -0.854148 0.656723 0.349497 0.656546 -0.707058 0.568576 -0.261354 -1.301193 -0.171617 0.486338 0.135479 -0.682997 0.062251 0.256307 -0.265466 0.429000 0.201446 -0.655243 0.061687 -0.445910 -0.616297 0.038917 1.218131 0.532049 0.992072 -1.888922 0.061687 1.535554 -0.049056 -0.159771 0.209630 1.313225 -0.393145 -0.442987 -0.052764 -0.151855 -0.872569 -0.130144 -0.007393 0.532049 0.139334 -0.114162 0.061687 -0.045321 -0.051674 -0.159771 -0.001386 -0.616604 0.377643 0.390742 -0.851881 0.401262 -2.336037 0.249100 0.785036 -0.132191 -0.030589 -1.060433 -0.052764 0.414480 1.053563 0.683512 -0.288104 -0.812320 -0.481256 -0.004653 0.061687 0.208535 0.463240 0.486338 0.135479 0.532049 -0.084165 0.619187 0.061687 -0.508692 -0.737624 -0.159771 -0.467656 0.199120 -1.139958 -0.117246 -0.387054 -0.633534 0.873184 -0.415982 -0.104923 -0.612884 0.015751 1.186947 -0.851881 -0.556392 -0.565079 0.618232 -0.180021 -0.151855 0.545671 -0.049315 0.061687 0.370306 0.170518 -0.682997 0.062251 0.532049 -0.469682 1.868368 -0.052764 0.272808 -0.454037 -0.699188 0.373143 0.585207 -0.006255 -0.789531 0.550571 -0.322625 0.714504 -0.153568 0.813940 -1.029960 0.717252 -0.417599 0.061687 -0.762241 -0.343256 -0.354687 -0.538946 -1.065044 1.205321 -0.614270 -0.052764 -0.682997 0.062251 0.256307 -0.265466
-2.721779 2.088308 2.583854 1.144200 0.830807 0.927054 0.755642 1.069808 1.666373 4.540178 7.651778 5.648684 6.012943 6.402934 8.759050 7.983018 8.437228 -2.720552 -6.067431 1.196663 0.567392 0.057535 -3.373993 -0.078094 0.344565 -8.204751 -6.799758 -7.120905 -6.230586 -9.329136 -8.626191 -6.700317 -6.138081 1.287553 1.074706 2.317268 1.947497 3.084584 3.221129 2.686467 2.669201 2.327818 3.100371 2.948832 3.357356 1.974874 2.721663 2.596842 2.806056 -4.801122 -4.070718 -4.093418 -4.695533 -3.449977 -2.493746 -6.315257 -3.451970 -3.267807 -1.798340 -2.213042 -2.189859 -0.806677 -3.001074 4.376315 -0.571770 -0.974707 -0.253443 0.229702 -0.056877 -0.410630 0.215502 2.295781 0.490872 0.050483 -0.132305 -0.767023 -0.066530 -0.345594 -6.234534 -2.682701 1.344476 -0.146344 -0.132305 0.509316 0.658805 0.370494 0.568418 1.565493 0.173459 -0.215458 3.281166 -0.462671 0.231142 -0.043284 0.816899 -2.682701 -0.993024 -1.025746 -0.132305 0.478144 0.041432 0.370494 0.507451 0.257517 -0.138296 -1.499566 -0.784838 -0.757408 3.089637 0.509178 -0.119644 -0.151911 -0.138139 1.038076 3.281166 0.424240 -0.681907 -0.020591 -0.172591 -0.153666 0.567132 -0.370174 -0.132305 0.378460 1.985175 -0.974707 -0.253443 -2.682701 0.507456 1.556131 -0.132305 -0.402675 0.075358 0.370494 0.489021 0.089066 0.288306 1.019172 -0.371007 1.094272 0.281997 -0.040670 0.719628 0.573260 -0.642959 -0.148250 -0.784838 -0.230308 0.415886 0.120797 -0.466734 -0.462671 -1.259668 1.425760 -0.132305 0.249009 0.159080 0.229702 -0.056877 -2.682701 -0.010857 -0.923182 3.281166 0.093838 0.887144 0.343414 0.068619 0.287659 0.304900 1.009893 -1.569428 0.388723 -1.105412 0.137378 -0.522255 -0.569290 0.511184 -0.532584 -0.132305 0.005344 1.134335 0.439649 -1.003432 -0.255420 -0.810144 -0.137716 3.281166 0.229702 -0.056877 -0.410630 0.215502
1.110467 1.561854 4.902236 3.951159 3.198811 5.599627 5.099062 0.181230 -2.293407 -0.159700 4.778224 1.615014 0.630088 5.966697 5.099026 6.681276 7.648288 -2.918854 -3.227906 -3.453798 -2.891457 -2.528075 -5.042374 -2.659280 -2.091406 -3.570724 -4.463653 -3.280219 -2.824150 -4.091031 -2.808653 -3.808226 -3.689213 2.045753 1.830681 1.665781 2.124316 1.317297 1.751544 2.646409 2.299028 -0.246153 1.127784 1.048981 1.562364 0.879888 1.791620 1.810707 1.159462 -1.626597 -1.223923 -1.391194 -1.302033 -0.910381 -1.092348 0.045285 -1.375098 -0.389713 -1.284721 -1.641901 -3.004236 -1.729991 -2.214106 -2.339283 -2.224752 -2.672969 0.494409 -0.325454 0.009443 -0.024212 -0.596363 -1.255044 0.537080 -0.187771 -0.016784 0.731322 0.567199 0.098727 4.274265 1.092166 0.290116 0.044503 -0.016784 -0.149588 -0.433171 -0.035959 -0.271335 0.986224 -0.608732 -0.222372 -0.302118 -0.385763 -0.326034 -0.033681 0.483846 1.092166 0.611431 0.663330 -0.016784 -0.231279 0.119529 -0.035959 0.363656 -1.596549 0.727577 1.037165 -0.640705 0.593706 -2.549336 0.292764 0.253368 2.150495 0.418461 -0.747438 -0.302118 -0.175049 0.013966 -0.080072 0.188332 0.737999 -0.088799 0.305869 -0.016784 -0.268178 1.395475 -2.672969 0.494409 1.092166 -0.099065 0.193180 -0.016784 -0.124874 0.157719 -0.035959 -0.617004 1.214238 -0.990811 -0.534658 0.504613 0.193400 0.326407 -0.311167 1.198749 0.702615 -0.085253 0.464306 -0.640705 -0.408345 -0.958957 0.519990 -0.451294 -0.385763 -0.070828 0.515677 -0.016784 0.096406 -0.410066 -0.325454 0.009443 1.092166 -0.225623 0.545849 -0.302118 1.070734 -0.040362 0.031952 0.009845 0.529456 -0.134714 -0.358373 -1.052737 0.055976 -0.208655 -0.161059 0.583936 -0.025227 0.241859 -0.486127 -0.016784 -1.291842 -0.037144 0.456238 -0.816209 -0.830867 0.306056 -1.147145 -0.302118 -0.325454 0.009443 -0.024212 -0.596363
-0.449158 1.332085 1.004659 0.947151 0.664776 1.116504 1.381622 1.370490 1.743555 1.528782 2.223798 0.550328 0.343868 2.624286 1.664847 3.162028 4.092093 0.038177 -2.306744 -2.337266 -1.230039 1.023744 -1.445546 -0.128088 -4.623134 -0.530482 -1.172187 -0.902104 -0.580594 -2.650892 -1.396383 -3.460074 -4.498416 2.723220 1.506465 1.624459 0.400408 2.042057 1.433483 0.442843 0.347909 0.606031 0.979332 -0.164964 0.894594 -1.266083 -0.179528 -0.982280 0.386145 -2.969131 -2.228352 -1.550179 -1.170010 -1.713898 -1.090049 1.102271 0.011323 -1.243090 -0.384516 0.147659 -0.209044 0.017411 -0.151798 0.239367 -0.051212 -0.068447 0.809763 -0.062424 -0.136398 0.073800 0.615218 -0.415468 -0.437420 -0.292441 0.318631 -0.131167 -1.801818 0.465377 -0.296709 -0.393598 0.747287 0.869593 0.318631 -0.584768 -1.114199 0.183457 0.433692 1.280691 -0.981183 -0.264668 0.711611 0.224563 1.364652 0.186346 0.457756 -0.393598 -0.618503 -0.792451 0.318631 0.606725 -1.575257 0.183457 -0.365935 -0.144173 0.750815 -0.540990 -0.727498 -0.523782 -2.366172 -0.040418 -0.165832 -0.413102 0.251620 -0.046315 0.711611 0.893024 1.597017 0.507464 -0.268777 -0.473461 0.268144 -0.745431 0.318631 -0.204422 1.097337 -0.068447 0.809763 -0.393598 0.081625 0.750916 0.318631 -0.627753 0.404383 0.183457 0.202662 0.633687 -1.074682 0.586345 -1.562166 -0.349434 -0.106641 0.743556 0.181727 0.466673 0.467996 -0.348704 -0.727498 0.277833 -0.901687 -0.135803 -0.364665 0.224563 0.490842 -0.781099 0.318631 -0.148368 -0.332847 -0.062424 -0.136398 -0.393598 0.819881 -0.030590 0.711611 -1.028760 0.742196 -0.422209 -0.300879 -0.060845 -0.180320 1.860113 0.259782 0.167071 -0.978952 -0.357782 -0.259488 -1.176373 -0.115152 0.368285 0.318631 -0.821695 1.280957 -0.168771 -1.560884 -0.441780 -0.535235 0.320218 0.711611 -0.062424 -0.136398 0.073800 0.615218
-2.821092 -7.248046 -10.495851 -10.345474 -9.487135 1.479214 -0.543832 -0.140237 -0.952547 -7.770776 -9.579882 -8.061619 -8.525320 -4.634425 -6.957497 -4.556559 -4.200748 5.104929 4.765737 4.326511 2.223170 5.369437 4.044761 4.188617 5.132435 6.465436 6.444255 6.206683 7.128143 6.593091 7.144141 7.036941 7.025356 -2.453616 -2.594691 -2.914511 -2.182851 -2.646152 -2.609239 -1.885431 -1.499988 -2.623617 -2.651547 -2.885495 -2.245019 -0.701340 -2.331993 -1.867468 -2.753910 1.902049 1.428626 2.360673 1.029743 2.987996 2.528936 0.353729 1.493785 3.258441 3.399699 3.091574 4.194994 0.920694 1.577445 0.736141 2.761253 -0.226575 0.793403 0.926990 0.280267 -0.177112 -0.143064 2.645484 -0.217967 0.658044 0.054862 -0.864613 -0.603850 1.308693 -1.471110 -2.752799 -0.299873 -0.143883 0.054862 -0.341066 0.125597 0.440377 -1.334380 0.737236 -0.927926 -0.177442 -0.017846 0.374499 1.042201 1.284598 -0.850480 -2.752799 1.248956 -0.088609 0.054862 -0.161475 0.751177 0.440377 0.373466 -0.006908 0.646405 0.731512 0.234414 0.248746 0.725954 -0.108777 0.896585 2.071346 -0.260096 0.421858 -0.017846 -0.166164 0.322883 0.052670 0.068402 -0.886944 -0.448324 1.152478 0.054862 -0.006512 -0.330661 -0.226575 0.793403 -2.752799 0.440315 -0.140801 0.054862 0.392114 0.044524 0.440377 -1.382973 0.264306 -0.645287 -0.314798 -0.465574 -0.075404 1.637305 0.137640 -0.400169 0.104348 -0.004292 0.693403 0.234414 -0.127367 -0.397996 0.367310 0.530853 0.374499 -1.585951 -0.985886 0.054862 0.109548 -0.250130 0.926990 0.280267 -2.752799 0.851107 -0.029814 -0.017846 -0.589099 0.886985 1.276868 -0.450465 0.102958 -0.338225 1.421363 0.903972 -0.497062 -0.782097 -0.304836 1.123982 1.924833 0.133086 0.195337 0.054862 -0.870984 1.126217 -0.218885 -0.804678 0.553989 -0.500905 -0.268059 -0.017846 0.926990 0.280267 -0.177112 -0.143064
-0.095845 -9.912568 -7.938904 -2.558035 -8.020872 -3.738632 -2.278181 -3.581456 -4.098917 -1.404184 1.007771 -2.837096 -6.321340 -0.112083 -4.467017 -0.475547 -0.005709 4.548477 4.266133 4.589227 6.757814 4.095756 5.060472 6.862006 7.953908 0.853042 0.618570 2.571201 3.018016 1.476883 0.943227 1.299982 1.732210 2.481189 2.608730 2.574843 2.846077 2.370398 1.030558 1.316575 2.153182 2.236016 2.430412 -0.155067 2.191205 -0.000060 0.957914 1.697393 1.908693 -3.186385 -2.771432 -2.915619 -1.720480 -5.073448 -3.147164 -1.495352 -2.014751 -1.409012 -1.327346 -0.781396 -1.942390 1.027355 0.740932 -1.485066 -1.242348 0.589287 -0.194374 -0.587982 0.236891 -0.438537 -0.030816 -1.285976 -0.798154 1.481834 -0.297326 0.895195 -1.080522 -0.514442 -1.106542 -0.121525 -0.629078 -0.611671 -0.297326 -0.659880 -0.907319 -0.326434 -1.259257 -0.966525 -0.065392 0.656708 0.103506 -0.342729 0.171671 0.358251 0.997475 -0.121525 0.824948 -0.125673 -0.297326 -1.664154 -0.500459 -0.326434 1.868863 -0.069369 0.067644 0.034427 1.864708 -0.051624 0.210546 0.455664 -0.086896 0.578846 0.136527 0.475403 0.103506 0.514264 0.098327 0.125638 1.188578 0.499677 2.016678 -1.061828 -0.297326 0.870972 -0.089288 0.589287 -0.194374 -0.121525 -0.417192 0.130717 -0.297326 0.752105 -0.060584 -0.326434 0.679307 0.372037 0.139965 -0.077023 1.616895 -0.425416 0.013412 -0.667654 0.138382 0.978956 0.302260 -0.129036 1.864708 -0.955945 -0.410803 -0.770064 0.723392 -0.342729 0.157401 -0.184006 -0.297326 -0.753749 0.262861 -0.587982 0.236891 -0.121525 -0.013388 -0.530831 0.103506 -0.327113 -0.830019 -0.727615 -1.041162 -0.121020 0.544185 0.568003 5.654839 0.149845 -1.304626 2.215071 0.441925 0.087923 -1.313599 0.334322 -0.297326 1.747562 -0.347016 0.497452 -0.982152 -1.022449 1.474847 -0.642086 0.103506 -0.587982 0.236891 -0.438537 -0.030816
1.516268 4.720516 3.429672 3.957150 3.959623 6.838639 5.973062 5.356750 1.729404 0.609472 4.326950 3.442865 -2.649360 4.156049 0.111202 5.917673 7.459642 -3.479419 -3.573850 -4.343177 -3.394264 -4.019262 -6.783886 -5.224287 -5.639139 -2.572739 -3.385160 -3.080216 -1.737299 -3.103267 -1.895713 -2.953828 -2.637533 2.367622 2.499628 2.110513 2.228991 2.026430 2.074525 2.740174 2.779763 0.866043 1.201296 0.462562 1.485278 -0.572666 1.170414 1.704831 1.169812 -2.617925 -1.911047 -2.363163 -2.661788 -1.485400 -2.411204 -1.353945 -1.689536 0.043079 -2.007292 4.053436 -4.065434 1.939824 -2.028978 -3.408555 -2.831016 -1.571212 0.997728 0.141926 0.120931 -0.210416 -0.182671 -0.109314 0.762471 0.216592 0.177291 -0.770254 -0.633739 0.350255 2.532796 1.520093 0.224131 0.157906 0.177291 0.023849 1.055384 -0.012861 0.959530 0.392768 -0.654550 -0.593217 0.284592 0.038400 -0.602908 0.432041 0.031353 1.520093 -0.151773 0.297883 0.177291 0.164236 1.358554 -0.012861 -0.804225 -1.355928 0.224497 0.691917 -0.551630 0.823773 -3.471735 0.292378 0.037629 3.351907 -0.142355 -0.244251 0.284592 1.059221 -0.303706 -0.411696 0.355846 -0.013031 -0.239797 -0.117142 0.177291 -0.154296 0.694450 -1.571212 0.997728 1.520093 -0.612731 -0.288355 0.177291 1.095486 -0.296621 -0.012861 -1.270595 0.829274 -0.466594 0.084051 0.391355 0.175829 0.883860 -0.623885 1.566841 0.326820 0.024353 0.237874 -0.551630 -0.164901 -0.556720 -0.107208 -0.096881 0.038400 -0.448302 -0.134860 0.177291 -0.259333 0.189921 0.141926 0.120931 1.520093 -0.543751 -0.015127 0.284592 0.284590 0.038421 0.265711 -0.008181 0.530342 -0.377276 0.059138 -3.719871 0.754566 -0.311998 0.506277 -0.106417 -0.119596 0.186949 -0.430584 0.177291 0.664887 0.458688 -4.587624 -1.160523 -0.765479 0.205385 -0.796972 0.284592 0.141926 0.120931 -0.210416 -0.182671
0.355982 -1.160401 -1.387551 1.001316 0.373223 -0.928150 -0.524445 -0.363082 0.282060 5.722775 5.215889 5.328914 8.633219 5.385973 2.861790 4.555562 4.099148 -0.299538 0.646566 0.574646 1.865262 -1.941591 -4.210662 -0.631899 -0.670171 -4.659847 -3.812020 -4.449429 -3.000092 -4.992397 -2.467532 -5.392383 -5.299169 0.911482 1.989681 2.194950 1.403366 2.426504 1.977224 1.623520 1.170662 2.625051 3.394892 4.034196 2.787506 3.689105 3.855089 2.888975 2.375088 -1.216015 -1.658451 -2.432466 -1.359521 -3.676424 -4.045179 -1.858256 -1.432097 -3.552622 -3.370232 -3.659294 -3.106853 -4.455532 -5.229643 4.724234 -2.662959 -0.060397 -0.698243 -0.179409 -0.776855 0.045323 0.449140 0.664747 -0.901074 -0.541287 -0.076788 0.021663 1.820852 0.285466 5.868948 0.360691 0.239450 0.151446 -0.076788 0.312568 -0.266416 -0.327262 0.031879 -0.559753 0.435137 0.332331 -0.235371 -0.645753 -0.434007 -0.765528 0.474473 0.360691 0.471055 -0.507315 -0.076788 0.123046 0.195088 -0.327262 -0.288191 0.104717 0.622343 -1.006009 0.098019 -1.068028 0.937461 0.392449 0.054206 -3.500009 2.543407 0.287418 -0.235371 0.110218 0.246046 0.428552 -0.647998 0.656100 1.232688 -0.289053 -0.076788 -0.568504 0.137457 -0.060397 -0.698243 0.360691 0.058447 0.205474 -0.076788 0.038131 0.633509 -0.327262 0.701825 0.185975 -0.262588 0.214002 -0.001393 -0.050895 -0.405533 -0.103594 -0.801271 -0.291960 0.356490 -0.291303 0.098019 -0.124735 -0.078711 0.376372 0.345020 -0.645753 -0.435600 0.866384 -0.076788 1.493363 1.131514 -0.179409 -0.776855 0.360691 -0.918348 -0.011020 -0.235371 0.083039 0.558865 -0.214527 0.158013 -0.075844 0.089128 0.627369 0.493227 -0.151701 -0.446500 -0.316013 0.138813 -2.522013 0.064627 1.267165 -0.076788 0.333553 -2.479414 -0.492460 1.300547 -0.899119 -0.209635 0.977501 -0.235371 -0.179409 -0.776855 0.045323 0.449140
0.389803 -3.022573 -1.284164 0.667583 0.761355 -2.355559 -1.886769 -0.948277 -0.461085 -2.425453 -10.084859 0.765093 3.650567 -1.570233 0.925369 -1.292675 -1.568504 -0.635973 0.786642 1.820755 1.632290 -2.912710 3.731050 -1.133107 -0.187570 2.360011 3.893390 1.464176 0.929737 3.197868 1.347730 2.355609 1.870087 -1.811205 -2.004989 -2.654811 -1.542907 -3.245194 -2.276731 -1.397467 -1.724165 -2.680259 -2.333465 -1.302491 -1.685748 0.179356 0.226293 -0.261537 -1.750186 2.805124 1.766421 0.997341 0.609393 1.310388 0.833851 0.161888 0.385967 2.633125 2.799739 3.577891 3.337533 1.936020 1.828991 0.333671 1.337965 -0.519409 -0.210947 0.063882 0.181777 0.047042 0.381031 1.636022 -0.632611 -0.563962 0.213922 -0.016512 1.034541 -0.842632 3.480181 0.287921 0.834271 0.429442 0.213922 -0.954670 0.402485 0.420540 0.105209 -1.214754 0.836131 -2.332284 0.306538 0.224772 -1.840265 -0.227128 0.310594 0.287921 -0.442638 0.488197 0.213922 0.293755 0.463280 0.420540 0.656488 0.373368 -1.292771 -0.295905 0.868138 -0.463828 -3.413357 -0.230634 0.015529 -0.665143 0.661620 -0.410827 0.306538 -0.771866 -0.600983 0.329254 0.087019 0.294278 0.157344 0.323949 0.213922 -0.350435 -0.065028 -0.519409 -0.210947 0.287921 0.860479 -1.197661 0.213922 0.292420 -0.925327 0.420540 -0.396818 -0.661742 0.288950 0.125222 0.890572 0.138871 -0.881526 0.226143 -0.808598 -2.123695 0.323890 -0.072359 0.868138 0.774608 0.557323 0.062890 0.323410 0.224772 0.253833 0.218084 0.213922 0.364498 0.035738 0.063882 0.181777 0.287921 -0.726945 -0.082693 0.306538 -0.054666 1.052909 -0.477389 0.198976 0.907229 -0.353056 1.399785 0.500945 -0.289368 -0.140261 0.812237 -0.538233 0.277132 -0.045697 -0.698756 0.213922 0.091199 -0.381922 -0.232569 -0.437520 0.014076 -0.832588 0.396102 0.306538 0.063882 0.181777 0.047042 0.381031
-0.988025 -3.990862 -3.418826 -3.068028 -3.452254 -5.611996 -5.483566 -7.096855 -8.826648 -7.529011 -7.232711 -5.771233 -3.917628 -7.358023 -7.331165 -8.990963 -10.268015 5.965466 5.271903 4.527913 3.567552 5.877617 5.487292 4.065932 4.096929 8.088674 7.535989 6.488879 6.219289 7.539487 9.144866 7.268601 7.213371 -1.783664 -2.553786 -3.431491 -3.183257 -2.563100 -2.923816 -1.632334 -1.338810 -3.518633 -2.951047 -2.750877 -3.516003 0.693211 -0.218553 0.107453 -2.519237 3.478815 3.176308 2.370895 1.912685 3.149983 2.914080 1.534284 1.996627 4.752134 4.216363 3.845109 3.653576 -1.003085 -1.500541 -1.208581 -0.192733 -0.564012 0.391550 0.449010 0.206876 0.000789 0.979216 -2.073126 -0.057768 -0.429698 0.416645 0.226275 0.005443 0.047048 -0.442075 -0.967156 -0.257572 -0.031178 0.416645 -1.590395 0.250475 0.350815 -0.192842 0.474240 -0.187203 0.578305 1.504359 -0.190536 0.273943 0.277742 0.103529 -0.967156 0.314692 -0.400464 0.416645 -0.370384 -0.866471 0.350815 -0.301790 0.661700 0.641587 0.207459 0.028009 -0.642194 0.617387 -0.732237 -0.688618 -0.563172 -0.359440 0.260925 1.504359 -0.815821 1.435929 -0.739641 -0.874230 0.777275 -1.621604 -1.093036 0.416645 -0.139927 -0.039154 -0.564012 0.391550 -0.967156 0.148278 -0.051340 0.416645 0.732701 0.476277 0.350815 -0.216168 -0.008678 -0.257893 -0.074922 0.402457 -0.664935 -1.351882 0.699402 -0.267938 -0.623450 1.108894 0.117443 0.028009 0.927204 0.704471 -0.016450 -0.430871 -0.190536 0.204570 0.260289 0.416645 -0.634014 -0.322810 0.449010 0.206876 -0.967156 0.511767 -0.196596 1.504359 -0.849461 -0.565231 0.409977 -0.114841 -0.355168 -1.184685 1.652844 0.129712 -0.079979 0.557665 0.168296 0.348375 0.463149 0.521793 0.385521 0.416645 0.131391 1.094514 -1.851595 -0.637245 0.614737 0.123749 0.673720 1.504359 0.449010 0.206876 0.000789 0.979216
0.694249 -0.657901 -0.848765 -2.191506 -0.693456 -0.806392 -0.216344 -0.776198 -1.122684 -7.758716 -6.567848 -8.691662 -11.286533 -3.817923 -6.009716 -2.352529 0.147892 1.212676 2.517770 -0.516263 -2.400567 0.779251 7.643716 0.681610 0.049552 5.601190 4.797719 5.208535 5.907733 5.478310 6.480085 5.459790 5.443423 -3.332878 -3.324981 -3.555007 -3.527443 -3.097567 -3.243495 -3.119125 -2.880434 -4.019601 -3.648411 -4.202512 -3.946013 -2.597094 -3.417821 -3.573460 -4.312172 0.033630 2.370344 3.646847 2.066387 4.227609 3.962225 5.186126 5.133754 6.646221 5.171674 3.107491 5.510319 4.345853 2.618230 -3.463728 5.929282 0.171443 1.260747 0.010801 0.633173 -0.192032 -0.137079 -4.423172 -0.129643 0.024664 -0.052492 0.615152 0.503122 1.176339 -1.421604 0.654651 0.117524 0.335007 -0.052492 -1.192186 0.160065 0.071934 -1.679561 -0.752795 -1.175926 -0.867761 -0.384518 -0.200801 1.534153 -0.087032 -0.731072 0.654651 -0.447037 0.600404 -0.052492 -0.254815 1.080893 0.071934 1.147070 -0.749236 0.278870 0.354654 0.445601 1.499674 -1.268020 0.753363 -0.086444 -0.060908 -0.873399 0.016238 -0.384518 -0.178163 1.094594 -0.111062 -0.424803 -0.606124 0.762106 1.604222 -0.052492 -0.585212 -0.440814 0.171443 1.260747 0.654651 -0.322776 -0.472197 -0.052492 -0.015437 -0.509295 0.071934 0.152528 0.283437 -0.778487 -0.510611 -0.454060 -0.663211 1.298466 0.222493 -0.140453 0.560889 -0.026563 0.141705 0.445601 0.554675 0.120885 0.116546 0.248185 -0.200801 -3.017703 -0.841243 -0.052492 -0.345987 0.424640 0.010801 0.633173 0.654651 0.865675 -0.489405 -0.384518 0.058910 -0.771829 -0.066279 -0.102397 0.470464 0.104652 -0.341907 -0.365634 0.546161 0.138267 -0.063674 1.310547 0.977736 -0.920217 -0.232387 -0.052492 0.464121 0.145803 0.328068 0.778134 0.988799 -0.494866 -1.052365 -0.384518 0.010801 0.633173 -0.192032 -0.137079
1.385586 -2.774773 -1.919173 -1.901740 -1.974500 -4.260450 -6.145364 -4.055923 -4.566980 -6.469426 -5.058505 -5.248729 -5.456390 -8.175968 -5.605827 -7.760241 -7.613665 3.549025 2.742186 3.569909 3.100886 3.001995 3.624267 3.635800 6.339062 5.931715 6.074957 5.706809 7.533442 5.699661 6.698062 6.311799 6.853664 -2.215391 -1.824677 -0.605585 -1.106975 -1.039632 -0.867581 -0.938506 -1.723238 -0.635823 -0.229884 -0.376777 -0.111040 1.282774 0.627296 -0.354787 -0.418757 0.090041 -1.094057 -0.310514 0.667310 0.549015 0.350719 0.431145 0.510665 2.296039 2.124873 0.550436 1.116479 1.051294 0.971655 0.844479 1.774590 -0.144489 -0.582177 -0.204099 -0.294254 -0.021453 0.207982 -1.313855 0.599272 0.171318 -0.483818 -0.739885 -0.206691 0.664319 -1.401858 1.396652 1.048937 -0.056559 -0.483818 0.815001 0.193107 -0.801086 0.591110 -0.712709 0.070770 0.138831 -0.229317 -0.046959 -2.005494 -0.908475 -0.497676 1.396652 -1.535954 -0.899109 -0.483818 -0.108618 -1.165213 -0.801086 -0.710784 -0.276578 0.369682 -1.802225 -0.643638 -0.535876 -0.232391 -0.239315 -0.331846 -1.920621 -0.051436 0.277577 -0.229317 -0.150016 1.673754 0.217023 0.288893 -0.187533 0.953695 -0.530527 -0.483818 -0.237164 1.441374 -0.144489 -0.582177 1.396652 -0.412985 0.654222 -0.483818 0.027660 1.290108 -0.801086 0.298036 0.724078 0.091487 1.810762 0.076499 0.063997 0.326048 0.249129 0.143654 0.821981 0.214147 -0.251611 -0.643638 -0.475483 0.012986 -0.808911 -0.427766 -0.046959 1.567995 0.658390 -0.483818 0.248130 0.734545 -0.204099 -0.294254 1.396652 0.100254 -0.810839 -0.229317 0.271146 0.875990 -0.238631 0.871612 -0.478606 -0.548863 1.100874 -0.373525 0.294872 -0.304968 -0.984309 -0.201258 -1.228765 -1.070854 0.191534 -0.483818 -1.449871 0.196554 0.497870 0.281106 -0.310697 -0.969885 0.815396 -0.229317 -0.204099 -0.294254 -0.021453 0.207982
1.080957 1.752298 3.217073 2.323633 2.638319 2.190428 2.768387 2.161375 2.552664 7.873786 6.227159 4.860894 4.727785 -0.091923 0.157832 -2.032742 -4.900083 -2.143164 -3.183383 -0.972181 -1.676021 -2.410234 -2.399218 -2.395651 -3.498171 -2.517154 -2.746563 -2.289041 -2.724818 -2.345822 -2.159820 -1.659121 -0.225566 -2.469882 -1.749565 -0.513995 -1.146658 -0.281422 -0.127384 -0.099671 -1.199949 2.007081 1.113203 1.598598 0.384282 0.532572 -0.046938 -1.156057 -0.036202 6.430633 3.209634 0.855767 2.059922 -0.244956 -0.587243 1.199194 1.350028 -2.023795 -2.251328 -2.895875 -2.759067 -1.012962 -0.248352 1.301797 -0.110453 -0.150461 -0.020546 0.008444 0.039799 0.094332 0.481183 -1.322213 0.338611 1.084864 -0.239144 0.706138 0.339401 -0.709642 -0.755785 0.894554 0.728696 0.200164 -0.239144 -0.562481 -0.367646 0.237974 0.941415 -0.299521 -0.042377 0.730978 -0.070753 0.242899 -0.059073 -2.266499 0.929861 0.894554 -1.346460 0.533868 -0.239144 0.356486 -0.822332 0.237974 -0.178332 -0.241870 -0.030180 -0.272315 -0.006864 -0.040849 -0.746110 0.255523 -0.031911 -1.989877 -0.623239 -0.143660 -0.070753 -0.747889 0.042810 0.260246 -0.819630 -0.300547 -0.528921 0.128500 -0.239144 -0.363682 -1.144586 -0.150461 -0.020546 0.894554 0.349435 -1.332877 -0.239144 -0.633632 0.108212 0.237974 0.517639 -0.541691 0.454312 0.063881 -0.230360 -0.373341 -0.337638 0.493204 -1.015332 -0.327741 0.213318 -0.185260 -0.006864 0.002958 -0.943790 0.572447 -0.579661 0.242899 0.258323 0.016791 -0.239144 1.101225 -0.102071 0.008444 0.039799 0.894554 -0.261370 0.020976 -0.070753 -0.056234 -0.329072 -0.308215 0.050999 0.458801 -0.226350 -1.150093 1.935888 1.322335 -0.313999 1.050657 -0.482167 -0.278942 0.337584 0.145877 -0.239144 -0.492180 1.137419 4.508628 -2.628276 0.732304 0.901952 -0.451541 -0.070753 0.008444 0.039799 0.094332 0.481183
-0.818409 0.335449 0.381996 1.712433 1.541527 4.482423 3.854809 4.037136 2.644126 0.673098 0.085431 2.564050 1.863604 3.400385 5.996917 4.429536 5.831137 -1.561682 -1.491680 0.383267 0.761263 -5.942652 -3.481003 -4.289398 -2.477992 -1.498983 -1.122931 -12.728262 -0.237972 -1.444160 -2.824941 -2.552333 -4.143009 5.060529 4.319198 3.101712 4.168654 4.192998 3.727319 3.972815 3.855899 -4.618028 -4.277809 -4.813618 -2.246733 -5.251390 -4.641287 4.160242 3.525835 -3.208626 -2.618259 -1.576887 -2.886362 -0.016188 -0.302962 -0.280102 -1.145517 0.162379 0.167433 -0.122269 -0.237530 -0.059598 -0.625250 -1.391209 -0.913797 0.422951 2.637967 -0.190116 0.366784 0.206713 -0.273439 -0.367284 0.090574 -0.214551 0.359779 -0.111024 -1.598387 0.260121 -0.374012 -0.785717 -0.594385 1.102606 0.359779 1.304995 0.020735 -0.390324 2.594158 1.232904 -1.987791 0.239929 0.802821 -0.325701 0.272403 0.010322 1.798787 -0.785717 -0.181668 -0.199076 0.359779 -0.377683 -1.172719 -0.390324 -0.339671 -0.583741 0.847679 -0.847076 0.040360 0.118233 -1.220834 0.404209 -0.441348 0.360107 0.094662 0.147085 0.802821 0.350307 -0.217490 0.013910 -0.799291 -0.026258 1.514474 0.357325 0.359779 0.527182 1.870838 0.422951 2.637967 -0.785717 0.447891 -0.059420 0.359779 -0.425146 0.622682 -0.390324 -1.650401 1.049605 -0.558570 0.525387 -2.452129 -0.173456 -0.490760 -1.231689 0.027358 0.797205 -0.396641 0.011142 0.040360 0.100685 -0.099940 0.575481 -0.513358 -0.325701 -0.034809 -0.888183 0.359779 0.045758 -0.077368 -0.190116 0.366784 -0.785717 0.770495 -0.038673 0.802821 -0.441094 -1.652890 -0.124507 0.323085 -0.413787 -0.024406 1.025789 -0.782343 0.530222 -0.125838 -0.235769 0.430417 -0.964011 0.721519 -0.014696 0.359779 -0.298418 0.456813 0.247217 0.874540 -2.265302 -0.461149 -0.474278 0.802821 -0.190116 0.366784 0.206713 -0.273439
0.263431 0.033692 0.018450 0.004474 0.019358 0.017987 0.003095 0.010163 0.009687 0.014727 0.004303 0.001485 0.001902 0.018982 0.002012 0.005594 0.006731 0.016202 0.009769 0.002706 0.005121 0.003867 0.001041 0.002390 0.001686 0.011328 0.004350 0.001820 0.002285 0.010612 0.002225 0.007289 0.008098 0.006372 0.006169 0.010007 0.007018 0.007737 0.010800 0.006548 0.007151 0.010348 0.006958 0.011293 0.005740 0.006601 0.008038 0.006000 0.007334 0.011323 0.007162 0.005877 0.007394 0.017634 0.014103 0.008279 0.005385 0.005683 0.012038 0.007143 0.010695 0.005165 0.006612 0.007048 0.007778 0.181224 0.069465 0.207112 0.071194 0.138892 0.109417 0.230068 0.073224 0.138743 0.039561 0.179501 0.109302 0.078070 0.113279 0.238213 0.068741 0.130000 0.039561 0.174091 0.053816 0.057773 0.107981 0.194189 0.110799 0.106403 0.046188 0.129104 0.106317 0.158305 0.073212 0.238213 0.059692 0.116765 0.039561 0.156721 0.054748 0.057773 0.111089 0.186675 0.052036 0.089910 0.035368 0.100547 0.114826 0.151065 0.126732 0.223683 0.105550 0.108340 0.046188 0.164507 0.052153 0.121763 0.079384 0.159483 0.103773 0.176823 0.039561 0.191972 0.075081 0.181224 0.069465 0.238213 0.060587 0.114876 0.039561 0.140766 0.054274 0.057773 0.112736 0.170482 0.064655 0.096206 0.044379 0.084966 0.111311 0.144454 0.172991 0.218860 0.046560 0.087682 0.035368 0.149209 0.044293 0.113567 0.121332 0.129104 0.104939 0.180270 0.039561 0.180586 0.110565 0.207112 0.071194 0.238213 0.093181 0.115919 0.046188 0.168330 0.056171 0.066037 0.082923 0.187707 0.053185 0.142087 0.043419 0.170932 0.075125 0.186908 0.118034 0.213653 0.094253 0.179958 0.039561 0.209931 0.052045 0.140939 0.072384 0.208962 0.075050 0.183967 0.046188 0.207112 0.071194 0.138892 0.109417
-1.055459 0.375388 1.592535 2.093807 1.720472 -0.999190 -0.036111 0.240203 0.605972 -0.543386 1.136262 -0.641126 0.013316 0.033332 -1.531096 -0.605674 -1.442846 1.349824 0.584025 -0.135402 0.059090 -3.163207 -2.991474 -0.826589 0.517054 1.871464 -0.622893 0.104992 0.361915 -0.216029 0.967368 -0.124189 -0.803266 -4.001864 -3.594294 -4.022094 -3.945559 -3.972259 -4.164942 -3.922061 -3.915997 -3.141741 -2.552950 -2.327760 -3.129894 -2.357212 -1.662014 -0.171503 -3.304950 2.925362 2.793255 2.490007 2.272853 2.140917 1.760948 1.685335 2.207910 3.382337 3.458138 3.507208 3.180085 4.571640 4.180779 5.128434 3.446428 -0.346714 -0.804507 -0.018375 -0.893325 -0.352477 -0.480966 -0.260958 -0.040955 -0.202070 0.050294 0.762135 2.506525 0.315316 -1.894403 -1.012439 -0.554508 -1.054149 0.050294 -1.232920 -1.015820 0.699986 -0.467276 -1.068026 0.048836 0.345000 0.398911 -0.118798 0.961972 -0.513492 -0.020625 -1.012439 -0.014733 0.034511 0.050294 0.354228 -0.882564 0.699986 -0.553335 0.408990 0.078454 -0.229392 -0.948549 0.000362 1.403622 -0.191981 0.343472 -2.416832 2.948185 0.070877 0.398911 -0.677929 -0.406681 -0.633960 -0.988805 0.725807 0.968197 0.588637 0.050294 -0.328429 -0.374066 -0.346714 -0.804507 -1.012439 -0.412623 0.362529 0.050294 0.107864 1.406121 0.699986 1.850017 -0.387662 -0.184188 -0.216334 0.184325 0.536260 -0.405238 -0.235805 -0.212870 -0.718906 0.776638 0.106560 -0.948549 -0.130275 1.194633 0.679829 0.436802 -0.118798 -1.886638 1.099572 0.050294 1.283960 0.644825 -0.018375 -0.893325 -1.012439 0.607348 0.357668 0.398911 0.868617 0.017109 0.585514 0.429567 -0.449817 0.408240 0.814155 0.204486 -0.314006 0.281061 -0.761784 -0.536342 0.236958 -0.729119 0.731299 0.050294 0.492869 -2.009377 0.328606 1.989069 1.972501 0.349085 0.758044 0.398911 -0.018375 -0.893325 -0.352477 -0.480966
0.314809 1.745355 0.897547 0.382176 0.678346 1.703358 1.828030 1.177228 1.192068 0.197763 1.704253 1.983537 0.849037 0.938476 2.303153 1.950145 2.764676 -0.436179 -0.779989 -1.270944 -0.410057 0.060447 -5.394076 -1.006551 -0.181737 -0.065227 -0.969574 -5.855391 -1.197456 -0.640154 -1.541545 -0.901110 -1.390794 2.220567 1.652443 1.206610 1.706811 0.303374 1.332659 1.272927 1.926457 -1.316669 -1.516409 -0.434110 0.580342 -1.448858 0.042157 1.788698 0.850757 -1.885594 -1.775645 -1.089961 -1.681263 0.461928 0.033283 0.325432 -0.837933 0.079870 -0.030560 0.080781 -0.902326 0.014224 -0.911717 -1.318867 -0.414599 0.474707 0.223147 -0.510737 0.159191 0.439470 -0.479888 -0.029547 -0.865191 -0.137312 0.047614 -0.230288 -0.377653 0.021969 1.992661 0.281232 0.419689 0.003482 0.047614 1.542428 0.008554 -0.042694 -0.273793 1.029870 -0.339857 -0.425129 -0.044723 -0.108474 -0.571616 0.031923 -0.008858 0.281232 0.750099 -3.556613 0.047614 -0.234360 -0.827637 -0.042694 0.586971 -0.734887 0.291821 -0.223160 -0.394720 0.146861 -1.888347 0.056760 0.988557 0.852257 -0.063294 -0.402506 -0.044723 0.470783 0.715002 0.482379 -0.162482 -0.524414 0.370028 0.071622 0.047614 0.114306 0.291384 0.474707 0.223147 0.281232 0.232978 1.308558 0.047614 -0.237515 -0.204087 -0.042694 -0.301796 0.246926 -1.161604 0.551889 -0.925710 -0.248473 -0.109985 -0.353085 0.064910 -0.485807 -0.008730 0.600266 -0.394720 -0.217564 -0.411915 0.353722 0.098379 -0.108474 0.254179 0.234649 0.047614 0.526874 0.217068 -0.510737 0.159191 0.281232 -0.498899 1.259644 -0.044723 0.283317 -0.232018 -0.629988 0.068099 0.352013 -0.172316 -0.714868 0.382113 -0.275589 0.663014 -0.476787 0.962184 -0.375748 0.252373 -0.402419 0.047614 -0.284284 -0.332617 -0.882845 -0.379219 -1.177157 1.069452 -0.653808 -0.044723 -0.510737 0.159191 0.439470 -0.479888
-2.721779 2.088308 2.583854 1.144200 0.830807 0.927054 0.755642 1.069808 1.666373 4.540178 7.651778 5.648684 6.012943 6.402934 8.759050 7.983018 8.437228 -2.720552 -6.067431 1.196663 0.567392 0.057535 -3.373993 -0.078094 0.344565 -8.204751 -6.799758 -7.120905 -6.230586 -9.329136 -8.626191 -6.700317 -6.138081 1.287553 1.074706 2.317268 1.947497 3.084584 3.221129 2.686467 2.669201 2.327818 3.100371 2.948832 3.357356 1.974874 2.721663 2.596842 2.806056 -4.801122 -4.070718 -4.093418 -4.695533 -3.449977 -2.493746 -6.315257 -3.451970 -3.267807 -1.798340 -2.213042 -2.189859 -0.806677 -3.001074 4.376315 -0.571770 -0.974707 -0.253443 0.229702 -0.056877 -0.410630 0.215502 2.295781 0.490872 0.050483 -0.132305 -0.767023 -0.066530 -0.345594 -6.234534 -2.682701 1.344476 -0.146344 -0.132305 0.509316 0.658805 0.370494 0.568418 1.565493 0.173459 -0.215458 3.281166 -0.462671 0.231142 -0.043284 0.816899 -2.682701 -0.993024 -1.025746 -0.132305 0.478144 0.041432 0.370494 0.507451 0.257517 -0.138296 -1.499566 -0.784838 -0.757408 3.089637 0.509178 -0.119644 -0.151911 -0.138139 1.038076 3.281166 0.424240 -0.681907 -0.020591 -0.172591 -0.153666 0.567132 -0.370174 -0.132305 0.378460 1.985175 -0.974707 -0.253443 -2.682701 0.507456 1.556131 -0.132305 -0.402675 0.075358 0.370494 0.489021 0.089066 0.288306 1.019172 -0.371007 1.094272 0.281997 -0.040670 0.719628 0.573260 -0.642959 -0.148250 -0.784838 -0.230308 0.415886 0.120797 -0.466734 -0.462671 -1.259668 1.425760 -0.132305 0.249009 0.159080 0.229702 -0.056877 -2.682701 -0.010857 -0.923182 3.281166 0.093838 0.887144 0.343414 0.068619 0.287659 0.304900 1.009893 -1.569428 0.388723 -1.105412 0.137378 -0.522255 -0.569290 0.511184 -0.532584 -0.132305 0.005344 1.134335 0.439649 -1.003432 -0.255420 -0.810144 -0.137716 3.281166 0.229702 -0.056877 -0.410630 0.215502
0.208438 1.898811 -0.121236 -0.314971 -0.605522 0.162144 0.585221 0.059351 0.291338 -1.425421 -0.833013 2.271079 0.384837 0.420110 2.363069 2.246269 3.706230 0.085346 -1.220325 -1.620227 -0.972355 0.211187 -2.310624 0.220174 2.342727 -0.230286 -1.094861 -1.381056 -0.153140 -1.112415 -0.608481 -1.245035 -1.790487 1.216483 0.857397 0.178309 1.025097 -0.024786 0.467452 0.855830 1.182935 -1.707665 -0.917341 -0.461411 -0.216139 -0.784410 -0.435129 0.982630 -0.001456 -1.436260 -1.843186 -0.126314 -1.196975 0.425569 -0.114687 -0.089987 -1.085229 1.648104 0.875166 0.577938 -0.297844 0.755987 0.092091 -0.905755 0.712022 -0.789070 0.143483 -0.172235 -0.047986 -0.011964 -0.214653 1.274027 -0.043599 -0.836503 0.081559 -0.429525 0.235923 0.385462 1.788595 0.179245 0.909966 0.184564 0.081559 2.112650 0.098474 -0.112205 0.050050 0.429813 -0.536953 -0.030027 -0.041762 -0.127346 -0.120686 -0.064836 -0.697978 0.179245 0.679437 0.125537 0.081559 -2.357402 -0.185740 -0.112205 -0.337685 -1.017042 0.516818 0.637200 -0.853771 0.095032 -0.823787 0.928115 0.060963 1.181458 0.238255 -0.753156 -0.041762 -0.467480 0.539895 0.588160 0.048126 0.056118 -0.423491 0.522580 0.081559 0.069874 1.091013 -0.789070 0.143483 0.179245 -0.093055 0.948181 0.081559 0.005006 -0.310128 -0.112205 -0.782944 1.001606 -1.257236 0.337739 -0.063422 -0.550946 1.042581 -0.767319 0.622310 0.172783 0.687745 0.378744 -0.853771 -0.225676 -0.785066 0.156615 0.456166 -0.127346 0.574749 -0.041215 0.081559 -0.513386 -0.331574 -0.172235 -0.047986 0.179245 -0.541577 1.319688 -0.041762 0.844399 -0.219291 -0.329472 0.062278 0.878984 -0.861030 -0.059526 0.235934 -0.348559 0.688427 -0.633713 0.354341 -0.339247 0.327929 -1.031311 0.081559 -1.633273 -0.080350 -0.011295 0.129673 -0.165503 0.246173 -0.657798 -0.041762 -0.172235 -0.047986 -0.011964 -0.214653
-0.887802 0.479418 -0.288720 0.376700 -0.291441 0.482929 1.017445 0.743969 1.827003 2.924087 2.814357 2.367853 3.024967 3.348732 3.514137 3.839566 4.841346 -2.772213 -0.432330 -0.129305 -0.049924 -0.523615 -1.815165 -0.508038 -1.278853 -3.473695 -1.409688 -2.008920 -1.544301 -3.865652 -2.510951 -4.109167 -5.478334 3.873579 2.964219 2.467769 1.661552 2.048223 1.758207 1.688189 1.757843 0.551065 1.453379 1.062367 1.486666 0.241886 0.984620 -0.236908 1.141694 -3.297296 -2.904191 -2.173581 -2.678840 -2.139651 -1.423871 -0.315048 -1.696539 -2.006752 -0.941219 -1.139882 -0.636145 -2.311436 -2.026423 0.226596 -0.327874 -0.203027 0.558980 -0.071101 -0.182701 0.160257 0.687582 -0.139630 0.578420 -0.896003 0.344415 -0.442882 -0.455848 0.266710 1.022798 -0.827922 0.686451 0.437024 0.344415 0.059638 1.008411 0.128216 0.473335 1.345054 -0.397104 -0.118311 0.592009 0.102784 0.708198 -0.421980 0.488781 -0.827922 -0.946581 -0.666993 0.344415 0.502825 -2.888870 0.128216 -0.578175 0.062277 0.841595 -1.006814 -0.996969 -1.058637 -1.632622 -0.311623 -0.389162 0.345774 -0.519876 0.719640 0.592009 1.282927 1.011265 0.622361 -0.147817 -0.350027 0.864670 0.182306 0.344415 -0.338663 1.299955 -0.203027 0.558980 -0.827922 -0.081813 1.302771 0.344415 0.072409 0.967970 0.128216 0.405665 0.509279 -0.749881 0.738251 -1.778085 0.266567 -0.025145 1.038182 -0.245586 0.425477 -0.888663 -0.470281 -0.996969 -0.435608 -0.030885 -0.530596 -0.236532 0.102784 -0.493463 -0.570181 0.344415 0.027835 -0.431086 -0.071101 -0.182701 -0.827922 0.335519 -0.227170 0.592009 -0.577337 1.398866 -0.014371 -0.366976 -0.836407 -0.119630 0.734640 0.218164 0.121723 -1.393801 -0.729186 -0.741670 -0.281141 -0.213490 0.157604 0.344415 -1.042551 0.769549 0.571313 -1.467196 -0.195022 -0.264304 0.076974 0.592009 -0.071101 -0.182701 0.160257 0.687582
-2.821092 -7.248046 -10.495851 -10.345474 -9.487135 1.479214 -0.543832 -0.140237 -0.952547 -7.770776 -9.579882 -8.061619 -8.525320 -4.634425 -6.957497 -4.556559 -4.200748 5.104929 4.765737 4.326511 2.223170 5.369437 4.044761 4.188617 5.132435 6.465436 6.444255 6.206683 7.128143 6.593091 7.144141 7.036941 7.025356 -2.453616 -2.594691 -2.914511 -2.182851 -2.646152 -2.609239 -1.885431 -1.499988 -2.623617 -2.651547 -2.885495 -2.245019 -0.701340 -2.331993 -1.867468 -2.753910 1.902049 1.428626 2.360673 1.029743 2.987996 2.528936 0.353729 1.493785 3.258441 3.399699 3.091574 4.194994 0.920694 1.577445 0.736141 2.761253 -0.226575 0.793403 0.926990 0.280267 -0.177112 -0.143064 2.645484 -0.217967 0.658044 0.054862 -0.864613 -0.603850 1.308693 -1.471110 -2.752799 -0.299873 -0.143883 0.054862 -0.341066 0.125597 0.440377 -1.334380 0.737236 -0.927926 -0.177442 -0.017846 0.374499 1.042201 1.284598 -0.850480 -2.752799 1.248956 -0.088609 0.054862 -0.161475 0.751177 0.440377 0.373466 -0.006908 0.646405 0.731512 0.234414 0.248746 0.725954 -0.108777 0.896585 2.071346 -0.260096 0.421858 -0.017846 -0.166164 0.322883 0.052670 0.068402 -0.886944 -0.448324 1.152478 0.054862 -0.006512 -0.330661 -0.226575 0.793403 -2.752799 0.440315 -0.140801 0.054862 0.392114 0.044524 0.440377 -1.382973 0.264306 -0.645287 -0.314798 -0.465574 -0.075404 1.637305 0.137640 -0.400169 0.104348 -0.004292 0.693403 0.234414 -0.127367 -0.397996 0.367310 0.530853 0.374499 -1.585951 -0.985886 0.054862 0.109548 -0.250130 0.926990 0.280267 -2.752799 0.851107 -0.029814 -0.017846 -0.589099 0.886985 1.276868 -0.450465 0.102958 -0.338225 1.421363 0.903972 -0.497062 -0.782097 -0.304836 1.123982 1.924833 0.133086 0.195337 0.054862 -0.870984 1.126217 -0.218885 -0.804678 0.553989 -0.500905 -0.268059 -0.017846 0.926990 0.280267 -0.177112 -0.143064
0.663132 -9.598253 -8.284032 -2.591481 -4.330469 -3.544074 -2.127683 -2.944918 -3.112653 -1.466084 0.908246 -0.025128 -1.175379 0.079899 -0.280607 0.314393 1.004274 3.923747 3.472591 4.506189 5.710919 3.011791 4.634363 5.893305 7.243953 0.322801 -0.833111 1.097012 1.453390 -0.272045 -0.681939 -0.748663 -0.897222 3.096208 2.920444 2.917044 3.380776 2.482325 1.266336 1.693046 2.130359 1.925563 2.072411 0.831056 1.935788 1.152253 0.991733 1.805851 1.775730 -3.310193 -3.134043 -2.909717 -1.916103 -2.938633 -2.621832 -1.632869 -2.560196 -1.733059 -1.963556 -1.737900 -2.042894 0.012292 -0.194962 -1.851356 -1.178769 0.263285 -0.376346 -0.553737 -0.031212 -0.370328 0.193090 -2.623259 0.357058 1.066420 -0.330931 0.554511 -1.329012 0.036859 -0.997572 0.615373 0.139946 -0.423419 -0.330931 -0.369721 -0.267458 -0.526018 0.099160 -1.178527 -0.283527 0.968665 -0.007585 -0.190004 0.638033 0.123220 1.023785 0.615373 -0.572499 0.738980 -0.330931 -1.092972 -1.430826 -0.526018 -1.055660 -0.169628 -0.190009 0.052487 0.940558 -0.307678 -0.015712 0.566720 -0.120434 0.312633 0.053481 -0.072007 -0.007585 -0.199971 0.003828 0.188189 1.101117 0.522942 0.774135 -0.909733 -0.330931 0.803057 0.647266 0.263285 -0.376346 0.615373 -0.572850 -0.555032 -0.330931 0.581874 0.759699 -0.526018 1.068934 -0.451657 -0.084658 0.385094 2.291100 0.297174 0.663663 -0.645716 -0.416960 0.714470 0.691420 -0.562292 0.940558 -0.615773 -0.827970 -0.934434 0.550808 -0.190004 0.049291 -0.096954 -0.330931 -0.793752 0.118367 -0.553737 -0.031212 0.615373 0.484257 -0.840208 -0.007585 -0.110581 -0.136846 -0.400251 0.155524 0.228968 0.297749 0.834609 1.402930 0.345254 -0.823187 2.189010 0.278806 -1.879162 -0.728245 0.396643 -0.330931 1.544359 -0.243179 1.620482 -0.571326 -1.164234 1.358061 0.155372 -0.007585 -0.553737 -0.031212 -0.370328 0.193090
0.760395 1.426469 -1.653777 -2.557851 -3.055680 2.141540 3.788638 0.116129 -0.789727 -1.694364 1.581370 -3.068618 -4.407452 6.123085 5.751492 6.791533 8.362640 -0.601133 -1.995409 -2.686433 -2.730633 0.927991 -1.653272 2.224506 5.403075 -2.302922 -3.137524 -2.227625 -0.861048 -2.594533 -1.503202 -2.206186 -2.150684 1.062256 0.531348 0.033132 0.846166 0.279488 0.596718 0.357131 1.402606 -0.986897 -0.909252 -1.147401 0.037164 -2.225212 -0.542798 3.013600 0.338877 -2.059746 -1.147794 -0.111591 -1.061134 5.864566 2.879067 0.750692 -0.379738 0.852676 -0.430665 -0.517453 -1.882484 -0.700620 -1.113809 -1.856004 -1.012495 -0.003119 0.129355 -0.554847 0.385712 -0.204798 -0.751538 -2.169689 0.431957 -0.314897 0.192154 -0.073134 -0.116583 0.998608 2.433069 0.737756 0.820584 0.474287 0.192154 0.657524 -0.353171 -0.376742 0.003513 1.436984 -1.073110 -0.033544 0.083986 -0.455448 -0.262272 0.276855 -0.690334 0.737756 0.013651 0.067537 0.192154 -0.704941 -0.323312 -0.376742 -0.110394 -2.596824 0.731159 1.708889 -0.392574 1.010790 -1.336192 0.603298 -0.327236 3.090364 0.220336 -1.109897 0.083986 0.329360 -0.568262 0.586430 0.633387 0.001911 -0.865507 -0.692937 0.192154 0.191238 0.458586 -0.003119 0.129355 0.737756 -0.540918 0.349421 0.192154 0.644416 0.470196 -0.376742 -0.972109 0.948797 -0.670840 -0.596202 1.224607 -0.422028 1.499511 -0.136110 -0.013715 0.621593 0.643468 0.630260 -0.392574 -0.430284 -0.653752 -0.325202 -0.049630 -0.455448 0.344531 0.652509 0.192154 -0.626994 -0.447868 -0.554847 0.385712 0.737756 -0.260843 0.712712 0.083986 0.757077 0.428873 -0.408788 -0.506529 0.088194 0.422837 0.126388 -0.093263 0.344468 0.670273 -0.196656 0.396477 0.584847 0.169888 -0.164567 0.192154 -0.593304 -0.186616 -1.535773 -0.434803 0.254219 0.583322 -0.891125 0.083986 -0.554847 0.385712 -0.204798 -0.751538
-1.306049 -2.715093 -11.379595 2.044171 2.018791 0.949813 -1.472534 0.369675 1.444221 -1.280502 0.317680 0.167361 -0.989828 1.470798 2.030233 2.943067 4.774411 0.878965 0.072764 1.361192 1.507064 3.029675 1.401304 2.107166 1.264373 -1.246979 -1.274665 -0.946857 -0.092985 -1.739645 -2.519582 -2.477903 -3.322607 3.172187 3.141403 3.373821 2.528652 2.243321 2.486478 0.736623 1.700335 1.809692 2.050360 2.046497 2.521466 -0.027478 0.564478 0.756009 1.863364 -5.514311 -4.856216 -3.147509 -3.371875 -2.849505 -2.693658 -2.843937 -2.281585 -1.912947 -1.184506 -1.503894 -0.539840 -0.051858 0.091051 0.925175 -0.537843 -0.333068 -0.233233 -0.021620 -0.521707 -0.294275 -0.207129 -0.764345 -0.013263 0.105715 0.045666 -0.343489 -0.052788 0.950695 -4.118446 -1.225633 0.297491 0.115284 0.045666 -0.281058 0.025150 0.184083 0.693049 1.439778 -0.176690 -0.029904 0.255511 -0.017537 1.297515 0.176195 -0.154904 -1.225633 0.298910 -0.798025 0.045666 -0.412316 -0.067185 0.184083 -0.492640 -0.854121 -0.581100 -1.408388 -0.400163 -0.760988 4.142580 1.576845 -0.030087 1.315446 0.336173 0.727997 0.255511 0.673239 0.085103 0.092362 -0.136432 -0.071691 0.688464 -0.890379 0.045666 -0.317841 1.345511 -0.333068 -0.233233 -1.225633 0.288126 1.210702 0.045666 0.221964 1.517650 0.184083 0.557747 1.132930 -0.685908 0.513429 -1.112257 0.303374 1.161835 -1.561444 0.033265 0.457599 -0.732320 -0.010326 -0.400163 -0.244256 -0.561075 -0.247806 0.302068 -0.017537 -0.632109 -0.008036 0.045666 0.941501 0.364072 -0.021620 -0.521707 -1.225633 1.175856 -0.194008 0.255511 -1.034563 1.417580 0.597656 0.326007 -0.545497 0.794350 1.766187 0.656934 -0.172934 -0.737762 -0.899487 0.078743 -0.294747 0.716438 0.553651 0.045666 -0.023074 -0.770058 0.468149 0.721750 -0.576292 -0.710310 -0.501152 0.255511 -0.021620 -0.521707 -0.294275 -0.207129
0.009666 -3.340645 -2.774208 -0.378998 -0.373915 -0.872452 -0.825273 -1.098774 -1.351704 -1.189338 -2.843725 -0.808958 0.302351 -2.123220 -1.654236 -3.367375 -4.331153 -0.707916 1.585478 1.836587 1.508537 -0.403954 4.242123 -0.337221 -0.003962 1.521182 3.566876 1.808170 1.485892 2.902209 2.182716 2.882168 2.972403 -1.529695 -1.262830 -1.591442 -0.967632 -1.229151 -0.977853 -0.470852 -0.662812 -0.319952 -0.552597 -0.460982 -0.869677 0.043866 -0.231244 -0.834786 -0.630059 1.627272 2.163623 1.214707 1.526614 0.637618 0.722368 0.655608 0.952379 0.677516 0.678842 1.239867 0.974720 -0.082450 0.000713 -0.390374 -0.041660 0.005764 0.022169 -0.122227 0.464612 0.124297 0.244077 3.265456 -0.805530 -0.684149 0.107389 0.104071 -0.440467 -0.543830 2.621768 -0.086507 0.230586 0.966080 0.107389 -1.440951 0.871569 0.074240 1.358263 -1.223230 0.957694 -0.141798 0.330476 0.324228 -0.165500 -0.170464 0.095010 -0.086507 -0.370414 0.325527 0.107389 -0.113414 0.188749 0.074240 -0.133549 0.299529 -1.008327 -2.034364 1.252456 -0.117698 -3.164781 -0.133518 0.220952 0.581057 -0.241653 0.361258 0.330476 -0.396925 -0.165911 0.301533 0.009565 0.244594 0.067665 -0.090540 0.107389 -0.110697 0.432085 0.005764 0.022169 -0.086507 1.086527 -1.163443 0.107389 0.169618 -0.221761 0.074240 -0.388662 -0.801284 0.212397 -0.440360 -0.133027 -0.334067 -1.210643 -0.007379 -0.492816 -1.040727 0.159131 -0.040827 1.252456 0.741046 0.238067 0.241005 -0.042213 0.324228 0.074159 -0.273633 0.107389 0.143194 -0.072585 -0.122227 0.464612 -0.086507 -0.621252 -0.588923 0.330476 -0.860906 0.128765 -0.432943 0.035438 0.601495 -0.772781 0.765047 1.560639 -0.795163 -0.836670 0.686765 0.059371 0.121967 -0.314337 -0.276623 0.107389 -0.089744 0.956939 -0.872933 -0.387045 0.120318 -0.696498 0.476974 0.330476 -0.122227 0.464612 0.124297 0.244077
-1.401953 -1.813674 -1.730325 -0.094560 -1.318015 -0.246561 0.136785 -0.795467 -1.408103 -8.402858 -8.707465 -1.660556 -1.718451 -5.385507 -1.865179 -3.174859 -2.983708 1.928695 3.184331 1.892432 2.056620 -3.642933 -0.399731 1.291698 3.252941 2.883079 3.669551 3.536649 3.768889 4.261414 3.413031 4.287042 4.382836 -0.399710 -1.142609 -0.285858 -1.024253 -1.512533 -1.022289 -0.965516 -0.858623 -2.874529 -3.052179 -2.739874 -1.509198 0.421481 0.385784 0.456536 -0.354684 -0.249217 0.509161 0.671805 0.355472 2.053570 1.908975 0.776410 0.691905 3.048960 2.365613 2.204506 1.862346 -0.329609 0.155641 -1.205447 0.256010 0.715920 -1.196451 -0.531217 1.042969 -0.022440 -0.137326 -0.249413 0.519275 -0.059576 -0.070604 -0.313846 0.529769 -0.736252 -2.851933 -1.359458 -0.917889 0.484711 -0.070604 -1.787659 0.865177 0.136179 0.063651 -1.063210 1.154982 0.619689 -0.101044 0.130504 -0.369014 0.480841 0.351134 -1.359458 0.628428 -0.614222 -0.070604 -0.709135 0.249467 0.136179 0.606125 0.446061 -0.659651 0.309488 0.563601 0.059312 -0.412878 -0.553195 0.209174 2.498038 -0.570888 0.318122 -0.101044 0.716820 -2.417219 -0.421055 0.048232 -0.345668 -0.028996 -0.382980 -0.070604 0.387896 -0.710053 0.715920 -1.196451 -1.359458 -0.101098 0.718102 -0.070604 0.932660 0.363226 0.136179 0.224240 0.107636 0.315421 -0.345518 0.992384 0.065374 0.414367 0.936648 0.105037 1.330069 0.196706 0.731739 0.563601 -0.646199 3.160946 -0.454052 1.176048 0.130504 0.242402 0.073149 -0.070604 -0.950878 0.670581 -0.531217 1.042969 -1.359458 -0.671970 -0.774863 -0.101044 0.452777 0.443787 -0.537394 -0.247116 -0.210474 1.055282 -1.455052 3.005178 -0.449289 -1.333271 0.172212 -0.030848 0.620189 -1.109530 0.174079 -0.070604 0.750647 0.661586 -0.339562 0.574502 -0.371743 0.283786 1.044332 -0.101044 -0.531217 1.042969 -0.022440 -0.137326
-1.051361 -9.221884 -11.835488 -6.556440 -5.691569 1.984220 0.259198 0.691796 0.727227 -9.966134 -12.588452 -3.915678 -12.643966 -15.718089 -12.902715 0.838587 2.268974 5.444836 5.149859 2.871012 1.557750 3.423920 3.580404 3.492791 3.936659 8.330334 7.401725 6.963117 8.003076 8.422236 8.091188 8.346529 8.203616 -4.793536 -5.012836 -4.825958 -4.705343 -4.662097 -4.603700 -4.009416 -4.045391 -5.594033 -5.138537 -5.228177 -4.888647 -3.770756 -4.595027 -3.671592 -4.956583 -2.377054 -2.119062 18.345152 -2.280565 9.542938 10.524943 9.971258 11.087707 5.157832 4.261506 5.648179 6.864741 -0.454112 0.201839 -1.666751 0.741716 0.000035 0.946614 0.832089 0.729118 0.025488 0.116085 0.768211 -0.516123 -0.297261 0.109185 -0.060988 -0.102752 0.324859 -2.766051 -1.043320 -0.107553 -0.057188 0.109185 -1.194568 0.642286 0.203878 -1.876218 -0.304073 -0.930450 -1.010293 0.185210 0.268264 2.689249 0.732594 -1.001703 -1.043320 0.038358 0.299135 0.109185 0.426667 0.992583 0.203878 0.794906 0.062655 0.624730 0.493827 -0.162130 0.332221 0.478264 0.429856 0.111222 0.866492 -0.258056 0.185986 0.185210 0.179206 0.184257 -0.532703 -0.251863 -0.503031 0.227571 1.189465 0.109185 -0.605246 -0.163686 0.000035 0.946614 -1.043320 0.181405 0.180645 0.109185 -0.250718 -1.203758 0.203878 0.196307 -0.033538 -0.940947 -0.546312 0.079834 -0.491955 1.415259 0.007251 0.372434 0.132296 -0.398149 0.308716 -0.162130 0.618470 0.311866 0.086166 0.578141 0.268264 -4.062174 -1.097573 0.109185 0.061874 -0.272482 0.832089 0.729118 -1.043320 0.454399 -0.273221 0.185210 0.363942 -0.047492 -0.039493 -0.450840 -0.168384 0.042559 0.864632 -1.065045 -0.638223 -0.571489 -0.093819 0.604859 0.947883 -0.892844 -0.064722 0.109185 0.893274 0.589667 -0.069141 -0.217652 1.005025 -0.209783 -1.397033 0.185210 0.832089 0.729118 0.025488 0.116085
0.888552 -5.001501 -4.970847 -3.899594 -3.375679 -8.068019 -7.335513 -9.324644 -10.250757 -10.104168 -8.451377 -6.685254 -6.904688 -7.305365 -6.732532 -7.339464 -8.217475 8.173745 8.084850 4.542917 3.805614 6.394778 7.135224 6.410886 6.876301 8.034651 9.047405 7.119930 7.652471 7.315814 8.159749 7.791147 8.309945 -2.572936 -2.182760 -2.068148 -1.723141 -1.078012 -1.001152 -2.037542 -2.273284 -1.203835 -0.566005 -1.253375 -1.088294 2.160237 2.121828 2.328408 1.893517 0.150601 0.890711 0.894290 1.769977 0.090681 -0.442487 -0.430768 0.118062 2.654603 2.566150 2.094550 1.183518 -0.013092 -0.379098 -0.568659 0.854006 -0.359419 -0.393923 -0.376756 -0.292920 -0.006285 -0.076732 -0.330514 0.076240 -0.527430 0.155789 0.694534 1.101319 -1.416990 -0.104379 0.892786 -0.898851 -0.633439 0.155789 -0.256853 0.109891 -0.301545 1.406580 0.337614 0.199837 0.108392 0.377485 0.076904 -1.417201 -1.060826 -1.142908 0.892786 1.341959 -0.811069 0.155789 -0.869150 -0.704080 -0.301545 -2.212690 0.192188 0.250595 -0.533182 2.101220 0.282009 -0.481196 -1.179547 -0.895153 0.073020 0.357998 0.246797 0.377485 0.010449 -0.819118 -0.467813 -0.842155 0.473769 0.662054 -0.861936 0.155789 -1.157378 1.011237 -0.359419 -0.393923 0.892786 0.389261 1.195575 0.155789 0.854070 1.681335 -0.301545 -0.572086 0.686021 -0.586516 1.310525 -0.416241 0.167918 0.131845 1.011807 -2.658068 0.366887 1.013625 -0.257724 2.101220 0.378381 -0.049423 0.782928 0.549463 0.076904 1.011337 1.379624 0.155789 -0.672814 0.016762 -0.376756 -0.292920 0.892786 -0.203854 -0.363168 0.377485 0.201136 -0.601670 -0.055762 0.669569 -1.853705 0.953749 -0.256730 0.093166 0.632347 0.571814 -1.060448 -0.210023 0.559977 -0.828013 0.213906 0.155789 -1.285220 -2.198929 0.755141 1.855193 0.770402 0.066826 0.846279 0.377485 -0.376756 -0.292920 -0.006285 -0.076732
2.050158 0.338804 1.560307 1.812485 1.938629 1.754861 2.383531 2.305972 2.701944 4.798687 3.048624 1.679992 2.914417 -0.209168 1.271218 -0.423042 -2.614464 -0.848343 -1.761787 -0.450991 -1.200721 -2.306928 -2.492763 -1.502917 -2.798885 -1.345775 -1.349724 -1.312481 -1.991246 -1.291120 -1.489502 -0.911533 -0.157926 -1.619383 -1.037372 -0.041986 -0.909819 0.019102 0.065371 0.221917 -1.012152 1.365267 0.387148 1.042351 0.153679 0.410164 -0.039065 -1.033043 -0.372393 4.455163 2.453216 0.202106 1.842563 -0.255164 0.010550 0.628380 1.722605 -1.647189 -1.743344 -1.837579 -1.616565 -1.437987 -0.058106 1.388054 0.343671 0.327315 0.045166 -0.689608 0.195402 0.118840 0.542016 0.606325 0.490014 0.977810 -0.215617 0.634222 0.784891 -0.332532 0.413962 1.840998 0.596839 0.818202 -0.215617 -0.794836 -0.074196 0.312780 0.164179 -0.148178 -0.248966 0.533350 -0.146590 0.049520 0.636197 -0.208260 1.036002 1.840998 -0.838332 0.628176 -0.215617 0.388929 -1.024892 0.312780 0.544225 -0.168997 -0.012131 0.015809 0.365074 0.117485 -2.479329 -1.871057 0.292070 -6.651448 -0.241428 -0.198349 -0.146590 -0.239326 0.490509 0.353124 -0.963989 -0.279694 0.057310 0.252721 -0.215617 -0.501098 -1.018529 0.327315 0.045166 1.840998 0.066680 -1.608149 -0.215617 -0.930443 -0.409334 0.312780 1.668305 -0.630166 0.749229 -0.334249 -0.348319 -0.223016 -0.374342 0.747694 -1.418452 -1.135440 -0.124352 0.085532 0.365074 0.057054 -1.022904 0.771916 -0.620397 0.049520 -0.590817 -0.274745 -0.215617 1.407172 0.049025 -0.689608 0.195402 1.840998 -0.180613 -0.162135 -0.146590 -0.372855 0.069535 -0.560092 -0.170209 0.238303 -0.042566 -0.881267 1.648880 1.038782 -0.784385 0.848940 -0.441875 -0.164138 0.215625 0.146376 -0.215617 0.023109 0.782259 2.829938 -1.458505 0.026709 0.612866 -0.669767 -0.146590 -0.689608 0.195402 0.118840 0.542016
0.569530 1.051758 0.589865 0.458417 2.051709 2.894750 3.246891 1.105466 0.562430 1.189430 1.884724 3.143428 2.863612 1.826290 4.118029 3.547682 4.452585 -1.273922 -0.757773 -1.013915 -0.231453 -0.086164 -4.698617 -1.929739 -2.941630 -1.492571 -2.184584 -3.918161 -2.363660 -1.798349 -4.271951 -2.633197 -2.821850 3.097168 2.835362 2.638799 2.628316 1.250376 2.762756 2.551296 3.324970 -0.202881 -0.760299 -0.204378 1.297744 -1.694313 0.268640 0.967696 1.028717 -3.031551 -2.673603 -1.927865 -2.278395 -0.490027 -0.810287 -0.109874 -1.208876 -0.471672 0.173835 -0.741742 -1.132391 -1.088876 -1.750096 -2.238602 -1.440421 -0.037843 0.567438 -0.733308 0.399196 0.711895 -0.682056 -0.986460 -0.634275 0.301310 0.098122 0.280499 0.148227 0.638404 2.558563 0.560648 0.070805 0.923877 0.098122 0.938090 -0.267269 -0.054777 -0.443741 1.159531 -0.526996 -0.499422 -0.267178 0.292415 0.158949 -0.110565 0.976505 0.560648 -0.151415 0.695471 0.098122 -0.132431 0.369916 -0.054777 0.348916 -0.395796 0.253014 -0.741354 -0.470368 0.425764 -3.555193 0.529374 -1.247752 1.615170 0.169957 0.096042 -0.267178 0.839456 0.226843 -0.349405 -0.141018 -0.293993 1.081390 -0.462070 0.098122 -0.342386 0.319995 -0.037843 0.567438 0.560648 0.166996 -0.490364 0.098122 -0.671745 -0.117332 -0.054777 -0.197845 0.655245 -0.802304 0.455750 -0.894155 -0.448643 0.806931 -0.700023 0.607163 -0.060378 -0.384820 0.219280 -0.470368 -0.393522 -0.437368 0.674595 -0.718392 0.292415 -0.546523 -0.001019 0.098122 0.505330 0.373966 -0.733308 0.399196 0.560648 0.118607 -0.123989 -0.267178 -0.309040 -0.609722 -0.031875 0.571019 -0.016624 0.283999 -0.551554 -2.518419 0.348854 -0.127524 -0.372622 1.575609 -0.261191 0.063494 0.024068 0.098122 -0.395348 -0.216080 -0.232114 0.097668 -1.877280 -0.241333 -0.111138 -0.267178 -0.733308 0.399196 0.711895 -0.682056
2.637777 2.113686 1.684761 1.528303 1.484121 5.254594 5.331846 3.595246 1.305276 -1.698925 3.381770 6.476389 -3.887555 8.401685 8.646850 9.852385 11.431570 2.300355 1.788059 0.803301 1.257985 -6.082799 -7.052456 -7.633402 -7.523996 -4.987726 -6.082920 -6.215045 -4.757507 -5.189849 -3.921218 -4.733314 -4.233696 2.746421 3.334911 2.933113 3.011296 3.298504 2.974908 4.306060 3.964149 1.424519 1.995470 0.472316 1.293267 -0.685817 0.777086 3.437500 2.069409 -2.952349 -2.977066 -3.312088 -2.831470 -0.899928 -2.976833 -2.721126 -3.011006 -1.346366 -3.674182 1.940459 -5.176270 1.837769 1.667678 -4.394884 -3.887671 -0.786234 0.839401 -0.314702 0.566118 -0.138757 -0.113831 -1.919589 0.255859 0.473779 0.210899 -0.172128 -0.534726 -0.176803 3.354941 2.602894 -0.154861 -0.408677 0.210899 -0.084763 1.564961 0.034994 1.138885 0.795046 -0.922066 0.220614 -0.091702 -0.194495 -1.181269 0.355932 0.266258 2.602894 -0.047169 0.710974 0.210899 -0.147739 2.028361 0.034994 -0.306259 -0.473216 0.075498 0.817021 0.184003 0.584996 -3.421104 -0.360892 -0.583624 2.800391 -0.664217 -0.980058 -0.091702 1.866711 -0.641630 -0.606742 0.442244 -0.855093 -0.275488 0.842498 0.210899 -0.084566 0.888529 -0.786234 0.839401 2.602894 -1.223435 0.086185 0.210899 0.702546 -0.952137 0.034994 -1.535034 -0.160963 -0.795417 -0.299827 -0.004638 0.396423 1.978466 0.115796 0.774188 0.756977 0.823359 -0.276859 0.184003 -0.121055 -0.268490 -0.210705 -0.452162 -0.194495 -1.619952 0.282213 0.210899 -0.068898 -0.213076 -0.314702 0.566118 2.602894 -0.230204 0.650298 -0.091702 0.483995 -0.280103 0.259586 0.129119 -0.006113 -0.439850 -0.119750 -4.999909 0.575233 0.076409 1.250499 0.616052 1.241267 -1.066121 -1.380798 0.210899 0.019810 0.529225 -3.540301 -1.377983 -0.955206 -0.319749 -1.267774 -0.091702 -0.314702 0.566118 -0.138757 -0.113831
0.026524 -0.831891 -0.800578 0.259882 -0.232229 -1.194641 -1.217879 -0.700152 0.026786 5.096920 5.208670 4.765868 8.272984 5.525432 2.699422 4.855809 4.637236 0.224428 0.524763 0.604441 1.613846 -1.768495 -3.091920 -0.219205 -0.378995 -4.664742 -4.196625 -4.220732 -3.576210 -4.818021 -2.437294 -5.148549 -4.791805 0.910552 1.671238 2.152907 1.209864 2.157371 1.691519 0.965902 0.663795 2.426367 3.138313 4.001765 2.626933 3.684931 3.728080 2.990682 2.177134 -1.474075 -1.805564 -2.693749 -1.970966 -3.313308 -3.429289 -1.366094 -1.247413 -3.464962 -3.059767 -3.043794 -2.712909 -4.161657 -4.743900 4.530235 -2.213616 -0.267045 -0.539001 -0.261232 -0.751160 0.116273 0.415062 0.840876 -0.290868 -0.512145 -0.187794 -0.095838 1.735071 0.348096 4.417777 0.021926 -0.616179 -0.219126 -0.187794 0.730437 -0.918903 -0.305456 0.213332 -0.296304 3.479323 0.498832 -0.055752 -0.518187 0.061899 -0.600376 0.571575 0.021926 0.456415 -0.433150 -0.187794 0.158831 0.282466 -0.305456 -0.418860 -0.061422 1.085869 -1.060540 -0.174581 -0.997964 3.120797 0.564164 -0.153645 -3.121175 0.881744 0.044423 -0.055752 -0.610332 0.187888 0.653718 -0.553143 0.092358 0.608399 -0.035939 -0.187794 -0.615612 -0.112727 -0.267045 -0.539001 0.021926 0.406049 0.382544 -0.187794 -0.059973 0.351292 -0.305456 0.150242 0.050033 -0.588506 0.073896 0.040029 -0.205776 -0.676742 -0.498110 -0.773666 -0.354759 0.823877 0.024685 -0.174581 -0.039976 -0.464856 0.305877 0.331652 -0.518187 -0.563997 0.030240 -0.187794 1.155515 1.146079 -0.261232 -0.751160 0.021926 -1.009859 0.095101 -0.055752 0.154183 -0.832997 -0.383752 0.240571 0.225954 0.520404 0.007548 0.075946 0.210004 -0.077432 -0.561638 0.088057 -1.514604 0.457991 1.390165 -0.187794 0.356511 -2.267201 -0.363698 1.106504 -0.776817 0.116388 1.142046 -0.055752 -0.261232 -0.751160 0.116273 0.415062
0.101568 -1.010872 -0.784798 1.070560 0.844508 -0.748428 -0.937042 -0.263370 -0.383738 -1.281064 -8.267712 -0.000227 0.623702 -0.707953 -0.082389 -0.167098 -0.477911 0.629236 1.800124 1.770901 1.666074 -3.256097 -0.885506 -1.841529 0.696723 2.188273 2.866583 0.179409 0.750465 2.612474 0.395658 1.907128 1.195482 -1.596003 -1.731859 -2.078466 -1.067368 -2.532152 -1.864817 -1.223825 -1.249648 -2.056085 -1.636254 -0.392353 -1.228407 0.243333 0.521873 0.161829 -1.247586 1.956663 0.842070 0.670779 0.298433 0.868374 0.653716 -0.063130 0.169401 2.412609 2.092157 2.537947 2.706774 1.190839 1.338927 0.548329 0.855467 -0.785724 -0.567243 0.227302 -0.043582 0.191876 0.090320 2.003362 0.382611 -1.111854 -0.011847 0.349248 0.625132 -0.026009 1.325769 -0.011193 0.271304 -0.019828 -0.011847 -0.495595 -0.151054 0.548079 -0.783424 -1.016726 1.121574 -0.094880 0.144255 0.176621 -0.335553 -0.215096 -0.302361 -0.011193 0.782789 1.057668 -0.011847 0.594496 0.170954 0.548079 0.932355 0.842101 -0.226428 -0.422170 0.532719 -0.364033 -0.909574 0.097786 0.510196 -0.517033 0.863183 -2.553247 0.144255 -0.914342 -0.763973 -0.312066 -0.171786 0.532917 0.414725 0.287189 -0.011847 0.045871 -0.578735 -0.785724 -0.567243 -0.011193 0.812670 -1.057590 -0.011847 -0.606400 -0.581085 0.548079 -0.038434 -1.075408 0.178579 -0.471644 0.896285 0.265706 -0.113305 -0.230609 0.134595 -1.433364 -0.320809 -0.781564 0.532719 0.661867 0.636495 0.634025 -0.046913 0.176621 -1.355235 -0.113479 -0.011847 0.528437 0.471066 0.227302 -0.043582 -0.011193 0.057208 -0.016567 0.144255 0.118881 -0.030027 0.117201 0.242266 0.811635 -0.110816 0.668447 -0.174934 -0.550337 0.363037 0.147586 -0.062885 -0.086688 -0.196373 0.253964 -0.011847 -0.264461 -1.197102 0.295141 0.163831 0.101751 -1.097356 0.073907 0.144255 0.227302 -0.043582 0.191876 0.090320
-0.988025 -3.990862 -3.418826 -3.068028 -3.452254 -5.611996 -5.483566 -7.096855 -8.826648 -7.529011 -7.232711 -5.771233 -3.917628 -7.358023 -7.331165 -8.990963 -10.268015 5.965466 5.271903 4.527913 3.567552 5.877617 5.487292 4.065932 4.096929 8.088674 7.535989 6.488879 6.219289 7.539487 9.144866 7.268601 7.213371 -1.783664 -2.553786 -3.431491 -3.183257 -2.563100 -2.923816 -1.632334 -1.338810 -3.518633 -2.951047 -2.750877 -3.516003 0.693211 -0.218553 0.107453 -2.519237 3.478815 3.176308 2.370895 1.912685 3.149983 2.914080 1.534284 1.996627 4.752134 4.216363 3.845109 3.653576 -1.003085 -1.500541 -1.208581 -0.192733 -0.564012 0.391550 0.449010 0.206876 0.000789 0.979216 -2.073126 -0.057768 -0.429698 0.416645 0.226275 0.005443 0.047048 -0.442075 -0.967156 -0.257572 -0.031178 0.416645 -1.590395 0.250475 0.350815 -0.192842 0.474240 -0.187203 0.578305 1.504359 -0.190536 0.273943 0.277742 0.103529 -0.967156 0.314692 -0.400464 0.416645 -0.370384 -0.866471 0.350815 -0.301790 0.661700 0.641587 0.207459 0.028009 -0.642194 0.617387 -0.732237 -0.688618 -0.563172 -0.359440 0.260925 1.504359 -0.815821 1.435929 -0.739641 -0.874230 0.777275 -1.621604 -1.093036 0.416645 -0.139927 -0.039154 -0.564012 0.391550 -0.967156 0.148278 -0.051340 0.416645 0.732701 0.476277 0.350815 -0.216168 -0.008678 -0.257893 -0.074922 0.402457 -0.664935 -1.351882 0.699402 -0.267938 -0.623450 1.108894 0.117443 0.028009 0.927204 0.704471 -0.016450 -0.430871 -0.190536 0.204570 0.260289 0.416645 -0.634014 -0.322810 0.449010 0.206876 -0.967156 0.511767 -0.196596 1.504359 -0.849461 -0.565231 0.409977 -0.114841 -0.355168 -1.184685 1.652844 0.129712 -0.079979 0.557665 0.168296 0.348375 0.463149 0.521793 0.385521 0.416645 0.131391 1.094514 -1.851595 -0.637245 0.614737 0.123749 0.673720 1.504359 0.449010 0.206876 0.000789 0.979216
1.516696 -0.332479 -0.184081 0.871144 0.992659 -1.064083 -0.677545 -0.860826 -1.039586 -1.427257 -3.497976 -1.183900 -0.352607 -2.418079 -0.913297 -2.437671 -2.472779 1.216114 1.565967 0.342494 -0.022185 -1.556455 2.081246 -1.439785 -2.802729 2.461148 3.434105 1.197611 0.099424 3.206103 1.499051 3.256461 3.976488 -3.424783 -2.765737 -2.423753 -2.509312 -1.992015 -1.867136 -1.557925 -1.719170 -1.208608 -0.966605 -0.710098 -1.824174 0.678698 -0.685213 -1.250136 -1.723089 2.953652 2.538493 2.164051 2.226373 2.719275 1.591186 1.625052 2.091058 2.525508 1.761150 0.941655 1.941083 -0.135251 1.386106 -0.145306 1.281668 -0.266575 0.316317 -0.132196 0.361083 0.020473 0.011568 -1.494436 -0.315488 -0.569748 0.130776 0.052226 0.669551 -0.139738 3.880860 1.293165 0.208382 0.956072 0.130776 -0.518333 0.768829 0.229306 -0.507006 -1.818526 0.659458 -0.230238 -0.243191 0.430641 -1.000255 -0.417961 -0.247733 1.293165 -0.702826 0.949931 0.130776 0.219977 0.294774 0.229306 1.306758 0.192074 -1.106262 0.057646 0.584483 0.204389 -4.991681 0.282003 0.445469 -1.147611 -0.172670 -0.713095 -0.243191 -2.027834 0.296862 -0.114504 -0.034935 0.132764 0.315455 0.696935 0.130776 -0.690978 -0.284326 -0.266575 0.316317 1.293165 0.603112 -1.502027 0.130776 -0.314390 -0.809559 0.229306 -0.003901 -0.624309 0.611659 0.506246 0.381323 -0.462567 -0.181138 0.667385 -1.087276 -2.335786 0.458094 0.107855 0.584483 0.252256 -0.373717 0.137766 -0.301194 0.430641 -0.306184 0.151944 0.130776 -0.238348 -0.098560 -0.132196 0.361083 1.293165 -1.099633 -0.259567 -0.243191 -0.230571 0.497052 -0.654137 -0.059743 0.155815 -0.197648 0.520219 0.826468 0.398802 0.151259 0.838099 0.315012 0.722168 -0.073526 0.095453 0.130776 0.417418 0.519227 0.255270 0.172003 -0.268083 -1.310618 -0.057572 -0.243191 -0.132196 0.361083 0.020473 0.011568
-0.989154 -0.045128 2.535150 -0.399757 -0.059393 0.519833 -3.323927 0.566075 0.736956 -4.159479 1.981388 -3.545365 -3.047242 -5.576868 -4.000046 -8.804923 -10.112620 1.405437 -8.688064 -0.949367 -2.957615 1.540986 2.098850 2.327015 4.284809 5.020789 4.486771 3.842577 4.726316 4.378841 4.848447 4.619878 4.760523 -3.473050 -3.201070 -2.585702 -2.549857 -3.120775 -2.245774 -1.442483 -2.371147 -3.373465 -2.658362 -2.312074 -1.941034 -2.913579 -2.483339 -0.261821 -1.675822 2.435522 2.749716 2.856308 2.322688 3.615617 4.051260 1.740290 1.936016 1.541881 1.995642 1.537171 2.345121 1.187550 1.694686 2.902268 2.708463 -0.767761 0.482640 -0.010889 0.012847 -0.248038 0.583735 -0.282272 0.447802 0.650057 0.105953 -1.174390 -1.352227 1.088589 -2.240438 -0.927605 1.326484 -0.652791 0.105953 0.176820 -0.405784 0.535476 -1.188247 0.766938 -0.261130 -0.490824 1.098233 -0.003969 0.295914 -0.320650 -0.464568 -0.927605 -1.139710 -0.477161 0.105953 0.076780 -1.096605 0.535476 0.184399 0.586009 0.447242 -1.281306 -0.369861 -0.604818 1.433641 0.815958 -0.454799 -1.792301 -0.808183 0.056492 1.098233 -0.183479 -0.661588 0.586339 0.888195 -0.218183 0.149895 0.554949 0.105953 -0.113014 1.279843 -0.767761 0.482640 -0.927605 -0.701734 1.252985 0.105953 0.295108 1.249066 0.535476 -0.287810 -0.024558 -0.372838 1.551480 -0.066012 0.510335 2.758957 -0.325433 0.216181 0.106512 0.034814 0.494119 -0.369861 -0.795636 -0.329723 -1.007471 -0.575627 -0.003969 -1.548191 -1.098771 0.105953 -0.030002 0.238529 -0.010889 0.012847 -0.927605 1.918579 -0.485910 1.098233 -0.832716 2.547685 0.360548 1.091302 0.916322 0.021740 1.416486 0.131614 0.682300 -0.370755 -1.514321 -0.234392 1.048738 0.075954 0.153983 0.105953 -2.045903 0.356238 0.182235 -2.335459 1.533191 -0.035476 -0.045430 1.098233 -0.010889 0.012847 -0.248038 0.583735
0.856113 2.464989 3.398087 3.019287 3.182162 2.185214 2.832085 3.234223 3.262567 7.571214 7.459026 6.152021 6.501203 2.929917 1.713993 -3.136758 -8.264308 -14.918371 -10.730965 -0.003266 -0.408656 -0.096107 -2.466916 0.729086 -0.389323 -2.984300 -2.319980 -1.416795 -2.655124 -2.411850 -1.425543 -1.626725 -0.523974 -2.765877 -2.089148 -1.137733 -1.794281 -0.392437 -0.455043 -0.577102 -1.867014 0.921657 1.071905 0.690807 0.001879 -0.396404 0.398660 -1.585512 -0.583041 10.827475 10.874252 3.060375 5.029378 -1.936699 -1.916668 -0.906644 0.299481 -2.412492 -2.642457 -3.166418 -2.693477 -1.190509 -1.478483 1.072594 -1.404911 0.033676 -0.462090 -0.078238 0.088980 -0.005738 1.043485 -0.728443 0.028838 0.466436 -0.156176 0.511904 0.573489 0.054134 3.204132 0.795619 1.594726 -0.400591 -0.156176 0.351216 -1.107765 0.127832 0.962032 1.069796 -0.040595 0.826369 0.034016 -0.175589 -0.756764 -1.948077 1.083346 0.795619 -0.806028 0.156951 -0.156176 0.446840 -0.350426 0.127832 -0.294284 -0.822902 0.029679 -0.688706 -0.376639 0.153820 -0.252683 0.517260 -0.101375 -3.750834 -0.270724 -0.194650 0.034016 -0.879011 0.140006 -0.365865 -0.408641 -0.333160 -0.268537 -0.354073 -0.156176 -0.261113 -0.272875 0.033676 -0.462090 0.795619 0.398588 -0.363297 -0.156176 -0.309008 0.111688 0.127832 -0.220137 -0.333785 0.050452 0.535948 0.173421 -0.606364 0.408917 0.854457 -0.873780 -1.322389 -0.060420 0.300897 -0.376639 0.285560 -1.642396 0.456327 -0.882577 -0.175589 0.196952 0.359123 -0.156176 0.717361 0.651872 -0.078238 0.088980 0.795619 -0.209849 -0.501913 0.034016 -0.251737 0.219174 -0.398133 -0.329941 0.817484 0.486954 -0.832311 2.280428 1.056326 -0.050037 0.770159 -0.949362 -0.160073 1.118847 -0.670554 -0.156176 -0.662530 0.464589 1.306222 -2.166898 0.825431 0.969163 -1.068049 0.034016 -0.078238 0.088980 -0.005738 1.043485
0.112762 1.939468 2.301963 2.428321 2.408899 4.537385 4.368598 3.821401 3.276511 -0.045059 -8.489182 4.151513 4.905869 2.183147 7.431810 4.647341 5.128344 -0.671110 0.452131 -1.427139 0.386864 -5.949127 -5.186347 -4.522595 -3.950489 -1.317412 -1.177899 -7.023688 -4.698664 -0.858581 -3.838346 -1.987008 -3.114155 2.497238 2.765961 1.491092 3.089464 2.142181 1.222902 2.838135 2.610366 -2.728068 -3.049230 -3.164048 -2.044210 -1.639497 0.342449 2.243498 0.059380 -2.717558 -2.757844 -1.658880 -2.839828 0.632381 -0.122687 -1.086494 -2.416264 1.003096 1.194100 0.755631 1.157423 0.610607 0.082148 -0.669525 0.268842 -0.032130 0.227276 -0.153030 0.210888 -0.107686 -1.269124 -1.256103 -0.171523 -0.275455 0.512363 0.382571 1.111277 -0.239358 -0.253856 0.132095 -0.863838 0.794505 0.512363 1.556172 0.981974 -0.152903 1.191603 0.263123 -0.132763 -0.202038 -0.217353 -0.373414 -0.717150 0.250808 2.213380 0.132095 0.804367 0.058469 0.512363 0.002844 -0.839895 -0.152903 -0.877954 -1.019129 -0.345848 -0.830458 0.442387 0.242725 0.557048 -0.030918 -0.109093 0.098905 0.519603 0.627886 -0.217353 -0.472831 -1.257091 -0.832959 -1.571670 0.307537 0.934131 0.214652 0.512363 0.102538 0.499666 -0.032130 0.227276 0.132095 0.228364 -0.180818 0.512363 -0.488400 0.744294 -0.152903 -0.156814 0.709044 -0.397989 0.428348 -0.851662 0.299741 -0.837548 -1.343940 0.651195 -0.285410 0.017930 0.305289 0.442387 -0.135177 2.119127 -0.127587 -0.503290 -0.373414 0.075241 0.638355 0.512363 -0.615163 0.297326 -0.153030 0.210888 0.132095 -0.334063 -0.618178 -0.217353 0.268240 -0.017118 -0.285543 0.735922 0.347651 0.573214 -0.241101 -0.398148 -0.715926 0.298384 -0.422462 0.486611 0.161685 0.400905 -0.519338 0.512363 0.055689 -1.259276 0.274412 2.639218 -2.654038 -0.408905 0.619764 -0.217353 -0.153030 0.210888 -0.107686 -1.269124
-0.105747 -0.398384 0.511910 -0.522767 0.905015 1.887174 1.097652 0.690387 0.037768 -4.403372 -0.282614 -2.328572 -7.690100 0.653674 -6.210436 1.195934 1.798557 0.269097 -0.444553 -0.362954 -5.517099 1.758198 2.752518 0.541920 -0.358092 2.018009 1.396062 0.623729 2.833050 1.862177 1.890582 1.824476 1.865307 -2.455172 -2.501510 -2.253075 -2.238863 -2.524703 -2.270453 -1.579733 -1.604071 -3.623084 -3.451726 -4.122406 -3.525617 -2.068166 -3.265817 -2.924409 -3.632002 2.508760 3.195322 4.468050 3.549306 10.384850 3.833664 2.420287 2.719546 5.999686 1.050057 2.299222 1.147715 -0.511812 0.331985 -1.493432 2.031858 -0.402035 1.564126 -0.776731 0.528694 -0.100031 -0.499897 1.316490 -0.095319 -0.709540 -0.029193 -0.376290 0.292442 -0.819958 -2.298698 -0.153485 -0.507850 0.768810 -0.029193 -2.124424 0.312192 0.583587 -0.485819 0.133235 -1.132126 -0.369491 0.128965 0.677490 1.879594 0.473475 -0.556135 -0.153485 -0.335251 0.414894 -0.029193 0.859987 0.710577 0.583587 0.902606 0.396958 -0.311169 0.597340 -0.116545 1.530938 -0.171535 0.143550 -0.046253 0.966700 -0.488058 -0.093666 0.128965 0.103069 1.016743 -0.690013 -0.044533 -1.717362 -0.950201 -0.401203 -0.029193 0.280246 -0.913965 -0.402035 1.564126 -0.153485 0.181833 -0.572439 -0.029193 -0.389074 0.018725 0.583587 0.183469 -0.375302 -0.249680 -0.834140 -0.667778 0.076884 1.287723 0.336327 -0.960140 0.469835 0.606933 0.243091 -0.116545 0.002509 -0.018484 0.568387 0.544902 0.677490 -1.760574 -0.262599 -0.029193 0.279222 0.416743 -0.776731 0.528694 -0.153485 1.303880 -0.246095 0.128965 -0.087115 -0.757945 0.228771 -0.376240 0.241839 0.034937 -0.089072 0.063151 -0.665579 -0.215602 -0.413172 2.397218 1.214311 -0.259178 0.192199 -0.029193 1.382681 0.969266 0.623866 0.055090 1.532073 0.114942 -0.229294 0.128965 -0.776731 0.528694 -0.100031 -0.499897
