29.058109 4.245637 -0.551206 -1.413392 -1.499138 -8.769890 -9.691195 -10.257315 -9.336623 -3.406659 -4.803705 -8.580862 -5.882910 -2.581255 -4.837023 -1.767233 -1.982645 11.258304 8.821341 6.119167 7.561037 2.844462 1.885990 1.898332 3.467683 5.314967 5.254598 4.752714 7.944966 6.236577 7.692717 8.249925 10.870743 0.984900 3.230053 -5.773555 -5.924812 -4.772267 -3.089285 -3.853110 -2.858276 3.536894 5.495124 8.970493 6.968440 5.217192 5.120262 4.613710 4.014389 -7.200628 -6.817744 -6.007107 -6.092854 -4.581212 -1.751723 -1.898480 -1.963148 3.361058 4.156000 9.562923 8.043305 5.567357 4.838595 4.218045 3.743570 -0.015528 0.213616 -0.122508 0.848533 -1.564048 -1.616220 1.179312 -0.114177 -0.683981 -1.623036 1.431594 0.797957 -1.115512 -2.625665 0.525701 1.369450 -5.107765 -2.396888 -2.753747 3.923540 -8.765555 3.621471 -4.872465 -0.041153 2.368489 2.111996 -4.231114 5.407960 1.935501 5.257998 24.151694 15.261274 3.246294 1.959511 -0.027486 -1.045364 -8.221790 -12.632255 10.526966 -1.540173 10.682227 14.548885 -10.611607 4.098877 1.923757 4.789668 4.777041 1.779456 1.324651 -4.692281 2.300310 2.910107 6.270676 -1.006927 -1.495633 -0.515852 -2.426419 -6.251843 5.678747 5.333758 1.904522 4.990090 24.414314 24.144289 4.700808 -6.670502 0.501479 2.770176 -11.456912 2.211612 -7.884958 -6.729941 -10.373549 -16.635394 -26.722205 -15.797054 -16.801304 -28.194695 10.747457 2.234447 -1.010186 1.345930 9.342302 12.761841 -3.083765 6.286361 -35.014766 -25.567969 -27.808035 -26.731402 -2.088097 -2.209080 -0.053029 -7.106798 5.991234 -7.387768 -1.367785 1.577397 -0.980959 -3.871280 -4.161514 9.573657 0.463760 1.079537 10.354147 -6.427982 -9.886781 5.254244 1.710235 -5.614566 -6.567702 -5.357692 4.147125 -15.604453 -3.894946 3.029073 4.260730 -2.597662 9.760019 4.384044 11.395750 6.246580 -5.720024 -18.822878 -1.950235 3.647974
13.927875 -4.787695 -5.527267 -2.695761 -4.338348 -3.112502 -7.329303 -6.556934 -4.866235 2.283415 3.356052 10.828246 4.903586 9.641744 13.418440 16.903639 18.722184 -6.586280 -7.874430 -4.506054 -5.363629 -5.230543 -12.124497 -9.939740 -6.815666 -0.178329 2.797042 -3.736532 1.868733 5.388857 5.570675 10.017748 9.797261 -0.776736 -0.610098 0.257740 2.661986 1.720868 1.008864 0.168496 0.373042 3.104605 3.385317 2.037313 1.746512 -0.569571 3.194897 4.169878 3.592996 -9.261044 -7.887209 -4.120283 -3.572689 -0.818978 -2.133353 -3.864021 -5.085242 3.953731 5.252495 4.815636 2.946076 1.577482 2.927196 1.571083 2.160886 -0.697069 0.925516 0.915109 0.296647 -1.859317 3.286924 0.332294 -8.419602 -2.865326 -6.115248 -1.432598 2.047868 2.056063 -2.930321 -9.498502 15.514736 -6.665208 -1.069241 1.349876 1.172766 -2.832481 -4.231532 7.531652 -0.539416 -2.316161 0.736706 1.380994 -4.606008 -0.399931 -0.632387 13.229818 -5.088266 7.482754 2.587644 -4.609134 -2.304240 -8.577291 2.773305 -0.894109 -0.441593 -3.463747 -3.519416 2.635817 3.388487 6.530840 -3.129133 -5.009358 -4.921729 -1.873412 8.365760 -4.901659 6.301411 3.396552 -5.457657 1.284349 6.025818 27.314233 2.179419 2.650268 0.732277 0.300425 4.985548 13.995066 14.768543 -2.519525 -11.470226 10.523773 -2.611168 11.777918 8.047263 -5.799052 -11.419666 5.223132 8.149318 -3.049448 -3.874658 5.588144 0.325852 -4.223689 7.894636 -13.819592 -10.649221 2.031591 3.953938 2.047928 3.028334 -10.376145 -5.114936 10.156217 11.923257 16.436787 7.230395 -7.461294 11.355812 -21.076171 0.218624 -18.524772 -22.170850 -13.887374 -24.612354 -35.931149 -27.471321 -13.336791 3.165119 13.765963 14.522190 -7.790797 -9.577334 -12.789634 -10.798109 -15.137056 -2.828618 -7.832731 12.300928 5.195563 19.960969 -6.346014 9.307492 5.926486 3.434732 7.924611 9.179669 -5.279982 11.055342 -3.629240 -7.512272
23.486709 2.955047 0.301525 -0.753883 -1.183096 -5.542357 -5.708598 -6.038231 -5.261472 -2.557485 -2.967269 -5.614427 -3.023444 -1.811577 -2.834697 -1.127724 -1.674794 7.527365 5.801601 4.777749 5.392212 2.276038 1.597200 1.631135 2.847548 3.484525 3.597611 2.755608 4.413706 4.108570 4.802470 5.123014 6.192839 0.697317 1.652287 2.398321 2.159036 -2.539164 -1.689685 -2.843325 -2.431394 2.187614 3.120666 5.011959 3.803885 3.371060 2.814411 2.964330 2.538853 -5.136436 -5.406584 -4.292682 -3.998813 -2.750803 -1.368985 -2.145305 -1.802541 2.319567 2.600212 5.224630 4.613272 3.629056 3.264320 3.011044 2.510584 0.633364 -0.284699 0.172323 2.326080 -0.992812 -1.338910 -0.002302 -3.147410 0.325951 -0.726896 1.061013 0.177636 1.332177 -1.418808 0.495011 0.413256 -2.065897 -2.366632 -1.482532 3.604483 -5.794528 2.730471 -2.851277 -0.815440 1.232456 1.904749 -2.147278 1.609803 1.671595 2.977713 19.529982 7.179780 -0.565591 0.242722 2.338919 -1.870495 -6.351271 -9.709391 10.045345 0.621349 5.143303 9.225353 -5.251547 3.167985 5.287731 2.978450 3.568494 1.937821 -0.709505 -2.924817 -1.035597 -0.005099 2.128824 -2.135714 -0.247606 3.874469 -5.180262 1.462584 -0.666822 3.398710 1.353802 1.419577 19.983542 20.010903 2.611426 -3.246796 -0.269311 -0.982638 -9.909508 0.514553 -10.011117 -2.927173 -6.030398 -11.732657 -24.442453 -16.435870 -14.444662 -24.817270 7.229386 2.811233 1.410481 -0.864646 10.095215 8.316929 -1.372063 4.392793 -21.256980 -13.876724 -18.234292 -16.131939 3.789622 -2.378393 1.869354 -1.558576 4.043308 -4.168532 0.016044 3.597705 2.642306 -3.008002 -1.872612 8.914523 1.342240 -0.214227 4.994112 -2.280360 -4.038997 2.504088 1.417871 -5.618563 -4.278650 -2.763788 -4.075956 -12.962983 -0.379914 5.230751 2.391835 -3.054462 8.556808 3.145068 3.059843 1.873224 -4.502180 -8.428472 -2.854294 -0.181730
8.982679 -0.080986 -0.562342 -1.190832 -1.813963 -1.186912 -4.387517 -4.408386 -4.094405 2.342718 2.252671 3.337459 0.816041 5.765932 6.950663 9.938006 11.051519 -1.584738 -2.177108 -2.599286 -2.976081 -3.358840 -7.523722 -5.905382 -5.712162 0.642935 0.936086 -5.313839 -1.487855 3.498318 4.259143 6.566332 6.989211 -2.623391 -2.202477 0.153505 0.222344 2.439642 2.021021 0.434481 0.423263 2.727724 2.882019 4.108489 3.806126 -0.344791 0.320572 0.586552 0.784381 -6.250596 -5.869692 -2.827451 -2.981817 1.510120 1.118072 -0.607741 -1.247594 2.744862 3.380175 3.267629 2.349509 0.308077 0.096935 -1.107742 -0.639522 -0.335829 0.400700 0.337837 0.655641 0.369151 1.553657 0.441655 -3.914967 -3.235661 -4.920805 -0.605713 0.476652 0.656833 -0.507266 -4.619055 6.897412 -4.121476 -4.277490 3.675070 2.371324 -4.004556 -6.315338 6.526411 0.073558 -1.490728 2.621588 -1.692194 -2.125736 1.354753 -0.762369 9.214296 2.691389 6.339358 4.298917 -5.051407 -0.519381 -7.523655 1.235892 1.084810 1.825452 0.268180 -1.749024 -0.675004 -2.950612 -0.671548 -4.828208 3.699404 3.180694 4.234832 7.223232 -5.990448 7.254152 2.143077 2.491002 1.459111 -2.750883 7.584054 0.702539 3.173736 3.831793 -0.013640 3.852901 8.596927 9.608508 -0.498461 -1.559557 4.507563 -2.680820 12.343713 5.010713 1.229512 -6.982503 -2.168658 6.118111 5.563150 2.563918 2.070202 4.592665 -6.853242 3.663321 -11.947652 -5.775596 -5.329539 1.559251 -1.515590 0.597142 -7.264372 -2.457759 -1.343456 -2.220563 6.098255 1.091493 -6.022179 3.321064 -19.852549 -7.937091 -14.153316 -17.338489 -4.594995 -13.533554 -18.219018 -14.400887 -4.515373 2.544844 10.913683 8.455892 -3.426377 -5.874163 -9.616229 -4.467475 2.070790 0.406142 2.283665 8.499183 -1.716397 10.131798 -1.128780 4.420626 5.457706 -1.951077 1.270815 3.385351 0.596088 5.781148 -5.148064 -2.099410
-1.105429 -3.537531 -1.993599 -1.501953 -1.586607 2.639980 2.221235 2.778647 2.694310 0.501252 0.974797 1.337058 -0.505075 1.830008 2.739011 4.580638 5.291110 -4.300793 -3.236421 -1.707209 -2.001072 -4.122776 -3.542468 0.274516 1.044422 0.119739 0.170773 -1.423472 -1.153290 0.350170 -0.610460 0.389885 0.179744 2.386464 1.834362 2.008397 2.092122 1.383440 0.784719 2.305144 1.980207 -1.577051 -2.175956 -2.032290 -1.405676 -0.365748 0.554126 1.030396 1.609226 -2.582351 -2.249216 -0.921358 -1.477088 0.121768 -1.122739 -0.657530 -1.432304 -1.228792 -1.127136 -0.145964 -0.397737 0.440029 0.760466 -0.367913 0.870555 0.005237 0.567045 -0.601388 -1.460916 0.789773 1.647922 0.171453 -1.679597 -0.206715 -0.424009 -2.334795 -0.007604 0.457495 0.699132 -2.895869 2.105260 2.052785 0.357027 -0.118334 -0.437517 3.041822 -0.442727 -1.041251 -2.197686 -1.931193 -2.280838 1.762341 -2.056470 0.119226 -1.861637 1.179345 -3.666156 -2.880625 0.072353 0.123576 2.116765 -3.231746 1.588470 -2.358387 -0.561242 -2.968006 -2.060955 7.619321 0.268364 -0.558485 2.095621 -4.398170 0.643367 -3.541789 -0.673240 0.662994 1.679614 -2.982120 -4.008916 5.748840 -3.882560 3.240504 0.187205 -1.708755 -2.252149 -0.839353 -1.997941 0.837712 1.906410 -0.747605 -2.178543 -1.694632 -2.960643 1.971681 0.040057 1.443869 0.071295 4.472594 0.641566 4.102806 1.836268 -0.176233 9.458180 -2.792792 0.511503 0.702264 -2.815994 -6.039871 -0.835280 1.626767 -2.564088 8.934099 10.991000 8.201961 10.152612 3.247998 -0.764762 -1.488308 1.172040 -0.434594 -1.058260 -3.037710 0.239978 -4.513204 -1.089471 -9.194717 -12.174738 -3.963867 0.294194 -2.551356 4.736868 -2.758823 -4.416040 -0.947309 1.114881 1.352485 0.069478 5.375605 3.574760 4.558051 2.756101 3.217517 1.094576 -1.420453 1.760328 2.689153 6.881227 1.136171 7.149528 2.001965 1.362603
-0.168488 -6.039887 -6.025864 -5.820850 -5.958982 0.560507 0.432824 0.240537 0.862549 -0.911177 0.435669 3.097269 1.570201 1.263438 2.517111 3.662528 4.786680 -7.189372 -6.962020 -6.739786 -7.604775 1.261957 2.198358 -0.607508 1.425196 -1.811480 0.296524 6.662614 5.656244 3.358322 3.913830 5.391038 5.909815 -3.147008 -3.117757 -1.706115 -2.290214 -0.589342 -1.613423 -1.317447 -1.070017 -1.026409 -0.925363 -1.387487 -1.496222 -2.269117 -1.963051 -1.015363 -1.460355 -0.590495 -0.103514 1.322767 0.279800 4.303601 3.203383 0.841962 0.588763 3.825187 4.172290 3.709108 3.181521 0.117307 0.107256 0.512816 0.754449 -0.038203 -0.069206 1.951533 -1.597761 -0.071091 -0.351293 -1.441510 0.574405 -0.978509 0.841640 0.616205 0.034950 -0.766311 -2.070229 -0.683713 1.155758 6.106082 0.402416 -0.520091 -1.570617 2.651133 3.831326 -5.015278 -1.721503 1.176727 -3.771877 -3.289128 2.291379 -4.062690 -3.220896 1.121063 -3.491690 -6.004749 2.562342 2.946869 2.726017 -1.991879 -1.114150 -1.391277 -2.827801 -0.038876 -1.070099 -4.271245 0.623035 -2.834492 4.314519 2.689357 -0.089366 -1.633556 -8.623757 18.883213 -3.416446 -1.055950 -6.761907 4.070655 -8.467655 0.291081 3.548228 -5.268053 -6.438164 0.964559 -2.663959 0.811569 1.430449 -3.473880 -2.310320 1.653367 -0.799974 -0.845609 -1.104205 1.480774 8.066627 -1.513303 2.572819 -3.290516 -0.686760 -3.950923 3.135355 -0.839627 -4.966135 4.081724 7.861388 4.771848 -0.685256 1.562306 -1.607461 0.876483 5.866210 3.979678 2.437305 -9.714812 5.191754 -4.542606 -2.743494 1.731151 2.887969 0.597242 5.247008 -2.854298 8.266716 -0.022802 7.226221 -2.267362 2.398964 -15.012257 -7.071348 -5.272494 6.609212 1.621926 5.932748 -8.530252 1.165072 2.328407 0.665445 -1.548757 -4.327094 -0.204376 -0.477089 -0.334579 1.388920 3.991654 -1.565337 -4.026318 -1.704475 6.423247 1.603782
17.972358 1.091827 -0.019413 -0.752505 -0.488037 -4.182667 -4.687740 -4.719123 -4.387281 -1.137701 -1.497229 -3.838493 -1.527917 -0.949378 -1.727781 -0.639333 -1.337423 4.503262 4.000063 3.255544 3.862721 1.942279 1.399945 1.479782 1.998244 2.887273 3.032440 1.544708 3.452689 3.230491 3.831909 4.069249 4.281955 0.650069 1.167190 1.733909 1.590017 3.016335 3.194957 2.544504 2.341125 1.362714 1.560827 2.828259 1.933990 1.485165 1.064767 1.083727 0.793856 -3.075926 -3.448506 -2.855631 -2.723359 -1.978224 -0.958295 -2.082170 -1.778452 0.642153 0.479999 1.635646 1.312975 1.554065 1.243046 1.026109 0.627517 0.623652 -0.446872 0.130180 1.415852 -0.647607 -0.415107 0.419652 0.465609 -0.271724 -0.734108 1.457116 -0.267561 1.262561 -1.094537 -1.532014 -3.579560 0.136696 -0.667978 -1.358401 2.586551 -3.018102 1.320278 -2.041752 -0.848105 0.382423 1.680016 -0.874907 1.754548 0.700753 1.540556 15.946388 4.168594 -3.008477 -1.415918 3.974699 0.744268 0.610283 -4.748348 8.121753 0.973210 3.521013 5.081320 -2.485316 0.953232 4.403062 1.710530 3.826150 2.579643 -1.076153 -1.010392 -3.445615 -0.081341 1.727495 -0.921523 0.389585 1.991822 -3.912305 1.382747 -2.379572 0.395829 -0.755910 1.192248 16.252065 16.394235 -1.305474 -3.111858 -4.524818 -3.976800 -16.644296 -3.479129 -2.493201 -0.792354 -2.559815 -6.941801 -15.948235 -8.867858 -4.077431 -14.978269 1.524068 1.178060 0.085116 -1.997574 4.348978 3.485294 -0.984723 1.946364 -14.472302 -9.620270 -11.053476 -8.923010 3.711562 -2.662294 4.149804 0.877910 0.242126 -5.323767 -1.881857 3.672738 2.827184 -2.674737 -2.933868 3.785273 2.026767 0.088193 2.204223 -0.065103 2.036566 0.606788 2.039012 -4.743808 -2.572669 -2.787250 -3.757815 -7.783866 -1.579084 1.187097 1.180285 -2.373685 2.697961 0.896788 1.944820 1.755112 -1.999271 -4.667424 -0.661383 0.922314
5.828011 1.327492 1.097790 0.663171 0.292695 -0.167567 -1.563301 -1.862516 -1.631299 0.312319 0.383680 1.876707 -0.041901 1.896591 2.811185 4.166772 4.811216 -0.025176 -0.225717 -0.518887 -0.691378 -1.404346 -2.960254 -2.221966 -2.463748 -0.830991 -0.474769 -0.599311 -1.761026 0.341952 1.020102 1.942959 2.327534 -1.332236 -1.228951 0.027418 0.271516 2.018548 1.709380 1.218032 1.005834 1.773991 1.770082 1.947419 1.771282 -0.146809 0.208159 -0.289347 0.185940 -3.437213 -3.403431 -1.651251 -1.621184 0.803847 0.487520 0.341572 -0.289978 1.164176 1.503693 1.273925 0.750319 0.510353 0.132918 -1.012811 -0.634702 -0.148398 0.081080 -0.342011 0.684512 0.507755 0.971314 0.409043 -2.700942 0.172200 -2.200022 -0.284044 -0.007051 0.106751 -0.225707 -3.587935 3.356387 -5.766529 -5.096248 1.334939 1.167880 -1.139763 -3.261660 3.831749 -0.740793 0.049491 1.638516 0.382633 -0.278170 0.525334 -0.549245 5.317609 2.544350 3.526899 1.405670 -1.356545 -0.417676 -6.945732 -1.670115 3.933336 3.166493 -0.622547 0.275005 4.048984 -1.195880 1.144329 -2.762635 3.156773 1.262972 4.426082 5.499039 -3.369944 4.058458 -0.586675 1.881762 -1.761785 0.376182 5.337565 -0.819309 3.658590 2.029740 -0.826866 1.463407 5.571183 6.505769 1.325570 0.811286 2.603659 -0.614371 8.263198 3.124046 -3.301429 -5.637854 0.720240 2.010342 -0.341649 -4.088718 0.073640 1.234166 -6.601768 1.833674 -4.683380 -3.499399 -4.879779 0.075873 0.645309 0.520578 2.105301 1.452782 0.699068 -0.499708 6.371674 0.173984 -2.540831 1.514766 -14.690088 -3.110942 -10.082438 -10.246103 -4.232941 -8.361361 -7.084099 -7.953648 -1.864430 0.321636 5.348387 5.990882 -0.263029 -5.050871 -5.357503 -2.506752 2.149339 2.066304 4.227189 7.965048 -1.463975 6.111401 -2.285978 1.904613 0.947726 0.150737 -1.244806 1.384245 2.684850 3.492990 -4.019817 -1.128504
-2.126057 -0.940333 0.213075 1.132622 1.063827 2.564708 2.641315 2.771754 2.645448 0.369696 0.522257 0.603041 -0.659632 0.541982 0.659903 0.949103 1.293251 -2.418839 -1.424960 -0.285018 -0.476326 -2.732537 -3.266398 0.937703 1.026784 -0.504272 -0.446274 -1.309784 -0.967219 -1.354693 -1.955492 -1.604042 -1.716707 1.903721 1.809924 1.720027 1.321730 1.616190 1.044768 1.378795 1.193635 -1.102367 -1.438361 -2.305911 -1.538454 -1.368110 -0.820168 -0.200626 0.183233 -0.448462 -0.205793 -0.051629 -0.691754 1.425903 0.454198 0.585158 0.223906 -0.765187 -0.790743 -1.547682 -1.565806 -0.478007 -0.487887 -1.036741 -0.143558 0.217710 0.050913 0.125247 -0.522727 0.349879 0.262734 0.037498 -1.455877 0.408360 0.094566 0.703673 0.369894 0.108055 0.667739 -2.180418 1.516300 0.939643 0.187761 -2.804568 -2.656402 1.818591 -0.398655 -0.712868 0.687777 1.121839 -0.901782 0.195478 -1.389064 0.239726 -0.022716 -0.932608 -1.822508 -0.049982 0.746724 -2.080129 1.192492 -1.382505 3.587333 -0.823446 -1.239906 -0.747403 -2.353335 4.696024 2.064512 -0.787852 0.258214 -3.518155 -2.763292 0.180133 0.727556 -0.479392 1.916140 -0.631029 -0.541249 1.491698 -2.620962 2.157816 1.070324 -0.196870 -2.384771 -0.564344 -2.426847 -0.814084 0.090695 -1.672367 0.607100 -1.080240 -3.104038 2.643055 0.776871 1.474973 2.998366 1.705394 1.775806 7.725650 4.541541 5.535096 11.690694 -4.778528 -1.460857 -2.908696 -7.282539 -10.237962 -7.118525 -4.676102 -5.724376 11.703533 8.172265 6.071441 9.400849 1.508678 -1.442440 -3.363408 0.854343 4.116588 4.599016 -3.215777 1.482537 -3.983064 0.998345 -3.875719 -6.125187 1.185718 0.335946 -2.571903 2.426605 -1.037682 -1.274978 1.482323 1.287053 6.719366 -0.396535 3.650020 1.765394 4.763571 0.219258 0.820822 2.129316 -2.849432 -1.022603 -0.808069 2.407863 2.415898 4.166342 -0.693151 -0.128764
-3.378442 -0.616197 -0.239335 -1.828740 -1.225985 0.421042 1.418483 0.534414 0.315551 -0.491610 -0.894082 -1.437583 -1.066900 -0.469769 -1.016110 -0.203932 -0.115005 -1.014464 -0.421607 -2.106322 -1.709445 0.690734 2.146929 0.504115 0.441212 0.426386 -0.181700 0.765972 1.143848 0.713602 0.063611 1.033184 1.041261 -2.999879 -3.166751 -2.470939 -2.925535 -1.165398 -1.221000 -1.071727 -1.430214 0.468289 0.453118 0.134442 0.208720 0.743492 0.264940 0.377881 0.090797 -0.836916 -0.746706 -0.038987 -0.486883 1.332961 1.191367 0.663882 0.263110 2.064061 1.860456 1.239028 1.021048 0.915478 0.359869 0.729184 0.800370 0.566246 -0.359331 0.500854 -0.564694 -0.457872 0.120906 -0.420381 0.870242 0.501429 -0.597365 0.573542 -0.329101 -0.712912 0.664371 0.644459 -1.014969 0.603939 0.820033 -0.703543 0.468881 -1.234587 -2.327048 -3.662913 -0.925282 1.642942 -1.366348 0.051769 0.881447 -0.693467 0.213935 -2.471195 -0.083237 -2.668169 -0.731339 2.986534 0.005952 0.048913 0.108061 0.211327 0.093255 1.916219 1.754236 -7.069219 -0.912947 -2.452332 1.093419 -0.038780 1.407237 -6.329963 -7.611886 1.923716 -3.007906 -0.915961 -5.056664 0.799495 -3.108760 -6.528238 0.052707 -4.153953 -0.562634 -1.319183 -2.015781 -2.392587 -1.388980 -1.008146 1.653486 -1.227965 2.572532 -2.706688 -0.415807 1.173933 5.152049 3.883086 3.194407 -2.893203 -0.463567 0.721860 6.090592 3.705230 -5.333381 1.776483 -2.389933 4.457881 -1.265355 2.027558 -0.744697 -3.927681 -1.579466 -4.599167 -7.284449 -8.422795 -4.070885 -1.648640 -2.797511 5.451289 1.136512 1.943954 11.344788 3.929976 5.647583 8.566586 8.652354 5.823706 0.215315 -10.314157 -1.464908 0.179118 1.125037 7.996438 2.317914 6.980128 2.284004 7.994485 -4.233866 1.827242 -3.705471 1.023147 -0.585322 2.982715 4.374185 -0.840645 -2.872595 0.359276 -0.881119 5.320284 3.615995
-2.965807 -2.359433 -1.841262 -1.152540 -1.340614 2.065466 2.367920 1.924875 1.710655 0.983245 1.023181 2.247198 -0.025177 0.972315 1.841531 1.992271 2.551372 -2.861574 -2.443684 -1.884921 -2.071070 0.570477 0.780273 0.573074 0.784506 -0.678690 -0.618569 0.016531 -1.132155 -2.007889 -1.895405 -1.656567 -1.401145 2.312809 2.489982 2.456371 1.945828 2.036609 1.501358 1.681087 1.480046 -2.200860 -2.374772 -2.794230 -2.418702 -0.681062 -0.283910 -0.125055 0.127445 -1.053809 -0.588843 -0.075956 -0.933246 0.844391 -0.109798 -0.494369 -0.888072 -0.752437 -0.711145 -0.789108 -1.049563 -0.362032 -0.350600 -0.737746 -0.066417 -0.195501 0.377750 0.184282 -0.763838 0.412483 0.615485 0.021567 -1.160965 0.212782 -0.086744 0.147031 0.589241 -0.276612 0.000589 -1.444911 1.767011 0.761245 0.021438 0.556436 -0.296873 2.652391 -0.719556 -1.201049 -2.073884 0.100745 -1.772497 0.598364 -0.725463 -0.161859 -1.183842 -1.150531 -2.446301 -2.127342 -0.637398 0.425066 -0.231309 -1.632307 2.417023 -1.393503 -1.631766 -0.833745 -0.789914 4.063347 -0.912337 0.659236 0.013038 -3.271209 -0.521672 -0.906453 0.871564 2.158666 3.304465 -1.344804 -1.235342 1.442921 -4.034104 4.070606 0.628688 -0.067751 -1.274362 -0.167869 -0.687711 -1.350316 -1.414646 -0.881162 1.105400 1.166129 -0.855941 2.704412 -0.493509 0.707787 1.216954 2.511874 2.928810 2.766661 1.572281 4.631945 6.750397 -4.400056 0.167111 -1.239015 -1.496776 -3.000264 -2.058449 0.100155 -0.383926 9.974673 7.782000 6.431769 8.752234 0.452355 -0.212507 -4.212851 -0.144675 -3.393453 0.683649 -1.305297 -1.547987 -4.634905 -3.183874 -7.780005 -7.269063 -1.947750 1.091878 0.195523 1.735000 -1.122039 -2.900256 3.983284 1.592074 1.715217 1.455288 1.097941 2.064122 1.475619 1.389241 2.670307 2.752524 -0.537165 0.716312 -0.686790 2.745501 -1.080696 3.557902 2.220901 0.160610
0.122694 -2.657695 -2.962238 -2.564493 -2.578629 -0.730712 0.071560 -0.224536 0.094312 0.610870 0.113542 1.721889 1.278725 1.388616 1.308624 2.227166 2.841884 -3.060389 -3.421460 -2.995793 -3.187488 0.308519 0.762711 -0.475558 0.080681 -1.537651 -1.249859 2.563953 2.409465 1.640384 1.535222 3.086424 3.724649 -3.655296 -3.181137 -2.292623 -2.613985 -0.749061 -1.025290 -1.257745 -1.596380 0.196733 0.417158 -0.528968 -2.024098 -0.191658 -0.846053 -1.581143 -1.058913 -1.361369 -0.830756 -0.050206 -0.594910 2.608843 2.099628 0.425719 0.431787 3.962202 4.223237 3.654744 2.773006 1.129199 0.539773 1.538146 1.562112 -0.054669 0.183060 0.804792 -1.002044 0.159494 -0.764973 -1.016545 2.352801 0.758515 0.844945 0.499632 0.985529 0.406028 -0.077882 0.400424 -1.809677 2.600257 1.558700 -0.655262 -0.078735 2.528802 1.631792 -3.115718 -0.252702 -3.300101 -3.774198 -0.743777 1.138396 -1.841137 -0.614103 0.985737 -1.532398 -1.155834 -1.179739 2.964457 -1.565754 -0.038803 -3.631785 -2.073167 -2.836555 -0.950207 -0.573603 2.040306 0.628449 -3.416156 4.383321 -1.498142 -4.019054 -2.325102 -3.393263 13.659284 -5.445839 -2.304923 -4.511761 -3.081614 9.587540 -4.952639 -1.169787 -2.369597 0.273801 1.604244 -0.782076 0.945975 0.670314 -0.881836 -1.402244 -0.494199 3.143217 -1.675394 -1.133973 -0.277676 3.515738 0.324910 2.929712 0.344051 2.548522 -4.339634 -2.604264 0.242060 -0.773911 6.549006 4.223847 -2.004659 -2.060901 1.048908 -2.902880 0.531032 2.248554 0.922909 0.370858 -2.712926 2.229541 -3.295636 -5.729000 6.594044 3.656620 9.245267 2.273967 -1.076000 2.333163 3.230744 4.972799 -9.449051 2.291695 -6.165285 -6.583223 -5.544467 1.392228 -1.972763 0.197318 1.362058 -2.042049 5.174883 2.808731 -1.756541 -5.924623 0.097921 -0.615746 5.040053 3.162543 3.065131 -1.357147 -1.324534 -0.258067 7.281230 -0.010278
-1.256851 -1.344435 -0.582752 -0.908733 -0.351282 -1.182952 -1.181146 -1.445726 -1.328854 -0.164437 0.249044 -0.211182 0.547850 -0.465916 -0.247833 -0.150955 0.033932 -3.236971 -3.566037 -1.328833 -1.492250 2.441739 1.958242 2.172812 1.966801 -0.352507 0.037382 1.394420 1.150803 1.726135 1.505385 1.518154 1.583253 0.227508 0.149661 -0.211726 -0.374621 -0.195175 0.037746 0.934359 0.983093 -1.706375 -1.684956 -2.009143 -2.011459 -0.543885 0.055855 -0.155895 -0.141694 0.519125 0.678388 0.548614 0.694177 0.011613 0.111158 0.089583 0.225340 -0.076295 -0.085139 0.014631 0.427691 0.150718 0.601667 0.680653 0.797932 0.421230 0.342796 -0.820750 -0.576571 -0.697584 -0.086394 0.645530 0.851815 -0.471146 0.153554 0.471895 -0.210902 -0.045505 0.059837 1.411594 -0.597393 0.720664 0.027943 -0.020779 -0.118770 0.742589 0.506647 -0.319538 0.405665 0.494933 0.689464 -3.700357 -0.272384 -0.612906 -0.965116 -0.605958 -1.536391 -0.052469 -0.062564 1.178222 0.605796 -0.861953 -1.380869 1.439000 0.170788 0.049817 0.353715 0.720547 -1.128938 0.424478 0.854778 0.213539 -0.505453 1.138085 0.854846 0.919136 3.862359 -0.580694 0.218604 -1.800281 1.925461 0.946129 -0.433379 0.697359 -1.440370 0.386355 0.668278 -0.860150 -0.811031 0.523280 -0.097790 -0.036253 0.383392 -0.115473 0.007890 0.403359 0.706361 1.112209 -0.462095 -1.478775 -1.714276 -1.240428 -2.314764 -0.755617 -0.580227 1.016933 0.995632 0.365799 0.534153 0.157122 0.915073 0.490917 0.051563 0.577504 -0.461744 -0.332930 1.025155 0.951409 -1.203192 -1.827047 -2.088643 0.780340 0.271328 1.068134 -0.600489 3.121215 0.068874 0.254229 -1.400912 0.227111 1.258095 1.722863 -1.889349 -1.477862 0.913669 -4.290437 -0.671985 0.851671 -0.301748 -0.505563 1.433016 -2.595947 -0.468354 0.236188 -0.463755 -2.350290 0.369919 -0.277591 0.462754 1.110813 1.922711
1.045624 -4.042629 -4.078605 -3.591163 -3.807619 0.147926 0.099926 -1.215196 -1.198965 1.334658 1.704442 3.329074 2.760049 3.128127 3.983690 4.692724 5.333284 -5.419436 -5.530666 -3.957768 -3.857048 0.208855 -0.458535 -1.435825 -0.632806 -1.593439 -1.101667 1.535219 0.695965 2.481288 3.092590 3.884984 4.554191 -1.189724 -0.633133 0.708294 -0.011190 2.677501 2.266833 0.765836 0.668768 2.601862 2.877244 1.236849 1.352389 -2.878707 -2.694730 -3.059390 -2.549781 0.295189 0.806333 2.052984 1.507293 2.854444 2.265030 0.403914 0.502191 0.702632 0.815992 -0.296646 -0.103578 -3.539911 -3.392877 -3.186146 -2.780141 -0.104612 0.535155 0.105934 -0.069777 0.194288 -0.116468 0.328129 0.299558 -0.480866 0.004942 -0.249627 -0.119769 0.634969 -0.784907 0.430373 0.643062 1.539798 -0.346779 0.613669 1.099888 1.672682 1.263245 1.272269 -0.652189 0.349318 -0.115368 0.473130 -1.003060 -5.179418 -2.040635 3.226574 0.371392 0.290838 1.081082 2.196910 0.924838 -0.536049 0.149934 1.160092 -1.947564 -0.758577 -1.449047 3.917375 -0.304615 -1.575148 -3.005731 2.643199 -0.191628 3.257691 3.273978 1.708702 1.488152 -2.824504 1.082301 -1.086888 0.992008 2.606759 0.859218 0.847757 0.455073 0.036177 0.260306 2.321986 2.561219 1.322046 0.214728 0.627490 -0.857454 2.841902 -0.152136 -2.860562 -2.713620 -1.312480 1.089421 6.388425 -0.085705 -3.423690 5.689473 -1.088529 1.892877 -1.303729 -0.699314 -5.053036 2.329075 -4.224721 -2.969696 3.469653 8.779075 4.710854 4.624276 -5.708874 0.982274 -5.239066 -3.711192 -6.714390 -0.869776 -3.773386 -7.001208 1.053345 -1.390729 6.061427 0.838743 -2.232419 -0.708381 1.067510 -1.285302 -1.739902 -2.495448 1.597255 0.593511 -7.957023 0.215618 0.188061 2.507619 2.380355 5.964704 -0.096191 1.502117 -1.618075 0.506284 -5.396519 -7.235948 -0.957837 1.114574 -4.121366 -1.180787
5.290744 -0.128743 0.023024 -0.552248 -0.274392 -1.317681 -1.903087 -1.286216 -1.168924 -1.492178 -1.704025 -3.137723 -2.016369 -1.574702 -1.913354 -1.748631 -2.151176 1.769430 1.806946 1.815684 2.351329 1.561689 1.494419 1.848367 2.121563 1.417002 1.495203 0.833317 1.616840 1.728209 2.007231 1.832299 1.937644 0.651881 0.886982 1.034626 1.003818 1.491368 1.413869 1.290151 1.118793 2.110562 2.134639 2.360952 1.931731 2.497680 2.231687 1.664346 1.619499 -1.164294 -1.482696 -1.262535 -1.165537 -1.039227 -0.711610 -1.499319 -1.394342 -1.227022 -1.472304 -1.346736 -1.216129 -0.940867 -1.184010 -1.446228 -1.598981 0.681615 -0.269623 -1.489661 0.988999 -0.405188 -0.428836 2.463390 0.695973 -0.373957 -0.179170 1.732040 -0.183936 0.479379 -0.386373 -1.567564 -0.815248 -0.849231 -0.035971 -0.227423 1.437597 -0.990641 0.501484 -0.971561 0.531250 0.906377 1.185906 -0.159982 -0.040654 -0.313004 0.389319 5.007246 -1.339093 0.503333 -0.711321 0.716919 -0.027054 -0.087290 -2.542171 3.474215 0.634625 1.399238 0.444100 -1.041493 -1.098075 2.012834 -0.781594 0.883281 0.205107 -0.696635 0.894885 -2.559467 1.240851 -0.006732 -0.718792 -1.754695 1.528397 -2.817612 0.778516 -1.133836 -0.807960 -1.761667 0.686304 5.014243 5.101852 -3.367647 -2.901651 -0.508267 1.217620 -2.583362 -0.034879 0.555030 -0.437138 0.034966 -2.204087 -4.394058 -0.691348 0.490998 -3.784093 -0.904909 -0.671387 -0.381835 -1.083934 -0.414996 0.411188 -0.114661 1.806726 -3.236634 -1.835949 -3.662249 -2.256628 1.833401 -0.675495 3.593767 -0.052068 -1.244454 -2.233832 -0.933217 1.103093 2.262368 0.301663 -0.122039 2.174966 0.314018 0.333396 0.719359 -0.354104 3.370248 -0.068193 0.255940 -2.283580 -0.706009 -0.200790 -1.046673 -1.915467 -1.164170 0.545367 -0.079904 -1.016026 1.294616 -0.880846 0.271737 -0.394266 1.504762 -1.463312 0.351133 0.077988
6.076850 1.373873 1.312065 1.112718 0.789768 0.678928 -0.506372 -0.330009 -0.433198 -0.020245 0.153320 0.911318 -0.334812 0.747255 1.592424 2.139415 2.562015 0.279420 0.175261 0.070822 -0.150094 -0.457821 -1.737738 -0.933475 -1.410286 -0.624846 -0.239355 -0.455328 -1.255829 -0.353845 0.188333 0.507429 0.725741 -0.461259 -0.404612 0.422007 0.467370 1.606191 1.339314 0.869050 0.662872 1.050447 0.951208 0.943884 0.826536 -0.353453 -0.175214 -0.494442 -0.208827 -1.932567 -1.965028 -0.830346 -0.857786 0.717621 0.388629 0.134089 -0.399692 1.023945 1.275280 0.985274 0.312493 0.841139 0.478169 -0.695707 -0.439734 -0.285556 0.134484 -0.080993 0.476642 0.275570 0.616999 0.647229 -1.021123 0.119932 -1.384361 0.106226 -0.040010 0.376184 -0.182994 -3.379871 0.732219 -0.969374 -2.366348 0.192076 0.359684 -0.711308 -2.112855 2.131689 -0.162944 -0.014009 1.410702 0.383302 0.140316 0.352163 -0.188320 6.338296 2.175004 -2.350069 -2.211552 2.046490 1.051032 -1.708012 -1.291178 4.083317 2.717582 -1.015643 0.276587 2.496313 -1.629966 1.563264 -0.721949 1.770227 0.534217 3.110486 3.333574 -2.553883 3.336122 -0.567855 1.395257 -0.807818 -0.764927 4.015392 -1.057253 1.697416 0.856145 -0.665486 0.730417 6.329330 7.334693 0.638303 0.297960 -0.910993 -1.666890 -0.789935 -0.868082 -3.035886 -3.120132 1.161859 1.425131 -0.069083 -1.558264 0.934379 -0.239823 -4.546663 0.740484 -2.887788 -3.192899 -2.614732 0.524595 0.450836 -0.289495 1.970170 1.357537 -1.217826 -0.601003 4.668004 -0.775922 -1.449972 1.574105 -9.765044 -2.002368 -7.978778 -6.558089 -3.292721 -6.596815 -4.936740 -5.830597 -0.838215 -0.578979 3.988024 3.881156 0.207793 -3.234491 -2.185436 -0.512987 0.454350 2.384155 4.106627 5.108805 0.674163 4.701364 -2.223057 1.297729 1.255500 0.428143 -2.265682 0.752853 2.010863 2.489371 -2.275700 -0.931914
0.438326 -0.697954 -0.028939 0.526221 0.545712 1.715802 1.517127 1.777665 1.841756 0.341642 0.457906 0.615129 -0.236396 0.693950 0.732397 0.941517 1.175708 -1.978280 -1.398740 -0.552610 -0.529425 -0.406367 -0.575593 -0.015438 0.130098 -0.351193 -0.345149 -0.951553 -0.781537 -0.891714 -1.197404 -0.833335 -0.802678 1.037484 1.035725 0.949588 0.745749 0.523018 0.299046 0.415956 0.299067 -0.287262 -0.423928 -0.924027 -0.540081 -0.572623 -0.185599 0.088451 0.329907 0.312467 0.343917 0.236867 -0.111710 0.585459 0.090625 0.151882 -0.029871 -0.444032 -0.405465 -0.802733 -0.974642 -0.359205 -0.302920 -0.549715 -0.093069 0.014285 0.081569 0.392104 -0.212734 0.301847 0.173690 0.154298 -1.102428 0.441210 -0.164933 0.176569 0.212283 0.062829 0.293834 -1.861656 1.418580 -0.418687 0.577181 -0.462609 -0.570772 0.169026 -0.649414 -0.721537 0.369701 0.757844 -0.460349 -0.629438 -1.007704 0.201266 0.031192 0.929343 -0.432657 1.110819 0.769799 -2.675726 -1.321254 0.458531 2.451650 0.836300 -0.597311 0.386207 -0.107447 2.234332 1.161031 -0.311309 0.096089 -2.080776 -1.155794 0.118788 0.043905 -0.948538 0.803775 -0.263875 -0.851414 1.213280 -1.458074 0.491700 0.796533 -0.706955 -1.662061 0.180887 -0.846417 1.114883 1.751654 -1.744578 -1.036666 -0.495352 -0.970246 1.584946 1.825946 -2.381410 0.671820 -1.819852 -1.425863 3.474256 2.742093 4.768413 5.839319 -2.015214 -0.508615 -2.374997 -3.705891 -3.572729 -2.867997 -2.975866 -3.178675 3.969976 3.155381 3.473136 5.433235 0.460650 -0.699906 -1.864429 0.579551 2.242325 1.846358 -2.088189 0.608926 -2.228099 0.313324 -3.240702 -2.862239 0.295747 -0.191307 -0.603276 1.976527 -1.091644 0.111577 1.231799 -0.021929 3.446494 -0.877961 1.058964 0.870185 3.007970 -0.455127 1.240467 1.002558 -1.386132 -0.853140 0.071226 1.688700 0.283347 2.097494 -1.121202 -0.432843
-1.304534 0.482113 1.065903 0.033034 0.395501 1.086589 2.241423 1.722326 1.769512 -0.818405 -1.319891 -2.051445 -1.211836 -1.608813 -1.769929 -1.573269 -1.702348 0.073236 0.759426 -0.253012 0.086302 0.935492 2.336239 1.396648 1.499138 -0.166963 -0.706905 -0.895857 0.283368 -0.717490 -1.074089 -0.753540 -0.846994 -1.791139 -1.980651 -1.473393 -1.794511 -0.929107 -0.741319 -0.620525 -0.894537 -0.477878 -0.468677 -0.456819 -0.198795 0.637856 0.264244 0.299504 0.076679 -0.260880 -0.333829 0.118613 -0.095811 0.952716 1.058278 0.836227 0.521034 1.218211 1.112814 0.670426 0.747489 0.844980 0.396997 0.726416 0.730855 0.269979 -0.347574 0.429204 -0.554400 -0.051746 0.282981 -0.260328 0.752212 0.102219 0.436819 0.242729 -0.311113 -0.830639 0.403644 -0.089369 -0.984724 0.508447 -1.237302 -0.486709 0.577456 0.905236 1.675631 -1.948266 -0.745055 1.058360 -0.867194 0.570735 -0.075066 -0.401636 0.351311 -1.118107 -1.287898 -0.898601 -0.660946 2.276087 -0.514954 -2.575121 -4.989696 0.765874 -0.303672 1.617253 1.405061 -3.261630 0.272346 2.209425 2.296367 -0.201759 1.056546 -3.402190 -5.033089 0.049658 -3.097636 -0.811737 -3.518091 -1.212937 -1.566914 -2.957500 -0.720665 -2.060475 -0.649057 -0.842697 -1.358939 -0.899059 -0.689777 -1.802971 3.471390 -0.215575 2.644607 -3.743096 -1.544158 1.455673 4.806145 5.289215 2.466020 -5.595775 -6.147989 -3.685995 0.882024 1.519375 -2.701835 1.083063 -2.773845 2.600955 -1.488669 0.756820 -0.117528 -0.774019 -0.976290 -3.313768 -4.551936 -3.143151 -3.434366 0.903450 0.658276 5.183151 0.311483 1.676060 9.842735 4.549182 6.614400 7.011063 7.827258 4.832102 -0.304861 -6.600644 -1.539405 2.894618 0.542359 5.126455 0.995440 6.041550 1.077565 3.774136 -2.706322 3.034263 -3.467386 1.689289 -0.777019 0.629023 2.292614 -1.743419 -2.627053 1.324222 -1.121481 3.367505 3.349043
-6.702734 -2.029330 -0.849306 -0.301692 -0.342075 3.001793 3.351577 2.710793 2.452300 -0.300731 0.066870 1.115266 -0.732924 -0.463628 0.262059 -0.124390 0.303437 -3.177012 -2.172432 -1.592304 -1.638869 1.505564 1.803143 1.784572 1.526204 -1.106598 -0.898877 -0.630179 -1.657566 -2.235979 -2.258534 -2.165445 -1.908441 2.382623 2.596448 2.759543 2.221282 2.170790 1.578397 1.482622 1.201341 -1.768083 -2.168484 -2.833114 -2.466671 -1.804177 -1.742678 -1.677043 -1.258529 1.064117 1.432897 1.639208 0.953173 1.537318 0.641732 0.311371 -0.031780 -1.522231 -1.615896 -2.641051 -2.504121 -1.607263 -1.694674 -1.981810 -1.357991 -0.059454 0.207952 0.073606 -0.508231 0.125422 0.479841 -0.053756 -0.822886 0.079067 -0.098916 0.542832 0.035944 0.102341 0.281468 -0.135500 1.209412 1.232043 0.122444 0.811877 -0.446099 2.755347 0.030858 -0.362091 0.183067 0.186059 -1.163039 0.637769 -0.732848 0.238718 -0.710001 -4.223799 -0.572944 -1.289090 -0.313866 -0.157709 1.364281 0.160763 1.957813 -2.869302 -2.007378 0.154955 -2.192676 2.418689 -1.499954 -0.687653 -1.320262 -0.201938 -1.911637 0.171143 1.565220 0.837628 1.433301 -1.005937 -0.244926 0.270639 -2.108962 2.276766 1.414122 0.031022 -1.510567 -0.266379 -0.711732 -4.827781 -4.695068 0.335619 2.512967 0.187333 -1.094421 4.042717 -0.123726 3.009349 1.467165 2.932171 4.468528 6.407712 4.481194 7.694145 8.623579 -8.464863 -1.342293 -4.774570 -3.598256 -4.078569 -3.350261 -1.671770 -0.885009 10.931878 6.909708 6.855992 8.268381 -0.367474 -1.557922 -4.241383 0.494020 0.214979 3.152822 -1.586945 -0.663174 -1.845165 0.510500 -3.694588 -5.192961 -0.096059 0.518546 -0.734484 0.788940 1.493048 -1.855182 3.105232 2.252506 3.388217 -0.001717 0.699381 2.227860 1.953518 -1.823516 2.104520 1.846878 -2.323094 -2.262594 -2.230921 1.810943 0.612931 4.038666 0.607146 -0.171651
-1.895314 -0.825912 -0.309928 -1.224119 -0.639496 0.687096 2.240772 1.196225 1.139573 -0.470095 -0.935837 -1.726555 -0.748248 -0.373883 -1.030764 -0.429516 -0.492334 -1.602759 -0.961737 -1.584046 -1.175619 0.545606 2.055954 0.551289 0.746754 0.097384 -0.523742 0.781754 0.965378 0.385451 0.173687 0.726420 0.865932 -2.304620 -2.160835 -1.537265 -2.080871 -1.041624 -1.022769 -1.458322 -1.778750 0.760567 0.856390 -0.180894 -0.030366 -0.014713 -0.414476 -0.078980 -0.034346 0.074541 0.215160 0.708551 0.276045 1.492482 1.552499 0.293401 0.103687 1.683227 1.443254 0.767163 1.041220 -0.211474 -0.532307 0.839068 0.880042 0.300643 -0.209206 0.272423 -0.473615 -0.318416 -0.373360 -0.309621 1.951704 0.181399 0.908795 -0.087763 -0.463044 -0.767044 0.472423 0.466767 -2.306289 0.980413 1.595274 -0.678522 -0.753675 2.270121 1.579076 -2.540607 -1.256389 0.474689 -0.484996 -0.309472 0.488334 -1.251351 0.148679 -0.699230 -0.469565 -0.737917 -1.824720 1.842080 -1.274878 1.687901 -2.088028 0.193076 -0.414917 -2.876576 -3.418873 1.376725 1.801342 0.616894 1.614973 1.532303 1.424743 -4.798428 -5.872217 4.061796 -3.961161 -1.638556 -3.392894 -0.435028 1.712270 -4.392103 -0.874707 -2.651225 0.150632 -0.420367 -1.164486 -1.041975 -1.336202 -1.369025 2.756959 -0.974540 4.377461 -2.593002 -0.537404 0.339298 3.567185 1.076860 4.478051 -0.445173 -0.686620 -3.193764 2.014425 4.331464 -2.254023 3.633947 0.027675 -4.599132 -5.399200 -1.747529 -1.648508 -1.615926 -0.482115 -3.101382 -3.889097 -4.612377 -0.496419 -0.829219 -3.604669 3.796933 -0.296433 7.914417 10.645173 5.387714 4.521527 8.394573 7.530144 1.146171 0.206070 -6.448408 -4.608026 1.578059 -0.380567 3.931023 0.876489 4.362332 1.500798 5.518597 -2.083553 -0.306631 -1.153530 1.117071 -1.435243 1.281188 4.177550 -1.090424 -4.460969 0.666414 -0.762267 4.256566 3.236606
-2.898390 0.039162 -0.088290 -0.623996 -0.666736 -0.155896 -0.259087 -0.456946 -0.408677 -0.400758 -0.398159 -0.404584 -0.405635 -0.336807 -0.376856 -0.117343 -0.067118 0.064678 0.019879 -0.615258 -0.677331 0.558465 0.329566 0.359355 0.404032 -0.050114 -0.137513 0.116518 -0.244344 0.498688 0.291140 0.606374 0.705200 -2.118308 -1.943681 -1.710850 -2.024759 -0.974031 -1.022762 -0.814442 -0.949173 -0.662046 -0.665491 -0.200877 -0.405583 0.135189 -0.051276 -0.581768 -0.469612 -0.252957 -0.134815 0.193424 0.040819 0.802208 0.788151 1.031114 0.904534 0.822393 0.880809 1.247844 1.197077 1.290007 1.240203 0.756194 0.754075 0.013176 -0.026796 -0.158732 0.205892 0.118788 -0.376751 0.071402 -0.013772 -0.226799 0.079189 -0.226352 -0.298803 0.016945 -0.048824 0.708155 0.192349 -0.299299 -0.841656 -0.100965 0.343742 -0.861372 0.798541 0.307863 -0.284881 -0.553995 0.340508 -0.304953 -0.253121 -0.496628 -0.027617 0.067921 0.073365 0.496131 0.581758 0.475460 0.547530 -0.529452 -0.848693 1.169575 -0.098228 -0.346137 -0.736397 -5.037811 -4.863298 2.020090 2.254552 1.099504 1.214445 0.564670 0.913699 1.317901 1.115998 -1.043882 0.557086 -0.089490 0.842871 0.439023 -0.030808 0.973490 0.634601 0.101989 0.977847 -1.342841 -1.022685 0.684517 -0.974458 -0.152566 -0.594662 1.345161 1.969287 0.397954 -1.036433 0.515770 0.109045 -0.237840 0.522727 0.148262 -1.912319 -2.135201 0.804903 -0.133415 2.083685 -1.797909 1.115230 0.307367 0.368220 -4.547810 -2.056097 -3.149788 -4.029005 3.695098 3.117411 1.971907 1.527361 -2.589558 -1.435405 1.277429 -2.307092 1.323964 -1.778517 2.670542 1.402194 -1.103841 0.232636 1.230406 -1.181344 1.867490 -1.374012 1.118843 1.923693 -1.330676 1.154582 -0.608625 -0.017667 -2.128362 0.577276 0.542175 -0.338024 0.486808 -0.559619 -1.468380 -0.504790 0.082033 0.762019 -0.278122 -0.428413
2.458232 -0.412786 -0.786115 -0.559282 -0.825434 -0.058229 -0.076916 -0.868678 -1.221352 0.762583 0.781443 1.048866 0.433158 1.481126 1.875112 2.126151 2.369598 -1.045115 -1.305451 -0.867087 -1.063140 -1.120610 -1.574750 -1.861669 -1.537889 -0.028096 0.188651 0.043014 -0.569374 1.317982 1.648423 2.012615 2.151485 -0.008710 0.313521 0.685273 0.364239 1.615805 1.330765 0.189950 0.277910 1.558952 1.594825 0.852996 0.834116 -2.296752 -2.363783 -2.408467 -1.956275 0.986013 1.250605 1.626902 1.351452 1.997112 1.758455 0.411399 0.467584 0.710277 0.667422 -0.005519 0.098268 -2.553464 -2.543970 -2.341486 -2.007182 -0.050675 -0.038275 0.110418 0.310607 0.114180 -0.400431 0.236015 -0.070713 -0.046158 0.153442 -0.155079 0.123147 0.238206 -0.053199 0.091536 0.421206 0.546938 -0.967009 0.706918 0.485917 0.471892 -1.115488 0.803692 -0.422867 -0.189189 0.529903 -0.257002 -1.067571 -0.456157 0.084875 5.552050 0.743169 0.741486 1.698192 0.254433 1.283428 -1.442233 0.940841 0.486972 -0.262290 0.281478 -0.583214 4.297002 0.481252 -4.542538 -4.053714 2.531381 0.377312 2.674179 2.548468 -0.247359 2.492926 -0.426726 1.702442 1.080449 0.854666 0.968968 -0.005278 2.457470 0.991170 0.511124 1.033998 3.974752 4.022750 0.088112 -1.249719 -0.726436 -1.493413 1.812043 0.576845 -1.219282 -2.161283 -1.041888 -0.157418 4.158494 2.389593 -3.330380 2.971393 0.410468 1.782224 -2.257316 -0.233824 -5.863798 -0.257767 -1.581001 -0.583509 0.484674 3.939242 3.108778 3.773321 -4.284106 -1.792665 -5.257842 -3.032566 -4.401653 -1.214553 -1.430669 -4.659336 -0.278528 -2.176485 -3.736618 -3.097819 -2.531945 -0.191401 1.187934 -1.244401 -1.079874 -1.327423 -2.109209 0.477702 -0.184906 0.595931 -1.140911 1.698072 -0.804031 4.191872 1.119194 0.617501 -0.384093 -0.045131 -0.670631 -2.264151 -0.198240 0.608895 -1.477741 -0.224471
-3.109322 -0.727166 -0.469462 -0.598411 -0.753188 1.360188 1.229731 1.289544 1.192991 0.593072 0.572376 1.105964 -0.200754 0.544916 0.931643 1.176513 1.537923 -1.132014 -0.972939 -0.831754 -0.998675 0.802022 0.701937 0.506926 0.817657 -1.078362 -1.180233 -1.271091 -1.584634 -1.498922 -1.745535 -1.276375 -1.153212 1.518576 1.610962 1.683843 1.460522 1.681507 1.410046 1.414072 1.206834 -0.951849 -1.106726 -1.193441 -0.987151 -0.527003 -0.234956 -0.127740 -0.011161 -1.472106 -1.096595 -0.787300 -1.266693 -0.220684 -0.700779 -0.797085 -1.122231 -0.411419 -0.365361 -0.251355 -0.428490 -0.168483 -0.196749 -0.546594 -0.123733 -0.034022 0.071863 0.017227 -0.499324 0.516990 0.404676 0.034851 -0.516316 0.112466 -0.451888 0.206108 0.282949 -0.072394 0.118785 -0.953229 1.037554 0.350348 -0.097808 -0.039324 -0.267316 1.772049 -0.073443 0.162729 0.557053 -0.026180 -0.826204 0.295483 -0.773956 -0.074831 -0.456676 -1.687928 -1.438374 -1.018954 -0.031037 -0.060251 0.883418 -1.425437 1.064346 -1.119852 -1.248285 -0.334296 -1.198070 2.406370 -0.998594 -0.423210 -0.228628 -3.911542 -1.301658 -0.401108 0.821413 1.245787 2.266097 -0.758614 -0.614251 1.687320 -2.021041 2.317659 -0.130277 0.894749 -0.354345 -0.300711 0.225920 -1.843252 -1.614116 -0.335674 0.013311 0.548547 -0.520984 3.528852 1.084148 1.102389 -0.068229 1.469796 1.947468 2.347436 2.233292 1.959767 5.998400 -2.262096 0.094541 -0.290438 -0.132196 -3.094775 -0.167288 -0.483907 -0.946835 3.689759 3.267501 4.282134 5.088067 0.772053 0.308429 -1.955956 -0.068935 -1.596908 -0.930577 -1.544784 -3.108519 -2.068484 -0.902915 -2.500902 -4.803439 -1.469712 -0.272062 -0.111803 1.103890 -0.553922 -1.800080 0.139698 1.452664 0.833184 0.991642 1.586322 0.951404 1.196993 1.662818 2.014161 1.222726 -0.476870 -0.397752 0.059755 2.438106 0.003574 2.465292 1.055258 0.542861
-0.817450 -1.593675 -1.440887 -1.670290 -1.569054 -0.362997 0.220938 0.030048 0.143320 -0.210000 -0.296762 -0.388367 -0.218065 -0.220724 -0.918609 -0.294574 -0.129689 -0.579696 -0.531043 -1.021298 -1.015063 0.759428 1.695753 0.439318 0.731190 0.618657 0.409678 1.641457 1.271159 1.109426 0.237951 1.124918 1.210103 -2.029470 -1.905157 -1.467089 -1.854092 -1.032324 -1.018901 -1.463812 -1.779708 -0.384890 -0.474566 -0.893659 -0.937542 -0.140868 -0.583594 -0.638332 -0.699662 0.291981 0.498457 0.831233 0.482044 1.557460 1.567714 0.423113 0.326069 1.729358 1.551169 1.534170 1.323641 1.071785 0.670307 1.328113 1.299606 0.096678 0.009495 0.572045 -0.545050 -0.120023 -0.297322 -0.623616 1.025634 0.079933 0.886856 0.386914 0.083695 0.161275 0.216314 0.696722 -0.499381 1.371924 0.612260 -1.458114 -0.403910 1.380231 1.188483 -2.358674 -0.724343 -0.040126 -1.054445 -0.320293 0.638779 -1.016708 -0.114075 -0.313334 -2.100945 -2.461215 -1.002569 2.202387 -0.644782 0.633375 -1.995120 -0.738838 -1.867057 0.088342 -0.121147 0.405306 1.961363 -0.497177 2.043000 -0.875903 -0.336982 -6.864899 -6.702200 4.797135 -2.394664 -0.081715 -1.844942 1.010736 -0.560783 -2.371958 0.340113 -2.100164 -0.666845 -0.211626 -1.228235 -0.156924 -0.308594 -0.471763 -0.991125 -1.032973 2.181882 -2.786942 -1.229981 0.316364 4.588266 0.974585 0.271650 -0.994388 -1.099701 -1.121510 -1.687622 2.676747 -1.578772 3.155929 0.614905 0.350197 -0.784665 0.511735 -0.595137 -2.700426 -0.169610 0.909919 0.467778 -0.222084 1.695160 -1.448790 -3.886814 6.902588 2.717095 5.818002 6.140387 0.612814 3.321748 0.689350 0.313725 0.807571 0.305839 -4.776956 -5.910280 -0.033893 2.636195 1.004331 1.747896 2.304725 1.053617 1.631698 -4.244665 0.926005 -4.701933 -0.662387 -1.297847 1.655109 2.139227 3.044846 1.232750 0.296219 -1.379745 4.583214 0.257040
-1.609035 -1.113236 -0.858273 -1.151469 -1.092882 -0.843209 -0.550607 -0.722670 -0.571379 -0.045686 -0.059348 -0.478715 -0.029032 -0.044990 0.053999 0.494778 0.648201 -1.627872 -1.664670 -0.881733 -0.957618 0.577156 0.454643 0.641986 0.892888 0.345018 0.130321 -0.063999 0.146732 1.468270 1.583257 1.820948 1.890156 -0.753028 -0.628178 -0.339070 -0.482459 0.385610 0.449040 0.362550 0.426525 0.200893 0.310304 0.222826 -0.092258 0.574263 0.615247 0.042897 0.232704 -0.543520 -0.350461 -0.258305 -0.233419 -0.298334 -0.192998 -0.586814 -0.431506 0.408604 0.442610 0.039931 0.140712 -0.663372 -0.576036 0.026204 -0.060197 0.204774 0.027255 -0.342234 -0.203811 0.199023 -0.163074 0.208898 0.822931 -0.027793 -0.114172 -0.108294 0.075436 -0.281313 0.155836 -0.128285 -0.557344 0.102073 -0.165209 -0.316564 0.296744 0.711082 0.154241 0.833465 -0.013158 -1.276120 -0.363397 0.533602 -0.704318 -0.384291 0.187551 -1.033516 -0.217671 -0.085452 -0.016205 0.508057 0.192306 -0.522664 -1.296773 0.091732 0.265376 0.061578 0.697932 -0.323263 -0.182927 0.430666 0.114557 -0.837332 0.542589 0.247416 0.273323 -3.839441 0.050529 -0.952210 -0.338122 -0.334405 2.742188 0.206275 -0.714561 1.304633 0.135459 -0.334180 0.163154 -1.225886 -1.209939 0.765375 0.581490 -0.464834 0.352809 0.628342 -0.471349 -0.280553 -0.749855 1.474172 0.929347 -1.222763 -0.418609 0.211794 0.118732 0.482985 -0.282998 -0.295873 -0.500960 0.177483 -1.009949 0.581020 1.420097 -0.334070 -0.329252 -0.225080 -1.404936 0.585242 1.328090 0.744368 -0.187654 -1.185987 -0.852381 1.581531 0.405183 0.264250 -0.053457 2.816515 0.515703 -1.023050 -1.180460 0.629168 -0.751184 0.898132 -1.284242 -0.569119 0.665835 -1.246195 0.200122 1.316349 -0.147528 0.952683 2.008527 0.374332 -0.408827 0.516778 0.805081 -1.663569 -0.363908 0.223902 -0.521473 0.023656 0.886287
-0.287226 -2.476897 -2.181244 -2.688097 -2.605144 -0.888765 -0.297758 -0.715451 -0.544824 0.395678 0.109145 -0.440004 0.124203 1.265788 1.306450 2.186778 2.286374 -1.324270 -1.117484 -1.468123 -1.183047 -0.458028 -0.144536 0.145172 0.637301 0.879321 0.629344 -0.760880 -0.077458 1.913753 1.998079 2.611357 2.596042 -2.264165 -2.144499 -1.452009 -1.781367 0.060688 0.090717 -0.892237 -0.936318 1.908435 1.882189 1.579763 1.687293 -0.100290 0.089938 0.262384 0.725732 -1.017948 -0.831219 -0.102912 -0.460673 1.014070 0.937690 -0.047160 -0.064188 0.206791 0.250958 -0.003483 0.094890 -0.051835 0.129129 0.325475 0.616936 0.188110 0.139588 0.002229 0.240395 0.423085 0.118794 0.040089 -0.108258 -0.337836 -0.129739 -0.428930 -0.135217 -0.724695 -0.555215 0.297300 -0.129501 0.640169 0.266475 -0.068066 0.367678 -0.153739 1.162303 -0.166916 -1.054083 2.167969 -1.128241 -0.472487 -1.005316 -0.609416 -0.315348 0.717090 1.085827 0.412326 0.003651 0.361274 0.936164 -0.535623 -0.654871 0.436169 1.098665 -1.017538 -1.160507 2.264261 1.264207 0.478491 -1.344539 1.041660 0.053237 0.617178 0.759882 -4.241446 2.600188 -4.942809 -4.648791 0.016531 -1.712016 -1.843682 0.062668 0.870974 -0.437935 -0.310449 -0.960073 0.511538 0.520217 0.449163 1.609567 -1.110475 -0.129759 1.797383 0.458048 -1.282209 -2.659260 -0.374061 -0.280019 -1.414815 -2.200316 0.446250 2.675997 -0.284369 -0.697351 0.489543 -0.903053 -1.602400 0.267149 -1.898126 0.093694 2.442682 2.859055 -1.010345 0.061250 -0.192162 3.193393 0.679227 -1.544737 -1.576690 0.356278 0.173360 1.112798 1.214951 1.145812 2.669553 3.110065 1.831000 -0.416607 1.592115 -0.243050 -3.451628 -2.287758 0.624958 -2.432794 1.306625 0.655197 2.463496 0.834730 0.160627 1.085738 2.261280 0.078303 1.362531 3.880696 0.449218 -1.049416 -0.123579 -0.099609 -1.671967 0.297741
-0.621234 -1.691787 -1.507942 -0.899732 -0.699790 -1.357935 -1.394663 -0.784794 -0.663436 0.980523 0.567490 -1.624416 -0.743973 0.226579 -0.722171 -0.579882 -0.844425 -0.197933 -0.149216 -0.047644 0.193716 0.521682 0.585209 0.343354 0.455041 1.469826 1.408058 0.691428 1.047571 1.303649 1.194367 1.212861 1.087150 0.032053 -0.083507 -0.194928 -0.142415 -0.600772 -0.405609 -0.731953 -0.650459 0.000734 -0.034481 0.240376 0.319345 0.335881 0.620611 0.601321 0.493144 0.252563 0.151741 -0.026954 0.032741 -0.843844 -0.396930 -0.717059 -0.705303 -0.453179 -0.694063 0.373183 0.705055 0.261060 0.390831 0.736908 0.512674 0.048581 0.095209 -0.274207 -0.153871 -0.042571 0.124793 0.120962 0.477976 -0.223970 -0.121488 -0.071462 0.100056 0.179902 -0.082081 -0.296637 -0.570246 0.201747 0.182307 0.369439 0.318511 0.134197 0.587146 0.065558 0.063101 0.762334 0.233830 -0.964597 0.245935 0.020035 0.299222 -0.340154 0.234944 0.085886 -0.254747 -0.245959 -0.068108 -0.569897 -1.190981 0.565098 0.578734 0.521228 0.236023 0.636304 0.084439 -0.028582 -0.659003 -0.663253 -0.068573 0.280965 0.105518 0.167382 0.239312 -0.164524 -1.221028 -4.425367 -0.489210 -0.015081 -0.042742 0.762007 0.034257 -0.332259 0.569965 -0.402996 -0.387421 -0.629729 0.342980 -0.388833 0.512986 -0.492604 -0.181126 0.360547 0.101235 0.100936 0.053241 -0.773045 -0.601830 -0.589550 -1.196334 0.301370 -0.712444 0.712498 0.335742 -0.504352 0.350983 0.093434 1.542062 -0.490073 -0.563918 -1.048680 -0.714183 0.024788 -0.265372 0.211994 -0.136635 0.043650 -0.798552 0.493010 0.366675 1.733537 1.066081 0.867405 1.454855 0.669434 0.249848 0.670003 0.567361 0.761549 0.102706 -0.684748 -0.602074 -2.821865 -1.877305 -1.022918 0.083217 0.436604 0.558142 -0.376788 -0.606907 0.226530 -0.257639 0.282153 0.548502 0.433954 -0.486394 0.692570 0.766166
-1.231982 -2.200140 -2.423191 -1.701304 -1.483521 -0.394419 -1.058696 -0.731807 -0.979551 0.047369 0.224301 0.099454 0.223886 0.118166 1.196622 0.590750 0.680703 -0.015475 0.292510 0.555575 0.537974 0.349407 0.145402 0.523016 0.447828 0.320026 0.543958 -0.900126 0.420682 0.770220 0.913695 0.936107 0.718597 -0.253007 -0.336645 -0.104877 0.140967 0.073167 0.113439 -0.173586 -0.101405 -0.968033 -1.379946 -1.345763 -1.276325 -1.929607 -1.968157 -0.641654 -0.828200 0.537539 0.539720 0.607975 0.764513 0.809717 0.819243 0.842714 0.558322 0.143261 0.220877 0.419143 0.168415 0.639664 0.675439 0.878331 1.122777 -0.151128 0.076209 -0.008929 0.407160 0.251184 1.391787 0.599449 -1.810148 -0.730705 -1.126440 -0.528283 -1.211214 2.600783 -0.513542 0.266886 1.946741 -0.093020 -0.662792 0.713069 0.497309 -0.750781 1.129744 1.434713 -0.611383 0.436415 0.947998 0.619962 -1.460962 1.567267 1.093475 -1.044329 0.308187 -0.436290 1.432932 -0.547484 0.224803 0.217879 0.487521 0.416267 1.125677 -0.288374 -1.907431 -0.768903 0.578944 3.013317 -0.639971 0.825802 0.744926 -0.592345 1.337442 -6.094312 1.173726 1.032716 -0.650878 1.785594 -5.270158 0.799166 -1.065171 0.425373 -1.231957 1.241388 0.199121 -0.989065 -0.749860 0.036055 0.144913 0.257180 -1.923608 0.617591 -0.835373 -0.481857 0.880812 0.687715 -0.891578 -1.070200 -1.898496 0.718114 2.193965 0.135509 0.460367 -3.558430 -2.130282 0.343149 2.442749 0.140520 0.283517 1.065031 -0.518485 0.225253 1.280606 1.662058 -0.981321 -1.196269 4.535732 -3.999116 0.889882 -4.107335 -2.008405 0.661552 -0.183093 -3.071792 -1.597745 2.207480 -0.182240 0.669559 4.534164 0.281790 -1.384666 0.432320 -1.074242 -1.392077 1.041730 0.029360 0.263914 1.250313 2.739534 -2.104686 -1.459496 -0.271737 1.257697 -1.571674 0.809979 -0.394837 1.035017 -1.876715 -0.534171
-1.226806 -2.984636 -2.202116 -2.001474 -1.913264 -0.549004 -0.863112 -0.668407 -0.743994 0.558515 0.703057 1.251130 0.693192 0.623900 0.852325 0.834684 0.764324 -2.838771 -2.376189 -1.888292 -1.988813 0.275414 0.169415 0.049550 -0.112301 1.134646 1.264862 1.587362 1.338686 1.822549 1.903260 2.053809 2.022886 -0.227803 -0.388489 -0.177660 -0.278303 0.059687 -0.162759 -0.504630 -0.526430 0.595742 0.387122 -0.024351 0.082896 -0.652416 -0.459862 -0.432597 -0.384899 1.618260 1.529489 1.613832 1.423592 0.944981 0.628943 0.394065 0.373053 -0.115944 -0.210283 -0.743116 -0.643486 -1.285416 -1.258020 -1.281331 -1.120670 0.012657 0.072893 -0.102621 -0.219864 0.110862 0.311627 -0.075268 -0.244545 -0.216447 -0.253171 0.061641 -0.094083 -0.064215 0.449331 -0.454323 -0.013555 0.862114 0.960846 0.551971 -0.040435 0.697012 -0.143012 -0.149580 0.540902 0.104825 -0.284990 -0.259847 0.049326 -0.946005 -0.002678 -1.152908 -0.036944 -0.663913 -0.266155 -0.427263 0.349362 0.321767 0.671443 -0.050804 0.843798 -0.665589 -1.714039 0.253006 0.125759 -1.358347 0.018708 0.130755 -0.162902 0.791799 1.074849 0.359337 -0.045146 -0.032584 -0.493811 -0.673437 0.992995 1.184166 0.306738 -3.039933 -3.336347 0.219470 0.351555 -0.940999 -0.815775 -0.350030 0.220998 0.009246 0.112341 0.722732 0.013418 0.543081 -0.015245 0.405674 2.135134 1.901541 2.719572 1.581224 1.170615 -1.772422 -1.923803 0.071396 0.317501 0.400188 -1.666239 -0.671587 -0.276947 0.900524 0.065111 3.296206 2.870785 -1.737713 -0.903500 -0.114120 0.877209 -0.436578 -1.155698 -2.854348 -0.273279 0.826826 0.529214 -0.821128 0.317774 0.380921 0.144903 -1.342750 1.534686 1.148456 0.554568 0.193700 0.089816 -1.384067 -0.679572 0.595039 2.389223 0.830346 -1.751428 0.091913 0.411435 -1.117377 -1.409465 -1.654422 -1.270478 0.217473 1.821125 1.095303 0.963243
-2.263508 -1.547302 -1.064162 -1.331205 -1.137501 -0.375393 -0.235441 -0.003473 0.193017 -1.054590 -1.389530 -1.495734 -1.069405 -1.641801 -2.246844 -1.995625 -2.088944 0.771527 1.204976 0.453251 0.696058 2.125697 2.429768 2.331232 2.035637 0.725144 0.438337 0.492604 0.833107 0.732016 0.255228 0.464093 0.231748 0.361752 0.163385 0.182199 0.070935 0.509965 0.630735 1.193040 1.152943 -0.243497 -0.296986 -0.177086 -0.206510 1.151936 0.859748 0.923921 0.952533 -0.779728 -0.792678 -0.885554 -0.878275 -0.748098 -0.660443 0.287183 0.027494 -1.663946 -1.630837 -1.607391 -1.451431 0.176436 0.333717 0.272447 0.508583 0.223352 -0.051956 0.153650 -0.020370 -0.012892 0.206856 0.009255 0.810142 0.213285 0.327209 -0.182036 -0.592034 0.032379 0.254544 1.196328 -1.270220 1.036761 -0.041557 -0.524420 -0.478074 0.643709 0.471922 -1.137768 -1.029109 0.309022 -0.438705 -0.597663 0.953178 0.901704 -0.746794 -2.779984 -0.580538 -2.486367 -0.878294 0.655353 -0.071133 1.018114 -1.105724 0.349976 2.001603 -1.849951 0.072099 1.707673 1.505870 0.498490 -0.077379 1.153899 0.191632 -0.847988 -0.520310 -2.151568 0.741842 -1.769301 -2.134352 1.383371 -2.904432 -3.800217 0.913505 -2.070943 -0.794226 -2.187204 -4.242432 -2.231587 -2.043484 0.804666 2.183243 -0.686412 -0.258972 0.340267 -0.254304 1.321959 0.899569 -0.477364 0.240334 -3.322603 -2.408344 1.773629 1.776635 0.465016 -2.886730 2.050772 -0.262386 1.712607 -0.872787 1.959045 -0.346350 3.967098 -0.417444 -4.807390 -2.941649 2.580591 0.495959 1.539024 -1.908813 0.824512 2.566223 -2.621501 3.297097 0.837005 2.076380 6.827598 6.035064 4.299084 -0.076990 -5.270946 1.177282 1.032748 1.786455 2.526654 -0.641343 -0.963879 2.654793 4.811076 -2.466147 2.169438 -0.451253 -0.321429 -1.159665 0.254589 3.719879 0.959253 0.995808 -0.036966 -2.191965 -1.828464 -1.524101
-0.018253 -0.142492 -0.227386 -0.138805 -0.156654 -0.274390 -0.083315 -0.150608 -0.317903 -0.549142 -0.692526 -0.584550 -0.692764 -0.302962 -0.489532 -0.288665 -0.468164 0.232904 0.326758 0.257832 0.409996 0.122776 0.067653 0.224500 0.380099 0.458618 0.326437 0.343757 0.245619 0.467809 0.359626 0.564906 0.752316 0.223100 0.270380 0.327537 0.239161 0.184570 0.109476 0.061480 0.075075 0.030944 0.059896 -0.115192 -0.113196 0.070464 -0.074274 -0.012035 0.086697 -0.063742 -0.077397 -0.046678 -0.089198 -0.305147 -0.176351 -0.283532 -0.285786 0.093283 0.019398 -0.195021 -0.043029 0.036917 -0.030363 -0.008558 0.012869 -0.039661 -0.014931 0.322115 0.275462 0.039784 -0.226518 0.501409 0.332430 0.222172 0.065908 -0.016312 -0.069513 -0.078478 -0.066170 0.380187 0.559574 0.257559 0.225614 0.037367 0.061898 0.124343 0.229183 -0.055642 0.013308 -0.038078 -0.083063 -0.014636 -0.010273 -0.084199 -0.034310 0.056946 0.472622 0.390173 0.362262 0.175652 0.173201 0.226025 0.277079 -0.062853 0.095078 0.043116 0.195471 0.127838 0.071712 0.080066 0.173474 -0.091904 -0.099245 0.000770 -0.042292 -0.081045 -0.064234 -0.017453 -0.051445 -0.061246 -0.062516 -0.068314 -0.169187 -0.103617 -0.084558 -0.003155 -0.103436 -0.019332 -0.015893 0.273039 0.210275 0.302797 0.244264 0.380133 0.290322 0.093417 0.136784 0.158313 0.199969 0.207870 0.174316 0.161630 0.198233 -0.149083 -0.015263 -0.002410 0.083796 0.016594 0.026653 0.029977 0.107718 0.077869 0.059609 0.102319 0.077298 -0.017475 0.041238 0.131858 0.081164 -0.165810 -0.091514 -0.079951 -0.075863 0.017689 0.002758 0.023009 -0.071255 -0.063215 -0.075638 -0.082171 -0.121942 0.115725 -0.064128 0.060223 -0.116293 -0.065071 -0.061131 -0.080537 -0.122591 -0.083500 -0.068732 -0.072150 -0.095035 0.060426 -0.096988 -0.036020 -0.165790 0.163386 -0.056850 -0.068144 -0.180255
1.871352 0.863978 0.839540 1.146545 1.047581 1.011603 0.864988 0.918974 0.977298 0.139753 -0.232566 0.500217 0.095804 0.974663 1.288209 1.406804 1.579982 -0.559464 -0.462554 -0.432865 -0.260105 -0.571096 -1.031640 -0.484011 -0.538113 -1.009066 -1.047892 -1.196875 -0.984873 -1.051020 -0.516344 -0.793050 -0.613053 0.513019 0.569223 0.720823 0.740027 1.007316 0.822038 0.722588 0.662848 0.851224 0.864553 0.528018 0.548897 -0.428345 -0.132462 0.085361 0.215688 -0.925724 -0.920552 -0.675257 -0.642875 -0.427031 -0.624898 -0.234157 -0.567752 0.155858 0.246669 0.115603 -0.408064 0.037547 -0.168672 -0.718075 -0.662082 -0.082624 0.024338 -0.080074 0.499370 0.350244 0.358782 0.613885 -0.531402 0.089049 -0.840218 0.093221 0.125840 -0.094986 -0.181845 -1.927812 0.838117 -1.036145 -0.631619 0.666075 0.938885 -0.627679 -0.844113 1.493115 -0.070186 0.153482 0.604064 -0.487550 -0.524699 0.003415 -0.040965 2.132002 0.558943 1.567612 0.482182 -0.553029 -1.029359 -1.599636 -1.018083 1.001054 1.041456 -0.309107 0.107068 0.531613 -0.853310 1.083476 -0.457185 -1.030882 0.148208 0.668244 0.696340 -1.867590 0.100478 -0.218813 -0.043313 -0.981809 0.629182 0.486597 -1.152916 0.709425 0.555933 -0.447452 0.498102 2.078254 2.372725 -1.814235 -2.756208 0.562745 1.238020 2.291903 1.622148 -0.945184 -1.330238 1.122491 0.093724 0.499981 0.855158 0.742407 0.703884 -1.230222 -0.437261 -1.843157 -1.095790 -1.149524 -0.284312 -0.281112 0.554139 0.968529 0.125168 -0.325987 -0.556003 0.968002 -0.380664 0.002096 0.248644 -3.463973 -0.714854 -0.584176 -1.596415 0.426085 -1.946574 -0.345905 -0.927527 -0.946129 -0.141438 2.466898 1.321037 0.309096 -2.121268 0.107184 -0.362157 1.314120 0.548938 1.343433 2.576848 -0.934503 2.047931 0.420077 1.101014 1.246778 0.856289 -2.118328 -1.067163 0.768109 1.217878 -1.298650 -0.177685
0.319858 -0.467160 0.058580 0.384643 0.351177 1.344826 1.223472 1.243155 1.339537 0.331407 0.453104 0.744599 -0.031343 0.958782 1.102629 1.130999 1.372228 -1.576357 -1.147611 -0.520534 -0.547435 -0.356860 -0.483311 -0.239279 -0.179274 -0.591990 -0.583619 -0.800917 -0.811741 -0.881755 -1.063170 -0.746475 -0.690447 0.785307 0.781500 0.765118 0.695492 0.398601 0.239709 0.347517 0.234291 -0.106271 -0.246660 -0.593469 -0.378147 -0.460664 -0.150813 0.033147 0.231379 0.176217 0.175534 0.093253 -0.117983 0.327452 -0.070561 0.109016 -0.045070 -0.351228 -0.301679 -0.636198 -0.793806 -0.203986 -0.182239 -0.382276 -0.052623 0.032070 0.071498 0.208533 -0.057617 0.255547 0.225420 0.220369 -1.105904 0.242464 -0.190980 0.013324 0.106732 -0.181287 0.185655 -1.464880 1.538065 0.327459 0.011282 -0.086347 -0.318110 -0.143271 -0.760767 -0.353361 0.067779 0.606786 -0.196372 -0.684689 -0.747411 0.115225 0.039831 0.789407 -0.123516 0.092421 1.250832 -0.581914 -0.202249 0.279619 2.082175 0.881588 -0.300479 0.382616 -0.015064 1.127121 0.496102 0.088365 -0.341260 -1.370387 -0.668666 0.069526 -0.187549 -1.413823 0.606508 -0.449074 -0.654757 0.856399 -1.015162 0.686245 0.666525 -0.447419 -1.047582 0.235317 -0.419216 0.876412 1.282966 -1.014042 -0.727777 -2.196688 -1.966698 1.868831 2.006726 -2.587852 0.212475 -1.096867 -0.792508 2.360843 2.095021 3.336636 4.177916 -1.750685 -0.262352 -2.033727 -2.468355 -2.028954 -1.918350 -1.769815 -1.791325 1.719272 1.321725 2.542193 3.280016 0.906919 -0.142245 -1.357806 0.945572 0.652019 0.952097 -1.185868 0.315124 -0.864661 -0.132531 -2.309652 -1.796283 0.057112 -0.042148 -0.513310 1.702735 -0.788947 -0.001042 0.642762 -0.510599 2.330897 -0.696390 0.459516 1.463093 1.826955 -0.311403 0.940989 0.688898 -1.050195 -0.220336 0.279354 1.060162 0.070209 1.615318 -0.987042 -0.101478
0.043634 0.261309 0.737117 0.220345 0.355185 0.925656 1.678374 1.240481 1.283807 -0.061137 -0.332526 -1.079162 -0.587025 -0.456572 -0.582690 -0.584964 -0.646571 -0.336082 0.157316 -0.234507 -0.018974 0.329977 1.214309 0.681719 0.748975 -0.316490 -0.632306 -0.661401 0.095730 -0.796387 -0.986556 -0.781990 -0.791329 -0.884618 -1.014402 -0.614112 -0.869523 -0.504747 -0.412875 -0.476861 -0.651258 -0.596672 -0.605750 -0.728590 -0.517619 -0.196255 -0.469425 -0.532170 -0.596891 0.440385 0.294398 0.716142 0.478123 1.184137 1.176097 0.584494 0.447237 1.154588 1.080318 0.671843 0.683729 0.394066 0.029052 0.172477 0.208315 0.194495 -0.244889 0.180204 -0.297603 0.019927 0.245005 0.070743 0.160616 -0.038863 0.200579 0.227416 -0.193331 -0.676307 0.211673 -0.377204 0.101810 -0.442404 -0.332880 -0.171268 0.314169 0.197148 1.200226 -1.093818 -0.574489 1.027710 -0.302127 0.585860 -0.291253 -0.314458 0.246672 0.175245 -1.539813 1.349808 -1.649152 0.330814 -0.922141 1.103125 -1.986028 0.872750 -0.457117 1.674243 1.003828 -2.321925 -0.367165 2.090157 1.007966 0.139246 0.475745 -2.009346 -3.598840 -0.280295 -2.390696 -0.156506 -1.498779 -0.784814 -0.992851 -1.295316 -0.617827 -1.053795 -1.044440 -0.488216 -0.527560 0.211486 0.085759 -2.559377 3.128489 1.291219 2.483808 -6.507118 -2.707034 1.216289 3.340374 2.223078 0.489663 -3.011734 -3.258388 -1.267016 1.285423 0.418203 -0.922915 -0.358872 -2.624432 1.143304 -1.485685 -0.186947 -0.116864 -0.361531 -0.883950 -1.186560 -1.936616 -1.443772 -2.546398 1.172670 1.532754 2.730366 -0.351398 0.912486 7.143019 3.421113 4.925296 2.962181 3.560015 3.604702 -0.285530 -4.310885 -1.091517 2.601596 0.202034 2.843386 0.636356 3.991118 0.538811 1.338398 -1.894825 2.553387 -2.751816 1.405154 -0.189078 -0.442213 0.977329 -1.288813 -1.846473 1.105151 -0.856882 2.270260 2.510701
-2.004846 -1.041935 -0.345034 0.030914 0.001192 1.891450 1.928321 1.698162 1.571200 -0.212810 0.064310 0.834960 -0.143979 0.118654 0.848142 0.547280 0.808002 -1.793968 -1.288918 -0.940792 -1.061673 0.588845 0.656424 0.816185 0.625505 -1.074459 -0.949002 -0.629263 -1.116570 -1.218647 -1.185928 -1.095693 -0.935724 1.188388 1.323071 1.449941 1.264741 1.043034 0.717000 0.824798 0.705437 -1.052435 -1.289931 -1.611544 -1.445101 -1.042054 -0.980318 -0.955920 -0.783889 0.712942 0.891675 1.067719 0.796847 0.887764 0.351372 0.327296 0.178893 -0.547961 -0.569070 -1.222019 -1.220015 -0.724689 -0.743246 -0.951423 -0.596149 0.021534 0.096792 0.028035 -0.332587 0.073062 0.270385 -0.024735 -0.311807 -0.082467 0.031675 0.293327 -0.023525 0.056355 0.201988 -0.382119 1.016629 1.118551 -0.129676 0.651072 -0.195790 1.114893 -0.259031 -0.144435 0.067223 0.256517 -0.416086 0.229458 -0.302585 -0.036964 -0.323858 -0.904188 -0.476255 -0.210766 0.000752 0.193677 1.104438 0.607479 1.079195 0.443423 -0.327992 -0.009723 -1.407072 1.309396 -0.816887 -0.478151 -0.630781 -0.139566 -1.102041 0.515836 0.788378 -0.212405 1.233423 -0.856030 -0.070844 0.611525 -0.519663 1.324742 0.911870 -0.020303 -0.811061 -0.025648 -0.384352 -1.107781 -0.985892 -0.564304 0.481613 -0.007243 -0.124197 0.637690 -0.226083 -2.889010 -1.128587 1.828072 2.327434 3.001107 2.515402 4.299376 4.633949 -4.090896 -0.717868 -2.271965 -1.980825 -1.926543 -1.747263 -0.722536 -1.102724 4.191952 3.314459 3.473906 3.880242 0.413219 -0.243134 -2.014055 0.282403 -0.794448 1.423677 -0.347188 -0.497289 -0.910564 -0.253988 -1.518561 -2.775704 -0.626069 -0.152097 -0.893957 0.213956 0.776630 -1.414764 1.279047 0.946791 1.299412 0.162905 0.554155 1.670804 1.227079 -0.378261 0.370254 0.964662 -1.302204 -0.799327 -1.523837 0.591967 0.352139 2.445028 0.131433 -0.236082
-1.316065 -0.367202 0.079667 -0.402424 -0.007141 1.132379 2.142562 1.372684 1.487610 -0.093223 -0.528911 -1.488655 -0.786079 -0.573240 -1.586641 -1.039904 -1.206843 -0.787038 -0.320136 -0.694272 -0.442293 0.846064 2.044894 0.971170 1.246409 0.016028 -0.478665 -0.003957 0.230297 -0.365421 -0.682683 -0.550624 -0.480475 -0.379682 -0.385486 -0.206782 -0.630375 -0.343530 -0.153857 -0.512942 -0.628691 -0.045468 0.053901 -0.398563 -0.206398 -0.254989 -0.492270 -0.357163 -0.327341 0.667816 0.575224 0.821919 0.442551 0.931759 1.099213 0.171866 0.152380 0.340839 0.210896 -0.142232 0.203863 -0.654265 -0.796717 -0.044639 -0.026904 0.226386 -0.232624 0.032746 -0.360303 -0.169445 -0.468001 -0.014189 1.483559 -0.106590 0.790428 -0.086651 -0.420355 -0.969322 0.492836 0.147526 -1.591153 0.903439 0.940571 -0.692863 0.288423 1.204753 1.326275 -1.451209 -0.516417 1.113219 -0.409109 -0.158394 0.825569 -1.399796 0.108415 -0.706670 -0.581230 0.142547 -1.675205 1.492486 -2.842476 2.290298 -1.691062 0.600249 -1.164467 0.651314 0.792169 -0.564191 0.244789 0.952491 0.804665 0.765397 0.647275 -2.427697 -3.776466 2.143059 -2.700144 -1.132897 -1.306179 -1.755626 -0.030045 -3.557251 -1.119475 -1.118756 -0.396771 -0.600392 -0.552660 -0.913988 -1.428182 -2.736562 4.147894 -1.218444 3.312798 -3.057187 0.085251 1.544076 4.344280 -2.787277 -2.330633 -1.247645 -1.597335 -0.629829 1.650053 1.896241 -1.518294 1.629070 -0.280917 -1.402311 -3.058899 -1.123710 -0.348209 -0.253265 -0.490795 -1.769493 -1.751762 -2.931920 -0.566805 1.640037 -1.430807 3.449682 -0.197357 4.430679 7.654259 3.674887 4.147403 6.465360 5.558714 2.472307 -0.466069 -3.977015 -2.587676 2.589608 0.752885 2.664413 1.355163 3.884020 1.079996 1.268371 -1.673010 1.335666 -2.175080 1.410043 -0.768145 -0.329613 1.274739 -1.445264 -2.918535 0.904912 -1.682965 2.575222 2.679216
-2.343395 -0.017078 -0.064194 -0.397878 -0.393782 0.209046 0.352329 0.151038 0.169107 -0.149234 -0.076108 -0.298102 -0.213808 -0.417970 -0.335908 -0.284455 -0.337460 -0.007056 -0.034805 -0.471947 -0.550436 0.326868 0.340884 0.413286 0.512088 0.003303 -0.032715 -0.125720 -0.332275 -0.081844 -0.119874 -0.028055 -0.050638 -0.843950 -0.747046 -0.616074 -0.770425 -0.313471 -0.366077 -0.337829 -0.354240 -1.025688 -1.028908 -0.754243 -0.747117 -0.256695 -0.297869 -0.485103 -0.411176 0.238833 0.292148 0.424351 0.379486 0.663239 0.618690 0.707522 0.696063 0.070215 0.102653 0.260532 0.381159 0.535320 0.661795 0.479586 0.500927 -0.002069 -0.014663 -0.210358 -0.013543 0.009755 -0.176790 0.101951 -0.002310 -0.201692 0.119066 -0.094883 -0.234105 0.133773 -0.071308 0.452460 -0.017010 -0.020744 -0.144963 0.163225 0.160452 0.643289 0.147553 -0.049840 -0.200665 -0.210033 0.070651 -0.112459 -0.123558 0.036258 0.048898 0.195091 0.126759 -0.099523 -0.315855 -0.004254 0.657760 -0.701971 0.469570 0.938468 0.115753 0.016646 -0.841921 0.224930 -1.162433 -0.632508 0.576662 0.847509 0.514499 0.736540 0.622594 0.687092 0.604065 -0.651089 0.096627 0.635661 0.503742 -0.204953 0.456227 0.228536 0.099771 0.022067 0.505574 -0.986499 -0.809097 0.700458 -0.713178 -0.285794 -0.667835 1.102419 1.602967 0.384665 -0.325514 0.166424 0.181070 -2.959454 -3.833696 4.610024 0.816112 -2.137086 0.562362 -0.200733 1.638527 -1.993636 -0.338533 0.848871 0.255918 -0.753976 0.664170 -0.561190 -1.246034 2.701089 0.766841 -0.033557 -0.007369 -2.103185 -0.686697 0.278137 -1.044092 0.365548 -1.015916 2.419701 0.470938 -1.139082 -0.259767 0.716201 -0.397917 1.498544 -0.971243 1.485798 1.282633 -0.982247 0.275225 -0.548776 0.073910 -1.834821 -0.324419 0.132350 -0.083456 -0.477494 0.257414 -1.268273 -0.234943 -0.199536 0.627504 -0.582757 -0.366775
1.922169 -0.086522 -0.389767 -0.159676 -0.357843 0.309970 0.372649 -0.054955 -0.348147 0.513496 0.548927 0.568979 0.308330 0.932426 0.987887 1.306872 1.338429 -0.643449 -0.795422 -0.572853 -0.717454 -0.647404 -0.706408 -0.942886 -0.842716 -0.263352 -0.162852 0.006769 -0.440261 0.425749 0.685541 0.839847 0.908265 0.083396 0.281775 0.461333 0.222948 0.953582 0.760009 0.140533 0.150616 0.936353 0.922016 0.442536 0.446516 -1.424211 -1.477856 -1.450495 -1.239195 0.996135 1.113400 1.340604 1.112142 1.261812 1.122584 0.317068 0.344968 0.261123 0.166461 -0.226111 -0.145376 -1.583953 -1.645934 -1.424870 -1.297740 -0.009151 -0.001897 0.020282 0.071716 0.067728 -0.309620 0.203871 0.060092 0.022020 0.060131 -0.202673 0.197327 0.128874 -0.141382 0.015279 0.120581 0.578597 0.041952 0.480743 0.372057 0.203016 0.414211 0.671642 -0.331581 -0.094665 0.156839 0.037525 -0.634054 -0.368588 0.070475 3.738203 0.647713 0.304794 0.455470 0.308945 1.028043 -0.393782 -1.187717 0.212954 -0.318336 0.059179 -1.061955 2.079356 -0.417690 -0.939451 -0.423217 1.284766 0.537306 1.707379 1.443026 0.173320 1.826801 -0.177062 0.642638 0.670512 1.002939 0.589961 0.167349 1.306346 0.615519 0.473998 0.789173 2.792523 2.806485 0.355374 -1.245041 -0.403147 -0.555230 1.547779 0.983680 -0.948610 -1.612433 -0.866108 0.864672 3.237368 3.351773 -5.560551 -1.024032 0.010901 0.955642 -0.658493 0.635327 -3.503765 -0.290912 -1.399214 -0.723600 0.233812 2.445846 1.737031 1.849664 -2.859611 -1.153193 -3.125716 -1.543446 -2.599520 -0.920352 -0.468789 -2.744308 0.291298 -1.475758 -1.553122 -1.882131 -1.630783 -0.333331 1.121480 -0.274325 -0.879978 -0.758616 -0.842635 0.443387 -0.940747 0.136847 -0.153525 0.282405 -0.968931 2.631124 1.313563 0.404125 -0.456831 0.037700 -0.703615 -1.442540 -0.414617 0.583444 -0.294443 0.294693
-5.514820 -1.801144 -0.907527 -0.534169 -0.533379 1.885740 1.850048 1.671410 1.610275 0.496442 0.643498 1.093866 0.114340 0.438805 0.630249 0.661548 0.937595 -2.417026 -1.642775 -1.332138 -1.407475 0.969980 1.014646 0.765953 0.787827 -1.041716 -1.092599 -1.168883 -1.565696 -1.481527 -1.746426 -1.269998 -1.144564 1.498158 1.573222 1.806151 1.477083 1.610534 1.255307 1.189000 0.905131 -1.077573 -1.396990 -1.833392 -1.528989 -1.275699 -1.157158 -1.212415 -0.930936 0.469401 0.701455 0.788589 0.374849 0.848338 0.303812 0.107119 -0.180200 -0.785070 -0.889816 -1.543635 -1.500102 -1.267127 -1.278014 -1.517654 -1.048199 0.038207 0.059440 -0.093448 -0.579480 0.175795 0.299479 0.081408 -0.430074 0.235481 -0.082467 0.147045 -0.095937 0.063767 0.282701 -0.521128 0.558517 0.658204 0.284080 0.933853 -0.503452 1.771390 0.017626 0.302829 0.509963 0.232194 -0.509740 0.131989 -0.718203 -0.072219 -0.275528 -3.504162 -0.466096 0.533819 -0.212829 -0.423329 0.970250 0.145327 1.076324 -0.230577 0.455918 -0.111917 -2.355446 2.276170 -1.792999 -1.180390 -0.966862 -0.402319 -0.271810 0.417690 0.990580 0.440238 0.874156 -0.927558 -0.053167 0.486172 0.020574 1.194472 0.687240 -0.124624 -1.518625 -0.438690 0.013705 -3.825905 -3.416183 -1.103790 0.736143 -0.399397 -0.021805 2.795343 0.869824 1.987755 0.920467 1.453736 3.164113 4.792894 5.253771 5.757273 6.541353 -8.758047 -3.247352 -1.129145 -0.929920 -4.784970 -2.599846 -0.769963 -1.010113 5.244112 3.752492 5.540267 6.576884 1.390209 -0.159331 -2.058946 0.665824 -0.938679 -0.132893 -1.540450 -1.288742 -0.038846 0.455478 -1.656593 -3.370344 -0.780562 -0.109720 -1.192833 1.252857 2.708284 -1.283477 1.016888 1.329999 1.343257 -0.014546 0.784754 1.716134 0.802716 -1.126415 1.061158 1.156051 -2.600419 -2.193148 -1.515036 1.210727 0.768383 3.636329 0.881427 0.315279
-2.296300 -0.937336 -0.546620 -0.894546 -0.444435 1.127147 2.116749 1.325751 1.261635 0.106506 -0.061640 -0.757221 0.019380 -0.719851 -1.582916 -1.439385 -1.647839 -1.105590 -0.647732 -0.866280 -0.538332 1.274355 2.539121 1.190423 1.284654 -0.003947 -0.271178 0.418677 0.764429 -0.411147 -1.003937 -0.887232 -0.957963 -0.037330 -0.116568 0.187639 -0.270687 -0.193612 -0.061663 -0.215944 -0.447925 -0.797526 -0.794400 -1.504473 -1.174009 -1.137826 -1.406754 -1.064152 -1.069166 1.372943 1.335728 1.515904 1.232141 0.986470 1.114443 0.803225 0.670592 0.202663 0.024633 -0.382707 0.054442 -0.564466 -0.790242 0.123715 0.108613 0.147145 -0.130441 0.185803 -0.362944 -0.116718 -0.367232 -0.051292 1.262656 0.033560 0.668201 -0.202838 -0.412131 -0.221495 0.598358 0.407103 -1.491434 0.578632 0.635601 -0.992465 0.204769 1.365534 1.686780 -1.994867 -0.719140 0.275437 -0.651851 -0.186140 0.437113 -0.944630 0.528069 -1.360691 -1.393088 -0.594196 -0.993900 1.623703 -1.347524 2.598209 -1.841568 0.292418 -2.752250 1.388824 0.759014 0.138530 1.239740 1.270502 1.954863 0.287492 0.359548 -4.022850 -4.061425 2.391495 -2.504515 -0.645967 -1.701488 0.192151 -0.799011 -3.204262 0.086330 -2.256689 -1.306614 -0.500724 -1.045492 -1.418376 -1.529359 -1.578111 1.433473 -0.896185 3.798544 -3.392108 -0.718683 0.326192 4.902788 1.280394 1.249459 -1.448318 -3.003072 -3.209596 1.632661 6.530695 -0.408845 -1.862331 -4.774510 -1.451676 -2.647463 -0.321223 -0.974042 -1.576248 -0.815337 -2.727486 -2.323664 -3.068949 -0.859594 -0.299990 -1.467372 3.950254 1.285951 5.851846 8.626674 3.585181 4.526659 7.913847 5.748814 3.259039 -0.588918 -5.175779 -3.362520 3.533788 0.487382 5.228628 2.372575 4.055904 1.660414 2.509103 -2.964227 1.473708 -3.376480 0.382317 -1.091945 0.205255 2.209283 -1.977095 -3.214141 1.380210 -1.256839 1.913980 2.771145
-4.795310 -1.322869 -0.914474 -1.441543 -1.409629 -0.029339 0.332080 -0.362753 -0.410371 -0.115011 -0.159903 0.360145 -0.194614 -0.397622 -0.085279 0.147145 0.092380 -0.872312 -0.501261 -1.191805 -1.174387 1.068026 1.325744 0.520724 0.408704 -0.018970 -0.197412 0.180795 -0.578010 0.312248 0.317896 0.785087 0.731280 -1.113233 -0.983906 -0.401968 -0.765859 0.279768 0.063547 -0.461325 -0.667818 -0.527835 -0.596427 -0.816752 -0.848276 -0.767112 -1.019602 -1.459859 -1.234531 0.512272 0.630296 1.130353 0.934563 1.165272 0.907462 0.631048 0.443450 0.372500 0.408155 -0.131740 0.020039 0.024129 -0.089521 -0.246514 -0.185886 0.101065 0.013597 -0.134378 -0.117941 0.147225 -0.122294 0.057750 -0.205806 -0.165374 0.258303 -0.212798 -0.478596 0.054671 -0.192184 0.861594 -0.000332 -0.003495 -1.079138 -0.140534 -0.011835 0.985868 -0.303333 0.250089 -0.515361 -0.846204 -0.248656 0.050334 -0.327802 -0.552407 0.118503 -1.865995 0.142707 0.221380 0.770499 -0.441002 0.879125 -0.543609 0.322067 1.023185 0.631755 -1.514440 -0.372592 0.468502 -2.092369 -0.301525 0.262464 0.494455 1.177822 0.916686 1.249445 0.307459 0.588942 -0.960395 0.257038 0.124646 -0.428911 0.294056 0.472821 0.713744 0.132241 -0.357091 0.344683 -3.035122 -2.664491 1.406662 0.555088 -0.601401 -1.195649 3.095874 0.826232 1.557470 -0.838834 1.484737 0.660253 0.807307 1.713646 2.494957 0.491429 -2.690154 0.685305 -0.238325 1.600974 -6.941732 -3.786143 2.132786 1.201969 -1.828134 -0.342199 1.205575 0.006130 2.053997 -0.765904 0.582426 1.981134 -1.793528 -0.537972 0.634468 -1.353818 1.446370 -0.548990 2.497836 0.802912 -1.017382 -0.213781 0.823624 -0.801829 2.424527 -0.630316 2.300878 2.018275 -0.725553 1.243466 0.656788 1.125441 -1.621466 -1.249444 0.021263 -0.098280 -0.287698 -0.311154 -2.164632 -1.478647 0.566425 1.123643 0.125903 -0.322097
0.650689 -0.441996 -0.613627 -0.662817 -0.798905 0.222633 0.417026 0.029269 -0.229008 1.003106 0.711278 -0.148411 0.087049 1.045591 0.811365 1.233349 1.186968 -0.523065 -0.593162 -0.544076 -0.579072 -0.866202 -1.055435 -0.540382 -0.266176 0.319995 0.191737 -1.184586 -1.020615 0.809617 0.853705 0.929465 0.866069 0.122275 0.303938 0.456445 0.034967 1.568676 1.489756 0.712087 0.791192 1.021220 0.955850 0.768101 0.897168 -1.341879 -1.407458 -1.349556 -1.015032 0.296703 0.419765 0.425786 0.017954 1.244883 1.220403 0.707246 0.760652 -0.667712 -0.820531 -1.070107 -0.693345 -1.433142 -1.431508 -1.261102 -1.073006 0.064953 -0.048584 -0.044947 0.309779 0.159174 -0.541495 0.149003 0.099572 0.283222 0.016364 -0.260110 0.024225 -0.227284 -0.196414 0.539074 -0.257349 0.463870 -0.415009 0.437045 1.050447 0.275646 0.804533 0.759100 -0.419708 0.437670 0.366897 -0.310958 -0.884884 -0.806546 0.264861 3.037774 0.819811 0.667937 0.975375 0.313142 0.854418 -1.561106 -0.211211 0.608185 -0.084565 0.425033 -1.962298 2.596323 -1.320214 -0.059941 -0.448261 1.615065 0.942277 1.735869 1.537659 -2.517815 3.398373 -0.939630 0.401579 0.960865 0.109561 -1.199238 -0.249254 1.227973 0.326528 0.271548 0.615196 1.895301 1.923167 0.815064 0.221690 -0.738330 -0.583389 1.517279 0.981958 -0.873905 -1.872817 -0.525348 0.763128 1.968528 2.452881 -3.897930 2.595437 0.362533 0.513810 -0.297871 0.132597 -3.415258 1.498361 -4.858946 -3.646131 1.187630 3.647991 0.809099 1.431062 -2.398652 -1.326094 -3.045976 -3.417607 -2.673594 -1.218029 0.323806 -2.142028 0.880032 -0.734047 0.399491 -0.162338 -0.004931 -0.730843 2.026328 -0.274523 -0.324593 -0.852569 -0.614892 0.332007 0.515332 0.997498 0.932340 -0.018890 -1.122620 2.702981 2.241407 0.121833 -0.204172 0.458081 -0.893530 -2.371909 0.259326 0.239809 -1.040972 0.825378
-0.022658 -0.216598 -0.263841 -0.360177 -0.322534 -0.801496 -0.867822 -0.906423 -0.859912 0.179916 0.045294 -0.265327 -0.101101 0.308090 -0.114002 0.275334 0.153152 0.305123 0.254343 0.125252 0.203369 -0.217612 -0.375519 -0.616521 -0.480170 0.593437 0.525962 0.182944 0.322021 0.798839 0.692947 0.928690 0.851688 -0.560557 -0.593222 -0.493158 -0.456875 -0.478225 -0.386439 -0.703439 -0.699357 0.434600 0.449412 0.337338 0.364954 0.118043 0.138563 0.195500 0.226032 -0.144552 -0.182523 -0.222697 -0.159992 -0.213040 -0.044834 -0.238580 -0.209694 0.539534 0.502910 0.458043 0.492229 0.286836 0.270675 0.494003 0.455854 0.048629 0.033440 -0.040180 0.048282 0.019310 -0.030751 0.119829 0.058226 0.074130 0.047799 -0.022972 0.050329 -0.058676 -0.120470 -0.144162 -0.277833 -0.208634 0.137118 -0.221510 0.082337 -0.269893 0.096563 0.127464 0.060603 -0.093799 0.204243 -0.105728 0.049268 -0.072660 0.258620 0.314569 0.512599 0.342313 -0.078004 0.185071 0.020893 0.530344 -0.223420 0.492039 0.256100 0.014577 0.342450 -0.354488 0.695418 0.343926 0.015218 -0.016576 0.498599 -0.025599 -0.001457 -0.209317 -0.462374 -0.128687 -0.164193 -0.531029 0.831035 -0.769859 -0.162374 0.083872 0.206408 -0.106028 0.314568 0.316854 0.611769 -0.360179 -0.260574 -0.388100 0.531848 -1.334946 0.065830 0.049002 -0.516711 -0.195945 -0.173014 -0.795586 1.032433 -1.176258 -1.369101 0.230636 -0.538408 0.496237 -0.041116 -0.134575 -0.015455 0.025433 0.283882 -5.191629 -4.682439 0.682240 0.414855 0.169088 -0.176616 1.394886 0.036260 -0.282997 -1.078249 -0.061620 0.140260 0.886587 0.160024 -0.205959 0.767350 0.376175 0.144098 0.657778 0.359823 0.454883 0.426454 -0.826471 -0.849028 -0.221254 -0.309899 0.249510 0.039696 -0.359162 0.176688 0.026435 -0.049459 0.036217 0.090372 0.624510 -0.248191 -0.069662 -0.471237 0.107201 0.247480
1.285287 -0.067931 -0.162336 -0.071195 -0.173138 -0.160693 -0.544445 -0.646932 -0.779346 -0.020548 0.066413 0.620833 0.126289 0.139991 0.353158 0.508684 0.600136 0.197367 0.064708 0.285478 0.189384 0.098632 -0.402562 -0.380176 -0.487381 0.013255 0.180503 0.295773 0.065582 0.186184 0.215023 0.488308 0.486272 -0.242590 -0.246024 -0.041255 0.034122 0.183011 0.014527 0.285380 0.274040 0.380407 0.385043 0.262327 0.251968 0.132732 0.142820 -0.055203 0.015231 -0.328071 -0.303072 -0.034689 -0.034460 0.070608 -0.067987 0.264242 0.203705 0.052115 0.133073 0.052501 0.015251 0.055386 0.026899 -0.354744 -0.242002 -0.030837 0.022986 -0.032643 0.112930 0.096187 0.177451 0.159957 -0.439139 0.071676 -0.196004 0.058882 0.144683 0.097472 -0.139408 -0.152095 0.502461 -0.230475 -0.602900 0.384787 -0.180297 -0.813265 -0.513756 0.296378 0.050148 -0.041490 0.293304 0.445429 -0.166982 0.673779 0.244695 2.047812 0.323035 0.426124 1.043178 -0.344523 0.914552 0.583093 0.865154 0.423711 0.575803 -0.662359 0.150125 2.021924 -1.964859 1.103575 0.432135 0.950598 -0.101061 1.633544 1.099398 -1.406734 1.195228 0.281772 0.558147 0.171505 -0.237279 1.316896 0.210240 0.356611 0.114691 -0.019128 0.178303 1.863011 2.470640 0.184787 -0.273832 0.239146 -1.040646 -0.276295 0.119852 -0.511914 -1.495315 -1.381338 0.274567 1.049061 1.474758 -0.781447 0.014740 -0.793239 0.606105 -1.431051 -1.208184 -0.462767 1.061490 -0.034992 -0.859047 3.918400 2.420861 -4.846247 -4.063641 1.323128 -0.877833 -0.638629 0.540117 -2.804096 -0.547830 -3.953199 -2.510786 -1.161652 -1.347582 -2.380530 -1.027210 -0.348407 -0.361052 1.298415 1.394897 -0.572713 -0.313179 -0.337940 -0.790240 -0.867292 0.178028 0.359651 0.707582 -0.160441 1.108768 -0.302618 0.571358 -0.060151 0.217177 0.356461 0.535911 -0.119926 0.628048 -1.142633 -0.321550
-2.542338 -1.704397 -1.049842 -1.177787 -1.099460 0.146597 0.320750 -0.062528 -0.147344 0.221951 0.280674 0.769244 -0.074459 0.125199 0.550563 0.437419 0.476306 -1.761265 -1.272977 -1.119643 -1.058141 0.154735 0.397573 -0.015027 -0.225804 0.449530 0.461311 0.698500 0.077396 0.465834 0.682177 0.739341 0.771238 0.473608 0.455450 0.774710 0.533920 0.949401 0.598222 0.042383 -0.075395 0.053806 -0.094113 -0.726302 -0.594309 -1.029531 -1.128296 -0.915589 -0.756786 1.017422 1.056261 1.228847 0.988281 1.353690 0.867529 0.383706 0.275556 -0.416541 -0.459173 -1.215350 -1.142604 -1.322518 -1.422186 -1.258913 -1.037526 0.123997 0.050333 -0.140264 -0.364805 0.078371 0.239639 0.013402 -0.334280 -0.038502 0.079612 0.285017 0.020813 -0.076950 0.223089 -0.259382 0.246138 0.657493 0.406017 0.468442 -0.282211 0.917966 -0.312597 -0.232240 -0.057098 -0.336628 -0.685946 0.305843 -0.088566 -0.053622 -0.207226 -1.988251 -0.373194 -0.782992 -0.279980 -0.778304 0.245394 0.050406 1.265923 -0.161607 0.466633 -0.519744 -1.406284 0.801487 -0.773422 -1.666807 0.589654 -0.378048 -0.304950 0.667870 0.512817 -0.336043 0.120394 -0.138566 -0.332905 0.266294 -0.687131 0.353010 0.641273 -0.979158 -0.610080 -0.549601 -0.429870 -1.874360 -1.618427 0.622574 1.084387 0.537806 -0.241064 1.808221 -0.868181 1.787814 0.567965 0.600641 2.204726 3.483711 4.172316 3.334051 3.097543 -2.267014 -0.793086 -0.851056 -1.324962 -2.293322 -2.844939 -0.550186 -1.038417 3.358764 2.446228 3.844105 3.900922 -3.209166 -5.922084 0.351067 2.014810 0.372709 0.504394 -1.815697 0.058476 0.213099 0.703116 -1.021135 -1.449788 0.038291 -0.477004 -0.681049 1.598398 1.120772 0.044452 1.236434 0.462155 1.227457 0.399448 0.181291 0.824164 0.841356 -1.620895 -0.307424 0.435177 -0.419069 -0.368566 -1.316217 -0.877283 0.721917 1.635206 0.944876 0.135730
-1.365245 0.080235 0.186700 -0.356271 -0.148344 0.563315 0.831601 0.725189 0.763051 -0.478862 -0.809020 -1.130162 -0.756873 -1.082776 -1.435007 -1.384528 -1.300177 0.566906 0.715251 0.134762 0.329904 1.390818 1.744686 1.551579 1.331915 -0.232068 -0.529764 -0.089434 0.075843 -0.652621 -0.432029 -0.793159 -0.745903 0.578001 0.693184 0.718591 0.522887 0.711620 0.679962 0.940521 0.879483 0.027711 0.046403 0.043177 -0.049372 0.594355 0.389890 0.328387 0.331998 -0.621524 -0.456692 -0.492147 -0.701547 -0.490203 -0.476391 -0.106917 -0.242629 -1.126983 -1.166701 -1.141929 -1.121609 -0.093459 -0.205827 -0.217113 -0.140371 0.097566 0.011376 -0.031440 0.015202 -0.069101 -0.259315 0.047398 0.649373 0.291319 0.088178 0.130361 0.071988 -0.459130 0.047298 0.675878 -0.961502 0.297622 0.660587 -0.282035 0.218533 0.937182 0.423070 -1.045177 0.042282 0.116804 0.006001 -0.277738 0.682862 -0.216419 0.148497 -0.923400 0.341157 -0.946629 -0.594460 0.908947 -0.302185 0.823174 -1.862892 0.508666 -0.059457 -0.767060 -0.722598 0.224469 -0.436189 0.846682 -0.518947 -0.043493 -0.127589 -1.434020 -2.411501 0.464617 -0.077671 -1.046470 -1.067583 -0.746550 0.186864 -1.964515 -0.602139 -1.340667 0.001394 -0.392557 -0.805941 -0.952645 -0.682047 0.687171 0.133798 -0.242355 1.222336 -0.887976 0.278613 0.598757 0.164204 0.748664 1.900369 -0.601716 1.046761 -0.687922 2.034271 -0.065980 -1.980900 2.123572 0.506276 0.129217 -0.156919 0.371620 -0.703202 1.491370 0.462022 -2.853545 -3.380551 1.027213 1.884345 -3.643385 -5.273710 1.345348 0.437769 1.550820 3.379504 1.616873 0.323303 5.858182 2.898794 1.565775 -0.009859 -0.845889 0.756175 0.679532 0.376132 1.812803 0.478063 0.795429 0.947234 3.025041 -1.296747 -0.623872 0.187258 0.738973 -0.722950 1.285061 1.405657 -0.632180 -0.628401 0.267563 0.104600 0.688221 0.085318
-2.951388 -0.450544 -0.172889 -0.190236 -0.278899 1.046865 0.926594 0.975953 0.884497 0.861362 0.754976 0.809542 0.112443 0.556523 0.855971 0.987195 1.185782 -1.357095 -1.151860 -1.137864 -1.256187 -0.135542 -0.223059 0.116796 0.429396 -0.684034 -0.854465 -0.931814 -1.103021 -0.952105 -1.007839 -0.812494 -0.755335 1.149216 1.158149 1.178527 1.039104 1.124651 0.919926 1.018279 0.952892 -0.854315 -0.921471 -0.903408 -0.701075 -0.455129 -0.237384 -0.196204 -0.068249 -0.464204 -0.278987 -0.139866 -0.455117 0.012311 -0.304471 -0.406612 -0.560145 -0.754272 -0.744134 -0.519260 -0.564848 -0.493781 -0.431795 -0.681271 -0.368446 -0.062636 0.116918 -0.067474 -0.462572 0.236404 0.141376 0.118574 -0.384905 -0.175652 -0.178713 0.183095 0.076937 -0.003290 0.118961 -0.376009 0.368350 0.478566 0.143936 0.290553 -0.117433 1.304536 -0.002226 0.285394 -0.230078 0.048452 -0.487882 0.333057 -0.569528 0.038551 -0.265667 -1.929421 -1.258756 0.016891 0.032631 -0.084683 0.158657 -0.778192 0.593098 -0.408350 -0.280454 -0.339499 -1.271314 1.840043 -0.649227 -0.511942 -0.095509 -0.635349 0.734060 0.180767 0.816794 0.669839 1.516302 -0.644189 -0.744752 1.040355 -0.431550 1.591137 0.346002 0.305106 -0.384068 -0.292335 0.065710 -2.013775 -1.946955 -0.311766 0.421536 -0.402044 -0.103504 1.974580 0.547218 0.952642 0.340158 1.304605 1.768338 2.574832 2.098843 2.374505 3.752798 -2.471913 -0.437921 -0.150351 0.085073 -2.801578 -1.315190 0.064440 -0.303116 2.827531 2.541216 4.018765 4.677019 0.725269 0.654978 -0.958556 -0.439018 -4.264836 -2.196595 -0.723917 -1.292758 -1.650825 -0.856751 -1.846530 -2.406945 -1.205104 -0.017274 -0.578149 1.224072 0.358134 -1.306704 0.554211 0.700842 0.601464 0.547032 0.237716 1.304878 0.852532 -0.095212 0.643907 1.086349 -1.129641 -0.857490 -0.640328 1.379083 -0.109191 2.477663 0.984056 -0.031595
-1.255770 -0.743512 -0.658742 -0.859587 -0.827337 -0.016945 0.366345 0.147491 0.188842 -0.260352 -0.380022 -0.369606 -0.503051 -0.331544 -0.887222 -0.451825 -0.364104 -0.157419 -0.097836 -0.579091 -0.662844 1.009782 1.409623 0.650509 0.630913 0.122728 -0.006758 0.831569 0.245989 0.556071 -0.252111 0.494829 0.499449 -1.909582 -1.823397 -1.537251 -1.818213 -1.077291 -1.035334 -1.205422 -1.388632 -0.813977 -0.898470 -1.008252 -1.193606 -0.180050 -0.622891 -0.819761 -0.866501 0.498200 0.637058 0.788978 0.577067 1.486839 1.521206 0.890278 0.798848 1.456294 1.355305 1.394013 1.184536 1.139927 0.850426 1.178949 1.184937 0.055267 0.106250 0.382723 -0.346963 -0.295081 -0.324721 -0.461882 0.919929 0.140022 0.645046 0.184810 0.128809 0.376957 0.244088 1.229865 -0.620977 1.240857 0.098611 -0.949306 -0.271299 0.845534 0.618621 -1.457640 -0.147512 -0.156118 -0.849234 -0.847911 0.818090 -0.575459 0.191805 -1.008306 -1.336596 -2.385467 -0.630606 1.741976 -0.662476 0.683916 -1.342446 -0.330014 -0.970457 0.154086 0.077478 0.211006 1.227424 -0.289136 0.882406 -0.255674 -1.338042 -2.734938 -1.646128 2.663699 -0.334770 -0.066481 -1.218419 0.896948 -1.270469 -2.377318 0.637675 -1.585041 -0.323901 -0.158541 -0.994339 -0.864050 -1.063338 0.175904 -0.061414 -0.737317 0.976087 -1.947656 -0.918089 0.417055 3.373616 -0.209082 -0.146681 -0.590296 0.026788 -0.892655 -1.504283 1.481195 -1.591014 2.379811 1.213339 0.396760 -0.446096 0.930476 -0.110911 -0.898506 -0.080229 0.280605 0.442927 -0.025472 1.223863 -0.423220 -2.910882 5.053831 3.061481 0.438060 0.364957 0.740548 0.987761 0.762101 1.443385 1.169267 1.166314 -4.263273 -3.732029 -0.151213 2.017346 1.216831 1.139580 1.167351 1.040467 1.521846 -2.637511 1.756496 -3.431320 -0.452276 -1.001798 0.978730 1.122337 2.025094 1.077846 0.142572 -1.160838 2.551539 -1.033154
-0.405783 0.116584 -0.222366 -0.564369 -0.540014 -1.238379 -1.155703 -1.306548 -1.277425 -0.295882 -0.289654 -0.957942 -0.411227 -0.832635 -0.863161 -0.742949 -0.818744 1.120742 0.885971 0.561862 0.544596 0.778808 0.819049 0.305758 0.333978 0.661552 0.670990 0.418175 0.405933 0.858638 0.941547 0.855765 0.831268 -0.823736 -0.811675 -0.794870 -0.757247 -0.475943 -0.301126 -0.267429 -0.251503 -0.142252 -0.078539 0.217233 0.076099 0.270727 0.200491 -0.176630 -0.252577 0.091097 0.107306 0.067778 0.250039 -0.144325 0.144506 0.172078 0.228526 0.301067 0.273550 0.592263 0.706291 0.243090 0.328007 0.402364 0.199557 -0.020011 -0.025845 -0.165076 0.061096 -0.158331 -0.204362 -0.027133 0.579775 -0.239328 0.104952 -0.042176 -0.068835 0.057567 -0.220897 0.971142 -0.716592 -0.173946 -0.433478 -0.174782 0.083880 0.075497 0.553439 0.519958 0.016197 -0.210072 0.312361 0.356065 0.497911 0.008976 0.069905 0.136557 0.320673 -0.302168 -0.137059 0.551088 0.664461 0.197230 -1.354745 0.112540 0.363181 -0.096204 0.192119 -0.282134 -0.535844 0.449550 0.514981 0.541940 0.523883 -0.812203 0.314205 0.497373 0.221598 -0.268881 0.068931 -0.426016 -0.013951 -0.037323 -0.355129 1.004050 0.970660 -0.189086 0.544285 -0.177009 -0.208294 0.386330 0.177917 -0.495971 -0.495989 -0.510099 -0.031541 0.528653 -0.905790 0.953202 0.013651 -2.536662 -1.839892 -1.886074 -2.555024 0.722868 0.378103 0.898179 1.502228 0.566827 0.667853 1.508234 1.431049 -2.714824 -1.729122 -1.731999 -3.053203 0.811177 0.700155 1.665648 0.105505 -1.713369 -1.424111 1.391633 -0.038946 -1.720626 -1.563100 2.743068 2.052917 -0.320743 -0.181384 0.549944 -0.576877 0.616181 -0.885950 -0.606450 0.356525 -1.552385 0.519593 0.737358 -0.952318 -0.887266 1.192900 -0.427956 -0.478268 0.550785 0.303519 -0.532712 -0.420614 -0.127268 -0.891440 0.460609 0.434921
3.070455 -1.075049 -1.409364 -0.734301 -1.234277 -1.503943 -2.123429 -2.135218 -2.175674 0.757930 1.057012 1.689585 0.657684 1.568227 1.978277 2.639387 2.811389 -0.706226 -1.093931 -0.265313 -0.627356 -1.219649 -2.052187 -1.721598 -1.619752 0.646956 1.013818 0.880976 0.061305 1.692753 1.827690 2.672019 2.812713 -0.633816 -0.472465 0.006710 0.067857 0.797670 0.560221 -0.381137 -0.269969 1.403216 1.379470 1.125649 1.091063 -0.653631 -0.434320 -0.457824 -0.205195 -0.418787 -0.350155 0.198465 0.118139 0.731219 0.431780 -0.631309 -0.476992 0.565417 0.641103 0.462036 0.278946 -0.378210 -0.271136 -0.499161 -0.254401 -0.169333 0.122641 -0.097899 0.241824 0.133181 0.152398 0.303663 -1.043461 -0.177606 -0.447759 0.153474 0.318754 0.384422 -0.339464 -0.698467 1.424660 -0.285693 -0.890534 0.309165 -0.301232 -0.959902 -0.950927 1.202386 0.360204 -0.199745 0.167961 0.241263 -0.631019 0.491561 -0.328075 4.684666 0.742022 1.505284 1.239279 -0.187286 1.895548 -1.459113 2.193742 0.384254 -0.003066 -0.792296 -0.436736 3.302957 -0.176808 -0.134131 -1.654565 1.158919 -0.535884 3.450595 2.634000 -0.788599 2.908492 0.623079 1.680793 0.943045 0.277455 2.982062 0.247836 1.516637 0.196887 0.576459 1.342049 3.780594 3.886820 -0.337380 -1.751086 0.303784 -2.977657 1.872096 0.917971 -2.120058 -3.769838 -2.778482 -1.633027 2.204203 2.548380 0.373196 -0.767644 -2.149010 2.922460 -1.830161 -0.199964 -2.263692 1.494612 -1.342134 -0.110935 -0.133633 1.824723 3.544391 5.712640 2.962378 1.640647 -1.632164 0.146751 -5.145923 -0.927160 -3.312716 -7.285405 -1.767356 -3.301889 -12.250868 -9.318813 -4.736841 -0.230567 4.842256 1.282225 -2.467726 -1.327789 -3.109122 -1.581948 -2.842688 -0.830256 -2.429448 1.782786 -0.542458 3.275270 -0.378506 0.937688 0.290250 -0.755359 1.717583 2.354294 -0.644093 1.926269 -1.990298 -1.560961
-0.719521 -1.202869 -1.253668 -1.133864 -1.150116 -1.089928 -1.132349 -1.035953 -1.078156 -0.000931 -0.235861 -0.880624 -0.532398 -0.237020 -0.891984 -0.475715 -0.600578 0.763862 0.720413 0.534790 0.598199 -0.107477 -0.100382 -0.045914 0.033711 1.318677 1.237679 1.090772 1.217097 1.364806 1.269713 1.199650 1.116899 -0.682919 -0.746712 -0.795263 -0.769267 -0.766012 -0.695530 -0.762788 -0.713122 0.015809 0.020221 0.104872 0.081495 -0.053971 -0.026330 0.057285 0.033176 0.299781 0.252400 0.163416 0.146114 0.055531 0.245014 0.102217 0.139128 0.361325 0.300200 0.657360 0.701245 0.335885 0.323471 0.470034 0.426414 -0.011600 0.038157 -0.132703 -0.037417 0.007838 -0.067669 0.088649 0.332731 0.100504 0.159093 -0.103269 0.155394 -0.059836 0.035472 -0.312771 -0.542599 -0.102504 -0.054571 0.059078 0.092324 0.088469 0.386471 -0.075543 -0.081465 0.160452 0.167521 -0.292157 0.047553 0.040855 0.027496 -0.522764 0.092040 0.105855 -0.021955 -0.131975 -0.001828 0.059721 -0.520757 -0.100909 -0.113803 -0.011611 0.223952 0.126040 0.143681 0.295951 -0.220898 0.067030 0.211037 0.379128 0.034798 0.040403 -0.375648 0.031031 -0.075373 -0.616142 0.691490 -0.921414 -0.065191 0.101346 0.198041 -0.245537 0.180146 -0.547025 -0.555984 0.057755 -0.122846 -0.276748 0.599573 -0.390628 -0.176645 0.320771 -0.120840 -0.108575 -0.069717 -0.492171 -0.588176 -0.344163 -0.827581 0.406281 -0.025968 0.498063 0.354323 -0.054820 0.384873 0.119044 0.552330 -0.229940 -0.534954 -1.014814 -0.540382 0.670894 -0.007501 0.714566 -0.651542 0.310664 -0.199950 0.245610 -0.101439 0.578443 0.879160 0.560652 0.770350 -1.677541 -0.254987 0.263870 0.105176 0.610123 0.511243 0.124378 -0.298431 -0.748865 -0.753573 -0.181021 0.205352 -0.110493 -0.552462 0.294295 -0.162467 -0.093336 -0.200173 0.366259 0.195485 0.184754 -0.459292 0.182694 0.005640
-1.277487 -0.899666 -1.148608 -0.892282 -1.022138 -0.503663 -0.737027 -0.580345 -0.814057 -0.576520 -0.823501 -0.045070 -0.384077 -0.283927 0.075898 0.106852 0.331991 0.620569 0.517643 0.817357 0.766564 0.288649 0.235147 0.384327 0.270568 0.099740 0.000716 0.297294 0.539186 0.361042 0.613179 0.543143 0.563534 -0.115999 -0.044664 -0.109980 0.059359 -0.105530 -0.194612 0.128731 0.152302 -0.212282 -0.232495 -0.430398 -0.442100 -0.989298 -0.903330 -0.260117 -0.447016 0.092635 0.263714 0.306220 0.238713 0.239805 0.134617 0.564181 0.281629 -0.267470 -0.261204 -0.249139 -0.507154 0.683681 0.604493 0.304171 0.441048 -0.075055 0.088185 0.078996 0.196046 0.202559 0.273497 0.424003 -0.500547 0.430765 -0.436599 0.071714 0.439096 0.341364 -0.033675 -0.130012 0.451586 0.087216 0.124755 0.322184 -0.028735 -0.067351 -0.121695 0.406154 -0.712647 0.361280 0.034625 -0.292389 -0.730460 0.763017 0.320188 -0.989853 0.962812 0.252454 0.531105 -0.341471 0.001970 -0.359940 0.016478 -0.545755 0.197325 -0.382276 -0.380789 0.351808 0.417206 0.347167 0.053034 -0.651291 0.160405 0.339853 0.511777 -0.553033 -1.222595 0.176428 0.201868 0.091268 0.644942 0.091847 0.123360 0.292805 0.756090 0.182860 -0.276672 -1.009116 -0.847825 0.541443 -1.361935 0.027349 -0.096255 0.165114 -0.234512 -0.276963 -0.684954 0.484744 0.423473 0.386686 0.408515 0.070163 1.009575 0.034820 0.084702 -0.535413 -0.345730 -0.078897 0.921689 -0.088223 -0.504125 0.669549 -0.215099 -0.520144 -0.272086 0.850874 -0.040928 -0.411800 0.665578 -1.056924 0.774047 -0.254375 -1.449712 0.109778 -0.992117 -0.354524 -0.554635 -0.887121 0.918463 -0.055082 -0.512905 -0.500481 -0.819034 0.341231 -0.191532 -0.430556 0.004634 0.984169 0.125751 0.142731 1.277772 0.349854 0.277577 0.238168 0.815203 -0.597304 0.162860 -0.308959 0.615347 -0.844532 -0.586792
5.077323 0.660548 -0.222664 0.186762 0.111006 -1.405702 -1.743587 -1.451233 -1.524028 -0.288413 -0.494776 -0.288266 -0.072549 -0.254199 -0.495903 -0.209526 -0.187963 1.642687 0.989720 1.248574 1.192601 -0.614834 -0.914818 -0.685898 -0.608668 1.147131 1.089604 1.306799 1.546957 1.349479 1.419364 1.287493 1.361624 -1.390971 -1.293290 -1.449326 -1.230849 -1.441908 -1.249281 -1.153368 -0.898030 0.507443 0.742753 1.005522 0.797478 0.193463 0.252472 0.444268 0.184330 0.504358 0.511146 0.433294 0.605231 0.130777 0.479626 0.615718 0.768481 0.774755 0.788716 1.350787 1.150730 0.646854 0.657677 0.883838 0.754629 -0.073365 -0.017789 0.245541 0.250456 -0.241869 -0.262204 0.133497 0.371702 0.218218 -0.205684 0.213848 0.435496 0.086674 -0.159883 -0.380894 -0.141333 -0.302217 0.060640 -0.013743 0.281178 -0.500329 -0.343179 -0.074316 0.189091 0.053994 0.131673 0.076994 0.249420 0.299335 0.115594 3.647152 0.586769 0.407982 0.152025 0.006237 -0.924409 0.027689 -0.321049 -0.377100 -0.560741 0.361225 1.702425 -0.245053 1.597020 0.576566 1.153047 0.028609 -0.023933 0.448700 -0.177508 0.528862 -0.006040 0.493102 1.028095 -0.348208 1.476995 0.026929 -0.128085 -0.157715 0.876644 0.468810 0.643657 4.076929 3.574159 -0.962928 -2.088338 0.412580 0.736805 -2.332590 0.265073 -1.976993 0.060662 -1.471037 -1.685282 -3.342318 -3.310212 -2.869606 -4.157511 2.553843 0.419960 0.389692 -0.080997 2.955293 1.808976 0.852866 0.828782 -3.777080 -3.491768 -3.512956 -3.265265 -0.022071 1.376434 -0.234293 -0.846601 -0.334231 -0.794135 -0.133110 -0.418405 -0.704302 -1.656452 -0.877090 0.346204 -0.196797 0.207968 1.089411 -0.074336 -4.756780 -1.728079 0.602503 0.261144 -1.368235 -0.898375 -0.999764 -1.913926 0.186595 1.911529 -0.387905 0.003941 2.294389 0.261205 0.808366 1.149971 -1.297198 -1.321495 0.199647 -0.337792
2.250423 -0.292733 -0.652795 0.097446 -0.088998 -1.550599 -2.370142 -1.666840 -1.361946 -0.278862 -0.338546 0.721563 -0.018624 -0.018949 0.223672 0.573370 0.798278 0.464492 0.147694 0.716133 0.500171 -0.352544 -0.979084 -0.739915 -0.669545 0.580813 0.688131 1.576482 1.101701 1.119130 1.221929 1.484600 1.614937 0.379244 0.348364 0.225718 0.709444 -0.154824 -0.146679 0.017143 0.159091 0.729443 0.804762 0.881906 0.759426 0.876296 1.125950 1.322350 0.986920 -1.096397 -1.133220 -1.045163 -0.753797 -1.648760 -1.643297 -1.480388 -1.480904 0.094359 0.272989 0.543833 0.191944 0.666075 0.746405 0.532652 0.459536 -0.083839 0.057421 -0.008871 -0.103018 0.115065 0.349567 -0.068889 -0.519070 0.123246 -0.290004 0.056234 0.530372 0.119974 -0.028263 -1.053613 1.015600 -0.841122 -0.015441 0.054030 -0.173918 -0.383545 -1.214865 0.575839 0.369727 -0.228366 -0.038074 0.462734 0.308880 0.732566 -0.169832 1.299490 -0.498417 1.232779 0.317782 -0.895815 -0.723364 -1.163638 0.773113 -0.242871 -0.202319 -0.098152 0.036797 0.632757 0.902677 -1.307346 -0.121312 -0.706850 0.073675 0.792808 0.645865 2.112468 -0.944799 1.331591 0.069193 -0.928920 2.019332 3.157289 -0.130900 0.699753 0.704378 0.447552 0.880119 1.913074 1.836981 -0.698309 -1.988189 1.398978 -0.576180 1.146122 1.535365 -0.936118 -0.529217 -0.436827 -0.307269 -0.544864 -0.100049 2.832091 -2.482418 -1.822749 1.010859 -1.048638 -0.318448 2.256151 0.056412 1.297134 0.510195 -1.173218 -1.472507 1.195696 0.566719 4.136400 1.795037 0.102148 0.520412 -0.848259 -0.840732 -1.836110 -2.857277 -2.941971 -2.337114 -5.317035 -4.389406 -3.437851 0.365137 -0.080661 1.371653 0.244718 1.327504 -6.579118 -3.111274 -0.974378 -0.830190 -0.962140 1.671435 -0.828544 1.742477 -2.669292 0.545449 0.735656 -1.245796 2.933652 3.379208 -0.285347 0.830703 -0.249776 -1.463906
-0.655335 -0.919822 -1.054658 -1.157664 -1.157126 -0.820495 -0.761697 -0.652387 -0.699170 -0.534744 -0.713357 -1.466905 -1.095715 -0.988617 -1.288195 -1.121663 -1.203730 1.373173 1.312612 1.202436 1.234067 0.941083 1.075503 0.998407 0.969948 0.928805 0.877558 0.652605 0.746709 0.757746 0.711150 0.632402 0.566404 -0.112473 -0.137439 -0.239287 -0.224616 -0.326156 -0.282573 -0.216084 -0.175268 -0.523567 -0.503832 -0.510102 -0.484778 -0.630174 -0.630953 -0.594409 -0.622566 0.391042 0.384290 0.277437 0.295902 0.244313 0.354744 0.339900 0.354893 0.251662 0.241292 0.437016 0.516406 0.354221 0.362533 0.400427 0.352865 0.037079 0.015003 -0.114649 -0.068536 -0.007732 -0.023337 -0.010299 0.300177 0.082438 0.161973 0.033520 0.001024 0.260906 0.000651 0.007067 -0.399181 0.047169 -0.106776 0.055676 0.077175 0.130507 -0.006517 -0.109107 0.027111 -0.100413 -0.047189 0.145778 0.225234 0.100820 0.174834 -0.402363 -0.072010 -0.088235 -0.077292 -0.049364 -0.136730 -0.267504 -0.517241 0.072186 0.146561 0.200617 0.563802 0.434219 -0.037456 0.289693 -0.122374 -0.357681 -0.169130 0.125066 0.232812 0.088318 0.179408 -0.011538 -0.154014 -0.499977 0.369862 -0.296537 -0.276723 0.277323 0.276924 -0.162599 -0.062388 -0.457164 -0.467840 -0.024503 0.110385 -0.309097 0.307944 -0.185151 -0.151540 0.293200 0.015136 0.069189 -0.097185 -0.633085 -0.349999 -0.297530 -0.623846 0.242247 0.020428 0.181056 -0.218877 -0.280402 -0.064028 -0.181012 0.314492 0.169170 0.064639 -0.522515 -0.172552 0.104729 -0.475476 0.295340 -0.494494 0.350793 0.180914 0.438924 0.399493 0.705089 0.216091 0.424586 0.312376 0.177096 0.066259 0.228831 0.167668 0.076035 -0.096931 0.241723 -0.044121 -1.639958 -0.819319 -0.086939 -0.421046 -0.360078 0.359232 0.199502 -0.143686 0.372935 0.304320 0.026873 0.251764 0.149153 -0.271918 0.107961 0.171158
