9.498993 -0.510433 -2.069118 -2.463350 -2.622233 -2.521608 -3.390136 -3.847343 -3.664941 -2.379409 -3.339942 -2.289452 -1.653593 -2.542024 -3.821069 -2.771774 -2.953945 4.143087 3.251335 2.682076 3.067691 2.568489 1.811781 1.746379 2.803136 3.624513 3.374051 4.019728 4.519719 3.700730 3.485719 3.620141 3.920790 0.855797 2.916669 -0.364674 -0.839398 -1.053964 -0.465375 -0.781003 0.134724 0.242976 0.847605 1.129672 0.683172 0.529806 0.616208 0.847293 0.604204 -1.241032 -0.843580 -0.377446 -0.663635 -0.466131 0.689032 0.681518 0.757135 -0.188778 -0.115548 1.431087 1.230340 0.529084 0.852411 0.776282 0.544541 0.811082 -0.058925 -1.142016 0.353130 -0.989972 -1.301167 -0.420073 -1.040216 0.148894 -0.037539 0.443907 3.408220 -3.069042 0.438922 2.608165 2.463751 -1.031613 -3.065878 0.890833 2.129822 -2.392841 -1.023411 -0.072322 0.605776 1.178472 2.321156 -2.201474 0.356540 0.669554 1.505146 6.938629 4.550041 -0.116760 -1.271326 -0.496246 -1.631921 -3.808528 -2.494642 1.030319 0.742380 -0.940382 1.047516 -4.334211 -3.339954 -1.862672 -2.154002 1.261305 0.924287 1.930403 2.781502 0.327029 1.042146 1.535111 0.333004 -0.467956 0.712146 0.307778 -2.965784 1.314038 1.855227 -1.743550 -0.183968 7.320461 7.010958 2.666237 1.709863 -0.646698 -1.347011 -3.543453 -0.631719 -1.472688 -1.505759 -2.030785 -0.555193 -6.217067 -3.708199 -2.189270 -2.851611 1.395268 1.031572 -1.206727 -0.413169 -2.723343 -1.945379 -0.899756 -1.249289 -4.296996 -3.887202 -4.751148 -4.444137 -0.902935 -1.599642 -1.284978 -3.898117 2.654479 0.847849 1.720624 2.431149 0.268937 1.371396 1.370176 1.481403 0.387727 0.830958 0.411176 -0.858334 -0.678946 -0.625371 1.747792 0.324763 -0.197581 -1.632532 -0.153290 -2.808352 0.215353 0.270435 -0.998716 -0.656407 -1.643802 -1.070154 0.562835 -0.220088 -0.617353 -3.926103 -1.071772 -0.815133
2.855935 -2.649083 -2.407402 -0.798769 -0.934906 0.946010 0.083936 0.723014 1.112598 -0.044453 0.898934 3.974792 2.306337 1.900087 5.179642 5.329100 6.648454 -4.251577 -4.562743 -1.795597 -1.608117 -0.049878 -3.771693 -1.404075 -0.029630 -0.851462 -0.568492 -1.654818 0.198065 -0.072958 -0.419447 0.737768 0.692300 1.799030 1.657758 0.132072 1.817309 0.513337 0.468221 1.790822 1.665821 -0.675213 -0.240100 -1.210800 -1.443577 1.269759 2.732311 2.998771 2.056904 -4.265386 -3.169098 -3.474549 -3.029674 -1.874233 -2.432807 -1.279620 -2.201265 0.253570 0.623289 0.955795 -0.827809 2.880609 2.628031 1.414727 1.321931 1.000634 2.951134 0.241946 -3.305700 -1.189895 4.730580 -0.387510 1.848035 -1.172785 -3.267236 -0.590304 -1.072438 4.400424 -1.889040 -2.116415 7.340667 2.482030 0.327424 -1.216100 -3.372768 -2.251239 -1.344912 -2.256781 -0.468554 -1.465247 -0.182906 1.787303 -2.466100 1.803193 2.922354 2.605726 1.648515 3.494014 0.343851 0.031290 -0.133753 0.207480 0.274055 -1.891155 -0.790219 -0.425664 -0.727887 -0.722820 0.653964 1.429264 -2.260339 -6.349707 -4.192858 -4.515448 -4.190438 -2.535625 0.070211 0.037880 -1.756104 -1.544077 2.140117 0.976994 1.138785 2.173075 1.963734 0.362783 2.934117 2.630123 2.734021 1.636994 0.608938 1.329609 1.440778 0.850958 1.525628 0.007381 1.791422 2.295655 1.599483 0.368212 2.326200 2.682107 0.918820 -2.255163 1.089712 -1.995951 -0.360332 -0.449580 0.926130 1.100284 -0.163463 -1.073890 -0.954502 -0.498570 -0.368299 1.699550 -1.538582 -1.309940 1.675813 -6.360106 -4.788112 -4.953330 -6.478994 -4.160711 -3.960943 -4.829276 -5.807713 -3.002176 -0.808126 -0.375589 -0.056041 -3.150422 -3.654664 -4.459680 -3.432130 -1.439482 1.797332 0.172328 2.946197 -0.027317 1.738046 -0.125583 1.309727 -2.026709 -2.262643 -1.402481 -1.013699 -1.479934 1.139223 -0.815640 -1.691041
7.125129 0.113554 -0.745378 -1.661943 -1.807802 -1.793518 -2.266830 -2.544153 -2.373144 -1.991680 -2.116677 -1.521124 -1.235749 -2.014087 -2.213085 -2.149580 -2.166386 3.405963 2.764227 2.182456 2.337981 1.317541 0.928332 1.350927 1.508822 2.391580 2.365322 2.617765 2.999633 2.227324 2.304230 2.351275 2.559334 0.616761 1.523628 2.091512 1.747221 -0.194132 -0.040896 -0.668756 -0.178832 -0.055498 0.343190 0.681089 0.120029 0.265960 0.042646 0.358152 0.227589 -1.503562 -1.360591 -0.466946 -0.736867 -0.007830 0.482497 -0.028758 0.098756 0.019877 0.281996 0.902070 0.668804 0.499421 0.613343 0.447222 0.336034 1.388965 -0.480204 -1.225366 1.890878 -0.292563 -1.323473 -1.117627 -2.733460 0.491438 -0.373021 0.284009 2.126816 -1.993236 0.263018 1.689784 0.293987 -0.939024 -2.841592 1.130134 1.658205 -1.513680 -0.811555 -0.297695 0.656770 1.149577 1.139501 -0.881130 -0.013773 0.309568 0.710306 5.312687 3.277819 -0.106641 -1.053252 -0.085376 -1.056264 -3.004276 -2.478455 0.971441 0.537348 -0.586864 0.439218 -2.640544 -2.270368 -0.600044 -0.912971 0.872270 0.697082 1.610414 2.044737 0.670945 0.828315 0.951825 0.636957 0.001847 0.850810 -0.060948 -1.105413 0.536516 0.828819 -1.443401 -0.447981 5.605641 5.415074 2.448385 1.346015 -0.353835 -0.989674 -2.588917 -0.925778 -0.993854 -1.214865 -1.309357 -0.795182 -4.745753 -2.807904 -1.227347 -2.085337 0.731314 0.691794 -0.711844 -0.089367 -2.027415 -1.303499 -0.388861 -0.463011 -2.665982 -2.320325 -3.116018 -2.547875 -0.412547 -0.892158 -0.349703 -2.379079 1.967140 0.837666 1.425502 2.210082 0.419709 1.478918 0.843049 1.347903 0.358999 0.972599 0.010071 -0.184236 0.075682 -0.180968 1.146255 -0.222309 -0.254190 -0.695761 -0.417181 -2.045865 0.269988 0.363429 -0.531622 -0.333152 -1.018292 -1.283372 0.023646 -0.799982 -0.241390 -2.308864 -0.992743 -0.836865
2.070747 0.023180 0.058771 -0.116726 -0.207305 0.746373 0.336337 0.716052 0.728499 0.784968 0.759494 1.780138 0.633951 1.191552 2.119094 2.426603 3.170788 -1.155998 -1.183017 -1.144885 -1.146320 -0.937691 -2.501668 -0.780888 -0.342833 -0.491899 -0.492685 -1.848443 -1.284304 -0.358347 -0.187534 0.231460 0.544028 -0.012850 0.196316 0.075645 0.441307 0.803990 0.563177 0.880960 0.662366 -0.551980 -0.272651 0.473174 0.092837 1.389544 1.590004 1.172663 0.887669 -2.704566 -2.084402 -2.075180 -2.090760 0.161133 -0.277410 0.093792 -0.450730 -0.334374 0.151765 0.453305 -0.795158 2.185111 1.440243 0.123163 -0.117356 0.406972 1.748650 -0.250710 -1.304313 0.206569 2.831870 -0.140055 -1.034042 -1.638019 -4.324613 1.399161 -0.926031 3.646051 -0.967368 -1.395324 4.969240 0.965966 -0.211977 -0.594786 -2.641105 -2.626762 -1.710616 0.542474 1.237464 -1.084731 0.476789 0.146781 -2.267801 2.205754 0.955297 1.797774 1.549725 2.676014 0.983096 -0.166996 0.736984 0.343233 0.870878 -2.490914 -0.976308 -1.017212 -0.488741 -0.724070 -0.718165 -0.108267 -1.487318 -3.563836 -2.467265 -1.886517 -1.887916 -1.765914 0.197946 0.341023 -0.670024 -0.565248 1.217268 0.578785 0.432954 1.523234 -0.247066 0.837777 1.693724 1.726123 1.877766 1.807127 1.516931 1.138891 1.897313 1.265215 1.743310 -0.365931 1.172730 1.761175 1.664375 0.747333 1.726071 1.947052 1.702896 -3.522575 -0.164351 -1.755654 -0.751745 -1.087322 -0.477655 0.458010 0.198990 -0.668792 -0.894552 -1.090842 -0.814755 0.378270 -1.821648 -0.804382 0.656565 -4.728249 -3.008708 -2.693750 -3.599252 -1.905413 -2.218137 -2.759209 -3.706866 -0.846412 0.282230 0.400403 0.520657 -0.613623 -2.604184 -2.493142 -1.996377 -0.268951 2.300182 0.660789 2.700995 0.047331 1.417256 0.559923 0.983525 -0.349234 -2.412504 -2.317382 -0.969137 0.113251 0.079182 -1.718228 -1.168189
-1.620115 -2.646448 -1.854535 -0.418484 -0.488994 2.015103 2.233933 2.492529 2.622867 -0.181138 0.486104 0.430621 0.125228 0.981946 2.270033 2.672706 2.943646 -3.238666 -2.958559 -0.919013 -1.041894 -1.010359 -1.896350 1.107894 1.444267 -0.698605 -0.573468 -1.926358 -0.734080 -0.473518 -0.546048 -0.720253 -1.120224 1.716850 1.417408 0.616282 1.165360 -0.208785 -0.111666 1.655219 1.549188 -0.775262 -0.575628 -0.811112 -0.777611 -0.273159 0.408012 1.150589 0.939387 -2.019675 -1.812876 -1.623411 -1.438556 -1.204279 -1.697474 -0.786495 -1.017795 -0.173501 0.143781 0.509986 0.099839 0.848733 0.856997 0.144399 0.465140 0.042750 1.302203 -0.259839 -0.901641 -0.657704 2.527101 0.643062 -0.085702 0.200463 -0.331095 -3.127333 -2.386528 2.079684 -0.527866 -0.897095 -0.378735 0.880960 -0.163545 -0.213607 -0.885018 2.013630 0.373537 -1.581678 -1.061733 -0.981455 -2.329408 2.267374 0.314925 -1.622456 -0.317428 -0.857455 0.255551 0.384188 0.634783 0.310398 0.532834 0.894934 0.847154 -0.357380 -0.948462 -0.063657 -0.380426 1.366968 1.116699 0.532524 1.133409 -1.739884 -0.110706 -1.824399 -1.299700 -0.007260 -0.756657 -2.084250 -1.132224 0.349675 0.492803 0.569710 1.000650 -0.810428 -1.021494 0.274227 1.219026 -0.974410 -0.821350 0.103226 -0.277439 0.241630 0.549886 0.709299 0.928921 0.138829 0.547868 0.534920 1.134732 1.186006 1.222585 0.513583 1.562898 -0.484896 -0.603372 -0.627984 -0.182116 0.529410 0.794860 -0.324237 0.811074 0.568461 1.191470 0.971725 0.902592 0.456548 0.327207 -0.028231 0.224941 -1.692658 -1.373192 -1.270331 -1.497061 -0.880830 -0.391243 -1.025972 -0.419343 -0.648821 -0.344299 -0.006156 -0.121403 -1.572289 -0.716372 -1.079262 -0.524612 0.246753 0.609643 0.953392 0.586004 0.546643 0.157177 1.208658 0.428107 -0.870533 1.869289 -0.439062 0.987561 -0.007122 1.558062 1.444517 1.238227
-0.996024 -1.325908 -1.234299 -0.670458 -0.748029 0.804176 0.517705 0.985274 1.529557 -1.918708 -0.431888 -0.927789 -0.769460 -0.451130 0.668078 1.391153 1.845419 -3.599415 -3.494313 -2.130632 -1.632510 1.461885 1.652421 1.082538 1.675703 -3.610484 -1.834911 2.217277 2.243668 0.102511 1.183355 2.106639 2.316550 -1.759459 -1.974343 -0.997934 -0.886811 -0.543584 -1.161284 -1.325254 -0.765823 -0.924869 -1.020350 -1.765110 -1.553057 -1.891923 -1.818879 -1.465972 -1.192848 0.261375 0.451472 1.130715 1.185505 2.884860 2.245183 0.800211 1.112633 2.650542 2.975353 1.723630 1.510940 -0.066453 -0.070787 0.680781 0.575521 -0.503679 0.022158 -0.217714 1.247832 -0.735949 -0.396063 0.808390 0.049251 -0.913141 -0.309003 -1.586898 0.829846 -2.518680 -2.034400 0.653667 -1.388681 0.203567 0.125810 0.061702 0.992485 0.932725 -0.075445 -1.042143 -0.383264 0.418778 -1.542905 1.544410 3.764032 -1.948208 -0.894815 -0.661710 -0.503735 -0.264184 1.644013 1.094386 0.277316 -0.353895 -0.249098 0.939426 -1.014979 0.157004 -0.004415 0.651695 0.355136 -0.126713 0.704905 0.880023 1.041654 1.205223 0.679475 2.280761 0.763504 -1.157510 -0.122111 1.898879 -0.015572 0.304588 1.176866 -1.574080 -1.772584 -0.386883 -0.311578 -0.719112 -0.707009 -0.228068 -0.031042 0.632582 -0.185665 0.107950 -0.123211 0.650581 -0.540972 -0.719917 0.220688 -0.139779 0.000910 -0.391739 0.222405 1.150322 -1.137972 -0.222329 0.349875 0.524928 0.241876 -0.244544 0.925781 0.230219 0.456319 -0.053294 -0.324739 -0.809660 0.257740 -0.603482 -1.313210 0.618838 -0.051738 0.947841 0.896574 0.818578 1.032828 1.209255 1.159358 0.609293 -0.264964 -0.189630 -0.114357 -0.768130 0.902485 0.556081 0.411055 0.021802 -1.134108 -0.288363 -1.184542 0.211956 -0.929318 0.438428 -0.567175 -1.179835 1.354382 0.275554 -0.100109 -0.484670 0.712029 1.757060 0.365671
4.310053 -0.100501 -0.426528 -1.027195 -0.850838 -1.247609 -1.556260 -1.752730 -1.730999 -1.555630 -1.767284 -1.130120 -0.945226 -1.335322 -1.636619 -1.557907 -1.622243 2.152463 1.992509 1.564171 1.791822 1.148882 0.978815 1.028372 1.086628 1.490865 1.454145 1.632483 1.826104 1.500514 1.450058 1.675771 1.779463 0.600668 0.993977 1.282718 1.130755 1.493265 1.518264 1.424474 1.358759 0.248011 0.330125 0.385741 0.197941 0.300285 0.110990 0.360076 0.285784 -1.458837 -1.451294 -0.899652 -1.037761 -0.830165 -0.395448 -0.843880 -0.736556 -0.385432 -0.270738 -0.076872 -0.093956 0.242522 0.244338 0.174710 0.107239 0.710612 -0.341229 -0.558959 1.209747 -0.077012 -0.802404 -0.650275 -0.946540 0.472424 0.379936 0.243224 1.209213 -1.238974 0.066783 0.275401 -1.116317 -0.371329 -1.222688 0.935591 1.239852 -0.942236 -0.354425 -0.492344 0.511591 0.556978 0.861879 -0.940076 -0.258244 -0.265338 -0.002124 3.338152 1.308110 -0.603582 -1.260309 0.165263 -0.407922 -1.581660 -1.298870 0.622449 0.302666 -0.287230 0.226222 -1.417511 -1.249296 0.048620 -0.397824 0.157482 0.200319 0.704848 1.035917 0.055826 0.279524 0.390777 0.734591 -0.173090 0.326585 -0.227458 -0.392292 -0.242579 0.273575 -0.518039 -0.213692 3.510930 3.383947 1.291396 0.527250 -0.598774 -0.901287 -2.088727 -0.801549 -0.425488 -0.705846 -0.679629 -0.366035 -2.796587 -1.481425 -0.386289 -1.110889 0.242736 0.302991 -0.312663 0.078664 -1.326945 -0.763599 0.351211 0.296242 -1.472835 -1.265548 -1.633973 -1.269519 -0.110485 -0.199888 0.354235 -0.834567 0.574483 0.311997 0.743898 1.378751 0.116980 0.829298 0.481149 0.679482 0.085725 0.623702 -0.060192 0.060735 0.461410 0.138796 0.705583 -0.372796 -0.283930 -0.184351 -0.306701 -0.828041 0.015921 0.240450 -0.507955 -0.449829 -0.506868 -0.876790 0.172252 -0.739413 0.506554 -0.845558 -0.618694 -0.710924
1.396510 0.273573 0.303787 0.440579 0.330736 0.528985 0.331507 0.532669 0.577377 0.365612 0.183590 1.159186 0.362643 0.608217 1.121173 1.291640 1.709831 -0.858774 -0.739002 -0.460107 -0.462284 -0.554808 -1.154573 -0.341544 -0.188286 -0.557040 -0.557785 -0.844539 -0.920153 -0.516066 -0.442405 -0.165238 0.038006 -0.045546 0.048222 0.045589 0.235622 0.784675 0.600815 0.791642 0.579877 -0.017780 0.082850 0.475703 0.204543 0.943337 1.016164 0.617820 0.492107 -1.664505 -1.394608 -1.216348 -1.223289 -0.085562 -0.359422 0.049264 -0.368040 -0.437293 -0.183410 0.201018 -0.597635 1.367150 0.828206 -0.140812 -0.233843 0.068356 1.032313 0.106776 -0.480700 0.282316 1.694676 -0.323969 -0.914320 -0.227024 -2.295817 0.907868 -0.715164 1.609944 -0.511602 -0.900978 2.576979 -0.069367 -0.896751 0.134728 -1.200790 -1.147086 -0.860016 0.461856 0.479842 -0.653008 0.146044 0.245326 -1.683284 1.109399 0.434962 1.174254 1.257760 1.182449 0.390007 -0.214517 0.440201 0.122420 0.458386 -1.549755 -0.326235 -0.435954 -0.449544 -0.172183 -0.179843 0.148654 -0.696248 -2.257305 -1.446005 -0.836324 -0.592367 -1.069937 0.079344 0.293475 -0.311969 -0.711866 0.709010 0.289487 0.563163 0.548542 -0.425143 0.214351 0.780318 1.161077 1.311164 1.297327 1.121944 0.599238 1.175568 0.834155 1.011963 -0.609942 0.548273 0.988863 0.693419 0.000899 0.768931 0.972368 0.791658 -2.677744 -0.196434 -0.763670 -0.505250 -0.732390 -0.299372 0.505752 0.111390 -0.109076 -0.305709 -0.496290 -0.226759 0.354977 -0.920731 -0.102524 0.344921 -3.169007 -1.700182 -1.481600 -1.743584 -1.019128 -0.986871 -1.348926 -1.825956 -0.531502 0.461856 0.302134 0.512003 0.119560 -1.600373 -1.287863 -1.087508 -0.081143 1.742139 0.610504 2.055025 0.054973 1.034114 0.365139 0.703682 -0.092453 -1.516449 -1.760731 -0.946364 0.966093 -0.116651 -1.228346 -0.572106
-1.469793 -0.446322 0.056943 0.650636 0.590731 1.141738 1.490406 1.542894 1.497611 -0.177113 0.353223 -0.001769 -0.493557 0.527178 1.191430 1.121350 1.251385 -1.514471 -1.280904 -0.495859 -0.500663 -1.224306 -1.452262 0.185516 0.251445 -0.480021 -0.265579 -1.299160 -0.816516 -0.714557 -0.601569 -0.774331 -0.783319 0.696087 0.620835 0.404515 0.579501 0.177962 0.057614 0.493321 0.429746 -0.187775 -0.219013 -0.720527 -0.389839 -0.629269 -0.288266 0.273762 0.271904 -0.867821 -0.853544 -0.845788 -0.859336 0.085182 -0.394241 -0.136769 -0.235177 0.253561 0.350104 -0.053586 -0.153021 0.315678 0.150379 -0.061426 0.265455 0.126279 0.334718 -0.129380 -0.555534 0.208176 0.954898 0.062376 -0.357151 -0.393741 0.643829 -0.442260 -1.119486 1.559468 -0.044586 -0.134058 -0.376156 0.449945 0.771808 -1.276357 -1.750788 1.082917 0.370157 -0.338547 -0.036178 0.294136 -1.349040 2.125337 0.407717 -0.413075 -0.147786 -0.958621 -0.153109 0.430425 0.731410 -0.192220 -0.121087 1.095802 0.865373 -1.324975 -1.557992 -0.414119 -1.133167 1.875150 1.707212 0.599879 1.014532 -0.195224 -0.098674 -0.693868 -1.278154 -0.011100 -0.387529 -1.534406 -1.107108 0.080579 0.004729 0.548582 0.478702 -1.120006 -1.103541 0.184893 0.034787 -1.062421 -0.965192 0.119664 0.163915 0.129574 0.312758 1.119415 0.951975 -0.154583 0.544052 0.417994 0.742122 1.770587 1.751125 0.837796 1.633242 -1.593253 -1.167521 -1.302033 -1.169393 0.078658 0.299226 -0.578080 -0.251815 1.186805 1.234876 1.132574 1.349284 0.233339 0.263142 0.193207 0.817355 -0.448539 -0.219614 -0.624658 -0.912464 -0.133912 -0.398462 -0.755009 -0.332965 -0.307764 -0.528774 0.228107 0.062533 -0.963780 -0.194506 -0.564704 -0.058575 0.428006 0.344257 0.906047 0.880990 0.455252 0.341500 0.864678 1.053347 -0.444836 0.562630 -0.541585 0.405215 0.447480 2.183342 0.692393 0.914731
-0.807731 -0.259795 -0.153020 -0.285962 -0.226124 0.038078 0.434080 0.206595 0.427500 -0.898921 -0.731996 -0.894637 -0.817554 -0.445693 -0.359485 -0.126289 -0.086030 -0.551456 -0.434485 -0.483479 -0.339893 0.282919 1.074544 0.336121 0.521454 -0.139925 -0.260968 0.952778 0.899087 0.111244 0.474928 0.412333 0.516323 -1.567428 -1.482756 -1.010229 -1.257813 -0.975954 -0.941625 -1.161543 -1.073303 0.039647 0.156153 -0.044412 -0.025266 -0.223628 -0.392589 -0.228719 -0.152362 0.168358 0.192392 0.685124 0.452958 1.245081 1.285107 0.414991 0.551589 1.505914 1.454108 0.902067 0.900994 -0.096042 -0.252959 -0.008725 0.133137 0.175638 -0.507596 0.262499 -0.080781 -0.279412 -0.688543 -0.380280 0.814846 0.202989 -0.020134 -1.108821 0.324322 -1.461089 0.245562 0.496597 -1.582925 -0.183744 -0.224378 -0.089267 1.357019 -0.094302 -0.722765 -0.276882 -0.833609 0.590008 -1.595691 0.535457 1.359867 -1.222346 -0.842626 -0.686561 -0.186002 -0.669762 0.409085 0.249306 0.252552 -0.329285 -0.190665 0.291131 -0.237013 -0.137184 0.437088 0.036306 -0.420016 -0.110906 0.170148 1.620746 1.753432 1.009028 1.046788 0.939107 -0.617846 -0.996966 -0.916315 -0.015719 -0.470844 0.075775 -1.055682 -1.263206 -0.986059 -1.603755 -0.473286 -0.725953 -0.733134 -0.585971 -0.188285 -0.234748 -0.085904 0.063295 0.208789 0.010729 -0.019316 -0.363976 0.804974 -0.163106 0.127028 -0.228774 0.485648 0.575270 -0.481548 -0.758540 0.032426 0.045067 -0.225003 -0.209230 0.178868 -0.068193 0.095969 -0.384646 -0.839103 -0.621105 -0.325293 -0.948309 -1.376745 2.003534 1.256222 1.535269 2.203797 1.674050 1.486551 2.695909 2.226884 0.604161 0.139610 0.091203 -0.497383 0.403166 0.747081 1.422407 0.706900 0.453280 -0.660696 0.288691 -1.017654 0.431099 -0.222097 0.452939 0.632560 -0.086476 1.427456 0.721667 -0.048066 0.953735 1.198830 2.549099 0.862689
-1.905448 -1.622590 -1.370601 -0.587346 -0.568013 1.079274 1.257570 1.326621 1.161817 0.789641 0.947258 1.221860 0.598546 1.583278 1.984612 2.177481 2.380287 -1.829015 -1.857178 -1.086576 -1.060821 -0.172287 -0.350810 0.565147 0.426454 -0.725970 -0.835879 -1.355129 -1.089576 -1.143961 -1.203834 -1.252046 -1.293661 1.584618 1.517119 1.094132 1.175012 0.600728 0.562226 0.944679 0.754612 -0.670595 -0.702238 -0.843840 -0.726160 0.043863 0.167427 0.464054 0.491667 -1.381055 -1.243760 -1.174221 -1.392629 -0.724107 -1.093045 -1.116764 -1.349901 0.217960 0.257443 0.173801 -0.084086 0.417693 0.170046 -0.146444 0.106317 0.025045 0.496858 -0.355470 -0.802971 0.430466 1.128514 0.071696 0.293508 0.649049 0.187518 -0.422314 -0.826970 2.152479 -0.667576 -0.676122 0.025605 0.706164 0.564217 -0.378373 -0.817291 1.608655 0.779228 -1.204309 -0.652763 -0.496806 -1.338244 1.158552 0.428330 -0.763493 -0.047962 -1.193794 -0.711721 0.215292 0.304541 0.154947 0.553428 0.979502 1.220722 -0.753030 -0.844211 0.327723 -0.420860 1.437360 1.117129 0.304757 0.659418 -1.879090 -0.491227 -1.208161 -1.283050 -0.225469 -0.303733 -1.323460 -0.304330 0.328348 -0.510658 0.417565 0.985505 -0.380885 -0.652844 0.681079 0.776552 -1.294874 -1.279782 -0.685138 -0.309755 0.211433 0.756533 0.837056 0.989924 -0.019645 0.887968 0.710394 0.902178 1.126033 1.024223 0.294865 1.149848 -0.831968 -0.388086 -0.593205 -0.255480 0.391005 0.475754 -0.728665 0.365715 1.064040 1.136327 1.022906 1.245745 -0.032680 0.048396 0.203406 0.565085 -1.968747 -1.185142 -1.164679 -1.539786 -0.615554 -0.847606 -1.023378 -0.710577 -0.307130 -0.760648 -0.042431 -0.211679 -1.057555 -0.568404 -0.310505 -0.207619 0.262342 0.057746 0.190331 0.173338 0.107753 -0.212636 0.706436 0.273846 0.063890 1.167683 0.083164 0.558095 0.170579 1.427562 1.271576 0.690988
-0.608646 -1.149660 -1.150314 -1.006555 -0.915359 0.083837 -0.046594 0.188844 0.387661 -0.067008 0.069929 -0.096522 0.039046 0.652545 0.411612 1.075715 1.145271 -1.400010 -1.518836 -1.172780 -0.922807 0.654527 0.862526 0.200924 0.412020 -1.290079 -1.021704 1.125482 0.853645 0.443860 0.283695 1.100914 1.157530 -1.168377 -1.256523 -0.508593 -0.791377 -0.254775 -0.437860 -0.521486 -0.446208 -0.735147 -1.002005 -1.479495 -1.291852 -1.395835 -1.439476 -1.078762 -0.811019 0.264228 0.221128 0.873267 0.544201 1.787967 1.663964 0.830136 0.959577 1.932460 1.632487 1.460718 1.514872 -0.281563 -0.421125 0.428014 0.599812 -0.382148 -0.371886 0.175252 0.062476 -0.097340 -0.677142 -0.531397 1.675669 0.002566 1.126950 -0.157344 0.729241 -3.294823 0.683965 0.445390 -1.078838 -0.027214 0.245062 0.175433 0.961317 1.545672 -0.666977 -0.825998 -0.731047 -0.434536 -2.245883 0.249832 1.819844 -1.031634 0.307376 -0.278848 -0.018862 -0.495014 0.157186 0.236475 -0.565822 0.013697 -0.456225 0.306296 0.050934 0.314675 0.055765 0.631724 0.142913 -0.224067 -0.394429 0.093137 0.021281 0.907469 0.436139 1.008312 -0.148028 -1.540319 -0.317524 0.351879 0.563530 0.199565 0.071917 -0.397289 -0.241984 -0.135610 -0.084694 -0.344016 -0.482373 -0.793567 -0.730539 0.037486 -0.499186 0.017122 0.084357 0.144118 0.194999 -0.337398 0.475796 -0.145367 -0.057598 -0.761852 -0.923742 0.986071 0.458156 0.510156 0.521328 0.097676 -0.273234 -0.678252 -0.634634 0.285265 0.259027 0.442357 0.148318 -0.491406 0.178394 -0.182354 -1.397676 0.517774 0.028219 0.977487 1.031772 0.732302 0.849644 1.399471 1.335316 -0.069689 -0.597573 -0.342594 -0.634386 -0.521661 -0.167072 0.657996 0.108246 0.179613 -1.324763 -0.434954 -1.024861 0.183427 -1.096155 0.300564 0.017540 0.314316 0.985439 1.153781 0.202268 0.807174 0.581466 2.018371 0.549994
-0.882159 -0.529378 -0.278935 -0.364311 -0.122915 -0.839539 -0.874980 -0.781193 -0.842464 0.690040 0.546076 -0.057044 0.232366 0.231556 0.203944 0.157719 0.176804 -1.839841 -1.839681 -1.437432 -1.554118 1.775113 1.877592 1.419618 0.955278 -0.347309 -0.243544 -0.228166 -0.007497 0.844631 0.704603 0.777715 0.713135 0.074544 0.027992 -0.296261 -0.264627 0.064745 0.130082 0.308933 0.246217 -0.316694 -0.416817 -0.707065 -0.580423 -0.130665 -0.093766 0.225076 0.157840 0.264818 0.249023 -0.101931 -0.063895 -0.486820 -0.298023 -0.162020 -0.137936 0.204038 0.125377 0.168197 0.229956 0.060908 0.042134 0.299950 0.294956 0.126653 0.140197 -0.152176 -0.202103 -0.068967 -0.063794 -0.154422 0.432272 0.116439 0.531958 0.420979 0.014818 0.169962 0.304383 -0.585177 -0.020671 0.170891 0.056557 -0.113192 -0.151252 0.229803 -0.187523 -0.106116 0.376661 0.350472 0.521673 -0.524107 -0.376313 0.132194 -0.049982 -0.577534 -0.069293 0.256376 0.058707 0.132541 0.002112 0.117944 -0.178749 -0.018928 0.173052 0.325326 -0.042987 0.159833 0.132562 0.065616 -0.063877 -0.363928 -0.185621 0.025005 0.544565 -0.010528 0.141063 0.142648 0.366050 -0.225267 0.008961 -0.146249 -0.189892 0.289865 -0.040680 -0.171670 -0.008244 -0.624401 -0.614082 -0.170004 -0.394620 0.090147 -0.070339 0.034158 -0.229739 0.084558 -0.010638 0.125309 -0.173270 0.043473 -0.095742 -0.103957 -0.279514 -0.128313 0.081983 0.145539 -0.088056 0.075385 0.102561 -0.155801 0.058924 0.003089 0.030116 -0.046222 0.038233 -0.017232 -0.112094 -0.048227 -0.071472 -0.340059 -0.226066 -0.149359 0.057859 -0.097154 0.088077 0.169625 0.486093 0.030406 -0.010675 0.093841 -0.021479 0.281677 0.006006 0.071999 0.068098 -0.250147 -0.227153 -0.150128 -0.307736 -0.243581 -0.338150 -0.327798 -0.591577 0.159809 -0.028931 0.005218 0.057140 -0.112695 -0.198381 -0.022963 0.040189
-0.829620 -1.550660 -1.585324 -0.895881 -1.079345 0.113134 -0.039631 0.078127 0.017534 0.889332 0.843559 0.502400 1.014388 1.219441 1.294109 1.361252 1.408296 -2.044594 -2.074000 -0.806752 -0.856128 -0.069029 -0.612011 -0.176941 0.280093 -0.787887 -0.688847 -0.767892 -0.128199 0.945432 0.856814 1.251227 1.258364 -0.404694 -0.347818 -0.201129 -0.259725 0.012135 -0.019759 -0.228014 -0.200448 0.955579 0.843765 0.637704 0.626688 -1.003213 -0.888167 -0.854192 -0.808630 1.090018 1.216190 1.367561 1.307591 0.587636 0.556003 0.246351 0.113963 -0.386012 -0.363962 -0.477685 -0.459328 -0.920174 -0.822683 -0.862961 -0.882211 0.089265 0.669835 -0.084766 -0.288557 -0.030239 0.693828 0.298221 0.420688 0.253637 0.529221 0.140065 -1.283809 2.279822 -0.552684 0.435971 1.079436 0.331549 0.337319 0.083470 -0.159713 0.608929 0.620886 0.035968 0.186924 0.506251 0.265188 -0.006671 0.143547 -1.509481 -1.172547 -0.326604 0.059025 0.305235 0.538575 0.427487 0.502011 0.427663 0.084077 -0.676427 -0.377061 -0.327433 -0.601702 0.375729 0.385799 -0.207346 -0.165332 -0.385354 -0.089519 0.151356 1.409846 -0.082249 0.846734 -0.201432 0.572595 0.832433 0.777684 -0.002632 0.401477 -0.065081 0.009846 0.272529 -0.813293 -0.486273 -0.511032 0.178683 0.355821 0.621058 0.651817 0.548887 0.321966 -0.344954 0.118489 0.375714 0.214465 0.275908 0.206683 -0.193143 0.174641 -0.665420 -0.334636 -0.172024 -0.608337 -0.168339 0.240250 -1.236684 -0.854242 0.516082 0.568421 -0.140378 0.301936 -0.071188 0.002800 -0.220101 -1.211866 -0.921485 -0.470973 -0.382519 -0.055431 -0.011677 0.365958 0.631849 1.385939 0.509780 0.498490 0.332368 0.106262 -0.012169 0.147484 0.343855 0.203790 0.016057 0.266979 0.261804 -0.679049 -0.158787 -0.123857 0.041633 -0.593225 -0.630283 -0.227177 -1.322924 -0.701382 -0.810841 -1.237436 -1.133795 -0.159152
0.967813 -0.264109 -0.306634 -0.684761 -0.477845 -0.586364 -0.747561 -0.421224 -0.383433 -1.107764 -1.325616 -1.144899 -1.111967 -1.040863 -1.304575 -1.166021 -1.176969 0.872791 0.935951 0.726662 0.962217 0.613336 0.650995 0.639286 0.855569 0.967504 0.874612 0.804446 0.754059 1.087382 0.947727 1.181303 1.344582 0.528372 0.648224 0.794215 0.696787 0.763547 0.694759 0.638341 0.605944 0.998463 1.003611 0.840473 0.771993 1.042680 0.856792 0.865376 0.929716 -0.716192 -0.744403 -0.525963 -0.647808 -0.670692 -0.430584 -0.645980 -0.623392 -0.965574 -1.021531 -1.013410 -0.908156 -0.705391 -0.738387 -0.665618 -0.688402 -0.449268 -0.056573 0.207712 0.726077 0.240713 -0.382391 0.621519 0.243549 0.429446 0.490436 0.416771 0.524303 -0.589214 0.007465 0.146258 0.151150 0.085771 0.062575 0.161785 0.501111 -0.051597 0.013586 0.086786 0.275693 0.102483 0.160721 -0.539445 -0.266683 -0.444487 -0.089921 0.747969 -0.234793 -0.111881 -0.215540 0.175711 0.077588 -0.136755 -0.086054 -0.168004 0.210408 -0.088502 0.173391 -0.255848 -0.306523 0.022054 0.051254 -0.072510 0.041965 0.242283 0.298805 -0.174259 -0.146263 0.104138 0.135441 -0.419254 -0.198991 -0.293280 -0.356783 -0.206277 -0.305306 -0.053644 -0.351831 0.767584 0.726334 -0.155274 -0.267008 -0.203214 -0.237436 -0.466982 -0.184032 -0.138059 -0.020607 -0.052356 0.059272 -0.483869 -0.216649 -0.010727 -0.067832 -0.399417 0.056385 -0.060150 0.124756 -0.403738 -0.304467 0.144856 0.244483 -0.332735 -0.360879 -0.346479 -0.301008 -0.101102 -0.056244 0.279778 -0.222560 -0.193456 0.024256 0.117084 0.270601 0.095757 0.128764 0.376873 0.212449 -0.075916 -0.019478 -0.162935 -0.131377 0.655725 -0.030098 0.486732 -0.179205 -0.292618 -0.128116 -0.239149 -0.238427 -0.160663 0.009805 -0.309688 -0.215116 0.222668 -0.364572 0.218937 -0.381534 0.719253 -0.168587 -0.080088 -0.304195
0.943481 0.268523 0.244962 0.496846 0.401880 0.734083 0.573242 0.870161 0.796211 0.174494 0.010079 0.755594 0.092969 0.312204 0.750851 0.773155 1.073621 -0.884586 -0.817172 -0.495137 -0.528171 -0.296517 -0.695075 -0.203781 -0.151579 -0.333021 -0.358253 -0.631986 -0.747713 -0.482410 -0.365003 -0.266438 -0.128555 0.168888 0.227826 0.145101 0.259725 0.445604 0.272679 0.440343 0.279368 -0.011852 0.006327 0.183637 0.055913 0.443849 0.526870 0.326415 0.261228 -0.985533 -0.846311 -0.717140 -0.774345 -0.176187 -0.410376 -0.074463 -0.438943 -0.091826 0.072348 0.200048 -0.404435 1.094526 0.653223 -0.105908 -0.083116 -0.072358 0.821164 0.216023 -0.440629 0.315595 1.184496 -0.020026 -0.004609 0.083763 -0.993601 0.568192 -0.353966 1.029281 -0.434029 -0.541151 1.400222 0.522482 -0.102813 0.170297 -0.827146 -0.304620 -0.408880 -0.100177 -0.004848 -0.285844 0.302229 0.306642 -1.212029 0.646615 0.362311 0.846998 0.790970 0.394359 -0.235811 0.056000 0.496864 0.491078 0.465693 -0.969246 -0.330101 -0.166985 -0.284630 0.015452 -0.048162 0.104877 -0.440293 -1.540939 -1.186387 -0.604470 -0.368962 -0.682346 -0.084720 0.235015 -0.114414 -0.679650 0.307623 0.176108 0.411153 0.213980 -0.692095 -0.076643 0.319843 0.848152 0.961734 0.730596 0.593826 -0.127676 0.465089 0.041169 0.443380 -0.427949 0.499212 0.858474 0.536872 0.152846 0.602783 0.652167 0.423427 -1.880687 -0.242846 -0.614997 -0.338577 -0.525707 -0.153577 0.206386 0.079800 -0.113934 -0.260074 -0.423632 -0.225610 0.153694 -0.671409 0.027485 0.004503 -2.021319 -1.163526 -1.082442 -1.209555 -0.783458 -0.792104 -0.933843 -1.053114 -0.460555 0.064711 0.089547 0.311123 0.221665 -0.936444 -0.516456 -0.492454 -0.124212 0.953437 0.391663 1.345709 0.020753 0.619497 0.177539 0.465867 0.065671 -0.781872 -1.189375 -0.623795 0.838438 0.093820 -0.806838 -0.542478
-0.635309 -0.233932 0.167974 0.491550 0.450462 1.113781 1.294909 1.247335 1.160061 -0.150405 0.116975 0.165786 -0.271126 0.318687 0.799621 0.698137 0.808259 -1.115952 -0.946035 -0.458498 -0.423891 -0.559914 -0.571966 -0.043672 -0.060816 -0.439999 -0.426888 -0.772580 -0.603861 -0.632154 -0.518410 -0.651989 -0.586756 0.329891 0.299779 0.166354 0.268652 -0.062898 -0.140578 0.139864 0.059979 0.096583 0.061760 -0.311530 -0.120027 -0.282723 -0.083336 0.190548 0.166481 -0.277960 -0.327058 -0.348679 -0.392154 0.117971 -0.192365 -0.059788 -0.162699 0.189903 0.222791 -0.090327 -0.218868 0.224940 0.052618 -0.164982 0.012551 0.065458 0.213833 -0.079184 -0.612282 0.206603 0.560686 0.023273 0.255263 0.105489 0.428553 -0.015846 -0.513356 1.077086 0.069479 -0.023880 0.164223 0.256025 0.705895 -0.292754 -0.601318 0.615500 0.391083 -0.136205 0.102320 0.196635 -0.794324 0.979562 0.161931 -0.268980 -0.100380 -0.413380 0.001031 0.128315 0.389263 -0.395002 -0.226344 0.699040 0.517302 -0.707744 -0.821609 -0.053134 -0.475738 1.010478 0.976654 0.550318 0.596843 -0.210786 0.014105 -0.310046 -0.727778 -0.119559 -0.146625 -0.663874 -0.430604 -0.097402 -0.062062 0.254807 0.199666 -0.823691 -0.622623 -0.028668 0.032362 -0.466383 -0.411991 0.001111 0.230740 -0.277853 0.085419 0.591055 0.627896 -0.645776 0.013731 0.061187 0.335341 0.696867 0.902099 0.449556 0.813142 -1.202563 -0.798799 -0.825754 -0.639427 -0.064730 0.137606 -0.144885 -0.108219 0.601197 0.622056 0.706603 0.854339 0.148717 0.096538 0.152322 0.457520 -0.423706 -0.150889 -0.361362 -0.544782 -0.020432 -0.061651 -0.329645 -0.095994 -0.223103 -0.260392 0.078296 -0.004913 -0.299961 0.003487 -0.303703 -0.139945 0.180512 0.175938 0.379630 0.349347 0.183604 0.131966 0.371791 0.500820 -0.239886 0.268441 -0.348872 0.028121 0.556697 1.330385 0.278040 0.375357
-0.576626 -0.058184 0.093655 0.040455 0.028328 0.432392 0.795485 0.434551 0.522623 -0.660436 -0.679911 -0.763693 -0.740550 -0.490965 -0.554188 -0.378307 -0.425784 -0.332444 -0.171890 -0.228067 -0.126975 0.299961 0.857219 0.222405 0.362034 -0.001299 -0.127104 0.493547 0.512235 -0.029622 0.070878 0.019178 0.007845 -0.896364 -0.857306 -0.565346 -0.779774 -0.691076 -0.581123 -0.768164 -0.703562 -0.141240 -0.130645 -0.242770 -0.155579 -0.202114 -0.289488 -0.248877 -0.165620 0.246674 0.215430 0.532139 0.372326 0.851913 0.967251 0.315777 0.394620 1.005633 0.905820 0.566421 0.667310 -0.100226 -0.211436 0.004266 0.108501 -0.001979 -0.410946 0.532084 -0.361434 -0.251819 -0.372461 -0.280461 0.921850 0.417242 0.560789 -0.345532 0.042729 -0.890882 0.397841 0.088276 -1.145445 0.084677 -0.222462 0.168133 0.925644 0.368124 0.052463 0.079832 -0.276612 0.366327 -0.715196 0.308086 0.571843 -1.006577 -0.517888 -0.584275 -0.485055 -0.368689 0.056694 0.140996 -0.030851 -0.531447 -0.360159 0.278296 -0.026013 -0.018325 0.084765 0.342768 -0.058239 0.247520 0.296035 1.020567 1.228380 0.793977 0.766002 0.512699 -0.596671 -0.589522 -0.274920 -0.254602 -0.459454 -0.074418 -0.795950 -1.091186 -0.790185 -1.069838 -0.259845 -0.584043 -0.630327 -0.761432 0.064634 -0.241893 -0.033333 -0.223069 0.133851 -0.118980 0.166566 -0.508108 0.313887 -0.547517 -0.284585 -0.389710 0.076726 0.178779 -0.210752 -0.636489 -0.047632 -0.142092 -0.358783 -0.110159 -0.063046 0.198370 0.158783 0.155352 -0.068907 -0.258554 -0.094212 -0.226394 -0.332879 1.249998 0.910367 1.144948 1.772494 1.247348 1.182880 2.029754 1.860717 0.354817 0.005715 0.090846 -0.288792 0.520186 0.647428 1.021132 0.578653 0.360174 -0.586373 0.066032 -0.683891 0.191380 -0.301819 0.172799 0.238476 0.073681 0.911816 0.392928 -0.189788 0.955948 0.853128 1.630242 0.382747
-2.375941 -0.984629 -0.523580 -0.064950 -0.030585 1.166161 1.472132 1.352468 1.168753 -0.047110 0.140457 0.603471 -0.119961 0.518049 0.875741 0.903988 1.088299 -1.561099 -1.359632 -0.910146 -0.858347 0.108912 0.278412 0.602922 0.306811 -0.727640 -0.789574 -0.876156 -1.011163 -0.852641 -0.879859 -0.723629 -0.641815 0.754287 0.723729 0.635546 0.611152 0.297583 0.191007 0.318993 0.117264 -0.078452 -0.196391 -0.619744 -0.447744 -0.184394 -0.174981 -0.095066 0.052389 -0.189623 -0.161185 -0.176155 -0.315553 -0.290135 -0.620052 -0.562648 -0.749021 0.194261 0.173849 -0.392378 -0.452011 0.000631 -0.169937 -0.417961 -0.153201 -0.034068 0.138696 -0.256259 -0.747621 0.184134 0.647597 0.186036 0.285643 0.722955 0.392194 0.210916 -0.875584 1.468772 -0.237595 -0.489528 -0.074205 0.904277 0.921986 -0.412057 -0.967158 1.200133 1.030578 -0.413363 0.235124 -0.312777 -0.845075 1.189123 0.554471 -0.442116 -0.232888 -1.786775 -0.712303 0.523249 0.536282 0.212154 0.659783 1.423138 1.275021 -1.429655 -1.214404 -0.098112 -0.773707 1.485942 1.241477 0.630497 1.014472 -0.730098 -0.144502 -0.720096 -1.307294 0.105051 -0.122233 -0.874310 -0.226730 0.329225 -0.387895 0.269884 0.926740 -0.831065 -1.064150 0.461390 0.222471 -1.904814 -1.851720 -0.562065 -0.286810 0.312831 0.768080 1.401669 0.934053 -0.114259 0.621002 0.540697 0.554315 1.544243 1.435567 0.705053 1.465452 -1.953291 -1.245792 -1.229425 -0.781156 -0.115413 0.030676 -0.591948 0.138575 1.159271 1.114595 1.292502 1.508345 -0.148004 0.115972 0.374593 0.974525 -1.251284 -0.516463 -0.850641 -1.154403 -0.129425 -0.584785 -0.871847 -0.654210 -0.171127 -0.641037 -0.041684 -0.076837 -0.196555 -0.061258 -0.450219 -0.358836 0.262732 0.221079 0.179708 0.336683 0.046604 -0.236121 0.435917 0.402136 0.367584 0.582498 0.034434 0.165967 0.468160 2.206339 0.952285 0.571739
-0.809822 -0.310764 -0.271049 -0.179389 -0.200561 0.659265 0.852314 0.561554 0.642648 -0.353746 -0.452440 -0.814388 -0.511622 -0.076634 -0.627343 -0.121821 -0.192174 -0.929347 -0.864764 -0.519996 -0.432917 0.435974 0.836864 0.037980 0.267917 -0.275025 -0.433566 0.743439 0.592156 0.303302 0.081948 0.379381 0.362982 -0.970259 -0.970510 -0.565353 -0.949232 -0.612698 -0.581184 -0.850726 -0.818146 0.201576 0.099042 -0.393024 -0.190295 -0.808864 -0.858222 -0.590948 -0.357031 0.786415 0.677355 1.072488 0.769696 0.973556 1.125511 0.432393 0.554897 1.085183 0.767105 0.467623 0.792838 -0.677832 -0.696037 0.026896 0.247966 -0.096686 -0.526529 0.323661 -0.292498 -0.380875 -0.920566 -0.359651 1.268452 0.550260 1.231776 -0.279674 0.490501 -1.885786 0.677300 0.458192 -1.341302 -0.063223 0.069535 0.460050 0.442050 1.300532 0.224273 -0.091678 -0.324324 0.013435 -0.954165 -0.079587 1.048773 -1.339675 -0.157114 -0.632257 -0.367951 -0.548329 0.092842 0.231145 0.036884 0.132826 -0.139964 0.260644 -0.079303 -0.737832 -0.422253 0.354036 0.053693 0.048759 0.178456 1.021321 1.272221 1.095734 0.732091 0.875707 -0.488118 -0.828462 -0.028013 0.092813 -0.210432 -0.054487 -0.817415 -0.876263 -0.694418 -0.812257 -0.263281 -0.705547 -0.832502 -0.993393 -0.379792 -0.132549 -0.023088 0.106626 0.289805 0.004408 0.227636 -0.692977 0.336485 -0.236987 -0.055582 -0.609178 -0.207349 0.409820 -0.135274 -0.720436 -0.348582 -0.819663 -0.906354 -0.998490 -0.886999 0.202575 0.291175 0.576217 0.293164 -0.488219 -0.028973 -0.154163 -1.024833 1.355791 0.914434 1.417681 1.800291 1.491105 1.219198 1.949051 2.146221 0.468139 -0.203213 -0.051409 -0.549681 0.514689 0.632671 1.203944 0.678332 0.470333 -0.871186 -0.206138 -1.101109 0.171219 -0.712965 0.199061 0.407156 0.293257 1.000918 0.775052 0.022361 0.932384 0.863850 1.840332 0.897200
-0.846921 -0.339111 -0.329013 -0.406688 -0.420156 0.063949 0.067024 -0.064318 -0.258350 -0.017523 -0.197322 0.019187 -0.017845 -0.035298 -0.291125 0.007047 -0.025135 -0.326047 -0.305561 -0.464575 -0.500014 0.680933 0.685314 0.381320 0.174286 -0.078131 -0.172287 0.134798 -0.153901 0.363800 0.108112 0.452217 0.417491 -0.726735 -0.751450 -0.541001 -0.728522 -0.366257 -0.420364 -0.619074 -0.698578 -0.520796 -0.606014 -0.621704 -0.614641 -0.693861 -0.786139 -0.877497 -0.719895 0.602761 0.600409 0.763341 0.635710 0.629745 0.648012 0.486782 0.418899 0.764764 0.676015 0.608772 0.720607 0.448937 0.459300 0.439558 0.541995 0.046886 -0.101511 -0.233184 -0.189565 -0.002250 -0.123528 0.250927 0.320113 -0.036404 0.539775 0.347780 0.123631 -0.205674 -0.005603 0.055947 -0.025968 0.239813 0.150184 0.503401 -0.005349 0.276536 0.363300 0.028204 0.084454 -0.191471 0.314176 -0.492195 -0.229617 -0.178155 0.017390 -0.485555 -0.012122 0.178428 -0.073720 0.361309 0.198917 0.335346 0.115544 0.066382 0.122136 -0.234799 -0.048789 -0.740658 -0.746370 -0.070270 -0.005996 -0.257745 0.055808 -0.013375 0.068676 0.112231 0.008739 0.326268 0.431981 -0.154958 -0.006524 -0.229377 0.161108 -0.047169 -0.230889 -0.039881 0.216622 -0.614275 -0.609665 -0.181908 -0.289514 0.224395 0.092881 0.360060 0.077193 0.242830 -0.049320 0.112292 0.004013 -0.350648 -0.149345 0.162868 0.059371 -0.228847 -0.040578 -0.143222 0.054951 -0.533513 -0.457823 0.262047 0.303674 -0.578208 -0.359250 -0.396862 -0.330882 -0.132652 -0.111200 0.101887 0.037302 -0.410627 -0.106056 -0.112446 -0.069432 -0.089278 0.082840 -0.074315 -0.136646 -0.070779 0.024225 -0.193220 -0.083780 0.742990 0.165449 0.138671 -0.003149 -0.215078 -0.017336 -0.330657 -0.164508 -0.252302 -0.382467 -0.334316 -0.460946 0.666343 0.045216 0.499943 0.038990 0.170120 0.376656 0.287462 0.192516
-0.217688 -0.067634 -0.235071 0.007190 -0.162961 0.608805 0.471320 0.473303 0.292605 0.332307 0.316864 0.262110 0.315969 0.476195 0.263728 0.548069 0.538404 -0.712998 -0.763086 -0.315430 -0.442585 -0.352654 -0.763562 -0.475791 -0.234322 -0.301280 -0.222630 -0.667565 -0.546325 0.330748 0.054867 0.395239 0.358482 -0.016460 -0.062308 -0.024077 -0.171461 0.271040 0.136706 -0.094068 -0.105081 0.705843 0.610379 0.423080 0.487961 -0.772165 -0.696160 -0.618354 -0.506693 0.856577 0.865948 0.787585 0.674850 0.436233 0.315708 0.154782 0.064373 -0.151803 -0.268220 -0.394424 -0.324832 -0.784851 -0.747215 -0.669796 -0.600786 0.019709 0.221996 -0.336950 0.077055 0.053600 0.127420 0.425803 0.030732 0.013364 0.419633 0.299572 -0.156040 0.672960 -0.141763 0.504308 0.686593 0.306202 0.232019 0.446045 -0.727271 0.549417 0.221974 0.154382 0.292813 -0.228324 0.505494 -0.068082 -0.301028 -0.151380 0.271002 0.123287 0.204778 0.417024 0.158916 0.194929 0.203555 0.630650 0.089093 -0.289527 -0.276865 -0.531477 -0.682175 -0.066327 -0.129144 -0.744520 -0.371090 -0.260851 -0.277961 0.000528 0.021125 -0.064259 0.391543 -0.095193 0.530357 0.300468 0.418489 -0.036747 0.326660 0.130081 -0.061214 0.933350 0.034520 -0.049436 -0.087819 0.210825 0.300032 0.386681 0.472874 0.522740 0.456088 -0.034338 0.162767 0.219607 0.198069 0.150889 0.238549 -0.146200 0.117067 -0.464434 0.010168 -0.176024 -0.420423 -0.586590 -0.357273 -0.887124 -0.550928 -0.096979 0.001282 -0.246582 0.054773 -0.488240 -0.366310 -0.005715 -0.863820 -0.669062 -0.422483 -0.365900 -0.427281 -0.081268 -0.063045 -0.626811 0.019220 -0.045852 -0.001632 -0.009267 0.009606 0.032606 -0.229809 0.064476 -0.036632 -0.027434 0.233043 -0.059253 0.014959 -0.152085 -0.164874 0.078670 -0.049065 0.035467 -0.556153 -0.634029 -0.221101 -0.069721 -0.059829 -0.705152 0.304771
-1.530473 -0.690483 -0.580395 -0.361499 -0.339862 0.731112 0.843108 0.872359 0.732673 0.821751 0.836383 0.774298 0.410695 1.060053 1.159811 1.314133 1.424641 -1.067066 -1.133312 -0.840471 -0.835066 -0.032163 0.039838 0.351371 0.233587 -0.619479 -0.725006 -1.128278 -0.980955 -0.836484 -1.076140 -0.918135 -0.971492 1.181512 1.145791 0.928579 0.948859 0.672447 0.669083 0.803202 0.692604 -0.190438 -0.243050 -0.417676 -0.252539 -0.235533 -0.082443 0.054720 0.089911 -1.174282 -1.077199 -1.068832 -1.186566 -0.763432 -0.982871 -0.987636 -1.129601 0.360653 0.323044 0.263330 0.197644 0.082206 -0.024970 -0.171919 0.044930 -0.096358 0.232340 -0.003467 -0.573704 0.102399 0.638888 0.277052 0.338368 0.198747 0.128023 0.128501 -0.372710 1.050009 -0.175429 -0.490151 0.042941 0.335270 0.471781 0.001588 -0.493917 1.150960 0.526349 -0.514889 -0.004655 -0.298084 -0.749629 0.788386 0.390341 -0.393685 -0.103347 -1.029401 -0.453788 0.043839 0.360910 0.249387 0.402514 0.701910 0.724331 -0.229833 -0.375220 0.220249 -0.122877 0.622140 0.700347 0.107044 0.423776 -1.307004 -0.366332 -0.683772 -0.702984 -0.140854 -0.191344 -0.610712 -0.155710 0.180772 -0.258307 0.209072 0.382025 -0.218425 -0.471040 0.467615 0.459577 -1.082291 -1.042962 -0.553518 -0.292991 0.197789 0.460289 0.605023 0.614026 0.100126 0.565405 0.314654 0.634469 0.531252 0.562127 0.052849 0.761485 -0.454344 -0.298403 -0.359056 -0.047392 0.075722 0.277012 -0.461631 0.066845 0.402436 0.528030 0.633791 0.677642 -0.016210 0.024553 0.015152 0.222356 -1.499538 -1.144757 -0.891242 -1.286950 -0.503753 -0.565424 -0.443393 -0.260413 -0.299412 -0.615030 -0.060559 -0.287298 -0.523631 -0.130952 -0.161835 0.064710 0.111838 -0.187924 0.133864 -0.084720 -0.019660 -0.301048 0.320707 0.038809 0.201513 0.852111 0.279557 0.486098 -0.026478 0.883733 0.977256 0.625763
-0.584407 -0.871635 -0.812605 -1.032330 -0.931716 -0.334062 -0.253246 -0.299512 -0.274811 -0.343849 -0.289749 -0.737893 -0.555547 -0.267708 -0.622336 -0.255640 -0.304958 -0.030546 -0.101992 -0.427626 -0.389966 0.875460 1.350753 0.500433 0.313430 0.454720 0.354626 1.063617 0.608129 0.872088 0.398076 0.921899 0.840089 -1.038964 -1.095258 -0.630939 -0.940216 -0.575565 -0.530663 -0.924102 -0.985369 -0.556816 -0.678072 -0.921306 -0.737660 -1.189788 -1.295209 -1.236782 -0.941116 0.907573 0.820977 1.123694 0.962493 1.167619 1.285789 0.533787 0.701845 1.442290 1.278838 1.121471 1.315078 -0.154841 -0.088285 0.524926 0.750166 0.031100 -0.589088 -0.009053 -0.323165 -0.315895 -0.755783 -0.183516 0.807037 0.031407 1.246417 -0.382520 0.565926 -1.873169 0.305305 0.469091 -1.746722 -0.153774 0.002184 0.298530 0.938613 1.534188 0.291072 -0.530140 -0.751258 0.279800 -0.696470 -0.120927 1.840548 -1.048156 -0.427067 -0.352705 -0.634382 -0.916073 -0.084889 0.321002 -0.213251 -0.111625 -0.355677 0.704355 0.086049 0.397264 0.028159 0.153785 0.194040 0.475176 0.122827 0.842477 0.706587 0.254192 -0.259269 1.039216 -0.180697 -0.527202 -0.068649 0.409128 -0.792826 -0.130332 -0.222933 -0.429260 -0.046258 -0.737951 -0.235085 -0.354415 -0.458612 -0.763159 -0.674452 -0.222079 -0.608202 -0.234323 -0.290300 0.096766 -0.101621 -0.601575 -0.189590 -0.634188 -0.514435 -0.406432 -0.704270 1.238250 -0.020870 0.006967 0.004530 0.088351 -0.097396 -0.052372 -0.041693 0.163958 0.257070 0.506252 0.179683 -0.002743 0.435600 0.072073 -0.578399 1.202157 0.271311 0.467165 0.351493 0.475823 0.592041 0.719162 0.721055 0.304054 -0.462534 -0.335160 -0.605430 0.074594 0.831842 0.935378 0.555019 0.149876 -1.278261 -0.615242 -1.449218 -0.019948 -1.101135 -0.366710 -0.573288 0.487799 1.680233 2.065795 0.732075 0.320211 0.708822 2.021237 0.751254
-0.764077 -0.492442 -0.578930 -0.628331 -0.715826 -0.612611 -0.505754 -0.548381 -0.629250 0.357380 0.252645 -0.210393 -0.025562 -0.061751 -0.139382 -0.068362 -0.134323 -0.685406 -0.652747 -0.467839 -0.446057 0.873472 0.976197 0.577681 0.476117 0.378781 0.304796 0.045163 0.113704 0.727231 0.577960 0.646706 0.531438 0.013743 -0.025742 -0.128069 -0.150354 0.123642 0.173958 0.029510 0.072686 0.043631 -0.024299 -0.061745 0.010384 0.001776 0.006802 0.004870 -0.009934 0.232558 0.224231 0.062627 0.068517 -0.425516 -0.317535 -0.264605 -0.308218 -0.043744 -0.094154 -0.041732 0.089027 -0.113580 -0.085782 0.100611 0.072359 0.251814 -0.069631 0.124338 -0.071371 0.143772 -0.119876 -0.071671 0.322656 -0.042204 0.174084 0.167484 0.479253 -0.069042 0.028953 -0.394963 0.000902 0.100467 -0.062924 -0.084291 0.192381 0.301557 -0.007758 -0.130559 0.187448 -0.028923 0.674822 -0.378263 -0.506380 0.078768 -0.139631 -0.474859 0.045357 0.144237 0.008368 0.086814 0.106891 0.065036 -0.137357 0.081651 0.218386 0.266010 0.063079 -0.096637 -0.177486 -0.083080 -0.026331 -0.360258 -0.107902 0.086307 0.619362 -0.241747 -0.081010 0.155107 0.359022 -0.121481 0.210689 -0.012932 0.151037 0.292858 0.077083 -0.202024 0.072276 -0.513875 -0.496374 -0.204873 -0.264344 0.039365 0.052964 0.034116 -0.197291 0.099674 0.023135 0.133346 -0.189873 -0.198243 -0.340641 -0.180593 -0.199846 0.110090 0.258165 0.131785 0.049150 0.006932 -0.155753 -0.229737 0.153430 -0.148178 -0.007847 -0.124576 -0.122946 -0.078196 -0.134326 -0.071465 -0.051563 -0.286527 -0.213408 -0.139295 0.064420 -0.116027 0.076632 0.175604 0.351689 -0.260673 -0.039652 -0.090592 -0.095717 0.036895 -0.153539 0.052092 0.026671 -0.178245 -0.145526 -0.178985 -0.220425 -0.113656 -0.294794 -0.059911 -0.478771 0.224387 0.178703 0.132869 0.217460 -0.164192 -0.197744 0.297029 0.130538
-0.306192 -1.100687 -1.156314 -1.026701 -1.096524 -0.430178 -0.247703 -0.233590 -0.281812 0.300218 0.184822 -0.250680 0.088043 0.231796 0.117308 0.243676 0.197687 -0.188250 -0.133372 -0.161874 -0.213165 -0.019679 -0.148742 0.230766 0.343616 0.705982 0.532559 -0.264894 0.057980 0.963905 0.721247 0.910867 0.817499 -0.518868 -0.505743 -0.478246 -0.566191 -0.258752 -0.195915 -0.544935 -0.523871 0.340375 0.326610 0.490708 0.584742 -0.446058 -0.415555 -0.342831 -0.254058 0.974552 1.011431 0.889977 0.831732 0.699332 0.749261 0.551449 0.496245 -0.636113 -0.555582 -0.513053 -0.395917 -0.443900 -0.274109 -0.190185 -0.192725 0.180565 0.107163 -0.200525 -0.085892 -0.022165 0.145577 0.272183 -0.184717 -0.119221 0.493531 -0.110039 -0.559208 1.100319 -0.418305 0.507301 -0.175336 -0.038316 -0.203248 -0.001234 0.502359 0.767335 0.771371 -0.118676 -0.125566 0.201292 0.087794 -0.656165 -0.138926 -0.207477 -0.914453 -0.017566 0.001504 0.037819 -0.001708 0.099530 0.312842 0.119054 -0.041457 0.008311 -0.169532 0.221776 -0.357149 0.080195 0.048522 0.132712 0.278406 -0.036193 0.117375 0.242047 0.943053 -0.286813 0.199085 -0.507561 -0.235894 0.325910 -0.208603 -0.056351 0.429693 0.187397 0.446346 -0.177317 -0.382244 -0.058290 -0.091190 0.198011 0.265058 0.182280 0.257082 0.182764 -0.065247 -0.118394 -0.328320 0.134629 -0.454372 -0.383919 -0.583406 -0.106239 -0.026560 0.196672 -0.291877 0.013917 -0.444468 0.048388 -0.093086 -0.656183 -0.025612 0.253604 0.326658 -0.209167 0.043781 0.164680 0.303190 0.132366 -0.534651 -0.204598 -0.170929 -0.237303 -0.138090 0.093834 0.372070 0.197295 0.577213 0.164688 0.116841 -0.097126 -0.187075 -0.420239 -0.061287 0.031663 -0.242367 0.001909 -0.079086 -0.097116 -0.736118 -0.147376 -0.326709 -0.035103 -0.753440 0.236352 0.761379 0.638134 0.349438 -0.377656 -0.508520 0.070860 0.474234
-0.641680 -0.944512 -0.832219 -0.586283 -0.571722 -0.696192 -0.701505 -0.493765 -0.517422 0.359060 0.170754 -0.824361 -0.466477 -0.059176 -0.596335 -0.403391 -0.488718 0.062686 0.059391 0.099462 0.117704 0.367869 0.421687 0.380938 0.317087 0.703654 0.759897 0.501826 0.618351 0.731608 0.647659 0.626614 0.594151 -0.045546 -0.091648 -0.147681 -0.139068 -0.333392 -0.347217 -0.360050 -0.349516 0.050918 -0.000303 -0.156825 -0.056923 -0.049418 -0.014572 0.029076 0.009854 0.323449 0.311693 0.296630 0.176790 -0.225766 0.160591 -0.053653 -0.082535 -0.169862 -0.404270 0.022077 0.139911 0.187739 0.173038 0.255897 0.248903 0.209693 0.006379 -0.035450 0.211251 0.070690 0.021229 -0.162902 0.351190 0.184798 0.299563 0.106454 0.181462 -0.087992 0.030977 -0.473274 0.003068 0.009118 0.107709 0.010111 0.151463 0.272370 -0.185549 0.068305 0.244883 0.101724 0.329140 -0.588496 -0.182089 0.042685 0.446958 -0.408763 -0.095330 0.049384 0.024146 0.004067 -0.069809 0.032580 -0.342831 -0.087590 0.198037 0.130848 0.048377 -0.147003 -0.094908 -0.128593 -0.075663 -0.206052 0.019013 0.299759 0.434629 0.053072 0.156264 0.191706 0.148022 -0.348464 0.070339 -0.192871 -0.348551 0.581786 0.235210 -0.171063 -0.084149 -0.447254 -0.440993 -0.188782 -0.315857 -0.078084 -0.119074 -0.091099 -0.299222 -0.074393 -0.072474 -0.039931 -0.200920 -0.179389 -0.202648 -0.199172 -0.249311 -0.101381 0.175200 0.138320 0.045227 0.009582 0.004046 -0.155073 0.043352 -0.083895 -0.058254 -0.147356 -0.171069 0.009771 -0.107284 -0.147233 -0.166717 -0.073001 -0.045800 0.096744 0.056484 0.157433 0.093318 0.284399 0.510740 -0.007545 -0.071073 -0.060115 -0.055614 0.340307 -0.000295 0.135550 0.154991 -0.380327 -0.406388 -0.263641 -0.292897 -0.235375 -0.253306 -0.356568 -0.365745 0.193474 -0.089825 0.058977 0.112807 -0.046315 -0.174886 -0.001736 0.070980
-0.894563 -1.231338 -1.443799 -0.940358 -0.956514 -0.358235 -0.617274 -0.675914 -1.033717 -0.046773 0.022442 0.281206 0.275692 -0.243416 0.487570 -0.224477 -0.079707 0.622880 0.639556 0.550838 0.446703 0.640989 0.604855 0.545898 0.164725 0.509037 0.611345 -0.501433 0.019347 0.481393 0.180585 0.245703 0.127626 0.098586 0.061240 -0.141142 -0.074532 -0.450532 -0.397431 -0.517260 -0.483611 -0.593632 -0.642718 -0.625209 -0.562037 -0.669543 -0.574891 -0.355658 -0.484604 0.346366 0.459936 0.116520 0.257341 0.306260 0.267927 0.267870 0.120758 0.406659 0.706171 0.473208 0.226258 0.424854 0.579201 0.261887 0.297194 0.325452 0.228171 -0.528397 -0.407349 -0.376085 0.946723 0.941668 -0.360425 0.265368 -0.407274 -0.425960 -1.123080 2.117461 -0.152001 0.365034 0.085104 0.547343 0.151830 0.492052 -0.140822 0.040679 0.321801 -0.277772 0.478581 -0.094304 0.429022 0.168262 0.156284 0.526207 -0.093530 -0.655745 -0.604134 0.303659 0.327490 0.395082 0.282557 0.075708 -0.431292 0.237247 -0.342026 -0.020586 -0.597224 0.014358 0.168271 0.414144 0.125230 -0.108187 0.198718 -0.438810 -0.035124 0.092373 0.218562 0.392079 0.364404 0.640229 -0.210457 -0.161604 0.162529 0.404305 0.029277 0.256083 0.204703 -0.687679 -0.652448 -0.101090 -0.006909 0.084851 0.152821 0.068841 -0.430608 0.060013 -0.053586 0.003565 -0.497988 -0.039860 -0.032500 0.028763 0.136546 -0.111294 -0.371297 -0.438938 -0.351752 -0.069418 0.327311 -0.118503 0.289114 0.179597 0.124058 0.009800 0.228825 0.220792 -0.076787 -0.099680 0.464263 -0.256092 -0.212109 -0.618148 -0.537485 -0.303681 -0.461661 -0.332647 0.044204 0.154322 -0.156128 -0.100352 0.059579 -0.328884 0.356971 -0.321774 0.137051 -0.200138 -0.163669 -0.085522 -0.211217 -0.365522 -0.287634 -0.381967 -0.977039 -0.219947 0.414497 -0.193761 0.101605 -0.649381 0.220912 -0.226342 -0.176149
-0.750625 -0.893432 -0.825051 -0.713296 -0.711449 -0.407648 -0.411126 -0.432947 -0.561755 -0.237148 -0.280354 -0.439755 -0.525794 -0.320292 -0.298576 -0.424192 -0.486270 -0.463820 -0.473557 -0.206551 -0.195284 0.243760 0.289292 0.512387 0.272321 0.937235 0.872127 0.665556 0.800351 1.188393 1.044279 0.913591 0.818378 -0.382275 -0.468782 -0.664507 -0.538873 -0.679290 -0.621698 -0.319678 -0.356541 -0.143950 -0.234995 -0.354369 -0.178082 -0.348643 -0.197549 -0.001354 -0.072551 1.236978 1.185277 0.940585 0.972322 0.555024 0.575365 0.740194 0.733880 -0.316401 -0.371833 -0.464151 -0.382418 -0.188195 -0.161749 -0.122884 -0.119483 0.033337 0.166155 -0.116885 -0.087847 0.033027 0.287464 0.147794 0.266004 0.124084 0.411360 0.138831 -0.160875 0.491293 0.479422 -0.374986 -0.036121 0.420272 0.245318 -0.278839 -0.175771 0.288083 0.529586 0.047087 0.507879 -0.046531 0.093198 -0.117501 -0.169645 -0.286532 0.561177 -0.449831 -0.105587 0.260668 -0.009458 0.005258 0.062383 0.334688 0.212335 -0.466616 -0.135956 -0.016688 -0.085770 0.215609 0.288675 0.217850 0.359170 -0.412236 -0.121298 -0.050585 0.258663 -0.067961 -0.043312 0.185508 0.464577 -0.150488 0.129382 0.012734 0.187402 -0.537964 -0.262638 0.089878 0.068121 -0.482716 -0.464950 -0.081195 -0.310072 -0.005947 0.114744 0.225942 0.169059 -0.146324 0.174552 0.141186 -0.012437 0.093351 0.127563 0.018235 0.101990 -0.626173 -0.227156 -0.131011 -0.064223 -0.072950 0.066511 -0.262520 -0.010230 0.143565 0.143401 0.262360 0.473466 -0.159105 0.053606 0.077498 0.068513 -0.604652 -0.360945 -0.335411 -0.274599 0.068917 0.005392 0.123632 0.420656 -0.080048 -0.098044 -0.000334 0.126493 0.054501 0.140945 -0.089598 -0.022012 -0.110269 0.056520 0.043238 0.175381 -0.090600 -0.082304 -0.022719 -0.018332 -0.417447 -0.288712 -0.436092 -0.192609 -0.171843 0.120384 -0.213257 0.048982
-0.531807 -1.102396 -1.104334 -1.066386 -1.039974 -0.851693 -0.781959 -0.840570 -0.806308 -0.412841 -0.707766 -0.700322 -0.717267 -0.661277 -0.811681 -0.907822 -0.910789 0.766230 0.799701 0.351343 0.424298 0.845206 1.110601 0.995307 0.621509 1.046409 0.749160 1.144261 1.091593 0.928325 0.862879 0.614640 0.540119 0.823543 0.793015 0.777518 0.737534 0.486260 0.601089 0.796735 0.816241 0.038216 0.034206 0.143906 0.302841 0.125674 0.110321 0.055772 0.078376 -0.326934 -0.300191 -0.277169 -0.260730 -0.747952 -0.594310 -0.291015 -0.390773 -0.716291 -0.719892 -0.654411 -0.439943 -0.513489 -0.311474 -0.402338 -0.306140 -0.000167 -0.136899 0.068459 0.042139 -0.061935 -0.038989 0.325620 0.016266 0.539372 0.663534 -0.259998 -0.210695 0.135492 0.738183 0.133371 -0.740063 0.099679 0.060617 -0.209612 0.550756 0.372882 0.714427 0.055485 0.074052 0.118518 0.022245 -0.517455 0.482578 -0.130240 -0.898875 -0.446128 -0.064135 -0.069096 0.022528 0.195355 0.067212 -0.017446 0.063843 0.039431 -0.084221 0.129090 0.193929 0.092563 -0.094174 0.338123 0.458085 0.436646 0.146572 0.292232 0.904515 0.127725 0.058546 0.149465 0.441156 0.263927 0.055797 -0.043861 -0.088077 -0.307136 0.427326 -0.599783 -0.968890 -0.393666 -0.376282 -0.011159 -0.301231 -0.013772 -0.118791 0.059147 -0.037308 -0.042297 -0.261057 -0.100720 -0.203897 -0.224804 -0.584059 -0.220061 -0.119716 -0.114235 -0.537684 0.100800 -0.143405 0.171646 0.020251 -0.154844 -0.016961 0.122059 -0.024018 -0.136037 -0.046792 -0.080834 0.395639 0.003421 -0.390310 0.288861 0.141772 0.015910 0.332694 0.230453 0.368088 0.990116 1.106202 0.266072 0.204557 -0.087307 -0.063428 0.184657 0.619967 0.252748 0.292593 -0.080765 -0.082835 0.142881 -0.363031 -0.121720 -0.162009 -0.121280 -0.440633 0.018676 0.592007 0.466686 0.159723 -0.418104 -0.704393 -0.331784 -0.381938
-0.057410 -0.060761 -0.119767 -0.091874 -0.194858 -0.134852 -0.026698 -0.033439 -0.141708 -0.453720 -0.506502 -0.406905 -0.486290 -0.258105 -0.229905 -0.197916 -0.210399 0.175558 0.252429 0.191965 0.296452 -0.048198 -0.044560 0.070530 0.181589 0.353245 0.251209 0.175941 0.121943 0.346926 0.256810 0.411159 0.503289 0.162289 0.191809 0.236015 0.179313 0.115434 0.062555 0.055726 0.062760 0.034375 0.077290 -0.051376 -0.018009 -0.018335 -0.020185 0.035779 0.102577 -0.172112 -0.135656 -0.040950 -0.101842 -0.133628 -0.062384 -0.088116 -0.140216 -0.017915 -0.066718 -0.080568 -0.071086 0.014461 -0.043318 -0.109393 -0.015987 0.031438 0.023521 0.252967 0.304993 0.032333 -0.066156 0.331600 0.350810 0.251454 0.173967 -0.058631 -0.048403 -0.063383 0.048017 0.194615 0.368125 0.246762 0.229768 0.073122 0.115390 0.111195 0.227141 -0.094604 -0.064956 -0.003212 -0.002296 0.020542 -0.033132 -0.001266 0.000928 -0.009003 0.180067 0.234025 0.212575 0.120309 0.136378 0.157987 0.210258 -0.021884 0.022936 0.025938 0.119156 0.145891 0.100288 0.110753 0.132156 -0.071865 -0.115526 -0.007632 -0.017976 -0.010420 -0.057132 -0.014170 0.015324 -0.042393 -0.050212 -0.034957 -0.087311 -0.038424 0.000632 0.024969 -0.007160 -0.062556 -0.060898 0.064587 0.044580 0.126637 0.114324 0.174744 0.144525 0.061223 0.053456 0.075946 0.097662 0.171704 0.106880 0.099961 0.110235 -0.063127 -0.052066 -0.001367 0.023254 0.052806 0.007658 0.027835 0.054566 0.076663 0.068826 0.094483 0.077327 0.024685 0.062623 0.068838 0.094852 -0.109322 -0.084244 -0.045783 -0.035740 0.018042 -0.013968 0.019378 -0.036620 -0.028219 -0.035368 -0.044754 -0.068535 0.061118 0.033515 0.043387 -0.017693 -0.038512 -0.038914 -0.047689 -0.063214 -0.041952 -0.049243 -0.056263 -0.075513 0.034411 0.004222 -0.003818 -0.043972 0.075099 0.056741 0.002558 -0.068894
-0.037553 0.351162 0.390410 0.511261 0.442294 0.746129 0.855954 0.914064 0.785471 0.247699 0.068427 0.607068 0.185043 0.618704 0.711316 0.903040 0.987485 -0.890415 -0.810894 -0.597260 -0.597924 -0.626122 -0.753321 -0.491839 -0.347528 -0.392963 -0.566486 -0.636582 -0.659292 -0.586440 -0.520939 -0.491777 -0.393297 0.411953 0.468453 0.411430 0.381675 0.387269 0.220527 0.308803 0.237317 0.155342 0.134678 0.131715 0.146711 0.005282 0.145857 0.270533 0.247517 -0.591411 -0.569763 -0.452467 -0.627711 -0.307097 -0.460723 -0.213952 -0.453711 -0.025459 -0.028872 -0.085219 -0.370529 0.437427 0.064495 -0.276753 -0.140869 -0.071577 0.433446 0.299466 -0.047328 0.454897 0.577447 0.109152 0.492325 0.175369 0.044207 0.270066 0.113470 0.124416 -0.231409 -0.173671 1.227114 0.336512 0.174766 -0.255935 -0.171250 0.058057 -0.034927 -0.220016 -0.214804 -0.135410 -0.019081 0.111792 -0.677417 0.109303 0.207260 0.027073 0.370228 0.554485 0.332445 -0.070585 0.214178 0.379962 0.326662 -0.536783 -0.102687 -0.135434 -0.020118 0.197063 0.075148 -0.069389 -0.074327 -0.636160 -0.444227 -0.160471 -0.046429 -0.355545 -0.198073 0.075192 -0.095893 -0.479481 0.015538 0.047120 -0.000327 0.029840 -0.238913 0.018427 -0.002114 -0.010272 0.019418 -0.166817 -0.164618 0.072048 0.370698 0.420748 0.378765 -0.195180 0.280910 0.342867 0.290368 0.341750 0.344925 0.152684 0.200643 -0.727269 -0.067440 -0.272425 -0.118855 -0.109883 -0.143947 -0.240910 -0.147837 0.027812 0.014687 -0.008204 -0.043939 -0.125901 -0.335732 -0.103260 -0.232360 -0.724617 -0.430886 -0.344446 -0.378524 -0.134526 -0.168033 -0.076330 -0.177242 -0.317725 -0.074450 -0.090003 -0.099048 0.157992 -0.408698 -0.000792 -0.243245 -0.114357 0.134666 -0.023673 0.205589 -0.020925 0.072553 0.124560 0.138169 0.173723 -0.191702 -0.381955 -0.271325 0.435892 0.074075 -0.079159 -0.110570
-0.591405 -0.283227 0.080059 0.311324 0.271287 0.945165 1.102883 1.022930 0.955221 -0.042235 0.185157 0.286713 -0.087742 0.442114 0.890260 0.781738 0.904644 -0.992500 -0.851684 -0.455731 -0.415590 -0.491198 -0.530252 -0.093380 -0.125123 -0.468678 -0.523936 -0.687046 -0.541924 -0.609591 -0.521201 -0.554069 -0.495793 0.308486 0.290817 0.219693 0.280464 -0.025881 -0.078877 0.125939 0.047130 0.025727 -0.016563 -0.286220 -0.154647 -0.254869 -0.114144 0.084084 0.077188 -0.183987 -0.209427 -0.224188 -0.291509 0.124729 -0.137787 -0.030827 -0.147465 0.136308 0.144973 -0.118444 -0.259086 0.213027 0.057759 -0.172609 -0.021199 0.053616 0.230525 -0.163435 -0.617153 0.169220 0.485649 0.190635 0.269801 0.113105 0.272717 0.136273 -0.454294 0.872451 -0.042842 -0.037775 0.678841 0.394641 0.656187 -0.191103 -0.415266 0.419734 0.356799 -0.151012 0.125693 0.050665 -0.605739 0.594458 0.069760 -0.258803 -0.109648 -0.370753 -0.211944 0.182118 0.488954 -0.090235 0.067327 0.726625 0.621168 -0.613626 -0.582018 -0.118115 -0.350732 0.665353 0.689239 0.432690 0.416802 -0.333980 -0.026455 -0.187258 -0.443939 -0.142849 -0.191796 -0.514380 -0.299897 -0.103728 -0.177176 0.157079 0.226692 -0.583559 -0.497021 -0.047568 0.090665 -0.417462 -0.381006 -0.347873 -0.010199 -0.392384 -0.034550 0.423220 0.433742 -0.435727 0.109111 0.190237 0.304262 0.658243 0.791384 0.452730 0.633024 -1.029976 -0.618095 -0.643096 -0.425541 -0.151771 0.022229 -0.151374 -0.076089 0.396180 0.407617 0.566458 0.708158 0.041623 0.038075 0.139868 0.308650 -0.552962 -0.216704 -0.334559 -0.422121 0.000072 -0.070523 -0.151783 -0.017134 -0.190524 -0.294098 -0.042623 -0.082694 -0.101420 0.009519 -0.234900 -0.164879 0.073321 0.074647 0.136092 0.189580 0.077177 0.021091 0.203372 0.256745 -0.018829 0.291771 -0.188387 -0.054508 0.483336 0.977069 0.303580 0.276227
-0.394824 -0.038661 0.084896 0.077371 0.008286 0.458970 0.732165 0.404061 0.429662 -0.254530 -0.282660 -0.533371 -0.508271 0.002301 -0.243979 0.008181 -0.050898 -0.432096 -0.302558 -0.254931 -0.146221 0.117303 0.489011 0.021547 0.141165 -0.127983 -0.219098 0.247181 0.301571 -0.179241 -0.087562 -0.120597 -0.135839 -0.564287 -0.547274 -0.395889 -0.543420 -0.577386 -0.480300 -0.622784 -0.575931 -0.264837 -0.296736 -0.380348 -0.326107 -0.328952 -0.373796 -0.375501 -0.296892 0.429049 0.386120 0.649402 0.455045 0.758396 0.858648 0.262114 0.299076 0.850776 0.725915 0.447086 0.529634 -0.053992 -0.137948 0.015033 0.081265 0.021636 -0.290873 0.327577 -0.423684 -0.137184 -0.262681 -0.054275 0.615735 0.322654 0.558145 0.004338 -0.069174 -0.384533 0.246471 -0.029176 -0.116156 0.303542 0.152168 0.032937 0.412956 0.299020 0.300597 0.062195 0.023159 0.268266 -0.321564 0.190488 0.184443 -0.714977 -0.344458 -0.364425 -0.480197 -0.002892 0.056571 0.218696 0.061189 -0.064245 0.025180 0.026614 -0.040437 -0.114510 -0.071599 0.284213 0.016779 0.175064 0.149005 0.499089 0.738824 0.546004 0.574041 0.177171 -0.472548 -0.397862 -0.105286 -0.315330 -0.340381 -0.041793 -0.508076 -0.721280 -0.587088 -0.608038 -0.054752 -0.370619 -0.413848 -0.774600 -0.167849 -0.279334 -0.129041 -0.317263 0.006657 -0.006658 0.235368 -0.248854 0.216413 -0.173480 -0.044500 -0.191544 0.037084 -0.073104 -0.040390 -0.472452 -0.099753 -0.229520 -0.366652 -0.296877 -0.240005 0.154107 0.108509 0.217880 0.157877 -0.195691 -0.091761 -0.077430 -0.185665 0.592265 0.513117 0.615722 1.113307 0.780642 0.765408 1.321246 1.271166 0.122842 -0.058927 0.009877 -0.242270 0.407976 0.353215 0.720660 0.374264 0.188118 -0.384699 -0.052259 -0.504452 0.078381 -0.232486 0.062256 0.088840 0.154708 0.556286 0.225608 -0.209541 0.715838 0.496014 1.078410 0.242397
-1.226067 -0.609538 -0.294881 0.043041 0.068593 0.881768 1.024608 0.949972 0.836209 0.054885 0.251248 0.651098 0.070870 0.484096 0.848003 0.760915 0.916068 -1.132684 -1.008166 -0.722962 -0.691898 -0.023391 0.062465 0.225602 0.019033 -0.652096 -0.699451 -0.595656 -0.703967 -0.637086 -0.647403 -0.506548 -0.448815 0.339089 0.320477 0.290037 0.269673 0.045526 -0.034389 0.077438 -0.052793 -0.153472 -0.243709 -0.521230 -0.433839 -0.195557 -0.188703 -0.190263 -0.099352 0.057129 0.067505 0.059174 -0.023537 -0.018792 -0.304733 -0.227159 -0.357382 0.325257 0.325780 -0.106291 -0.187570 0.148277 0.020362 -0.216443 -0.016575 0.010364 0.153091 -0.239119 -0.545320 0.115686 0.371650 0.131635 0.499989 0.417240 0.336588 0.203161 -0.533815 0.861468 -0.097613 -0.219197 0.103861 0.784601 0.766634 -0.050173 -0.470075 0.654429 0.586063 -0.238114 0.202908 -0.101227 -0.498325 0.671371 0.297446 -0.303038 -0.045044 -0.887022 -0.448070 0.345591 0.373264 0.105903 0.358601 0.985246 0.812748 -0.702925 -0.554880 -0.027896 -0.327744 0.712196 0.720909 0.428466 0.611427 -0.470210 -0.019953 -0.351357 -0.624368 -0.001338 -0.061580 -0.478554 -0.084121 0.165559 -0.274739 0.118805 0.499035 -0.518216 -0.656912 0.226425 0.098468 -0.964925 -0.932615 -0.392349 -0.124487 -0.039548 0.321066 0.753742 0.549651 -0.435356 0.119597 0.147271 0.236354 0.725504 0.798151 0.414284 0.776384 -1.200900 -0.757933 -0.694290 -0.377693 -0.179357 0.017136 -0.242727 0.099250 0.528249 0.535649 0.743801 0.845508 -0.075439 0.031374 0.221257 0.459886 -0.795618 -0.328438 -0.495743 -0.626089 -0.056230 -0.241786 -0.402581 -0.243584 -0.110688 -0.377317 -0.056013 -0.097722 0.042452 0.041781 -0.240008 -0.273321 0.084966 0.090946 0.012292 0.109342 -0.009903 -0.163655 0.163575 0.075795 0.174041 0.300477 -0.005814 -0.038505 0.470368 1.306427 0.504978 0.292164
-0.560923 -0.126471 -0.066875 -0.036457 -0.061128 0.512645 0.653222 0.415254 0.453691 0.023852 -0.078061 -0.482338 -0.285275 0.000068 -0.493872 -0.099279 -0.192088 -0.593081 -0.522581 -0.351003 -0.286606 0.212052 0.538009 -0.044427 0.103452 -0.230152 -0.313147 0.401997 0.306622 0.037081 -0.081751 0.073242 0.052482 -0.371384 -0.375894 -0.172260 -0.417907 -0.400291 -0.334047 -0.563675 -0.529757 0.096603 0.032792 -0.227878 -0.080680 -0.462890 -0.499104 -0.389244 -0.232888 0.656751 0.531202 0.780115 0.573756 0.518353 0.652554 0.103307 0.212246 0.574651 0.358811 0.144443 0.422718 -0.529710 -0.528438 -0.119337 0.016159 -0.126567 -0.391811 0.350313 -0.245723 -0.226377 -0.700984 -0.212700 0.861308 0.318213 0.961573 0.062451 0.101723 -1.049637 0.403473 0.259581 -0.747875 0.220176 0.369465 0.260303 0.375514 0.655303 0.367966 0.175877 0.146250 0.172432 -0.210309 -0.070878 0.532886 -0.832075 -0.137474 -0.437926 -0.461746 -0.161830 0.071044 0.185068 -0.089705 0.104962 0.012909 0.178950 0.151338 -0.239754 -0.195230 0.219468 0.057668 0.111793 0.244976 0.661755 0.720509 0.801881 0.571343 0.441502 -0.363363 -0.467679 0.074032 -0.071886 -0.325135 -0.174040 -0.499387 -0.624800 -0.526808 -0.477169 -0.235644 -0.488281 -0.585341 -0.773976 -0.216530 -0.111167 -0.145818 -0.048835 0.090942 -0.042603 0.053976 -0.724483 -0.130135 -0.265477 -0.171233 -0.410229 -0.239102 0.160059 0.001895 -0.408945 -0.168971 -0.441885 -0.488937 -0.453237 -0.422474 0.196366 0.142110 0.451567 0.346923 -0.241356 0.097456 0.090169 -0.319253 0.730054 0.556956 0.798459 1.118861 0.885206 0.716645 1.233639 1.363867 0.281430 -0.222286 -0.073907 -0.273500 0.506557 0.507456 0.828833 0.512767 0.232968 -0.525442 -0.231092 -0.585329 -0.024228 -0.441609 -0.044160 0.226602 0.298394 0.550309 0.580568 -0.020270 0.689856 0.528084 1.007223 0.457772
-0.963703 -0.321540 -0.262253 -0.314344 -0.326795 0.142898 0.229621 0.105427 -0.051463 0.074232 0.030516 0.204742 0.107180 -0.013405 -0.145752 0.090001 0.054851 -0.319129 -0.291892 -0.346256 -0.364146 0.434756 0.485263 0.341287 0.185900 -0.174260 -0.263737 -0.000358 -0.276875 0.016985 -0.150211 0.083945 0.071110 -0.331134 -0.353932 -0.207726 -0.337096 -0.163773 -0.200792 -0.388725 -0.456658 -0.334772 -0.395820 -0.416469 -0.369410 -0.461392 -0.561052 -0.616772 -0.492247 0.422411 0.397821 0.489671 0.394821 0.375981 0.327008 0.199760 0.151759 0.481481 0.411675 0.294027 0.394631 0.181397 0.163737 0.170525 0.267361 0.055193 -0.102063 -0.336752 -0.344729 0.115189 -0.093479 0.289479 0.393621 0.010205 0.210078 0.183171 -0.012538 -0.036264 -0.109564 0.096808 -0.092652 0.340363 0.508034 0.342259 -0.083075 0.388570 0.382808 -0.029843 0.322938 -0.197017 0.199312 -0.118818 0.080052 -0.153480 -0.116730 -0.598433 -0.205378 0.185027 0.165913 0.289054 0.340629 0.420821 0.269865 -0.026346 0.072373 -0.058542 -0.006466 -0.208020 -0.140955 0.120607 0.264778 -0.245414 0.123608 0.001265 0.051945 0.094421 0.008248 0.026412 0.406593 0.009937 -0.210026 -0.193878 0.285082 -0.191126 -0.413347 -0.074684 -0.011688 -0.712260 -0.688763 -0.182308 -0.276056 0.167812 0.168952 0.368510 0.132877 0.083779 -0.083389 -0.082938 -0.071071 -0.363062 -0.175511 0.049296 0.111685 -0.352735 -0.166715 -0.114079 0.157272 -0.441846 -0.343451 0.079503 0.264311 -0.094572 0.023288 0.154585 0.213145 -0.117130 -0.057284 0.255531 0.205584 -0.460370 -0.113422 -0.218280 -0.136181 -0.104008 0.038276 -0.092967 -0.115738 -0.126766 -0.078701 -0.247604 -0.108313 0.565994 0.233153 0.173899 -0.026343 -0.173365 0.050186 -0.338326 -0.113043 -0.216240 -0.342532 -0.205572 -0.312519 0.518913 0.129932 0.392959 -0.053675 0.411816 0.759379 0.374853 0.230835
-0.250025 0.064358 -0.056175 0.093531 -0.023253 0.540297 0.469151 0.448385 0.295021 0.427343 0.429421 0.359778 0.375912 0.416708 0.139851 0.457852 0.401065 -0.503201 -0.531031 -0.237472 -0.299554 -0.357587 -0.525115 -0.405679 -0.188514 -0.396721 -0.359944 -0.487407 -0.480047 -0.047655 -0.208176 -0.024004 -0.037163 -0.001093 -0.037889 -0.029928 -0.142792 0.142765 0.038105 -0.073552 -0.079432 0.616345 0.536668 0.355176 0.408494 -0.432359 -0.414487 -0.347400 -0.290937 0.580630 0.554301 0.513709 0.405183 0.258023 0.166646 0.104195 0.046065 -0.154036 -0.296093 -0.395807 -0.349083 -0.495188 -0.540213 -0.473105 -0.422937 -0.002221 0.108689 -0.241722 0.030851 0.138561 -0.057078 0.319523 0.367775 0.060464 0.113519 0.197860 0.085126 0.210422 0.012312 0.377616 0.449752 0.391730 0.513681 0.233310 -0.352918 0.272030 0.165759 0.086995 0.291170 -0.172492 0.162986 0.009951 -0.060111 -0.134572 0.430750 -0.011006 0.112153 0.327502 0.225122 0.124207 0.214058 0.531883 0.038668 -0.229092 -0.071711 -0.255385 -0.275353 0.044711 0.019985 -0.343544 -0.027176 -0.197294 -0.100777 0.082447 0.144634 -0.029112 0.162948 -0.163693 0.372242 0.193573 0.276838 -0.028383 0.214784 0.005660 -0.155493 0.624884 -0.057392 -0.122855 -0.139607 0.058932 0.051196 0.190717 0.296593 0.309802 0.229448 -0.119363 0.070036 -0.043916 0.047099 0.052103 0.084043 -0.353732 -0.117246 -0.356901 -0.003368 0.040804 0.004564 -0.379689 -0.241927 -0.669415 -0.462210 0.018801 0.023758 0.034405 0.191363 -0.385547 -0.213264 -0.003381 -0.662564 -0.437154 -0.200012 -0.172266 -0.085966 0.053582 -0.008506 -0.163829 0.174191 -0.054077 -0.098283 -0.091541 -0.056015 0.151240 -0.109401 0.089508 -0.084186 -0.048285 0.072733 -0.117739 -0.054188 -0.104705 -0.171427 0.090842 0.057414 0.079786 -0.384927 -0.495154 -0.271188 0.214216 0.151985 -0.312364 0.234275
-2.064103 -0.759725 -0.460528 -0.131462 -0.073768 0.897382 1.005122 0.994882 0.832238 0.358475 0.481019 0.698460 0.215545 0.710854 0.818412 0.930578 1.053012 -1.347910 -1.213002 -0.943022 -0.886676 0.085128 0.173388 0.287414 0.104655 -0.780677 -0.852303 -0.860638 -0.968903 -0.656524 -0.762325 -0.530203 -0.483000 0.528309 0.481068 0.451167 0.429973 0.267106 0.189619 0.223341 0.049236 -0.065201 -0.182705 -0.516127 -0.364123 -0.264168 -0.225727 -0.263968 -0.135712 -0.114212 -0.122168 -0.152976 -0.238741 -0.144947 -0.387568 -0.382441 -0.542904 0.309222 0.227040 -0.173153 -0.193567 -0.087652 -0.198715 -0.347136 -0.116276 -0.142990 0.148765 -0.133800 -0.612982 0.123195 0.409390 0.261873 0.519411 0.512979 0.505421 0.275640 -0.663023 0.860483 0.014237 -0.493500 -0.197121 0.680356 0.900835 0.126601 -0.713879 1.072985 0.661804 -0.137529 0.348490 -0.200563 -0.667138 0.807368 0.415522 -0.459403 -0.028864 -1.497967 -0.682335 0.317182 0.452858 0.269851 0.499101 1.135498 0.887569 -0.975248 -0.560153 0.041202 -0.411592 0.729488 0.923165 0.557123 0.758083 -0.891655 -0.173937 -0.513728 -0.900297 0.026842 -0.191572 -0.645274 -0.223770 0.165112 -0.156581 0.050768 0.659184 -0.623310 -0.896732 0.345251 0.180824 -1.586297 -1.508742 -0.481305 -0.352229 0.224473 0.506404 1.012942 0.689026 -0.121383 0.487269 0.323486 0.523606 0.973885 1.148104 0.604913 1.076688 -1.873507 -1.083480 -0.759780 -0.358275 -0.300785 0.144614 -0.114684 0.069786 0.591721 0.629282 0.988269 1.043321 -0.030187 0.203416 0.313572 0.693081 -1.320290 -0.634358 -0.710433 -0.995193 -0.236755 -0.419387 -0.498655 -0.352352 -0.154631 -0.553934 -0.114920 -0.113041 0.264609 0.114720 -0.464071 -0.272710 0.124823 0.200007 0.140429 0.292449 -0.056962 -0.208507 0.135917 0.140315 0.436493 0.440973 0.069546 0.061953 0.543412 1.690177 0.682968 0.427070
-0.913378 -0.425781 -0.414822 -0.317473 -0.325050 0.387127 0.623092 0.316441 0.277838 -0.004591 -0.012814 -0.449454 -0.137727 -0.009290 -0.502734 -0.191037 -0.296331 -0.591882 -0.563337 -0.470193 -0.440087 0.571837 1.050289 0.277741 0.294071 -0.069089 -0.190903 0.285082 0.229663 0.149074 -0.123506 0.106824 0.053642 -0.397893 -0.402010 -0.104613 -0.413318 -0.323907 -0.257234 -0.586652 -0.547406 -0.124950 -0.205489 -0.501066 -0.275708 -0.955556 -0.963171 -0.799293 -0.555587 0.789164 0.674679 0.895250 0.707087 0.477245 0.594706 0.113815 0.253438 0.821330 0.664396 0.448134 0.788466 -0.557030 -0.494146 0.057499 0.266442 -0.036741 -0.408843 0.133050 -0.398985 -0.291365 -0.646813 -0.083015 0.807359 0.230309 1.367855 -0.389041 0.154270 -1.100830 0.268622 0.455200 -1.557714 0.021586 0.111780 0.580857 0.640660 1.350815 0.709538 -0.316289 -0.341214 0.309264 -0.234650 0.133484 0.995788 -1.222528 -0.269452 -0.709159 -0.428004 -0.639517 0.016633 0.238957 0.184720 0.094524 -0.200077 0.746519 -0.258983 -0.118763 -0.265335 0.242679 0.165947 0.243058 0.631414 0.982730 1.071899 0.845342 0.506455 0.829312 -0.405998 -0.431569 0.178484 0.175088 -0.634444 -0.150670 -0.505568 -0.921714 -0.662644 -0.681375 -0.498069 -0.739787 -0.824293 -0.847421 -0.274202 -0.286855 -0.123089 -0.131061 -0.041713 0.107227 -0.030361 -0.692902 -0.081830 -0.474483 -0.352487 -0.589606 -0.156930 0.619159 -0.534179 -0.939238 -0.644620 -0.527501 -0.490004 -0.631448 -0.368347 0.136844 0.326233 0.453631 0.201265 -0.177207 0.242527 0.162062 -0.505651 1.310588 0.713906 1.052591 1.222257 1.115315 0.908968 1.452405 1.789040 0.516377 -0.259286 -0.023983 -0.413429 0.482010 1.031880 1.180382 0.848502 0.445571 -0.904551 -0.184917 -1.148333 0.022449 -0.752749 -0.111096 -0.126085 0.267494 1.212754 1.030532 0.264335 0.447434 0.763582 1.452653 0.704964
-1.409162 -0.656745 -0.569790 -0.654475 -0.668648 -0.039549 0.107939 -0.033510 -0.224366 0.157237 0.058653 0.193047 0.012746 -0.059784 -0.138349 0.060420 0.012908 -0.424774 -0.372261 -0.551563 -0.574831 0.666229 0.768085 0.463540 0.249579 0.104502 -0.045352 0.040636 -0.301551 0.276194 0.055193 0.353186 0.326293 -0.535495 -0.546417 -0.363921 -0.543168 -0.252660 -0.268693 -0.552798 -0.672093 -0.324564 -0.398392 -0.407359 -0.399741 -0.388275 -0.580883 -0.766139 -0.614193 0.716582 0.702960 0.792364 0.674195 0.423475 0.372645 0.242360 0.169049 0.426999 0.374978 0.241460 0.316946 0.223383 0.136368 0.148767 0.243095 0.117605 -0.121677 -0.293943 -0.336258 0.098762 -0.089686 0.225468 0.359454 0.156444 0.151920 0.239831 -0.060142 0.072561 -0.110382 -0.116724 -0.245818 0.323566 0.185327 0.322917 0.124261 0.510133 0.417842 0.039238 0.208652 -0.374331 0.272212 -0.253117 -0.156398 -0.123408 -0.109413 -0.950641 -0.294795 0.236576 0.030862 0.238897 0.468404 0.497067 0.249301 -0.126350 0.239240 -0.183134 -0.076986 -0.163095 -0.176758 0.144891 0.319829 -0.392168 -0.024567 -0.093349 0.227712 0.007186 -0.105778 0.069808 0.436753 -0.142536 -0.217863 -0.225936 0.569689 -0.164458 -0.401679 -0.084952 0.030603 -1.065867 -1.024136 -0.254124 -0.336323 0.216800 0.346450 0.582759 0.123671 0.249677 0.119946 0.141560 -0.024041 -0.006816 0.067247 0.214856 0.269116 -0.420087 -0.079102 -0.135185 0.260841 -0.671827 -0.669207 -0.114577 0.223077 -0.041704 0.096014 0.270910 0.261894 -0.169964 -0.095205 0.216479 0.308029 -0.626448 -0.215960 -0.304308 -0.094767 -0.123663 0.006679 -0.067599 -0.199128 -0.241565 -0.083660 -0.328630 -0.101911 0.669891 0.172794 0.148138 -0.163677 -0.155683 0.134810 -0.435138 -0.058130 -0.235460 -0.422603 -0.188602 -0.449114 0.809544 0.258264 0.622927 -0.062125 0.400108 0.893054 0.680410 0.224482
-0.355140 -0.198017 -0.415260 -0.252079 -0.392781 0.295523 0.277626 0.252013 0.123250 0.551721 0.465860 0.169203 0.325606 0.414573 -0.034410 0.294721 0.178241 -0.048407 -0.099548 -0.063669 -0.156442 -0.414734 -0.650646 -0.223266 -0.002358 0.016634 -0.018420 -0.564416 -0.410294 0.196035 -0.051134 0.073752 0.005985 0.194918 0.160737 0.161807 -0.044753 0.276747 0.241348 0.004121 0.027942 0.441954 0.359702 0.434361 0.464949 -0.528346 -0.567848 -0.494614 -0.408085 0.485351 0.483457 0.368899 0.195542 0.215139 0.184639 0.240051 0.165072 -0.353168 -0.483291 -0.480433 -0.373360 -0.525576 -0.496596 -0.380294 -0.325510 0.070794 0.028261 -0.341928 0.370558 0.030275 -0.231468 0.361588 0.095662 0.386564 0.379430 0.125988 -0.008545 0.389510 0.130218 0.630086 0.131784 0.119971 -0.055219 0.330880 0.244627 0.564447 0.316543 0.134709 0.033833 -0.074274 0.145757 -0.226763 -0.044661 -0.304176 0.094322 -0.051033 0.363984 0.210773 -0.009538 0.025752 0.270857 0.299323 -0.130739 -0.095061 0.055830 -0.213864 -0.375552 0.059605 -0.067312 -0.463832 0.054973 0.064276 -0.014370 0.224836 0.824493 -0.151792 0.326332 -0.258036 0.482963 0.291837 0.476341 -0.056939 0.252994 0.055585 0.130668 0.691672 -0.203872 -0.169752 -0.186837 0.229731 0.183823 0.191537 0.407594 0.240114 0.174281 -0.119844 -0.011434 -0.001128 -0.012394 -0.029281 -0.116414 -0.485837 -0.131080 -0.173381 -0.002149 0.257766 -0.032039 -0.520843 -0.454851 -1.304236 -0.910103 -0.003221 0.095999 -0.098352 0.147398 -0.427455 -0.019077 -0.047359 -1.167186 -0.148005 -0.040515 -0.019939 0.354017 0.128362 0.244221 0.229579 0.666190 0.012874 0.078154 -0.087887 -0.145266 0.108679 -0.101250 0.335845 0.005251 0.025597 0.005629 -0.064562 -0.450907 -0.078935 -0.290569 0.223919 -0.157284 0.167123 -0.247632 -0.333782 -0.210535 0.016253 -0.440748 -0.300518 0.399067
-0.489680 -0.207928 -0.216608 -0.263416 -0.241921 -0.147617 -0.159334 -0.220400 -0.289641 0.092360 0.028434 -0.172839 -0.079997 0.058245 -0.155333 -0.101612 -0.157579 -0.076397 -0.061975 -0.094615 -0.082568 0.087417 0.117413 -0.052612 -0.093522 0.251886 0.211584 0.154109 0.149749 0.368977 0.304111 0.301893 0.260058 -0.064312 -0.097471 -0.123096 -0.119567 -0.091858 -0.105505 -0.157937 -0.159678 0.148766 0.093414 0.019448 0.122360 -0.126158 -0.066737 -0.071664 -0.048428 0.234735 0.200161 0.170027 0.147312 0.081129 0.128645 0.068890 0.082458 -0.019639 -0.097636 -0.113773 -0.017542 -0.227613 -0.177083 -0.061006 -0.040320 -0.049894 -0.018490 0.016144 -0.028099 0.023380 -0.092619 -0.003363 0.189800 0.078392 0.612664 0.062452 0.105557 -0.235794 0.065089 -0.120657 -0.012351 0.072171 0.208773 0.111115 0.058384 0.572891 0.382470 0.082532 0.139052 0.073918 0.100740 -0.287119 -0.100042 -0.207898 0.101312 -0.259443 0.058413 0.032849 0.066618 0.011787 -0.008327 0.128019 -0.013339 -0.038030 0.095602 0.067359 0.124741 -0.294308 -0.064551 0.049526 0.149941 -0.087963 -0.084509 0.177366 0.238610 -0.042613 -0.091744 -0.003462 0.224419 -0.236244 0.057904 -0.183226 -0.178272 0.046374 0.047439 -0.079771 0.051542 -0.309062 -0.275142 -0.066539 -0.228770 -0.044311 -0.104825 -0.021138 -0.074594 -0.032257 -0.143094 -0.105226 -0.058774 -0.269596 -0.162520 -0.068851 -0.123151 -0.183718 -0.065760 0.130197 0.068297 -0.210199 -0.095190 0.015591 0.079362 -0.533305 -0.402913 -0.284187 -0.248492 -0.081982 0.014001 -0.022553 -0.150907 -0.126238 -0.113981 -0.011501 0.065977 -0.035195 0.102588 0.106929 0.285811 -0.126703 -0.028747 -0.101349 -0.042446 0.337415 0.119831 0.038944 -0.008838 -0.196071 -0.051019 -0.110598 -0.119619 -0.176239 -0.143738 -0.237639 -0.189377 0.174562 -0.003488 0.134174 0.064952 0.061582 -0.005618 0.029818 0.119828
-0.233776 -0.341780 -0.355781 -0.231753 -0.272248 -0.045156 -0.013142 -0.110888 -0.273380 0.206482 0.206047 0.178242 0.008058 0.187571 0.285317 0.092075 0.105270 -0.135860 -0.120298 -0.104663 -0.124993 0.114609 0.147200 0.177540 -0.010542 0.168846 0.152192 -0.203873 -0.183554 0.130006 0.117414 0.027948 -0.010686 0.216186 0.184323 0.055927 0.099794 -0.054712 -0.116978 -0.060994 -0.089284 -0.034193 -0.078607 -0.131255 -0.071712 -0.210285 -0.165574 -0.206997 -0.186371 0.287585 0.298842 0.176000 0.180873 0.039206 -0.049983 0.114053 0.022724 -0.027413 -0.014068 -0.073984 -0.050063 -0.054875 -0.020205 -0.133425 -0.078311 0.039489 0.117878 -0.169982 -0.050298 0.108581 0.231385 0.234572 -0.232864 0.277755 0.558384 0.006387 -0.217369 0.798053 -0.171707 0.087211 0.115247 0.277891 0.224136 -0.112363 -0.342208 0.595989 0.677730 -0.131612 0.154302 0.112948 0.454199 0.169689 -0.272334 0.034088 -0.260393 -0.073408 0.279325 0.258488 0.001746 0.002376 0.158205 0.371754 0.178817 -0.103531 -0.370864 0.247369 -0.094425 0.074727 -0.231587 -0.044122 0.171598 -0.207191 -0.364278 -0.138534 0.088647 -0.190336 0.065870 0.005739 0.388832 -0.063225 0.041147 -0.035352 0.187090 0.002574 -0.108847 0.231104 -0.162758 -0.088076 -0.024141 0.342801 0.102537 0.059952 0.163126 0.105244 0.077437 0.025855 -0.142668 0.220236 0.011533 0.053826 -0.178196 -0.014123 0.190285 -0.337829 -0.316761 -0.072877 -0.207609 -0.011066 -0.060982 -0.281289 0.167877 -0.211586 -0.296574 -0.719440 -0.515092 -0.094664 -0.091418 0.051891 -0.174680 -0.373516 -0.305110 -0.471191 -0.393350 -0.311656 -0.181311 -0.446447 -0.029869 -0.155158 0.092785 -0.000618 0.132356 -0.034696 0.058883 0.096581 -0.034996 -0.134475 0.225881 0.149773 0.080270 -0.161531 0.009956 -0.081130 -0.258527 0.094162 0.014679 -0.128156 0.075679 -0.109206 -0.077366 -0.329937 -0.110382
-1.158741 -0.560868 -0.316196 -0.303005 -0.230267 0.179102 0.359489 0.259771 0.153369 -0.060145 -0.004851 -0.032311 -0.296279 0.016281 0.168161 0.073364 0.084191 -0.610824 -0.495926 -0.352664 -0.301793 -0.066972 0.097898 0.209743 0.031042 0.200332 0.150081 -0.052832 -0.118654 0.203860 0.190196 0.139633 0.128332 0.069849 0.021030 -0.056665 -0.030189 -0.254081 -0.279746 -0.211381 -0.310213 0.034199 -0.031196 -0.179810 -0.054768 -0.170766 -0.173586 -0.123069 -0.046246 0.672285 0.622512 0.530972 0.529657 0.351646 0.211794 0.328189 0.281303 -0.284022 -0.300187 -0.524515 -0.475573 -0.327601 -0.372458 -0.351463 -0.254641 -0.015186 0.027427 -0.217850 -0.374613 0.164691 0.198667 0.005891 0.024871 0.278874 0.530669 0.009767 -0.489973 0.532691 0.011372 -0.263611 -0.235836 0.347673 0.531372 -0.344661 -0.425237 0.555005 0.824949 -0.157300 0.341333 -0.181700 -0.218646 0.301527 -0.028740 -0.235045 -0.135758 -0.856022 -0.392120 0.274343 0.146968 0.101889 0.224078 0.669529 0.564375 -0.562781 -0.381968 0.005850 -0.181058 0.737653 0.658437 0.247015 0.661975 -0.390762 -0.182122 -0.231990 -0.288965 -0.112172 -0.188187 -0.401765 0.190698 -0.008531 -0.224407 -0.005518 0.550908 -0.557416 -0.310492 0.193432 -0.014933 -0.896635 -0.852200 -0.157515 -0.216897 0.170396 0.303337 0.604150 0.299734 0.067093 0.253050 0.251840 0.127734 0.762645 0.590583 0.242475 0.623445 -0.780698 -0.476464 -0.287646 -0.172817 0.006897 -0.055617 -0.270305 0.181732 0.471458 0.430248 0.531679 0.697006 -0.501642 -0.256039 0.123886 0.410270 -0.670998 -0.227407 -0.440780 -0.440978 -0.087531 -0.103892 -0.304131 -0.199654 -0.252906 -0.145234 -0.135436 0.106702 -0.016334 0.094446 -0.116989 -0.308513 -0.010407 0.287258 -0.075704 0.337577 -0.030515 -0.088892 0.154206 0.076718 0.215334 0.196589 0.102176 -0.019353 0.477064 1.236363 0.420748 0.189141
-0.416109 -0.194725 -0.236448 -0.378433 -0.332606 -0.168232 -0.105186 -0.228048 -0.183189 -0.135432 -0.253052 -0.232091 -0.261914 -0.124886 -0.418410 -0.318518 -0.358203 0.201748 0.217473 -0.036665 0.030279 0.316133 0.641633 0.408474 0.260592 0.121258 -0.048107 0.577266 0.470639 0.106010 0.253010 -0.011507 0.005029 0.688803 0.677288 0.752671 0.606997 0.460506 0.470661 0.520272 0.541658 0.263400 0.193967 0.164282 0.239809 0.020313 -0.075737 -0.026003 0.070882 -0.294617 -0.328996 -0.252896 -0.387217 -0.403530 -0.353614 -0.232207 -0.235606 -0.321134 -0.434885 -0.510554 -0.326542 -0.581885 -0.556247 -0.434802 -0.331146 -0.117043 -0.233286 0.152708 0.222041 0.029935 -0.694549 -0.083867 0.324326 0.501033 0.949095 -0.090406 0.601389 -1.042914 0.435731 0.101743 -0.711900 -0.070576 0.079927 -0.145382 0.437403 0.490985 0.329516 -0.115141 -0.137853 0.222787 -0.379309 -0.248940 0.288955 -0.492191 -0.223612 -0.300791 0.406109 -0.081125 -0.090448 0.078442 -0.052128 0.064926 0.018725 0.040276 -0.050125 -0.073299 0.327550 0.283603 -0.066187 -0.025865 0.250921 0.464820 0.094226 0.549124 0.885199 0.207323 -0.126232 -0.368302 0.302811 -0.043381 0.318925 0.013938 -0.343876 -0.393665 0.147123 -0.322371 -0.418628 -0.308136 -0.290586 0.040131 -0.276835 -0.031421 -0.080311 0.011599 0.076538 0.021786 -0.185714 -0.170802 0.178918 0.108699 -0.190981 -0.359001 -0.244977 0.028151 -0.283093 0.362987 0.239470 0.007908 -0.211221 -0.550059 -0.449709 -0.093572 -0.057992 -0.055069 -0.091745 -0.564921 0.021505 -0.405498 -1.300612 0.578315 0.390071 0.458964 0.886085 0.386330 0.553495 1.021631 1.093541 0.025960 0.171989 -0.079803 -0.220259 0.343411 0.293039 0.431172 0.080803 -0.011395 -0.188227 0.037865 -0.541991 0.086200 -0.185814 0.175706 0.127497 0.255045 0.273530 0.295199 0.028221 0.349661 -0.045214 0.463946 0.193636
-1.418064 -0.298534 -0.190803 -0.096546 -0.086915 0.551499 0.658319 0.649795 0.521446 0.701907 0.749125 0.671538 0.392035 0.876243 0.921242 1.048733 1.122820 -0.859542 -0.890124 -0.750954 -0.728958 -0.220430 -0.147336 0.058693 0.007139 -0.588452 -0.663909 -0.907517 -0.871497 -0.714111 -0.856118 -0.731787 -0.745065 0.795241 0.767901 0.683268 0.663362 0.469726 0.460220 0.502162 0.425152 -0.045146 -0.095001 -0.210559 -0.081244 -0.115684 -0.036776 0.024056 0.099233 -0.569891 -0.517530 -0.477565 -0.593270 -0.433496 -0.597124 -0.627393 -0.725663 0.032696 -0.010291 -0.066373 -0.098953 -0.182030 -0.255568 -0.378983 -0.222539 -0.057891 0.119842 -0.187403 -0.416896 0.064416 0.305195 0.295803 0.348494 0.167971 0.207408 0.179439 -0.341980 0.714688 -0.076529 -0.220967 -0.071951 0.379029 0.424998 -0.011246 -0.338471 0.746828 0.442548 -0.167695 0.090242 -0.192676 -0.413810 0.582745 0.327203 -0.258906 -0.076114 -0.992593 -0.450766 0.150451 0.293221 0.133247 0.334612 0.557569 0.505034 -0.190229 -0.264180 0.103727 -0.120173 0.438970 0.477295 0.165401 0.412323 -0.718788 -0.144459 -0.382640 -0.348552 -0.037500 -0.067906 -0.410484 -0.101330 0.255341 -0.048959 0.154407 0.378094 -0.212448 -0.346837 0.408117 0.163823 -1.040165 -1.006664 -0.488007 -0.276851 0.101787 0.384166 0.500927 0.408427 0.048938 0.426331 0.188466 0.374357 0.497254 0.407042 0.101582 0.559529 -0.334711 -0.272385 -0.229963 -0.048861 0.018471 0.096459 -0.335129 0.006322 0.316171 0.372427 0.551193 0.520432 -0.089162 0.033356 0.005974 0.139306 -1.176774 -0.848800 -0.665734 -0.915306 -0.275729 -0.400517 -0.194402 -0.113421 -0.204371 -0.490971 -0.121616 -0.242999 -0.188147 0.028109 -0.085679 0.031896 0.057684 -0.177085 0.008901 -0.099432 -0.047201 -0.315642 0.189406 -0.089166 0.199428 0.574849 0.213744 0.315390 0.076287 0.820023 0.712809 0.467428
-0.636220 -0.401587 -0.432754 -0.614371 -0.560008 -0.267280 -0.213304 -0.292441 -0.316468 -0.171974 -0.120366 -0.393301 -0.306152 -0.086854 -0.380606 -0.147557 -0.206063 0.195521 0.113419 -0.236332 -0.263369 0.593764 0.889022 0.348194 0.094993 0.236061 0.145199 0.619176 0.191348 0.461874 0.078335 0.435790 0.371871 -0.990344 -1.016575 -0.656851 -0.925919 -0.718705 -0.697232 -1.014266 -1.015712 -0.603390 -0.711563 -0.811730 -0.695735 -1.021964 -1.138674 -1.141705 -0.898915 1.016650 0.960396 1.147805 0.994902 1.140574 1.211589 0.709300 0.827313 1.134950 1.022889 0.904658 1.089381 -0.022118 0.065611 0.517067 0.702091 0.057923 -0.419280 -0.168774 -0.128896 -0.289323 -0.660183 0.052966 0.492303 0.112522 0.933314 -0.305848 0.346351 -1.242324 0.279115 0.552960 -1.399126 -0.142540 0.027843 0.195262 0.816689 1.113444 0.313268 -0.229853 -0.418143 0.275807 -0.323501 -0.154526 1.379312 -0.797200 -0.478212 -0.420585 -0.478169 -0.613833 0.008808 0.308938 -0.128622 -0.061234 -0.310894 0.691024 0.045700 0.303674 0.125787 0.071631 0.095998 0.281910 0.201586 0.869458 0.412199 0.359810 0.110346 0.808561 0.026531 -0.228011 0.152726 0.588827 -0.380080 -0.088958 0.031243 -0.310702 0.143400 -0.379129 -0.377798 -0.425062 -0.490497 -0.511000 -0.492772 -0.149491 -0.446410 -0.144183 -0.328253 0.105899 -0.249008 -0.484719 -0.262863 -0.429330 -0.510720 -0.385889 -0.570344 1.003593 -0.189995 0.131164 0.033759 0.085001 -0.080282 -0.127630 -0.065209 0.068271 0.143177 0.331920 0.075696 -0.069489 0.362974 0.034878 -0.527774 0.983747 0.188598 0.201727 -0.003850 0.266024 0.334375 0.587237 0.591094 0.272312 -0.314034 -0.329080 -0.456779 0.148573 0.737542 0.705811 0.484354 0.062995 -0.989354 -0.437828 -1.155695 -0.059121 -0.870925 -0.257754 -0.620957 0.392744 1.236290 1.515842 0.646788 0.050030 0.380870 1.305128 0.496879
-0.266790 -0.242368 -0.492764 -0.670951 -0.677389 -0.818939 -0.871261 -0.982077 -1.054828 -0.048506 -0.223466 -0.485288 -0.135062 -0.397540 -0.689293 -0.569419 -0.671217 0.627561 0.559126 0.352422 0.325828 0.847741 0.903329 0.191469 0.149577 0.622055 0.571711 0.469422 0.384521 0.763081 0.631123 0.724855 0.639758 -0.313603 -0.335129 -0.304802 -0.400926 -0.113735 -0.059144 -0.329465 -0.274231 0.033064 -0.003905 0.059146 0.067490 -0.019987 -0.083840 -0.341502 -0.308078 0.432239 0.457110 0.437976 0.416783 0.040935 0.256385 0.147487 0.174489 0.076798 -0.009563 0.138941 0.312332 -0.290088 -0.162461 0.056703 -0.024211 0.029536 -0.147483 -0.016991 0.217603 -0.068806 -0.321122 0.224559 0.160574 -0.056803 0.102518 0.163410 0.359721 -0.482141 0.002551 0.008834 0.017720 0.054447 -0.140917 0.373225 0.449350 0.032653 0.028644 0.048854 0.273051 -0.054541 0.725645 -0.645106 -0.278667 0.058379 0.104811 -0.140496 0.092675 0.034328 -0.056609 0.238413 0.147028 -0.305732 -0.372742 0.360237 0.425668 -0.002500 0.190824 -0.645377 -0.523495 -0.209527 -0.201286 -0.009294 0.126058 0.190783 0.922200 -0.030801 0.043971 0.310108 0.509291 -0.095868 0.062734 -0.167313 -0.120678 0.393109 0.182600 -0.071497 0.025830 -0.155010 -0.150479 -0.092574 -0.225386 0.056941 -0.063543 -0.304290 -0.356036 0.153289 -0.146348 -0.129823 -0.233844 -0.703394 -0.640114 -0.372499 -0.522060 0.373734 0.349913 0.353017 0.284828 -0.253471 -0.224428 -0.089542 0.082601 -0.574051 -0.431950 -0.457234 -0.448579 -0.102817 -0.084116 -0.088932 -0.340166 -0.019954 0.078992 0.040987 0.487309 -0.304719 -0.060500 0.320747 0.419284 -0.054435 0.009178 -0.064645 -0.142742 0.309594 0.032864 0.241317 0.133151 -0.276847 -0.280167 -0.254211 -0.448306 -0.226532 -0.279372 -0.317482 -0.603952 0.215349 -0.024571 0.211497 0.056085 -0.168422 -0.531299 0.061943 -0.022241
0.335413 -0.485393 -0.541619 -0.385096 -0.464073 -0.290418 -0.450207 -0.359965 -0.566610 0.387094 0.397765 0.360617 0.190783 0.399163 0.587950 0.552073 0.593392 -0.105775 -0.155773 0.071640 0.025085 -0.066701 -0.409120 -0.146813 -0.243516 0.188868 0.277868 -0.397624 -0.349894 0.393892 0.269760 0.535586 0.522477 0.094603 0.052675 -0.117634 0.029962 0.094716 -0.017171 -0.032612 -0.081226 0.221870 0.167097 0.129669 0.106653 -0.241131 -0.127985 -0.163425 -0.200932 0.392964 0.432521 0.252374 0.326603 0.201197 0.040255 0.038071 -0.071146 -0.310335 -0.270657 -0.219026 -0.377623 0.095139 0.107045 -0.091577 -0.125520 0.066304 0.408633 -0.368059 -0.026283 0.197719 0.578250 0.327553 -0.483708 -0.386798 -0.246020 0.562509 -0.414630 1.410789 -0.420853 -0.047643 1.279299 0.298981 0.233797 0.160993 -0.928406 0.124485 0.460692 0.043425 0.599231 -0.259209 0.552776 -0.111156 -0.867580 0.631056 0.453962 0.546896 0.271226 0.522900 -0.055229 -0.032452 0.165405 0.447151 0.259777 -0.364921 -0.090945 -0.023913 -0.510038 -0.263220 0.010110 0.028416 -0.350010 -1.165337 -1.032324 -0.630328 -0.758745 -0.577524 0.436722 0.421911 0.401964 -0.115249 0.315743 0.010631 0.610533 0.763282 0.379955 0.825197 0.440046 0.498736 0.527361 0.500623 0.185465 0.284448 0.291452 0.226454 0.126484 -0.046299 0.019358 0.545077 -0.136064 -0.060185 0.122195 0.360806 -0.032941 -0.545463 0.226042 0.099662 -0.289146 -0.283612 0.021264 -0.082549 0.034767 -0.240957 -0.194637 -0.230795 0.169288 0.338444 -0.093846 0.269941 0.297236 -1.556743 -0.927302 -1.215886 -1.734572 -1.112922 -0.982629 -1.990852 -1.662327 -0.432558 -0.092353 0.002406 0.074257 -0.264958 -0.600026 -0.789582 -0.689855 -0.327136 0.486768 -0.096831 0.364436 -0.271127 0.150835 -0.279439 -0.409938 0.163580 -0.638488 -0.295793 -0.022013 -0.411588 -0.211133 -1.083766 -0.132175
-0.481493 -0.656429 -0.666010 -0.783075 -0.806793 -0.660155 -0.642839 -0.750713 -0.838117 0.022596 -0.184837 -0.639511 -0.351461 -0.318597 -0.677827 -0.514893 -0.632341 0.636630 0.601514 0.507823 0.495567 0.300374 0.403897 0.276648 0.241101 0.746606 0.716216 0.670764 0.684729 0.704301 0.599394 0.536832 0.497116 -0.206961 -0.247122 -0.300634 -0.288321 -0.442178 -0.423241 -0.360400 -0.351860 -0.063016 -0.104992 -0.173153 -0.048243 -0.280776 -0.221813 -0.110292 -0.128160 0.447508 0.425966 0.401621 0.347456 0.107910 0.331171 0.213518 0.239395 0.020867 -0.085859 0.148133 0.251159 0.068221 0.072978 0.152474 0.127150 0.026997 -0.036530 -0.022446 0.074799 0.123424 -0.084553 -0.076989 0.253695 0.045599 0.324039 0.041801 0.338490 -0.225208 0.016754 -0.271767 0.059518 0.013442 0.058713 0.032933 0.320474 0.175050 0.021762 0.004165 0.047992 0.223327 0.538813 -0.400700 -0.293767 -0.043012 0.212537 -0.290553 0.060367 -0.005854 -0.070435 -0.031985 -0.076905 -0.058078 -0.248805 -0.026884 0.182485 0.178354 0.180534 -0.195114 -0.198753 -0.038900 -0.005303 -0.015210 -0.028699 0.224112 0.456088 -0.114160 0.022888 0.341723 0.375967 -0.279123 0.175978 -0.183064 -0.289152 0.247752 0.315998 -0.134837 -0.079054 -0.311743 -0.301871 -0.136588 -0.272928 -0.104909 -0.155699 -0.146916 -0.267108 -0.096221 -0.123812 -0.067511 -0.178729 -0.311952 -0.362047 -0.218253 -0.287912 0.060153 0.170557 0.174817 0.033200 0.020622 -0.021604 -0.049692 0.051983 -0.185884 -0.133469 -0.216940 -0.232181 -0.007264 -0.010339 -0.075753 -0.138701 -0.018287 -0.003573 0.047057 0.160446 0.005141 0.110114 0.314223 0.421891 -0.249823 -0.066516 -0.178209 -0.136706 0.319234 0.085499 0.216648 0.183966 -0.322893 -0.257512 -0.222457 -0.225637 -0.197205 -0.212625 -0.233046 -0.291641 0.039754 -0.066512 0.103571 0.153744 -0.031036 -0.325491 -0.051387 0.024897
-0.695488 -0.782406 -0.878984 -0.738619 -0.826544 -0.469078 -0.425766 -0.569753 -0.696172 -0.022226 -0.093248 0.098596 -0.046437 -0.168816 0.127177 -0.164479 -0.075729 0.493051 0.484601 0.511852 0.487816 0.314042 0.381358 0.356554 0.181081 0.396501 0.369270 -0.009451 0.205374 0.329533 0.224116 0.167812 0.143482 0.141619 0.135957 -0.010692 0.037835 -0.224908 -0.219005 -0.130463 -0.120415 -0.454116 -0.470568 -0.527886 -0.471861 -0.507095 -0.427513 -0.315283 -0.406255 0.084987 0.175880 0.050766 0.051663 0.095726 0.049575 0.167140 0.046367 0.251837 0.369127 0.353463 0.192116 0.476729 0.450106 0.213150 0.246528 0.098184 0.217911 -0.120771 -0.211279 0.117297 0.514998 0.291931 -0.008310 0.141612 -0.116133 -0.062298 -0.160364 1.033440 -0.085744 -0.135112 0.400722 0.360688 0.072344 0.064455 -0.088892 0.023449 0.184905 -0.102334 0.019481 0.217811 0.442913 0.117351 -0.350935 0.310629 0.130931 -0.478841 -0.043167 0.303143 0.076870 0.091180 0.126579 0.143860 -0.057752 -0.078307 -0.191636 0.111376 -0.113055 0.067499 0.012894 0.076493 0.093869 -0.257916 -0.244588 -0.128643 0.095968 -0.128969 0.013513 0.387014 0.381011 0.039578 0.053257 -0.013012 0.061440 0.281613 0.169254 0.096035 -0.018021 -0.501022 -0.457810 -0.060281 -0.137590 0.055938 0.110581 0.104053 -0.150884 -0.020889 -0.026885 0.136798 -0.170280 0.050895 -0.091639 -0.044310 0.069783 -0.218356 -0.172549 -0.148511 -0.212822 0.077853 0.111350 -0.173684 0.089929 0.035832 0.018461 -0.170456 -0.064813 0.022489 -0.093812 -0.125995 0.095426 -0.367414 -0.262792 -0.363825 -0.360192 -0.174082 -0.266614 -0.121792 0.039491 -0.168645 -0.141425 -0.151393 -0.140635 -0.029034 0.050305 -0.085369 0.005660 -0.209037 -0.093679 -0.059276 -0.108993 -0.188879 -0.135650 -0.088330 -0.459322 -0.019298 0.002643 -0.226777 0.006352 -0.344344 -0.103455 -0.291380 -0.180980
1.076727 0.094808 -0.219322 -0.371644 -0.405252 -0.708287 -0.794449 -0.928154 -1.010881 -0.384555 -0.526600 -0.489697 -0.432514 -0.529333 -0.689311 -0.724416 -0.789824 0.983407 0.781858 0.619974 0.615253 0.169925 0.264394 0.039826 -0.048350 0.921054 0.879211 1.047262 0.986842 0.806168 0.810416 0.576686 0.532230 -0.529090 -0.528914 -0.669194 -0.645264 -0.782691 -0.707038 -0.616348 -0.542234 -0.086392 -0.086179 -0.059132 0.006045 -0.277355 -0.179018 -0.118800 -0.213803 0.780087 0.771636 0.674281 0.664410 0.453645 0.645925 0.715842 0.769617 0.110403 0.068168 0.245997 0.326241 0.147083 0.220581 0.300588 0.217630 -0.012410 0.021116 0.028408 0.261185 -0.045238 -0.201047 -0.061927 -0.171903 0.153833 0.298466 0.102444 0.661501 -0.319851 -0.000798 0.216518 0.384776 -0.027994 -0.260560 -0.013655 0.514043 -0.079137 0.270676 -0.006606 0.049199 0.328759 0.905735 -0.260757 0.008870 0.226299 0.579015 0.869711 0.494637 -0.114552 -0.173425 -0.136027 -0.173034 -0.477474 -0.253844 0.102404 -0.011012 0.085349 0.421590 -0.474670 -0.370451 -0.255377 -0.176315 0.054366 -0.038071 0.428381 0.672295 0.025691 0.152752 0.288149 0.774953 -0.105257 0.003795 0.026736 -0.477141 0.385822 0.582900 -0.140717 0.164935 0.932219 0.888859 0.123910 0.124866 -0.223928 -0.173293 -0.541177 -0.131401 -0.333407 -0.203800 -0.214913 -0.189473 -1.062622 -0.888335 -0.544272 -0.643706 0.309108 0.234370 -0.195369 -0.058908 -0.196099 -0.164474 -0.461314 -0.039963 -0.634623 -0.536232 -0.751753 -0.523245 -0.245464 -0.302721 -0.191660 -0.484135 0.253436 -0.001613 0.140604 0.299595 0.026049 0.096246 0.241844 0.610379 -0.110733 -0.079959 -0.020314 -0.213261 -0.777143 -0.465355 0.326477 0.061023 -0.182465 -0.381494 -0.169705 -0.570690 -0.122368 -0.036242 -0.169692 -0.189678 -0.601141 -0.189909 0.037766 0.070077 -0.430761 -0.964846 -0.271702 -0.271860
0.360057 -0.354070 -0.269511 -0.417008 -0.316422 -0.686288 -0.796581 -0.715684 -0.768060 -0.193431 -0.382749 -0.001765 -0.417580 -0.255585 -0.059040 -0.103466 0.015309 0.336956 0.298469 0.216104 0.298829 0.307580 0.323220 0.254494 -0.008918 0.479153 0.388279 0.718268 0.478247 0.407747 0.512494 0.490403 0.580664 0.704253 0.691789 0.535127 0.807862 0.403284 0.372537 0.744059 0.624611 0.136351 0.141720 0.024519 0.048195 0.669561 0.774744 0.642752 0.502206 -0.699495 -0.655813 -0.669294 -0.565220 -0.882256 -0.915906 -0.664629 -0.785035 -0.488062 -0.483444 -0.335271 -0.492818 0.257040 0.183231 -0.117268 -0.149273 -0.118473 0.233561 0.062780 -0.144233 0.239712 0.303244 -0.039530 -0.029936 0.017904 -0.148792 0.395811 0.251546 0.203136 0.045298 -0.717792 0.889633 0.206714 0.171868 -0.323031 -0.499629 -0.162131 0.144384 0.200259 0.393852 -0.110259 0.186354 -0.076304 -0.445249 0.746261 0.630720 0.371874 0.123256 0.320693 -0.057050 -0.124095 -0.163191 0.142426 0.387212 -0.565447 -0.052835 0.248871 0.227688 -0.171144 -0.019466 0.461352 -0.250046 -1.022328 -0.809388 -0.404780 -0.664102 -0.370948 -0.121708 0.440268 -0.165541 -0.506604 0.180504 0.072102 0.009622 0.639737 0.472684 -0.008220 0.412939 0.426268 0.465495 0.127410 -0.155505 0.088976 -0.002889 0.198416 0.288998 -0.140903 0.233120 0.438910 0.084390 -0.130887 -0.011739 0.495379 -0.123579 -0.668063 0.066550 -0.064483 -0.029546 0.116011 0.088513 0.644554 0.159474 -0.259921 -0.409256 -0.020203 -0.028913 0.302163 -0.152922 0.110246 0.492934 -1.122326 -0.723116 -0.744187 -1.175595 -0.602431 -0.719366 -0.836180 -1.064480 -0.508331 -0.284297 -0.108725 -0.045016 -0.261465 -0.691208 -1.184742 -0.960186 -0.351375 0.291734 -0.077291 0.613157 -0.156213 0.269372 -0.254828 0.069778 0.214829 -0.286397 0.098469 0.029469 -0.048021 0.074595 -0.540004 -0.548036
-0.654443 -0.687064 -0.891205 -0.965729 -1.006595 -0.740838 -0.647076 -0.739178 -0.835658 -0.601441 -0.744037 -1.069932 -1.013627 -0.712540 -0.951015 -0.818670 -0.871850 0.971930 0.954591 0.868652 0.865770 0.688233 0.843787 0.729689 0.647778 0.965494 0.911579 0.829533 0.783295 0.749887 0.647594 0.607581 0.576620 -0.094546 -0.107478 -0.167943 -0.204455 -0.357498 -0.326550 -0.273375 -0.266875 -0.413874 -0.421305 -0.466025 -0.401141 -0.446315 -0.456791 -0.377166 -0.374865 0.365729 0.357933 0.352995 0.281775 0.132399 0.241716 0.221216 0.200561 0.262995 0.235141 0.354546 0.393909 0.275345 0.250858 0.272732 0.301908 -0.002729 -0.129287 -0.036381 -0.055218 0.113243 -0.024692 -0.136489 0.068413 0.165499 0.193604 0.015393 0.224175 0.125401 0.144270 -0.271348 -0.013743 0.034606 0.015208 -0.084345 0.105402 0.131626 0.118924 -0.040689 0.023042 0.081430 0.306941 0.004547 -0.213697 0.159691 0.082376 -0.452103 -0.075596 0.058459 -0.037561 -0.020999 0.015376 0.026955 -0.037286 -0.077380 0.002622 -0.082611 -0.033951 0.202855 0.008209 -0.071771 0.032874 0.070123 -0.083458 0.089524 0.180552 0.010502 -0.055542 0.052557 0.277384 -0.313883 -0.150916 -0.145812 -0.192197 0.126629 0.204216 -0.011505 0.011780 -0.478484 -0.463271 -0.195418 -0.273998 -0.050395 -0.023662 0.000585 -0.097390 -0.016645 -0.046977 -0.064679 -0.155616 0.053524 -0.147372 -0.183397 -0.168925 -0.082829 0.032057 -0.080996 -0.128191 0.007538 -0.145432 -0.330339 -0.064457 0.059705 0.095537 0.085748 0.075665 -0.204331 -0.120542 -0.061565 -0.040097 0.038725 0.061396 -0.002817 0.095975 0.093914 0.068489 0.166089 0.223873 -0.146757 -0.018395 -0.091669 -0.082482 0.136264 0.057995 0.245318 0.099995 -0.391731 -0.309688 -0.301398 -0.275245 -0.233646 -0.214307 -0.133163 -0.288778 0.250534 0.152120 0.181732 0.157237 0.044515 0.050314 0.156574 0.052191
