23.985742 -1.190158 -2.402110 -3.108325 -4.098252 -4.721294 -6.276799 -5.313533 -5.853664 -6.188255 -6.393488 -6.770604 -5.145672 -7.365497 -6.978098 -6.822025 -6.334468 -5.223069 -4.487485 -6.224114 -7.025082 -1.372861 -6.929187 -4.699367 -0.772846 -3.295516 -4.126339 -2.050398 -2.588669 -1.569359 -2.392504 0.920060 1.374434 6.057151 5.175256 5.149618 5.045631 4.062808 3.019744 3.817784 4.257067 2.492629 1.960118 1.527761 1.520296 1.787113 1.933804 2.456674 3.177414 5.042023 3.498414 3.037970 3.338815 8.433525 8.912444 5.754753 8.672058 4.456890 3.758432 7.520645 8.064204 6.688271 7.216519 9.533174 12.041280 0.796795 0.775701 2.990865 2.840074 -0.218987 1.026167 -3.609132 -3.304473 -0.015383 0.254775 0.986669 0.740801 1.673101 1.783730 -1.257340 -1.501360 1.724881 2.517763 5.392704 3.358803 2.664251 1.887418 2.628206 2.097720 -0.612925 1.055008 0.102570 0.332136 -1.414732 -2.256504 -0.303824 -0.791363 -7.852688 -7.239281 -5.944382 -6.057405 -0.920974 1.166093 -2.769895 -2.965209 1.326279 0.765735 3.190266 1.841661 3.579032 2.917439 -0.820921 -0.666960 1.720311 2.400120 4.558323 3.396285 3.063048 2.064195 4.042436 2.515893 0.374882 0.946506 0.031515 0.776418 -0.665235 -2.337367 -0.218442 -0.576051 -0.461578 -0.097239 -0.186929 1.520307 -2.611903 -2.166202 0.576988 -5.647699 -2.916200 -2.478988 1.440584 1.512259 0.306531 -0.221387 -2.670218 2.400927 1.969832 -7.449615 3.378393 7.085745 -1.463203 -5.427533 -0.208593 -1.553754 -5.581794 4.860443 -0.948784 -0.368486 2.102637 -1.432212 19.625603 13.417198 -2.257161 -2.261917 -1.387475 -5.641192 -14.454040 -14.503230 1.206091 7.131761 -3.080814 1.962683 -19.500367 -9.542308 -8.917576 -7.669305 0.497340 1.630804 5.737477 -3.612603 2.614316 0.038066 -1.252879 -10.480921 -3.638068 5.125546 2.167732 -6.851513 8.585254 11.555260 -2.682250 -1.140652
15.982497 -9.403685 -8.378897 -7.828361 -8.503936 -5.354167 -3.271330 -5.788343 -5.616660 -0.443885 1.877162 7.700969 6.197300 1.713468 0.825005 1.750857 2.235668 0.017087 0.010308 0.695483 0.505781 10.212258 14.613708 9.335729 6.739025 7.067947 5.919508 12.376876 8.188584 9.011233 11.814138 11.338337 12.434470 -11.280095 -9.437460 -10.272658 -11.097932 -7.552668 -2.927125 -6.262711 -6.531293 -2.188342 1.059507 -2.163837 -2.189445 -1.971644 -1.783921 -0.172139 1.160201 -2.602883 -1.420526 -1.910509 -0.339247 -2.935910 -2.863977 5.221592 4.953955 0.892463 1.970223 -7.208791 1.394952 1.997588 1.172663 2.047093 1.233737 5.673404 5.700826 1.417397 4.370656 0.056957 -0.235578 3.795957 4.093384 -0.837791 -0.326341 -1.352979 -2.357597 2.406314 1.960242 2.800645 2.337770 1.000987 1.477322 0.620198 1.084347 -0.661366 -1.605810 1.493168 1.927216 0.680116 0.223743 4.098838 1.033257 4.454345 3.850268 3.493043 0.922747 -5.576360 -4.463763 -5.873225 -5.061158 -5.536084 -6.160921 -3.867597 -4.850060 -4.519831 -3.444587 -4.029779 -5.936904 -0.889486 -1.831331 -4.906665 -4.218978 1.987524 2.365214 2.944602 1.427208 3.323817 1.839846 2.423630 2.352725 3.887666 3.094718 2.266797 1.977001 1.128743 1.196210 -0.408296 1.746133 1.618395 3.272725 -1.696147 -1.159632 -3.320392 3.594761 2.174537 -5.076604 -0.499861 -3.627497 -1.864381 3.942249 -1.045911 -2.782951 -5.826659 13.380324 -3.948618 -3.264297 -4.419016 -4.411014 -7.832355 3.673018 7.852498 1.070211 5.378626 3.902015 1.102289 3.846148 -0.681750 -4.880566 12.981941 -0.432995 -2.497593 0.845684 0.111320 3.811389 4.045194 7.827959 -4.151528 -4.308577 -2.855113 -6.002987 -13.186927 -1.844271 9.400265 2.462707 -15.462047 -8.763334 -17.126114 -13.348110 -8.623486 1.507501 -4.158909 -5.024293 1.471999 -10.581559 8.141610 3.023153 -1.686509 -6.124832 -2.508510 4.064149
18.697733 -0.763459 -0.591640 -2.028302 -2.127047 -3.100427 -4.555213 -3.591819 -4.016833 -4.602082 -5.051997 -5.598163 -4.125770 -5.655246 -5.577039 -5.292098 -4.818115 -3.272204 -2.620452 -3.951481 -4.223964 -1.414750 -1.754022 -3.017692 -0.379938 -1.865199 -2.418052 -1.914547 -1.449598 -0.375443 -0.998257 1.024268 1.366499 4.503183 4.043798 3.464220 3.563995 3.303462 2.272490 3.314521 3.484972 1.046552 0.834945 -0.279616 0.475357 0.803263 1.218003 1.710892 1.703816 3.394034 2.780191 2.289754 2.189811 4.509332 4.363642 3.484068 5.404110 3.843278 3.288117 3.892188 4.419498 5.669001 5.405119 7.674582 9.387237 0.515040 0.549377 1.363608 1.283028 4.945068 5.111115 3.266523 2.775872 0.711935 0.976352 1.338038 0.941385 0.952294 0.943425 -0.284513 -0.572919 -0.595848 0.034499 2.923518 1.494140 0.929840 0.462447 1.559809 0.886407 -1.105171 -0.062612 -0.790031 -0.006912 -0.881760 -1.323203 -0.060380 -0.156347 -6.525219 -6.195469 -5.250102 -5.077451 -0.614383 0.498133 -2.555476 -2.842770 1.238304 1.247118 2.664238 1.583901 1.702010 1.538361 -0.671825 -0.421318 -0.545727 -0.015014 3.461720 2.572872 1.336305 1.062916 1.915501 1.038360 -0.285518 0.286444 -0.301969 0.616071 -0.450831 -1.248433 0.544105 0.268852 0.224120 -0.290389 0.268399 3.285780 -1.398138 -1.905706 -2.180090 -6.272126 -1.504163 -0.896931 1.925668 0.344169 -0.236523 0.120524 -1.439664 0.199786 0.994863 -5.577718 2.706378 4.397062 2.714718 1.128775 -0.929939 -1.785056 -1.862238 1.700502 2.523428 -0.487896 -0.087559 -2.273549 15.514881 9.752767 -2.751520 -1.238426 -0.972828 -4.614840 -12.827674 -15.865566 0.929566 5.488313 -2.558825 -0.760706 -11.607788 -4.795466 -1.856943 -4.614572 1.763340 1.400905 1.726648 2.059782 -4.262902 1.279647 -2.243109 -5.844569 -2.410462 2.760841 2.120221 0.202337 5.611085 5.832533 -0.876055 -3.273225
12.347228 -2.352247 -2.255919 -2.131047 -2.176255 -3.128820 -3.430878 -3.152441 -3.433732 0.328070 -0.651407 1.578458 0.718956 -1.104586 -2.258358 -0.806992 -0.896203 0.500100 0.493639 1.206582 0.334002 7.867179 8.435862 6.171426 5.860120 4.310923 4.138516 5.086211 3.752102 4.662609 6.966850 6.190180 6.311475 -4.400277 -4.237280 -3.076161 -2.795173 -5.337186 -4.603554 -3.964662 -4.432835 -2.100068 -1.921974 -4.715331 -5.152861 -3.045396 -3.896792 -2.410392 -1.675167 -0.601992 -0.825350 -0.939114 -0.526236 3.649657 -1.468130 3.368378 4.076737 2.508779 2.605637 -0.593838 0.703522 2.436642 3.128052 2.967266 2.487953 0.185486 -0.220736 -1.497105 -0.116462 -0.393860 -1.088916 -0.452707 -0.205470 -1.465410 -1.140043 0.221412 0.261322 0.273018 0.584718 0.056549 -0.002696 3.077791 3.567695 2.662882 2.660035 3.249245 2.943899 2.952542 3.464019 0.174975 0.438787 1.721186 0.955563 0.973404 0.733197 0.693188 0.094521 -3.657878 -3.559351 -4.427488 -3.385264 -3.085598 -3.966382 -3.165096 -3.491900 -2.045889 -1.441447 -0.840228 -1.623530 0.244461 -0.171632 -2.094382 -1.977890 3.098225 3.541607 4.345518 2.963170 3.483771 2.533922 1.878440 2.185131 1.714146 1.534942 0.885802 0.785541 -0.631542 -0.916698 -1.042370 -0.684914 0.835163 1.346043 -0.746720 0.433900 -0.076897 1.391738 -0.469348 -1.328565 -2.544094 -3.726585 -0.008067 0.875742 -0.395675 0.114861 -3.098412 4.078400 -1.916393 0.626780 1.590646 -0.183173 -5.051106 1.194851 3.970010 0.236671 4.475139 2.277293 1.872744 1.453380 2.142948 -2.073099 9.408746 4.013274 0.873615 0.175093 1.016526 -2.685192 3.890375 4.331454 -6.983688 -1.427593 -2.360482 -4.306971 -13.343150 -8.013311 -3.528810 0.228949 -5.343549 -1.272015 -1.915138 -2.781496 -9.887141 3.551650 -3.844411 -1.644762 -3.158289 -3.773989 6.453235 0.495918 -2.945135 -4.475053 0.484133 -0.321376
0.627646 -4.753212 -4.258440 -3.622557 -3.602746 -1.169333 0.373291 -1.428352 -1.049875 1.903957 2.598814 6.230446 5.953456 3.820410 3.216083 3.621432 3.796604 -0.818426 -0.673186 1.496320 2.413481 0.117049 2.072590 0.957369 0.066914 2.509688 2.220533 4.404269 2.596766 3.855157 4.205950 4.606963 5.287875 -5.451132 -4.929901 -5.436753 -5.663968 -2.095713 0.063718 -1.493108 -1.334041 -3.978031 -3.248596 -1.452790 -2.030347 1.262503 0.339172 2.325756 3.167436 -2.022718 -0.651937 -0.465600 0.276661 -8.052487 -5.073949 0.887231 0.331001 -0.215681 0.026911 0.560543 -0.272357 0.206838 -0.248458 -0.981834 -0.670013 2.249934 2.679898 1.706471 1.743464 -1.870441 -1.641876 1.538338 1.033415 -0.170664 -0.177667 -0.630406 -1.061492 0.883495 0.630719 1.627898 1.939785 1.456676 0.921273 0.381331 0.462979 0.601010 0.504014 0.574576 0.659016 0.192804 -0.160245 0.386089 -0.097909 1.870835 1.821314 0.930960 0.080817 -3.489742 -2.565508 -2.191772 -3.171452 -3.046416 -3.293633 -1.674681 -2.569862 -1.922751 -1.608212 -2.577603 -2.869083 -1.633704 -1.962319 -1.726876 -1.307680 1.521661 1.181599 0.701953 0.423901 3.114552 2.725462 1.300269 1.449046 2.100552 1.764208 0.581519 0.957048 0.148529 0.504238 -0.876691 -0.425317 0.320246 0.984084 -0.298823 -1.590713 0.628754 1.292627 0.530358 -0.137138 1.305229 -0.289571 -4.685794 0.378225 1.800186 -0.617631 -0.214642 2.513972 0.159388 0.488453 -3.479739 -0.500019 -0.296511 -0.021931 2.166727 0.779216 -0.495177 -0.871485 -1.657714 0.740908 -0.008925 -0.777941 3.837146 -0.543870 -1.506375 0.570280 1.214455 2.893490 -2.528604 4.648973 -0.014835 -4.709151 -0.572323 -2.586016 1.702366 5.387915 1.598820 1.763085 -5.366155 -3.085987 -6.849461 -4.978828 3.061325 -0.364209 -4.963458 -1.014886 1.742567 -2.985786 2.347313 0.274612 -2.725069 -3.328041 -0.403511 4.801494
0.307179 -4.671548 -5.248063 -4.445060 -5.140842 -2.250534 -0.419930 -2.885393 -2.989520 1.393880 2.413881 4.801932 4.796686 3.433879 3.158612 2.944150 3.101348 -5.729530 -3.458661 -1.373423 0.028924 -2.311151 -8.045569 -4.139988 -5.356539 0.133265 -0.583130 3.832431 1.610346 3.044683 2.526114 5.589076 7.343048 -4.674930 -5.041909 -6.620170 -7.231889 -1.979868 -0.727513 -5.656567 -5.955053 2.261189 2.812391 5.456127 6.850613 3.042210 2.462708 1.982649 3.483591 -5.032625 -2.628159 -5.312934 -2.223548 1.828641 1.532573 0.690785 -1.120087 -2.021825 -0.747715 7.573612 4.713371 3.223126 4.105128 6.467002 7.692886 -7.156012 -5.918490 -2.504610 -4.310900 -1.859341 -1.948055 -2.971766 -3.886274 1.237980 0.547645 -3.148805 -1.864335 -1.266550 -2.068119 -3.931854 -2.619476 -0.046669 0.640368 1.287406 0.445672 1.914890 1.605340 1.447487 1.269668 -1.028237 -0.985207 -3.335371 -2.518651 -5.102583 -4.572749 -2.535582 -2.436147 -5.287476 -3.578037 -0.028826 -1.897034 2.451407 2.698101 -0.128673 -1.699036 6.457964 6.002380 2.927421 2.980960 0.891165 0.416621 -1.352733 -0.227074 7.150391 6.885133 6.358264 6.076766 5.860666 5.181584 6.403703 5.581288 1.160304 1.225876 -1.125496 0.031613 -3.809421 -2.983207 1.383466 1.918445 -0.606814 0.404383 0.065925 -1.810586 1.211807 0.928075 1.025585 2.780856 1.357159 -0.923774 0.211811 -2.228810 2.780012 -5.297817 3.519675 -1.691719 -0.020166 -3.383418 -6.224664 4.610402 -2.206489 1.645753 -5.466936 -3.491449 -2.282004 -2.697186 -4.290935 0.506014 -2.391374 -2.299558 1.810266 -4.913671 2.590737 3.311708 9.490028 -0.078123 -4.415315 -5.567178 3.820406 -3.635504 -2.140171 0.449807 2.942783 2.585883 -1.454392 2.479950 5.998322 4.179708 -3.418348 -3.268984 21.199526 -6.601712 -1.855139 -2.448901 0.756597 -0.899768 -7.070687 -0.852009 0.439303 2.029889 0.279985 1.653210
14.110281 -0.591327 -0.599582 -0.971325 -1.028498 -1.953349 -2.875443 -2.028051 -2.109849 -2.856743 -3.160118 -3.836520 -2.626899 -3.855223 -3.666773 -3.866581 -3.488652 -2.581833 -2.274581 -2.775900 -3.362289 -0.777649 0.247267 -1.375982 -0.423449 -1.653006 -2.058645 -1.362370 -1.646065 -0.441887 -1.035620 0.532686 0.694790 3.265659 3.125209 2.626830 2.815979 2.636389 1.842829 2.702629 2.960473 1.070364 0.759307 -0.279193 0.419400 1.075437 1.241283 1.372088 1.384046 1.687323 1.682384 1.453148 1.171182 3.111072 3.597893 2.325742 3.681520 1.939604 2.116910 2.155052 2.626945 3.598974 3.373416 4.825431 5.554421 0.501360 0.532804 1.091998 1.027678 3.260883 3.211034 2.084565 1.601446 3.444584 3.382571 3.124344 2.658220 3.586126 3.296375 2.127971 2.316314 -0.220237 0.298619 1.800153 1.031014 0.134999 0.160070 1.102706 0.579843 -1.037433 -0.528636 -0.904979 -0.307138 -0.333587 -0.577850 0.727628 0.506359 -4.887456 -4.677855 -3.842461 -3.743671 -0.340333 0.154592 -1.967955 -2.350597 -0.182027 -0.240126 0.196040 -0.288814 0.771538 0.574879 -1.257098 -0.899864 -1.056319 -0.636750 1.367690 0.880487 -0.538433 -0.435415 0.642752 -0.104127 -0.706451 -0.302015 -0.676930 -0.137476 -0.647590 -1.021931 0.547148 0.237048 0.090234 -0.295546 0.560568 2.134076 -0.853177 -1.065819 -1.053315 -0.748272 -1.165241 -0.925965 1.746654 0.619055 0.265501 -0.610941 -1.877672 -4.466122 3.617290 -1.714325 1.128980 4.599247 2.256193 0.868185 -0.343813 -1.461743 0.473313 1.109310 1.663740 0.188456 -0.982586 -1.781370 13.161773 4.839392 -4.785468 -2.815612 0.426645 -3.437285 -7.679420 -11.112811 -0.128670 2.985716 -2.791643 0.449704 -9.337748 -2.902924 1.035168 -3.486893 0.387684 0.396763 -0.669536 0.984497 -1.875876 1.717899 -1.423183 -2.743716 -1.695681 1.462525 0.485783 0.252019 3.647591 2.855298 -0.300962 -2.307724
9.827999 -0.793928 -0.579708 -0.131790 -0.227254 -1.565708 -1.692021 -1.451582 -1.506948 -0.496000 -0.819265 0.798203 -0.035156 -1.121199 -1.673106 -0.814433 -0.820214 0.180118 0.106181 0.849108 0.029592 4.239230 5.865954 4.172735 3.789873 2.042738 2.135449 3.224677 2.122417 2.323255 3.676341 3.241596 3.368406 -2.500694 -2.203569 -1.237535 -1.135006 -3.094109 -2.637459 -2.139897 -2.482161 -2.243991 -2.004199 -1.354072 -1.689284 -2.036038 -2.332733 -1.280333 -1.258117 -0.791337 -0.736399 -0.594297 -0.477061 2.411763 2.679257 2.604875 2.979083 0.660823 0.933409 -0.395660 -0.154325 0.750439 1.303444 1.012221 0.833399 -0.664407 -0.906793 -1.722103 -0.755896 -0.586660 -0.994894 -0.127742 -0.117755 -0.379598 -0.060760 0.929154 0.806787 0.650525 0.716539 0.377061 0.188889 2.564032 2.653597 2.481477 2.378324 2.111237 1.925734 2.045479 2.416261 0.250981 0.457538 1.159382 0.555779 0.803748 0.534847 -0.039936 -0.175150 -3.392763 -3.332782 -3.769424 -3.255064 -1.647748 -2.159580 -1.462053 -1.836909 -0.931597 -0.473880 -0.131228 -0.527738 0.637598 0.231157 -1.067247 -1.070744 1.772192 2.172534 2.969464 1.982998 1.976107 1.361738 0.994068 1.292182 1.299856 1.042944 0.423582 0.337943 -0.381288 -0.558873 -1.211815 -0.931308 0.162530 0.820008 -0.388153 0.627336 -0.211947 0.778910 0.025818 -2.143011 0.202338 -1.080275 -0.511353 0.821952 -0.828247 0.190798 -3.251767 3.454166 -3.554365 -2.742863 1.360275 -0.006461 -1.051602 1.735195 3.821300 0.550820 2.325100 1.432218 1.657080 1.589342 1.144062 -1.113367 7.924657 2.539874 0.858639 0.474257 0.351871 -0.643946 -0.737086 0.732693 -4.610024 -1.731561 -0.630871 -1.841104 -7.712046 -5.774871 -1.285928 0.090644 -4.635625 -0.810909 -1.239855 -2.047302 -5.781937 0.977911 -1.882217 -0.462476 -1.604630 -2.482284 4.984299 0.590858 -2.346583 -3.558882 0.468140 0.492344
1.689299 -0.809301 -0.703219 -0.331490 -0.334967 0.849374 1.618405 1.070679 1.161054 1.202755 1.320170 3.410202 2.784510 2.374739 2.233273 2.238258 2.116830 0.554479 0.123328 1.439889 1.424763 -0.498480 1.241517 -0.004769 -0.913198 1.469575 1.625238 1.668147 0.690411 1.264119 1.251153 1.230779 1.570497 -1.513574 -1.235697 -1.771984 -1.795167 -0.982475 -0.189288 -0.307678 -0.378816 -2.011051 -1.586364 -3.047400 -3.364528 0.272297 0.164391 0.911763 1.107142 -0.107102 0.261597 0.188057 0.609095 -4.501229 -5.040296 -1.039027 -1.163575 -0.086994 0.029401 -0.525906 -0.739502 -0.733533 -1.239051 -1.469033 -1.363894 1.867309 1.981373 1.107155 1.086753 -0.929625 -0.903127 0.779137 0.631543 -0.579349 -0.615242 -1.019399 -1.083591 -0.525594 -0.327640 0.517346 0.638238 0.555103 0.130899 -0.546020 -0.328764 1.515921 1.459452 1.940893 1.914929 -0.292800 -0.786074 0.070187 -0.174610 0.888651 0.863457 0.445526 0.315381 -0.922719 -0.517237 -0.631333 -1.038071 -2.181127 -2.464373 -1.352643 -1.816841 -0.950635 -0.842215 -1.557337 -1.533308 -1.064234 -1.180373 -0.598849 -0.360878 0.964647 0.625384 0.536143 0.344144 1.916599 1.523271 0.816081 1.231995 1.072115 0.624649 0.266725 0.465794 -0.248401 0.063405 -0.176571 0.078070 0.503506 0.290474 -0.325888 -0.438014 0.318195 0.541898 0.387557 -0.746731 1.439715 0.624072 -0.658967 0.834268 0.493604 0.294355 0.262847 1.961483 -3.050232 1.172381 -4.142143 -1.784648 -0.503906 -0.272226 0.179101 1.310544 2.207294 -0.346740 -0.524945 0.326711 0.749614 1.059638 1.502491 -0.669056 2.799835 -0.475633 -0.608590 3.056061 2.892918 4.088414 -1.114026 -4.802508 -3.074693 -3.974548 -0.787227 2.100459 0.212311 1.370064 -0.962677 -1.948067 -4.292325 -1.199651 1.470524 0.721422 -2.520917 -0.811894 0.844505 -1.579469 1.392763 0.439305 -1.035606 -2.394926 -0.999578 1.995316
0.779808 -0.094494 -0.595731 -0.802824 -0.893513 -0.890793 -0.774672 -0.852060 -0.804593 -0.323373 -0.908393 0.972105 1.340605 -0.036378 0.255584 -0.168062 -0.075784 -1.082148 -0.814142 -1.600637 -1.328149 0.954984 -0.975326 -1.392284 -1.502886 -0.538534 -0.540777 1.160209 -0.121938 0.626392 -0.137071 1.652716 2.462851 -0.383593 -0.810616 -0.832806 -0.836294 -0.938329 -1.196327 -1.740288 -1.605497 -0.602205 -1.168641 1.936254 2.561657 0.142725 0.499648 0.043624 0.403769 -0.521780 0.030552 -1.515578 -1.183222 2.903456 2.308653 0.423658 0.347697 -0.368989 -0.307210 3.418949 1.849745 0.741742 0.544619 1.885116 2.578433 -5.179042 -4.700733 -3.300363 -4.031660 -2.767567 -2.367716 -3.342303 -3.484834 -1.515513 -1.572012 -2.239205 -2.161724 -1.287169 -1.442075 -3.026105 -2.719229 2.101600 2.219137 2.346424 2.044504 2.845893 2.578662 2.133858 1.876751 2.992344 3.022286 1.385622 1.839270 -0.961038 -0.648552 -0.325969 -0.329203 -4.119214 -3.454116 -1.810159 -2.606960 0.035106 0.379332 -1.737165 -2.019489 1.310117 1.059140 0.337548 0.149902 0.350691 0.174425 -1.409080 -1.190226 4.334912 3.909558 3.602515 3.483215 3.066431 2.926269 2.971017 2.716014 2.704622 2.683003 1.155828 1.704054 -0.763728 -0.454223 0.612009 0.694119 -0.190847 -0.680974 -0.251900 -0.333434 0.157311 0.468009 0.202506 -0.359177 0.376413 -0.726094 -0.277911 -0.662740 0.389625 0.119257 1.614433 1.091897 0.725943 0.006497 -0.997371 1.744637 -6.346903 -6.843523 -1.300336 1.421371 1.248988 -0.513521 -1.803351 -0.340109 -0.144396 0.617942 3.113041 -1.007089 0.133551 -0.229428 1.290980 3.936549 -1.375647 3.240531 0.531644 -3.636124 -1.778305 1.690411 -6.371882 -1.945098 -1.964898 -1.161024 2.155494 0.066910 -1.754572 0.035687 4.448200 -3.250483 -0.416130 -1.914519 2.813017 0.676550 -2.382723 -1.236713 2.522824 2.516127 0.307702 1.958929
-0.636010 -2.880728 -2.660478 -2.399621 -2.450298 -0.537183 0.374682 -0.692816 -0.455445 1.349051 1.567005 3.879608 3.380802 2.370868 2.216504 2.211371 2.185401 0.731565 0.704753 1.485892 1.512242 1.840452 3.303049 2.170329 1.025335 2.359862 2.171767 3.454086 1.981010 2.432436 2.555525 2.662547 2.916547 -3.605968 -3.342876 -3.381274 -3.440595 -1.002257 0.112648 -0.910126 -0.849811 -4.028165 -3.524478 -1.445621 -1.560328 1.809388 1.435266 1.664764 1.997334 -1.496164 -0.842265 -0.918769 -0.533392 -1.947305 -1.276630 -0.373799 -1.104520 -1.256765 -1.060726 -0.406577 -1.258244 -2.157804 -2.323619 -2.258500 -2.114950 2.430711 2.610458 2.339820 2.296318 0.782723 0.758055 1.781862 1.540924 -1.309201 -1.313350 -1.611176 -1.702376 0.681264 0.591876 0.765768 0.887402 0.555612 0.198628 -0.378427 -0.266447 -0.131330 -0.228692 -0.375336 -0.206967 0.672661 0.436378 0.298748 0.184262 1.449398 1.532932 1.590192 1.341979 -1.549390 -1.158013 -1.052346 -1.570966 -1.599867 -1.938689 -1.275771 -1.847631 -2.039102 -1.853533 -2.743148 -2.721852 -2.247438 -2.342112 -2.514272 -2.284570 1.151452 0.904994 0.519353 0.373283 1.137794 0.838059 0.327899 0.530587 1.800700 1.603768 0.731017 1.004499 0.149191 0.490909 -0.078114 0.412630 0.203207 0.661661 -0.299056 -1.050375 0.499119 0.829581 0.831912 -0.421359 1.324030 0.439017 -0.536819 0.540011 0.614638 -0.472229 -0.572372 1.829238 -1.243172 0.037449 -1.359183 -0.013758 -0.280289 0.228974 -0.360208 0.691013 0.838098 -0.305342 -1.044831 0.905643 0.198450 -0.028396 1.542335 -1.365922 0.662481 -0.294293 -0.021250 2.262614 1.783378 3.663997 -1.484362 -4.585343 -1.390611 -1.291130 3.650506 3.525213 0.742217 1.475561 -3.459311 -2.746651 -4.448376 -3.191638 2.181220 -0.105747 -3.188644 0.916515 0.833204 -2.117842 1.024468 0.721271 -1.329214 -3.280176 -0.315957 2.424855
0.490531 -2.904088 -3.314261 -2.955987 -2.995830 -1.693689 -0.744600 -1.683519 -1.462598 -0.198355 0.373981 1.494699 1.723728 0.556080 1.104154 0.550758 0.621906 -0.773307 -0.238086 -0.819884 0.079995 -0.297440 -1.205756 -1.845378 -1.882743 1.674309 1.031435 1.742643 1.012700 2.549937 1.924225 3.526069 4.348790 -3.191133 -3.274447 -4.615067 -4.626476 -1.305500 -0.429280 -1.581732 -1.232337 0.338430 0.969027 2.046075 2.537567 0.149891 0.386594 0.055885 0.732455 -2.034341 -1.391765 -2.089779 -1.377730 0.447217 2.017811 -1.333225 -1.711464 0.957729 0.182789 3.771619 2.088884 2.885231 2.446027 4.346908 5.024777 -4.900689 -4.156970 -1.883828 -3.491163 -0.599648 -0.578404 -2.611919 -3.248773 0.722877 0.719979 -2.018617 -1.427919 -0.521257 -1.019683 -1.907470 -1.222632 -0.587031 -0.137982 0.592381 -0.334497 0.288456 -0.030777 -0.440470 -0.658552 -1.066773 -0.930668 -1.879525 -1.073228 -1.375024 -1.318392 -0.471706 -0.422883 -2.953007 -2.144934 -0.241598 -1.666545 1.058975 1.375406 -0.899783 -1.555566 4.209979 4.023434 2.829491 2.786438 0.191005 -0.028215 -0.592541 0.312202 4.587074 4.047833 4.076089 3.714043 3.331864 3.081342 3.525881 3.162287 0.427976 0.776294 0.030353 0.836718 -0.823106 -0.667314 0.713890 0.957351 -0.156530 -0.296748 -0.089408 -0.930004 0.858362 -0.205312 -0.401902 1.318009 0.122612 0.912030 -0.098263 -0.777685 2.600442 0.429293 0.534451 -1.629573 -0.403659 1.143844 -1.428125 0.107905 1.388068 -2.466492 -3.140423 -2.181831 -5.896586 -3.390690 -1.636582 -0.722000 -0.018445 0.459927 1.823773 -0.923569 3.657832 -2.614767 2.649137 0.241407 -1.950586 -2.852246 2.636959 0.493173 -3.289284 0.609849 5.069162 1.355967 0.350950 -2.175770 2.878329 0.214484 1.007032 -1.805415 6.517135 -4.578814 -0.679135 -4.031304 0.759732 2.355562 -3.038856 -3.973148 0.670704 4.285872 1.468570 0.605302
-1.843290 -1.454054 -1.352071 -1.089160 -1.267260 0.052820 0.289260 -0.517931 -0.341830 -1.494992 -1.934015 -1.144220 -1.397811 -1.994588 -2.121050 -2.572764 -2.820738 -0.707375 -0.070629 -0.221942 0.110805 0.825437 0.342505 0.531807 1.121909 -0.635275 -0.375705 -0.723581 -0.835322 -0.589222 -0.487617 -0.569837 -0.781327 -2.176125 -2.114407 -1.473531 -2.054634 -1.855053 -1.714429 -1.305374 -1.526012 3.722182 2.980263 3.644293 4.351236 2.030883 1.872417 0.668968 0.416452 -2.319836 -2.325657 -0.794142 -1.080653 3.470908 3.933302 2.112033 1.709749 -0.003088 0.224521 1.472350 1.853137 2.138001 1.727241 2.433387 2.364100 -1.236368 -1.162701 -0.957041 -1.144692 -0.074455 0.361726 -0.061906 0.002327 -0.864205 -0.902247 -1.841217 -1.366790 0.085433 -0.527356 -0.227445 -0.593052 0.173373 0.130326 -1.571937 -0.930607 -4.012171 -3.468520 -2.148086 -1.943243 0.909265 0.586941 0.175820 0.529693 -0.578792 -0.837916 0.130292 0.053680 0.058493 0.131644 0.731548 0.588212 1.388508 1.595300 0.401827 0.802830 0.449601 0.607648 0.219069 0.306958 0.050807 -0.697098 0.395081 0.455173 2.456270 2.117388 1.617099 1.752276 0.574167 0.728034 0.917274 0.902774 0.016905 -0.071741 0.380549 0.494921 0.037150 0.141718 0.953259 0.964936 -0.601291 0.089925 -0.211731 -0.269121 -0.554549 0.220008 1.808340 -1.183455 -0.739790 1.043889 -0.902373 1.192637 0.561283 -0.267666 -2.687089 1.476208 0.862062 -1.044833 0.561678 0.234852 2.490350 0.232065 0.347352 -0.657064 0.082247 0.407185 -3.487022 -0.534878 -0.462605 -0.124656 -0.933335 -0.420136 -0.177195 0.405652 -0.471419 0.494286 -2.074414 -3.785019 0.275303 -0.563916 -0.947649 0.525518 2.993131 1.597183 1.668087 -0.841156 0.665530 -0.411193 0.052831 1.722212 2.751956 -2.359270 -0.772209 1.401804 -1.830745 2.834913 0.675432 -0.369777 0.776093 0.554579 0.091094 -0.517287
3.202132 -3.103476 -2.913963 -2.853371 -2.893435 -1.733703 -1.876464 -2.015094 -2.103468 -0.368301 -0.403045 0.305380 0.390532 -1.667695 -1.543563 -1.921560 -1.987511 1.359451 1.747054 2.487602 2.993926 2.207936 2.840966 3.382884 3.599357 3.709863 3.857433 2.549855 3.033464 4.081891 3.823704 4.509982 4.587410 -5.457642 -5.334281 -4.663780 -5.172479 -1.827709 -2.258816 -1.729237 -1.846657 -0.762066 -0.131642 -4.048027 -4.254770 -2.475583 -2.419029 -2.734653 -2.523273 -0.269940 -0.111275 0.005595 0.177437 0.193069 0.065321 0.680480 1.159993 2.148874 2.337330 1.562361 2.047857 3.829320 3.785452 4.543040 4.602820 -2.533244 -2.472748 -1.462181 -1.500662 0.668962 0.492555 -0.389614 -0.519235 1.093492 1.128557 1.025785 0.885035 -0.521137 -0.683611 -1.275363 -1.230120 3.363996 3.264915 3.063887 2.960607 1.076993 0.923012 1.178240 1.445331 -1.619723 -1.697077 -1.492996 -1.371984 -1.350444 -1.224963 -0.205391 -0.099883 1.175871 0.886184 1.230616 1.060047 1.655520 1.461690 1.136680 0.928175 0.624369 0.661588 0.007180 0.118676 -0.125078 -0.064387 -0.384371 0.031208 1.015356 1.151096 1.201611 1.110585 -0.422750 -0.620714 0.111635 0.291571 -3.194807 -3.155958 -2.828782 -2.824792 -0.470656 -0.428458 0.558766 0.383469 -0.043506 0.394647 -0.194021 0.223094 0.244092 -0.437978 0.721511 -0.751613 0.055366 0.248695 0.506754 0.192630 -0.301355 -0.323744 0.259609 0.957381 -1.731064 0.340517 -0.117931 0.153085 3.082826 1.917704 0.162366 0.274380 0.958457 0.470173 0.139137 -0.159226 -2.138650 -2.320601 2.298720 0.509104 2.127525 -1.744818 1.007555 0.430602 0.140567 -1.328395 -0.447475 -1.023838 -3.460635 -2.951443 2.163492 1.184668 -1.513722 -0.566175 -0.363686 0.260911 -0.496040 0.454409 -0.117252 2.609461 -1.664051 0.754885 -0.311761 -0.163377 0.090846 0.381444 -3.231941 -2.696269 -0.437605 -0.711536
6.356097 -0.200636 -0.119040 -0.369489 -0.029928 -0.363538 -0.735896 -0.250978 -0.212037 -1.365705 -1.279142 -1.569776 -1.178156 -1.111110 -0.662145 -0.877560 -0.432734 -1.991005 -1.612443 -2.328706 -2.483772 -1.188188 -1.005411 -1.162775 -1.097520 -1.831098 -1.906337 -1.818137 -1.760909 -1.438428 -2.141811 -1.039239 -1.052411 1.704262 1.536613 1.530081 1.639607 1.475463 1.117811 1.656883 1.992903 0.801592 0.544104 0.421697 0.409874 1.266100 1.535672 1.788396 2.291513 0.788629 0.731926 0.826086 0.863025 1.492565 1.005823 1.359201 1.755760 0.859942 1.104347 1.257818 1.379220 1.634122 1.492869 2.277401 2.430849 0.669537 0.702752 1.022914 0.973936 1.453365 1.489753 1.172630 1.068194 1.029564 1.109045 0.893617 0.828793 1.319710 1.301785 0.847551 0.936601 1.085882 1.276956 1.708687 1.535146 1.415090 1.497181 1.407312 1.252459 1.876008 2.038677 1.634234 1.950862 1.628726 1.565697 2.167331 2.106263 -2.407567 -2.403009 -1.794126 -1.843511 -0.667631 -0.194781 -1.367375 -1.514563 -1.138129 -1.206946 -0.773113 -0.828134 -0.352784 -0.351896 -1.116220 -0.933115 -2.593943 -2.457294 -1.386300 -1.482829 -1.850027 -1.666442 -1.258607 -1.717972 -0.546290 -0.370611 -0.550853 -0.412182 -0.312289 -0.283811 -0.383448 -0.444365 -0.107904 0.024268 0.013581 1.428136 -0.563759 -0.494479 0.867221 -0.986674 -0.807646 0.103597 0.965514 0.420963 0.128316 -0.239611 -1.080107 1.734570 1.513497 -0.296025 0.355442 2.153910 0.405987 -0.098537 0.156650 -1.497277 0.865815 0.139182 1.071844 -0.114126 -0.417871 -0.037419 6.777673 -4.886678 -0.236589 -0.785561 0.834319 -1.354119 -2.296903 -3.012127 -1.743498 1.712831 -1.461454 0.260156 -4.662563 -2.883584 2.006414 -0.858730 -0.023459 0.057426 -0.516329 1.647651 -1.547293 1.125368 0.006634 -1.419329 -1.166852 0.814716 -0.042170 0.626045 1.192001 1.415886 0.471063 -1.442769
8.169133 -0.399716 -0.250357 -0.056067 -0.142547 -0.299103 -0.337759 -0.275345 -0.376965 -0.228184 -0.420264 0.932294 0.368998 0.010855 -0.625174 0.165897 0.060370 -0.078109 -0.283488 0.400246 -0.178786 2.534034 4.210365 2.362615 2.021404 1.105434 1.194393 2.167193 1.081771 1.139139 2.260498 1.866838 2.026705 -1.742630 -1.562518 -1.061529 -1.008821 -1.721021 -1.409168 -1.391367 -1.639621 -1.740419 -1.543084 -0.270093 -0.457078 -0.850538 -1.280902 -0.651082 -0.664886 -0.793326 -0.786249 -0.603597 -0.515927 1.465789 2.219151 1.372429 1.535816 0.220115 0.414999 -0.239703 -0.501632 0.182150 0.624961 0.325785 0.285942 -0.532257 -0.658685 -1.304514 -0.690547 -0.438879 -0.792947 -0.118568 -0.217739 -0.249908 0.044203 0.434779 0.286800 0.597701 0.648397 0.244318 0.174055 1.938620 1.934930 1.638032 1.545597 1.191109 1.021347 1.371734 1.653462 0.205515 0.271811 0.606084 0.319070 0.602548 0.402672 0.039951 -0.048319 -2.481710 -2.367177 -2.635141 -2.326129 -1.114708 -1.568755 -1.100477 -1.456011 -0.804898 -0.390513 -0.267027 -0.616133 0.784198 0.367291 -0.732209 -0.637491 1.583048 1.842497 2.471986 1.633369 1.814275 1.263823 0.863138 1.129536 1.195459 0.854215 0.178280 0.303442 -0.179576 -0.261155 -0.752250 -0.544435 0.170780 0.540895 -0.257769 0.518750 -0.096598 0.539994 0.232525 -0.974120 -0.062842 -0.842604 -0.341547 0.626642 -0.418822 0.310330 -2.148129 1.552490 0.202675 -0.650291 1.112477 0.365106 -0.573051 1.219295 2.254929 0.759777 2.100901 1.084831 0.797683 1.200804 1.057160 -0.783647 7.976602 2.556946 -3.606595 -2.018793 0.595282 0.115293 -0.781441 -0.367110 -3.653309 -2.208221 -0.677154 -1.688173 -5.624920 -3.969418 -0.378399 -0.359175 -2.948085 -0.848107 -1.725779 -1.770259 -3.040634 1.432694 -1.562460 -0.651694 -0.793312 -1.947084 3.903571 0.230614 -1.349713 -3.035692 0.189643 0.790867
2.401497 -0.579594 -0.536646 -0.051381 -0.032002 0.918205 1.446353 0.946623 1.075941 0.693819 0.788004 1.927889 1.509427 1.770970 1.440239 1.542880 1.427578 0.026233 -0.221744 0.748872 0.719276 -0.050542 0.879694 0.058188 -0.710292 1.014587 1.101101 1.492981 0.690463 1.039905 1.184715 1.017986 1.352847 -1.249717 -1.150711 -1.306383 -1.283513 -0.625272 -0.195796 -0.419924 -0.430767 -1.137444 -0.923945 -0.595128 -0.664983 0.422975 0.299575 0.663383 0.730561 -0.570443 -0.291195 -0.273332 0.094989 -2.613768 -3.131373 -1.042631 -1.191935 -0.374841 -0.268299 -0.357279 -0.665101 -0.831056 -0.923454 -1.038884 -0.885383 1.138179 1.280420 0.682669 0.617075 -0.701050 -0.705367 0.404932 0.350937 -0.907090 -0.894803 -1.188751 -1.191701 -0.305893 -0.130607 0.196011 0.341243 0.515414 0.338381 -0.168476 -0.054131 1.381482 1.316506 1.409132 1.456214 -0.178723 -0.573646 -0.188409 -0.317366 0.271693 0.229935 0.051727 -0.012818 -0.157884 0.150909 -0.068887 -0.395644 -1.131319 -1.425611 -0.641188 -0.976427 -0.822886 -0.677597 -1.253870 -1.191893 -0.528442 -0.629742 -0.440992 -0.137804 0.901749 0.733569 0.809693 0.544366 1.578736 1.242472 0.530275 0.807104 0.894872 0.654829 0.119334 0.307314 -0.389365 -0.233176 -0.212248 -0.021871 0.289647 0.201066 -0.278743 -0.174726 0.261114 0.413672 0.544708 -0.511803 0.957618 -0.106006 -0.080068 0.185003 0.361437 0.253383 0.300373 1.191739 -2.031990 1.044151 -1.446684 0.648991 -1.134293 -0.439354 -0.345588 0.883977 1.907909 -0.350092 -0.665342 0.205997 0.680022 0.211742 2.161141 0.414795 1.714197 -0.344706 -2.473143 -0.260151 2.627708 2.206358 -0.788174 -3.488746 -2.110979 -2.082895 -0.908264 1.488493 0.270203 0.435584 -0.061637 -1.063474 -3.006878 -1.123370 0.293432 0.860209 -1.661150 -0.826344 1.389221 -1.227941 0.505083 0.332611 -0.289361 -1.368276 -0.549205 1.018720
1.393079 0.499981 0.233640 0.095789 0.103530 0.554749 0.547406 0.461027 0.531456 -0.238933 -0.664819 0.704643 0.869515 0.303870 0.540756 0.197241 0.304429 -0.951864 -0.694799 -1.207273 -0.984151 -0.098015 -0.530285 -1.567926 -1.391640 -0.830869 -0.927356 0.153494 -0.515091 -0.225598 -0.427357 0.369220 0.830806 0.192951 -0.027779 -0.158662 -0.211408 0.055703 -0.000769 -0.504426 -0.382347 -0.709071 -1.033972 1.558024 1.944713 0.321610 0.576910 0.221981 0.490448 -0.424586 -0.044198 -0.762338 -0.657344 1.098061 1.578765 -0.336055 -0.110081 -0.479199 -0.626191 1.396933 0.499091 0.195438 -0.164705 0.729983 1.120025 -4.023781 -3.683065 -2.720300 -3.323804 -2.104962 -1.806643 -2.626808 -2.855245 -0.520000 -0.554899 -0.736526 -0.884087 -0.239349 -0.316830 -1.230163 -1.056323 0.659268 0.681135 0.914509 0.754944 1.372691 1.308694 1.207224 0.890730 1.954964 1.948773 0.988766 1.330223 -0.400692 -0.168069 -0.161662 -0.168882 -2.673217 -2.318580 -1.221055 -1.742970 0.213690 0.531787 -0.905474 -1.122897 0.969334 0.913329 0.523783 0.311760 0.431821 0.424976 -0.387210 -0.161508 2.716860 2.280561 2.093259 1.960489 1.817957 1.798868 1.920051 1.659326 1.888421 1.834520 1.024093 1.442355 -0.288439 -0.085390 0.518938 0.593808 -0.129539 -0.577105 0.025074 -0.413014 0.102779 0.299243 -0.144197 -0.153234 0.139806 0.424972 -0.351034 -0.414541 0.395023 0.214081 1.178241 0.813518 0.683108 -0.487332 0.178656 0.607510 -1.289912 -2.278916 -0.734186 0.375494 0.370932 -0.343470 -0.850584 -0.429483 -0.101104 0.990707 2.559412 -1.717173 0.801003 -0.825010 -0.258036 3.679871 -4.800634 -0.984815 0.278248 -1.577219 -1.004238 0.697154 -3.374247 0.163718 -0.309441 -1.007921 1.408513 -0.120454 -0.173338 0.639995 2.621382 -2.259485 -0.585912 -1.161142 1.101311 0.809858 -0.672104 -0.991663 1.926490 1.385366 0.070112 1.533606
-0.791294 -0.821765 -0.823389 -0.426434 -0.453434 0.412320 1.084330 0.289326 0.396565 1.221640 1.164149 3.024672 2.162804 2.228118 2.347025 2.168120 2.107559 -0.412779 -0.661380 0.452042 0.558116 1.082784 2.414751 0.877965 -0.221023 0.380845 0.533330 1.524871 0.486013 -0.051966 0.145426 -0.096660 0.074348 -1.349444 -1.271034 -1.208091 -1.220651 -0.253650 0.281125 -0.275724 -0.299101 -1.764075 -1.698126 -1.323376 -1.435019 0.810205 1.212903 0.871840 0.850542 -0.998904 -0.748109 -0.621871 -0.272727 -0.304942 0.048017 0.316244 -0.432709 -1.226935 -1.072481 -0.575873 -1.169634 -2.121453 -2.198175 -2.278914 -2.229441 2.184852 2.247794 2.033469 1.878767 0.410414 0.266264 1.060224 0.887119 -1.558121 -1.499467 -1.947263 -1.852387 -0.004101 0.061592 0.422494 0.539024 0.187486 -0.037599 -0.777197 -0.507724 -0.316087 -0.446589 -0.594446 -0.495549 0.491152 0.148944 0.141405 0.205959 0.776819 0.805635 0.787598 0.666543 0.043200 0.237360 0.154087 -0.105698 -0.825078 -1.203602 -0.501805 -0.957679 -1.148191 -0.960323 -1.861162 -1.653891 -0.517098 -0.559691 -0.372569 -0.184151 0.536807 0.336662 -0.405701 -0.313180 0.292277 -0.008035 -0.647727 -0.300435 1.232657 0.991156 0.356072 0.633458 0.002856 0.259177 0.185689 0.306243 -0.053675 0.345588 -0.368372 -0.411547 0.236887 0.534427 0.800264 -0.409970 1.118934 0.428838 -0.315016 0.081063 0.459108 0.002107 0.234115 1.431652 -1.209905 0.469048 -0.668865 1.511360 -1.036979 0.156544 0.368770 0.990739 1.989662 -0.696277 -1.223389 0.649578 0.698232 0.474686 -0.071303 -1.748167 1.934467 -0.092598 0.784531 1.723599 3.349451 3.510434 -4.229421 -6.662178 -1.397058 -1.394883 0.726542 1.427855 1.037856 1.903139 -1.463481 -1.604683 -2.255394 -1.231196 1.466395 0.787016 -1.066515 1.065014 0.616488 -1.231765 0.652962 0.744132 -0.447077 -3.212116 -0.278335 0.767534
0.841579 -0.175524 -0.453046 -0.700112 -0.771464 -0.048899 -0.218901 -0.278071 -0.223687 0.617469 -0.358526 1.763896 2.368630 0.091694 0.589722 -0.034002 -0.100177 -0.887921 -0.174397 -0.996288 -0.359895 -0.773340 -1.836503 -1.903222 -1.451040 -0.049250 -0.162768 -0.131983 -0.515242 0.153821 -0.574641 0.608933 0.884204 -0.373434 -0.641012 -1.571094 -1.754353 0.187008 -0.070850 -0.341438 -0.217298 0.355289 -0.790921 3.215260 4.014194 -0.662524 -0.031890 -0.910051 -0.870888 -0.203156 0.165562 -0.396320 -0.398622 0.745992 1.131960 -0.410893 -0.269271 0.102485 0.035924 1.846171 0.722304 0.734374 0.209770 1.495108 1.894726 -3.318713 -2.887750 -1.470912 -2.265740 -0.290457 -0.059682 -1.638494 -1.960222 -1.620311 -1.674108 -2.470401 -2.564262 -1.678058 -1.959794 -2.467527 -2.175972 0.619383 0.517435 1.130799 0.772451 0.718498 0.577394 0.757715 0.570949 0.489145 0.587821 -0.173465 0.360588 0.095320 0.301705 0.732838 0.823342 -1.239273 -0.962241 0.090885 -0.561403 1.622830 1.938977 0.110805 -0.106836 1.095443 0.927037 0.321225 0.100712 -0.623802 -0.604370 -0.605859 -0.229861 2.497843 1.904531 2.057259 1.927264 1.700931 1.718771 2.262935 1.934428 0.388937 0.512937 0.254715 0.733326 0.254892 0.381756 1.421990 1.235281 -0.254085 -0.560033 0.055264 -0.152807 -0.093013 -0.158676 -0.040105 -0.398246 0.307176 0.469388 0.413720 -0.229597 0.751062 0.457160 0.891353 0.125284 0.189984 0.614801 -0.156391 -0.894459 0.785445 -1.864272 -1.908752 -0.546315 -0.415175 -0.052404 -0.857679 -0.602752 -0.298923 0.658171 2.177748 -1.811771 2.158282 -1.904786 -0.128231 3.099590 -0.562536 -1.331579 1.145854 0.354536 -6.059455 -1.448013 -2.896904 0.614913 0.950750 -1.730708 2.078988 0.440777 1.226130 -0.190560 3.409617 -2.711511 0.606499 -1.220441 0.762674 1.487668 -2.197363 -1.889310 1.577905 2.128896 0.279581 1.048475
0.106839 -0.636140 -0.585915 -0.559252 -0.613359 -0.698955 -0.671201 -0.748869 -0.805915 -0.105040 -0.372730 0.337350 0.283585 -0.319547 -0.287034 -0.224172 -0.205670 -0.771682 -0.777268 -0.758526 -0.604586 1.041843 0.779450 0.325098 0.294169 -0.149634 -0.147152 0.233247 -0.108067 -0.104246 0.000526 0.138553 0.156173 -0.420844 -0.344930 -0.305118 -0.395098 -0.720229 -0.568054 -0.757549 -0.819613 0.679046 0.424468 1.455277 1.498360 0.149709 0.232211 0.109882 0.033162 -0.658155 -0.698073 -0.479055 -0.432175 2.224609 2.221526 1.080673 0.859579 -0.048765 -0.065595 0.586971 0.109459 0.256155 0.268635 0.634741 0.660595 -1.745733 -1.697511 -1.447140 -1.506567 -0.982861 -1.077089 -1.241184 -1.329863 -1.205627 -1.212832 -1.286479 -1.343761 -0.664344 -0.760149 -0.857038 -0.756124 -0.262308 -0.287441 -0.057102 -0.147012 -0.116184 -0.136891 -0.177915 -0.136623 -0.003769 -0.051605 -0.221650 -0.078276 -0.753254 -0.739950 -0.497826 -0.441576 -0.270652 -0.242202 0.025550 -0.062849 0.336188 0.281659 -0.001723 -0.032662 0.803144 0.806336 0.629641 0.585311 0.524159 0.446590 0.350665 0.536642 1.957365 1.943340 2.194117 2.066821 1.808243 1.760089 1.689432 1.725219 0.600059 0.586980 0.629236 0.743249 0.176154 0.213920 0.213245 0.307257 -0.039483 0.020890 -0.167134 -0.029193 0.033587 -0.000858 0.068559 0.153810 -0.305055 -0.017895 0.211863 -0.080147 0.089815 0.083028 0.139385 0.276773 0.278602 -0.065577 0.427050 -0.233395 0.477044 0.913446 -0.306673 -0.425412 0.030109 -0.042421 -0.033890 -0.121151 -0.054500 -0.077005 1.970431 -0.920637 0.071692 0.116506 0.242272 -0.365286 -0.958949 -0.619889 -0.876599 0.323810 -1.120741 -0.743148 -3.136214 -2.965772 2.074137 0.949811 0.167255 0.066189 0.391777 0.072612 0.736319 0.127763 -0.485570 -0.026025 -0.234074 0.139672 0.091426 -0.022227 0.120360 0.275303 0.489610 -0.078999
1.555297 -0.435860 -0.543899 -0.740580 -1.022844 -0.583764 -0.601109 -0.571489 -0.757399 0.559865 0.218023 -0.302191 0.003847 -0.426074 -0.627971 -0.536533 -0.683129 0.452052 0.671861 0.583698 0.892526 0.650854 0.360289 0.738894 0.991173 1.718115 1.811667 0.633196 0.921005 1.619144 1.770889 1.987563 1.943140 -0.912519 -0.935103 -1.251034 -1.546216 -0.789544 -0.673789 -0.701555 -0.887596 -0.424380 -0.288602 -2.215139 -1.975187 -1.527331 -1.657457 -1.533155 -1.288584 0.161466 0.195025 0.423289 0.686672 -0.562643 -1.361761 -0.566087 0.031335 1.426070 1.551586 -0.043090 0.267339 1.609608 1.571049 2.074515 2.003156 -0.335575 -0.307741 -0.032561 -0.059644 1.092808 0.868811 -0.141713 -0.034278 1.256331 1.289838 1.087200 1.128402 -0.608180 -0.386553 -0.599707 -0.447443 1.704124 1.510452 1.206767 1.189880 0.174985 -0.008173 0.190992 0.388197 -1.977419 -2.033570 -1.710809 -1.602209 -1.262385 -1.426178 -0.473551 -0.667500 1.957964 1.911109 1.542917 1.456930 1.856058 1.645046 0.874545 0.934412 0.789043 0.845886 0.623179 0.574722 -0.325524 -0.165001 -0.076713 0.057367 0.896411 0.671357 0.445604 0.409370 -0.545337 -0.701585 -0.223736 -0.108503 -2.515842 -2.565236 -2.210863 -2.188514 -1.114238 -1.226518 -0.413073 -0.529537 0.169879 0.071392 -0.085056 0.293828 0.061957 -0.070532 0.217691 0.139376 0.075412 -0.533322 0.379729 0.369932 0.241732 -0.075672 0.409487 0.044559 -1.726448 1.188520 0.360287 -0.331907 1.557258 -0.274603 -0.107410 -0.334152 -0.483409 1.062571 0.056297 -0.498076 1.166296 -0.591445 2.835972 0.805497 2.284505 -0.204024 0.382503 -0.114027 1.595117 -0.296591 -0.419916 0.620760 -0.732892 -2.016310 -1.014202 1.551652 -5.805388 -2.850687 -0.477778 0.291364 0.296855 -1.331907 -0.420959 2.407994 -0.525630 -0.386700 -0.340237 -0.424988 0.064669 -0.259695 -0.985506 -1.307693 -0.174025 -0.143194
-0.919348 -1.818881 -1.647757 -1.467049 -1.501826 -0.375633 0.160455 -0.462883 -0.329369 1.072779 1.436367 2.662613 2.279147 1.864082 1.603506 1.651106 1.586578 0.525986 0.294951 0.992275 0.902821 1.410660 1.828975 1.167226 0.570709 1.514738 1.426015 1.936150 1.193456 1.419286 1.315874 1.432954 1.556382 -2.195350 -2.046903 -2.154173 -2.158695 -0.787425 -0.106876 -0.721745 -0.654053 -0.195798 0.230548 1.077792 0.934727 1.078968 0.741906 0.848747 1.084577 -1.177392 -0.752816 -0.927897 -0.632479 -1.141386 -0.905540 -0.689076 -1.039446 -1.814625 -1.677825 -1.327542 -1.774684 -1.977319 -2.164403 -2.076687 -2.018172 2.006854 2.090882 1.821698 1.851108 0.821012 0.808574 1.529298 1.443719 0.050435 0.020135 -0.157869 -0.156126 0.774370 0.761702 0.894884 0.956938 -0.465951 -0.681468 -1.204311 -1.060054 -0.806505 -0.800694 -0.897706 -0.734810 0.839340 0.676086 0.685578 0.544052 0.753506 0.825409 0.988544 0.816350 -1.159836 -0.900843 -0.933407 -1.251083 -1.665079 -1.793176 -1.290445 -1.518451 -1.636624 -1.564439 -2.025759 -1.994112 -1.782475 -1.810665 -1.854570 -1.705961 0.773674 0.662787 0.229449 0.247492 0.667416 0.486350 0.247206 0.369338 1.159175 1.052245 0.549685 0.711290 0.251300 0.512247 0.357957 0.694985 0.020454 0.338714 -0.326706 -0.813589 0.260169 0.598466 0.743886 -0.007439 0.751812 0.376469 0.278788 -0.013402 0.456943 -0.434989 -0.267465 1.018840 -0.435285 -0.141147 -1.478800 -0.142458 -0.415489 0.462508 0.057269 1.384328 1.005787 -0.194293 -1.025721 0.657635 -0.243922 -0.094810 0.281563 -1.160317 -0.366962 0.510782 0.363296 1.729026 0.766387 2.205515 -0.863367 -3.203970 0.236050 -0.494945 2.299412 2.472097 0.861047 1.593097 -3.353864 -2.371646 -3.782277 -2.275481 1.787731 0.570507 -2.420609 0.365392 0.756483 -1.605887 0.485995 0.592224 -0.306477 -1.975453 -0.008078 1.832328
-1.237261 -1.438859 -1.795117 -1.776129 -1.787186 -1.019974 -0.494802 -1.101438 -0.907620 -0.542123 -0.201734 0.211542 0.746482 0.306501 0.730136 0.133707 0.232926 -1.131618 -0.508023 -1.495218 -0.456407 -1.531481 -2.209100 -2.232080 -2.263988 -0.393802 -0.676414 0.246994 -0.285886 -0.112999 -0.829358 0.149052 0.676217 -0.110107 -0.198472 -1.271582 -1.274625 0.438425 0.449091 -0.627898 -0.227620 1.248487 0.980535 2.636859 3.285239 1.337018 1.718509 0.678751 0.723771 0.462840 0.717658 -0.086767 0.146687 0.194944 0.982231 -0.730584 -1.400861 0.818914 0.410502 2.366988 1.086210 1.365166 0.470799 1.723113 2.206318 -2.435629 -1.952400 -0.790037 -1.875574 -0.656245 -0.417419 -1.564257 -1.975003 -0.138381 -0.223309 -1.433724 -1.396036 -0.845851 -1.217278 -1.681013 -1.238699 -1.194600 -1.068801 -0.633272 -0.829059 -0.559227 -0.518452 -0.652714 -1.042752 -0.354903 -0.364635 -1.121724 -0.688077 -1.321190 -1.130065 -0.626735 -0.509671 -0.326790 0.115776 0.958104 0.159902 1.259856 1.574990 0.462637 0.112913 1.847792 1.760628 0.955713 0.971503 0.034386 0.042161 0.156475 0.574052 2.053660 1.663775 1.740532 1.691577 1.726013 1.811744 2.090139 1.744226 0.570273 0.779580 0.468714 0.915618 0.274522 0.527256 1.233122 1.268623 -0.255972 -0.566237 0.052598 -0.556070 0.133827 -0.195600 0.128954 0.733765 0.295979 1.121102 0.058920 -0.544762 1.679804 0.271408 1.074242 -1.842338 0.590007 -0.915971 -1.440812 0.592177 1.101393 -3.173561 -2.338916 -1.430182 -2.497216 -0.756156 -1.650138 -0.806606 0.062084 -0.004987 -0.720810 -1.811286 1.806622 -0.031038 0.405436 0.420126 -2.137332 -0.471597 2.759113 -0.232985 -1.243052 0.871341 3.596207 3.063514 2.242146 -2.169774 2.956779 -0.148301 -0.894265 -2.795968 4.342329 -3.902945 0.874825 -1.305570 1.526975 1.923276 -3.150687 -2.082999 2.595114 3.667584 0.703835 0.326880
-1.503097 -1.329083 -1.286926 -0.908009 -0.823595 -1.172950 -1.175724 -1.203330 -1.145901 -0.788111 -1.100351 0.178365 0.150751 -1.045462 -0.859813 -0.925733 -1.027183 0.049594 0.030834 0.054828 0.337956 0.820186 0.520683 0.209135 0.481137 -0.122241 -0.021952 0.023505 0.145297 0.033373 0.478426 0.125853 0.033142 -1.393878 -1.273562 -0.818679 -0.803977 -1.198543 -1.289560 -0.722514 -0.670650 0.602376 0.418345 2.201630 1.944160 -0.292366 -0.224240 -0.600775 -0.611074 -0.047635 -0.342476 -0.241782 -0.347343 2.022242 1.806345 0.684796 0.827118 0.831405 0.851163 0.826539 1.048509 1.610236 1.672906 1.673554 1.617930 -1.440358 -1.514054 -1.354722 -1.217759 -0.648205 -0.606281 -0.930640 -0.883626 -0.038295 0.012096 -0.092191 -0.097350 -0.209383 -0.155203 -0.486915 -0.552881 0.799787 0.794887 0.595699 0.615503 -0.674014 -0.693314 -0.445563 -0.426808 1.226270 1.243762 1.219092 1.207422 0.543098 0.541962 0.719341 0.739659 -0.982391 -1.085406 -0.858444 -0.712017 -0.429567 -0.381863 -0.951858 -0.708475 -0.292489 -0.274863 -0.461637 -0.424913 -0.484511 -0.625964 -0.496780 -0.689268 0.991503 0.946125 0.567317 0.798725 -0.268150 -0.206587 0.293186 0.270572 0.896725 0.868537 0.902308 0.784180 1.011188 1.036113 0.795426 0.879163 0.139809 -0.155417 -0.015493 -0.099428 -0.010683 0.090671 0.222606 -0.243488 -0.552308 0.035317 -0.149438 0.447077 -0.617692 0.318544 -1.215202 1.148958 1.053436 0.096351 0.723209 -0.350028 0.631247 0.124204 0.237273 0.148949 -0.070654 0.454088 0.440122 -0.107482 -0.553184 0.228538 -0.657242 -0.187542 -1.028479 0.389991 -0.377093 -0.242404 -1.053250 -0.073703 -0.808908 0.123449 -0.184647 -0.280733 0.164247 -1.008305 1.078697 0.810009 -0.041418 -0.147613 0.894572 1.074168 -1.581123 -1.483460 -0.764062 0.674615 0.008161 0.873781 0.965840 -0.135477 -0.178757 0.163876 -0.136727 0.016426
1.166716 -1.978948 -2.005313 -1.550181 -1.548140 -1.774085 -2.160943 -1.507361 -1.641898 -0.910356 -0.991513 0.331334 0.044646 -0.722886 -0.698758 -0.543175 -0.466708 0.746369 0.828886 1.393721 1.155481 0.683066 -0.059133 0.632530 0.942518 1.048184 1.004400 0.351280 0.886485 1.299872 1.131107 1.329951 1.356429 -1.410515 -1.672326 -0.613616 -0.531368 -1.299058 -1.727149 -0.368995 -0.393450 -0.070724 -0.038439 -0.689176 -0.899626 -0.363211 -0.398034 -0.341345 -0.172232 1.258109 1.264724 0.917216 0.785049 -0.069357 -1.285583 -0.130815 0.283278 1.522206 1.455584 0.641206 1.133042 1.888465 1.915603 2.012960 1.957431 -1.275575 -1.458225 -1.427679 -1.167124 -1.024672 -1.023930 -1.285864 -1.147479 -0.335284 -0.385302 -0.032516 -0.189468 -0.634832 -0.536442 -1.029236 -0.969941 2.126559 2.092566 2.142317 2.150255 1.664153 1.704259 1.890536 1.852228 -1.069071 -1.077221 -0.771411 -0.692987 -1.161142 -0.882560 -0.269978 -0.101097 1.156071 1.219146 0.837133 0.855012 0.561526 0.683314 0.461887 0.619693 0.539526 0.473295 0.611786 0.484848 0.914492 0.886880 0.631597 0.664458 -0.014011 0.125899 0.317170 0.304352 0.084683 0.082376 0.533736 0.480479 -1.648894 -1.709963 -1.288539 -1.366784 -0.687129 -0.650248 -0.344302 -0.326608 -0.048313 0.092787 -0.113390 0.334937 0.091297 -0.190039 -0.175241 0.113764 -0.090364 -0.021054 0.637202 -0.196254 -0.806006 -0.242647 0.675785 0.157935 0.464267 -0.652148 -0.156253 -0.135430 1.408859 1.393702 -0.283364 0.416829 1.705293 -0.355060 0.922737 -0.027838 -0.631192 0.202651 0.666516 -0.066980 -1.299355 1.191199 -0.499087 0.165812 -1.160191 -0.461429 -1.302813 0.318525 -0.545875 -1.829347 1.129230 -0.720389 1.003825 1.516099 -0.547045 0.396544 -1.573965 2.621757 -2.179492 1.660128 -4.078543 -1.829284 -0.569674 -0.577311 0.548920 0.281036 0.395091 0.111443 -0.230970 -0.633746
-2.002432 -1.023483 -1.518302 -1.369612 -1.623365 -1.235484 -1.213732 -1.154205 -1.086009 -0.919653 -1.890367 -1.733849 -2.239778 -1.451568 -1.127551 -1.278855 -1.109967 0.357342 1.227225 -0.681716 1.062867 -1.290595 -1.291940 0.072115 0.523789 -0.167494 0.217828 -2.198110 -1.064245 -1.210650 -1.536812 -1.509140 -1.635407 -1.596461 -1.588547 -1.514429 -1.626618 -0.729847 -1.008783 -0.601897 -0.595755 3.660800 3.382345 3.188749 3.382146 2.133925 2.066155 1.824407 1.711668 -0.060449 -0.178936 0.175386 0.016537 0.801353 1.194396 0.947166 1.322656 1.536751 1.465809 1.271371 1.555466 1.832217 1.702219 1.737618 1.690874 -0.443234 -0.396060 -0.162741 -0.315988 0.040297 0.101308 -0.320082 -0.391369 0.307876 0.409530 0.580570 0.518058 0.443959 0.532926 0.834949 0.805777 -0.871046 -0.905046 -0.705759 -0.808147 -1.470431 -1.418534 -1.010866 -1.187160 -0.169461 -0.178537 -0.417260 -0.210872 0.040500 0.117420 -0.099432 -0.153101 0.815616 0.925683 1.131913 1.002592 0.368013 0.523326 0.285986 0.276220 -1.391968 -1.160253 -0.648738 -1.091566 0.007037 0.007346 0.120167 0.183110 0.639866 0.693493 0.405151 0.360127 0.177538 0.232696 0.964702 0.807172 -0.732053 -0.610712 -0.619983 -0.398418 0.489116 0.412188 0.415475 0.308679 0.128410 -0.102576 -0.315269 0.343173 -0.071861 -0.330917 0.467724 -0.069924 -0.112407 0.149000 0.215011 -0.113691 0.891384 0.372654 -0.843830 -0.906769 0.667577 -0.380495 -0.348375 0.572188 1.334156 -0.082564 -0.824877 -0.001613 -0.605537 -0.038872 0.506226 0.057010 0.277332 0.194008 -1.778627 0.250380 0.916254 -0.408881 1.240473 -0.299004 -0.998564 -2.865421 0.500268 0.239568 -0.437981 0.388829 0.896426 0.192133 -0.279718 -0.431695 0.947901 0.114635 2.442793 0.682538 1.108053 -0.242033 0.907741 -0.300887 -2.601090 0.221164 0.424062 -0.584414 0.423561 0.528088 -0.051715 -0.400466
-3.744970 -2.433536 -2.937646 -2.267347 -2.604241 -1.354158 -1.467727 -1.549330 -1.811278 -1.181527 -2.126978 -0.869100 -0.546848 -1.133532 -1.790643 -1.428757 -1.475947 0.669213 0.551356 1.090351 0.267201 1.414618 3.315263 1.055737 0.813810 0.261960 0.240283 1.027949 1.162740 -0.723743 0.527639 -0.952196 -0.699318 -0.619660 -0.717845 0.282786 0.577249 0.307844 -0.340523 0.610775 0.198765 2.359482 1.899111 1.909474 2.187205 2.206766 2.073428 1.532763 1.723467 -0.301769 0.331890 0.186037 0.896066 -2.245216 -1.591649 -0.970925 -0.296873 0.364304 0.476982 -1.931458 1.373088 0.598987 0.631726 -0.151125 -0.350394 1.360544 1.147931 -0.108958 0.773671 -0.352790 -0.537430 0.486306 1.024274 0.341406 0.242116 -0.076418 -0.282018 -1.110834 -1.098675 0.697714 0.696299 -0.977532 -1.364761 -1.571274 -1.691191 -1.693648 -0.844553 -1.302571 -0.976360 -1.239142 -1.443792 -0.026077 -0.660495 -1.245293 -1.190065 -0.734363 -0.760520 2.036303 2.126663 0.826443 1.518563 0.281365 0.206225 1.328278 1.228564 0.660232 1.123753 0.629979 0.091924 1.357327 1.028509 0.698870 0.825541 -1.553819 -0.469360 -0.167063 -0.790084 0.110830 0.056607 -0.297377 -0.383412 0.785635 0.599265 0.732308 0.645987 -1.038309 -1.124232 -1.085749 -1.216242 0.675200 0.854442 -1.277273 0.626312 -0.679331 0.709178 0.979904 -1.609112 -0.566894 -1.262935 -0.380494 -0.171423 0.231916 -0.240068 5.120287 2.232404 0.296166 -1.939727 -1.382280 0.757363 -1.409693 4.102746 0.236921 0.942393 3.005171 0.978546 2.746427 -0.155125 0.025264 1.991351 -3.262593 0.655111 -0.912000 3.805487 -0.194913 1.357038 -1.643603 -4.425732 1.353463 -4.118823 0.734491 -3.721859 -1.393369 2.340461 2.461888 1.584179 -1.689888 1.291043 -6.742620 1.682120 -6.746853 5.971272 0.823578 -1.494676 1.825774 -5.363673 -1.461581 1.542567 1.585716 -3.489880 -1.148829 0.603058
-1.860742 -2.394507 -2.131934 -1.997876 -1.836400 -1.056005 -0.859194 -1.189435 -1.059233 -0.130304 -0.081184 -0.056918 -0.413277 -0.483338 -0.470308 -0.637323 -0.755442 -0.165189 -0.106390 0.406649 0.487475 0.386835 1.594321 1.030743 0.432446 -0.235050 -0.143020 0.335348 0.027022 -0.396452 -0.069854 -0.588700 -0.639222 -1.494092 -1.270814 -1.584413 -1.475940 -0.868995 -0.620210 -0.901799 -0.901888 0.653522 0.443986 0.447280 0.271097 0.089558 0.018843 0.135825 0.156203 0.197637 0.335918 0.442400 0.510661 0.247568 0.709464 1.099394 0.779939 1.558306 1.693050 1.725688 1.597881 1.963745 2.000272 1.738867 1.636015 -0.761029 -0.788815 -0.963902 -0.861796 -0.618373 -0.757099 -0.319713 -0.405289 -0.165194 -0.153148 -0.492453 -0.403714 -0.960641 -1.006148 -0.665746 -0.723851 1.170950 1.053988 0.355245 0.486888 0.299727 0.269809 0.237452 0.429767 -0.253753 -0.366993 -0.328825 -0.424086 -0.573957 -0.632313 -0.727800 -0.808847 1.975146 1.977568 1.714010 1.828477 1.557919 1.245908 1.644763 1.569361 0.113024 0.235246 -0.399961 -0.163442 -0.470097 -0.379775 0.068758 0.012624 0.525490 0.448834 -0.158621 -0.020812 -0.352057 -0.347872 -0.408843 -0.214627 -0.637302 -0.694817 -0.766697 -0.816955 -0.262444 -0.237369 -0.281316 -0.305205 0.080528 0.151604 -0.138719 -0.193910 0.016761 0.243609 0.252387 0.446850 0.530789 -0.114228 -0.270414 0.320104 -0.009563 0.037663 -0.032204 -0.136649 0.594676 0.642852 -0.835373 0.842512 -1.116991 0.370115 0.860615 0.964279 0.728547 0.127017 -0.306335 0.416282 -0.755713 -0.264431 -1.189067 0.482757 -0.666937 -0.058525 0.709875 0.767599 3.119013 2.155864 -0.419241 -3.215722 -0.483224 -0.928499 2.312058 1.962442 -0.654477 0.255120 -1.239955 -0.610863 -0.145514 -1.181048 0.107415 -0.094478 0.999184 2.111477 0.062034 -0.391409 0.147327 0.423298 -2.568016 -3.067827 0.030112 0.761225
-0.769465 -1.052455 -1.305152 -0.769229 -0.769052 -0.545187 -1.084275 -0.582067 -0.660704 -1.221266 -1.377646 -1.062424 -1.095003 -0.662402 -0.348061 -0.648828 -0.531530 -0.079798 -0.133697 -0.437815 -0.727033 -2.031420 -2.463113 -1.579814 -1.157621 -1.785826 -1.742504 -1.725398 -1.691280 -2.143759 -2.684477 -2.369346 -2.419380 1.076075 0.861738 1.376300 1.527442 1.461427 0.508617 1.394836 1.600919 1.265618 0.441391 1.960968 1.891124 1.883828 2.529409 1.822085 1.389396 1.975469 1.889231 1.532284 1.184974 0.277495 1.013379 0.681905 0.790928 0.885488 0.645475 0.894559 0.791033 0.736956 0.432251 0.679414 0.716083 2.165532 1.755830 1.894600 1.385208 1.417090 1.511676 1.064614 1.099438 -0.171798 -0.189843 0.028650 -0.099123 1.107618 1.022577 0.954946 1.038865 -1.495200 -1.362823 -0.768632 -0.726383 -0.829035 -0.736805 -0.667756 -0.975560 0.684741 0.655609 0.390490 0.714852 0.739339 1.116534 0.855710 0.980078 -0.008502 -0.064919 0.361363 0.157315 -0.002386 0.247556 0.048330 0.099929 -1.206369 -1.213461 -1.002539 -1.150701 0.396461 0.301029 0.105363 0.203836 -2.724463 -2.569755 -2.199607 -1.975998 -1.946374 -1.715682 -1.830404 -2.037452 -0.038341 -0.004757 0.184410 0.403631 0.976597 1.166496 0.954118 0.754773 -0.027781 -0.187542 0.163290 0.433860 -0.066690 -0.348842 -0.012135 -0.732140 -0.227790 0.892138 0.559258 -0.640391 -0.001769 0.554434 0.271989 -0.053961 0.745883 -0.448661 0.354904 -0.297839 2.129610 0.171523 -2.048144 -0.713784 1.019479 -0.276205 -0.661073 -0.377692 -0.800828 0.234312 -1.210513 -1.576976 0.777368 0.111386 -1.179166 1.339510 -2.229147 -1.584683 -0.512812 1.019064 -1.543862 0.481979 2.069814 0.041187 2.408242 0.735720 2.515797 0.659411 -0.855773 2.642348 0.846986 0.466052 -0.473362 -1.013464 -0.457583 0.531400 -0.067195 -0.417930 2.295050 2.184309 -1.331144 -0.907548
-0.063849 -0.184264 -0.196100 -0.233414 -0.260033 -0.297936 -0.269740 -0.084987 -0.158949 -0.051218 -0.079382 0.000912 -0.033314 0.037465 0.102386 0.105952 0.010255 -0.760919 -0.636840 -0.640312 -0.962980 -0.867569 -0.586504 -0.758798 -1.099724 -0.452104 -0.486086 -0.166728 -0.332754 -0.258242 -0.161169 -0.019166 -0.041615 0.249653 0.225382 0.243036 0.318850 0.234755 0.199506 0.359883 0.525158 -0.148417 -0.176488 -0.056931 -0.297904 0.048452 0.019846 0.222711 0.398107 0.638168 0.407786 0.341927 0.329510 0.452178 0.336792 0.293280 0.219846 0.597871 0.463375 0.404747 0.239238 0.641576 0.499068 0.693393 0.835670 0.330768 0.396122 0.449971 0.358584 0.334790 0.248175 0.269972 0.271563 0.016281 0.103927 -0.078447 -0.067892 -0.042690 0.024477 0.053940 0.166550 0.016404 0.043965 -0.047194 -0.018344 -0.207248 -0.267234 -0.180073 -0.074747 -0.166042 -0.074166 -0.089012 0.029160 0.081024 0.126531 0.227048 0.212993 -0.152776 -0.089802 -0.005190 -0.103126 -0.266813 -0.145813 -0.253978 -0.273066 -0.056097 -0.128533 -0.073287 -0.137589 -0.079005 -0.249907 -0.220995 -0.219149 0.050978 0.012291 0.043165 0.003188 -0.091308 -0.080995 -0.091370 -0.151195 0.069988 0.014716 -0.034168 0.056654 0.055229 0.027361 0.036987 0.020599 -0.163052 -0.020776 0.282414 0.119127 -0.005493 0.032756 0.497153 0.354533 0.188027 0.139064 -0.019510 -0.126050 -0.024774 0.153279 0.432680 0.756854 0.306774 0.258872 0.002325 0.044650 0.078529 0.394479 0.057859 -0.080426 0.155723 -0.038078 -0.101958 -0.026076 -0.140012 0.183236 0.069916 0.739539 0.622179 0.508173 0.333741 0.368834 0.227639 0.505215 -0.099571 -0.058440 0.175227 0.260371 0.102665 -0.002171 0.153064 0.443886 -0.075252 -0.095839 0.052749 -0.102102 0.013329 -0.121526 -0.068272 0.180318 0.065068 -0.011208 -0.037464 -0.223988 -0.050716 -0.050253 0.247869 -0.033127
3.735961 0.224293 0.241172 0.414002 0.402918 0.432745 0.424989 0.683451 0.625794 0.743732 0.483566 1.570648 1.145811 1.164330 0.759439 1.413727 1.331662 -0.038740 -0.090255 0.325729 -0.060084 0.570663 1.358931 0.763709 0.532116 0.695720 0.697327 1.607461 0.802044 0.674192 1.206489 1.055105 1.184713 -0.923632 -0.838831 -0.509216 -0.479268 -0.961075 -0.802791 -0.660618 -0.767075 -1.554654 -1.353532 -0.462500 -0.633354 -0.599098 -0.768080 -0.432918 -0.325656 -0.662472 -0.594408 -0.571003 -0.529483 -0.342505 -0.241149 -0.070684 0.146646 -0.487433 -0.369846 -0.614313 -0.835264 -0.694771 -0.328590 -0.721616 -0.622251 0.333457 0.330433 -0.156961 0.136602 -0.015491 -0.094094 0.399964 0.358381 -0.211621 -0.037028 0.307616 0.183091 0.142417 0.232190 0.095315 0.039461 0.821098 0.735112 0.517415 0.503719 0.534715 0.423130 0.713953 0.853123 0.299142 0.310791 0.672473 0.344999 0.672358 0.553853 0.139279 0.126230 -1.443419 -1.304534 -1.462735 -1.450705 -0.986642 -1.142855 -0.823202 -1.053387 -0.921945 -0.724504 -0.661840 -0.865323 -0.064637 -0.355113 -0.950525 -0.824502 0.677538 0.796634 1.329871 0.784654 0.977429 0.583168 0.228231 0.351943 1.210144 0.966660 0.458551 0.578732 0.043987 0.000480 -0.333832 -0.147482 0.259181 0.175132 -0.177312 0.387249 0.055047 0.409246 0.198069 -1.425058 0.416717 -0.411434 -0.374621 0.499111 -0.359872 0.324298 -0.810359 3.319340 -0.231404 -0.226649 0.138456 0.002238 -1.228255 0.262010 1.336887 0.402640 1.389564 0.320695 0.588404 0.702447 0.768571 0.254772 4.127857 -0.557560 -0.678429 -0.690094 -0.316694 0.357396 1.197251 0.344842 -1.864053 -1.087812 -1.009861 -1.174007 -1.851398 -1.308816 -0.113210 -0.562636 -1.935094 -0.245240 -0.648625 -0.480937 -2.059309 0.128267 -0.635588 -0.463640 0.167598 -0.774372 2.327768 -0.018004 -0.597519 -1.548606 -0.157070 0.865895
1.909745 -0.421193 -0.378772 -0.002722 0.035743 0.644723 1.027931 0.633568 0.722535 0.859077 0.908372 1.983582 1.544195 1.657489 1.394770 1.471737 1.389349 -0.093677 -0.223823 0.470627 0.498436 0.249182 0.833609 0.253695 -0.283093 0.910264 0.932062 1.302744 0.634580 0.810097 1.131164 0.797729 1.070441 -1.115299 -1.054130 -1.133963 -1.103226 -0.605624 -0.309399 -0.497696 -0.511128 -0.955344 -0.835629 -0.415166 -0.513129 0.100644 0.015388 0.300038 0.358392 -0.619482 -0.385909 -0.452064 -0.170532 -1.677675 -2.115317 -0.854326 -1.002304 -0.474090 -0.409534 -0.286207 -0.584469 -0.854166 -0.887479 -0.964425 -0.841432 0.763568 0.863828 0.440025 0.403790 -0.595650 -0.591864 0.207719 0.158998 -0.925429 -0.900881 -1.074506 -1.104594 -0.291698 -0.182481 -0.012346 0.085202 0.484299 0.360644 0.002183 0.071058 0.948741 0.898578 0.904360 0.963406 0.097380 -0.159475 0.057524 -0.025866 0.327270 0.293226 0.122333 0.108059 -0.088765 0.128165 -0.081685 -0.296647 -0.872104 -1.098670 -0.499021 -0.795782 -0.940266 -0.801156 -1.242566 -1.200508 -0.479516 -0.563480 -0.506490 -0.256060 0.799940 0.711347 0.745279 0.521907 1.193297 0.898067 0.381831 0.581416 1.079667 0.885506 0.373379 0.535238 -0.093096 0.029709 0.009983 0.153427 0.184557 0.203473 -0.294221 -0.063604 0.202891 0.391118 0.485481 -0.781249 0.581564 -0.186816 -0.026599 0.084075 0.130653 0.233233 0.333051 1.728243 -0.880593 0.448702 -0.665508 0.810077 -1.256575 -0.420739 -0.047143 0.664334 1.572062 -0.313687 -0.483060 0.205104 0.486342 0.238312 1.900307 -0.172400 0.680799 0.056428 -1.892302 -0.247115 2.292111 1.879087 -1.039410 -2.760403 -1.712008 -1.524083 -0.782980 1.111755 0.454899 0.282955 -0.408616 -0.812607 -1.877118 -0.827927 0.067081 0.609943 -1.196271 -0.482458 1.139962 -0.835390 0.460369 0.273268 -0.132372 -1.081563 -0.344319 0.676720
1.182631 0.574026 0.442275 0.285048 0.262122 0.736111 0.784525 0.562383 0.615283 0.408364 0.011886 1.182608 1.260507 0.734239 0.953927 0.605119 0.649056 -0.634240 -0.336872 -0.632838 -0.471100 -0.318127 -0.295535 -0.951980 -0.837601 -0.375356 -0.507007 -0.069148 -0.427560 -0.155622 -0.407622 0.007723 0.272748 0.157835 0.045591 -0.203520 -0.273130 0.248625 0.302771 -0.185946 -0.103262 -0.653073 -0.872626 1.107397 1.274780 0.147186 0.333891 0.097947 0.246514 -0.517140 -0.218121 -0.614915 -0.551684 0.095610 0.505145 -0.541500 -0.332334 -0.787353 -0.822442 0.465509 0.023418 -0.411255 -0.590473 -0.155021 0.036863 -2.508274 -2.268461 -1.696299 -2.072284 -1.363354 -1.149969 -1.625220 -1.801309 -0.665390 -0.658386 -0.790852 -0.915631 -0.389149 -0.417672 -0.894157 -0.779534 -0.200247 -0.225095 0.005479 -0.133313 0.553538 0.516519 0.378299 0.139973 1.412078 1.382039 0.699968 0.944696 -0.171721 -0.044127 -0.086574 -0.086368 -1.248677 -1.045552 -0.388238 -0.740644 0.580681 0.787478 -0.153290 -0.343484 0.809123 0.798724 0.515760 0.366869 0.293469 0.285667 -0.105093 0.096750 1.663134 1.318429 1.132966 0.972901 1.054407 1.041747 1.152058 0.944295 1.497572 1.440922 0.940313 1.215828 0.054488 0.170753 0.484619 0.499452 -0.101301 -0.347893 0.079009 -0.275450 -0.002856 0.211028 -0.063535 -0.599300 0.222908 0.240369 -0.106160 -0.116969 0.454169 0.033843 0.757653 1.402725 -0.058659 0.581704 -0.068221 0.528463 -0.492692 -0.504125 -0.269229 -0.159672 0.244370 -0.119259 -0.215779 -0.186295 0.017347 0.836789 1.488999 -1.768124 1.705438 -1.948966 -0.419308 2.540985 -2.930253 -1.289232 0.179759 -1.143358 -0.831399 -0.118331 -1.761227 0.526405 0.500717 -0.470247 0.290918 0.098090 0.037043 0.658226 1.251672 -1.302751 -0.023253 -0.371830 0.457279 0.369371 -0.094386 -0.376056 1.327730 0.287743 -0.019313 1.109787
0.630768 -0.565440 -0.514634 -0.219651 -0.229432 0.444933 0.870565 0.339672 0.483563 1.029752 1.007681 2.214689 1.664576 1.632808 1.575595 1.599624 1.597965 -0.288339 -0.350378 0.431695 0.549329 0.546970 1.577828 0.506516 -0.162947 0.628420 0.705067 1.371656 0.644098 0.384851 0.681510 0.374895 0.530705 -1.193823 -1.115204 -1.082356 -1.093325 -0.321173 0.035646 -0.334544 -0.385770 -1.432125 -1.314320 -0.994770 -1.154900 0.070671 0.163653 0.094283 0.110395 -0.845419 -0.638072 -0.573076 -0.302936 -0.406368 -0.359067 -0.047722 -0.417554 -0.837638 -0.719724 -0.172835 -0.599043 -1.136125 -1.114714 -1.185504 -1.129915 1.064613 1.129315 0.974820 0.939645 0.026320 -0.063696 0.501341 0.375962 -1.066140 -1.014569 -1.319522 -1.299968 -0.043141 -0.019325 0.178096 0.234296 0.110731 -0.011584 -0.477469 -0.365129 -0.138902 -0.211564 -0.338996 -0.227364 0.346029 0.098186 0.172636 0.171819 0.468539 0.451571 0.431741 0.379974 0.049153 0.187117 0.142374 -0.014725 -0.461048 -0.746381 -0.213093 -0.530362 -0.410906 -0.262106 -0.930381 -0.761902 -0.106831 -0.112891 -0.070659 0.153358 0.630191 0.552657 0.042857 0.031824 0.448844 0.229472 -0.211207 0.018180 0.818258 0.637935 0.154758 0.342385 -0.244729 -0.076648 -0.104875 -0.008118 0.000473 0.217448 -0.304198 -0.183021 0.163268 0.367750 0.530561 -0.333020 0.462933 0.031851 -0.283304 0.014385 0.322103 -0.020810 0.131571 1.334157 -0.067865 0.259131 -0.139751 1.206886 -1.185456 0.298232 0.244993 0.563319 1.417268 -0.362201 -0.407040 0.316364 0.347791 0.043183 0.865867 -0.810565 0.523402 0.120860 -0.561194 0.683445 2.197783 1.447986 -2.313215 -4.024734 -0.805603 -0.869157 -0.093721 0.833187 0.591333 0.889825 -0.753961 -0.507571 -1.722703 -0.898233 0.735019 0.552714 -0.743714 0.580901 0.488463 -0.582381 0.448771 0.399220 -0.399238 -1.933482 -0.144245 0.492036
0.155704 0.536120 0.384651 0.139902 0.125372 0.699396 0.518174 0.526195 0.545156 1.100023 0.246277 1.356149 1.897414 0.483739 0.854430 0.423218 0.373898 -0.507446 -0.023287 -0.464267 0.001898 -1.299823 -1.867598 -1.824792 -1.452463 -0.360480 -0.373245 -0.690839 -0.711426 -0.416194 -0.850481 -0.334127 -0.229651 0.144504 -0.029496 -0.686643 -0.844326 0.608548 0.418536 0.218119 0.323973 0.401925 -0.508018 2.210293 2.670637 -0.228227 0.165730 -0.477242 -0.435528 -0.248980 0.000593 -0.217757 -0.216732 -0.186858 0.133470 -0.707191 -0.514823 -0.370690 -0.477246 0.589645 0.062464 -0.213915 -0.568804 0.061473 0.272376 -1.332958 -1.061505 -0.286796 -0.776044 0.086910 0.332378 -0.677089 -0.837454 -1.043019 -1.069441 -1.484765 -1.542505 -1.070693 -1.134506 -1.272289 -1.099919 -0.345762 -0.459311 -0.096848 -0.207990 -0.021492 -0.032303 0.164507 -0.079368 0.321771 0.387930 -0.108014 0.208866 0.114647 0.270125 0.587981 0.583418 0.042173 0.109685 0.586247 0.230720 1.445807 1.676030 0.590037 0.503517 0.788525 0.713351 0.232585 0.184671 -0.639120 -0.477125 -0.145527 0.054489 0.878557 0.476295 0.498926 0.520754 0.569647 0.701568 1.065090 0.777825 -0.003236 0.051807 -0.008209 0.188713 0.059578 0.139119 0.752324 0.572421 -0.228308 -0.505361 0.208055 -0.291692 -0.103688 -0.073546 -0.048984 0.008746 0.173246 0.404253 0.185578 -0.241576 0.398413 0.094200 0.910236 0.108130 0.298559 0.761523 -0.103857 0.046786 0.899441 -0.428026 -0.864721 -0.134125 -0.113453 0.228967 -0.678498 -0.386950 -0.094320 0.640846 0.912960 -2.736381 2.209955 -0.804605 -0.658699 1.423763 -1.185820 -1.800605 1.305510 0.290670 -3.143257 -1.059287 -1.489468 1.496311 0.894819 -0.842001 1.082511 -0.010584 1.468412 0.318368 2.689178 -2.138188 0.705040 -0.286542 0.166725 1.131564 -1.600088 -0.951074 1.379061 0.783183 0.227737 1.006021
-0.017101 -0.381991 -0.324288 -0.296529 -0.310094 -0.310333 -0.219747 -0.360164 -0.381067 0.230935 0.073315 0.568309 0.560597 0.114648 0.139632 0.169628 0.177464 -0.694551 -0.752225 -0.541111 -0.460473 0.692231 0.506638 0.219065 0.128153 -0.160679 -0.130579 -0.019399 -0.146183 -0.197117 -0.211571 -0.093101 -0.116661 -0.411632 -0.375334 -0.315166 -0.354064 -0.287108 -0.235535 -0.381153 -0.405779 0.360091 0.156883 1.120698 1.194223 0.069217 0.159529 0.083380 0.004677 -0.479624 -0.464008 -0.371288 -0.331377 1.276248 1.284547 0.604543 0.343120 -0.065602 -0.053795 0.137302 -0.141983 0.029280 -0.009450 0.189617 0.179686 -1.409846 -1.408324 -1.233678 -1.295945 -1.069716 -1.127807 -1.266797 -1.307218 -1.111727 -1.123642 -1.186745 -1.188762 -0.777788 -0.830501 -0.903126 -0.833419 0.128994 0.088805 0.145174 0.156461 0.182582 0.204137 0.074060 0.109290 0.488575 0.422390 0.298783 0.379056 -0.013901 0.005290 0.091237 0.117203 0.004528 -0.005391 0.137385 0.057130 0.227863 0.163924 0.066728 0.047003 0.432263 0.440807 0.288393 0.320655 0.472136 0.432803 0.436232 0.509511 1.136564 1.136544 1.185411 1.199568 0.935053 0.947022 0.866053 0.932301 0.449874 0.420735 0.464792 0.504966 0.240238 0.280424 0.215729 0.232558 -0.086045 0.026871 -0.139155 -0.135640 0.045008 0.080947 0.166337 0.204290 -0.075909 -0.039190 0.042210 -0.150777 -0.023365 0.083982 0.153781 0.212976 0.169372 0.272332 0.405873 0.033214 0.862998 0.462452 -0.154717 -0.065719 0.282246 0.030624 -0.136126 -0.007872 0.062700 -0.079646 1.588906 -1.019975 -0.068365 0.163406 0.306081 -0.279177 -1.118156 0.291660 -0.937735 -0.282200 -0.741153 -0.443434 -1.951991 -1.581144 1.361795 0.868481 -0.068734 -0.125781 0.062515 -0.011965 0.460157 0.146356 -0.047272 0.265455 0.011377 -0.047000 -0.255475 0.163715 -0.096007 -0.220101 0.336012 0.025820
0.909706 -0.151449 -0.234824 -0.341125 -0.544948 -0.179045 -0.212274 -0.241458 -0.383795 0.903312 0.548368 0.358453 0.570521 0.054107 -0.064914 -0.037470 -0.213611 0.161447 0.318240 0.296017 0.492836 0.362511 0.055452 0.364979 0.489660 1.142885 1.180144 0.363070 0.510536 0.991644 1.050792 1.157773 1.066829 -0.756493 -0.770566 -0.977322 -1.143521 -0.512015 -0.368506 -0.410212 -0.546789 -0.283286 -0.233557 -0.964950 -0.860345 -1.042028 -1.022836 -0.919967 -0.741736 -0.142924 -0.084394 0.077238 0.249443 -0.528412 -1.145133 -0.581713 -0.199397 0.678524 0.785500 0.017552 0.117641 0.723964 0.798886 0.971635 0.890763 -0.089371 -0.099249 -0.001398 0.000709 0.620946 0.467723 -0.117955 -0.022457 0.857980 0.887641 0.682116 0.706170 -0.532968 -0.356583 -0.442381 -0.285440 1.254972 1.079032 0.843120 0.838422 0.168003 0.005254 0.108869 0.255454 -1.455510 -1.503256 -1.251328 -1.160220 -0.970277 -1.070608 -0.310892 -0.426588 1.770554 1.706742 1.329694 1.260109 1.345421 1.208519 0.636770 0.702217 0.626112 0.628532 0.436011 0.356043 -0.329638 -0.220177 -0.106395 0.024670 0.675126 0.433164 0.193663 0.192771 -0.314123 -0.438037 -0.055528 0.016246 -1.847726 -1.881989 -1.666157 -1.658308 -0.899761 -0.989071 -0.417294 -0.488384 0.136752 0.041298 -0.037387 0.131760 0.079092 -0.001208 0.152007 0.127420 0.023719 -0.490175 0.202819 0.272979 0.166708 -0.101144 0.358798 0.187407 -0.611731 1.116507 0.204259 -0.253947 0.876114 0.551380 -0.069410 -0.168780 -0.238295 0.494553 0.118588 -0.270119 0.793228 -0.107259 2.068889 0.418039 1.012273 0.092562 0.309500 -0.029293 1.542774 -0.982070 -0.312639 0.284268 -0.663984 -1.630734 -0.402541 0.843189 -3.440951 -1.507121 -0.454451 0.003368 0.365208 -0.639010 -0.242641 1.562801 -0.418020 -0.315432 -0.021567 -0.334680 0.058180 -0.133464 -0.712368 -0.897707 0.005998 0.012036
-1.329151 -0.706954 -0.682429 -0.422038 -0.421524 0.438923 0.862343 0.320141 0.388309 1.041309 0.960109 2.249819 1.663161 1.628285 1.689693 1.540017 1.480354 -0.254435 -0.488329 0.366568 0.360782 0.765979 2.050022 0.718452 -0.107709 0.263931 0.350209 0.965459 0.376526 -0.181831 0.010100 -0.295688 -0.221367 -1.278451 -1.204745 -1.150165 -1.153819 -0.349809 0.060746 -0.355604 -0.355132 0.103231 0.040607 0.916229 0.682516 1.059638 1.271031 0.891315 0.894880 -0.979164 -0.702887 -0.705186 -0.427215 -0.745447 -0.583842 -0.224934 -0.743143 -1.465082 -1.333484 -1.008041 -1.311640 -1.853815 -1.939037 -2.051912 -2.034973 2.038545 2.073484 1.917251 1.818041 0.782182 0.725552 1.306779 1.197941 -0.946550 -0.921832 -1.216135 -1.122320 -0.062109 0.005328 0.351522 0.377814 -0.548076 -0.747949 -1.320846 -1.114144 -0.899247 -0.977441 -1.106846 -1.009362 0.593494 0.342034 0.276862 0.292203 0.664687 0.696546 0.714089 0.588982 0.717596 0.802007 0.710766 0.570109 -0.162834 -0.505986 0.177760 -0.160074 -1.477643 -1.340619 -2.013581 -1.825362 -0.999753 -1.042994 -0.748754 -0.694314 0.286526 0.164017 -0.447880 -0.262016 -0.137657 -0.316899 -0.651969 -0.407019 0.813331 0.649742 0.248847 0.384046 0.299906 0.458001 0.387612 0.425456 -0.058391 0.231075 -0.229935 -0.391174 0.128562 0.403945 0.728462 -0.253315 1.034279 0.280201 -0.276557 -0.117597 0.353448 -0.175116 0.239395 1.066982 -1.085954 0.561507 -0.147679 1.143012 -1.037381 0.550974 0.510894 0.875262 1.879787 -0.419591 -0.841633 0.687664 0.262984 0.338589 -0.945565 -1.396256 1.433708 0.025371 0.216668 1.330936 3.178643 2.333280 -3.476127 -4.783563 -0.822361 -0.873311 1.369960 2.409711 0.778764 1.714392 -1.380463 -0.928185 -2.233068 -0.827903 1.332552 0.532615 -0.816488 1.013993 0.354981 -1.208480 0.324458 0.784327 -0.561222 -2.456731 -0.296229 0.748612
-0.153653 0.176102 -0.029425 -0.261466 -0.206503 0.454310 0.362320 0.216983 0.362718 0.356744 -0.113710 1.086256 1.625188 0.334831 0.807214 0.211369 0.191345 -0.698824 -0.243478 -1.020514 -0.439095 -1.194109 -2.028471 -1.898411 -1.602926 -0.445111 -0.551075 0.005540 -0.273239 -0.246696 -1.106428 -0.168220 0.042792 -0.048784 -0.251891 -0.952677 -0.986204 0.476204 0.248260 0.055740 0.275230 0.455863 -0.182135 2.199424 2.769755 0.062726 0.652689 -0.159379 -0.115212 -0.092159 0.133677 -0.333127 -0.396504 0.232608 0.716652 -0.650683 -0.644750 -0.138505 -0.313470 1.353244 0.422218 0.209168 -0.325157 0.563895 0.903620 -2.379051 -2.034838 -1.079589 -1.771709 -0.645871 -0.385298 -1.363776 -1.668738 -1.002932 -1.057971 -1.749288 -1.807639 -1.111016 -1.337418 -1.799456 -1.491144 0.138603 0.062477 0.453287 0.295402 0.293538 0.298158 0.437591 0.211414 0.721789 0.816332 0.245237 0.602571 0.167869 0.383549 0.631655 0.706028 -0.387517 -0.188509 0.491050 -0.069483 0.751257 1.100078 0.060954 -0.072836 0.754472 0.585874 0.058122 0.020415 -0.312250 -0.259683 -0.134218 0.110056 1.393319 0.946728 0.988050 0.974342 0.881264 0.988464 1.387396 1.111240 0.389280 0.516146 0.260404 0.568640 0.421243 0.564577 1.166607 1.001097 -0.174536 -0.516862 0.104586 -0.292567 -0.040536 -0.202651 -0.127771 -0.132449 0.259264 0.610050 0.068340 -0.194018 0.544816 0.514629 0.673958 -0.215487 1.371712 0.507164 -0.371442 0.387391 0.622125 -1.951533 -1.630100 -0.221735 -1.041519 -0.330888 -0.854139 -0.646674 -0.439738 0.783624 1.070053 -2.038672 0.347132 -1.074389 -0.537238 1.794794 -1.303652 -0.828665 1.759281 -0.990081 -3.907421 -0.444125 -0.174961 1.111336 2.330734 -1.232356 2.332523 0.047312 1.189122 -0.209001 2.925140 -2.499871 0.877312 -0.902591 1.274724 1.583441 -2.327816 -1.514115 1.653538 2.248430 0.191540 0.776675
-1.820697 -0.745645 -0.658122 -0.715157 -0.687325 -0.756571 -0.698397 -0.858415 -0.843144 0.049289 -0.351323 0.300657 0.367177 -0.348406 -0.159917 -0.318029 -0.355738 -0.215256 -0.308598 -0.505053 -0.548651 1.128981 0.893295 0.863620 0.740368 -0.504077 -0.444831 0.078746 -0.159544 -0.563080 -0.349264 -0.498004 -0.553066 -0.340987 -0.319886 -0.222311 -0.233871 -0.321911 -0.345100 -0.464380 -0.475567 0.550021 0.128457 1.267658 1.361730 0.123071 0.223157 0.052301 -0.045450 -0.208042 -0.198068 -0.151259 -0.230512 1.468849 1.461140 0.515366 0.155661 0.161338 0.102220 0.348691 0.012569 0.371593 0.261949 0.477185 0.417172 -1.259980 -1.279110 -0.974723 -1.096752 -0.466459 -0.506103 -0.826383 -0.895522 -0.704740 -0.728486 -0.866485 -0.861709 -0.744649 -0.821802 -0.953121 -0.895436 -0.349969 -0.403659 -0.411810 -0.408753 -0.767149 -0.740864 -0.775329 -0.760080 0.079829 0.067443 -0.262025 -0.128239 -0.436770 -0.389574 -0.296493 -0.230517 0.362850 0.324735 0.506561 0.475979 0.753727 0.660476 0.491501 0.482434 0.049922 0.091111 -0.253086 -0.195470 0.211907 0.167086 0.270845 0.250893 0.842676 0.842937 0.860077 0.894620 0.459429 0.486830 0.608982 0.640692 0.956011 0.968566 0.906097 0.968533 1.044581 1.080332 1.028387 1.034499 0.012688 -0.084180 -0.045659 -0.118944 0.073241 0.080675 0.013932 0.223859 -0.076361 0.035593 -0.129492 -0.060785 -0.235289 0.080089 0.200635 0.069373 0.920966 0.325119 0.726950 0.223771 0.488421 0.118850 0.022461 0.174943 0.395546 0.000045 -0.216335 0.060397 0.050933 0.150708 0.524615 -0.843732 -0.769251 0.045195 0.047449 0.118292 0.565457 0.962179 -0.859703 -0.602601 -2.057414 -0.361630 -0.815135 -0.916983 1.627790 1.083851 -0.008499 -0.317751 0.628337 0.419363 0.285681 -0.506435 0.058569 0.769100 0.016518 0.044228 -0.254756 0.147305 -0.590786 -0.479415 0.278300 0.131160
1.044359 -0.434486 -0.490790 -0.485854 -0.594177 -0.566818 -0.817212 -0.596666 -0.774446 0.214447 -0.007971 0.073530 0.138585 -0.203738 -0.253646 -0.210791 -0.267056 0.808393 0.940148 0.583100 0.639669 1.003709 0.913916 1.472647 1.603370 1.038313 0.999304 0.127126 0.512014 0.955746 0.549732 0.804764 0.647993 -0.607562 -0.629530 -0.246949 -0.335664 -0.361187 -0.356280 0.080637 -0.008312 -0.637658 -0.548264 -1.860088 -1.837401 -1.062734 -1.076656 -0.771965 -0.574495 0.465004 0.611197 0.592832 0.648144 -0.975702 -1.804454 -0.775390 -0.215086 0.935553 0.886803 -0.161177 0.108183 0.830617 0.836300 0.844847 0.727940 0.345539 0.266278 0.114753 0.214167 0.365495 0.315826 -0.080992 0.030251 0.869713 0.870657 0.932302 0.911257 -0.216703 -0.012570 -0.132465 -0.005597 1.242848 1.123554 1.025473 1.027612 0.691867 0.665734 0.714160 0.726859 -1.882959 -1.875368 -1.426649 -1.395316 -1.004762 -1.056347 -0.351246 -0.444210 1.567645 1.423413 0.915117 0.849663 0.719207 0.748562 0.322616 0.467852 0.878593 0.760114 0.851908 0.727842 0.370761 0.425796 0.404154 0.515295 -0.352671 -0.495578 -0.409500 -0.476596 -0.415114 -0.482528 -0.240974 -0.238980 -1.928060 -1.961874 -1.630087 -1.664517 -0.791183 -0.930846 -0.659465 -0.795366 0.098825 -0.018730 -0.082856 0.184492 0.139089 -0.129043 -0.095277 0.075476 0.169323 -0.399648 0.293779 -0.025662 -0.336778 0.001379 0.374250 0.044279 -0.563126 0.802499 0.153069 0.029001 1.617231 1.180711 -0.494355 -0.610288 0.113252 0.384080 0.641830 -0.467556 0.015309 0.228143 2.060919 0.364617 0.265042 0.317405 -0.256762 -0.475356 -0.164529 -0.970536 -0.298424 0.964332 -0.329055 -2.586085 0.432886 0.325812 -1.631898 -0.864560 0.297216 0.749214 -0.463492 0.684803 -0.925883 2.150146 -1.308955 -1.067115 -0.320818 0.035378 0.215197 -0.196388 -0.350188 -0.038771 0.003995 -0.360305
-0.449151 -0.044162 -0.048258 -0.121746 -0.126979 -0.191285 -0.306551 -0.243010 -0.224274 -0.593070 -0.572122 -0.804100 -0.713587 -0.748235 -0.741733 -0.765910 -0.766772 -0.011894 0.118000 -0.165511 -0.140859 -0.007636 -0.079363 0.024725 0.249902 -0.269543 -0.326421 -0.543397 -0.373066 -0.178759 -0.293393 -0.192563 -0.219621 -0.084842 -0.102245 -0.139283 -0.142121 -0.124359 -0.216102 -0.109647 -0.086504 0.957066 0.967156 0.819206 0.830313 0.293563 0.274878 0.254465 0.201987 0.101559 0.025451 0.098843 0.003324 0.388588 0.449091 0.195680 0.327298 0.323384 0.297710 0.222153 0.370923 0.605723 0.672972 0.654978 0.640833 -0.714634 -0.712804 -0.693702 -0.647117 -0.371505 -0.372033 -0.426827 -0.415705 0.082880 0.110346 0.132883 0.100581 -0.010044 -0.009471 -0.043491 -0.088842 -0.222179 -0.207095 -0.122280 -0.149605 -0.224065 -0.190420 -0.132243 -0.133460 0.077907 0.104125 0.179891 0.160038 0.077018 0.053242 0.060203 0.072308 -0.158052 -0.161795 -0.191788 -0.167827 0.041223 0.134811 0.029746 0.069184 0.177079 0.158492 0.342392 0.294483 0.257281 0.267201 0.237767 0.230160 0.267835 0.249822 0.249368 0.244865 0.129222 0.185751 0.383481 0.313318 -0.083757 -0.082488 0.017673 -0.007790 0.213070 0.164561 0.222451 0.199213 -0.042827 -0.031438 0.065546 0.136117 -0.082212 -0.126146 -0.106105 -0.020767 -0.168185 0.028660 0.114069 0.148261 -0.000590 0.109975 -0.293517 -0.181744 0.453157 -0.136820 -0.131427 -0.075773 0.521055 0.143745 0.167329 -0.220049 -0.211528 0.015078 0.216552 -0.088151 -0.051036 -0.080190 0.339902 0.490259 -0.564520 -0.132622 -0.071537 -0.349030 -0.799957 -0.887368 0.523325 0.839299 0.046576 0.245728 -1.290212 -0.023449 0.040575 -0.455091 -0.100994 0.322401 0.508656 0.098833 -0.121128 -0.199336 0.055171 0.027975 -0.198060 0.348572 0.136480 -0.274258 0.048373 0.468644 0.130024 -0.215293
0.656883 -0.340510 -0.294796 -0.140836 -0.198843 -0.228374 -0.129157 -0.282145 -0.311415 -0.284560 -0.207233 -0.161563 -0.320222 -0.281296 -0.365616 -0.324854 -0.348343 0.063739 -0.091214 0.245642 0.094102 0.604954 0.862995 0.782434 0.685755 0.143304 0.124452 0.112059 0.090942 0.092066 0.327466 0.061156 -0.015078 -0.466131 -0.406150 -0.310823 -0.293528 -0.406246 -0.298468 -0.293456 -0.355741 0.123080 0.425547 -0.173587 -0.289150 0.100852 0.027607 0.201361 0.283405 0.029016 -0.033054 0.161818 0.199788 0.253528 0.128168 0.321536 0.345671 0.230288 0.303707 -0.002182 0.140778 0.230190 0.350010 0.134846 0.029194 0.200226 0.078317 -0.180416 0.014805 -0.137308 -0.241999 -0.046895 0.025252 0.164621 0.191414 0.136611 0.164403 -0.178700 -0.136430 -0.025684 -0.067133 0.636571 0.647379 0.469643 0.554780 0.147124 0.148741 0.139878 0.238540 -0.432947 -0.466487 -0.305414 -0.399193 -0.372968 -0.427558 -0.380327 -0.396526 1.000156 0.933369 0.736859 0.911548 0.777021 0.651604 0.856982 0.847690 0.479053 0.569057 0.467472 0.487855 0.443950 0.441811 0.476577 0.436364 -0.331475 -0.278521 -0.388230 -0.390018 -0.462420 -0.518396 -0.536897 -0.455458 -0.714886 -0.781397 -0.715011 -0.780245 -0.769528 -0.800885 -0.876767 -0.822670 0.019621 0.182666 -0.037106 0.068604 -0.021256 0.083218 0.081252 -0.075536 -0.095115 0.007839 -0.034151 0.103531 -0.135915 -0.148431 -0.211415 0.333181 0.143042 -0.362445 0.003449 0.250346 0.053351 0.726888 0.419872 0.135426 0.391658 0.113102 0.261443 0.227422 0.088605 -0.171961 0.878431 0.262554 -0.744557 0.412432 0.198172 -0.293414 0.500324 0.055573 -0.566041 -0.772438 0.781403 -0.132590 0.245678 -1.541604 -0.371966 0.361783 -0.747050 -0.209984 -0.465969 0.064686 -0.841771 0.633229 -0.150745 0.232677 -0.218575 -0.506117 0.577393 0.452211 -0.306658 -0.959723 -0.153139 -0.096267
-0.233288 -0.446236 -0.356106 -0.334486 -0.279610 -0.110646 0.096611 -0.221594 -0.157686 0.116413 0.081373 0.571385 0.376263 0.278645 0.391376 0.192014 0.170867 -0.127908 -0.197637 0.090888 0.162584 -0.104767 0.394972 0.078525 -0.217639 -0.277478 -0.242411 0.055162 -0.170606 -0.390087 -0.164843 -0.417031 -0.439176 -0.473107 -0.432245 -0.458271 -0.416101 -0.144412 -0.027833 -0.111988 -0.085351 -0.336697 -0.353597 -0.201887 -0.311977 -0.149686 -0.052584 0.130413 0.189870 0.170217 0.301159 0.291703 0.346957 -0.026036 0.176998 0.187828 -0.023205 0.369556 0.389044 0.533084 0.350234 0.474568 0.423692 0.336136 0.299102 -0.577887 -0.600146 -0.637573 -0.639800 -0.614283 -0.658181 -0.452789 -0.545126 -0.395703 -0.386615 -0.561926 -0.476780 -0.703040 -0.692737 -0.542926 -0.518629 0.642099 0.571160 0.261062 0.389992 0.380189 0.386096 0.373229 0.411089 0.062920 0.023371 0.041616 0.037857 -0.220943 -0.167533 -0.238332 -0.253200 1.002798 1.005993 0.933573 0.952724 0.763562 0.588631 0.844126 0.739144 0.151861 0.232893 -0.178489 -0.055686 -0.009671 0.015500 0.233542 0.205204 0.060823 0.029454 -0.255746 -0.158903 -0.166491 -0.180247 -0.285179 -0.201637 0.081383 0.044129 -0.118463 -0.091684 0.015129 0.065776 -0.092507 -0.101361 -0.038754 0.043966 -0.061284 -0.207227 0.069013 0.172428 0.052273 0.058389 0.292286 0.262697 -0.261001 0.005704 0.015871 -0.004853 0.162862 0.350645 0.101779 0.134085 -0.140658 0.698687 -0.453104 0.445483 0.432294 0.414750 0.453143 -0.190445 -0.180350 0.241429 0.028856 0.170185 -0.434880 -0.645488 0.100239 0.043466 0.283675 0.617754 0.955230 1.019798 -1.015039 -2.201218 -0.188493 -0.489730 1.114373 0.703866 -0.198495 0.986897 -0.689062 -0.602504 -0.371388 -0.090101 -0.110676 -0.293168 0.075742 0.652386 0.060760 -0.308032 0.053012 0.326458 -0.502314 -1.409188 -0.103541 0.461038
0.100191 0.138374 0.062534 0.100265 0.196478 0.003969 -0.135561 -0.127653 -0.077021 -0.337880 -0.357126 0.081482 0.038363 -0.161072 0.019044 -0.177059 -0.143084 -0.215712 -0.127720 -0.410673 -0.483030 -0.516083 -0.809634 -0.719622 -0.619655 -0.733523 -0.818646 -0.435406 -0.654423 -0.702924 -1.088740 -0.718127 -0.619137 0.250083 0.171305 0.410761 0.476874 0.105373 -0.003793 0.189189 0.247009 0.197602 -0.087575 0.876701 0.966309 0.441087 0.705703 0.484600 0.379474 0.300725 0.202295 0.089896 -0.143089 0.753209 1.100104 0.463082 0.267669 -0.094586 -0.207814 0.897806 0.522182 -0.002055 0.116284 0.201587 0.371196 0.595944 0.718586 0.941780 0.750629 0.532198 0.661921 0.313560 0.246665 0.054492 0.048186 0.042004 -0.006413 0.465710 0.304201 0.171207 0.234433 -0.056219 0.077660 0.328764 0.228622 0.240727 0.190742 0.139723 0.069274 0.381108 0.430113 0.127451 0.316426 0.278176 0.401715 0.255444 0.393545 -0.566204 -0.467919 -0.241737 -0.459809 -0.301764 -0.072305 -0.437361 -0.477020 -0.536750 -0.663482 -0.598907 -0.673446 -0.006484 -0.119144 -0.358926 -0.274067 -0.708031 -0.700597 -0.527442 -0.501849 -0.517138 -0.516121 -0.484896 -0.580130 0.126133 0.197943 0.028362 0.139257 0.107166 0.143302 0.137556 0.133623 -0.130929 -0.115235 0.028854 0.086164 0.026650 -0.239257 -0.122430 -0.220617 -0.145160 0.289762 0.298301 -0.206477 -0.170502 0.236704 -0.146489 0.065899 0.970156 -0.122066 0.290970 0.236798 0.333775 -0.869881 -0.677633 -0.083182 0.018060 -0.418461 -0.310530 0.009421 -0.419653 0.402177 0.562386 -0.379661 -0.455687 -0.271543 -0.087750 -0.119699 -0.941675 0.096712 -0.400397 0.262574 -1.323003 0.586268 0.660203 -1.409052 2.379829 -0.405423 0.662812 0.325480 0.494261 0.976868 0.564147 -1.061606 -0.407404 -0.353758 0.144399 0.725158 0.287958 -0.746720 0.666595 1.717649 0.282189 -0.271632
-1.316702 -0.883382 -0.808637 -0.672887 -0.719688 -0.101670 0.239346 -0.136442 -0.019095 0.713366 0.916017 1.415615 1.249675 1.153520 1.057642 1.055496 1.039431 0.754130 0.631473 1.078047 1.062215 1.142600 1.217176 1.030659 0.664957 1.130807 1.031628 1.414213 0.942062 0.955513 1.036021 0.911796 0.999120 -1.330695 -1.238814 -1.303125 -1.317386 -0.477839 -0.042417 -0.496519 -0.457238 0.046541 0.321172 0.672502 0.579385 0.659497 0.540560 0.582599 0.697541 -1.296040 -1.042983 -1.055631 -0.890503 -1.322079 -1.196792 -0.942337 -1.212508 -1.374331 -1.281969 -1.037855 -1.301855 -1.504464 -1.582009 -1.632000 -1.579834 1.521475 1.579551 1.403393 1.404630 0.663096 0.655256 1.139244 1.095479 0.321114 0.317792 0.156555 0.170046 0.648992 0.642639 0.786424 0.831464 0.065972 -0.053393 -0.399716 -0.284322 -0.109138 -0.107618 -0.130495 -0.080936 0.585246 0.464692 0.472674 0.395449 0.554690 0.598921 0.678022 0.612912 -1.080913 -0.916607 -0.993449 -1.198617 -1.508973 -1.725875 -1.304267 -1.476333 -1.628587 -1.554061 -1.916754 -1.918016 -1.811233 -1.828451 -1.782776 -1.634818 0.618984 0.540273 0.238938 0.246794 0.590435 0.490504 0.291951 0.380513 0.648667 0.570205 0.287908 0.378295 0.159924 0.321390 0.207015 0.391123 -0.034928 0.206788 -0.167223 -0.454361 0.155370 0.314647 0.509697 -0.002519 0.489812 0.195067 0.085751 0.085473 0.329527 -0.266195 -0.063373 0.699713 -0.391175 -0.017367 -0.805278 -0.079347 -0.497257 0.227096 0.347132 0.683170 0.525789 -0.146389 -0.711065 0.344804 0.048973 -0.078989 -0.534504 -1.064777 0.325887 0.356939 0.112021 1.059649 1.119839 1.346625 -0.441515 -2.070760 0.317806 -0.240277 1.761094 1.798827 0.361943 0.799730 -2.016822 -1.330177 -1.926570 -1.410316 1.285398 0.303224 -1.110569 0.230691 0.419299 -1.041900 0.260801 0.348566 -0.253916 -1.101252 0.093761 0.890796
-2.335691 -0.913482 -1.108744 -1.030855 -1.046383 -0.614519 -0.293728 -0.662838 -0.503909 -0.524210 -0.158306 -0.216178 0.184005 0.010498 0.341428 -0.090424 -0.023966 -0.346886 -0.169239 -0.559834 -0.144391 -1.344638 -1.749966 -1.384611 -1.407045 -0.364103 -0.542793 0.042405 -0.266437 -0.221360 -0.866836 -0.210302 0.134001 0.229006 0.171574 -0.690394 -0.682721 0.552789 0.397351 -0.429207 -0.134858 0.980250 1.029042 1.557330 1.865254 0.990885 1.301715 0.635041 0.502939 0.591904 0.703821 0.183363 0.200339 -0.287374 0.264684 -0.689369 -1.355801 0.415507 0.195612 1.565148 0.630105 0.731091 0.123321 0.921118 1.248489 -2.071758 -1.756559 -0.908003 -1.677271 -0.958274 -0.736792 -1.464273 -1.716279 -0.619240 -0.707354 -1.409130 -1.305294 -0.925553 -1.300514 -1.584485 -1.276214 -1.260707 -1.098394 -0.738368 -0.902013 -0.608229 -0.621864 -0.772047 -1.040736 -0.286058 -0.373315 -1.090410 -0.719003 -1.176277 -0.975541 -0.645801 -0.541416 0.196602 0.478069 1.084279 0.538138 1.016726 1.305294 0.701497 0.502340 1.313281 1.194061 0.716116 0.770180 0.259653 0.213975 0.278352 0.546901 1.308087 1.209139 1.311689 1.320649 1.242183 1.329449 1.506794 1.296736 0.978637 1.098869 0.876862 1.165932 0.997403 1.126542 1.524132 1.522913 -0.199205 -0.330205 0.054456 -0.338227 -0.013430 -0.283891 0.197359 0.379206 0.323591 0.807004 0.123613 -0.538949 0.915274 0.224305 0.807883 -1.284910 0.624969 -0.404375 -1.124038 0.688874 0.452311 -2.116923 -1.733945 -0.203359 -1.593064 -0.770400 -1.172106 -0.478863 -0.519693 -0.091181 -1.140465 -1.045738 0.775450 -0.373171 0.179703 -0.099202 -1.043965 -0.413153 2.199184 0.161073 -0.674259 1.206297 3.588141 1.868586 2.070128 -1.039229 2.568706 -0.764030 -0.549947 -1.243359 3.477317 -2.195698 0.841370 -0.671353 0.834801 1.462432 -2.390072 -1.264727 1.757319 2.969057 0.306096 -0.226151
-1.861410 -0.460902 -0.342847 -0.576834 -0.522942 -1.271898 -1.510024 -1.183094 -1.233699 -1.106021 -1.194665 -1.292061 -0.985495 -1.843747 -1.568393 -1.659793 -1.699260 -0.113755 0.077091 -0.340296 -0.404387 0.318648 -0.513366 0.060749 0.648626 -0.514031 -0.564587 -1.108349 -0.487194 -0.441430 -0.533178 -0.465379 -0.685424 0.765391 0.795712 0.946809 0.973739 0.088064 -0.096994 0.202299 0.202692 0.798857 0.694881 1.331392 1.286541 -0.107929 -0.203024 -0.427434 -0.380160 0.716148 0.477484 0.554497 0.242711 1.872265 1.634709 0.570103 0.779882 0.837093 0.796438 0.372026 0.733279 1.284444 1.293250 1.370600 1.250758 -1.456387 -1.577619 -1.288744 -1.193253 -0.463836 -0.418537 -0.969736 -0.858122 0.232939 0.234669 0.454653 0.392971 -0.031445 -0.105623 -0.370159 -0.461198 0.130761 0.212094 0.345127 0.323507 -0.244427 -0.151537 -0.167285 -0.137773 0.685795 0.809827 0.627161 0.564064 -0.163012 -0.115185 0.028119 0.060302 -0.511621 -0.645532 -0.372856 -0.218560 0.142618 0.369175 -0.061072 0.205926 0.549899 0.438312 0.973449 0.867715 0.493036 0.457352 0.379392 0.165780 0.097660 0.063306 -0.247192 0.071756 -0.415730 -0.159974 0.288526 0.081077 -0.224716 -0.164825 0.151153 -0.085797 0.225777 0.147497 0.092019 0.056927 -0.059604 -0.143737 0.134994 0.100567 -0.189801 -0.131771 -0.552617 0.272057 -0.638850 -0.010369 0.090447 0.085235 -0.300882 -0.073768 -0.054106 -0.000072 1.083207 0.104565 0.381454 -0.901783 0.879335 0.422798 0.447208 -0.140963 -0.351036 0.136181 0.692911 0.022674 -0.533981 0.181717 -0.616549 -0.195781 -1.478072 0.316259 0.742590 0.148911 -2.416221 -1.168205 0.548062 2.121414 0.770188 0.392540 -1.161585 -1.793844 0.676770 0.769629 -0.405857 0.419861 0.692758 2.143182 -0.423478 -1.096596 -0.119409 0.133697 -0.639757 0.553181 0.154824 -0.045319 -0.047305 0.829729 0.541265 -0.415699
1.309862 -1.686231 -1.467972 -1.331158 -1.441104 -1.522112 -1.455989 -1.540436 -1.629308 -0.507549 -0.172590 -0.398162 -0.649020 -0.880321 -1.175019 -0.789629 -0.914530 0.445237 0.279641 1.114703 0.858153 1.390480 1.796922 2.159536 1.698990 1.415689 1.451944 0.777518 1.019647 1.158606 1.691622 1.084947 0.870430 -1.349201 -1.197137 -0.777914 -0.817822 -1.177050 -0.785667 -0.458200 -0.617370 0.096589 0.634491 -1.002652 -1.247705 -0.372732 -0.716466 -0.347195 -0.326092 0.297007 0.220747 0.598265 0.752684 0.228760 -0.461085 0.590321 0.598733 1.085391 1.286076 -0.066174 0.498737 1.088822 1.498975 1.071112 0.830679 0.704021 0.505395 -0.066777 0.505181 0.107336 -0.182761 0.347356 0.486119 0.421855 0.467299 0.467227 0.536282 -0.266222 -0.110380 0.076927 -0.028894 1.066049 0.962557 0.686186 0.725825 0.025750 0.027238 0.141385 0.427764 -1.567927 -1.575120 -0.875433 -1.171269 -0.609031 -0.792141 -0.439214 -0.499401 1.863327 1.662034 0.843170 1.219114 0.671559 0.401903 0.863036 0.942956 0.507405 0.620146 0.535599 0.617494 0.259433 0.339758 0.499414 0.467584 -0.232789 -0.127721 -0.188832 -0.325672 -0.402401 -0.565189 -0.487582 -0.272987 -1.484152 -1.546708 -1.160950 -1.441328 -0.708449 -0.831111 -0.913252 -0.818131 0.196315 0.471068 -0.148788 0.165510 -0.017898 0.056791 0.169869 0.169191 -0.178532 -0.469371 0.289953 0.449381 -0.532453 -0.404232 -0.654754 0.155273 -0.252168 -0.444765 0.032699 -0.187072 0.460463 1.986356 0.891658 0.291206 0.809666 0.287393 1.085743 0.493583 0.313384 -0.905213 0.982349 1.304077 -1.278853 0.685581 0.145087 -1.793583 2.316709 0.350134 -0.863758 0.056316 0.984967 -0.951593 0.559584 -0.297643 -1.012357 0.742589 -1.969020 -0.460894 -0.433812 -1.621571 -2.533939 1.541629 -0.780342 0.533069 -0.909077 -1.016185 1.059324 0.923946 -1.917530 -1.920340 -0.108083 -0.537451
-1.167427 -1.037375 -1.115311 -1.121726 -1.084583 -0.901542 -1.150678 -0.861442 -0.868301 -1.343539 -1.480456 -1.557093 -1.438656 -1.262664 -1.217933 -1.273874 -1.304510 -0.219299 0.155698 -0.688496 -0.237218 0.283216 -0.154077 0.324852 0.653784 -0.677565 -0.662638 -1.247412 -0.888864 -0.834687 -0.909296 -0.906561 -0.988027 0.212831 0.178522 0.135675 0.183135 0.020321 -0.159231 0.039736 0.084953 1.485392 1.464184 1.148921 1.282230 0.438853 0.419072 0.445691 0.331517 0.957329 0.803634 0.883537 0.690409 0.893936 1.082675 1.003146 1.094293 1.268628 1.242716 0.952140 1.197714 1.304736 1.303256 1.250732 1.208162 -0.796518 -0.845813 -0.852462 -0.831139 -0.641534 -0.630701 -0.636472 -0.621574 -0.379660 -0.362864 -0.126140 -0.164509 -0.257430 -0.281767 -0.247643 -0.291119 -0.273142 -0.241918 -0.079185 -0.094896 -0.347201 -0.304702 -0.275524 -0.304288 -0.139138 -0.064283 0.004720 0.089666 -0.187604 -0.154053 -0.153077 -0.118000 0.557237 0.538897 0.540069 0.544527 0.528429 0.679934 0.518424 0.561752 -0.571393 -0.589798 -0.134603 -0.366230 0.017058 -0.015646 -0.080109 -0.090556 0.292010 0.329671 0.316793 0.322519 0.301676 0.380371 0.692410 0.536124 0.098812 0.174690 0.285429 0.282869 0.746620 0.711147 0.659097 0.674315 0.085770 -0.025033 -0.031507 0.108294 0.018034 -0.174238 -0.019148 0.076616 -0.301156 0.244561 0.335991 0.086305 0.062407 0.279707 -0.622144 -0.393743 0.435389 -0.120119 0.050232 -0.247092 0.914857 0.259243 -0.183171 -0.221351 0.254446 0.044401 0.079355 -0.176512 -0.173364 0.002203 -0.746244 0.109482 0.071607 -0.668760 0.257244 -0.173927 -0.818501 -0.842515 -0.098556 1.009818 -0.258868 0.005635 -0.080840 -0.262435 0.694562 -0.308623 -0.114784 -0.057425 1.166491 0.585068 -0.755695 0.087412 0.383835 -0.095974 -0.500194 0.232728 0.348560 -0.230903 0.397325 0.521974 -0.029481 -0.411586
-1.836400 -1.221597 -1.434372 -1.217409 -1.299608 -0.805772 -0.988062 -0.868765 -1.014948 -1.190014 -1.355980 -0.928176 -1.224590 -0.742112 -0.919574 -0.681445 -0.667179 0.267343 0.182495 0.284667 -0.158147 1.053035 1.469378 1.262462 1.199590 -0.136273 -0.211022 0.017819 -0.195862 -0.324237 -0.160202 -0.611379 -0.612089 0.051633 0.043442 0.404034 0.478092 0.200476 -0.053535 0.352160 0.259820 0.572633 0.600273 0.513732 0.262603 0.559810 0.604945 0.640825 0.627914 0.298177 0.324134 0.404015 0.364383 -0.166907 -0.108152 0.572668 0.662042 0.360296 0.478751 0.436132 0.720204 0.268180 0.630904 0.064529 -0.032588 0.284805 0.156084 -0.369143 0.010215 -0.448937 -0.522977 0.062413 0.159138 -0.005640 0.050034 0.195510 0.126671 -0.171047 -0.056034 0.236516 0.182433 -0.354942 -0.378403 -0.391198 -0.328980 -0.583023 -0.540373 -0.546187 -0.525261 -0.496538 -0.576288 -0.413863 -0.466570 -0.230220 -0.231501 -0.613337 -0.618442 0.519745 0.551944 0.195322 0.355772 -0.249146 -0.288329 0.316057 0.169374 -0.530887 -0.450993 -0.187259 -0.408911 0.582971 0.325305 0.058079 0.015272 0.106379 0.244203 0.319838 0.161167 0.405409 0.255245 -0.042354 -0.076400 0.841438 0.676951 0.683697 0.753080 0.193281 0.135160 -0.047136 -0.015589 0.226528 0.355308 -0.349146 0.410170 0.160058 0.020594 0.067902 -0.486430 0.091556 -0.285621 0.092339 0.083544 0.115143 0.077277 0.732786 0.647202 0.222964 -0.688134 -0.515355 0.207793 -0.216412 1.699606 -0.056868 -0.282326 1.288048 0.110348 1.069231 0.063468 -0.095111 0.582267 -1.503163 0.911536 -0.604976 0.632923 0.179228 -0.188872 -0.046126 -1.052260 -0.890541 -0.461128 0.823255 -0.865858 0.344978 0.038091 0.031808 0.812297 -0.428188 0.907408 -1.347418 0.981958 -2.137399 1.372420 -0.166371 -0.172928 -0.546843 -1.265180 1.089717 0.428563 -0.164088 -0.592605 -0.493316 -0.303589
1.130527 -0.628236 -0.715474 -0.902475 -0.957658 -0.702122 -0.864515 -0.727898 -0.751899 -1.055096 -1.028943 -1.535196 -1.451667 -0.930487 -0.950286 -0.968744 -0.983603 -0.060127 0.106945 -0.247011 -0.206991 -0.514490 -0.199670 -0.250001 -0.112858 -0.152573 -0.174076 -0.385724 -0.320089 -0.066009 0.037231 0.053658 0.040291 0.775231 0.725035 0.648574 0.595319 0.331100 0.294541 0.345885 0.313417 -0.075555 -0.029323 -0.718040 -0.756460 -0.316001 -0.407650 -0.058026 -0.078847 1.088888 1.024201 1.027938 0.954381 0.145253 0.236344 0.570450 0.839664 1.285994 1.328050 1.218980 1.336410 1.470004 1.600701 1.520750 1.499112 -1.097980 -1.085152 -1.196385 -1.096628 -0.785474 -0.766105 -0.756331 -0.745123 -0.323252 -0.290942 -0.250418 -0.279721 -0.768608 -0.729022 -0.746154 -0.764772 -0.124472 -0.131758 0.018616 -0.089232 -0.096576 -0.148814 -0.059980 -0.083668 -0.882677 -0.809966 -0.638939 -0.659506 -0.765001 -0.840939 -0.767605 -0.805587 1.489828 1.486420 1.335961 1.439724 1.672033 1.760726 1.556529 1.606340 1.497012 1.465265 1.658705 1.577577 1.372535 1.420625 1.333597 1.319910 -0.306151 -0.311388 -0.142260 -0.279577 -0.162211 -0.186187 -0.000425 -0.101505 -0.760151 -0.732621 -0.437205 -0.483088 -0.134821 -0.193802 -0.016382 -0.046318 0.076706 0.023006 0.084703 0.204557 -0.097548 -0.123586 -0.083545 -0.203487 -0.099041 -0.148213 0.027526 0.351178 0.070931 -0.037924 -0.325419 -0.171969 -0.130562 -0.173206 -0.204154 -0.113479 -0.021664 0.208228 0.181538 -0.206200 -0.456957 0.449970 0.314790 -0.214502 0.235234 -0.129899 0.440062 0.947630 0.330783 -0.604435 -0.174780 -0.240461 -0.373354 -1.224674 0.740616 1.029594 0.192951 -0.035251 -0.035562 0.522983 -1.359557 -0.948487 -0.388501 0.133349 0.553951 -0.478293 -0.500698 0.256990 -0.194419 -0.166796 -0.183946 0.320906 0.322962 -0.245328 0.123343 0.315169 -0.463146 -0.097469
0.303037 -1.115324 -1.108453 -1.019605 -0.945419 -0.850858 -0.841945 -0.782240 -0.684316 -1.158400 -0.959895 -1.188407 -1.354236 -0.664888 -0.797058 -0.645612 -0.601672 -0.296579 -0.573402 -0.315304 -0.630045 0.567500 0.807982 0.456500 0.140283 -0.606747 -0.552870 -0.104498 -0.367646 -0.676358 -0.384226 -0.591353 -0.525641 0.120578 0.179550 0.314107 0.412093 0.453614 0.296680 0.350636 0.436434 0.603914 0.498448 0.770929 0.747324 0.558418 0.503956 0.535999 0.349419 0.630922 0.402355 0.585668 0.455260 1.118309 1.702125 1.336599 1.030198 0.472353 0.489259 0.632994 0.668650 0.402760 0.599485 0.471844 0.542889 1.596074 1.627602 1.427752 1.570363 0.736667 0.717011 1.098314 1.164133 0.130197 0.167410 0.407379 0.397849 1.024570 0.867457 1.086854 0.897609 -0.113798 0.017103 -0.030003 0.044562 -0.046960 -0.014778 -0.171944 -0.133991 1.079178 1.132360 1.107532 0.856898 1.115989 1.014894 0.628632 0.629682 -0.395693 -0.355880 -0.445507 -0.375780 -0.754210 -0.794339 -0.328465 -0.365778 -1.150680 -1.049735 -0.958440 -0.931057 0.053385 -0.077469 -0.159000 -0.234541 -1.581606 -1.414142 -1.325614 -1.440340 -1.197261 -1.246858 -1.565566 -1.475874 -0.011598 -0.000118 -0.221892 -0.210700 -0.286156 -0.246719 -0.696137 -0.485791 0.083536 0.237800 -0.122740 -0.114874 -0.024703 0.103516 0.233460 -0.086074 0.066043 0.015970 -0.010044 0.227313 -0.243445 0.263779 -1.114837 0.425270 -0.733070 -0.212870 0.548296 -0.207619 -0.867400 -0.490323 0.258628 0.234590 0.359696 0.054720 -0.387053 0.344109 -0.009420 -0.134505 -0.073464 0.017684 0.509759 -0.612307 -0.541348 -0.773633 0.950665 1.177528 -0.703741 -0.066869 0.560126 1.179414 0.069524 -0.275153 1.181884 0.633669 -0.599457 -0.691314 -0.025251 -1.040574 -0.470711 -0.858945 0.600665 -0.517860 -0.092450 -0.302108 0.663154 -0.036372 0.055189 -0.035136 -0.142930 -0.062743
-1.800315 -1.439288 -1.491731 -1.485903 -1.520806 -1.539922 -1.532742 -1.593534 -1.652898 -2.107462 -2.137454 -2.076617 -1.990756 -2.007687 -1.709292 -2.023990 -2.084056 1.278711 1.964031 0.484966 1.249912 0.039568 -2.176537 -0.126079 0.975759 0.151343 0.128653 -1.243563 -0.602486 -0.376633 -1.139839 -0.725408 -0.915128 0.352076 0.253259 0.222873 0.213211 0.309574 0.063439 0.256575 0.280803 1.179019 0.938237 0.940634 0.932905 0.780984 0.639803 0.930009 0.842740 1.520863 1.197145 1.369501 1.015110 0.844150 0.934746 0.871710 1.204311 1.356735 1.359130 0.967238 1.226056 1.263148 1.136221 1.139857 1.084491 -0.386514 -0.416937 -0.356406 -0.386380 -0.101737 0.005125 -0.305630 -0.281485 -0.539974 -0.475296 -0.256969 -0.306757 -0.259642 -0.352566 -0.225805 -0.340876 -0.358615 -0.337784 -0.112795 -0.163325 -0.148231 -0.105859 -0.168009 -0.149772 0.394315 0.492623 0.651345 0.703427 0.942740 0.953667 0.849134 0.872756 0.129851 0.120787 0.074692 0.115717 0.133619 0.593098 -0.018234 0.036040 -0.537099 -0.721960 0.381056 0.101791 0.044219 0.089358 -0.063575 -0.058320 -0.310865 -0.493300 -1.539795 -0.889653 -0.472677 -0.288628 0.212659 -0.016675 -0.123850 0.037974 0.393102 0.335323 0.539301 0.452418 0.325454 0.290087 -0.177203 -0.088606 -0.169504 0.263705 -0.208617 -0.283535 0.169960 -0.194798 -0.265574 0.233219 0.434091 0.184012 0.306452 0.484994 -1.545484 0.049969 0.375829 -0.154941 0.071615 -0.234993 0.756918 -0.086104 -0.294245 -0.178871 -0.146426 0.018729 0.823102 -0.024348 -0.197132 0.785608 -1.156371 -0.271799 0.268804 -0.186945 0.250905 0.029856 -0.747537 -1.477528 -0.059414 1.249765 -0.431331 -0.071056 0.390431 0.010905 0.479512 -0.547497 0.280247 -0.238931 1.362990 1.331240 -0.313269 -0.505970 0.329936 -0.060700 -1.332211 0.835490 0.540211 -0.560705 1.044895 0.882034 0.109431 -0.555853
