0.296606 -3.672869 -3.638074 -4.170637 -3.992220 -4.901636 -4.683083 -5.170447 -4.632855 -4.895239 -6.040021 -5.121004 -5.231359 -4.931197 -5.347091 -4.558248 -4.049692 3.496079 4.459629 5.467822 5.534934 2.930132 2.369640 4.208683 4.625637 5.617484 5.207689 4.676164 3.597693 5.617884 4.576702 6.088103 6.858004 1.146260 1.727734 2.442574 2.750824 -2.268209 -2.068264 -1.857212 -0.813380 -1.110370 -0.264913 -0.155457 -0.591708 0.057194 0.320366 -0.244296 -0.256060 -1.232800 -1.154961 -0.327769 -1.060223 -0.268971 -0.136308 0.412761 0.208477 -0.529094 0.399437 0.986035 1.083874 0.902461 1.088855 0.519959 0.589793 -0.639805 -0.048186 0.678216 -0.532436 -0.189147 0.250152 3.907352 -0.495762 0.765202 0.198967 0.747574 -0.572766 0.015950 1.641026 0.299673 -1.051170 -0.611284 0.198967 1.442357 -0.184278 0.141420 -0.584590 1.044793 0.416441 -0.670713 -0.359197 -0.384908 0.041320 0.811353 -0.006361 0.299673 1.616791 -1.045376 0.198967 1.057069 0.665295 0.141420 -0.346507 -1.376428 1.272139 0.146541 0.046453 -1.226474 0.992497 -0.104617 0.204803 1.669815 0.564412 0.908914 -0.359197 -0.198328 0.185015 0.084291 0.860651 0.460016 0.954533 0.265873 0.198967 -0.860307 0.070884 -0.639805 -0.048186 0.299673 0.390154 0.924570 0.198967 0.167286 0.547813 0.141420 -0.212238 0.267125 -1.047674 0.173442 0.437470 -0.083141 -1.666610 -0.519099 1.311666 0.315509 0.035854 -0.729509 0.046453 0.146574 0.585740 -0.441679 -0.445546 -0.384908 -0.021079 -0.593513 0.198967 -1.403901 -1.117004 0.678216 -0.532436 0.299673 -1.613147 0.663768 -0.359197 0.465520 0.990242 0.074647 -1.178003 -0.590778 -1.197401 0.788076 0.256378 -0.383835 -0.882720 -0.447698 -0.541672 0.143116 -1.744935 -0.210312 0.198967 -0.222557 -0.407754 -1.120996 -0.770579 -0.234069 -0.353500 0.263618 -0.359197 0.678216 -0.532436 -0.189147 0.250152
0.191969 -2.114062 0.044264 -0.259027 -0.040407 0.365398 0.701845 2.452453 4.142378 1.896007 0.916007 0.278636 -0.409120 -0.414843 -2.235163 -1.899914 -2.165886 -2.296403 -3.301145 -2.890807 -3.640950 -0.828910 0.111565 1.695072 3.557238 0.960742 -0.529909 -0.931486 0.747311 -1.873725 10.371572 -1.363983 -0.852777 -5.461547 -5.342159 -9.066419 -10.338408 -6.553938 -4.900235 -1.150172 -0.762241 -5.731230 -4.343627 -5.893572 -5.423130 -4.524530 -5.816582 -5.602738 -9.257102 6.927104 6.829206 6.468444 6.056229 5.793708 5.958475 5.594519 6.128095 4.829812 5.103786 4.920709 5.360126 5.504999 5.686279 4.293290 4.904819 0.308210 -0.608707 0.201728 -0.147274 0.407368 0.829234 -0.393809 -0.607099 0.060067 0.493505 0.341406 0.850671 0.244682 1.649052 0.213365 1.015013 -0.189819 0.493505 -0.625257 -1.687238 0.333207 -2.771191 -1.360068 0.678416 -0.199371 0.534719 -0.184080 -0.435264 -0.875585 -0.477159 0.213365 -0.859815 -0.957403 0.493505 0.086366 -0.343442 0.333207 -1.559995 0.836722 -0.471968 -0.606773 -0.624567 -0.504133 -1.917218 -1.214101 -0.271209 -6.560745 0.718435 0.333626 0.534719 -0.649772 2.334450 0.905262 -0.492802 0.164294 1.416364 0.873291 0.493505 0.421517 0.572917 0.308210 -0.608707 0.213365 -1.133022 0.408229 0.493505 0.507651 0.961391 0.333207 1.478905 -0.200137 0.098369 0.984203 -0.903779 0.035844 -0.166127 2.114758 -1.377883 -1.211594 -0.106489 -0.547768 -0.624567 -0.100544 0.396596 0.388641 0.481697 -0.184080 -2.251309 -0.250375 0.493505 0.753612 1.251370 0.201728 -0.147274 0.213365 -0.685125 -0.480059 0.534719 1.091460 0.444905 -0.113917 0.449327 -0.798467 -0.089437 1.116729 0.691753 0.799627 -0.579634 -2.063774 -1.499142 0.720310 0.603450 0.141092 0.493505 -0.076939 -0.948677 0.399669 -1.287639 0.362471 0.607180 0.361088 0.534719 0.201728 -0.147274 0.407368 0.829234
0.012912 -3.264818 -3.013975 -3.450103 -3.668852 -3.074076 -2.862061 -3.971090 -3.910429 -3.438990 -4.182358 -3.814553 -3.536477 -3.495603 -3.666290 -2.909153 -2.817903 1.935610 2.095767 3.817178 4.250322 1.923389 2.348185 5.473837 6.074875 2.688691 2.995360 2.115945 1.519183 4.325803 3.230351 4.677907 5.617238 1.319149 1.380107 1.910819 2.164170 2.417854 2.068727 2.383783 2.606014 0.328213 0.577798 0.451318 0.829279 0.041537 0.428517 -0.091383 1.197249 -2.331862 -2.118310 -1.296464 -2.055539 -1.363815 -1.588935 -1.779526 -1.429915 -1.629728 -0.924193 -0.743328 -0.738071 -0.548670 -0.394189 -0.372065 -0.685628 -0.356080 -0.064535 -0.112240 -0.170650 -0.053560 -0.097534 5.987053 -1.181234 0.508414 0.041776 -1.055459 -0.522059 -0.914493 -1.004497 0.000922 -0.819817 0.157580 0.041776 0.939759 0.453808 0.055554 -0.009016 1.941658 -0.151005 -0.410854 0.171955 0.307492 -0.195261 1.660871 -0.333322 0.000922 1.567858 -0.430594 0.041776 0.523439 0.048736 0.055554 -0.320817 -0.180202 1.513122 -0.294412 0.490576 -1.040807 1.796025 -0.477686 0.754880 2.651759 0.999574 0.269500 0.171955 0.524179 -0.685706 -0.036763 0.561349 0.254140 0.791930 -0.782426 0.041776 -0.268262 0.228229 -0.356080 -0.064535 0.000922 0.701741 0.513670 0.041776 0.338059 0.075711 0.055554 -0.403739 0.521454 -0.624887 0.163447 0.458088 0.195737 -1.097334 -0.335929 1.232794 0.147484 -0.582687 -0.624914 0.490576 0.241929 0.147945 -0.346642 -0.111271 0.307492 0.253816 -0.072867 0.041776 -1.493638 -2.234031 -0.112240 -0.170650 0.000922 -1.324092 0.824828 0.171955 -0.140882 0.468461 0.676019 -1.181343 -0.624906 -0.521073 0.292543 0.080957 -1.212380 -0.740544 -0.538411 -0.069506 0.515318 -1.551125 -0.691710 0.041776 0.184530 -0.294323 -0.638822 -0.715963 -0.120793 -0.560505 0.720821 0.171955 -0.112240 -0.170650 -0.053560 -0.097534
-0.687422 -1.094474 1.358879 1.967449 2.133188 -0.141000 0.312649 1.286386 1.735623 1.154825 -0.258523 1.737113 2.226696 0.261552 0.082519 -0.313321 -1.696210 -0.454627 -0.485813 1.574308 1.581798 -4.464188 -3.819440 -2.142864 -0.141885 0.692340 -0.513905 0.167833 0.006098 -1.405406 0.525054 -0.983491 -1.576583 -4.950582 -4.441345 -4.362878 -3.870629 -5.028038 -4.941677 -5.124249 -5.139504 -4.266151 -3.754884 -3.476504 -4.071420 -2.737785 -3.127768 -2.212661 -4.461727 5.531691 4.717243 3.634498 3.884457 2.772240 3.112688 1.809080 2.922575 3.761936 4.002008 4.898651 3.985643 5.645674 5.587997 5.465551 3.548448 0.033974 -1.594793 -0.020165 -1.212401 -0.081499 0.208035 -0.418120 -0.032937 -0.401892 0.351140 0.459636 3.230241 -0.695733 0.372394 -0.684891 -0.580771 -0.216399 0.351140 -0.217275 0.177326 0.456903 -1.570947 -1.505731 1.092899 0.010784 0.496080 -0.537471 -0.231879 -1.247728 0.915663 -0.684891 0.643001 0.102013 0.351140 0.500864 0.463403 0.456903 -0.381368 0.386638 0.225072 -0.413655 -1.008304 -0.427101 -1.892367 -0.438483 -0.354269 -4.846949 0.693828 0.673687 0.496080 -0.966701 -1.391324 0.257703 -1.204528 1.400689 1.110093 0.679732 0.351140 -0.683181 -0.288838 0.033974 -1.594793 -0.684891 -0.080341 -0.012627 0.351140 0.167131 0.527680 0.456903 2.679385 0.518511 0.445369 0.313702 -0.089228 0.681536 -0.875408 0.662665 -0.430953 -1.154159 -0.877000 -0.046620 -1.008304 0.228219 1.563062 0.564580 0.556199 -0.537471 -1.832455 1.878098 0.351140 1.961337 0.695052 -0.020165 -1.212401 -0.684891 -0.252259 -0.321747 0.496080 0.769794 1.897437 0.085125 0.252409 -0.664467 0.298706 0.880416 1.073998 0.758033 0.548761 -0.872575 -0.667879 0.690474 0.015029 0.003163 0.351140 1.058065 -2.603455 1.009648 2.576869 0.501863 0.554470 0.567779 0.496080 -0.020165 -1.212401 -0.081499 0.208035
0.703000 2.523107 1.775977 1.198190 1.760293 2.312965 2.073435 1.561640 1.003469 0.830518 3.153366 2.998398 0.711300 1.673194 2.767515 2.683218 3.549391 -0.849846 -1.136691 -1.847526 -0.756555 -1.634202 -5.189874 -1.090962 -0.078635 -0.547244 -1.818534 -7.766395 -1.185969 -1.463584 -2.263038 -2.002334 -2.241586 2.409134 2.147822 2.065096 2.094690 0.322821 1.657252 1.644142 2.295396 -1.040408 -1.084092 -0.521448 0.524572 -1.911930 -0.512157 1.797391 1.282850 -2.301744 -1.745334 -1.578225 -1.720961 -0.017916 -0.396350 0.363775 -0.850253 0.261676 -0.027862 -0.224196 -1.124861 0.114345 -0.750031 -1.626141 -0.844055 0.892067 0.307952 -0.798034 0.311250 -0.783768 -0.196602 -0.247131 0.086518 -0.000459 -0.169791 -0.134777 -0.806107 -0.204685 0.444367 0.663620 0.379690 0.698092 -0.169791 0.306337 -0.823046 -0.374634 -0.516239 0.781500 -0.147274 0.260938 -0.319005 0.106741 -0.371499 0.070313 0.096802 0.663620 -0.209410 -0.177665 -0.169791 -0.326463 -0.705947 -0.374634 -0.099370 -0.786427 0.261824 0.290325 -0.247687 0.431454 -2.629616 -0.134130 0.378028 0.047439 -0.557515 -0.335779 -0.319005 0.276552 1.064022 0.429610 -0.350334 -0.713352 0.449378 -0.272493 -0.169791 0.299016 0.989299 0.892067 0.307952 0.663620 -0.337477 -0.513811 -0.169791 -0.305233 0.344907 -0.374634 0.313335 -0.151791 -0.748667 0.880762 0.329239 -0.514789 1.218374 -0.296283 0.345300 0.671227 0.074132 0.069591 -0.247687 -0.312111 -0.442725 0.744671 -0.296473 0.106741 -0.131297 -0.523956 -0.169791 0.177666 1.072098 -0.798034 0.311250 0.663620 -0.055148 0.017784 -0.319005 -0.309678 -0.695493 -0.854298 0.690127 0.606079 -0.099917 -0.480216 1.158114 -0.275099 -0.419416 -0.119762 1.152486 -1.857462 0.589112 -0.377550 -0.169791 -0.540677 0.240494 -0.939996 -0.462713 -1.464225 0.584674 -0.339008 -0.319005 -0.798034 0.311250 -0.783768 -0.196602
0.205342 -3.754819 1.939927 1.907543 2.667057 0.471255 1.006276 1.891893 2.833889 10.014570 11.036417 8.191834 9.791761 7.156879 5.724524 5.443136 2.817889 -7.656078 -11.316359 1.806242 0.860242 -0.779154 -4.609623 0.114345 0.769811 -6.329073 -6.346604 -4.622790 -5.858295 -6.572678 -5.626014 -6.541410 -6.227251 -0.190059 -0.562906 0.442205 0.111003 0.541309 0.553069 0.485893 -0.243295 2.499206 2.752114 3.205739 2.368358 3.039925 3.794565 1.484054 1.800704 5.788823 4.654730 -2.923400 6.517889 -4.489024 -4.224695 -4.374594 3.140857 -4.812692 -4.085313 -5.553001 -5.092361 -4.224679 -4.345412 5.574950 -3.428618 0.297919 -0.881310 -0.219041 -0.229579 -0.104127 0.920197 -0.085167 0.140736 0.240434 -0.040875 0.134173 1.114285 -0.772588 5.967902 0.190201 0.698986 -0.115371 -0.040875 0.824739 -1.885073 0.060759 -1.851329 0.174089 1.149438 0.448451 -0.276347 -0.456336 0.533793 -0.384488 1.301560 0.190201 -0.819517 0.227080 -0.040875 0.466861 -0.783193 0.060759 0.606538 0.224017 1.038449 0.373862 -0.848682 0.092453 3.670311 -0.456576 -0.290704 -4.125428 -0.690050 0.339613 -0.276347 -0.017422 2.085424 0.782300 0.526670 0.351964 -0.789164 0.561334 -0.040875 -0.327248 -0.478711 0.297919 -0.881310 0.190201 -0.511932 -0.073909 -0.040875 -1.046152 1.391870 0.060759 1.103496 -0.834283 0.188581 -0.957385 -0.211536 -0.465802 0.384171 1.193970 -1.273519 -0.495555 -0.383244 0.118897 -0.848682 0.241141 -0.177919 0.207978 -0.805810 -0.456336 -1.604778 0.166457 -0.040875 1.809605 1.392015 -0.219041 -0.229579 0.190201 -0.192760 -0.451418 -0.276347 -0.147510 1.722808 0.146018 -1.142859 -1.070563 1.061838 -0.457005 -0.598845 0.126069 -1.365711 0.099440 -0.592817 -0.399557 1.624380 -0.750728 -0.040875 -0.178553 -1.207972 -0.177665 -1.893470 0.621322 0.925508 -0.470546 -0.276347 -0.219041 -0.229579 -0.104127 0.920197
1.380690 0.013164 -1.552601 -1.698962 -1.926305 -0.276595 -0.743425 -1.803658 -2.105105 1.023539 -3.349011 -2.820632 -2.117088 -3.132680 -2.958516 -2.752510 -2.824451 0.460772 1.320159 1.371348 1.099395 1.892191 0.961980 2.347433 2.503476 0.442724 0.948166 1.845105 1.881471 2.032102 2.250799 3.758749 5.289657 0.977077 0.954247 1.402414 1.156640 1.433441 1.208299 1.387411 1.366974 4.155884 3.606848 3.517396 3.054371 2.625720 2.587631 0.482785 2.981998 -1.739631 -1.774748 -1.571684 -2.284787 -1.645576 -2.272736 -1.698537 -1.504420 -2.504764 -2.623022 -2.634022 -2.329780 -3.070130 -2.598564 0.703392 -1.969436 -0.388813 0.281345 0.350124 0.236391 -0.654088 -0.029831 0.143328 -1.058846 1.533137 -0.177989 -0.078526 -0.773234 -0.414145 -0.188861 1.352683 -0.448756 0.767268 -0.177989 0.416664 1.018517 0.390400 1.191502 0.275529 0.035125 -0.413885 -0.656974 0.421133 0.859431 1.009469 -0.181206 1.352683 1.162620 -0.215322 -0.177989 0.680141 0.038158 0.390400 -0.996064 -0.372439 1.445715 1.843485 1.403150 0.178811 -0.023767 -0.366038 1.481223 3.248712 -0.987325 1.146203 -0.656974 1.805532 -1.028702 0.787285 1.148430 -0.226739 0.203731 0.104891 -0.177989 -0.924286 -0.090601 -0.388813 0.281345 1.352683 -0.013967 -1.140532 -0.177989 -0.240453 -0.407516 0.390400 -0.706497 -0.512355 -1.981123 -1.142339 -1.209612 -1.620152 -1.699497 0.055335 0.793289 0.837917 0.830154 -1.080559 1.403150 0.512621 0.568395 -0.087072 -0.465959 0.421133 3.166903 -0.795753 -0.177989 -1.505345 -0.491871 0.350124 0.236391 1.352683 -0.678185 -1.354739 -0.656974 -0.615606 -0.650701 -0.559788 -2.059290 -1.026617 0.050280 -0.159957 0.553567 -0.341459 -0.457691 0.321338 0.907713 0.352415 -1.913790 -1.053811 -0.177989 0.939294 0.535421 -1.618590 -1.491237 -0.267735 -0.740062 0.746335 -0.656974 0.350124 0.236391 -0.654088 -0.029831
-0.418856 -0.361752 0.312220 1.569493 1.383955 -0.402166 -0.551830 -0.031745 0.581097 -0.620232 -0.350688 0.071146 -0.157075 -0.462986 -1.246865 -1.005845 -1.904133 -0.115143 1.473464 0.048329 0.127874 -2.799447 -1.165189 -0.464417 0.833563 1.865412 1.566545 1.328166 -0.282073 0.786161 -0.044353 0.117923 -0.518266 -2.737885 -2.391401 -2.939795 -2.326312 -3.272625 -2.946119 -3.160029 -2.885700 -2.707357 -2.003872 -1.470988 -1.867600 -1.898260 -1.010253 0.838978 -2.328566 3.010193 2.111126 1.867960 1.801819 1.152358 0.782654 0.859785 1.318550 2.554804 2.426185 2.547244 2.275338 3.485898 3.252958 3.151713 2.090341 -0.201081 -1.136611 0.063722 -0.529903 -0.309812 0.257061 0.630769 -1.605826 -0.313848 0.030734 0.904438 1.883352 -0.164972 -0.237213 -0.398938 -0.509690 -0.275043 0.030734 -0.358811 -0.809172 0.139495 -0.243329 -0.873245 1.576641 0.230841 0.403985 -0.220128 0.485494 -0.640630 -1.046963 -0.398938 1.598794 0.920599 0.030734 0.199339 1.286732 0.139495 -0.478849 0.260156 0.161651 0.482350 0.277842 -0.457300 1.788662 -0.608645 0.659613 -3.973573 1.975251 0.293405 0.403985 -1.513290 -0.172344 0.284864 -0.311019 0.705201 0.557374 0.447135 0.030734 -0.655044 -0.518931 -0.201081 -1.136611 -0.398938 -0.189997 -0.434038 0.030734 0.370225 -1.550870 0.139495 0.871749 -0.167073 0.590402 -0.900964 1.381106 0.128052 -1.067281 0.220626 -0.037253 -0.556609 0.291715 0.579090 0.277842 0.247764 1.104229 0.503847 0.558709 -0.220128 -1.657825 0.972196 0.030734 0.703048 0.651395 0.063722 -0.529903 -0.398938 -0.966851 0.500013 0.403985 1.264342 -0.396718 -0.367659 0.139048 1.052657 -0.152870 -0.161618 1.051402 -0.398880 0.221935 -0.416051 -0.507693 -1.161739 -0.406440 0.871021 0.030734 0.818962 -2.561368 -0.187753 1.201723 0.338269 0.013261 0.440631 0.403985 0.063722 -0.529903 -0.309812 0.257061
0.944393 1.793037 2.020531 1.402921 1.241317 2.972046 2.048681 1.942667 1.742793 0.962619 2.414794 1.812121 -0.087275 1.257019 2.009962 2.073705 2.566284 -0.974152 -1.492889 -1.942868 -0.682469 -0.917225 -5.502328 -1.012447 0.062335 -0.400123 -1.751112 -5.707409 -0.912367 -1.082947 -1.695090 -1.379347 -1.838393 2.429248 1.992910 1.622316 2.025362 -0.177471 1.378392 1.472733 2.077105 -1.229159 -1.674277 -0.186405 0.588977 -1.790125 -0.291649 1.916973 0.825882 -1.358108 -1.117786 -0.936304 -1.225910 0.244216 -0.081053 0.731115 -0.519558 -0.254509 -0.140691 -0.405353 -1.216227 -0.656175 -1.071397 -1.300806 -0.727873 0.888104 0.203974 -0.681546 0.086744 0.014723 -0.383800 -2.173525 0.375980 -2.259230 -0.017564 0.008857 -0.057488 -0.235779 0.848787 0.895811 0.288314 0.439683 -0.017564 1.170286 -0.864355 -0.179736 -0.637652 1.402401 -0.150070 -0.654839 -0.497811 -0.020272 -0.367076 0.204331 0.043714 0.895811 0.256464 -0.106599 -0.017564 -0.258313 0.212384 -0.179736 0.280537 -0.620115 0.112580 0.774033 -0.171445 0.416611 -2.365007 -0.339595 0.214950 -0.380632 -0.342396 0.021831 -0.497811 0.129738 0.331792 0.271618 -0.013224 -0.687696 0.554621 -0.011938 -0.017564 0.397733 -0.104387 0.888104 0.203974 0.895811 -0.113728 -0.164445 -0.017564 -0.474617 -0.390866 -0.179736 0.244877 -0.357443 -1.190083 -0.270699 0.154990 -0.516056 1.026504 -0.115233 0.073346 0.322511 -0.158522 1.117854 -0.171445 -0.913704 0.202520 0.690508 -0.304557 -0.020272 -0.325276 -0.056087 -0.017564 0.285332 0.794726 -0.681546 0.086744 0.895811 -0.067504 0.711964 -0.497811 0.306000 -0.776123 -0.813039 0.437703 0.377981 0.393195 -0.915146 0.408877 -0.010969 0.338723 0.075774 0.856221 -0.812155 0.248556 -0.720450 -0.017564 -0.615053 -0.798672 -0.841128 -0.098628 -1.480091 1.426507 -0.817513 -0.497811 -0.681546 0.086744 0.014723 -0.383800
-2.233487 1.957467 2.039496 0.974590 0.412976 0.767316 0.451825 0.933221 1.633853 4.476739 6.077405 4.983542 3.942280 5.088070 7.085087 6.225509 6.833017 -2.762726 -4.683022 0.935994 0.293663 0.073926 -2.139384 0.229810 0.440761 -6.744790 -5.484046 -5.892269 -4.496226 -7.681734 -7.095097 -5.621341 -5.489396 1.122640 0.673240 1.897690 1.198556 2.386917 2.843990 1.882863 2.027745 1.727928 2.277798 2.202979 2.666221 0.537426 1.699767 1.056223 2.091957 -3.450765 -3.039863 -2.887657 -3.472477 -2.461006 -1.981575 -4.708305 -3.041925 -2.773159 -1.688148 -1.762273 -1.651463 0.956151 -1.057444 2.646541 -0.154060 -1.051589 -0.093355 0.404465 -0.085008 -0.381505 0.318072 1.975774 0.239861 0.191328 -0.243890 -0.287008 -0.335490 -0.553381 -5.960914 -2.208434 0.793558 -0.132329 -0.243890 0.094318 0.585515 0.421633 0.833422 1.251115 0.351712 -0.293862 2.504928 -0.283293 -0.301487 0.520182 1.048834 -2.208434 -0.530224 -0.676157 -0.243890 0.334251 -0.094961 0.421633 0.424171 0.044465 -0.571803 -1.323471 -0.603005 -0.443777 3.045096 0.289220 -0.350951 -0.374843 -0.212813 0.864578 2.504928 0.034617 -0.892814 -0.263700 -0.109899 -0.290434 0.542123 -0.005752 -0.243890 0.789603 1.988517 -1.051589 -0.093355 -2.208434 0.434221 1.177877 -0.243890 -0.323151 0.268792 0.421633 0.347490 -0.035628 0.498445 0.847686 -0.147090 1.149556 0.457830 -0.058816 0.854561 0.342377 -0.469794 -0.249115 -0.603005 0.207422 0.456299 0.293061 -0.206903 -0.283293 -0.903451 1.254186 -0.243890 0.102427 0.066223 0.404465 -0.085008 -2.208434 -0.075017 -0.695711 2.504928 0.450835 1.194141 0.695347 -0.325468 0.345352 0.755936 0.425162 -1.606456 -0.286683 -0.948961 0.711498 -0.034010 0.076869 0.279062 -0.243726 -0.243890 -0.412366 1.009664 0.793284 -1.094301 -0.687314 -0.469082 -0.099516 2.504928 0.404465 -0.085008 -0.381505 0.318072
1.423237 1.958142 3.729089 2.143970 3.447379 1.907733 4.334095 1.344029 -0.727161 1.243396 5.296369 2.436296 -1.173083 2.945458 3.184994 3.987088 4.751736 -2.016964 -2.139862 -3.037370 -1.785584 -1.846360 -4.520064 -1.840243 -1.303225 -2.525722 -3.029901 -2.776930 -1.962159 -2.853010 -2.150247 -2.815050 -2.783601 1.898304 1.957818 2.157245 2.020748 1.590328 2.037645 2.088386 2.294898 -0.305541 0.923422 1.119964 1.224980 -0.848320 0.566916 1.619150 1.305099 -2.002524 -1.982406 -1.697702 -1.076202 -0.773975 -1.710152 -0.433498 -0.871395 -0.384958 -1.223783 -2.092723 -2.255099 -0.194873 -0.892947 -1.357847 -1.277722 -2.685532 0.358623 -0.099863 0.036515 -0.339504 -0.180675 -0.750620 0.291438 0.132762 0.022689 -1.643357 0.125570 -0.114176 2.418411 1.405796 -0.111455 -0.189430 0.022689 1.188271 -0.817555 -0.178036 -0.259907 0.840987 -0.233265 -0.293097 0.002322 -0.306205 0.149345 0.089421 -0.328123 1.405796 0.560096 0.424040 0.022689 -0.322822 0.003186 -0.178036 0.283494 -1.123886 0.061634 1.210397 -0.512118 0.028723 -2.872576 0.454166 -0.316930 1.265209 0.038820 0.090145 0.002322 0.111905 0.294046 -0.020956 0.370444 0.088817 0.038090 0.032137 0.022689 -0.175954 0.844313 -2.685532 0.358623 1.405796 -0.468047 0.309758 0.022689 0.136178 0.825696 -0.178036 -0.274141 0.747007 -0.785994 -0.395854 0.346190 -0.160670 0.995947 -0.573913 1.677062 0.693267 0.698187 0.225639 -0.512118 0.009038 -0.953240 0.501083 -0.146955 -0.306205 -0.489838 -0.097695 0.022689 -0.285433 0.331758 -0.099863 0.036515 1.405796 -0.554750 -0.046449 0.002322 0.395039 -0.240222 -0.359342 0.204230 0.475869 -0.468672 -0.361417 -0.317740 -0.020744 -0.529986 -0.113429 0.192322 -0.895541 0.147314 -0.454892 0.022689 -0.892780 0.007029 0.056325 -0.202149 -0.695934 0.394566 -1.170083 0.002322 -0.099863 0.036515 -0.339504 -0.180675
0.271967 -0.389625 -0.861869 1.534089 1.913341 0.172437 0.568412 2.199683 2.938034 6.746880 7.591511 7.617766 9.240562 6.000438 3.743600 4.674621 7.073794 -9.635818 -0.338646 -0.257176 -0.415600 1.105932 -10.305823 1.535783 2.223546 -5.643685 -6.537218 -4.004544 -3.322000 -6.443001 -4.950839 -6.638998 -6.863619 1.658994 1.544144 2.317009 1.590899 1.374181 1.359060 0.972036 0.769066 2.642188 2.729920 3.959902 3.007481 2.751039 3.035396 2.236661 2.083401 5.086023 3.886096 -2.450694 4.664966 -5.427385 -5.617148 -4.386899 3.836544 -5.652632 -5.062850 -5.500021 -5.319366 -6.674461 -6.931959 6.621260 -4.830886 0.189812 -0.448721 0.014248 -0.597430 -0.283168 1.048596 -0.288804 -0.083547 -0.068947 0.423637 0.328412 1.159156 0.129881 5.794659 0.256023 0.068337 0.034454 0.423637 0.040787 0.203423 -0.007221 0.211726 -0.833731 -0.208938 0.501122 -0.276865 -0.233910 0.239409 -0.570312 1.077836 0.256023 -0.531319 -0.330974 0.423637 0.682101 -0.450527 -0.007221 -0.583186 0.853391 0.106412 -0.203311 -0.357665 -0.280150 1.725156 0.084879 -0.307029 -5.048338 0.672309 0.534197 -0.276865 -0.351738 0.109525 0.802166 0.096062 0.584594 1.195221 -0.234395 0.423637 -0.375997 0.655996 0.189812 -0.448721 0.256023 0.667800 0.154846 0.423637 0.073866 0.470361 -0.007221 1.914456 -0.284418 -0.322465 -0.175448 -0.376851 0.306436 -0.138693 0.490295 -0.462661 -1.038745 0.088773 -0.575287 -0.357665 -0.504569 0.574272 -0.883050 0.276014 -0.233910 -1.069135 1.036961 0.423637 0.415619 1.111395 0.014248 -0.597430 0.256023 0.228510 -0.340656 -0.276865 0.736085 1.379838 -0.473194 -1.012253 -1.105881 -0.057430 1.344516 -1.383254 -0.661386 -1.778876 -0.303912 -1.241696 0.646987 -0.779567 -0.029798 0.423637 0.390331 -0.551417 -0.340186 -0.103021 0.362542 0.396756 -0.656385 -0.276865 0.014248 -0.597430 -0.283168 1.048596
-1.475727 -16.616207 -16.703084 -3.861006 -3.649717 3.709147 -2.909231 1.496625 1.624035 -16.983930 -16.588964 -3.747079 -7.944317 -8.256860 -1.490599 -1.576353 3.156468 5.147136 5.016485 4.584327 2.852837 4.237395 3.874587 3.838053 5.113176 7.027206 6.863188 5.619705 6.886637 7.338787 6.823116 6.886760 6.755951 -3.696797 -3.853555 -4.021492 -3.573035 -4.646985 -3.749728 -3.215780 -3.279973 -5.557619 -4.849538 -3.679719 -4.247011 -3.141105 -3.703993 -2.566549 -3.991714 -2.292448 -1.691421 1.865057 -1.264038 8.422864 7.949017 -1.561739 -1.205106 12.606426 13.019993 11.468944 13.483111 -0.071261 0.022501 -1.062603 0.609571 -0.247821 0.947564 0.485596 0.290566 -0.125487 -0.060629 1.421293 -0.240401 0.094662 -0.014443 0.193787 0.273053 -0.096027 -1.001611 -1.519709 -0.040365 0.362436 -0.014443 -1.033064 -0.094681 0.374614 -1.669374 -0.619687 -0.820586 -0.190192 0.227798 0.058762 0.894793 0.515698 0.224688 -1.519709 0.089411 0.009982 -0.014443 -0.044677 0.974342 0.374614 0.770182 0.544614 -0.874702 0.875424 0.060560 -0.007039 0.346621 -0.176563 -0.465666 0.745326 0.367433 -0.477202 0.227798 -0.264570 0.070359 0.046326 -0.037231 -0.472917 -0.560554 0.828439 -0.014443 0.273173 -0.681163 -0.247821 0.947564 -1.519709 0.188977 -0.367294 -0.014443 0.267252 -0.316837 0.374614 -0.445797 -0.441974 -0.242523 -0.574189 0.063424 0.160840 0.711464 -0.167086 -0.503380 0.018581 0.896212 0.725286 0.060560 -0.275149 0.063067 0.277071 0.174266 0.058762 -1.608356 -0.640176 -0.014443 -0.116008 0.627681 0.485596 0.290566 -1.519709 0.478009 -0.477205 0.227798 -0.290129 0.068820 0.637632 -0.085446 0.276423 -0.216562 1.196578 -0.248047 -0.621920 -0.987767 -0.012028 0.678935 1.044680 0.109601 0.485317 -0.014443 -0.534957 0.641974 -0.144882 0.538332 0.703259 0.145316 -0.408819 0.227798 0.485596 0.290566 -0.125487 -0.060629
-0.108471 -5.335256 -5.259516 -4.910024 -5.183444 -4.671702 -4.421709 -4.692770 -4.949613 -4.497919 -4.116832 -3.859768 -4.023864 -4.456492 -3.848620 -4.360804 -4.575516 4.981173 4.916198 4.521604 5.016558 4.326196 3.890150 4.546963 4.916402 4.817357 4.501668 3.943168 4.260515 4.753080 4.171502 4.654228 4.838618 1.164174 0.577656 0.624354 0.433626 0.574693 0.584258 0.402317 0.435842 0.249835 0.302140 0.311851 0.303888 -0.033706 0.246938 0.136539 0.287370 -0.574610 -0.519217 -0.575609 -0.443267 -0.502616 -0.592534 -0.322435 -0.453579 -0.531784 -0.577862 -0.493368 -0.685386 -0.026065 -0.060407 -0.083266 -0.268241 0.034979 0.044140 0.078992 -0.020354 0.049225 -0.000118 -0.035052 -0.031547 0.104835 0.039135 0.020604 0.107940 -0.006614 0.043513 -0.111620 0.022141 0.025802 0.039135 0.041064 0.033160 -0.005505 0.123862 0.070424 -0.025320 -0.020794 0.019796 -0.005073 0.071496 0.013240 0.211088 -0.111620 -0.009225 -0.021611 0.039135 -0.015670 0.025678 -0.005505 -0.106309 -0.023791 0.064889 -0.035876 -0.022196 0.004599 0.008395 -0.007915 0.084901 0.037978 -0.025940 0.002669 0.019796 0.050244 -0.038295 0.031166 0.086396 -0.028898 0.070653 -0.024771 0.039135 0.073015 0.014849 0.034979 0.044140 -0.111620 0.062651 -0.058955 0.039135 -0.072660 -0.017156 -0.005505 -0.032860 0.055861 -0.042839 0.034716 -0.047299 -0.019354 0.011503 0.022522 0.068994 0.033749 -0.039983 0.017170 -0.022196 -0.014007 0.005936 -0.001610 -0.088584 -0.005073 -0.027145 0.025613 0.039135 0.075950 0.039098 0.078992 -0.020354 -0.111620 -0.069031 -0.032660 0.019796 0.008551 -0.006042 -0.039040 -0.048002 -0.155318 0.063096 -0.029185 0.015295 0.133539 0.106223 0.017089 0.013607 -0.210071 0.073870 -0.061606 0.039135 -0.036226 -0.046686 0.208254 -0.026876 -0.215950 0.061655 0.000297 0.019796 0.078992 -0.020354 0.049225 -0.000118
0.250141 0.016121 0.012865 0.006783 0.011534 0.013906 0.002519 0.007014 0.016540 0.007995 0.002060 0.001260 0.001266 0.005233 0.001201 0.006461 0.010021 0.014155 0.006941 0.002889 0.009302 0.003899 0.000681 0.001318 0.001319 0.010315 0.009171 0.002567 0.001488 0.023084 0.003093 0.016286 0.020853 0.018179 0.016481 0.019324 0.008848 0.006508 0.006761 0.010142 0.006392 0.008592 0.006592 0.007702 0.004171 0.009298 0.005327 0.004747 0.008150 0.010719 0.005945 0.007410 0.006173 0.008827 0.004687 0.005573 0.005072 0.010085 0.006396 0.004974 0.005296 0.003881 0.005435 0.005044 0.007411 0.184459 0.062063 0.202618 0.066530 0.121107 0.111007 0.218365 0.069329 0.121391 0.040176 0.171730 0.107572 0.085258 0.109974 0.225396 0.072693 0.118436 0.040176 0.166303 0.045903 0.064253 0.100365 0.191561 0.103139 0.095192 0.039488 0.142678 0.100813 0.142378 0.072393 0.225396 0.062547 0.112528 0.040176 0.152301 0.049757 0.064253 0.102669 0.185142 0.048313 0.076702 0.037819 0.120062 0.111595 0.137583 0.125601 0.208514 0.102493 0.094667 0.039488 0.161163 0.047885 0.113481 0.073689 0.166304 0.095244 0.157201 0.040176 0.181469 0.075246 0.184459 0.062063 0.225396 0.062249 0.110628 0.040176 0.143237 0.049574 0.064253 0.102925 0.172643 0.053500 0.082321 0.041845 0.108431 0.107895 0.133265 0.170152 0.202136 0.048750 0.076130 0.037819 0.146155 0.043078 0.110302 0.116671 0.142678 0.097402 0.159372 0.040176 0.173017 0.111545 0.202618 0.066530 0.225396 0.096848 0.106917 0.039488 0.169759 0.050487 0.054306 0.076644 0.181765 0.048315 0.127064 0.041059 0.158305 0.074040 0.170535 0.110104 0.204656 0.095461 0.155990 0.040176 0.192740 0.054221 0.151791 0.066651 0.205244 0.073253 0.183106 0.039488 0.202618 0.066530 0.121107 0.111007
-0.764945 -0.239290 0.601110 1.522923 1.149198 -0.443597 -0.019077 0.191345 0.937044 -0.164221 0.286340 -0.078307 -0.011822 -0.125590 -0.969289 -0.607685 -1.632308 -0.145247 0.711129 -0.716836 0.046069 -2.082706 -2.393891 -0.639649 0.937976 1.794344 1.541067 0.145150 -0.694873 0.596236 0.251248 0.069399 -0.581134 -2.329387 -1.815036 -2.728683 -2.654300 -3.100980 -2.335371 -2.977664 -2.560033 -2.794162 -2.370999 -1.361041 -1.754689 -1.821985 -1.537909 -0.149540 -2.719131 2.554770 1.846472 1.171547 1.416378 1.339664 0.995593 0.744209 1.565765 2.649015 2.488350 2.762687 2.089639 3.612659 3.458991 3.541764 2.008461 -0.031266 -0.712229 -0.070942 -0.553205 -0.425763 0.140628 0.710303 -0.675730 -0.133706 0.065485 1.201272 1.856206 -0.058545 -0.213274 -0.737875 -2.208752 -0.952559 0.065485 -0.714863 -0.498087 0.034253 -0.184763 -0.741944 0.601971 0.173088 0.280925 -0.228977 0.231916 -0.657085 -0.992271 -0.737875 1.631932 -0.333955 0.065485 -0.055022 0.080944 0.034253 -0.315199 0.257718 -0.036976 0.181859 0.392844 -0.326597 2.108873 -0.776169 0.551257 -2.499244 3.606677 -0.266161 0.280925 -1.429841 0.220787 0.485463 -0.365636 0.332992 0.883168 0.722446 0.065485 -0.264241 -0.109216 -0.031266 -0.712229 -0.737875 0.302635 1.128684 0.065485 0.506583 -0.435631 0.034253 0.981462 0.090432 -0.175775 -0.726337 0.718368 0.450452 -0.740842 0.131044 0.089235 -0.612172 0.764633 0.111192 0.392844 0.153064 1.228838 0.201261 0.602851 -0.228977 -1.111125 0.725427 0.065485 0.683385 0.329714 -0.070942 -0.553205 -0.737875 -0.824424 1.214481 0.280925 1.223959 -0.367820 0.267899 0.369048 0.247809 -0.263137 -0.441883 0.139863 -0.348255 0.096393 -0.531754 -0.680320 0.453601 -0.833417 0.671025 0.065485 1.085107 -1.821367 -0.364378 1.005403 0.299446 0.124919 0.726872 0.280925 -0.070942 -0.553205 -0.425763 0.140628
0.643846 1.880299 1.189450 1.166282 1.217332 1.843845 1.666251 1.568987 1.779505 0.435667 0.403953 1.947544 0.626414 1.064627 2.694218 1.850440 2.869969 -0.445372 -0.981845 -1.405430 -0.447875 -1.394023 -5.232382 -0.750271 0.346667 0.232966 -0.914682 -6.221611 -0.978421 -0.753481 -1.636517 -1.247006 -1.731655 2.060675 1.656216 1.240418 1.575392 -0.386095 1.198484 1.148840 1.806302 -1.743929 -1.833758 -0.382322 0.275936 -1.159894 -0.270404 1.689609 0.584094 -1.699011 -1.446225 -1.055666 -1.577561 0.296469 0.168948 0.469913 -0.746911 0.626128 0.207629 0.195777 -0.509168 0.230086 -0.428106 -1.219288 -0.328731 0.649456 0.163413 -0.641681 -0.061907 0.192200 -0.299689 0.061293 0.286167 -0.530208 -0.039741 -0.332102 -0.266600 0.001748 0.947344 0.587186 1.067221 -2.193218 -0.039741 1.126408 -0.663721 -0.291524 0.131645 1.469121 -0.073462 -0.231568 -0.375576 0.056390 -0.747786 0.302157 -0.208824 0.587186 0.190623 -0.443505 -0.039741 -0.152042 0.375889 -0.291524 0.173438 -0.541262 0.541550 0.189004 -0.419753 0.073538 -1.944342 -0.061982 0.524491 -0.687750 -0.089981 -1.163392 -0.375576 -0.062746 0.465993 0.241963 0.056379 -0.610633 -0.246749 -0.109311 -0.039741 0.506726 0.238898 0.649456 0.163413 0.587186 -0.018877 0.626941 -0.039741 -0.296796 -0.655755 -0.291524 -0.505524 -0.026948 -1.222561 0.075169 -0.228166 -0.761143 1.049237 -0.293027 -0.031158 -0.202946 -0.070714 1.051789 -0.419753 -0.501555 -0.205054 0.611706 -0.161269 0.056390 0.540589 0.060859 -0.039741 0.166745 0.512858 -0.641681 -0.061907 0.587186 -0.471857 1.782560 -0.375576 0.394249 -0.614374 -0.531150 0.568404 0.084547 0.014830 -0.416916 0.735004 -0.428117 0.559321 -0.020135 0.679030 -0.697756 0.773277 -0.852361 -0.039741 -0.648235 -0.662810 -0.547577 -0.301166 -1.461009 1.056897 -0.582283 -0.375576 -0.641681 -0.061907 0.192200 -0.299689
-2.233487 1.957467 2.039496 0.974590 0.412976 0.767316 0.451825 0.933221 1.633853 4.476739 6.077405 4.983542 3.942280 5.088070 7.085087 6.225509 6.833017 -2.762726 -4.683022 0.935994 0.293663 0.073926 -2.139384 0.229810 0.440761 -6.744790 -5.484046 -5.892269 -4.496226 -7.681734 -7.095097 -5.621341 -5.489396 1.122640 0.673240 1.897690 1.198556 2.386917 2.843990 1.882863 2.027745 1.727928 2.277798 2.202979 2.666221 0.537426 1.699767 1.056223 2.091957 -3.450765 -3.039863 -2.887657 -3.472477 -2.461006 -1.981575 -4.708305 -3.041925 -2.773159 -1.688148 -1.762273 -1.651463 0.956151 -1.057444 2.646541 -0.154060 -1.051589 -0.093355 0.404465 -0.085008 -0.381505 0.318072 1.975774 0.239861 0.191328 -0.243890 -0.287008 -0.335490 -0.553381 -5.960914 -2.208434 0.793558 -0.132329 -0.243890 0.094318 0.585515 0.421633 0.833422 1.251115 0.351712 -0.293862 2.504928 -0.283293 -0.301487 0.520182 1.048834 -2.208434 -0.530224 -0.676157 -0.243890 0.334251 -0.094961 0.421633 0.424171 0.044465 -0.571803 -1.323471 -0.603005 -0.443777 3.045096 0.289220 -0.350951 -0.374843 -0.212813 0.864578 2.504928 0.034617 -0.892814 -0.263700 -0.109899 -0.290434 0.542123 -0.005752 -0.243890 0.789603 1.988517 -1.051589 -0.093355 -2.208434 0.434221 1.177877 -0.243890 -0.323151 0.268792 0.421633 0.347490 -0.035628 0.498445 0.847686 -0.147090 1.149556 0.457830 -0.058816 0.854561 0.342377 -0.469794 -0.249115 -0.603005 0.207422 0.456299 0.293061 -0.206903 -0.283293 -0.903451 1.254186 -0.243890 0.102427 0.066223 0.404465 -0.085008 -2.208434 -0.075017 -0.695711 2.504928 0.450835 1.194141 0.695347 -0.325468 0.345352 0.755936 0.425162 -1.606456 -0.286683 -0.948961 0.711498 -0.034010 0.076869 0.279062 -0.243726 -0.243890 -0.412366 1.009664 0.793284 -1.094301 -0.687314 -0.469082 -0.099516 2.504928 0.404465 -0.085008 -0.381505 0.318072
1.275274 1.777540 4.082162 3.162958 1.373351 3.198200 3.678047 0.389566 -1.518540 0.247272 4.049039 1.664373 0.443256 4.174898 2.967621 4.981591 6.253402 -1.741181 -2.209974 -2.761868 -1.871539 -1.686526 -4.080035 -1.777090 -1.185769 -2.760339 -3.439817 -2.513955 -2.286441 -3.163203 -2.281862 -2.949200 -2.940663 1.579434 1.632337 1.706728 1.953924 1.096446 1.826136 2.131720 2.080785 -0.703110 0.504623 1.415084 1.131320 -0.130678 1.012570 1.483982 0.936721 -1.605454 -1.402899 -1.121086 -0.938573 -0.130676 -0.795990 0.096504 -1.177678 -0.057585 -1.110257 -1.554385 -2.273657 -1.257067 -1.820352 -1.649103 -1.584489 -2.329384 0.247116 -0.146831 -0.088708 -0.150682 -0.374092 -1.427165 0.261083 -0.380636 0.096450 0.454982 0.690797 -0.146060 3.002060 1.244070 0.345816 -0.182830 0.096450 -0.630304 -0.815367 -0.062222 -0.510157 0.611234 -0.246328 -0.127339 -0.381620 -0.305297 -0.371192 0.182975 0.065165 1.244070 0.706126 0.530681 0.096450 -0.466065 0.340714 -0.062222 0.693607 -1.380282 0.228708 1.160102 -0.566958 0.011840 -1.744136 0.143482 0.198949 1.186773 0.361078 -0.416030 -0.381620 -0.476436 -0.384143 0.085154 0.591245 0.028544 -0.073333 0.216256 0.096450 -0.082321 0.796760 -2.329384 0.247116 1.244070 -0.507710 0.293312 0.096450 -0.234387 0.329808 -0.062222 -0.451946 0.934771 -0.982962 -0.529595 0.597787 -0.262819 0.778494 -0.374002 1.048298 0.839961 0.393209 0.218990 -0.566958 -0.194150 -0.347694 0.616490 0.091772 -0.305297 -0.359151 0.440852 0.096450 -0.383607 -0.231128 -0.146831 -0.088708 1.244070 -0.519578 0.641890 -0.381620 1.187876 -0.232080 -0.219727 0.184088 0.428529 -0.181755 -0.493954 -0.707152 0.156477 0.008801 -0.002654 0.475230 -0.183014 0.006517 -0.656375 0.096450 -1.275005 -0.383915 0.001263 -0.312377 -0.748511 0.211523 -0.908180 -0.381620 -0.146831 -0.088708 -0.150682 -0.374092
-0.400390 1.386680 1.419142 0.934044 0.425642 0.939311 1.124696 1.266577 1.701440 1.357697 1.867483 0.525984 0.427789 2.644244 1.752868 2.676081 3.813603 0.110933 -1.573424 -2.782741 -1.044660 1.140941 -1.505230 -0.623054 -4.511598 -0.687370 -0.876118 -0.594309 -0.460217 -2.510392 -0.803861 -3.529999 -4.412572 2.692084 1.334829 1.485428 0.406726 1.513580 1.245120 0.218054 0.094701 0.561280 0.496242 -0.527082 0.820345 -0.862853 -0.132751 -0.674124 0.540618 -2.434096 -2.221427 -1.396444 -1.361849 -1.652968 -0.993202 1.063868 0.096095 -1.016521 -0.400480 0.130787 -0.255611 0.233362 -0.019689 0.605348 0.010239 -0.372228 0.992961 0.082334 -0.168491 0.115930 0.656929 -0.762835 -0.249896 -0.117273 0.360291 0.395667 -2.200372 0.527318 0.298318 -0.353816 0.389282 0.768032 0.360291 -0.500693 -1.067259 0.323478 0.696405 1.094452 -0.809714 -0.242777 0.612836 0.350159 0.680093 0.113254 0.428250 -0.353816 -0.467976 -1.066338 0.360291 0.809768 -1.997108 0.323478 -0.871789 -0.242524 -0.169943 -0.267709 -0.814835 -0.304249 -2.485007 -0.422966 -0.038127 -0.206382 0.178171 -0.174394 0.612836 0.640118 1.165384 0.691738 -0.248518 -0.519394 0.387005 -0.683192 0.360291 -0.040850 1.127208 -0.372228 0.992961 -0.353816 0.154412 0.597999 0.360291 -0.603132 0.563390 0.323478 0.145974 0.183818 -0.827424 0.249709 -1.858198 -0.468379 0.264020 0.685599 0.172359 0.587827 0.475519 -0.099259 -0.814835 0.333332 -0.975146 0.110542 -0.330498 0.350159 0.412551 -0.721475 0.360291 -0.304788 -0.300027 0.082334 -0.168491 -0.353816 0.547425 -0.246388 0.612836 -0.820811 1.099511 -0.170588 -0.381425 -0.482744 0.015593 1.636231 0.140805 -0.226436 -1.176157 -0.366514 0.006821 -1.074132 -0.023570 0.728918 0.360291 -1.111147 1.317167 0.029399 -1.621165 -0.887226 -0.246646 0.296585 0.612836 0.082334 -0.168491 0.115930 0.656929
-2.525950 -5.135458 -9.296472 -7.801058 -6.766104 0.585421 -1.483073 -0.780538 -1.677617 -6.793098 -8.784094 -7.063937 -7.439038 -4.477704 -5.952656 -4.009801 -3.568891 4.468643 4.149886 3.815651 1.583812 4.263088 3.593675 3.231063 3.917020 5.794908 5.729991 5.534266 6.398942 6.108705 6.433243 6.364201 6.531074 -2.634106 -2.546707 -2.628467 -2.125164 -2.630382 -2.445674 -1.835675 -1.427751 -2.540607 -2.376526 -2.058272 -2.038332 -0.545497 -2.066691 -1.308602 -2.090088 1.178536 1.358634 2.322777 0.537884 3.088004 2.784095 0.095091 1.122852 3.112236 3.181366 2.984225 4.044766 0.870387 1.354939 0.495692 2.241105 -0.306757 0.603982 0.911967 0.268909 -0.243370 0.023383 2.006177 -0.286572 0.663208 -0.018802 -0.512001 -0.680565 1.432921 -0.287479 -2.509736 -0.402505 -0.115847 -0.018802 -0.874698 -0.097844 0.303528 -1.755852 0.597225 -0.880761 -0.190826 -0.031211 0.301962 1.141677 1.056033 -0.437583 -2.509736 0.922647 -0.317817 -0.018802 0.049280 0.797696 0.303528 0.241883 0.197544 0.038545 0.776834 0.300918 -0.239171 0.549327 0.011986 0.740748 1.828982 -0.243637 0.007910 -0.031211 -0.230063 0.188839 -0.282435 0.088762 -0.614364 -0.613712 0.924606 -0.018802 0.260226 -0.575270 -0.306757 0.603982 -2.509736 0.304733 -0.267290 -0.018802 0.319664 0.167114 0.303528 -1.536735 0.218405 -0.480709 -0.209258 -0.507328 0.044167 1.627758 -0.045371 -0.429494 0.043642 0.324351 0.677054 0.300918 -0.302953 -0.376384 0.398343 0.333022 0.301962 -1.548164 -1.061321 -0.018802 -0.219313 -0.229010 0.911967 0.268909 -2.509736 0.853338 -0.316996 -0.031211 -0.501905 0.313853 1.373816 -0.736596 -0.096168 -0.271446 1.471614 0.824271 -0.946260 -0.727571 -0.445565 1.308273 1.635387 -0.037356 0.608472 -0.018802 -0.842067 1.198378 -0.030262 -0.843337 0.795484 -0.101780 -0.059658 -0.031211 0.911967 0.268909 -0.243370 0.023383
-0.106881 -9.042877 -7.272326 -2.330624 -7.380629 -3.535987 -1.921980 -3.204930 -3.373944 -1.440472 0.815832 -2.606273 -5.410388 -0.273487 -3.969394 -0.550630 -0.077331 4.178401 3.556000 4.011967 6.223082 3.769348 4.736618 6.304330 7.272904 0.913590 0.591031 2.301827 2.688035 1.102211 1.049966 1.273680 1.495566 2.265466 2.323366 2.576870 2.584441 2.109239 1.191207 1.484752 1.719375 2.338944 2.281029 -0.272838 1.771476 0.031060 0.507977 1.786894 1.793984 -3.016609 -2.700182 -2.858791 -1.841636 -4.772678 -2.960221 -1.255634 -1.820695 -0.966118 -0.936199 -0.481980 -1.782750 0.685012 0.571201 -1.278787 -1.184057 0.257495 -0.188660 -0.416336 0.194352 -0.260108 0.047266 -0.713111 -0.837208 1.388455 -0.350190 0.865700 -0.890570 -0.225482 -1.334985 -0.127869 -0.519098 -0.679800 -0.350190 -0.605607 -0.506602 -0.483332 -1.016483 -1.053279 0.069044 0.727713 0.104125 -0.424941 0.295489 0.430474 0.911948 -0.127869 0.858388 0.199070 -0.350190 -2.031833 -0.487712 -0.483332 1.751562 0.074865 0.448077 0.298140 1.696445 0.225358 0.801362 0.219650 -0.261014 0.608596 0.053141 0.411577 0.104125 0.618581 -0.009387 -0.036607 0.865849 0.140163 2.029385 -0.892050 -0.350190 0.530970 -0.072196 0.257495 -0.188660 -0.127869 -0.521055 0.159205 -0.350190 0.765081 -0.060583 -0.483332 0.472162 0.271549 -0.485235 -0.118997 1.678958 -0.649457 -0.162974 -0.653123 -0.054862 0.985179 0.156159 -0.439076 1.696445 -0.908618 -0.198082 -0.842365 0.776792 -0.424941 -0.163087 -0.230520 -0.350190 -0.867943 0.051041 -0.416336 0.194352 -0.127869 -0.117782 -0.438416 0.104125 -0.045306 -0.788256 -0.427510 -1.082653 -0.214414 0.159024 0.362252 5.440814 0.213434 -1.035224 2.580659 0.130431 0.099547 -0.947521 0.082759 -0.350190 1.679814 -0.206852 0.222862 -1.059732 -1.286779 1.156208 -0.654004 0.104125 -0.416336 0.194352 -0.260108 0.047266
1.420422 3.875244 2.957121 3.535078 2.984571 5.584239 4.151321 4.170761 1.412325 0.552348 3.202949 1.877062 -1.691248 2.279098 1.694328 4.849626 6.114128 -2.340504 -2.843032 -3.361448 -2.290248 -3.436259 -5.626013 -4.189098 -4.226608 -1.986321 -2.818148 -2.719846 -1.388131 -2.438174 -1.557893 -2.585333 -2.321478 2.309878 2.810904 2.370912 2.452295 1.815528 2.273866 2.618737 2.772874 0.027804 0.773088 0.557697 1.159878 -0.606169 0.352565 2.114544 1.221445 -2.640451 -2.084672 -2.331119 -2.192186 -0.975893 -2.295131 -1.301865 -1.590121 -0.007295 -1.530043 2.234295 -3.348040 1.380133 -1.970034 -2.900804 -2.052199 -1.665065 0.950184 0.076685 0.130919 -0.064742 -0.013574 0.162537 0.345172 0.187791 0.151107 -0.683455 -0.720673 0.113235 1.780745 1.410830 -0.064618 -0.279677 0.151107 -0.124666 1.116421 -0.054533 0.317816 -0.547635 -0.990616 -0.358852 0.217826 -0.162837 -0.942217 0.074701 0.053040 1.410830 0.214127 0.271255 0.151107 0.176358 0.953052 -0.054533 -0.225231 -0.838959 0.059908 0.673001 -0.500341 -0.223669 -2.366503 0.074043 0.281855 2.905112 0.137320 0.001202 0.217826 0.752135 -0.216861 -0.347751 0.445133 -0.071823 -0.563147 -0.463301 0.151107 -0.055179 0.259783 -1.665065 0.950184 1.410830 -0.782640 -0.183136 0.151107 0.991827 0.212239 -0.054533 -0.965462 0.273953 -0.517580 0.255356 0.741182 0.262897 1.230005 -0.721566 1.226919 0.118875 0.286699 0.109499 -0.500341 -0.145939 -0.594725 0.180704 0.305463 -0.162837 -0.591336 -0.175226 0.151107 -0.501838 -0.082863 0.076685 0.130919 1.410830 -0.496783 0.047189 0.217826 -0.078509 -0.824003 0.492936 0.084482 0.708831 -0.660866 -0.012900 -3.294222 0.883463 -0.502086 0.148113 0.174772 -0.573121 -0.454200 -0.164244 0.151107 0.437609 0.938959 -3.613190 -0.760246 -0.619666 0.008946 -0.137771 0.217826 0.076685 0.130919 -0.064742 -0.013574
0.285658 -1.333418 -1.326834 0.772892 0.242807 -0.971701 -0.398701 -0.378910 0.508632 5.461367 4.988532 3.724708 7.910059 5.021027 2.611550 3.839507 3.589776 -0.359758 0.651474 0.616884 1.651380 -1.858730 -3.672867 -0.372632 -0.174655 -3.898167 -3.388840 -3.587838 -2.634071 -4.647715 -2.576813 -4.793923 -4.929363 1.047508 1.723297 2.348763 1.489057 2.197831 1.838100 1.301084 1.027616 2.185898 3.061549 3.490253 2.546556 3.202739 3.731358 2.667320 2.172010 -0.225542 -1.063840 -2.160369 -0.861514 -3.532766 -3.622528 -1.831516 -0.944507 -3.844017 -3.249450 -3.891694 -2.949878 -3.996566 -5.212237 4.256528 -2.615385 -0.231695 -0.903197 -0.177549 -0.778089 0.070926 0.231621 0.515380 -0.922351 -0.600082 -0.023733 0.385065 2.072577 0.259492 5.203912 0.280595 0.096111 0.036568 -0.023733 0.826376 -0.394780 -0.267222 -0.085207 -0.773156 -0.055865 0.525225 -0.097782 -0.525801 -0.822043 -0.703393 0.462767 0.280595 0.481385 -0.290446 -0.023733 0.327078 0.748254 -0.267222 -0.374274 0.294460 0.995947 -0.883754 0.035386 -0.833039 1.089730 0.088193 -0.282765 -3.450941 2.533405 0.326430 -0.097782 -0.223042 -0.143805 0.399094 -0.420695 0.565209 1.061760 -0.021331 -0.023733 -0.474072 0.179541 -0.231695 -0.903197 0.280595 -0.121022 -0.214063 -0.023733 0.338329 0.462879 -0.267222 0.794327 0.290273 -0.087913 0.312872 0.100135 -0.386129 -0.375378 -0.140548 -0.855177 -0.329490 -0.222567 -0.183185 0.035386 -0.201487 0.176544 0.297933 0.113079 -0.525801 -0.304340 1.081923 -0.023733 1.586769 0.929931 -0.177549 -0.778089 0.280595 -0.894724 -0.153047 -0.097782 -0.093440 1.100407 -0.150420 0.511687 -0.088230 -0.076031 0.558779 0.129366 -0.167855 -0.589389 -0.400799 0.048203 -2.113640 0.107451 0.927163 -0.023733 0.142315 -2.292972 -0.599462 1.218139 -1.032999 -0.081858 0.916962 -0.097782 -0.177549 -0.778089 0.070926 0.231621
0.074059 -2.774204 -0.810228 0.665547 0.643895 -2.222322 -2.316989 -1.102021 -0.336218 -2.171397 -9.326451 0.658716 3.052263 -1.311663 1.336060 -1.173667 -1.106939 -0.404098 1.202740 1.574063 1.904088 -3.001797 3.087344 -1.527949 -0.057314 2.267069 3.621421 1.063126 0.917274 2.818377 1.068947 2.011186 1.825201 -1.636716 -1.884788 -2.304086 -1.518760 -3.346568 -2.290296 -1.550612 -1.868800 -2.673524 -2.355908 -1.216158 -1.812305 0.165333 0.220271 0.022720 -1.619447 2.112235 2.113064 0.862970 0.212883 0.910246 0.838010 0.112937 0.269953 2.478466 2.838697 3.194106 3.349762 2.314020 1.907302 0.422704 1.806348 -0.636518 -0.265313 0.042931 0.109292 0.057051 0.066936 1.563380 -0.537069 -0.419296 0.168584 0.013102 0.811443 -0.668520 3.675987 -0.007815 0.793049 0.910530 0.168584 -0.928670 0.664066 0.339731 -0.328118 -1.318174 0.514071 -2.149246 0.796164 0.221946 -1.328167 -0.194022 0.314416 -0.007815 -0.192139 0.194866 0.168584 0.211302 0.558699 0.339731 0.598180 0.758756 -1.680267 -0.394316 0.621737 -0.054299 -3.579914 -0.198957 0.196838 -0.749780 0.611705 -0.477031 0.796164 -0.792117 -0.255125 0.430595 -0.015007 0.503477 -0.311344 0.271721 0.168584 -0.271391 -0.168997 -0.636518 -0.265313 -0.007815 0.814152 -1.465892 0.168584 0.206370 -1.030142 0.339731 -0.420605 -0.604575 0.556055 0.081112 0.607515 0.190979 -0.789575 0.150547 -0.751847 -1.786809 0.331685 -0.082450 0.621737 0.540877 0.318359 -0.370465 0.055923 0.221946 -0.117820 0.258275 0.168584 0.294759 0.288694 0.042931 0.109292 -0.007815 -0.687440 -0.167071 0.796164 0.091000 0.778451 -0.430354 -0.489270 1.057024 -0.811282 1.167092 0.315784 -0.704942 0.049562 0.770330 -0.609866 0.115783 -0.186835 -0.506184 0.168584 -0.266135 -0.128833 -0.331177 -0.563352 0.277699 -0.827086 -0.070934 0.796164 0.042931 0.109292 0.057051 0.066936
-1.001635 -3.309115 -3.060934 -2.846976 -3.194824 -5.087448 -4.804762 -5.847916 -7.056219 -5.995530 -5.580226 -5.628499 -3.755129 -5.834601 -6.228193 -7.329805 -8.299987 5.274067 4.654587 3.990538 2.618186 4.740310 4.558909 3.318008 3.328297 6.828799 6.406520 5.204343 5.362101 6.557088 7.302825 6.378207 6.335746 -1.770852 -2.330663 -3.010119 -2.829024 -2.638564 -2.129633 -1.051206 -0.947792 -2.677752 -2.745111 -2.311501 -2.896409 0.735396 -0.162427 0.323136 -1.853030 2.833818 2.626116 1.986670 1.418157 2.409940 2.655719 1.484714 1.565201 3.791708 3.190753 2.954340 2.798407 -0.593145 -1.123443 -1.257552 0.552512 -0.779701 0.588715 0.679834 0.310018 0.064069 0.772611 -1.347803 -0.028703 -0.121013 0.414779 0.012916 -0.060785 -0.079277 0.025996 -0.983341 -0.290679 -0.456795 0.414779 -1.344733 0.089524 0.339181 -0.410426 0.461742 -0.030744 0.355600 1.096307 -0.196317 -0.058448 0.373838 -0.141884 -0.983341 0.248072 -0.797437 0.414779 -0.311061 -1.223163 0.339181 -0.310762 0.593342 -0.045807 0.222765 0.140585 -0.871257 -0.402699 -0.329048 -0.554193 -0.549510 -0.220353 0.045398 1.096307 -0.487146 1.347319 -0.396391 -0.566899 0.877711 -1.775059 -1.310457 0.414779 0.151302 -0.286631 -0.779701 0.588715 -0.983341 0.265506 0.118079 0.414779 0.781276 0.914462 0.339181 -0.346133 0.184069 0.114283 -0.068242 0.519817 -0.393888 -0.591613 0.694525 -0.031080 -0.360171 1.193051 0.041643 0.140585 0.782040 0.371543 -0.466268 -0.245773 -0.196317 0.402562 0.254282 0.414779 -0.357927 -0.305029 0.679834 0.310018 -0.983341 0.272181 -0.028736 1.096307 -0.677763 -0.711356 0.242781 -0.365468 0.092631 -1.330622 1.777822 -0.388458 -0.697399 0.239944 0.016113 0.402679 0.251737 0.542637 0.545386 0.414779 -0.018086 0.929345 -1.683533 -0.871054 0.774882 0.399463 0.729904 1.096307 0.679834 0.310018 0.064069 0.772611
0.687393 -0.526266 -0.980686 -1.870604 -0.582823 -0.787566 -0.773765 -0.916813 -0.769909 -6.873041 -5.943016 -4.525909 -9.573198 -3.357727 -4.802397 -2.389101 -0.431873 1.459138 2.249666 -0.264802 -2.438481 0.683077 6.382800 0.204565 0.184201 4.620221 3.633221 4.176086 4.857225 4.950152 5.949345 4.737223 4.408449 -3.496388 -3.336598 -3.492924 -3.382964 -3.304038 -2.884831 -2.862614 -2.759348 -3.691447 -3.359932 -3.303934 -3.062960 -2.398766 -2.930360 -3.084341 -3.571431 0.181377 2.633221 4.199135 2.408466 3.960952 3.973042 4.808069 4.807625 5.614722 4.174592 2.597402 4.630049 3.723356 2.939631 -2.910532 3.869161 0.231225 1.483189 0.043039 0.459271 -0.150731 -0.185009 -4.061243 0.049528 -0.206941 -0.070107 0.562248 0.086563 1.339472 -0.469816 0.605918 -0.078477 0.331868 -0.070107 -1.232300 0.013062 0.142137 -1.729075 -0.991473 -1.295770 -0.678808 -0.379385 -0.500560 1.522248 -0.351648 -0.272107 0.605918 -0.192017 0.591494 -0.070107 0.193559 1.015166 0.142137 1.284166 -0.381911 -0.579065 0.553167 0.139670 0.961245 -1.556088 0.791425 0.027721 -0.068209 -1.116832 -0.132662 -0.379385 -0.119966 0.894735 0.210665 -0.277306 -0.774892 0.645436 1.349493 -0.070107 -0.310303 -0.483246 0.231225 1.483189 0.605918 -0.178573 -0.422362 -0.070107 0.029162 -0.571906 0.142137 0.101270 -0.112950 -0.758378 -0.497407 -0.571241 -0.182882 1.194206 0.195813 -0.333580 0.078076 0.339464 0.316594 0.139670 0.235244 -0.406929 0.423645 0.094908 -0.500560 -2.767769 -1.271181 -0.070107 -0.393986 0.751752 0.043039 0.459271 0.605918 0.690224 -0.746177 -0.379385 0.547876 -1.136972 -0.247992 0.043522 0.571147 -0.267114 -0.164213 -0.344877 0.803874 0.193292 -0.131567 1.797434 1.030924 -0.960864 0.094756 -0.070107 0.383293 0.183127 0.284767 0.962955 1.129681 -0.648215 -1.073361 -0.379385 0.043039 0.459271 -0.150731 -0.185009
1.052018 -2.535932 -1.664643 -1.307063 -1.411489 -3.923065 -5.410983 -3.981149 -4.533710 -5.779213 -4.521983 -4.572827 -4.756620 -7.155870 -4.833055 -6.921118 -6.716789 2.848377 2.302504 2.739480 2.469023 2.588662 2.894935 3.330856 6.243707 5.366939 5.434473 5.284959 6.853449 5.123802 6.008113 5.593207 5.995042 -2.231308 -1.267910 -0.432391 -1.239062 -0.913001 -0.701314 -0.961689 -1.223809 -1.014450 -0.392104 -0.009450 -0.074172 0.635540 0.092946 -0.154992 -0.293844 -0.149553 -0.765509 -0.488751 0.128829 0.188621 0.422894 -0.049563 0.383680 2.264665 2.121888 0.466915 1.515586 1.490389 1.546002 0.886054 1.270878 -0.237353 -0.496979 -0.112882 -0.373612 0.026581 0.198323 -0.594257 0.419850 0.073667 -0.347812 -0.560872 -0.062897 0.450553 -0.822788 1.052705 0.710716 -0.387192 -0.347812 1.144633 0.056971 -0.683446 1.275439 -0.311834 0.093643 0.018453 -0.052660 -0.177648 -3.113803 -1.088678 -1.154638 1.052705 -1.220414 -0.783782 -0.347812 -0.119584 -0.912833 -0.683446 -1.506343 -0.485707 0.572357 -1.773179 -0.204885 -0.079087 -0.083642 0.029192 -0.345112 -1.668156 0.074266 0.494073 -0.052660 -0.280683 1.247525 0.390145 0.137429 -0.073172 1.654760 -0.249029 -0.347812 -0.369255 1.308133 -0.237353 -0.496979 1.052705 -0.314051 0.520000 -0.347812 0.214126 0.770266 -0.683446 0.369244 0.779216 0.109521 1.490139 0.572105 -0.152782 0.094233 -0.096330 -0.228614 0.389742 -0.179434 -0.068447 -0.204885 -0.266922 -0.500640 -0.510788 -0.584578 -0.177648 1.443063 0.399685 -0.347812 0.276477 0.836232 -0.112882 -0.373612 1.052705 0.566020 -0.850477 -0.052660 0.048332 0.942819 -0.328024 0.881594 -0.618971 -0.417038 0.817476 -0.356692 0.346511 0.073625 -0.761540 -0.223495 -0.630225 -0.941192 -0.055422 -0.347812 -0.957334 0.331475 0.780459 0.174165 -0.089711 -0.760929 0.729270 -0.052660 -0.112882 -0.373612 0.026581 0.198323
1.027238 1.106528 2.669354 2.172087 2.039756 2.010684 2.422386 2.107997 2.320132 7.168113 5.804368 4.384573 4.572775 -0.309132 0.364046 -2.206703 -4.518715 -1.912369 -3.003208 -0.825355 -1.296804 -1.598335 -2.113408 -1.681308 -3.542060 -2.315211 -2.437817 -2.117115 -2.374473 -2.160823 -1.984994 -1.500264 -0.217466 -1.830524 -1.513589 -0.413076 -1.130297 0.166190 -0.066940 -0.236233 -1.254539 2.007929 1.367440 1.682710 0.192379 0.467389 -0.393440 -1.390166 -0.118038 6.066469 2.549987 0.843135 1.911319 -0.176175 -0.360215 0.915830 1.326988 -1.492295 -2.052705 -2.728432 -2.529388 -1.332462 -0.228920 0.730120 0.046787 -0.029327 0.068952 0.102964 0.025945 0.263917 0.537224 -1.282205 0.303165 1.039844 -0.244156 1.071246 0.330573 -0.938294 -0.434305 0.908453 0.860910 0.252153 -0.244156 -0.603707 -0.281051 0.184946 1.288574 -0.257373 -0.215759 0.565235 -0.242308 0.151593 0.001662 -2.338317 1.060722 0.908453 -1.627946 0.397531 -0.244156 0.369020 -0.868903 0.184946 -0.330337 0.009260 -0.194528 -0.538432 -0.060163 0.304185 -0.726414 -0.078129 -0.069252 -2.009068 -0.476861 -0.188720 -0.242308 -0.569546 0.479849 0.522562 -1.026164 -0.367127 -0.495126 -0.196834 -0.244156 -0.791029 -0.615808 -0.029327 0.068952 0.908453 0.399687 -1.271121 -0.244156 -0.411239 0.017760 0.184946 0.599409 -0.605274 0.565003 0.084193 -0.469089 -0.381282 -0.051467 0.510687 -1.137782 -0.486341 0.387793 -0.080648 -0.060163 -0.471972 -1.000601 0.513180 -0.473335 0.151593 0.514180 0.249725 -0.244156 1.640783 0.000839 0.102964 0.025945 0.908453 0.027564 -0.154186 -0.242308 0.023114 -0.122099 -0.420613 -0.303899 0.883789 -0.330621 -1.115122 1.578136 0.901728 -0.290178 0.884480 -0.475913 -0.292299 0.649283 0.214881 -0.244156 -0.469367 1.157469 3.996440 -2.621456 0.834214 1.075591 -0.450101 -0.242308 0.102964 0.025945 0.263917 0.537224
-0.696785 0.886728 0.447950 1.474683 0.998979 3.748050 2.965010 3.618657 1.973588 0.346589 0.031596 2.638588 1.378809 2.953934 5.384772 3.771449 4.962999 -1.453033 -1.301252 0.243947 0.357212 -4.596852 -2.907515 -3.380453 -1.593041 -1.728717 -1.050729 -10.964892 -1.107459 -1.250531 -2.019301 -2.095124 -3.431428 4.470206 3.504251 2.655934 3.566308 3.163584 3.132080 3.505948 3.231151 -4.246305 -4.223057 -4.089965 -1.850236 -4.008125 -3.110679 3.949337 2.701635 -2.971127 -2.343523 -1.443992 -2.633019 -0.309014 -0.520362 -0.536094 -0.998148 0.160585 0.248075 0.483666 -0.099259 0.246957 -0.465730 -1.097538 -0.770327 0.336697 2.140737 -0.168561 0.334889 0.303365 -0.140161 -0.408138 0.106171 -0.537490 0.374073 0.068678 -1.347352 0.025781 -1.119186 -0.665799 -0.624981 0.957698 0.374073 1.384940 0.274158 -0.046429 2.814810 0.912546 -0.854214 0.332458 0.695162 -0.178303 -0.082441 -0.284290 1.347362 -0.665799 -0.142183 -0.053483 0.374073 -0.098446 -1.125596 -0.046429 -0.472422 -0.989029 0.613536 -0.667911 -0.080117 0.228641 0.136941 0.515208 -0.283784 1.091022 -0.003631 0.137823 0.695162 0.393547 -0.329609 0.157439 -0.834398 -0.314277 1.042413 -0.063301 0.374073 0.472123 2.095045 0.336697 2.140737 -0.665799 0.615917 -0.075757 0.374073 -0.606163 1.010848 -0.046429 -1.848496 0.912303 -0.744150 0.626177 -2.444094 0.345607 -0.547460 -0.897468 0.039218 0.382658 -0.260826 0.097499 -0.080117 0.083092 -0.023993 0.405562 -0.390022 -0.178303 -0.072862 -0.579450 0.374073 0.076858 -0.354266 -0.168561 0.334889 -0.665799 0.580338 -0.304712 0.695162 -0.168108 -1.050807 -0.095942 0.497431 -0.702435 0.195115 0.288410 -0.586578 0.746021 -0.050231 -0.240890 0.290265 -0.754758 0.642793 -0.161510 0.374073 -0.200749 0.195834 0.289785 0.631444 -2.108039 -0.364238 -0.561707 0.695162 -0.168561 0.334889 0.303365 -0.140161
0.250141 0.016121 0.012865 0.006783 0.011534 0.013906 0.002519 0.007014 0.016540 0.007995 0.002060 0.001260 0.001266 0.005233 0.001201 0.006461 0.010021 0.014155 0.006941 0.002889 0.009302 0.003899 0.000681 0.001318 0.001319 0.010315 0.009171 0.002567 0.001488 0.023084 0.003093 0.016286 0.020853 0.018179 0.016481 0.019324 0.008848 0.006508 0.006761 0.010142 0.006392 0.008592 0.006592 0.007702 0.004171 0.009298 0.005327 0.004747 0.008150 0.010719 0.005945 0.007410 0.006173 0.008827 0.004687 0.005573 0.005072 0.010085 0.006396 0.004974 0.005296 0.003881 0.005435 0.005044 0.007411 0.184459 0.062063 0.202618 0.066530 0.121107 0.111007 0.218365 0.069329 0.121391 0.040176 0.171730 0.107572 0.085258 0.109974 0.225396 0.072693 0.118436 0.040176 0.166303 0.045903 0.064253 0.100365 0.191561 0.103139 0.095192 0.039488 0.142678 0.100813 0.142378 0.072393 0.225396 0.062547 0.112528 0.040176 0.152301 0.049757 0.064253 0.102669 0.185142 0.048313 0.076702 0.037819 0.120062 0.111595 0.137583 0.125601 0.208514 0.102493 0.094667 0.039488 0.161163 0.047885 0.113481 0.073689 0.166304 0.095244 0.157201 0.040176 0.181469 0.075246 0.184459 0.062063 0.225396 0.062249 0.110628 0.040176 0.143237 0.049574 0.064253 0.102925 0.172643 0.053500 0.082321 0.041845 0.108431 0.107895 0.133265 0.170152 0.202136 0.048750 0.076130 0.037819 0.146155 0.043078 0.110302 0.116671 0.142678 0.097402 0.159372 0.040176 0.173017 0.111545 0.202618 0.066530 0.225396 0.096848 0.106917 0.039488 0.169759 0.050487 0.054306 0.076644 0.181765 0.048315 0.127064 0.041059 0.158305 0.074040 0.170535 0.110104 0.204656 0.095461 0.155990 0.040176 0.192740 0.054221 0.151791 0.066651 0.205244 0.073253 0.183106 0.039488 0.202618 0.066530 0.121107 0.111007
-1.108304 -0.012913 1.285832 2.162431 1.725124 -0.756685 -0.183519 0.020868 0.470982 -0.320932 1.145703 -0.593420 0.300746 -0.012853 -1.384043 -0.549613 -1.758525 1.041742 0.536861 0.023802 0.250796 -2.867285 -2.648668 -1.161234 0.440572 2.180849 -0.295047 0.308671 0.428682 -0.411973 0.595177 -0.156357 -0.914077 -3.339274 -3.172068 -3.538687 -3.400626 -3.746472 -3.924351 -3.848513 -3.613204 -3.098609 -2.616590 -2.140930 -2.971154 -2.412870 -1.817046 0.113972 -2.898256 3.257325 2.876820 2.208816 2.110882 1.606921 1.483410 1.277586 2.126558 3.153959 3.188960 3.445748 2.791224 4.336809 4.230511 4.429577 2.791267 -0.449132 -0.800877 0.104312 -0.787960 -0.372319 -0.201353 -0.119767 -0.187983 -0.097095 0.300040 0.607353 2.524212 -0.020342 -1.329025 -1.085823 -0.618109 -1.028533 0.300040 -0.678460 -0.666109 0.604890 -0.455709 -1.475952 0.100142 0.164796 0.514880 -0.096535 0.370076 -0.838076 -0.298857 -1.085823 -0.311904 -0.010884 0.300040 0.464327 -0.177046 0.604890 -0.381773 0.225116 0.088799 -0.455629 -1.108291 -0.341298 1.336042 -0.347210 0.201918 -2.672474 2.584894 0.190376 0.514880 -1.087440 -0.458211 -0.197060 -0.641496 0.778931 0.693225 0.484543 0.300040 -0.275200 -0.464145 -0.449132 -0.800877 -1.085823 -0.178673 0.275515 0.300040 0.068316 0.112450 0.604890 1.488575 -0.107663 0.342281 -0.388370 0.043970 0.586206 -0.244164 -0.422505 -0.007371 -0.218181 0.377188 0.202045 -1.108291 -0.022770 1.121279 0.618310 0.303493 -0.096535 -2.046272 1.142236 0.300040 1.207079 0.653498 0.104312 -0.787960 -1.085823 0.757195 0.378074 0.514880 0.817985 0.435629 0.158335 0.305423 -0.277966 0.227387 0.638859 -0.046254 -0.006965 0.496482 -0.645086 -0.323957 0.420947 -0.506355 0.963778 0.300040 0.402817 -1.967151 0.225817 2.135216 1.725842 0.234642 0.892994 0.514880 0.104312 -0.787960 -0.372319 -0.201353
0.385161 1.422758 0.725695 0.548624 0.700997 1.752577 1.660712 1.343942 1.086425 0.242041 1.683159 1.653880 0.259315 0.857951 2.383844 1.817301 2.655275 -0.345778 -0.843227 -1.220457 -0.307248 -0.246363 -4.873017 -0.738935 0.210647 0.016638 -0.958403 -5.403409 -1.141229 -0.620458 -1.505320 -1.006383 -1.426391 2.210500 1.716242 1.432687 1.502302 0.110758 1.384063 1.141638 1.888813 -1.433584 -1.407618 -0.361396 0.509224 -1.475479 -0.305723 1.714067 0.750168 -1.963172 -1.490538 -1.132407 -1.593748 0.494864 0.224165 0.494762 -0.706922 0.302397 0.030039 -0.108237 -0.749324 -0.154162 -0.812125 -1.288845 -0.538248 0.533269 0.262873 -0.550186 0.069227 0.331386 -0.406820 -0.343970 -0.772739 -0.094729 -0.011246 -0.201692 -0.169548 -0.306860 1.636987 0.345342 0.482611 -0.093505 -0.011246 1.003151 -0.440135 -0.085234 -0.419840 1.429813 -0.033363 -0.369267 -0.361518 0.058457 -0.571421 0.389921 0.043062 0.345342 0.911415 -3.775779 -0.011246 -0.329549 -0.519737 -0.085234 0.615424 -0.842055 0.469140 -0.007882 0.055795 0.135318 -1.646550 -0.293738 0.672238 0.461041 -0.064102 -0.665319 -0.361518 0.039714 0.223337 0.075643 -0.027940 -0.531573 0.392411 -0.196079 -0.011246 0.289324 0.204381 0.533269 0.262873 0.345342 0.206692 1.099487 -0.011246 -0.017694 0.050833 -0.085234 -0.361166 0.009970 -1.173268 0.710945 -0.676647 -0.698428 0.157539 -0.128807 0.230757 -0.363409 0.027374 0.746730 0.055795 -0.189756 -0.072950 0.476098 0.153407 0.058457 0.368440 0.152935 -0.011246 0.267163 0.317398 -0.550186 0.069227 0.345342 -0.480403 1.355393 -0.361518 0.254383 -0.347268 -0.601595 0.195375 -0.102087 -0.081993 -0.394185 0.507296 -0.408217 0.455746 -0.255589 0.880835 -0.053635 0.211039 -1.105020 -0.011246 -0.183541 -0.557004 -1.125903 -0.166106 -1.407328 0.702109 -0.720203 -0.361518 -0.550186 0.069227 0.331386 -0.406820
-2.233487 1.957467 2.039496 0.974590 0.412976 0.767316 0.451825 0.933221 1.633853 4.476739 6.077405 4.983542 3.942280 5.088070 7.085087 6.225509 6.833017 -2.762726 -4.683022 0.935994 0.293663 0.073926 -2.139384 0.229810 0.440761 -6.744790 -5.484046 -5.892269 -4.496226 -7.681734 -7.095097 -5.621341 -5.489396 1.122640 0.673240 1.897690 1.198556 2.386917 2.843990 1.882863 2.027745 1.727928 2.277798 2.202979 2.666221 0.537426 1.699767 1.056223 2.091957 -3.450765 -3.039863 -2.887657 -3.472477 -2.461006 -1.981575 -4.708305 -3.041925 -2.773159 -1.688148 -1.762273 -1.651463 0.956151 -1.057444 2.646541 -0.154060 -1.051589 -0.093355 0.404465 -0.085008 -0.381505 0.318072 1.975774 0.239861 0.191328 -0.243890 -0.287008 -0.335490 -0.553381 -5.960914 -2.208434 0.793558 -0.132329 -0.243890 0.094318 0.585515 0.421633 0.833422 1.251115 0.351712 -0.293862 2.504928 -0.283293 -0.301487 0.520182 1.048834 -2.208434 -0.530224 -0.676157 -0.243890 0.334251 -0.094961 0.421633 0.424171 0.044465 -0.571803 -1.323471 -0.603005 -0.443777 3.045096 0.289220 -0.350951 -0.374843 -0.212813 0.864578 2.504928 0.034617 -0.892814 -0.263700 -0.109899 -0.290434 0.542123 -0.005752 -0.243890 0.789603 1.988517 -1.051589 -0.093355 -2.208434 0.434221 1.177877 -0.243890 -0.323151 0.268792 0.421633 0.347490 -0.035628 0.498445 0.847686 -0.147090 1.149556 0.457830 -0.058816 0.854561 0.342377 -0.469794 -0.249115 -0.603005 0.207422 0.456299 0.293061 -0.206903 -0.283293 -0.903451 1.254186 -0.243890 0.102427 0.066223 0.404465 -0.085008 -2.208434 -0.075017 -0.695711 2.504928 0.450835 1.194141 0.695347 -0.325468 0.345352 0.755936 0.425162 -1.606456 -0.286683 -0.948961 0.711498 -0.034010 0.076869 0.279062 -0.243726 -0.243890 -0.412366 1.009664 0.793284 -1.094301 -0.687314 -0.469082 -0.099516 2.504928 0.404465 -0.085008 -0.381505 0.318072
0.350105 1.857325 0.011369 -0.151138 -0.311807 0.256470 0.619189 0.168709 0.871779 -1.198001 -0.566350 1.676070 0.228487 0.386644 2.430617 2.110295 3.661455 0.315862 -1.122567 -1.450514 -0.794844 0.145107 -2.040634 0.180058 1.351324 -0.166104 -1.098883 -1.506021 -0.580614 -1.073096 -0.923986 -1.337662 -1.598433 0.946032 0.928144 0.411767 1.007580 -0.214145 0.565802 0.832326 1.016369 -1.832957 -0.707197 -0.222638 -0.196996 -0.712836 -0.439665 0.584777 -0.106538 -1.829572 -1.627787 -0.304770 -0.832749 0.807759 0.220103 0.169248 -0.840388 1.567571 0.687973 0.355703 -0.214978 0.805083 -0.013639 -0.793573 0.334292 -0.868398 0.112608 -0.014224 -0.328478 -0.063816 -0.302397 1.212371 -0.044886 -0.771496 0.044322 -0.540404 0.243557 0.480749 0.973079 0.301323 0.881992 -0.108885 0.044322 1.784843 -0.144195 -0.153238 0.029456 0.324151 -0.285737 0.046053 -0.262125 -0.119778 -0.595514 0.333818 -0.694177 0.301323 0.758951 0.008296 0.044322 -2.716568 -0.111741 -0.153238 -0.043634 -1.082544 0.524258 0.604277 -0.578137 -0.276241 -0.192190 0.808879 0.124834 0.666761 0.081052 -0.510417 -0.262125 -0.820719 -0.234480 0.371732 0.600953 -0.356503 -0.294309 0.288671 0.044322 0.290590 0.996991 -0.868398 0.112608 0.301323 -0.190279 0.879953 0.044322 0.200345 0.197966 -0.153238 -0.797227 0.903535 -1.289956 0.313344 -0.007918 -0.569541 1.296502 -0.623961 0.516324 0.441925 0.754613 0.176931 -0.578137 -0.041574 -0.420193 0.441943 0.697731 -0.119778 0.601268 -0.029947 0.044322 -0.918299 -0.076357 -0.014224 -0.328478 0.301323 -0.777773 1.334714 -0.262125 1.211439 -0.407343 -0.256408 0.539419 0.666055 -0.834612 0.004970 0.232004 -0.309309 0.733729 -0.489416 0.471688 -0.156656 -0.016940 -1.186460 0.044322 -1.546874 -0.399077 -0.068169 0.452988 -0.317111 -0.009860 -0.519009 -0.262125 -0.014224 -0.328478 -0.063816 -0.302397
-0.575540 0.515061 0.192309 0.775423 0.018720 0.483402 1.085891 0.796606 1.504096 2.604156 2.181095 2.241420 1.949639 3.080717 3.214178 3.276054 4.458583 -2.811205 0.070081 0.075216 -0.157919 -0.740991 -1.821086 -0.705767 -1.835842 -3.616526 -0.846874 -1.592862 -0.673497 -3.512091 -2.156519 -3.683433 -4.943576 3.857282 2.622596 1.999601 1.315081 1.513756 1.402951 1.202985 1.495652 0.437074 0.998676 0.434889 1.213090 -0.025773 0.463201 -0.618832 0.919680 -2.827701 -2.904477 -1.752937 -2.687097 -1.884550 -1.042252 -0.266516 -1.197891 -1.737301 -0.736022 -0.765685 -0.813529 -0.500028 -0.885523 0.460509 -0.266451 -0.385771 0.597584 0.092948 -0.214571 0.282569 0.675472 -0.515704 0.394751 -1.000832 0.321134 -0.088145 -0.832158 0.366157 1.013947 -0.518659 0.565933 0.488202 0.321134 0.149080 0.668754 0.144931 0.410299 1.248909 -0.217172 0.125507 0.467726 0.225553 0.408920 0.242795 0.833768 -0.518659 -0.628292 -0.919344 0.321134 0.633550 -3.125530 0.144931 -0.822713 -0.046110 0.162841 -0.753964 -0.812194 -0.656371 -2.164263 -0.294048 -0.291274 0.234635 -0.634160 0.535707 0.467726 0.944196 0.526291 0.835662 -0.245012 -0.475180 0.954214 0.320513 0.321134 -0.057569 1.194072 -0.385771 0.597584 -0.518659 -0.163324 0.942479 0.321134 -0.228394 0.890894 0.144931 0.263025 0.275318 -0.683625 0.731793 -1.678679 0.358974 0.296949 1.252934 0.018308 0.408746 -0.554792 -0.276297 -0.812194 -0.286561 -0.114860 -0.272838 -0.082219 0.225553 -0.497541 -0.371353 0.321134 0.348509 -0.109195 0.092948 -0.214571 -0.518659 0.290525 -0.449082 0.467726 -0.406162 1.501203 0.277930 -0.186840 -0.729932 0.027647 0.833499 0.087721 -0.407388 -1.227840 -0.584868 -0.370486 -0.337692 0.028688 0.004225 0.321134 -1.271214 0.897238 0.726069 -1.653608 -0.725808 -0.008490 0.220326 0.467726 0.092948 -0.214571 0.282569 0.675472
-2.525950 -5.135458 -9.296472 -7.801058 -6.766104 0.585421 -1.483073 -0.780538 -1.677617 -6.793098 -8.784094 -7.063937 -7.439038 -4.477704 -5.952656 -4.009801 -3.568891 4.468643 4.149886 3.815651 1.583812 4.263088 3.593675 3.231063 3.917020 5.794908 5.729991 5.534266 6.398942 6.108705 6.433243 6.364201 6.531074 -2.634106 -2.546707 -2.628467 -2.125164 -2.630382 -2.445674 -1.835675 -1.427751 -2.540607 -2.376526 -2.058272 -2.038332 -0.545497 -2.066691 -1.308602 -2.090088 1.178536 1.358634 2.322777 0.537884 3.088004 2.784095 0.095091 1.122852 3.112236 3.181366 2.984225 4.044766 0.870387 1.354939 0.495692 2.241105 -0.306757 0.603982 0.911967 0.268909 -0.243370 0.023383 2.006177 -0.286572 0.663208 -0.018802 -0.512001 -0.680565 1.432921 -0.287479 -2.509736 -0.402505 -0.115847 -0.018802 -0.874698 -0.097844 0.303528 -1.755852 0.597225 -0.880761 -0.190826 -0.031211 0.301962 1.141677 1.056033 -0.437583 -2.509736 0.922647 -0.317817 -0.018802 0.049280 0.797696 0.303528 0.241883 0.197544 0.038545 0.776834 0.300918 -0.239171 0.549327 0.011986 0.740748 1.828982 -0.243637 0.007910 -0.031211 -0.230063 0.188839 -0.282435 0.088762 -0.614364 -0.613712 0.924606 -0.018802 0.260226 -0.575270 -0.306757 0.603982 -2.509736 0.304733 -0.267290 -0.018802 0.319664 0.167114 0.303528 -1.536735 0.218405 -0.480709 -0.209258 -0.507328 0.044167 1.627758 -0.045371 -0.429494 0.043642 0.324351 0.677054 0.300918 -0.302953 -0.376384 0.398343 0.333022 0.301962 -1.548164 -1.061321 -0.018802 -0.219313 -0.229010 0.911967 0.268909 -2.509736 0.853338 -0.316996 -0.031211 -0.501905 0.313853 1.373816 -0.736596 -0.096168 -0.271446 1.471614 0.824271 -0.946260 -0.727571 -0.445565 1.308273 1.635387 -0.037356 0.608472 -0.018802 -0.842067 1.198378 -0.030262 -0.843337 0.795484 -0.101780 -0.059658 -0.031211 0.911967 0.268909 -0.243370 0.023383
0.528613 -8.355658 -8.012109 -2.699239 -4.166624 -3.305892 -1.906466 -2.657865 -2.617306 -1.322198 1.068093 0.129272 -1.283887 -0.085680 -0.341504 0.219541 0.916174 3.488949 2.917896 3.764570 5.404964 2.743272 4.232365 5.664482 6.841120 0.586671 -0.623915 0.961029 1.393568 -0.359340 -0.505839 -0.605438 -0.954394 2.993174 2.764694 2.686943 2.840098 2.212959 1.317996 1.606164 1.717019 2.017788 1.980436 0.595062 1.697546 1.408867 0.505740 1.751184 1.606142 -2.980006 -2.771999 -2.884337 -1.956498 -2.847018 -2.396769 -1.487112 -2.228107 -1.402964 -1.627284 -1.317593 -2.027297 -0.084014 -0.439047 -1.548332 -1.174824 -0.121206 -0.294442 -0.530449 -0.016551 -0.076944 0.225845 -1.682495 0.095192 1.089950 -0.336810 0.780989 -1.235223 0.065967 -0.849820 0.487888 0.469389 -0.563749 -0.336810 -0.498638 0.115983 -0.525804 0.079864 -1.091960 -0.089845 0.794799 -0.123041 -0.184255 0.829470 0.365708 0.736321 0.487888 -0.262114 0.670153 -0.336810 -1.349373 -1.399432 -0.525804 -1.004415 -0.034211 -0.172215 0.172324 0.915614 0.111956 0.238052 0.278077 -0.087970 0.407386 -0.134582 -0.083598 -0.123041 -0.177936 -0.260043 0.198736 0.676735 0.131993 1.045514 -0.590058 -0.336810 0.491874 1.042311 -0.121206 -0.294442 0.487888 -0.548377 -0.456807 -0.336810 0.524013 0.624133 -0.525804 0.886578 -0.661701 -0.286143 0.407604 2.273788 0.097899 0.679653 -0.744610 -0.339906 0.820079 0.433827 -0.647116 0.915614 -0.541283 -0.457009 -1.099167 0.413150 -0.184255 -0.406998 -0.109697 -0.336810 -0.777970 0.046746 -0.530449 -0.016551 0.487888 0.299700 -0.784083 -0.123041 0.158240 -0.325198 -0.486073 -0.167703 -0.018503 0.092180 0.552741 1.301384 0.531472 -0.797816 2.422052 0.183950 -1.635629 -0.554092 0.297599 -0.336810 1.385724 -0.143689 1.056448 -0.725265 -1.285900 1.262184 -0.025652 -0.123041 -0.530449 -0.016551 -0.076944 0.225845
0.916015 1.524570 -1.116044 -1.685701 -2.398148 1.617405 2.593347 0.342236 -0.197191 -1.863556 1.225835 -2.222563 -3.617596 4.961656 3.847603 5.582128 7.424817 -0.030740 -1.647217 -2.061828 -1.960065 0.964141 -1.407728 1.566286 3.342550 -1.861902 -2.796490 -1.685798 -0.795769 -1.995392 -1.340144 -1.813373 -1.579315 0.645610 0.645953 0.331542 1.022494 0.073135 0.539841 0.526431 1.453300 -1.094299 -0.808225 -0.553442 -0.100951 -1.670557 -0.844010 2.962340 0.308073 -2.204220 -1.212009 -0.002854 -0.780085 4.004444 1.871667 0.752796 -0.350847 1.163889 -0.284941 -0.324209 -1.324249 -0.698279 -0.882023 -1.426202 -0.824098 -0.252483 0.113348 -0.536432 0.398651 -0.212365 -0.560066 -2.057224 -0.072124 -0.505512 0.141852 -0.205804 -0.180348 0.771120 1.770912 0.881030 0.526462 0.065624 0.141852 0.356154 -0.464927 -0.240641 -0.290448 0.743070 -0.867415 0.013216 -0.153833 -0.288842 -0.345953 0.032507 -0.731313 0.881030 0.312640 0.090756 0.141852 -0.752286 -0.340359 -0.240641 0.101670 -2.502946 0.333873 1.721455 -0.249454 0.509079 -0.931706 0.422394 -0.126090 2.605932 0.161838 -1.157500 -0.153833 0.098207 -1.029933 0.128857 1.247380 -0.259643 -0.945188 -0.770823 0.141852 0.355557 0.042001 -0.252483 0.113348 0.881030 -0.769230 0.358260 0.141852 0.696293 0.693331 -0.240641 -0.718460 0.575229 -0.946136 -0.676520 1.148508 -0.376955 1.803830 -0.494419 -0.013605 0.756515 0.571985 0.523288 -0.249454 -0.244522 -0.070221 -0.082615 0.353523 -0.288842 0.176782 0.388760 0.141852 -0.853683 -0.350891 -0.536432 0.398651 0.881030 -0.180390 0.613549 -0.153833 0.682922 0.025161 -0.372553 -0.410024 0.052630 0.444368 0.001619 -0.304612 0.511027 0.732942 0.114494 0.482566 0.374103 0.114763 -0.084676 0.141852 -0.700924 -0.237184 -1.386100 -0.221623 0.208063 0.409786 -0.522694 -0.153833 -0.536432 0.398651 -0.212365 -0.560066
-1.128275 -6.054031 -8.677760 2.172634 1.999123 0.300073 -2.427892 0.004378 1.251848 -1.061915 0.716191 -0.033572 -1.182903 1.247117 1.658481 2.062343 3.856250 1.754190 1.039963 1.802618 1.573342 2.531865 1.023496 2.060476 1.152155 -0.611785 -0.860794 -0.669682 0.269422 -1.320355 -1.746135 -2.091697 -2.865719 2.914039 2.207282 2.566992 1.808800 1.849545 1.848056 0.909611 1.449400 1.401776 1.699533 1.225119 2.060905 -0.418982 0.175826 0.399144 1.172161 -4.415608 -3.316457 -2.405788 -2.321851 -1.948632 -2.368547 -1.778922 -1.520664 -1.348434 -0.820193 -1.462147 -0.479013 -0.098159 -0.094659 0.605278 -0.623686 -0.299008 0.054535 0.024879 -0.520662 -0.212093 0.234698 -1.083980 0.105161 0.178838 0.149035 -0.165302 -0.429239 1.489343 -2.304715 -1.076412 0.097693 -0.353399 0.149035 -0.324605 0.078778 0.168730 0.476446 1.126195 -0.161191 0.070240 0.294489 0.098288 0.641088 0.310275 -0.437277 -1.076412 0.084561 -0.715299 0.149035 -0.308382 -0.646285 0.168730 -0.625798 -1.015315 -1.073165 -0.948040 -0.155661 -0.656565 3.337837 1.011869 -0.206206 1.309863 0.314585 0.653979 0.294489 0.222125 0.566870 0.378927 0.454043 -0.204239 0.373355 -0.818492 0.149035 -0.560974 0.880496 -0.299008 0.054535 -1.076412 -0.515076 1.014040 0.149035 0.225822 1.280207 0.168730 -0.124327 0.917593 -0.701153 0.491868 -1.080970 0.721288 0.790478 -0.924292 0.084756 0.658569 -0.200840 -0.174342 -0.155661 -0.262192 -0.809375 -0.634901 0.201432 0.098288 -0.414606 -0.059151 0.149035 0.418470 0.246299 0.024879 -0.520662 -1.076412 1.803121 -0.454187 0.294489 -1.283937 0.769533 0.753680 0.598525 -0.599051 0.890015 1.600124 -0.096585 -0.609806 -0.878132 -0.864130 0.009146 0.040184 0.521962 0.548658 0.149035 -0.214667 -0.482536 0.014811 0.162364 -0.459106 -0.348305 -0.030256 0.294489 0.024879 -0.520662 -0.212093 0.234698
-0.291090 -3.459537 -2.656597 -0.406782 -0.502954 -0.734969 -1.220901 -1.055278 -1.530916 -0.821664 -2.604529 -1.009972 0.408389 -1.905890 -1.954552 -2.967346 -4.265898 -0.431557 1.847300 1.720603 1.464935 -0.636125 3.995943 -0.583970 0.154341 1.730808 3.457290 1.628705 1.387388 2.842934 1.881964 2.859854 3.077890 -1.425207 -1.378028 -1.202722 -1.249458 -1.280772 -0.817177 -0.351841 -0.892670 -0.481090 -0.587016 -0.410434 -0.980672 0.276902 -0.295971 -0.700121 -0.455844 1.741975 2.291995 1.246851 1.112739 0.647174 0.630500 0.557314 0.785918 0.538461 0.559334 1.031412 1.066767 0.160046 0.116728 -0.410821 -0.135362 -0.086798 -0.230847 -0.240612 0.463080 0.186068 0.214253 3.136009 -1.018190 -0.608302 0.094965 0.293428 -0.529764 -0.743269 3.036916 -0.360714 0.116754 1.368798 0.094965 -1.615240 0.646106 0.022653 0.840798 -1.145902 0.602879 -0.034829 0.569652 0.165691 -0.253640 0.146965 0.353558 -0.360714 -0.361171 0.196119 0.094965 0.120379 -0.088480 0.022653 -0.268948 0.786614 -1.236569 -1.953272 1.019491 0.064285 -3.230147 -0.214939 0.172811 0.766387 -0.267657 0.080574 0.569652 -0.244113 0.190706 0.159681 -0.496912 0.215287 -0.203370 -0.275705 0.094965 -0.152960 0.194515 -0.086798 -0.230847 -0.360714 1.022053 -1.269036 0.094965 -0.151869 -0.194723 0.022653 -0.405684 -0.529011 0.305067 -0.308282 -0.305422 -0.240109 -1.366780 0.079714 -0.195895 -0.891008 0.141528 -0.318316 1.019491 0.562257 -0.063562 -0.123050 -0.127537 0.165691 -0.008901 -0.296177 0.094965 0.089888 -0.191059 -0.240612 0.463080 -0.360714 -0.693047 -0.438749 0.569652 -0.760511 -0.013707 -0.401019 -0.313184 0.750400 -0.726623 0.614360 1.471439 -1.181850 -0.936377 0.516353 0.186930 -0.122758 -0.517240 -0.188940 0.094965 -0.337082 0.760480 -0.980193 -0.529986 0.348464 -0.777357 0.364215 0.569652 -0.240612 0.463080 0.186068 0.214253
-1.480880 -2.895444 -2.832094 0.100299 -1.425164 -0.329852 0.227159 -0.766789 -1.409792 -7.000591 -7.707693 -1.425642 -1.527143 -4.498949 -1.629591 -2.285843 -2.133217 2.126986 2.748262 1.812378 2.070124 -2.829474 -0.355453 1.338461 2.925334 2.502971 2.933390 2.722340 3.174135 3.901579 3.190914 3.705729 4.091791 -0.704982 -0.613495 -0.352142 0.015537 -1.375179 -0.607767 -0.463978 -0.577790 -2.343465 -2.743519 -2.687279 -1.523104 0.221704 0.242341 0.494823 -0.147331 -0.896052 -0.161133 0.011112 -0.294403 2.065614 1.884193 0.674506 0.567258 2.788493 2.026858 2.218057 1.880340 -0.218379 0.082429 -1.242374 0.298228 0.699353 -1.481002 -0.605757 1.203032 -0.349477 -0.384733 -0.050335 0.283911 -0.002048 -0.098405 -0.292788 0.312650 -0.863452 -1.295550 -1.447841 -0.684872 0.869362 -0.098405 -1.431205 0.988202 -0.131197 0.134473 -1.313185 1.047790 0.208551 -0.121525 -0.021619 -0.155330 0.764064 1.056211 -1.447841 0.739747 -0.816319 -0.098405 -1.039318 -0.063037 -0.131197 0.804905 0.681399 0.055507 0.528031 0.281949 0.268813 -1.422296 -0.469080 -0.037456 2.215734 -0.670206 0.179823 -0.121525 0.797504 -2.280164 -0.562672 -0.268662 0.049304 -0.499931 -0.624800 -0.098405 -0.092527 -0.206454 0.699353 -1.481002 -1.447841 -0.422831 0.380389 -0.098405 1.023926 0.225886 -0.131197 -0.205919 -0.252457 -0.108426 -0.115671 0.924922 -0.208604 0.132609 0.572099 -0.165100 1.788952 -0.140060 0.501849 0.281949 -0.546034 2.352147 -0.195036 1.013833 -0.021619 0.297292 0.315170 -0.098405 -0.367304 0.833601 -0.605757 1.203032 -1.447841 -0.654892 -0.772227 -0.121525 0.612280 0.333131 -0.315202 -0.042345 -0.322814 1.352503 -1.258952 2.922525 -0.638510 -1.441556 0.078693 -0.374008 0.251644 -0.821675 -0.108958 -0.098405 0.917627 0.974703 -0.592576 0.621845 -0.574515 0.079147 1.157786 -0.121525 -0.605757 1.203032 -0.349477 -0.384733
-0.950488 -6.868174 -9.620907 -4.046178 -3.367887 0.827884 -1.934812 -0.573543 0.525607 -9.105347 -10.642998 -3.651882 -7.157185 -8.421887 -8.959277 0.360633 1.613973 4.570486 4.522664 2.706204 1.306557 1.970050 2.165756 1.805304 3.420165 6.472382 5.205739 4.720969 5.660888 6.704951 6.236537 6.335756 6.267083 -4.180923 -4.202570 -3.981274 -4.006303 -4.075313 -3.669563 -3.225724 -3.366430 -5.102797 -4.048212 -3.549667 -3.509238 -2.259194 -2.912832 -2.176394 -3.419815 -2.126779 -1.449203 12.610363 -1.773478 6.651286 6.470526 6.991886 7.449256 4.097282 3.999365 6.240701 7.035841 0.101760 0.372740 -1.069261 1.133476 -0.221752 0.872595 0.596905 0.500311 -0.024070 0.209461 0.571212 -0.162944 -0.051774 0.113757 0.125410 -0.404964 0.495940 -0.107137 -1.008888 -0.133120 -0.078232 0.113757 -1.359642 0.197761 0.359957 -2.478809 -0.884051 -1.102472 -0.613458 0.379116 -0.004629 1.779059 0.239367 -0.235480 -1.008888 -0.232687 0.335345 0.113757 0.518389 1.012656 0.359957 0.990689 0.588972 -0.809838 0.745179 -0.122271 -1.040751 -0.496155 0.195516 0.200027 0.281746 -0.241831 -0.101847 0.379116 -0.341579 0.529300 -0.530402 0.177790 -0.496897 0.274834 0.971804 0.113757 -0.019041 -0.335228 -0.221752 0.872595 -1.008888 -0.131635 -0.132353 0.113757 0.115966 -0.723046 0.359957 0.504973 -0.541793 -0.492184 -0.144454 0.024839 0.133520 1.338766 -0.173479 0.176217 0.462284 0.257748 0.098254 -0.122271 0.093163 -0.154626 0.437919 0.276062 -0.004629 -3.648163 -0.987601 0.113757 -0.396209 0.260755 0.596905 0.500311 -1.008888 0.437920 -0.416354 0.379116 0.478754 -0.342110 -0.005046 -0.518095 -0.057333 -0.425557 1.018911 -0.758085 -0.330554 -0.749778 -0.107557 0.697500 0.808333 -1.009560 0.427761 0.113757 0.444623 0.382608 0.025799 -0.045708 1.253952 -0.318355 -0.858170 0.379116 0.596905 0.500311 -0.024070 0.209461
0.735113 -5.016445 -4.580052 -3.755217 -3.293349 -6.472653 -5.862037 -7.376581 -8.175281 -7.868570 -6.443249 -5.754039 -5.665999 -5.950449 -5.373474 -5.966167 -6.777883 6.229347 6.329808 4.519645 3.017405 5.543088 5.812130 5.531673 5.997787 6.382490 7.066651 5.954298 6.572551 5.914597 6.986164 6.379008 6.829915 -1.900324 -1.285657 -1.088586 -1.272021 -0.407503 -0.486117 -1.474552 -1.777000 -1.119647 -0.470756 -0.792187 -0.799043 1.252443 1.337444 1.598808 1.043609 0.145606 0.710376 0.470756 1.248256 0.118995 -0.024563 -0.158780 0.169456 1.792070 1.721136 0.953764 0.671662 0.303117 0.294308 -0.327198 0.287243 -0.305786 -0.492263 -0.259555 -0.342791 -0.070770 -0.194501 -0.011840 -0.021877 -0.154363 0.185463 0.656913 1.055988 -1.218652 0.269017 0.732134 -0.814871 -0.400474 0.185463 0.057502 0.362661 -0.328712 1.270695 0.175097 -0.015878 0.176490 0.384323 -0.085709 -2.659403 -0.955335 -1.277372 0.732134 1.019052 -0.461083 0.185463 -0.874211 -0.449937 -0.328712 -1.730709 -0.094286 0.525234 -0.228584 1.364213 0.265245 -0.331489 -0.679742 -0.614894 -0.089039 0.165501 0.224616 0.384323 -0.030647 -0.879821 -0.108353 -0.711158 0.525608 0.455104 -0.638241 0.185463 -1.054903 0.482737 -0.305786 -0.492263 0.732134 0.513123 0.758150 0.185463 0.542212 0.556781 -0.328712 -0.428988 0.543082 -0.198454 0.864046 -0.315894 0.076763 -0.008867 0.819529 -2.165536 0.499704 0.407325 -0.470729 1.364213 0.113323 -0.295197 0.778815 0.294009 -0.085709 1.685316 1.385569 0.185463 -0.379748 0.153721 -0.259555 -0.342791 0.732134 0.099620 -0.349999 0.384323 0.231681 -0.558814 -0.157686 0.751183 -1.432378 1.016625 -0.468396 0.029325 0.253311 1.029927 -0.915153 -0.279979 0.456812 -0.384742 0.031208 0.185463 -0.994975 -1.823247 0.872123 1.742384 0.550416 0.308723 0.964235 0.384323 -0.259555 -0.342791 -0.070770 -0.194501
1.679396 -0.181794 1.349722 1.362920 1.801779 1.514570 2.016650 2.048602 2.461253 4.642713 2.587896 1.574545 3.030513 -0.271436 1.518514 -0.545538 -2.176795 -0.792697 -1.552855 -0.448600 -0.828858 -1.804304 -2.325497 -1.348668 -2.812055 -1.080103 -1.206908 -1.112271 -1.749403 -1.256335 -1.425435 -0.957911 -0.352821 -0.932791 -0.834047 -0.064530 -0.826771 0.275634 -0.119352 -0.120638 -1.016658 1.475011 0.905786 1.036159 -0.022712 0.390772 -0.128257 -1.118383 -0.425563 4.066501 2.152520 0.262826 1.710754 -0.329286 0.066929 0.367899 1.484610 -1.522353 -1.617843 -1.783823 -1.583209 -1.366992 0.035050 0.897491 0.364664 0.244550 -0.051080 -0.517817 0.202643 0.358438 0.493086 0.753863 0.298438 1.071432 -0.230661 1.002921 0.788358 -0.406900 0.928501 1.539186 0.515097 0.566931 -0.230661 -0.836335 0.004502 0.273065 0.550531 0.007051 -0.495030 0.505383 -0.354757 0.121373 0.986724 -0.352459 1.211998 1.539186 -0.968494 0.523868 -0.230661 0.475289 -0.911927 0.273065 0.430613 0.456388 -0.142244 -0.375881 0.173000 0.431602 -2.905031 -2.206666 0.349411 -5.531790 -0.257506 -0.211495 -0.354757 -0.263000 0.737412 0.334503 -1.178058 -0.423237 -0.360951 -0.031454 -0.230661 -1.031600 -0.316276 0.244550 -0.051080 1.539186 0.279592 -1.234755 -0.230661 -0.549876 -0.515854 0.273065 1.532013 -0.701547 0.806508 -0.210581 -0.363729 -0.419314 0.004605 0.672733 -1.198182 -1.222463 -0.085093 0.196756 0.173000 -0.460704 -1.114819 0.488274 -0.568483 0.121373 -0.704414 -0.066738 -0.230661 1.977736 -0.106976 -0.517817 0.202643 1.539186 0.043799 -0.323551 -0.354757 -0.277921 0.348972 -0.608735 -0.388342 0.598781 -0.366214 -0.938497 1.532016 0.691589 -0.770269 0.564690 -0.649473 0.047615 0.678455 0.244839 -0.230661 -0.258058 0.838435 2.841590 -1.451881 0.147479 0.799168 -0.626315 -0.354757 -0.517817 0.202643 0.358438 0.493086
0.439617 1.075020 0.371513 0.702601 1.521259 2.571242 3.027845 1.304836 0.476524 0.823042 1.228670 2.800620 2.436320 1.854499 4.053714 3.158115 4.357186 -1.245210 -0.548554 -1.278455 -0.107792 0.154375 -3.983917 -1.657155 -2.609923 -1.819291 -1.955789 -4.157615 -2.195562 -1.611743 -3.486003 -2.348436 -2.472316 2.887648 2.400138 2.557187 2.516718 1.381630 2.460271 2.598627 2.830446 -0.166746 -1.010455 -0.208236 1.158472 -1.780482 0.216439 1.131158 0.787028 -3.101189 -2.693383 -1.826729 -2.115444 -0.173787 -0.763969 -0.152640 -0.960434 -0.226794 0.080412 -0.681756 -1.134462 -1.011233 -1.480795 -1.899374 -1.178649 -0.082808 0.675798 -0.887023 0.461968 0.563980 -0.672166 -1.210264 -0.718353 0.526558 0.168290 0.088522 0.278609 0.685063 2.130789 0.428167 -0.343657 0.361793 0.168290 0.577765 -0.368344 0.139954 -0.604958 1.146311 -0.351395 -0.469485 -0.118796 0.246142 0.246334 0.016865 0.577696 0.428167 -0.447408 0.425172 0.168290 0.195933 0.425980 0.139954 0.463672 -0.572543 0.175969 -0.596618 -0.350201 0.256407 -3.203866 0.238436 -1.444805 1.821597 0.138750 0.246499 -0.118796 0.930982 0.173632 -0.808481 -0.300359 -0.468705 1.116482 -0.235382 0.168290 -0.141301 0.140672 -0.082808 0.675798 0.428167 0.047430 -0.482494 0.168290 -1.098053 -0.094144 0.139954 -0.282640 0.296720 -0.788459 0.475027 -0.791453 -0.320005 0.439184 -0.503309 0.585348 0.111678 -0.168468 0.243674 -0.350201 -0.558787 -0.143351 0.930630 -0.623118 0.246142 -0.517956 -0.054980 0.168290 0.234918 0.179090 -0.887023 0.461968 0.428167 0.050716 -0.178451 -0.118796 0.036262 -0.911185 -0.063477 0.494478 -0.483890 0.455698 -0.485681 -2.545843 0.254363 0.185780 -0.200905 1.277737 -0.239101 0.011866 0.268449 0.168290 -0.384148 -0.276706 -0.123752 0.153807 -1.943589 -0.329673 -0.444245 -0.118796 -0.887023 0.461968 0.563980 -0.672166
1.959860 1.814431 1.448810 1.376314 1.248281 3.774271 3.424103 3.078883 0.984805 -1.485431 3.085446 5.151319 -3.063416 6.115073 6.709324 8.050293 9.689075 1.953799 1.450831 0.872472 1.119576 -4.869578 -5.325105 -5.855705 -5.497697 -4.005699 -4.753946 -5.378321 -3.659067 -4.329637 -3.523753 -4.213285 -3.426606 2.582022 2.958792 2.805611 2.872702 2.810183 2.844205 3.334287 3.345069 0.815748 1.323588 0.585408 1.090995 -0.787064 -0.109585 2.876624 1.532915 -2.678460 -2.658340 -2.969206 -2.317591 -0.707099 -2.501375 -2.529224 -2.528697 -0.544785 -2.816115 1.628411 -4.166266 1.264485 1.477488 -3.766765 -3.108101 -0.939448 0.830251 -0.301198 0.533837 -0.260339 -0.047102 -1.184249 0.017311 0.290637 0.141465 -0.080591 -0.320717 -0.144123 1.837656 1.928442 -0.193856 -0.421580 0.141465 -0.038831 1.649265 -0.028234 0.969029 0.271572 -0.885706 0.103775 -0.079599 -0.237346 -0.934756 0.005326 0.105623 1.928442 0.076274 0.527833 0.141465 -0.191193 1.669588 -0.028234 -0.231024 -0.133495 -0.176444 0.659612 0.109489 0.040772 -2.167128 -0.212815 -0.604186 2.437060 -0.534701 -0.745032 -0.079599 1.703743 -0.617332 -0.984677 0.373970 -0.976112 -0.695001 0.279650 0.141465 0.099721 0.386938 -0.939448 0.830251 1.928442 -1.158597 0.247214 0.141465 0.745429 -0.524813 -0.028234 -1.398131 0.100090 -0.793200 -0.068064 0.230217 0.841494 1.986837 -0.356292 0.692144 0.150052 0.841793 -0.042141 0.109489 -0.308944 -0.296093 -0.291432 -0.117629 -0.237346 -1.038612 0.309439 0.141465 -0.263312 -0.350519 -0.301198 0.533837 1.928442 -0.163283 0.554262 -0.079599 0.215709 -0.787457 0.581331 0.161297 -0.082007 -0.472224 0.151248 -3.724131 0.757088 -0.108425 0.927840 0.341743 0.998868 -0.923830 -1.180952 0.141465 -0.039095 0.756157 -1.942298 -1.160036 -0.859150 -0.114501 -0.688043 -0.079599 -0.301198 0.533837 -0.260339 -0.047102
0.004551 -1.433683 -0.813631 0.214251 -0.115344 -1.138743 -0.953925 -0.585451 0.298721 4.857993 5.065140 4.276404 7.850686 5.103672 2.271582 4.079684 3.807054 -0.021410 0.533058 0.528763 1.449985 -1.608474 -2.643213 0.084839 -0.082877 -4.195556 -3.820826 -3.543164 -3.293784 -4.511708 -2.281846 -4.695358 -4.678286 1.003155 1.317913 2.151560 1.170089 2.013894 1.506718 0.768928 0.517578 2.290596 2.950282 3.532791 2.524042 3.341178 3.559955 2.572416 2.119580 -0.676510 -0.973482 -2.377706 -1.321777 -3.114723 -3.231062 -1.398171 -0.973914 -3.645799 -2.980071 -3.184823 -2.710033 -3.859010 -4.636063 3.972113 -2.225093 -0.381388 -0.668116 -0.207605 -0.726799 0.100905 0.243085 0.697184 -0.184530 -0.519239 -0.019303 -0.019277 1.903535 0.075260 3.767103 -0.007743 -0.902856 -0.221932 -0.019303 1.099310 -1.198880 -0.248730 0.256297 -0.430894 2.961054 0.338597 0.087391 -0.475362 -0.518200 -0.543522 0.405950 -0.007743 0.403840 -0.278585 -0.019303 0.217794 0.691013 -0.248730 -0.430391 0.195319 1.654066 -0.778557 -0.333392 -0.645209 3.181674 0.652563 -0.276095 -3.197891 0.867105 0.112017 0.087391 -0.925804 0.205317 0.605290 -0.395832 0.006033 0.462662 0.025457 -0.019303 -0.655703 -0.089549 -0.381388 -0.668116 -0.007743 0.100369 -0.114512 -0.019303 0.287988 0.038128 -0.248730 0.539556 0.222258 -0.353871 0.238236 0.110482 -0.446606 -0.620069 -0.486925 -0.661594 -0.053161 -0.235302 -0.054404 -0.333392 -0.177818 -0.307218 0.390464 0.030996 -0.475362 -0.465069 0.193626 -0.019303 1.106013 0.913661 -0.207605 -0.726799 -0.007743 -1.033309 -0.003118 0.087391 0.002799 -0.295362 -0.485993 0.514409 0.331841 0.267245 -0.243068 -0.348285 0.124237 -0.241715 -0.486686 -0.067042 -1.137380 0.266966 1.323935 -0.019303 0.312900 -2.142706 -0.369359 1.116969 -1.008738 0.197608 1.069750 0.087391 -0.207605 -0.726799 0.100905 0.243085
0.005212 -1.213230 -0.689471 1.138557 0.843700 -0.766711 -1.288219 -0.490781 -0.328081 -1.084561 -7.590763 -0.149919 0.540221 -0.586571 0.054075 -0.382056 -0.299008 0.472877 2.109327 1.747202 1.825134 -2.945249 -0.806341 -1.760291 0.464664 2.168983 2.719493 0.149640 0.665413 2.376800 0.394175 1.575673 1.140529 -1.360519 -1.730309 -2.063866 -0.889942 -2.650473 -1.898725 -1.338150 -1.395699 -2.131076 -1.660145 -0.275779 -1.498290 0.011410 0.479974 0.389757 -1.428601 1.464908 1.570588 0.744846 0.176334 0.835526 0.591412 -0.159931 0.205152 2.258228 2.171867 2.350864 2.675974 1.568405 1.398875 0.420915 1.171681 -0.724043 -0.559224 0.203461 -0.086433 0.387656 -0.211511 1.756933 0.175021 -0.908119 -0.025190 0.347961 0.801693 -0.135612 1.819180 -0.090518 0.010107 0.288399 -0.025190 -0.395917 -0.294155 0.513372 -1.081458 -1.072916 0.888074 0.352076 0.382619 0.133506 -0.283689 -0.327607 -0.425101 -0.090518 0.664350 0.787061 -0.025190 0.470015 0.928873 0.513372 0.991053 1.068032 -0.862054 -0.091316 0.091591 -0.134889 -0.955546 -0.049476 0.672203 -0.966317 0.943155 -2.405611 0.382619 -0.839094 -0.394192 -0.374112 -0.539085 0.413135 -0.299463 0.323583 -0.025190 -0.177312 -0.497769 -0.724043 -0.559224 -0.090518 0.713140 -1.168185 -0.025190 -0.492592 -0.811706 0.513372 -0.337901 -1.149622 0.729500 -0.310574 0.526131 0.250263 -0.461885 -0.376877 -0.148773 -1.110802 0.033655 -0.732203 0.091591 0.658811 0.408312 0.437032 -0.251854 0.133506 -1.513884 -0.122791 -0.025190 0.807522 0.756366 0.203461 -0.086433 -0.090518 -0.285728 -0.146094 0.382619 0.121116 0.082427 -0.008217 -0.092715 0.839630 -0.568936 0.427405 -0.206808 -0.825336 0.766285 -0.012366 -0.147156 -0.312653 -0.203210 0.646560 -0.025190 -0.549945 -1.048185 0.338510 0.207645 0.476047 -1.248675 0.122840 0.382619 0.203461 -0.086433 0.387656 -0.211511
-1.001635 -3.309115 -3.060934 -2.846976 -3.194824 -5.087448 -4.804762 -5.847916 -7.056219 -5.995530 -5.580226 -5.628499 -3.755129 -5.834601 -6.228193 -7.329805 -8.299987 5.274067 4.654587 3.990538 2.618186 4.740310 4.558909 3.318008 3.328297 6.828799 6.406520 5.204343 5.362101 6.557088 7.302825 6.378207 6.335746 -1.770852 -2.330663 -3.010119 -2.829024 -2.638564 -2.129633 -1.051206 -0.947792 -2.677752 -2.745111 -2.311501 -2.896409 0.735396 -0.162427 0.323136 -1.853030 2.833818 2.626116 1.986670 1.418157 2.409940 2.655719 1.484714 1.565201 3.791708 3.190753 2.954340 2.798407 -0.593145 -1.123443 -1.257552 0.552512 -0.779701 0.588715 0.679834 0.310018 0.064069 0.772611 -1.347803 -0.028703 -0.121013 0.414779 0.012916 -0.060785 -0.079277 0.025996 -0.983341 -0.290679 -0.456795 0.414779 -1.344733 0.089524 0.339181 -0.410426 0.461742 -0.030744 0.355600 1.096307 -0.196317 -0.058448 0.373838 -0.141884 -0.983341 0.248072 -0.797437 0.414779 -0.311061 -1.223163 0.339181 -0.310762 0.593342 -0.045807 0.222765 0.140585 -0.871257 -0.402699 -0.329048 -0.554193 -0.549510 -0.220353 0.045398 1.096307 -0.487146 1.347319 -0.396391 -0.566899 0.877711 -1.775059 -1.310457 0.414779 0.151302 -0.286631 -0.779701 0.588715 -0.983341 0.265506 0.118079 0.414779 0.781276 0.914462 0.339181 -0.346133 0.184069 0.114283 -0.068242 0.519817 -0.393888 -0.591613 0.694525 -0.031080 -0.360171 1.193051 0.041643 0.140585 0.782040 0.371543 -0.466268 -0.245773 -0.196317 0.402562 0.254282 0.414779 -0.357927 -0.305029 0.679834 0.310018 -0.983341 0.272181 -0.028736 1.096307 -0.677763 -0.711356 0.242781 -0.365468 0.092631 -1.330622 1.777822 -0.388458 -0.697399 0.239944 0.016113 0.402679 0.251737 0.542637 0.545386 0.414779 -0.018086 0.929345 -1.683533 -0.871054 0.774882 0.399463 0.729904 1.096307 0.679834 0.310018 0.064069 0.772611
1.608355 -0.392003 -0.150165 0.987000 0.795327 -0.835435 -0.965598 -0.852677 -0.899898 -1.144191 -3.833421 -1.438770 -0.204817 -2.045002 -0.891212 -2.161085 -2.017111 1.406246 1.550775 0.420974 0.085150 -1.313578 2.013674 -2.009012 -2.745174 2.289770 3.546588 0.927799 0.277414 3.139271 1.256263 3.013273 3.797978 -3.159406 -2.616337 -2.242014 -2.351523 -2.203468 -1.852080 -1.532214 -1.778456 -0.969189 -1.095739 -0.583458 -1.820973 0.674701 -0.509823 -1.036409 -1.701636 2.708906 2.585865 1.880963 2.113183 2.416486 1.765492 1.431412 1.749894 2.877132 1.952030 0.774452 1.937746 -0.262458 0.841517 -0.101994 1.715752 -0.315096 0.281113 -0.116831 0.464403 0.109358 -0.171936 -1.773170 -0.155538 -0.301731 0.146422 0.024752 0.304303 -0.257472 3.980173 1.418376 0.114250 1.107930 0.146422 -0.612765 1.047541 0.378330 -0.570241 -1.538507 0.283688 -0.183820 0.224710 0.446247 -0.384616 -0.472026 0.097921 1.418376 -0.438198 0.791807 0.146422 0.226496 0.161783 0.378330 1.327661 0.569960 -1.496278 -0.001296 0.424240 0.481788 -5.320571 0.205582 0.761297 -0.853043 -0.195736 -0.609876 0.224710 -1.718117 0.462511 0.229406 0.270399 0.402237 -0.016313 0.517782 0.146422 -0.742253 -0.115356 -0.315096 0.281113 1.418376 0.739301 -1.310376 0.146422 -0.111605 -0.784293 0.378330 0.175788 -0.300214 0.780532 0.263569 0.052395 -0.068315 -0.136903 0.550609 -1.220614 -2.014274 0.319207 0.298781 0.424240 0.186897 -0.632590 -0.168449 -0.369259 0.446247 -0.313569 -0.185278 0.146422 0.079691 0.096397 -0.116831 0.464403 1.418376 -0.968135 -0.348707 0.224710 -0.014487 0.015604 -0.677347 -0.101588 0.473288 -0.611886 0.277984 0.502788 0.233213 0.217126 0.921665 0.375498 0.758283 0.042216 0.138455 0.146422 0.093664 0.796375 0.054823 0.158707 0.171732 -1.526391 -0.444130 0.224710 -0.116831 0.464403 0.109358 -0.171936
-0.855473 -0.092600 2.252669 -0.206266 0.135113 0.730280 -3.134988 0.148863 0.061050 -3.273935 1.743625 -2.875588 -2.922138 -4.595708 -3.911846 -7.586647 -9.055985 1.395419 -7.630462 -0.667486 -2.354413 1.372820 1.685184 1.996943 3.550781 4.457711 3.649328 3.536009 4.102478 4.044317 3.986327 3.981410 4.622262 -3.168194 -2.668866 -2.601377 -2.519342 -2.937117 -2.053578 -1.678156 -1.981520 -2.949213 -2.511686 -2.265347 -1.306121 -2.533745 -2.430997 -0.212321 -1.733546 2.063944 2.449025 2.740297 1.862060 3.685639 3.803366 1.652540 1.478718 1.811269 1.867814 1.447492 2.221149 1.128692 1.739587 2.499167 2.244893 -0.819030 0.597245 0.014973 0.158573 -0.122490 0.761246 -0.427051 0.628654 0.609985 0.122383 -1.454681 -1.215625 0.811647 -1.940705 -0.809951 1.132029 -0.783887 0.122383 0.097638 -0.864006 0.597909 -1.564290 0.826473 -0.247358 -0.492311 1.015717 -0.154214 0.098291 0.190568 -0.700284 -0.809951 -1.042978 -0.713126 0.122383 -0.056125 -1.058215 0.597909 0.139064 0.530448 -0.140414 -1.247467 -0.543775 -0.458800 1.531110 0.857841 -0.384784 -1.639724 -0.703917 0.268886 1.015717 -0.270681 -0.756415 0.765023 0.752889 -0.546071 0.369536 0.398032 0.122383 -0.041224 0.994138 -0.819030 0.597245 -0.809951 -1.012277 1.102735 0.122383 0.460074 1.525235 0.597909 -0.474206 0.006916 -0.082821 1.200283 0.392987 0.175150 2.520359 0.103043 0.204499 0.145702 -0.041732 0.587910 -0.543775 -0.384470 0.042133 -1.006797 -0.647967 -0.154214 -1.495665 -1.180717 0.122383 -0.003755 0.390855 0.014973 0.158573 -0.809951 1.586386 -0.499482 1.015717 -0.581083 1.524519 0.344414 0.548741 0.889264 -0.080818 1.362198 0.040412 -0.101142 -0.611497 -1.529335 -0.138836 0.835505 -0.102591 0.305714 0.122383 -1.707856 0.761655 0.189974 -2.387186 1.335458 -0.194659 -0.066375 1.015717 0.014973 0.158573 -0.122490 0.761246
0.538841 1.786526 3.151787 2.730165 2.892886 1.696833 2.655176 2.892638 2.484580 6.383474 6.500622 5.192220 5.872454 2.560823 1.862608 -2.684071 -6.776369 -12.403383 -8.826774 -0.036922 -0.302689 0.128496 -2.477774 0.569123 -1.077175 -2.704690 -2.348441 -1.314025 -2.444876 -2.260335 -1.297909 -1.479206 -0.386932 -2.386584 -1.928548 -1.038246 -1.905790 -0.200232 -0.071320 -0.763849 -1.920497 1.350460 1.014521 0.895517 -0.007955 0.151286 0.412326 -1.574765 -0.270822 8.804757 8.462233 2.148234 3.831219 -1.753971 -1.726946 -0.854029 0.390355 -1.618883 -2.364810 -2.693624 -2.271708 -1.280307 -1.285761 1.568034 -0.571458 -0.157959 -0.310253 0.016562 -0.113957 0.076721 1.063420 -1.008843 -0.216279 0.334022 -0.139436 0.711873 0.384578 -0.077340 2.630985 0.511873 1.677974 -0.247837 -0.139436 0.029169 -1.026033 0.067164 1.385725 0.749434 0.006899 0.449048 -0.085503 -0.280217 -0.566416 -1.586017 0.744390 0.511873 -1.261908 -0.196503 -0.139436 0.398484 -0.572216 0.067164 -0.298380 -0.429209 -0.327295 -0.745573 -0.289241 0.704785 -0.207187 0.132533 -0.341689 -3.276259 -0.437972 -0.201818 -0.085503 -0.987946 0.123580 -0.521371 -0.541973 -0.304923 -0.342229 -0.356569 -0.139436 -0.472224 -0.207021 -0.157959 -0.310253 0.511873 0.434165 -0.216813 -0.139436 -0.405352 0.356105 0.067164 0.272227 -0.614590 0.149304 0.149005 -0.174233 -0.961071 0.650130 0.883708 -1.187861 -1.057177 0.403558 0.570304 -0.289241 -0.137179 -1.319538 0.607475 -0.875398 -0.280217 0.473088 0.376392 -0.139436 0.786652 0.612804 0.016562 -0.113957 0.511873 0.071340 -0.612686 -0.085503 -0.280307 0.445603 -0.428969 -0.355252 1.351121 0.426871 -0.652810 2.377477 0.737934 0.242094 0.783109 -0.730493 0.010334 1.093875 -0.538123 -0.139436 -0.706209 0.415810 1.498184 -1.761437 0.618398 1.356391 -0.987801 -0.085503 0.016562 -0.113957 0.076721 1.063420
0.076850 1.564739 2.278810 2.081596 1.973388 3.618006 3.738396 3.483987 2.596876 -0.099911 -7.272780 3.706373 4.127548 2.148104 6.702063 3.964338 4.850071 -0.404786 0.365246 -1.255447 0.242693 -4.789851 -4.453511 -3.773426 -3.441996 -1.005957 -0.889382 -6.458011 -4.288297 -0.611297 -3.941680 -1.905917 -2.773139 2.435517 2.433217 1.316476 2.939611 1.786602 1.169584 2.538292 2.411550 -2.395978 -2.969138 -3.042276 -1.840656 -1.879460 0.223883 2.374007 -0.209305 -2.495778 -2.330041 -1.652195 -2.443124 0.628402 0.005965 -1.368530 -1.862263 0.814680 1.245811 0.849805 0.776251 0.812402 0.278438 -0.772463 0.297564 -0.076459 0.139037 -0.136561 0.293953 -0.256349 -1.133725 -1.091349 0.149572 -0.263956 0.524869 -0.007194 1.207973 -0.052690 -0.387911 0.105821 -0.970919 0.856678 0.524869 1.289869 1.322621 -0.201242 1.012368 0.163871 -0.141396 -0.078787 -0.212084 -0.538540 -0.534890 0.140493 1.503046 0.105821 0.649473 0.092084 0.524869 -0.269910 -0.274764 -0.201242 -1.191705 -1.415618 -0.001741 -0.755540 0.499576 0.108891 0.748208 0.312895 -0.221970 0.456618 0.606285 0.635425 -0.212084 -0.126211 -1.243375 -0.548521 -1.683924 0.256178 0.738934 0.033006 0.524869 -0.262146 0.616273 -0.076459 0.139037 0.105821 -0.010480 -0.076907 0.524869 -0.650891 -0.257520 -0.201242 -0.433955 0.996235 -0.644566 0.399985 -0.748952 0.518505 -1.007422 -1.134040 0.466942 0.166297 0.060291 0.547097 0.499576 -0.050268 2.008567 -0.125887 -0.303467 -0.538540 -0.018675 0.566502 0.524869 -0.452036 0.098199 -0.136561 0.293953 0.105821 -0.234861 -0.442358 -0.212084 0.443740 -0.268749 -0.499569 0.870337 -0.178487 0.719318 -0.290407 -0.432208 -0.018918 0.734682 -0.666137 0.319399 -0.006793 0.580110 -0.700433 0.524869 0.074338 -1.316780 -0.169111 2.688782 -2.423194 -0.595475 0.533616 -0.212084 -0.136561 0.293953 -0.256349 -1.133725
0.039778 -0.263495 0.365207 -0.363323 1.022740 1.589636 0.229753 0.406057 0.460477 -3.559089 -0.474126 -3.194962 -6.121206 -0.054037 -4.503184 0.463893 0.919516 0.631733 -0.351659 -0.204914 -4.891112 1.385529 2.066755 -0.013425 -0.239274 2.154985 1.160930 0.693292 2.710038 2.116275 2.045201 1.904984 1.946583 -2.527130 -2.433983 -2.065366 -2.189518 -2.597959 -1.831045 -1.393165 -1.525725 -3.353248 -3.003888 -2.883806 -2.971537 -1.765681 -2.808970 -2.382705 -2.699184 1.919288 2.881361 4.145744 3.317310 7.048743 2.873332 2.260780 2.416647 5.447704 1.268066 2.445469 1.258846 -0.252088 0.484369 -1.073319 2.030437 -0.300668 1.247892 -0.748979 0.497769 -0.045417 -0.401560 1.089446 0.020451 -0.642745 -0.142423 -0.078545 0.026637 -0.569332 -1.564293 -0.029360 -0.538303 0.306508 -0.142423 -2.083510 0.043436 0.391002 -0.748428 -0.637167 -1.416299 -0.280240 -0.009062 0.532038 1.265852 0.055677 -0.146901 -0.029360 -0.524372 0.457761 -0.142423 0.987171 0.553829 0.391002 0.837239 0.639833 -0.876026 0.727465 -0.109914 0.828682 -0.136252 -0.004691 0.195686 0.742992 -0.331036 -0.548962 -0.009062 -0.111396 0.903982 -0.280552 -0.033275 -2.027734 -0.726167 -0.439998 -0.142423 0.168925 -0.948586 -0.300668 1.247892 -0.029360 0.299331 -0.206992 -0.142423 -0.200137 0.105642 0.391002 0.020466 -0.726810 -0.039452 -0.571846 -0.839645 0.133077 1.059873 0.102797 -0.800226 0.201930 1.002514 0.499859 -0.109914 -0.046708 -0.533595 0.819061 0.462615 0.532038 -1.795883 -0.386677 -0.142423 0.033882 0.463427 -0.748979 0.497769 -0.029360 0.831907 -0.551207 -0.009062 -0.111644 -1.169010 -0.001252 -0.236073 0.573867 -0.104057 0.031866 0.073914 -0.338286 -0.285845 -0.450040 2.368839 0.821866 -0.307073 0.759402 -0.142423 0.993181 0.947097 0.566745 0.318785 1.508627 -0.186061 -0.312139 -0.009062 -0.748979 0.497769 -0.045417 -0.401560
