2.333996 -1.113949 -1.533961 -2.361796 -2.041357 -2.284359 -2.807094 -2.233996 -2.289281 -3.295685 -2.975630 -3.798771 -3.894815 -3.307987 -3.034417 -2.971335 -2.760311 -3.051066 -3.019834 -3.973823 -4.439563 -3.414513 -4.663464 -4.065440 -2.658021 -4.126198 -3.979027 -2.288431 -2.980753 -3.214394 -3.619277 -3.017010 -2.942010 3.503490 3.441388 3.263314 3.732032 2.987783 2.706109 3.109988 3.556310 2.211626 2.070117 1.884963 1.545865 2.295232 1.800225 2.702598 3.431681 3.655107 2.767659 2.699333 2.991280 3.367514 3.922787 3.159944 4.130720 3.048925 2.750689 4.450800 4.304653 3.302087 3.103091 3.816645 4.777605 0.695667 0.731665 2.656975 2.787106 0.591629 0.423444 -0.334863 -0.099824 -1.331943 -0.833677 -1.545636 -1.422246 0.139137 -0.067515 0.447706 -0.767782 -0.708128 -0.396043 1.059368 0.181762 -0.110086 -0.284848 -0.406238 0.068720 -1.161339 -0.174188 -0.190128 -0.260781 0.340274 0.064074 0.298162 0.002276 -1.054714 -0.965622 -0.699249 -0.676558 0.096353 0.936270 0.159130 -0.242617 -0.136426 -0.539936 0.155202 -0.406417 1.960776 1.183235 1.286842 -0.282668 -0.636394 -0.528270 0.333851 -0.169455 0.349963 0.229907 0.567471 0.493840 -0.240291 -0.170983 0.172027 0.106605 0.796473 -0.217115 0.067538 0.012530 0.048356 0.183291 1.991904 2.680146 -2.402382 -1.655545 -1.909809 -2.612364 0.090020 0.102017 0.584852 2.596182 -2.211215 0.785905 -0.598326 0.507346 0.674760 -3.148916 -1.344877 1.914159 -0.332947 -2.558619 0.665793 1.041527 -2.413160 1.285776 -2.476764 -0.591954 2.412806 1.776013 1.817780 5.956821 2.330909 -1.772535 -1.410926 -1.111661 -1.235001 -2.314039 -1.167509 0.833759 -1.894321 1.475927 -0.350178 -0.105961 0.453729 -1.962336 1.122793 0.749827 1.626063 -1.029395 0.342766 -0.042664 -1.610853 -1.254828 -0.598421 5.862825 -0.787757 -2.744568 0.319630 1.911963 -0.643800 -2.175834
5.631471 -1.452484 -0.403827 -1.145670 -1.054212 0.570909 2.820232 0.607971 0.485615 -0.352675 1.681773 1.870058 1.651806 1.141901 0.469980 1.584392 2.438448 -0.899372 -0.519243 0.448476 0.721967 1.703135 4.132497 2.569950 2.878691 2.934205 1.890856 2.865657 3.039796 3.344445 4.495523 4.054742 4.725840 -2.772558 -1.253346 -2.934793 -3.391618 -0.871244 3.070989 0.021400 -0.334024 -1.834585 1.240731 -3.625171 -2.427143 -1.205989 -1.429880 0.147919 1.606617 -2.684038 -2.353559 -1.762995 -0.287227 -5.144822 -3.873422 -0.631966 2.278540 -0.724509 -0.512661 -6.510929 -1.020523 -0.385798 -1.688736 -0.809650 -1.564919 2.653609 2.398333 0.037778 1.910794 0.373933 0.499194 1.563342 2.108668 0.973794 1.395120 1.173170 1.239467 2.217686 2.128273 2.294134 1.321783 -1.439903 -0.345704 -1.722060 -0.321675 -1.995336 -1.386779 -0.134056 0.078961 0.540549 1.225287 2.816398 0.260313 4.088391 2.402668 2.594616 0.073666 -3.954845 -3.193469 -4.214377 -3.589039 -3.185321 -2.847790 -3.027693 -2.757163 -1.739492 -0.635901 -0.979627 -0.932345 -0.566666 -0.709911 -2.834553 -2.433551 -0.803909 0.334258 -0.005342 -0.191027 0.788783 0.328812 0.618448 0.289821 2.875591 2.915423 1.630728 0.849236 1.536079 1.006370 -0.408027 0.443557 0.485033 3.276746 0.271258 -2.482395 -3.215896 4.473510 -1.936566 -1.458033 -2.892717 -2.394670 -1.015187 3.346220 0.627446 -2.976162 -4.260345 2.652567 -0.020102 -0.612532 -1.951802 -3.707544 -5.273596 0.265186 0.460614 -3.522242 2.510980 -2.167235 2.709366 1.701153 0.575640 -3.020847 4.479445 3.004117 0.010370 0.010614 -1.536391 3.588961 1.443465 3.345664 1.908488 -0.810382 0.469025 1.300543 -3.399444 -1.097964 0.214826 -1.125557 -4.405930 -4.471348 -5.191676 -1.155040 -6.325418 1.701971 3.568466 0.911762 1.208975 -5.653259 6.917355 3.141140 -0.933168 -0.176468 -0.930797 4.354514
2.652244 -0.608360 -0.456138 -1.904441 -1.394898 -1.700800 -2.337632 -1.865048 -2.163514 -2.487706 -2.072974 -2.547446 -2.662667 -2.452116 -2.371125 -2.241402 -1.967647 -2.253436 -2.047220 -2.744650 -3.001840 -2.987380 -2.445288 -2.610943 -1.115850 -2.846997 -2.520991 -0.945432 -1.262139 -2.147163 -2.187874 -1.961961 -1.569929 2.741669 2.691203 2.341312 2.698526 2.212890 2.002795 2.498104 2.749437 1.273021 1.524315 0.786188 0.394828 1.668316 1.415093 2.097175 2.539535 2.745417 1.978372 2.012531 2.005264 1.774408 1.439422 2.171321 2.739327 1.936028 1.795633 2.661148 3.009030 2.075766 2.221141 2.839579 3.496459 0.547448 0.595960 1.519076 1.660099 2.748431 2.494014 2.303767 1.984646 -0.461668 -0.189480 -1.018366 -0.812037 -0.189616 -0.302798 0.598731 -0.180367 -1.055861 -0.734089 0.684702 -0.109087 -0.228601 -0.547007 -0.333001 -0.086552 -0.814291 -0.092821 -0.381508 -0.256536 0.192999 0.140130 0.178629 0.045054 -1.606848 -1.535452 -1.189141 -1.030247 -0.140989 0.322616 -0.641901 -0.675293 0.076097 -0.019742 -0.102717 -0.419816 1.194861 0.405717 0.756140 -0.517938 -0.958284 -0.850048 1.063576 0.248629 0.204475 -0.057558 0.030384 0.052372 -0.171828 0.047695 0.030972 0.120779 0.444556 -0.233015 0.138057 -0.233869 0.949531 -0.014526 -0.162137 3.281479 -1.611666 -1.474837 -2.235608 -3.314677 0.134326 0.106394 0.378906 1.074452 -0.810668 0.557357 0.794817 -0.388025 0.353735 -2.221794 -1.414206 1.574597 -0.125551 -1.557522 0.285157 0.641377 -1.178171 0.235486 -0.335106 -0.756916 1.533187 0.149073 2.119085 5.373251 1.968595 -1.224451 -0.454796 -0.794814 -1.354673 -2.329148 -1.581309 0.440776 -0.901507 1.106937 -0.546870 -0.553163 0.320219 -1.319677 0.935036 0.702772 0.750850 0.011859 -0.423620 0.125427 -0.876432 -0.040811 -1.692331 3.203769 -0.771746 0.098021 -0.079712 1.367879 0.132870 -1.635088
4.386153 0.483597 1.003566 0.239221 0.600103 0.851464 1.203165 0.613424 0.440111 0.287054 0.683762 1.006046 0.305870 0.710974 -0.006254 1.008764 1.367111 -0.250877 -0.224125 0.091351 -0.085687 0.784297 2.535111 1.916660 2.409896 1.609135 0.993912 1.949134 1.189019 2.016505 2.703076 2.082692 2.423848 -0.914680 -0.485023 -0.832432 -0.017049 -0.800189 0.711011 -0.085820 -0.188584 -1.605025 -0.183331 -3.284320 -3.183483 -1.008758 -1.464738 -0.338088 0.431181 -1.451556 -1.306573 -1.394043 -0.843479 -2.397958 -3.191129 0.141266 1.097004 0.078252 -0.462158 -2.768725 -1.076137 -0.214208 -0.307608 -0.467336 -0.742057 1.123139 0.893558 -0.191435 0.643194 -0.097342 -0.336102 0.809218 0.645014 -0.043980 0.204393 1.138400 1.645467 0.876210 1.223658 0.708770 0.635182 -1.007099 -0.384102 -1.234864 -0.627773 0.072939 0.513152 0.977027 1.004622 0.639120 1.234705 1.521081 0.744137 1.941758 1.639722 1.058643 0.255479 -2.212156 -2.064243 -2.373006 -2.061801 -2.222169 -2.455664 -1.632653 -1.909929 -0.270185 -0.212879 0.157286 0.151513 0.837021 0.215078 -0.957325 -1.311345 -0.849625 -0.271576 0.158767 -0.531008 0.609647 0.044928 -0.005381 0.057467 2.047603 1.991211 0.881091 0.677178 0.234984 0.165661 -0.460884 -0.267343 1.376006 0.735965 -1.239785 -0.325035 0.684643 1.851093 -1.314402 -0.711686 -2.487733 -1.570002 -0.973678 1.688430 -0.099462 -0.121799 -3.402065 1.705055 -0.329822 0.288130 -2.868974 -3.166669 -2.120360 -0.265015 1.381920 -1.295064 0.708728 -2.017546 1.100964 0.953227 -0.041102 -1.203101 3.136612 2.124041 0.257873 0.937604 -1.338434 2.283535 1.510202 2.047826 -0.728854 -0.618075 0.841355 1.218216 -2.527809 -0.753440 -1.803819 -0.558302 -1.742722 -2.402192 -2.862206 -0.112063 -5.214965 1.591386 2.082434 1.370160 -2.025128 -2.978375 6.441968 1.191665 0.617108 -1.239219 -0.485312 2.973716
1.971328 -1.377946 -1.139003 -0.243737 -0.411257 0.207008 1.124876 0.330196 0.422381 1.310504 1.632608 2.779270 2.947046 1.904358 1.610794 2.018712 2.086195 -0.709505 -0.755156 0.936605 1.322516 0.726779 1.718553 0.814177 0.703652 1.115594 0.896771 1.490537 1.178935 1.584140 2.287849 2.149396 2.435228 -2.065002 -1.609783 -1.793988 -2.184966 -0.515530 0.803107 0.159844 -0.026650 -2.149048 -1.936755 -2.198102 -1.913950 -0.414328 -0.976400 1.103101 1.528882 -1.493039 -1.099438 -0.652075 0.002708 -3.920317 -2.907843 -0.413278 0.766896 -0.708966 -0.316861 -1.556712 -0.730250 -0.592564 -0.812059 -1.140736 -1.362648 1.398060 1.546893 0.939115 1.101061 -0.545503 -0.509863 0.968741 1.143002 0.388079 0.424600 0.350142 0.168998 1.343809 1.136555 1.592921 1.139088 -0.152015 -0.086656 -0.229814 -0.011831 -0.586902 -0.629861 -0.675254 -0.606055 0.121324 0.274460 0.647173 -0.187432 1.892925 1.268953 0.472568 -0.294149 -2.188990 -1.728746 -1.312845 -1.536586 -1.440785 -1.516795 -1.088558 -1.176164 -0.959490 -0.727904 -0.759186 -0.800825 -0.832037 -0.807138 -1.276892 -0.779695 0.060407 0.222543 0.339422 0.020232 1.403926 1.068560 0.038331 0.004782 1.786763 1.652993 0.480703 0.403516 0.349731 0.432080 -0.852399 -0.310757 -0.061679 1.272570 -0.015633 -1.247459 0.442117 2.043891 0.462045 0.434259 -0.557845 -1.857253 -1.598958 0.501479 1.770539 0.091184 -1.606141 0.739172 0.405071 -0.041484 0.149881 -1.331207 -2.045160 -0.348589 -0.838883 -0.275774 0.416383 -1.855070 1.036731 1.243658 -0.851869 -0.702836 1.638994 -0.354945 0.292575 0.698378 0.782174 0.537593 -0.050684 1.636342 0.723490 -1.381151 -0.160824 -0.050834 -1.250851 -0.365397 0.499095 1.028156 -3.031427 -0.704168 -1.741714 -1.022836 0.715337 -0.458709 -0.205623 -0.683485 1.778306 -1.426074 1.623820 1.107454 -0.613153 -1.381416 -0.090473 1.751843
-0.339850 -1.161127 -1.692753 -0.625889 -1.242139 -0.469087 0.829613 -0.161927 -0.501264 0.371820 0.766263 1.114911 0.949121 1.263756 1.044610 1.369047 1.563376 -1.815129 -1.061788 0.655651 0.844720 -1.016637 -4.086489 -2.506587 -2.619648 -0.749908 -0.620802 -0.389579 0.146212 -0.524922 -0.278805 0.549060 0.927578 -1.482746 -1.213902 -2.018738 -3.378488 -0.206382 1.072376 -0.898768 -2.351962 1.384873 1.277661 1.614575 2.392144 1.000121 0.465513 0.663836 1.316083 -1.030222 -0.142755 -0.958315 -0.261826 1.909570 1.872812 0.645560 0.581451 -2.524267 -0.597851 2.995216 2.408959 0.319099 0.334179 1.805452 1.795634 -2.290062 -2.117571 -0.595397 -0.906954 -1.523280 -1.527032 -1.835252 -1.992159 -0.798960 -1.261709 -2.207716 -1.584092 -0.125131 -0.588937 -0.741620 -0.883731 -1.580846 -1.630281 -1.255197 -0.943361 -1.070273 -1.409522 -1.689896 -1.186840 -1.769492 -1.675703 -2.009904 -2.463237 -1.763288 -2.255415 -1.393913 -1.905885 0.060849 0.495072 1.744135 1.570298 2.070316 2.457518 0.622709 0.580210 3.168126 3.166514 1.872189 2.138478 1.646767 1.913972 1.261017 1.570215 2.888740 3.066639 2.261016 2.451246 2.001052 1.735217 2.354067 1.925749 0.227759 -0.048960 -0.073310 -0.141567 -0.930004 -1.161312 1.796662 1.951429 -2.408780 1.243395 0.512378 -1.259152 -0.466217 1.186161 1.291023 1.571145 -0.562327 -0.807206 0.075963 -0.671764 1.279505 -0.999625 1.094993 0.063121 0.754858 -0.996586 0.523229 0.321042 -1.490578 -0.359122 -1.511070 0.302070 -0.672805 -1.218497 1.058111 2.324586 0.571224 -1.601789 -0.504631 -1.656634 1.239620 0.824320 1.741867 -0.555653 -1.112757 -0.365839 -0.239686 -1.214120 -2.161100 -0.598635 0.116273 -0.412029 1.232043 2.697896 0.304124 2.598500 0.123683 -0.153860 5.845206 -0.491917 -1.385711 -1.626504 2.349238 0.984136 -3.108390 -0.489995 -0.084142 -0.310450 1.447447 -2.050340
2.605314 -0.277283 -0.060547 -0.738862 -0.475126 -1.296496 -1.514142 -1.105949 -1.315490 -1.583774 -1.307146 -2.015927 -1.873804 -1.734129 -1.683033 -1.865475 -1.652482 -1.724550 -1.598366 -1.886931 -2.097102 -1.890427 -1.257703 -1.549311 -0.790277 -2.047468 -1.856491 -0.666523 -0.975775 -1.540209 -1.539631 -1.231806 -1.013967 1.975002 2.051274 1.652694 1.991699 1.615140 1.563412 1.886108 2.095335 0.934229 1.095791 0.543934 0.322509 1.362323 1.204734 1.632103 1.716702 1.629730 1.202390 1.356569 1.254100 0.873929 0.777866 1.473244 1.747752 1.015010 1.055769 1.589558 1.783807 1.391706 1.642546 2.007953 2.326597 0.560951 0.621606 1.146001 1.209327 1.560443 1.373064 1.263836 1.187327 1.388712 1.589632 0.991063 1.117747 1.685889 1.630312 1.608441 1.504882 -0.525756 -0.249748 0.314673 0.016087 -0.235846 -0.434039 -0.039487 0.093533 -0.514561 -0.143598 -0.442468 -0.360879 0.227166 0.353523 0.686526 0.538700 -1.768470 -1.719854 -1.303638 -1.215559 -0.590290 -0.274838 -0.879882 -0.936144 -0.659522 -0.756953 -0.988991 -1.034433 0.220681 -0.172690 -0.103346 -0.805685 -1.120618 -0.897683 0.066654 -0.291256 -0.399584 -0.572166 -0.249826 -0.328965 -0.256959 -0.106082 -0.071186 -0.074353 0.214540 -0.085313 0.150611 -0.105942 0.542788 -0.354451 -0.201440 2.599696 -0.736146 -0.784390 -1.451704 -1.544163 -0.187167 0.285992 0.353389 0.778317 -0.406069 -0.626452 0.384471 -1.112836 0.402388 -1.118215 -1.293196 0.817192 -0.710709 -0.753043 0.322793 0.277711 -0.513773 0.236497 -0.184897 -0.345235 0.337479 -0.566260 2.087049 3.417873 1.118468 -0.941735 -0.193717 -0.532681 -0.236920 -1.082454 -1.067228 0.095250 -1.255909 0.825256 -0.349355 -0.362480 0.375407 -1.102323 0.473934 0.099202 0.666649 0.524890 -0.499150 -0.130335 -0.249889 0.629424 -1.166372 1.537543 -0.447806 0.231077 0.422608 0.321140 0.539719 -0.976271
3.584720 0.817377 1.201964 0.857726 1.181997 0.572695 0.522454 0.611103 0.570448 0.008416 0.222991 0.443328 -0.235912 0.323490 -0.183738 0.418587 0.616233 -0.216492 -0.286121 0.040258 -0.201430 0.586718 2.125762 1.384288 1.391857 0.843946 0.372336 1.402520 0.412185 1.025083 1.670703 1.163980 1.371214 -0.457213 -0.211716 -0.143532 0.535902 -0.587139 0.077229 -0.103707 -0.050235 -1.393885 -0.482904 -1.433959 -1.495862 -0.717614 -1.022576 0.173055 0.309711 -1.309244 -1.273334 -1.019022 -0.755689 -0.845571 -1.005263 0.396826 0.770008 -0.137971 -0.584655 -1.925103 -1.071179 -0.360869 -0.330493 -0.418036 -0.577206 0.652898 0.516343 -0.379266 0.182146 -0.169573 -0.381954 0.726183 0.614827 0.199464 0.279580 1.113964 1.255222 0.562065 0.768286 0.542842 0.501891 -0.032177 0.067280 -0.509097 -0.185423 0.203211 0.413950 0.662281 0.749388 0.790681 1.134828 1.054034 0.522166 1.353739 1.228988 0.333239 -0.011298 -1.729948 -1.637286 -1.958460 -1.838850 -1.007144 -1.195339 -0.658218 -0.904302 -0.360017 -0.396945 -0.040419 -0.186027 0.525216 -0.005493 -0.594212 -0.920142 -0.600831 -0.319967 0.034197 -0.502719 0.327852 -0.089761 -0.127655 -0.026853 1.573387 1.413388 0.515310 0.437762 0.172261 0.169886 -0.788554 -0.456108 0.979505 0.260123 -0.336374 -0.252519 0.846130 1.306904 -1.370847 -0.123023 -0.549709 -0.932067 -0.595681 1.182816 -0.647592 0.141430 -3.089605 1.317314 -0.691080 0.121337 -1.643347 -1.837421 -0.639435 -0.006324 1.029632 -1.191284 0.277533 -1.030860 0.141147 0.002005 -0.108002 -0.025735 2.651072 1.266528 -0.544770 0.470682 -1.637996 0.828739 1.182902 1.533079 -0.821776 -0.223092 1.002560 0.346060 -1.179949 -0.456661 -1.053247 -0.504912 -1.321965 -1.505975 -0.815857 -0.022062 -3.669812 0.519818 1.568574 0.545607 -1.530807 -2.104002 4.592801 0.809364 0.045679 -0.686221 -0.307513 2.449278
2.488711 0.086946 0.167047 0.562930 0.396856 0.688688 1.189663 1.121950 1.161016 0.932341 0.964476 1.460024 1.230519 1.378891 1.035866 1.416511 1.349582 -0.100615 -0.238112 0.520173 0.375359 0.662631 1.805669 0.507408 0.218898 0.939536 0.717172 0.665666 0.297028 1.205459 1.562380 1.379646 1.418412 -0.801084 -0.478650 -0.624967 -0.690353 -0.348057 0.232798 -0.046694 -0.235093 -1.603506 -1.162723 -2.679305 -2.677053 -0.252873 -0.580559 0.287944 0.537717 -0.749859 -0.431589 -0.758691 -0.238992 -2.376920 -2.525875 -0.587069 0.344185 -0.603744 -0.486747 -1.081004 -0.432591 -0.590916 -0.748386 -0.998799 -1.201849 1.160498 1.092926 0.197024 0.407367 -0.459987 -0.443295 0.640426 0.806831 0.272809 0.259821 0.225076 0.305904 0.602526 0.647213 0.854220 0.531481 -0.542907 -0.640131 -0.931282 -0.661707 -0.019984 0.029563 0.583083 0.558871 0.145896 0.096186 0.678394 0.113023 1.102737 0.629684 0.223720 -0.338228 -1.252903 -1.086242 -1.106669 -1.221480 -1.424163 -1.639954 -0.986277 -1.153899 -0.144584 -0.139228 -0.013980 -0.031617 0.101820 0.055104 -0.220255 -0.099251 0.115828 0.055237 0.186848 0.065382 0.703292 0.471241 -0.054521 0.135530 1.387295 1.168346 0.628277 0.591108 0.106847 0.129190 -0.568458 -0.396911 0.092992 0.425605 0.218193 -0.640102 0.261280 1.405223 0.102123 0.220892 -0.127671 -0.967369 -0.488697 0.761075 0.573474 0.793577 -1.007392 1.195505 -0.275562 0.304591 -0.903221 -0.798297 -1.206929 -0.247779 0.500435 -0.648338 0.929320 -1.179247 0.357707 0.753913 -0.296286 0.432910 1.889270 -0.802846 -0.479124 0.332258 -0.336313 1.466987 0.875585 1.248129 -0.323632 -1.747556 -0.646774 -0.616067 -1.988065 -0.843244 0.097600 0.330278 -1.558300 -0.642446 -1.806290 -0.636883 -0.353974 0.064432 0.875270 -0.718436 0.305173 -0.925931 1.392741 0.828028 -0.200689 -1.139008 -0.467101 1.651280
1.373084 0.189466 -0.044150 0.029334 -0.180782 -0.218086 -0.030207 0.428989 0.493536 0.285077 -0.174055 0.054992 0.080073 0.365066 0.266546 0.534146 0.469480 -0.649278 -0.491537 -0.453344 -0.536809 -0.165471 -1.136333 -1.392888 -1.357993 -0.597281 -0.609202 -1.124737 -0.927135 -0.169713 -0.210237 0.138401 0.178057 -0.032346 -0.032073 -0.055407 -0.168201 -0.219424 -0.186432 -0.332314 -0.381386 0.096407 -0.206109 0.908032 1.158469 0.179848 -0.006472 0.485023 0.735962 -0.031305 0.106719 -0.339663 -0.015946 1.568341 1.976669 -0.010892 0.380864 -0.361621 0.036265 0.997406 0.875638 0.099470 0.149761 0.482563 0.471315 -0.976321 -0.976502 -1.121254 -1.201846 -1.188698 -1.209680 -1.241744 -0.961121 -1.146319 -1.189180 -1.433335 -1.293738 -0.803167 -0.796076 -0.617249 -0.846479 -0.358280 -0.449527 -0.581417 -0.476460 -0.097258 0.033322 -0.139866 -0.110365 0.660680 0.799330 0.341041 0.083024 0.340818 -0.045238 -0.682382 -0.992581 0.281759 0.414204 0.502631 0.372717 1.169261 1.237813 0.243634 0.286692 1.142286 1.037521 0.541911 0.472532 0.616998 0.699492 0.788200 0.693838 1.711188 1.233147 0.696984 0.845134 0.655490 0.736188 0.836775 0.843934 0.288408 0.219222 0.196371 0.195376 0.204102 0.031820 0.415004 0.440316 -0.362020 -0.310398 1.221998 -0.475946 -0.396806 0.503730 0.008521 0.475315 0.089617 -0.255883 0.691413 0.326927 -0.194612 0.852501 -0.936608 1.207086 0.458212 0.441342 -0.501041 0.034123 -0.934544 -1.086675 -0.417919 0.532125 0.805415 -0.931398 -0.986222 -0.509506 1.055002 1.354524 0.879281 -0.984329 -0.059477 -0.078501 -0.600371 0.123667 -0.310761 0.863698 -0.522266 -1.060032 -2.127167 0.210590 -1.172290 -0.525441 1.277292 -0.903112 0.527725 0.579723 0.145295 -0.622389 1.072799 -1.882408 0.374533 -1.943837 0.658454 1.432633 -2.194176 -0.403019 0.627676 0.501977 -0.488742 0.471048
0.853150 -1.303196 -1.192963 -0.614809 -0.763580 0.255847 0.932899 0.135841 0.119937 0.752430 1.049397 1.959043 1.950423 1.413947 1.162025 1.391509 1.391069 0.149288 0.191440 1.233704 1.213134 1.272412 1.949661 1.541892 1.271722 1.559273 1.281014 1.453989 1.267123 1.835153 1.958857 1.955624 2.067149 -1.935856 -1.705590 -1.692252 -1.962747 -0.431812 0.533744 -0.169036 -0.375692 -2.137719 -1.809108 -1.619656 -1.552515 0.398436 0.113575 0.996307 1.163938 -1.326987 -1.045670 -0.601297 -0.214607 -1.972756 -1.909390 -0.778751 -0.378044 -0.836146 -0.680421 -1.554748 -0.942451 -1.157700 -1.459162 -1.383583 -1.560412 1.323632 1.412469 1.448630 1.501986 0.659824 0.790443 1.125816 1.133107 0.017312 -0.031707 -0.088108 -0.222559 0.954712 0.897395 1.095232 1.060893 -0.201645 -0.180416 -0.454237 -0.234432 -0.628688 -0.736299 -0.757412 -0.794266 0.236395 0.156485 0.307511 -0.039247 1.098049 0.960781 0.711731 0.298132 -1.534099 -1.323434 -1.091913 -1.178309 -0.921858 -1.012046 -0.971903 -1.019591 -0.704851 -0.559640 -0.920907 -0.832221 -1.383190 -1.295663 -1.592338 -1.123064 0.328313 0.439163 0.368770 0.346684 0.627751 0.397817 -0.171970 -0.200715 1.421965 1.224099 0.572297 0.563227 -0.104168 0.073990 -0.323812 -0.066753 -0.347379 0.936187 -0.368720 -1.012190 0.308570 1.269969 0.844669 0.701413 -0.135102 -0.709554 -0.455372 -0.143308 1.121088 -0.466982 0.167126 -0.151869 0.063424 0.111244 0.540847 -0.871061 -0.115276 0.085350 -1.434976 -0.473372 0.195838 -0.504475 0.848988 1.427746 -0.335433 -0.842820 0.961775 -1.119954 -0.047629 0.504526 0.595810 0.855337 0.120810 0.806065 0.825326 -1.128639 0.290770 -0.625208 -0.307334 -0.273761 -0.578028 1.271992 -2.665919 -0.796672 -1.520910 -0.750411 0.648885 0.436804 -0.981137 -0.083681 1.572767 -1.486524 1.166488 1.023471 -0.359227 -1.143793 -0.005619 0.925642
-0.283480 -1.208195 -1.621086 -0.982441 -1.093927 -0.337364 -0.013859 -0.399058 -0.433232 -0.249265 -0.107371 0.294588 0.208425 0.496741 0.490374 0.645072 0.465480 -0.022154 0.218709 0.318464 0.747624 0.207007 -0.879022 -0.401553 -0.473568 0.147858 0.198159 -0.682533 -0.173387 0.234391 0.787046 0.568267 0.805072 -1.567376 -1.429862 -2.167676 -2.703477 0.073152 0.498259 0.079654 -0.232660 0.404040 0.306864 0.740775 0.839902 0.411766 0.099411 0.413665 0.444643 -0.415271 -0.132334 -0.382724 -0.358317 0.667372 1.339266 0.052805 -0.213852 -0.365102 -0.067095 0.982506 0.802477 0.645365 0.815445 1.150256 1.229382 -1.467078 -1.253851 -0.618083 -0.912400 -0.358409 -0.511949 -0.477865 -0.692504 -0.851140 -0.745901 -1.401112 -1.439867 -0.461968 -0.521178 -0.149241 -0.271631 -0.887138 -1.033264 -1.099140 -0.980228 -0.932843 -1.177220 -1.459333 -1.244748 -1.383560 -1.267895 -1.257077 -1.332123 -0.841987 -0.858283 -0.479907 -0.419190 0.251954 0.516815 0.735302 0.626468 1.217182 1.261708 0.481314 0.722588 1.776398 1.818849 1.328236 1.447209 0.073316 0.326185 0.548092 0.955423 2.441709 2.237810 1.732140 1.747811 1.181148 1.143753 1.227288 1.093414 -0.011117 0.033173 0.131059 0.308459 -0.273058 -0.222463 0.705782 0.940682 -0.500455 0.095522 0.129962 -0.839251 0.173202 -0.277841 -0.248776 1.472260 0.110067 1.124075 -0.298494 -0.666378 1.403721 0.888936 0.479079 0.588221 0.247152 -0.093090 1.072616 0.696688 0.402154 -0.916203 -2.011131 -0.118361 -1.314522 -1.205723 -0.483998 -0.660959 0.445653 0.061726 -0.168993 -0.776046 0.391777 -0.867402 0.713076 -1.675555 -0.940549 -0.584309 0.074137 0.731259 -0.702133 -0.737068 0.938774 0.393809 1.381058 -0.556513 0.557763 0.606894 1.315809 0.257526 3.684991 -2.125831 -1.577513 -0.731955 1.277288 2.936005 -2.987888 -2.328362 0.177257 0.756894 0.704812 -0.626494
-0.981077 -0.600197 -0.594504 -0.409511 -0.412139 -0.036986 -0.188799 -0.366995 -0.238500 -1.276721 -1.182854 -0.794248 -0.790235 -1.172675 -1.211432 -1.389572 -1.207798 0.107516 0.288380 0.717741 0.936206 -0.413537 -0.321683 0.025419 0.521323 0.032819 -0.006976 -0.296057 -0.139861 -0.469759 -0.019108 -0.293356 -0.074738 -1.168856 -1.063075 -1.024459 -1.116565 -1.110129 -0.907493 -0.904989 -1.044894 2.236874 2.306160 2.037048 2.299304 1.645533 1.198678 1.034638 0.807633 -1.797726 -1.800383 -1.213691 -1.209498 1.120738 1.366763 0.871952 0.642700 0.359317 0.539617 0.007511 0.560952 1.457553 1.489722 1.335205 1.341619 -0.777054 -0.739333 -0.765675 -0.718002 -0.360419 -0.314497 -0.319594 -0.283865 -0.365085 -0.372004 -0.777079 -0.884197 0.318551 0.172565 0.082207 -0.110704 -0.387800 -0.449096 -0.906908 -0.962330 -1.493516 -1.607374 -1.194494 -0.975086 0.685465 0.368972 -0.085320 -0.192734 0.122628 0.025824 0.049570 0.149521 0.231597 0.373449 0.080036 0.234214 0.671023 0.690646 0.697911 0.843879 0.317589 0.581315 0.224440 0.151715 0.160936 0.052713 0.645234 0.674882 0.580305 0.801351 0.705390 0.625281 0.331229 0.442813 0.455648 0.254959 -0.007273 0.064086 0.083764 0.129956 0.402816 0.252987 0.115394 0.215497 -0.075591 0.110878 -0.275335 0.158033 -0.757837 -0.173528 -0.150156 -0.001095 -0.224288 0.217021 0.030812 0.269267 0.781618 -0.152263 -0.371061 -0.104755 0.450535 -0.276612 -0.660864 -0.343325 0.206490 -0.616694 -0.159914 0.382076 0.062972 0.307120 -0.022571 0.071714 0.691434 -0.625328 -0.826792 0.040873 0.610519 -0.277119 -0.207249 -0.467831 0.032681 -0.647122 0.285676 -0.368313 0.539243 -0.519537 1.024679 0.530638 0.189852 -0.127703 -0.038852 0.105732 0.061775 0.563429 0.496816 0.186686 -0.297909 0.647710 -0.360619 0.546943 -0.655943 0.040367 0.310591 0.186693 0.112680 -0.358628
-0.222829 -0.732958 -0.628114 -0.519178 -0.341668 -0.005180 -0.056170 -0.777338 -1.012351 -0.430410 -0.054896 1.159668 0.840684 -0.117986 -0.191004 -0.579632 -0.638882 0.690828 0.703531 1.538778 1.663725 1.015915 1.434691 2.272242 1.959546 1.309930 1.212802 0.755041 0.880153 1.070311 0.598288 1.169663 1.287268 -2.141372 -1.959245 -1.815888 -1.876854 0.045476 -0.038248 -0.360227 -0.603309 -0.438448 0.636963 -1.960145 -2.175267 -0.727466 -0.683004 -0.817366 -0.564634 -0.660097 -0.642206 -0.601619 -0.634949 -0.831928 -1.286536 0.120877 0.289519 0.150632 0.107562 -0.002691 0.151099 0.699788 0.771151 1.070639 1.077668 -1.278714 -1.242026 -0.771920 -0.636873 0.070161 0.068828 0.145084 -0.081585 0.357231 0.347323 0.720686 0.620605 -0.381508 -0.513302 -0.700733 -0.563122 1.092880 1.171680 1.236204 1.224186 0.501983 0.228359 0.396370 0.511780 0.036456 -0.040308 0.279843 0.257121 -0.567989 -0.371461 -0.020873 0.036965 0.983528 0.895584 1.266301 1.316881 0.749428 0.818808 0.738573 0.756648 -0.093589 0.046333 -0.176038 -0.051822 0.132950 0.173579 -0.310925 0.029098 -0.677029 -0.375470 -0.489237 -0.539868 -0.793199 -1.007314 -0.820459 -0.905429 -1.179533 -1.139629 -1.368648 -1.475731 0.026646 0.108463 0.523109 0.481835 0.063292 0.854397 -1.831268 0.173267 -0.114251 0.228855 0.449215 -0.596635 -0.733328 0.256708 0.549989 -0.879046 0.593970 -0.230443 1.954189 -0.084868 -0.470475 -0.454939 -0.170011 0.443019 0.725916 1.077762 -0.781670 -0.725071 0.263327 -0.115768 1.257888 0.160222 -1.262260 -0.693075 -0.050007 0.553738 0.454914 -0.365335 1.083682 -0.331817 0.115239 -1.134537 -0.869128 0.254725 0.441304 -0.830849 -0.170776 0.190763 -0.125838 0.634612 -0.271091 -0.033031 -1.441668 0.914774 -0.558199 2.442626 -0.019369 0.199814 -0.292599 -0.662717 1.820774 0.002965 0.479358 0.021328 0.518131 -0.963433
1.317700 -0.138220 -0.069277 -0.311178 -0.185403 -0.494892 -0.470678 -0.387375 -0.524110 -0.876100 -0.602044 -1.165563 -0.995957 -0.607077 -0.529002 -0.646052 -0.500724 -1.177432 -1.015825 -1.371326 -1.403980 -1.342109 -1.178485 -0.969915 -0.949313 -1.309605 -1.184563 -0.904036 -0.952895 -1.102600 -1.153668 -0.924618 -0.946935 0.861272 0.884880 0.776267 1.020784 0.726885 0.729009 0.928365 1.139731 0.447436 0.469257 0.489869 0.201182 0.795577 0.732525 1.088689 1.156198 0.899732 0.696521 0.782840 0.813360 0.760822 0.557249 0.885944 0.934127 0.878847 0.870995 0.966871 1.149547 1.052741 1.213625 1.362875 1.434633 0.621485 0.663384 0.796494 0.814316 0.864267 0.710684 0.710031 0.780289 0.658019 0.812517 0.437372 0.573536 0.467531 0.612921 0.607503 0.745758 1.062364 1.075891 0.888891 0.967372 0.775424 0.794807 0.808950 1.030452 0.619197 0.772954 0.666949 0.693921 0.726312 0.923126 1.314640 1.348587 -0.911081 -0.960347 -0.902493 -0.755429 -0.664031 -0.592039 -0.635082 -0.620161 -0.588569 -0.738870 -0.816066 -0.773087 -0.187103 -0.301403 -0.374248 -0.575143 -1.306276 -1.255002 -1.157879 -1.069184 -1.406247 -1.391272 -0.937133 -0.983451 -0.843396 -0.825799 -0.581257 -0.694636 -0.273088 -0.276090 -0.232007 -0.400376 -0.121381 -0.320872 0.053827 1.756931 -0.259051 -0.190900 -0.001784 0.236616 -0.442261 0.387626 0.057891 0.706441 -0.493036 -0.728894 0.395440 0.165032 0.074090 -0.014396 -0.715312 0.395525 -0.069159 0.064864 0.444051 0.144391 -0.130076 -0.022369 -0.505018 -0.333254 -0.175090 -0.277709 1.095344 0.562325 0.005095 -0.285483 -0.121583 -0.027958 0.017332 0.065943 -0.577345 0.029872 -0.297717 0.271934 -0.177948 -0.333310 0.075410 -0.361052 0.368831 0.087213 0.181313 0.227192 -0.590988 -0.282124 0.245324 0.177619 -0.668591 0.498657 -0.202812 -0.041815 0.177465 -0.145377 0.420597 -0.252151
2.773840 0.818699 1.078866 0.737160 0.979701 0.878089 0.798910 0.853866 0.830547 0.082217 0.184007 0.459482 -0.082167 0.641997 0.088599 0.673014 0.745172 -0.170827 -0.242114 -0.090246 -0.415768 0.113551 1.286721 0.682482 0.571880 0.533978 0.200565 1.007674 0.117014 0.641466 1.211753 0.803797 0.939245 -0.393842 -0.219386 -0.161926 0.351418 -0.473782 -0.021940 -0.187034 -0.155510 -1.048597 -0.403488 -0.640866 -0.725953 -0.454237 -0.798552 0.011482 0.128424 -1.041025 -0.998886 -0.906123 -0.741933 -0.606389 -0.798585 0.084699 0.203069 -0.195857 -0.495468 -1.374997 -0.882300 -0.241348 -0.190615 -0.328222 -0.477726 0.498888 0.386567 -0.354411 0.048559 -0.002514 -0.227419 0.562858 0.481357 0.132286 0.184025 0.688189 0.810455 0.354757 0.560026 0.384088 0.364321 -0.016176 -0.026503 -0.677462 -0.350522 -0.139416 0.050098 0.293441 0.416925 0.446687 0.704704 0.692655 0.218276 1.000231 0.862276 0.329717 0.043999 -1.254417 -1.178078 -1.351605 -1.323072 -0.598432 -0.817425 -0.379546 -0.614533 -0.243521 -0.308045 -0.073417 -0.276172 0.639148 0.117395 -0.359085 -0.653040 -0.207125 -0.119568 0.174692 -0.326677 0.533438 0.142859 -0.015355 0.135870 1.264418 0.996380 0.391842 0.279493 0.151319 0.144078 -0.499099 -0.319844 0.884345 0.148223 -0.083036 -0.094285 0.673566 1.129048 -1.027434 0.309683 -0.327493 -0.529034 -0.581055 0.925428 -0.582362 0.346422 -1.827527 1.115025 -0.438036 0.260057 -1.287597 -1.054340 -0.365398 -0.089611 0.848195 -0.997476 -0.013235 -0.731127 -0.010130 -0.061450 -0.136418 -0.077505 2.081324 0.804560 -0.742833 -0.023799 -1.112756 0.596190 0.983864 0.837988 -0.439367 -0.095606 0.396079 -0.129814 -0.860874 -0.375093 -0.445147 -0.761864 -0.852144 -0.869703 -0.693990 -0.073818 -2.486615 0.231437 1.312160 0.162439 -1.055736 -1.325183 3.121205 0.452961 -0.290864 -0.563287 -0.084669 1.887158
1.852111 0.142162 0.202391 0.483391 0.378979 0.749100 1.032212 0.998493 1.021224 0.538140 0.539262 0.973325 0.685733 1.040629 0.729848 1.045251 0.892363 -0.210671 -0.354569 0.290128 0.078309 0.618520 1.239914 0.209156 -0.162898 0.586732 0.386281 0.492028 0.117163 0.995179 1.156169 1.046330 1.068490 -0.759251 -0.588112 -0.720713 -0.770294 -0.268113 0.050536 -0.160500 -0.286488 -0.741134 -0.430453 -1.204737 -1.209829 -0.023376 -0.178147 0.305019 0.439805 -0.600651 -0.343118 -0.726334 -0.381961 -1.398118 -1.519500 -0.419630 0.073203 -0.608996 -0.562019 -0.907790 -0.551459 -0.442088 -0.611329 -0.721561 -0.889514 0.797535 0.712184 0.053819 0.177519 -0.408563 -0.429282 0.344558 0.453100 -0.034212 -0.057938 -0.091894 -0.021098 0.473933 0.517723 0.645257 0.441233 -0.302767 -0.406420 -0.726280 -0.455323 0.120113 0.194191 0.536466 0.538794 -0.009389 -0.077107 0.376400 -0.020643 0.767861 0.480731 0.266377 -0.166393 -0.489339 -0.386118 -0.497587 -0.648134 -0.792341 -0.913561 -0.530100 -0.668990 -0.164267 -0.158331 -0.130296 -0.168906 0.115387 0.077966 -0.110783 -0.065955 0.281304 0.117598 0.202843 0.092871 0.401973 0.211300 -0.322828 -0.155096 1.038510 0.842746 0.458659 0.454231 -0.077503 -0.061318 -0.457444 -0.334866 0.096578 0.204531 -0.030364 -0.463145 0.278677 1.013820 0.244001 0.228804 -0.066051 -0.377576 -0.079090 0.623471 0.146725 0.796525 -0.258736 0.904310 -0.096165 0.137004 -0.600681 -0.223940 -0.325144 -0.016528 0.302935 -0.555085 0.561691 -0.674969 -0.276959 0.462488 0.163442 0.164199 1.402866 -0.221394 -0.517727 0.046863 -0.568618 0.713508 0.533471 0.558067 -0.469527 -1.130536 -0.727178 -0.451069 -1.170540 -0.353156 -0.006011 0.037868 -1.012923 -0.436737 -1.260025 -0.585292 -0.613265 0.024267 0.797998 -0.451056 0.323264 -0.929527 0.904913 0.562072 -0.196137 -0.684312 -0.229464 1.209774
1.086173 0.202967 0.026128 0.113884 -0.046727 0.066889 0.034664 0.572729 0.656904 0.180313 -0.276776 0.036846 0.045929 0.339211 0.398216 0.490470 0.328647 -0.542258 -0.429823 -0.489199 -0.580328 -0.210870 -0.699776 -1.140750 -1.290275 -0.542286 -0.546831 -0.792741 -0.859613 -0.299475 0.007189 -0.065694 -0.036794 -0.076559 -0.118911 -0.025397 -0.061252 -0.157900 -0.160556 -0.196080 -0.135922 0.038914 -0.238225 1.067443 1.228735 0.236089 0.109236 0.405291 0.600635 -0.006032 0.111650 -0.231304 -0.039268 1.176470 1.764403 -0.029716 0.216959 -0.325597 -0.127388 0.580339 0.427958 0.062858 0.018496 0.193356 0.126680 -0.824731 -0.851487 -1.033514 -1.157728 -1.091718 -1.159868 -1.123632 -0.903140 -0.315686 -0.337853 -0.581474 -0.539859 -0.411143 -0.343152 -0.191177 -0.340855 -0.260479 -0.447138 -0.633258 -0.495717 -0.313351 -0.139917 -0.309205 -0.282461 0.335382 0.398027 0.063166 -0.029700 0.162858 -0.065399 -0.582473 -0.821525 0.302139 0.432705 0.409865 0.267514 1.011530 0.944684 0.326527 0.352118 0.921900 0.852862 0.352015 0.195967 0.470868 0.532326 0.626141 0.601910 1.694978 1.089766 0.553980 0.684508 0.475868 0.555469 0.559909 0.617744 0.274692 0.144563 0.195860 0.278841 -0.138213 -0.219425 0.155808 0.188964 -0.235767 -0.531714 1.181772 -0.306354 -0.076893 0.462324 -0.135257 0.588555 0.676329 -0.021744 0.371447 0.172362 -0.138160 0.954436 -0.552751 1.000676 0.390541 0.485288 -0.084343 0.381310 -0.286118 -0.665380 -0.131163 0.339655 0.576542 -0.799179 -0.966595 -0.706000 1.035022 1.229656 0.598466 -1.126870 -0.093580 -0.048879 -1.170207 0.290253 -0.437130 0.245684 -0.734321 -0.516229 -1.354293 0.120238 -0.498576 -0.193432 0.892474 -0.903450 0.375487 0.076373 0.015727 -0.340835 0.614443 -1.608248 0.063057 -1.107097 0.395862 1.401147 -1.509117 -0.337023 0.139972 -0.078292 -0.216154 0.606235
1.161415 -0.265591 -0.220637 0.224594 0.089248 0.636728 1.063187 0.418393 0.388632 0.719248 0.887905 1.468065 1.289726 1.439775 1.187088 1.399376 1.365752 0.001754 -0.156458 0.650569 0.657556 0.355416 1.075823 0.450895 0.276504 0.955822 0.884948 0.837094 0.678106 0.984193 1.141293 0.935857 1.009922 -0.903282 -0.718971 -0.655880 -0.860996 -0.233750 0.260584 -0.122815 -0.358478 -1.843623 -1.672566 -2.026282 -2.046482 -0.150915 -0.253689 0.434378 0.524215 -0.935935 -0.654941 -0.601050 -0.220258 -0.941633 -1.028260 -0.153955 0.257746 -0.630712 -0.519320 -0.996775 -0.620176 -0.791670 -0.980169 -1.048363 -1.175346 1.046871 1.076816 0.876648 0.887375 0.097283 0.187653 0.604239 0.588354 -0.273369 -0.330897 -0.323077 -0.323446 0.400916 0.428313 0.752054 0.686794 -0.004646 -0.084968 -0.293058 -0.123631 -0.110928 -0.215002 0.002355 -0.102341 0.101747 -0.001641 0.277107 0.037448 0.626004 0.487624 0.079575 -0.205209 -0.916562 -0.804966 -0.854076 -0.868895 -0.970766 -1.035237 -0.818509 -0.875820 -0.085885 -0.059253 -0.396334 -0.297694 -0.164669 -0.111494 -0.239121 0.065864 0.161814 0.183200 0.090653 0.017641 0.536338 0.307074 -0.110472 -0.035934 0.882893 0.745978 0.223941 0.247905 -0.044505 0.025315 -0.271255 -0.218715 -0.281458 0.581502 -0.365123 -0.714169 0.043914 0.874501 0.505236 0.359762 0.256540 -0.379894 -0.442971 -0.399513 0.493613 0.169597 0.590312 0.542175 -0.152223 0.048975 0.177398 -0.227392 0.078325 0.402319 -0.215841 -0.242150 0.872577 -0.429072 0.537853 1.307780 -0.225304 -0.001053 0.954286 -1.167923 -0.558043 0.258863 0.335590 1.192181 0.648274 0.544210 -0.288484 -1.677485 -0.418534 -0.871922 -0.954950 -0.421152 -0.303173 0.960268 -1.190289 -0.174644 -1.556914 -0.656096 0.464668 0.783680 0.024165 -0.611872 0.793936 -1.036014 0.612913 0.796643 -0.323626 -1.120290 -0.081874 0.697564
0.405601 -0.114274 -0.292110 -0.072487 -0.100621 0.088699 -0.145477 -0.074303 -0.095513 0.135065 -0.142324 0.383425 0.483445 0.492465 0.536766 0.446676 0.189094 -0.122007 0.198741 -0.074120 0.256783 -0.249243 -1.198489 -1.038655 -0.940773 -0.129658 0.071939 -0.885722 -0.423949 -0.118754 -0.038678 -0.165661 -0.148920 -0.429808 -0.453631 -0.689521 -0.915989 0.139626 -0.050089 -0.100074 -0.134561 0.053939 -0.584752 0.975274 1.141971 -0.219080 -0.197793 -0.356301 -0.310998 0.295673 0.332838 -0.065423 -0.007857 0.875391 1.202357 -0.008106 0.238553 -0.088702 0.204664 0.622987 0.488970 0.356895 0.422852 0.446759 0.508174 -0.844195 -0.745812 -0.619035 -0.809118 -0.349168 -0.393308 -0.570561 -0.476616 -1.288667 -1.269459 -1.650301 -1.597951 -1.228869 -1.205532 -0.795076 -0.859928 -0.112017 -0.269097 -0.317109 -0.282133 -0.044613 -0.011345 -0.140425 -0.125572 -0.312584 -0.249123 -0.185999 -0.175188 -0.155315 -0.211038 -0.294636 -0.298277 1.003329 1.033855 0.828806 0.809344 1.136873 1.247125 0.830826 1.019364 1.089841 1.051954 0.734237 0.720698 -0.333486 -0.107454 0.491342 0.668471 1.502991 1.031890 0.636078 0.688561 0.520493 0.611674 0.772940 0.676626 -0.250910 -0.272469 -0.039946 -0.023906 -0.115893 -0.159352 0.282720 0.207046 -0.369148 -0.267933 0.577887 -0.343177 -0.266936 -0.140907 -0.091488 0.679938 0.727145 0.682828 -0.094322 -0.608731 0.364311 1.050394 0.847780 0.629558 -0.153873 0.300855 0.985532 0.750139 0.338994 -0.249174 -0.469124 0.286280 0.247432 -0.230275 -0.644752 -0.915590 0.250649 1.024459 0.298273 -1.046260 -0.268264 -0.552376 0.151223 -0.183183 -0.767018 -0.250159 -0.413466 -0.149831 -1.460393 -1.107191 -0.356542 0.204281 1.086314 -1.364529 0.715666 0.507424 0.973165 -0.366946 2.208321 -1.468021 -0.155464 -0.957789 0.567403 2.056397 -2.792136 -1.144497 0.237279 -0.156086 0.022835 0.074552
-0.034811 -0.289402 -0.255831 -0.281216 -0.279627 -0.303690 -0.296156 -0.494637 -0.529223 -0.351597 -0.394099 -0.079660 -0.062052 -0.057210 -0.033058 -0.036083 -0.108583 -0.134136 -0.104559 -0.194866 -0.069901 -0.120816 -0.124274 -0.097044 -0.088426 -0.256705 -0.206992 -0.161386 -0.203345 -0.106019 -0.088260 -0.062296 -0.044127 -0.291427 -0.284936 -0.304383 -0.342599 -0.321750 -0.249164 -0.274075 -0.317967 0.722462 0.686083 1.014946 1.076030 -0.005703 0.041163 0.227544 0.178705 -0.142864 -0.138807 0.067343 0.072656 0.869902 0.944504 0.673914 0.539931 -0.002591 -0.016946 0.053380 -0.025975 0.398923 0.317113 0.375794 0.339260 -0.633918 -0.651509 -0.601552 -0.636820 -0.534796 -0.602780 -0.543098 -0.634737 -0.644060 -0.640055 -0.762857 -0.733831 -0.647276 -0.577892 -0.429004 -0.333031 -0.599074 -0.635718 -0.659511 -0.578735 -0.549103 -0.513986 -0.512899 -0.504220 -0.479124 -0.439763 -0.513174 -0.412995 -0.493321 -0.391469 -0.527904 -0.549094 0.616391 0.638873 0.699345 0.674884 0.617218 0.590297 0.555100 0.583430 0.647000 0.685411 0.535915 0.551982 0.383296 0.425158 0.521254 0.560930 1.191659 1.137304 1.228204 1.266411 0.784681 0.775995 0.564429 0.574452 0.414974 0.460029 0.221646 0.305602 0.000526 0.017763 -0.115665 -0.181998 -0.084080 -0.052996 -0.333741 0.041677 0.038723 -0.074613 0.216788 0.292372 -0.201321 0.504255 0.008342 -0.389435 0.412092 0.338572 0.494088 -0.099865 0.310846 -0.115819 -0.016117 0.494021 0.503666 0.213658 -0.146641 -0.081178 -0.261987 0.328692 -0.017500 -0.130334 0.293408 -0.076797 -0.054798 -0.364095 0.143831 0.057789 0.281306 -0.194202 -0.203435 -0.487334 -0.402063 -0.423601 -0.305130 -0.387217 -0.610639 -0.441780 -0.148181 0.099897 0.173457 0.351776 -0.233893 -0.148454 0.370666 0.007121 0.040734 -0.211317 0.059061 0.035538 -0.337803 -0.052245 0.220439 -0.025718 0.304490 -0.301385
0.258089 0.006674 -0.011659 -0.061516 -0.023893 0.049176 0.014989 -0.155856 -0.215302 0.145709 0.058143 0.416557 0.398063 0.270798 0.384340 0.226161 0.032819 0.266625 0.433891 0.201222 0.272176 0.578871 0.939460 0.782508 0.629337 0.269893 0.280369 0.337532 0.258239 0.429286 0.306155 0.477061 0.530471 -0.548880 -0.506165 -0.549482 -0.569384 -0.064717 -0.005788 -0.224315 -0.275742 -0.419487 -0.127709 -1.479417 -1.544505 -0.785722 -0.662760 -0.663489 -0.347764 -0.034904 -0.005701 -0.139269 -0.165394 -0.525421 -0.784295 -0.347924 0.047118 0.141645 0.108288 0.267989 0.158594 0.459112 0.333642 0.513920 0.477717 -0.677441 -0.685973 -0.414294 -0.479026 -0.002900 -0.062716 -0.236070 -0.351069 0.612120 0.673080 0.600441 0.626757 -0.400334 -0.352540 -0.592146 -0.482103 0.805862 0.813806 0.630960 0.682993 0.255202 0.189877 0.128057 0.170442 -0.363369 -0.313840 -0.293220 -0.214485 -0.419696 -0.375860 -0.156423 -0.277731 1.207239 1.218649 1.103603 0.989327 0.713453 0.711036 0.532753 0.487261 0.266503 0.269341 0.091394 0.067851 0.055725 0.009849 -0.051125 0.006183 -0.067652 -0.144527 -0.323237 -0.335820 -0.423269 -0.519251 -0.385767 -0.375205 -0.717642 -0.729962 -0.880397 -0.872785 -0.302892 -0.309341 -0.012452 -0.059114 0.136069 0.151670 -0.505366 0.163848 0.085990 0.105710 0.306908 0.272636 0.120928 -0.231412 -0.040948 -0.035473 0.603797 0.287128 0.696410 -0.199604 -0.059070 0.055954 -0.019862 0.382387 -0.204128 -0.096955 0.096052 -0.225532 -0.286083 0.026197 0.210335 0.179938 0.037877 -0.223634 -0.010853 0.298659 0.491460 0.287324 0.584299 0.601785 -0.273925 -0.692227 -0.528464 -0.192041 -0.273986 -0.461872 -1.132270 -0.207164 -0.620617 0.248282 -0.544439 0.103626 -0.214977 0.248811 0.805436 1.427025 -0.294436 -0.153205 0.003398 -0.327241 0.034412 -0.278397 0.149592 -0.698033 0.530085 -0.526672
0.142868 -0.939845 -0.829847 -0.493626 -0.649201 -0.042206 0.449458 -0.032152 0.001292 0.682193 0.880230 1.363611 1.410657 0.902669 0.738892 0.806054 0.845379 0.093492 -0.025626 0.924468 0.781284 0.953134 1.071223 1.030185 0.864922 1.364004 1.164693 1.032204 1.072797 1.426047 1.384086 1.435113 1.465103 -1.388740 -1.208973 -1.227046 -1.467861 -0.470915 0.144833 -0.277829 -0.409829 -0.531215 -0.299295 -0.183367 -0.097275 0.167413 0.095248 0.343716 0.422099 -1.010485 -0.791452 -0.526125 -0.228318 -1.251795 -1.366231 -0.521559 -0.304605 -0.851253 -0.737277 -1.462049 -0.942568 -0.991707 -1.214229 -1.136226 -1.262906 1.085664 1.115896 1.125488 1.174793 0.837720 0.979824 1.086472 1.137783 0.625789 0.596644 0.605603 0.575566 0.831801 0.834601 0.844495 0.855442 -0.473902 -0.448754 -0.812482 -0.621489 -0.782390 -0.806523 -0.807599 -0.870325 0.292763 0.231769 0.331266 0.067617 0.810691 0.693585 0.633943 0.378562 -1.263644 -1.137647 -1.021413 -1.043525 -1.019106 -1.019114 -0.998976 -1.014469 -0.828898 -0.690562 -1.009089 -0.882679 -1.335778 -1.212787 -1.484129 -1.146217 0.348985 0.483314 0.271140 0.313789 0.348675 0.251524 -0.024743 -0.050400 0.895390 0.841497 0.534691 0.512706 0.080073 0.177740 -0.013770 0.149977 -0.295690 0.634089 -0.415772 -0.860916 0.047046 0.867832 0.658939 0.479838 -0.077885 -0.356064 -0.072446 -0.123225 0.618664 -0.634421 -0.113972 -0.092368 -0.054436 0.038487 0.092510 -0.584666 -0.099437 0.293920 -0.670168 -0.208433 0.407215 -0.146239 0.532193 1.176936 -0.171966 -0.856438 0.337573 -0.437982 -0.132813 0.306362 0.340341 0.705421 0.121181 0.465034 0.842955 -0.575728 0.309915 -0.195974 0.091163 -0.133521 -0.389303 0.992833 -1.887612 -0.750380 -1.170042 -0.683149 0.156259 0.340426 -0.459707 0.066995 0.788554 -1.293701 0.902886 0.986318 -0.417574 -0.754107 0.278329 0.655431
-0.863612 -1.000474 -1.342546 -0.971406 -1.085569 -0.935815 -0.851971 -0.800800 -0.747542 -0.273172 -0.427005 -0.227858 0.077322 -0.086425 -0.080542 -0.100091 -0.201042 -0.492829 -0.252460 -0.248004 0.150735 -0.187977 -0.995965 -0.941595 -0.980082 -0.386815 -0.193213 -0.844874 -0.369074 -0.422395 -0.034726 -0.269723 -0.157241 -0.306059 -0.327789 -0.618086 -0.929962 0.123166 0.061988 -0.156939 -0.242377 1.020960 0.423169 1.546914 1.836426 0.792335 0.616367 0.427127 0.183584 0.700482 0.668423 0.527310 0.450673 1.118258 1.556071 0.093834 -0.305339 0.433174 0.651505 0.921333 0.704373 0.606298 0.605827 0.774999 0.859516 -0.812229 -0.673155 -0.339072 -0.626942 -0.356745 -0.365418 -0.731606 -0.648047 -0.865120 -0.820850 -1.347655 -1.403040 -0.833065 -0.952517 -0.565332 -0.518503 -0.771270 -0.835611 -0.794528 -0.771316 -0.823483 -0.884756 -1.120235 -1.100893 -0.992236 -1.038807 -1.234504 -1.100173 -1.029266 -1.031237 -0.771527 -0.592557 0.921124 1.032967 1.126025 1.100483 1.369184 1.461515 0.903044 1.101569 0.833440 0.952152 0.463282 0.555359 -0.217201 0.104970 0.547889 0.766612 1.784271 1.585337 1.261909 1.339692 0.991251 1.178534 1.145484 1.011820 -0.003524 0.008096 0.176116 0.316831 0.268491 0.286542 0.704699 0.810122 -0.590570 -0.291297 0.533108 -0.377365 -0.194001 -0.251065 0.008684 0.855710 0.026143 1.306834 0.128744 -0.784179 1.189105 0.352527 0.930301 -0.099007 0.375311 -0.184058 0.943054 0.922596 0.426926 -0.766839 -1.383045 -0.075003 -0.589886 0.276462 -0.539713 -0.717448 0.888437 0.435868 -0.643680 -0.973415 0.475875 -0.750846 0.417229 -1.104702 -1.059754 -0.373702 0.502614 0.615564 -0.744303 -0.830014 0.852871 0.499055 1.485205 -1.237450 1.136446 0.088494 0.869488 -0.215233 2.403369 -2.274749 -0.549974 -0.620897 1.113068 2.103046 -3.229807 -1.489505 0.392133 0.643496 0.396061 -0.557575
-0.833112 -0.683088 -0.562944 -0.643277 -0.559458 -0.763752 -0.628416 -0.807210 -0.752150 -0.283956 -0.366285 0.115443 0.233991 -0.358693 -0.351228 -0.505578 -0.496114 -0.011866 0.119419 0.229615 0.445054 -0.032788 -0.102937 0.112857 0.129719 0.076320 -0.027357 -0.040640 -0.003457 -0.143003 0.080604 -0.076817 -0.061064 -0.421304 -0.429882 -0.197370 -0.096059 -0.641166 -0.615144 -0.500394 -0.507199 0.490915 0.622964 1.093845 1.229238 0.236188 0.070149 0.132120 0.008388 -0.295252 -0.424326 -0.137710 -0.211880 0.571847 0.382939 0.517028 0.045577 0.740746 0.553927 0.006970 0.233522 0.904642 0.875154 0.849002 0.798472 -0.376707 -0.475354 -0.521713 -0.335740 0.017735 -0.039590 -0.133486 -0.153922 0.185068 0.171264 0.129708 0.073405 0.301925 0.392114 -0.059902 0.092330 0.072742 0.027365 -0.041696 -0.027404 -0.536761 -0.385972 -0.409936 -0.341591 0.490823 0.459082 0.408521 0.482355 0.253928 0.389805 0.403179 0.457189 0.011764 0.029539 -0.129116 -0.099023 0.020207 -0.082476 0.099674 0.182168 -0.138762 -0.074107 -0.333393 -0.402384 -0.180525 -0.300900 0.057245 -0.060137 -0.233093 -0.201992 -0.254142 -0.166452 -0.416181 -0.359418 -0.188936 -0.182014 -0.091782 0.012537 0.054751 -0.016799 0.488533 0.476141 0.306264 0.370928 0.445586 -0.115805 -0.221430 0.041825 -0.067229 0.013924 -0.461941 0.085086 -0.314053 0.403440 0.395897 0.304310 -0.163787 -0.217653 -0.513339 -0.036574 0.142454 -0.150352 -0.471057 0.066283 0.610736 -0.020840 -0.311124 -0.034499 -0.054016 0.249320 -0.140372 -0.504491 0.384916 0.140776 -0.557183 0.108157 0.183892 -0.134906 -0.202657 -0.541991 0.150059 -0.378241 -0.058603 0.186239 0.630158 -0.103190 0.661900 0.030411 -0.074802 -0.326329 -0.029703 -0.241037 -0.084273 0.230678 -0.396276 -0.005939 -0.018701 0.183951 -0.446728 0.008409 0.180041 -0.063101 0.436865 0.244507 0.120035 0.307682
-0.452935 -0.828898 -0.769397 -0.838544 -0.730059 -0.917012 -1.032116 -1.180449 -1.328297 -0.303442 -0.248613 0.548664 0.319981 -0.196601 -0.138365 -0.261815 -0.184063 0.175207 0.103710 0.479032 0.526647 0.512726 0.635312 0.669696 0.538963 0.437139 0.374562 0.486349 0.381894 0.230773 0.155773 0.342623 0.336627 -0.407188 -0.581220 -0.125600 0.089468 -0.328057 -0.497783 -0.099977 -0.098594 0.111233 0.372541 -0.725198 -0.735912 -0.001869 -0.039908 0.151516 0.139404 0.256279 0.250438 0.157444 0.106999 -0.449881 -0.912542 0.114892 -0.133973 0.613050 0.475576 0.515532 0.525071 0.544888 0.492310 0.765892 0.704226 -0.590849 -0.735186 -0.557185 -0.309362 -0.413179 -0.475730 -0.344275 -0.467980 -0.237447 -0.283588 0.004273 -0.004194 -0.617751 -0.529004 -0.499342 -0.278735 0.852609 0.842439 0.907241 0.930765 0.629284 0.676078 0.813272 0.828018 -0.330178 -0.311013 -0.123557 -0.032068 -0.721700 -0.441716 -0.078379 -0.069452 1.205442 1.155909 1.194016 1.192390 0.921163 0.812030 0.849450 0.807420 0.014645 0.015148 0.040117 -0.038504 0.523156 0.401714 0.303924 0.320586 -0.837589 -0.716144 -0.562153 -0.572230 -0.541693 -0.586777 -0.424255 -0.414186 -0.903747 -0.779439 -0.751124 -0.768862 -0.114539 -0.043556 -0.084571 -0.102783 0.340916 0.159533 -0.718681 0.261980 -0.004650 0.138505 -0.560547 -0.074660 -0.387326 0.196245 0.734877 -0.681524 -0.112009 -0.253239 1.018948 -0.235184 -0.379391 -0.223648 -0.205087 0.521096 0.380934 0.884162 -0.541354 -0.411890 -0.090496 0.039888 0.987580 0.156455 -0.052477 0.130925 -0.370442 -0.109341 0.404949 0.108537 0.513808 0.105842 -0.122065 -0.792639 -1.045647 0.527968 0.614206 -0.119692 -0.118549 0.130373 -0.204234 0.405184 0.165426 0.187205 -1.327527 0.742044 -0.790592 1.411187 -0.393059 -0.020919 -0.990053 -0.651160 0.410573 -0.025679 0.740005 0.187414 0.297151 -0.301670
-1.188560 -0.315967 -0.410540 -0.541565 -0.574217 -0.482423 -0.507855 -0.326370 -0.337896 -1.097321 -1.271815 -1.714542 -1.810410 -1.269515 -1.004143 -1.209890 -1.111959 0.332000 0.853114 -0.171115 0.898965 -0.462998 -0.418484 -0.197248 0.245823 -0.331844 -0.178683 -0.972079 -0.690383 -0.939732 -0.996497 -1.072696 -1.038920 -0.932110 -0.807029 -0.836087 -0.853529 -0.753569 -0.735282 -0.856315 -0.986945 2.245532 2.195217 1.883007 2.003229 1.576857 1.116629 1.257575 0.884998 0.416871 0.128884 0.529168 0.300457 -0.199141 -0.082818 0.166523 0.084085 1.405813 1.344796 1.126343 1.315600 1.202684 1.373894 1.176310 1.246996 -0.600101 -0.607055 -0.559780 -0.579202 -0.417463 -0.496529 -0.487217 -0.591245 0.062286 0.088896 0.095123 -0.080132 0.340878 0.305721 0.256594 0.229966 -0.456919 -0.480440 -0.506652 -0.658574 -0.916372 -1.027402 -1.010037 -0.959281 0.317325 0.166912 -0.001062 0.076421 -0.096257 -0.019513 -0.173115 0.077854 0.421315 0.519615 0.448590 0.410389 0.106959 0.256383 0.068600 0.049969 -0.455751 -0.376484 0.004550 -0.471817 0.053385 0.144126 0.138300 -0.027269 0.851888 0.981150 0.494847 0.402152 0.126082 0.211064 0.629076 0.484651 0.031339 0.166780 0.282510 0.408343 0.315774 0.320196 0.141322 0.379776 0.315662 -0.333869 -0.278604 0.480540 -0.336091 -0.536963 -0.754808 0.214660 -0.042475 0.007706 0.553493 0.485538 0.659129 0.176003 -1.087344 -0.068104 0.222907 -0.113546 -0.385159 -0.156761 0.258203 -0.784066 0.084179 0.294614 -0.079539 0.470995 -0.313268 -0.492988 -0.218745 0.224650 -1.003892 -0.080165 0.343948 -0.182859 0.045971 -0.684003 0.046978 -0.645699 -0.444710 -0.263861 0.469438 -0.078340 0.386156 0.191352 0.109731 -0.240492 0.153200 0.382055 0.419381 0.618192 0.666147 0.193223 0.469315 0.389866 -0.515627 0.677543 -0.060545 -0.340233 0.893575 0.085079 0.374701 -0.103201
-1.679259 -1.214166 -1.493438 -1.275386 -1.424877 -0.852171 -0.858757 -0.917337 -0.936363 -0.822989 -1.248376 -1.148472 -0.854951 -1.260596 -1.431052 -1.058705 -0.954806 0.401746 0.232276 0.510959 0.119074 0.206208 1.114201 0.281793 0.815519 0.121352 0.143136 0.815976 0.296635 -0.492946 0.174011 -0.580146 -0.341651 0.041082 -0.104420 0.075045 0.348940 0.340749 -0.129479 0.410074 0.390063 1.303707 1.350370 1.336170 1.739799 1.232788 1.015335 1.368039 1.258908 0.079681 0.429794 0.115644 0.466869 -0.972157 -1.388976 -0.700153 -0.410909 0.363512 0.856063 -0.628478 0.872958 0.401378 0.301500 0.272732 0.218414 -0.021646 -0.222312 -0.227233 -0.051090 -0.433551 -0.238653 -0.557188 -0.373321 0.209580 0.126723 -0.048671 -0.050537 -0.000987 0.315350 0.722692 0.566584 -0.644654 -0.760277 -0.343806 -0.522936 -0.364203 -0.335817 -0.342427 -0.454793 -0.392916 -0.620220 -0.228128 -0.693444 -0.057984 -0.041340 0.078694 0.031069 0.145818 0.146739 0.157602 0.358223 0.451910 0.466119 0.233512 0.079620 -0.188637 0.040860 -0.058368 -0.308025 0.710698 0.324670 -0.169039 -0.337264 -0.611899 -0.006249 0.694745 0.099775 0.451779 0.375739 0.033851 -0.067019 0.729404 0.711908 0.594136 0.464928 -0.190684 -0.285634 -0.386451 -0.364587 0.128798 0.714729 -1.033205 0.266543 -0.835675 0.698800 1.030136 -0.860885 -0.894517 -1.001287 -0.259098 -0.932218 1.335616 -0.099731 1.216555 -0.527597 0.468667 -0.907665 -0.493052 0.692658 -0.696056 0.530490 0.023465 -0.444293 0.056656 0.550629 2.086786 0.663697 1.023300 -0.311305 -1.476919 -0.048315 0.775037 0.387498 0.966403 1.583091 0.163131 -1.205945 0.146601 -0.653073 -0.634149 -0.861706 -0.669046 -0.106632 -0.065061 0.380415 -0.352501 0.218827 -2.597879 -0.335031 -1.315767 1.783297 1.179436 -0.562243 -0.721333 -1.945098 0.431752 1.627046 0.876113 0.283663 0.398332 0.580784
-0.082731 -1.015058 -0.971933 -0.626929 -0.721295 -0.223495 -0.083614 -0.188846 -0.144731 -0.069624 0.057419 -0.233352 -0.242794 -0.271355 -0.383478 -0.528067 -0.528470 -0.130245 -0.025643 0.336176 0.464011 0.222102 0.704614 0.406752 0.338266 -0.151921 -0.281650 -0.203635 -0.216179 -0.594207 -0.570815 -0.653655 -0.625073 -0.459251 -0.399900 -0.416321 -0.477755 -0.236886 -0.094228 -0.304303 -0.421313 -0.074871 0.122590 -0.383287 -0.376327 0.416815 0.328898 0.403243 0.341950 0.047381 0.112126 0.223916 0.265316 -0.102610 -0.223059 0.368054 0.552251 0.845848 0.880996 0.686987 0.991162 1.148992 1.187738 1.073460 1.046383 -1.073493 -1.022505 -1.077263 -1.067933 -0.889769 -0.824074 -0.728668 -0.701189 0.056859 0.036305 0.063599 -0.003059 0.174070 0.086562 -0.059656 -0.073594 0.418040 0.415920 0.148303 0.198726 0.377763 0.258565 0.364448 0.373502 -0.279220 -0.400684 -0.289929 -0.453360 -0.315282 -0.416149 -0.250851 -0.282790 1.015543 1.118522 1.128895 1.013622 0.990836 1.048138 1.073585 1.068489 0.437700 0.511785 0.272952 0.309287 0.431772 0.485395 0.456485 0.500863 -0.374240 -0.226725 -0.550436 -0.563209 -0.187306 -0.255221 -0.160602 -0.253310 -0.354066 -0.421435 -0.318562 -0.395584 -0.249732 -0.219893 -0.156905 -0.022565 -0.085743 0.334113 -0.311302 -0.383145 0.110957 0.333256 0.118448 0.213596 -0.156391 -0.587835 0.166738 0.242006 0.449618 -0.373743 -0.180710 0.040199 0.074088 0.237435 -0.602383 -0.333488 -0.174979 0.161005 0.135993 0.242387 0.143786 -0.430558 0.562064 0.214443 -0.776465 -0.218129 0.101835 0.469049 0.157557 0.020444 0.158346 0.254709 0.236572 0.069188 0.055813 -0.503465 0.145599 -0.020940 -0.010412 0.672988 -0.210574 0.097185 -1.092895 -0.510934 -0.393039 0.431215 0.250995 0.268284 0.584818 0.761832 0.105708 -0.251509 0.531274 0.341814 -0.037313 -0.721928 -0.349089 0.064448
-0.928684 -1.149921 -1.415971 -1.135362 -1.135450 -1.093213 -1.466159 -1.174993 -1.148333 -0.769700 -0.648265 -0.712235 -0.785815 -0.826492 -0.866098 -0.940769 -0.822655 -0.329125 -0.408339 -0.396527 -0.517281 -0.394261 -1.040408 -0.618526 -0.594516 -0.813259 -0.708124 -0.469650 -0.945427 -1.322191 -1.202453 -1.206414 -1.099104 0.389761 0.197827 0.338619 0.486763 0.329841 -0.326761 0.171056 0.288361 0.969966 0.619867 1.517495 1.584654 1.531219 1.661524 1.158828 0.734730 1.118378 0.986078 0.908915 0.736995 1.004966 1.384881 0.871615 0.756502 0.860909 0.893036 1.081264 0.791126 0.911997 1.065027 1.073192 1.129716 0.984754 0.825276 0.967725 0.797901 1.044772 0.988280 0.829909 0.849349 0.160322 0.132278 0.335515 0.238999 0.223704 0.097722 0.390965 0.445014 0.157440 0.144166 0.674357 0.556492 0.184845 0.162633 0.096151 0.082756 0.582124 0.523282 0.496195 0.680067 -0.039848 0.090200 0.095037 0.169424 -0.633201 -0.586895 -0.120877 -0.165893 -0.321439 -0.264197 -0.289487 -0.360039 -0.666809 -0.691861 -0.533242 -0.714797 -0.391655 -0.480848 -0.604763 -0.489442 -1.157773 -1.075426 -0.812254 -0.861110 -1.119770 -1.040213 -1.371324 -1.451849 -0.131975 -0.051128 0.053503 0.256360 0.245322 0.377486 0.319535 0.239569 -0.097840 -0.135497 0.087625 0.472945 -0.222332 -0.316757 -0.446002 -0.610624 0.103979 0.455636 0.842480 -0.924284 -0.367391 0.416176 0.786096 0.221400 -0.075593 -0.246871 0.691663 0.474285 0.593699 0.524675 -0.778677 0.011786 0.414075 0.310558 0.010174 -0.376979 0.132643 0.808666 -0.758126 -0.478186 0.484579 -0.254454 0.026970 0.257197 -0.320339 -0.273172 -0.177612 0.432863 -0.041247 0.035312 0.909205 -0.299129 0.146594 0.018435 0.715802 0.050653 -0.503686 -0.052604 0.277684 0.325982 -0.803586 -0.478905 0.035516 0.930951 -0.386442 -0.675161 0.027866 0.804686 -0.056102 -0.430009
0.230477 0.024734 -0.033829 -0.126796 -0.204792 -0.059280 -0.113989 -0.072160 -0.205382 -0.017994 -0.039084 0.019620 -0.021214 0.076815 0.057713 0.064025 -0.036389 -0.664285 -0.434455 -0.514885 -0.763593 -0.736623 -0.413295 -0.599084 -0.791875 -0.380095 -0.299896 -0.026132 -0.279414 -0.212550 -0.140874 -0.102671 -0.079169 0.201407 0.183979 0.212914 0.312182 0.088480 0.146319 0.250867 0.368257 -0.203397 -0.124234 -0.057146 -0.173649 -0.073206 -0.077253 0.107654 0.274699 0.528413 0.365509 0.301350 0.339354 0.282668 0.327092 0.302910 0.199368 0.454947 0.383026 0.255908 0.207761 0.468016 0.378909 0.530809 0.593458 0.223004 0.246057 0.240342 0.229640 0.228272 0.152608 0.158565 0.184115 0.024887 0.104081 0.030054 0.077256 -0.152494 -0.022853 0.022433 0.128887 -0.000189 0.072564 -0.073167 0.063102 -0.055617 0.019216 0.009652 0.089612 -0.155780 -0.052012 0.035839 0.020543 0.070133 0.123882 0.233294 0.164096 -0.186083 -0.194708 -0.081937 -0.155793 -0.182962 -0.094693 -0.106287 -0.148002 0.005869 -0.097767 -0.001351 -0.044434 0.040374 -0.095091 -0.075374 -0.116728 -0.128886 -0.210909 0.046194 -0.055357 -0.088391 -0.176763 -0.140335 -0.140972 0.096929 -0.053772 -0.048827 -0.006607 0.010246 0.033141 0.063236 0.126496 -0.013841 -0.020950 0.199421 0.300192 -0.017271 0.016103 0.267837 0.444478 0.228682 0.169560 -0.115736 -0.127375 -0.178868 0.062934 0.262710 0.484245 0.192981 0.249407 0.112961 0.132518 0.069690 0.287304 -0.147539 -0.189599 0.140250 -0.025141 -0.197373 -0.204397 -0.074590 0.081378 0.231876 0.421698 0.263514 0.256584 0.165850 0.213851 0.177706 0.356076 -0.034910 0.023497 0.228889 0.233174 0.066548 -0.012025 0.195943 0.293597 -0.151309 -0.228480 0.115903 -0.043079 -0.035425 -0.133039 -0.056435 0.106459 0.033859 -0.100834 -0.043350 -0.259994 -0.112200 -0.148507 0.075443 0.034952
1.023024 0.641216 0.770358 0.539342 0.706575 0.687100 0.489755 0.626426 0.608443 0.737434 0.632080 1.179086 0.729354 0.984030 0.635825 0.927304 0.867080 -0.175408 -0.132959 -0.090006 -0.340086 -0.036066 0.569951 0.342623 0.106486 0.648287 0.473556 1.051691 0.354176 0.909061 1.249902 1.047369 1.148396 -0.612138 -0.494753 -0.356526 0.023786 -0.703517 -0.342888 -0.528129 -0.511441 -1.150906 -0.544350 -0.697019 -0.705778 -0.672666 -0.832624 -0.582173 -0.328364 -0.842702 -0.816800 -0.765543 -0.674828 -0.359052 -0.527007 -0.102184 -0.239425 -0.362652 -0.580718 -1.081318 -0.831457 -0.343204 -0.298383 -0.430293 -0.570305 0.719715 0.653324 0.109535 0.349370 0.368190 0.084677 0.655424 0.601111 0.186351 0.226662 0.386290 0.471784 0.164878 0.365498 0.281008 0.385233 0.164354 0.097694 -0.628925 -0.257806 -0.389821 -0.163105 0.000784 0.175029 -0.031244 0.202329 0.353390 0.018589 0.546614 0.517396 0.321742 0.042474 -0.886424 -0.842421 -0.964614 -1.003910 -0.506192 -0.671471 -0.433418 -0.577887 -0.274324 -0.399572 -0.371050 -0.551142 0.203820 -0.233162 -0.509741 -0.662657 0.117241 0.053481 0.241266 -0.138858 0.256943 -0.069748 -0.115410 0.080510 0.893791 0.560453 0.318771 0.269575 0.043133 0.108292 -0.030004 0.139212 0.763990 0.030937 0.032878 0.060400 0.486298 0.838344 -0.659631 0.607569 -0.076211 -0.101605 -0.242100 0.648597 -0.614379 0.320006 -0.836513 1.130242 -0.123462 0.272608 -0.876756 -0.261551 0.261115 0.107158 0.304863 -0.786056 -0.099411 -0.578437 -0.371711 -0.467707 -0.086687 0.014708 0.836006 0.426756 -0.225920 0.111848 -0.483198 0.103553 0.741771 0.536678 -0.317767 0.050501 0.318358 -0.087650 -0.023921 -0.124792 -0.080187 -0.393794 -0.475601 -0.459475 -0.313529 -0.176047 -1.346601 -0.067630 0.545919 -0.119174 -0.454032 -0.748168 1.574502 0.200176 -0.150822 -0.296057 -0.116026 1.111424
1.361720 0.173900 0.219752 0.429485 0.390045 0.629425 0.817915 0.755189 0.744405 0.612484 0.573732 1.032855 0.746625 1.024547 0.694056 0.980166 0.836155 -0.190873 -0.259843 0.234482 0.101838 0.561754 0.904632 0.162398 -0.183069 0.692610 0.534462 0.478721 0.146685 1.003521 1.199511 1.045457 1.072139 -0.747268 -0.614787 -0.723660 -0.754545 -0.347776 -0.049720 -0.322984 -0.456448 -0.631595 -0.382239 -1.008693 -0.979758 -0.241739 -0.356209 -0.091060 0.036292 -0.599584 -0.397539 -0.693553 -0.413552 -0.946060 -1.089442 -0.360041 -0.082175 -0.494091 -0.462811 -0.781992 -0.482572 -0.405060 -0.540188 -0.620892 -0.761700 0.725284 0.672989 0.134450 0.228434 -0.265112 -0.317006 0.304027 0.373640 -0.034843 -0.051149 -0.130473 -0.064588 0.272660 0.326340 0.433660 0.319279 -0.268397 -0.363846 -0.714545 -0.444231 -0.058626 0.021133 0.311694 0.338113 -0.152427 -0.194681 0.244476 -0.069350 0.563195 0.367743 0.240741 -0.092572 -0.275104 -0.216913 -0.322108 -0.440685 -0.645136 -0.737564 -0.440863 -0.549589 -0.213031 -0.225296 -0.191905 -0.236509 -0.016963 -0.048934 -0.177801 -0.112237 0.340951 0.189936 0.245700 0.135557 0.409648 0.229976 -0.231057 -0.104205 0.908315 0.723740 0.403858 0.419889 0.038122 0.073080 -0.168415 -0.058747 0.031691 0.161413 -0.036774 -0.400648 0.251158 0.895791 0.219057 0.329409 -0.139176 -0.217412 -0.086415 0.354257 0.099585 0.609195 -0.104801 1.002362 0.046488 0.180887 -0.432832 -0.093145 -0.075779 0.017119 0.179933 -0.460118 0.352400 -0.509336 -0.252492 0.284174 0.098244 0.092667 1.066489 -0.302350 -0.424098 0.023687 -0.371171 0.490043 0.521257 0.465044 -0.368213 -0.746419 -0.504640 -0.499016 -0.779812 -0.201238 0.091462 -0.209533 -0.682068 -0.376908 -0.881151 -0.417700 -0.677541 -0.191999 0.690984 -0.370547 0.216172 -0.640426 0.699794 0.431877 -0.055288 -0.535288 -0.120930 0.978302
0.767357 0.193357 0.088624 0.158240 0.016949 0.112818 0.053359 0.431407 0.468733 0.431686 -0.055598 0.439119 0.473321 0.439760 0.553411 0.493263 0.311008 -0.354106 -0.201324 -0.288652 -0.323604 -0.232430 -0.490869 -0.768536 -0.913935 0.044897 0.028446 -0.578770 -0.596679 0.210036 0.153036 0.194401 0.172247 -0.227526 -0.209946 -0.129178 -0.125479 -0.206243 -0.125894 -0.310084 -0.256249 -0.299996 -0.347036 0.576919 0.680780 -0.146765 -0.188078 -0.083643 0.105205 -0.097487 0.013974 -0.250341 -0.088392 0.743588 1.124943 -0.125933 0.097279 -0.336509 -0.142995 0.295566 0.307243 -0.025018 -0.081898 0.021320 -0.058383 -0.612292 -0.630564 -0.832824 -0.899976 -0.798788 -0.856457 -0.810011 -0.639305 -0.317350 -0.325366 -0.628041 -0.601763 -0.445387 -0.370093 -0.266232 -0.390300 -0.306767 -0.466447 -0.746418 -0.594932 -0.471046 -0.335234 -0.482470 -0.441613 0.257784 0.311391 0.033788 -0.052041 0.028450 -0.136110 -0.490918 -0.707824 0.442684 0.518456 0.418155 0.298723 0.988425 1.011622 0.360526 0.380594 1.029844 0.948468 0.461712 0.338998 0.379797 0.428614 0.529466 0.509116 1.439290 0.939824 0.381885 0.491035 0.322073 0.378164 0.476368 0.457778 0.252980 0.065971 0.208386 0.250861 -0.111265 -0.168209 0.168606 0.193567 -0.281709 -0.343223 1.080815 -0.252829 -0.175905 0.456596 -0.066982 0.529056 0.571597 -0.084709 0.138883 0.189595 -0.078249 0.581521 -0.494744 0.919147 0.483218 0.462957 -0.308996 0.495174 -0.113547 -0.276588 0.141619 -0.006652 0.553381 -0.483220 -0.629782 -0.480265 0.758978 0.813395 0.410098 -0.814030 0.053711 -0.033476 -0.789467 0.471679 -0.127248 -0.023559 -0.533122 -0.318446 -0.806440 0.033354 -0.427279 -0.112865 0.602298 -0.736212 0.135951 -0.095850 -0.115298 -0.115330 0.116171 -1.049749 0.059188 -0.556118 0.024958 0.830209 -0.988769 0.016637 0.063756 -0.432007 -0.150908 0.427959
0.924685 -0.212523 -0.150212 0.157962 0.060887 0.423987 0.776457 0.249260 0.274421 0.686708 0.785216 1.236386 1.033766 1.117711 0.897116 1.040353 0.989860 0.004493 -0.002152 0.612187 0.597447 0.254271 0.800101 0.243763 -0.018810 0.807270 0.739260 0.708007 0.559238 0.906520 1.023588 0.868115 0.929776 -0.669962 -0.504875 -0.514216 -0.663340 -0.226775 0.132195 -0.199588 -0.401546 -1.344531 -1.146550 -1.541860 -1.543824 -0.271725 -0.339508 0.087199 0.192433 -0.827222 -0.636156 -0.665603 -0.409956 -0.635184 -0.723622 -0.209479 0.031787 -0.515551 -0.424495 -0.651120 -0.441557 -0.503250 -0.561449 -0.638379 -0.708033 0.640215 0.696301 0.508942 0.511750 0.002160 0.022330 0.321794 0.309620 -0.360012 -0.382305 -0.473837 -0.444878 0.184331 0.186320 0.367804 0.307367 -0.086362 -0.126404 -0.388501 -0.236229 -0.171945 -0.256101 -0.071419 -0.101649 0.071186 -0.004409 0.191509 0.005512 0.483189 0.370930 0.158939 -0.010296 -0.430096 -0.344426 -0.350009 -0.409993 -0.518178 -0.518599 -0.393300 -0.435229 0.170149 0.187166 -0.084396 0.045725 0.121693 0.189441 0.059090 0.279206 0.083531 0.086689 -0.087598 -0.165229 0.316986 0.129604 -0.176346 -0.143349 0.567926 0.472950 0.084073 0.121527 -0.001153 0.049416 -0.153749 -0.054690 -0.173144 0.370617 -0.373145 -0.524966 0.102565 0.578282 0.387779 0.405208 -0.143438 -0.326545 -0.222913 -0.231304 0.432936 0.115044 0.294313 0.581436 0.211288 0.084183 -0.069932 -0.047716 0.029416 0.216683 -0.111853 -0.029191 0.443824 -0.288392 0.421691 0.644110 -0.201113 -0.141773 0.694866 -0.452874 -0.200502 0.112611 0.154201 0.629310 0.492976 0.215471 -0.315747 -0.991085 -0.444837 -0.548337 -0.713679 -0.214785 0.017653 0.397214 -0.626031 -0.056839 -1.011279 -0.501375 0.017611 0.331440 0.300023 -0.260549 0.509405 -0.508993 0.342600 0.386844 -0.033470 -0.785265 0.211347 0.535265
0.207414 0.004647 -0.130833 0.068872 -0.005629 0.006343 -0.205342 -0.086360 -0.066446 0.461082 0.106510 0.468172 0.623714 0.486347 0.601668 0.400619 0.177302 -0.003621 0.202510 0.078525 0.274163 -0.346457 -1.062633 -0.889763 -0.900267 0.002860 0.193634 -0.678785 -0.367879 0.031316 0.013428 -0.042515 -0.064487 -0.285655 -0.303987 -0.470054 -0.681983 0.054377 -0.106368 -0.118910 -0.086445 0.065147 -0.494816 0.503571 0.648557 -0.342311 -0.294794 -0.484482 -0.374607 0.144051 0.194464 -0.111349 -0.063568 0.623643 0.749321 -0.096232 0.096846 0.040143 0.217333 0.465035 0.299895 0.249440 0.261599 0.262992 0.295865 -0.425749 -0.331481 -0.270391 -0.428516 -0.256023 -0.270780 -0.370447 -0.277070 -0.882254 -0.895157 -1.083460 -1.025187 -0.941799 -0.881564 -0.614761 -0.606333 -0.167817 -0.308960 -0.402450 -0.306067 -0.016324 0.044170 -0.089238 -0.112048 -0.180595 -0.163538 -0.137022 -0.107406 -0.063962 -0.094202 -0.217932 -0.275023 1.040427 1.006489 0.783909 0.770851 0.913240 1.020058 0.758777 0.895810 0.890994 0.817925 0.566583 0.569470 -0.513847 -0.275432 0.172913 0.389280 1.004244 0.662274 0.292987 0.386413 0.395037 0.480023 0.580165 0.465058 -0.348572 -0.430480 -0.269855 -0.248723 -0.226825 -0.259444 0.079163 -0.002111 -0.372044 -0.261632 0.575385 -0.327672 -0.084032 0.013150 0.146463 0.647717 0.546153 0.301232 -0.022804 -0.721181 0.256365 0.755772 0.677717 0.438668 0.068092 0.540755 0.623170 0.462522 0.094446 0.011627 0.008603 0.382271 0.448411 0.163181 -0.497450 -0.784908 0.221158 0.782950 0.109523 -1.199271 -0.142371 -0.024634 -0.160442 0.520933 -0.494727 -0.210163 -0.299578 -0.242017 -0.791174 -0.980322 -0.503478 0.202738 0.507128 -0.999440 0.624607 0.137220 0.461360 -0.118443 1.394339 -1.026225 0.026600 -0.349875 0.396802 1.540948 -2.221057 -0.588880 0.102926 -0.426047 0.249059 -0.173040
0.109610 -0.112391 -0.104343 -0.082285 -0.076803 -0.147617 -0.234766 -0.282915 -0.309445 -0.046085 -0.165784 0.065047 0.079959 0.202069 0.222028 0.221087 0.108384 -0.161784 -0.136206 -0.219761 -0.137320 -0.049010 -0.244334 -0.140382 -0.203026 -0.182687 -0.130963 -0.197845 -0.219512 -0.085918 -0.078095 -0.126867 -0.162328 -0.185413 -0.198340 -0.165441 -0.192234 -0.164565 -0.213467 -0.165949 -0.169441 0.468190 0.330040 0.811289 0.922101 -0.091615 -0.056565 0.169490 0.158598 -0.112945 -0.122050 -0.105594 -0.090983 0.575154 0.621831 0.425934 0.329017 0.029445 0.014544 -0.013761 -0.102818 0.219977 0.148724 0.112875 0.063480 -0.482603 -0.497768 -0.575963 -0.631769 -0.642047 -0.721369 -0.605564 -0.645619 -0.725845 -0.728573 -0.845064 -0.810946 -0.766285 -0.697959 -0.556343 -0.490818 -0.006487 -0.093165 -0.160438 -0.045934 -0.015904 0.029049 0.026881 0.043666 -0.214533 -0.188819 -0.154033 -0.069358 -0.103901 -0.044384 -0.199065 -0.241388 0.688949 0.689763 0.634385 0.582458 0.425257 0.398894 0.439103 0.459800 0.439489 0.434026 0.402622 0.374521 0.220510 0.273753 0.366471 0.421767 0.786659 0.658756 0.701638 0.733889 0.345078 0.354954 0.247883 0.285595 0.233661 0.244297 0.149088 0.211475 0.002158 0.016576 -0.096611 -0.154908 -0.069017 -0.131142 -0.234143 -0.009673 0.113358 0.012755 0.290918 0.464527 0.004546 0.376770 -0.074837 -0.296079 0.222474 0.510789 0.453508 0.129428 0.283681 0.118978 0.051989 0.508000 0.643996 0.197557 0.031070 -0.063983 -0.018654 0.114200 -0.111022 -0.174659 0.289254 0.221665 0.003643 -0.562204 -0.092305 0.070984 0.069207 -0.169188 -0.216119 -0.384570 -0.614546 -0.269876 -0.196929 -0.311163 -0.530304 -0.216041 -0.172152 -0.167597 0.388967 0.310921 -0.254152 -0.136390 0.149510 0.032675 0.363781 -0.400552 -0.026253 0.151125 -0.434910 -0.084757 0.157609 -0.161080 0.262526 -0.236611
0.196609 0.115333 0.048989 0.047536 0.041322 0.115454 0.035747 0.002505 -0.036392 0.474134 0.251448 0.599684 0.570919 0.494966 0.608776 0.471227 0.241222 0.107027 0.255213 0.031133 0.078282 0.434280 0.557222 0.546756 0.355457 0.238702 0.270746 0.117297 0.117597 0.365916 0.181766 0.322927 0.307897 -0.448220 -0.427813 -0.422934 -0.461956 -0.046970 -0.016946 -0.177389 -0.181404 -0.424161 -0.354089 -1.004814 -1.052330 -0.711275 -0.587716 -0.629013 -0.301838 -0.106409 -0.064317 -0.274926 -0.252112 -0.447562 -0.730346 -0.443524 -0.090941 -0.014187 0.028091 0.357064 0.224462 0.262787 0.157593 0.269688 0.199027 -0.565228 -0.582543 -0.419219 -0.488807 -0.258205 -0.331141 -0.334395 -0.373557 0.478952 0.499675 0.396903 0.438529 -0.321882 -0.249211 -0.412448 -0.331054 0.643212 0.588011 0.383293 0.505468 0.172131 0.175996 0.051826 0.095716 -0.230101 -0.190424 -0.126074 -0.100963 -0.242190 -0.232899 -0.126258 -0.269777 1.269039 1.255444 0.979759 0.863092 0.481535 0.472551 0.416733 0.396074 0.250216 0.205766 0.151232 0.110208 0.021037 0.009228 0.041660 0.105052 0.080789 -0.084247 -0.308704 -0.274998 -0.240575 -0.302564 -0.158892 -0.139854 -0.682750 -0.717395 -0.769065 -0.802464 -0.236180 -0.257919 -0.065232 -0.115305 0.060043 0.025216 -0.266385 -0.058825 0.186622 0.240759 0.337771 0.643858 0.161394 -0.302604 -0.161200 -0.054399 0.495137 0.354572 0.573100 0.074793 0.131647 0.322915 0.099153 0.300600 -0.250853 0.126247 0.116060 0.020379 -0.045396 -0.195884 0.180246 0.108246 -0.064568 0.169142 0.000658 -0.290460 0.135547 0.315987 0.257877 0.498380 -0.269844 -0.406830 -0.632215 -0.183446 -0.230174 -0.477495 -0.750847 0.008593 -0.355075 0.257313 -0.215547 0.081932 -0.192194 0.293965 0.509913 0.794829 -0.074249 -0.255851 -0.041131 -0.125894 -0.319601 -0.168657 -0.053790 -0.451268 0.445884 -0.364954
0.418413 -0.399289 -0.398943 0.084937 -0.096051 0.368109 0.695952 0.280781 0.304633 0.604031 0.741451 1.070549 1.025161 0.844257 0.654811 0.722547 0.736876 -0.041278 -0.268588 0.509101 0.450908 0.382072 1.109199 0.464467 0.254562 0.917167 0.877434 0.898324 0.771025 0.922217 0.983809 0.878327 0.888601 -1.184430 -1.048678 -0.880888 -1.109440 -0.524069 -0.182389 -0.416403 -0.549714 -0.390460 -0.253149 -0.345882 -0.332052 0.281865 0.307613 0.469959 0.451015 -0.884643 -0.640509 -0.571526 -0.274932 -0.928881 -0.989228 -0.412141 -0.226159 -0.583509 -0.464295 -0.987618 -0.642276 -0.706193 -0.892062 -0.899833 -1.007841 0.777279 0.800999 0.749719 0.733774 0.312533 0.454913 0.635629 0.641452 0.039730 -0.032541 0.040315 0.023723 0.323853 0.326401 0.433902 0.434484 -0.378057 -0.441784 -0.663252 -0.546796 -0.439016 -0.527669 -0.421350 -0.518685 0.084605 -0.075733 0.155756 -0.043126 0.545396 0.465837 0.245971 0.091097 -0.374655 -0.323497 -0.342648 -0.340246 -0.573971 -0.643147 -0.364411 -0.405952 -0.338590 -0.285751 -0.652547 -0.554270 -0.503721 -0.440982 -0.571990 -0.319606 0.332195 0.423233 0.305015 0.340642 0.393470 0.281618 0.035797 0.121207 0.550265 0.442119 0.285177 0.254942 -0.114731 -0.047146 -0.203348 -0.175414 -0.325243 0.521487 -0.309355 -0.731518 -0.038941 0.688564 0.751530 0.358117 0.348487 -0.214743 -0.497951 -0.483039 0.265764 -0.143254 0.252645 0.251381 -0.146126 0.059649 0.319030 -0.341217 0.099938 0.507022 -0.203096 -0.028388 0.772812 -0.195190 0.464714 1.307704 -0.308436 -0.301427 0.364715 -1.092273 -0.417504 0.146780 0.255926 1.027848 0.535832 0.437275 0.178377 -1.175956 -0.037520 -0.334791 -0.217044 0.123538 -0.160163 0.975522 -0.780919 -0.185221 -1.268708 -0.529698 0.362970 0.708055 -0.208493 -0.149942 0.863151 -1.246117 0.479649 0.878962 -0.619266 -0.958844 -0.014358 0.521672
-0.118793 -0.186131 -0.384836 -0.095849 -0.146188 0.008144 -0.197798 -0.094049 -0.060146 0.151680 -0.119821 0.302519 0.478611 0.210237 0.186328 0.108751 -0.056284 -0.153062 0.056119 -0.201046 0.141227 -0.306222 -1.067280 -0.905631 -0.903938 -0.082195 0.127358 -0.799711 -0.353544 -0.123023 -0.049194 -0.186307 -0.214894 -0.349662 -0.472705 -0.614767 -0.789673 0.022237 -0.337234 -0.179645 -0.159812 0.173700 -0.251194 0.925318 1.066869 0.091725 0.136940 -0.012057 -0.103819 0.430624 0.417301 0.190246 0.152348 0.924736 1.230639 0.136065 -0.011589 0.069241 0.287891 0.395092 0.293954 0.210623 0.332550 0.266604 0.324841 -0.642698 -0.549164 -0.483115 -0.687995 -0.532804 -0.545592 -0.646668 -0.513780 -1.114236 -1.116938 -1.321199 -1.341066 -1.115397 -1.118801 -0.639092 -0.648349 -0.030169 -0.171574 -0.209662 -0.183046 -0.276544 -0.234501 -0.283430 -0.294156 -0.254229 -0.292822 -0.206011 -0.135783 -0.201127 -0.172333 -0.158472 -0.002995 1.053741 1.064871 0.919454 0.905825 0.905545 0.988024 0.753143 0.939968 0.609704 0.606578 0.372501 0.415419 -0.255568 0.006223 0.588566 0.709103 1.185500 0.859598 0.541672 0.624117 0.257598 0.422459 0.555611 0.462293 -0.244534 -0.243100 0.009660 0.020606 0.159904 0.169789 0.345283 0.295402 -0.368659 -0.333250 0.537866 -0.476393 -0.099609 -0.348445 -0.012753 0.781845 0.379621 0.816969 -0.144052 -0.638511 0.455241 0.733177 0.617705 0.545939 0.119549 0.183911 1.120641 0.886796 0.676688 -0.134539 -0.620551 0.461658 -0.319440 0.168249 -0.698548 -0.917452 0.171483 0.888373 0.052473 -1.265219 -0.363681 -0.602742 0.097317 -0.753319 -0.744967 -0.081309 -0.021674 0.036671 -1.009607 -1.059143 0.428870 0.378233 1.439705 -1.026405 1.028918 0.231110 1.248731 -0.467485 1.757392 -1.927801 -0.101165 -0.829711 0.820441 1.777365 -2.717923 -0.942191 0.158955 0.287888 -0.151571 0.109843
-0.399544 -0.362389 -0.301689 -0.254235 -0.280597 -0.429667 -0.391143 -0.498807 -0.497247 0.034844 -0.091356 0.089507 0.205354 -0.175523 -0.113492 -0.300774 -0.367542 -0.032521 -0.016577 -0.116009 -0.089000 0.210363 0.097748 0.281142 0.203112 -0.080465 -0.002320 -0.019920 0.028456 -0.249324 -0.051849 -0.266944 -0.330124 -0.095369 -0.164047 -0.076700 -0.094090 -0.378684 -0.432375 -0.415642 -0.408928 0.272188 0.151645 0.554078 0.727931 -0.101241 -0.104243 0.079294 0.009699 -0.005483 0.015228 0.080896 0.059561 0.551931 0.497977 0.307815 -0.077472 0.492962 0.401420 0.065226 0.057644 0.525001 0.379574 0.478547 0.415102 -0.608494 -0.665515 -0.551451 -0.565967 -0.343102 -0.362940 -0.467602 -0.513538 -0.197453 -0.257942 -0.242841 -0.241748 -0.480524 -0.415959 -0.460161 -0.273934 -0.479775 -0.582811 -0.633600 -0.572735 -0.830242 -0.746595 -0.714221 -0.736346 -0.435052 -0.488019 -0.512324 -0.387826 -0.682452 -0.531963 -0.541786 -0.485416 0.703874 0.651104 0.615104 0.650998 0.607291 0.479326 0.590292 0.651511 0.521586 0.558759 0.359408 0.385802 0.392658 0.437345 0.652817 0.655411 0.517915 0.459469 0.455419 0.544647 0.348470 0.415316 0.457003 0.498374 0.216614 0.233837 0.328877 0.285296 0.466792 0.502033 0.522930 0.444510 0.092637 -0.127431 -0.322693 -0.118093 0.099223 -0.003187 0.223054 0.333317 -0.039088 0.381709 -0.147881 -0.311331 -0.032830 -0.005023 0.616998 -0.248253 0.205536 0.244201 0.215972 0.188896 0.518395 0.341511 -0.052693 0.260344 0.074830 0.268721 0.008159 -0.133856 0.079627 0.183865 -0.241117 -0.524778 -0.087497 0.049626 0.124399 -0.254067 0.087280 -0.266645 -0.085869 -0.008210 -0.082468 -0.385984 0.092516 0.089019 -0.080501 -0.234446 0.116228 -0.125875 0.027909 0.096052 -0.090468 -0.234774 -0.122052 0.082745 -0.061920 -0.138394 -0.485584 0.043433 0.116965 -0.254917 0.113584 0.171922
-0.207911 -0.142435 -0.169379 -0.139565 -0.038588 -0.223527 -0.351507 -0.487275 -0.588229 0.186854 0.155287 0.562220 0.420415 0.088577 0.231799 0.056079 0.015621 0.294289 0.284916 0.061986 0.141258 0.666255 0.777862 1.021808 0.817947 0.326089 0.379058 0.215163 0.227172 0.189993 -0.201591 0.096254 0.018873 -0.259386 -0.303817 -0.040066 0.071581 -0.111280 -0.227587 -0.096659 -0.079289 -0.615425 -0.341545 -1.349608 -1.435653 -0.692404 -0.585615 -0.393983 -0.150053 0.204177 0.228651 0.159886 0.107326 -0.422017 -0.790712 -0.047186 -0.092359 0.346563 0.278954 0.287912 0.174104 0.243414 0.235632 0.312308 0.282544 -0.140157 -0.188083 -0.103654 -0.021658 -0.009359 -0.074488 -0.008830 -0.077822 0.134084 0.119405 0.295830 0.339839 -0.296664 -0.217854 -0.214575 -0.046465 0.848504 0.838731 0.806688 0.827064 0.605846 0.584796 0.611048 0.617322 -0.630765 -0.588955 -0.454399 -0.317778 -0.593926 -0.394055 -0.155025 -0.137380 0.921123 0.822706 0.678173 0.639179 0.419426 0.363539 0.352779 0.350013 0.101352 0.023035 0.071750 0.042822 0.205208 0.121021 0.109032 0.158608 -0.465217 -0.505006 -0.487544 -0.468926 -0.448655 -0.492769 -0.352015 -0.336288 -0.832719 -0.752452 -0.768813 -0.775663 -0.205723 -0.172066 -0.180780 -0.300308 0.253265 0.028876 -0.558875 0.102800 0.137072 -0.044350 -0.146066 0.273883 -0.056607 0.008288 0.090387 -0.647330 0.119143 -0.086458 0.858871 0.006357 -0.231024 0.014755 0.381062 0.985472 0.400402 0.897025 -0.332511 -0.151124 -0.159096 -0.141648 0.467316 -0.120959 -0.378694 0.263092 -0.175792 -0.073802 0.050723 -0.030759 0.444410 0.046402 -0.368255 -0.685849 -0.842202 0.413557 0.167667 -0.399845 -0.232800 0.287661 -0.267999 0.421381 0.513153 0.349435 -0.566565 0.480919 0.181636 1.010963 -0.546726 -0.255497 -0.402531 0.097653 -0.133682 -0.232109 0.213319 0.028842 0.383268 -0.385626
-0.512714 -0.256686 -0.252960 -0.252162 -0.227444 -0.306017 -0.425031 -0.318536 -0.305208 -0.417253 -0.485155 -0.512720 -0.475242 -0.534915 -0.488195 -0.655373 -0.707568 0.006715 0.144701 -0.026809 0.029128 0.103227 -0.069030 0.063366 -0.009629 -0.161685 -0.211821 -0.258588 -0.280571 -0.078987 -0.146040 -0.147410 -0.148881 -0.192009 -0.187124 -0.196610 -0.166167 -0.028211 -0.136460 -0.090932 -0.086088 0.814756 0.787554 0.668696 0.746994 0.533805 0.546982 0.353064 0.275134 0.043017 -0.069925 -0.030181 -0.118664 0.205228 0.311032 0.090308 -0.038126 0.393160 0.383009 0.372913 0.326944 0.432356 0.532560 0.404649 0.418401 -0.242929 -0.210479 -0.232840 -0.264237 -0.157240 -0.216029 -0.217254 -0.219687 -0.102698 -0.077597 -0.217924 -0.228333 -0.105376 -0.117619 -0.215462 -0.171160 -0.004922 -0.003578 -0.090086 -0.076413 -0.185657 -0.181793 -0.165443 -0.099544 -0.125144 -0.139852 -0.065416 0.002727 -0.031733 0.004989 0.121117 0.195110 0.158592 0.197335 0.194841 0.134308 0.190139 0.224430 0.188633 0.185893 0.106575 0.141182 0.177070 0.127859 0.229535 0.273538 0.272758 0.290086 0.111849 0.087303 -0.035028 0.015174 -0.085204 -0.041433 0.090992 0.046323 -0.131250 -0.130801 0.032515 0.089932 -0.019965 0.003694 0.067451 0.135466 0.012684 -0.103428 0.117613 0.118042 -0.000989 -0.200890 -0.145264 0.094209 -0.153699 0.204163 0.249386 0.292007 0.073168 0.029487 -0.384501 0.118374 0.283487 0.091521 -0.094917 0.097762 0.393113 0.095117 0.137024 0.116225 -0.133139 0.078240 -0.007881 -0.291867 -0.069705 0.179347 -0.414077 0.143393 0.174446 -0.113155 -0.008919 -0.541981 -0.014505 -0.305259 -0.160429 0.045899 -0.019816 0.021651 0.002524 0.156115 0.254356 -0.310178 0.070441 -0.151936 0.257964 0.029839 -0.232056 -0.441419 0.175913 0.160125 -0.208952 0.486247 -0.087556 -0.321973 0.130830 -0.153319 0.077773 -0.265725
0.092046 -0.227170 -0.211141 -0.167491 -0.196431 -0.237171 -0.166025 -0.261270 -0.290611 -0.209397 -0.210346 -0.053665 -0.097592 -0.222183 -0.206420 -0.265310 -0.229227 -0.068134 -0.156918 0.147359 0.005966 0.196986 0.377948 0.419521 0.344550 0.172873 0.097724 0.160682 0.041496 0.156375 0.055387 0.119072 0.122907 -0.177493 -0.145394 -0.108226 -0.088565 -0.150472 -0.036729 -0.121597 -0.155272 0.088983 0.350809 0.045428 0.027182 0.203992 0.217782 0.242435 0.337405 -0.180230 -0.152263 -0.099109 -0.051175 -0.197128 -0.377447 -0.042916 0.004958 0.164867 0.190971 0.263398 0.250017 0.228123 0.178450 0.236282 0.202635 -0.248098 -0.272361 -0.229373 -0.188223 -0.258854 -0.250934 -0.156235 -0.184810 0.025342 -0.001774 -0.009127 -0.004756 0.040665 0.028968 -0.062184 -0.039344 0.047162 0.067399 0.129030 0.159268 0.107550 0.070017 0.142927 0.148623 0.017695 0.011062 0.049526 0.019031 0.033500 0.021606 0.021396 -0.053284 0.506767 0.525086 0.587636 0.581878 0.637778 0.670163 0.713575 0.632986 0.321475 0.291860 0.258279 0.259361 0.300496 0.243137 0.120566 0.129653 -0.272696 -0.187827 -0.100950 -0.086086 -0.312765 -0.369387 -0.286308 -0.306214 -0.394998 -0.406916 -0.404557 -0.416044 -0.534684 -0.563148 -0.611760 -0.615719 -0.116193 0.188240 -0.113238 0.087500 0.022339 0.197491 -0.030608 -0.123714 -0.218151 -0.184016 0.029042 -0.039501 -0.143130 -0.409614 0.103179 -0.038026 0.195799 -0.096298 -0.436775 0.010255 0.101348 0.686930 0.227957 0.099840 0.354305 -0.036049 0.792829 0.353055 -0.049426 -0.041849 0.009356 -0.040742 0.175541 0.135696 0.152281 0.330044 0.135192 -0.266556 -0.345184 -0.348026 0.139812 0.138952 -0.375460 -0.054016 -0.273510 0.588371 -0.246108 -0.137059 -0.863206 0.251041 -0.833046 0.551159 0.215378 0.018904 -0.278570 -0.477300 0.435100 0.446618 -0.123220 -0.036069 0.119494 -0.351282
0.263466 -0.227017 -0.160354 -0.022869 -0.068839 0.023003 0.141557 0.004555 -0.019048 0.064097 0.126573 0.210195 0.189960 0.077914 0.015572 0.015110 -0.009186 -0.210679 -0.192597 0.084270 0.160794 -0.174271 0.015351 -0.039859 -0.125768 -0.034535 -0.092868 -0.042689 -0.057192 -0.127930 -0.050489 -0.180727 -0.199121 -0.166832 -0.130505 -0.112656 -0.129198 -0.074441 0.124331 -0.113892 -0.171471 -0.547738 -0.358351 -0.749078 -0.776867 -0.175875 -0.236497 0.139320 0.188699 0.084985 0.145639 0.091916 0.160059 0.047430 0.018980 0.215569 0.229124 0.463073 0.485248 0.225073 0.400478 0.512346 0.517170 0.448680 0.415833 -0.482158 -0.445929 -0.591834 -0.546906 -0.531052 -0.521472 -0.397017 -0.401923 -0.113547 -0.139015 -0.197291 -0.176589 -0.203608 -0.195091 -0.199066 -0.196351 0.496821 0.485267 0.347284 0.441380 0.522427 0.481409 0.634254 0.633911 -0.314727 -0.345494 -0.219974 -0.297460 -0.389281 -0.386656 -0.330955 -0.380012 0.797375 0.799103 0.729072 0.719593 0.586571 0.543175 0.679646 0.696129 0.320763 0.302287 0.160471 0.178047 0.163043 0.191520 0.251636 0.280373 -0.302215 -0.281302 -0.362554 -0.336832 -0.280823 -0.323695 -0.212518 -0.222252 -0.128117 -0.169706 -0.119964 -0.173370 -0.038877 -0.027847 -0.106624 -0.087990 -0.057086 0.143048 -0.104149 -0.251957 0.017337 0.223819 0.039404 0.253893 -0.007431 -0.051612 -0.093828 -0.041283 -0.035558 -0.196446 0.176561 0.195352 0.029558 0.143629 -0.161869 0.071047 0.144074 0.296434 -0.081606 0.070318 0.458146 -0.302066 0.205102 0.217931 -0.205752 0.062463 0.202825 -0.164289 -0.008124 -0.050897 0.034434 0.325564 0.192839 0.067321 -0.260689 -0.481323 0.104934 -0.083585 -0.414180 0.262349 -0.159070 -0.012504 -0.333713 -0.303721 -0.400087 0.267665 0.031883 0.068396 0.248617 0.227646 -0.002771 -0.185206 0.102828 0.266640 -0.065751 -0.512116 -0.158672 0.270568
0.063712 -0.175641 -0.232897 -0.224756 -0.193982 -0.220970 -0.316841 -0.285372 -0.333814 -0.306584 -0.122444 -0.112195 -0.221189 -0.260462 -0.197146 -0.333896 -0.331534 -0.264000 -0.350355 -0.204061 -0.310846 -0.176753 -0.639330 -0.341855 -0.464402 -0.216624 -0.286436 -0.319277 -0.436310 -0.231078 -0.469185 -0.211851 -0.154539 -0.026552 -0.018162 0.120276 0.207500 -0.059537 -0.042584 -0.063958 -0.057396 0.055510 0.114430 0.620968 0.549081 0.395592 0.477065 0.268351 0.187032 0.120380 -0.077654 0.060545 -0.087914 0.651361 0.974834 0.560550 0.338971 0.175871 0.158225 0.656729 0.481070 0.321167 0.627041 0.618378 0.703171 0.696537 0.851682 1.026209 0.985754 0.798263 0.735420 0.661739 0.658566 0.247360 0.269666 0.255878 0.295643 0.288917 0.236067 0.315714 0.314600 0.358754 0.404142 0.525850 0.496413 0.244154 0.176763 0.095068 0.187181 0.149004 0.225365 0.129323 0.268081 0.105460 0.194533 0.090422 0.209399 -0.617119 -0.512048 -0.352618 -0.443837 -0.462703 -0.404414 -0.492236 -0.511934 -0.495935 -0.581231 -0.507224 -0.540818 -0.342585 -0.410924 -0.414921 -0.352147 -0.469265 -0.472573 -0.427531 -0.402727 -0.727853 -0.781511 -0.799529 -0.773759 -0.236468 -0.170702 -0.122426 -0.026166 0.040959 0.084826 0.121823 0.171383 0.008442 0.046542 0.082544 0.155630 -0.168921 -0.450897 -0.429888 -0.104912 0.123110 0.629205 0.547805 0.046171 -0.777824 -0.000107 -0.274386 0.280030 0.096083 -0.064211 0.300531 0.208333 0.823306 0.121562 -0.753495 0.223153 0.327473 -0.517089 -0.378004 -0.281211 -0.230422 0.421312 0.065274 0.102871 0.138518 -0.532754 0.190715 -0.995106 -0.278873 0.168877 -0.773455 0.364273 -0.248118 0.684768 0.850790 0.147676 0.371106 0.058514 0.628375 -0.140914 0.562990 0.056606 -0.211451 -0.684726 -0.510798 -0.074800 0.065812 1.105629 -0.144159 -0.716315 0.069206 0.646938 0.182131 -0.365864
-0.428449 -0.521616 -0.485426 -0.204061 -0.300145 0.036699 0.315260 0.013531 0.081091 0.405088 0.498993 0.713233 0.757596 0.535344 0.462456 0.489685 0.508432 0.534632 0.405635 1.010568 0.878446 0.876628 0.916303 0.976775 0.794917 1.063978 0.900515 0.784202 0.801283 0.941744 0.949338 0.934397 0.943246 -0.872013 -0.751035 -0.726526 -0.885406 -0.324128 -0.008767 -0.205188 -0.278657 -0.330977 -0.257538 -0.143550 -0.053391 0.067330 0.104773 0.180912 0.201076 -0.849151 -0.707852 -0.547818 -0.349578 -1.091313 -1.213302 -0.654025 -0.513057 -0.712492 -0.632255 -1.123959 -0.797552 -0.862205 -1.025695 -0.994567 -1.089309 0.980946 0.985727 0.955547 0.956087 0.701794 0.792823 0.853265 0.897999 0.715767 0.694392 0.758168 0.731156 0.809259 0.810937 0.848075 0.857645 0.007236 0.007365 -0.257586 -0.114384 -0.181204 -0.199937 -0.146890 -0.207231 0.149786 0.098609 0.217694 0.056758 0.531330 0.458425 0.439185 0.290856 -1.012558 -0.952274 -0.930956 -0.949119 -1.044651 -1.117361 -1.013587 -1.060255 -0.983252 -0.880871 -1.084338 -1.010017 -1.363841 -1.256202 -1.440496 -1.176470 0.236704 0.308589 0.089926 0.167981 0.116543 0.097340 -0.073217 -0.080976 0.403749 0.369321 0.222065 0.214774 0.018577 0.102666 0.032220 0.121939 -0.225324 0.351793 -0.149196 -0.573464 0.002972 0.469761 0.386421 0.407648 0.005964 -0.199164 0.001087 -0.111613 0.442945 -0.319054 -0.100007 0.051484 -0.062638 0.117080 0.182611 -0.326870 0.086756 0.248877 -0.341130 -0.123135 0.161795 0.034931 0.441092 0.780305 -0.224734 -0.587401 -0.135090 -0.580117 -0.198015 0.308632 0.125863 0.447109 0.074916 0.246661 0.641765 -0.248043 0.403344 -0.082700 0.094503 -0.033695 -0.259753 0.707345 -1.126956 -0.275508 -0.811650 -0.361705 0.138629 0.276145 -0.116650 -0.060988 0.514450 -0.850079 0.552856 0.593442 -0.151894 -0.429363 0.126099 0.399743
-1.324032 -0.693414 -0.930068 -0.654027 -0.752150 -0.671447 -0.599564 -0.608904 -0.556565 -0.326325 -0.400315 -0.398544 -0.162694 -0.214217 -0.200542 -0.237576 -0.300556 -0.025318 -0.002243 0.141978 0.242763 -0.110588 -0.611590 -0.493554 -0.558492 -0.327016 -0.179723 -0.601292 -0.253442 -0.402886 -0.275833 -0.296381 -0.264889 -0.124554 -0.145303 -0.472621 -0.704456 0.151442 0.041105 -0.200777 -0.246571 0.840082 0.480260 0.986102 1.164066 0.553965 0.515406 0.300521 0.099862 0.658009 0.622590 0.510160 0.427667 0.743913 0.934183 -0.026362 -0.419404 0.310195 0.503051 0.650932 0.450400 0.406871 0.318491 0.514530 0.557626 -0.840871 -0.743894 -0.396764 -0.650558 -0.442823 -0.391927 -0.765539 -0.722600 -0.850564 -0.845773 -1.108498 -1.150191 -0.737692 -0.871294 -0.665199 -0.609212 -0.862046 -0.904593 -0.804461 -0.788047 -0.913012 -0.966550 -1.088369 -1.079072 -0.942404 -1.009112 -1.129820 -1.038214 -1.036662 -0.990807 -0.704799 -0.607588 0.921028 0.961426 1.127940 1.104023 1.184225 1.261955 0.869335 0.994038 0.641499 0.716512 0.440777 0.511263 0.063387 0.294116 0.594075 0.733986 1.341527 1.264176 1.072197 1.203508 0.913021 1.066150 1.035382 0.972103 0.188977 0.173100 0.373345 0.457044 0.520674 0.521985 0.898892 0.913253 -0.497248 -0.117514 0.381496 -0.243092 -0.372502 -0.222244 0.221292 0.507881 -0.021359 0.949165 0.246554 -0.733083 0.625428 0.148401 0.786036 -0.191559 0.331932 -0.158529 0.764854 0.787288 0.448935 -0.346376 -0.931040 0.272742 -0.364227 0.270421 -0.370723 -0.280388 0.450729 0.125899 -0.890191 -0.793988 0.298563 -0.455975 0.443088 -0.828914 -0.757321 -0.475841 0.399323 0.419592 -0.508319 -0.323972 0.679167 0.343694 1.021583 -0.706318 0.946125 0.140703 0.562105 0.014659 1.695236 -1.371667 -0.388955 -0.318900 0.827697 1.568932 -2.390137 -0.942141 0.312759 0.741238 0.334521 -0.748778
-1.099008 -0.526885 -0.443320 -0.632968 -0.589121 -0.889072 -1.006628 -0.959378 -0.954910 -0.604820 -0.731027 -0.588431 -0.396451 -0.918290 -0.745737 -0.974753 -0.953559 -0.002749 0.163843 -0.132665 0.000181 -0.295821 -0.667389 -0.100590 0.049630 -0.254392 -0.230070 -0.424609 -0.264235 -0.533289 -0.587493 -0.502007 -0.537768 0.460017 0.370102 0.416776 0.504196 -0.016290 -0.156261 -0.022399 0.037802 0.790914 0.684938 1.141785 1.287842 0.210996 0.217536 0.020899 -0.062198 0.534565 0.431080 0.536601 0.403507 0.781237 0.665502 0.399683 0.020064 0.705280 0.636120 0.490048 0.442431 0.753223 0.789096 0.829030 0.831645 -0.519988 -0.567976 -0.380971 -0.323111 -0.019012 -0.050880 -0.330244 -0.356147 0.009893 -0.012915 -0.039459 -0.080941 -0.105582 -0.085824 -0.294240 -0.156202 0.203318 0.185735 0.258020 0.208936 -0.164507 -0.050743 -0.169115 -0.129095 0.326555 0.335398 0.108007 0.260884 -0.129831 0.032412 0.212257 0.316708 0.225536 0.225818 0.287295 0.297131 0.459058 0.491595 0.395076 0.447001 0.098525 0.125495 0.121650 0.025900 0.142023 0.111614 0.273385 0.141884 -0.271575 -0.267405 -0.375785 -0.239117 -0.535332 -0.413176 -0.113376 -0.209717 -0.531981 -0.424712 -0.248484 -0.318506 0.103931 0.090670 0.144361 0.150872 0.179063 -0.193283 0.039742 0.253616 -0.135821 -0.247549 -0.333905 -0.090285 -0.141431 0.296054 0.257510 -0.037769 0.019442 -0.327621 -0.198612 -0.293283 0.226432 -0.051924 -0.122583 0.127375 0.294239 0.125401 0.057049 0.401400 -0.366197 0.378364 0.304570 -0.281778 0.061368 0.154314 -0.709672 0.195074 0.256318 -0.115308 0.104968 -0.497182 -0.270645 -0.496963 -0.023303 0.367394 0.348877 0.111836 0.513251 0.130031 0.024233 -0.252050 0.226113 0.084769 0.193258 0.361500 -0.294111 -0.332392 -0.075678 0.350944 -0.458374 0.088140 -0.386380 -0.191005 0.336020 0.348922 0.140875 -0.373248
0.071529 -0.549629 -0.381506 -0.494714 -0.412471 -0.459544 -0.396277 -0.673810 -0.738022 -0.399463 -0.189736 -0.031305 -0.158741 -0.415525 -0.468291 -0.468624 -0.375331 0.223489 0.155462 0.456146 0.428287 0.499742 0.871869 1.064356 0.883642 0.523336 0.465620 0.581587 0.563748 0.262293 0.331227 0.259878 0.208310 -0.344981 -0.330139 -0.207040 -0.139695 -0.168212 -0.032388 0.097611 0.052451 0.005853 0.318730 -0.792442 -0.725436 -0.132593 -0.203800 -0.052819 -0.024438 0.026005 0.097295 0.142570 0.180864 -0.538334 -1.076738 0.125404 -0.006909 0.429934 0.338376 0.125202 0.300304 0.357039 0.286352 0.429426 0.368071 -0.336196 -0.423983 -0.386996 -0.145732 -0.267945 -0.212404 -0.086660 -0.190892 0.159331 0.114554 0.336744 0.377629 0.015240 0.060283 -0.113342 -0.004839 0.330808 0.381698 0.380796 0.407096 0.091690 0.115534 0.319219 0.327644 -0.379904 -0.414411 -0.115570 -0.200464 -0.353782 -0.259666 0.096061 0.041268 0.778846 0.663658 0.642684 0.688148 0.467610 0.438279 0.441169 0.409926 0.177079 0.203099 0.279128 0.297037 0.438756 0.370878 0.143950 0.129206 -0.809613 -0.589593 -0.500057 -0.578534 -0.412925 -0.472923 -0.379531 -0.407754 -0.304486 -0.260940 -0.352024 -0.459410 -0.171560 -0.136350 -0.198268 -0.126762 0.304674 0.344551 -0.648955 -0.034499 0.115227 0.334263 -0.129949 -0.260950 -0.525206 -0.301078 0.096644 -0.067756 -0.009315 -0.497350 0.158041 -0.379790 -0.183447 -0.205943 -0.251114 -0.232725 -0.213064 0.517591 0.164373 -0.129169 0.076533 -0.063445 1.095205 0.827635 -0.231585 -0.637248 0.193416 0.541573 0.126028 0.182241 0.148053 0.352542 0.349364 -0.397660 -0.178876 0.247949 0.713329 0.082477 -0.245122 0.337250 -0.590152 0.353947 -0.523877 -0.538373 -0.785219 0.319839 -1.112745 0.991795 0.263039 0.829568 -0.529640 -1.318297 0.812843 0.387770 0.049727 -0.044878 0.165530 -0.158577
-1.059575 -0.550637 -0.546166 -0.606574 -0.537194 -0.630291 -0.808462 -0.567664 -0.567229 -0.953158 -1.000597 -1.112920 -1.110350 -0.932539 -0.932874 -0.921575 -0.958843 -0.144589 -0.010052 -0.352653 -0.147905 0.072184 -0.317858 0.108071 0.103068 -0.481265 -0.567982 -0.788001 -0.738403 -0.656411 -0.716315 -0.747119 -0.760433 0.157470 0.141523 0.040153 0.122806 0.052889 -0.109632 0.006422 0.035759 1.130060 1.053437 0.861621 0.920025 0.808415 0.769402 0.377332 0.253451 0.912823 0.796814 0.743995 0.658459 0.229325 0.212163 0.420173 0.317909 0.965486 0.909624 0.862328 0.808314 0.872018 0.903494 0.799616 0.789486 -0.485359 -0.522624 -0.641500 -0.631794 -0.603731 -0.662718 -0.467425 -0.504545 -0.225042 -0.225987 -0.236475 -0.263131 -0.242655 -0.234861 -0.260388 -0.238726 -0.296384 -0.302850 -0.304287 -0.282733 -0.436534 -0.356335 -0.390313 -0.314231 -0.043837 -0.016423 0.068385 0.162108 -0.312862 -0.266951 -0.066570 -0.041332 0.526739 0.544619 0.488309 0.434911 0.437437 0.492383 0.404948 0.383648 -0.116330 -0.111029 0.177579 0.045920 0.020769 0.053015 0.096202 0.049774 0.410331 0.338591 0.199625 0.241327 0.147979 0.191464 0.369018 0.315504 0.101765 0.096193 0.302614 0.365848 0.333658 0.356601 0.407189 0.481930 0.093421 -0.219890 0.254349 0.249131 0.088438 -0.105040 -0.277559 -0.038134 -0.109826 0.251702 0.303534 0.227681 -0.039047 0.073078 -0.626860 0.007453 0.118477 -0.035358 -0.219201 0.111175 0.609349 -0.032068 0.187534 0.070804 -0.170046 0.264077 -0.374427 -0.435174 0.145884 0.252057 -0.729775 0.055091 0.044442 -0.195243 -0.201590 -0.465827 0.069931 -0.229650 -0.221215 0.071962 0.337252 0.007647 0.214632 0.113782 -0.016370 -0.257406 -0.027616 0.012333 0.179631 0.185623 -0.004414 -0.025549 0.319902 0.000162 -0.356614 0.211111 -0.089541 -0.308647 0.511481 0.390906 -0.042438 -0.141235
-1.116780 -0.813339 -0.811291 -0.814005 -0.824595 -0.490396 -0.543379 -0.480888 -0.535833 -0.958334 -0.946764 -0.746243 -0.830752 -0.771961 -0.866382 -0.691321 -0.649627 -0.022536 -0.041879 0.030202 -0.170011 0.209360 0.269442 0.469704 0.425415 -0.078572 -0.241476 -0.110577 -0.372337 -0.347251 -0.095128 -0.427072 -0.349915 0.196851 0.192901 0.311310 0.423389 0.270415 0.133669 0.281106 0.218483 0.612911 0.684144 0.723929 0.745585 0.639087 0.630839 0.604839 0.514517 0.362760 0.403851 0.347975 0.382435 -0.143623 -0.214132 0.174675 0.184816 0.382740 0.429608 0.380602 0.492560 0.320880 0.378032 0.232118 0.211686 -0.040170 -0.134405 -0.203662 -0.094573 -0.196383 -0.197180 -0.205484 -0.237919 -0.060905 -0.075192 -0.147821 -0.180314 0.023940 0.070261 0.129368 0.074035 -0.282812 -0.291700 -0.189564 -0.207090 -0.530367 -0.496118 -0.484640 -0.471886 -0.203644 -0.203861 -0.352116 -0.361497 -0.082956 -0.086329 -0.191057 -0.220657 -0.128402 -0.075941 -0.053740 -0.064767 0.123995 0.115450 0.071809 -0.089070 -0.030442 -0.011467 0.037587 -0.087616 0.259937 0.107095 -0.109435 -0.154470 0.112921 0.177553 0.386545 0.221453 0.300561 0.221276 0.071287 0.053646 0.697818 0.680623 0.646549 0.730117 0.121552 0.155398 0.216882 0.311214 0.094339 0.160211 -0.216929 0.202500 0.043987 0.093320 0.002253 -0.387026 -0.332518 -0.120649 0.188099 0.189964 0.251860 -0.068027 -0.094646 0.075703 0.146670 -0.386635 -0.452590 0.290434 0.386584 0.339696 0.038204 -0.553484 0.067660 0.131056 0.639827 0.076231 0.308782 0.058829 -0.862932 0.207195 0.204173 -0.080432 0.023255 0.085307 0.356424 -0.496503 -0.184036 -0.023406 0.210575 0.030604 0.082824 -0.107507 -0.289868 0.450084 -0.356300 -0.011974 -0.859286 -0.142408 -0.599788 0.916273 0.276878 -0.084164 -0.527331 -0.771086 0.664284 0.124134 0.216896 0.290601 0.004522 0.313139
-0.304398 -0.497524 -0.586641 -0.655015 -0.667701 -0.543739 -0.607807 -0.432165 -0.470593 -0.653085 -0.657620 -0.762497 -0.828166 -0.613148 -0.549240 -0.656271 -0.691880 -0.151814 -0.081784 -0.156718 -0.189400 -0.052663 0.006326 -0.134683 -0.204873 -0.357702 -0.355764 -0.220723 -0.312537 -0.366426 -0.413048 -0.330905 -0.313073 0.476356 0.423313 0.470973 0.476153 0.258510 0.152696 0.239159 0.239056 -0.082701 -0.100955 -0.465201 -0.540548 0.249598 0.226944 0.118545 0.125748 0.691964 0.667729 0.568398 0.495379 0.398540 0.325782 0.428232 0.653770 0.650209 0.728612 0.941723 0.867997 0.867578 0.906257 0.858988 0.885672 -0.890012 -0.874227 -0.934831 -0.958655 -0.742721 -0.724745 -0.650475 -0.649730 -0.521587 -0.525310 -0.605886 -0.633823 -0.417465 -0.472540 -0.460473 -0.576721 -0.114131 -0.131170 -0.001870 -0.074459 -0.011760 -0.040110 -0.013043 0.043623 -0.431649 -0.432409 -0.294321 -0.340610 -0.287200 -0.360467 -0.185876 -0.217837 1.055647 1.072894 1.082385 1.024198 1.148504 1.247998 1.132803 1.071436 0.930232 0.856818 0.991332 0.875587 1.141940 1.100021 1.100127 0.976724 -0.419588 -0.445232 -0.439246 -0.460235 -0.192021 -0.196344 -0.103015 -0.171304 -0.389259 -0.479767 -0.233447 -0.237589 0.039408 -0.000717 0.070820 0.076988 -0.106397 0.031790 0.457623 0.296805 -0.057661 0.040645 -0.176910 -0.536593 0.219592 -0.117595 0.060024 0.109412 0.051534 -0.065098 -0.164069 -0.051958 0.000141 -0.181210 -0.206489 0.316797 -0.219513 -0.110605 0.380235 0.250073 -0.255929 -0.023330 0.065592 -0.071712 0.073328 0.403473 -0.096423 0.801217 0.300115 -0.252634 -0.160796 0.059943 -0.135349 -0.364193 -0.231442 -0.005062 -0.014812 0.400054 0.076714 0.373508 0.029560 -0.172237 -0.231863 -0.271409 0.313419 0.279807 0.022230 -0.099507 -0.310524 0.100954 -0.125874 0.271967 -0.197750 -0.045914 0.208332 0.273896 -0.444970 -0.331855
-0.063436 -0.693643 -0.722083 -0.772093 -0.783400 -0.577201 -0.585392 -0.406777 -0.348816 -0.817698 -0.625820 -1.068122 -1.173409 -0.651916 -0.832594 -0.728674 -0.651100 -0.213290 -0.354241 -0.189648 -0.395470 0.154312 -0.324239 -0.041895 -0.267727 -0.219394 -0.322510 -0.371712 -0.482379 -0.337703 -0.104536 -0.213622 -0.186026 0.351549 0.360141 0.277114 0.300635 0.372451 0.195474 0.366402 0.374287 0.696300 0.515459 0.733423 0.852039 0.522165 0.433623 0.329379 0.160762 0.455534 0.363171 0.380687 0.335673 0.721964 0.838758 0.660317 0.611498 0.488009 0.426229 0.363530 0.420510 0.531619 0.619491 0.599557 0.587636 0.838324 0.828326 0.792604 0.851234 0.671088 0.675781 0.721104 0.729702 0.530477 0.521505 0.629620 0.620463 0.697826 0.618315 0.631243 0.602253 0.091250 0.111888 0.170754 0.224653 -0.026889 0.064917 -0.056793 -0.024809 0.703085 0.690562 0.656303 0.554950 0.536528 0.497204 0.357313 0.337217 -0.855986 -0.830415 -0.706555 -0.701344 -0.619059 -0.601525 -0.562816 -0.672808 -0.509709 -0.509931 -0.341392 -0.396130 -0.254592 -0.274386 -0.414532 -0.361611 -0.944670 -0.901726 -0.801506 -0.864523 -0.795266 -0.773160 -0.991330 -0.970667 0.097902 0.024341 -0.038371 0.093762 -0.207297 -0.100718 -0.135154 0.009738 -0.127897 0.086877 0.337926 0.006538 0.005273 0.087555 -0.018479 -0.524821 0.013640 0.272649 0.442706 0.150503 -0.381572 0.191867 -0.812371 0.321258 -0.170045 0.087027 0.285083 -0.798281 0.044073 -0.232692 0.078041 0.693594 0.123174 -0.144023 -0.415469 0.104200 -0.019939 0.154353 0.161098 0.380764 -0.095935 -0.364051 -0.685244 -0.182558 0.381648 0.420007 -0.010235 0.221025 0.259514 0.730176 0.593886 0.214357 0.117614 -0.350190 -0.217114 -0.997458 0.264420 -0.301268 -0.836933 -0.556847 -0.101252 0.462338 0.061842 0.106117 0.493715 -0.428977 0.139566 0.424108 -0.090721 0.033651
-1.235703 -0.993560 -0.976804 -1.032543 -1.037738 -0.945689 -0.769755 -0.987259 -1.070596 -1.226615 -1.184952 -1.006343 -1.101048 -1.026182 -0.724389 -0.975792 -0.909099 0.011666 0.678000 -0.748361 0.496887 -0.475464 -1.218616 -0.680144 -0.134751 -0.397744 -0.347020 -1.143822 -0.991692 -0.627505 -0.935849 -0.822600 -0.792857 0.661145 0.694518 0.522198 0.749476 0.619531 0.529914 0.554726 0.573119 0.328116 0.456314 0.259115 0.249913 0.764950 0.426958 0.766398 0.473438 1.133590 0.912424 1.152069 1.023763 0.713628 0.512643 0.999119 0.851152 0.898671 0.774185 0.740813 0.822099 0.853219 0.963733 0.908225 0.973369 -0.329436 -0.326744 -0.356647 -0.276199 -0.172609 -0.278783 -0.213759 -0.312253 -0.239038 -0.234286 -0.300098 -0.307602 -0.209895 -0.133041 -0.223432 -0.163205 -0.003214 -0.006658 0.025811 -0.010526 -0.163840 -0.127993 -0.245341 -0.084956 0.288470 0.230135 0.125083 0.279653 0.049276 0.163418 0.317498 0.465568 0.097466 0.193105 0.187327 0.154099 0.184832 0.369611 0.095500 0.116343 -0.170492 -0.209173 0.207887 -0.047071 -0.069447 -0.081516 -0.121147 -0.186046 0.155103 0.067182 -0.658225 -0.359314 0.008518 -0.004456 0.390031 0.230037 0.055223 0.112321 0.139218 0.228884 0.102182 0.108552 0.042047 0.200358 0.749010 -0.281296 -0.181963 0.513684 0.101102 -0.230228 -0.647701 0.072571 -0.130208 0.015017 0.113623 0.045979 0.069619 -0.325082 -0.862743 0.020572 0.075094 0.125963 -0.093307 0.135123 0.625542 -0.249727 0.097465 0.331872 -0.279099 0.313237 -0.168242 -0.453975 -0.069888 0.610500 -0.901312 -0.164638 -0.083235 -0.249929 -0.097218 -0.395432 -0.020669 -0.252119 -0.513344 -0.129503 0.280984 -0.173668 0.074569 -0.255130 -0.042746 -0.449745 -0.170145 0.109865 0.149488 0.208087 0.000460 0.147674 0.700377 0.022361 -0.467554 0.430239 0.135345 -0.155611 0.864020 0.413279 0.206841 0.168648
