32.840087 1.080350 0.489272 -0.040945 -0.120626 1.203616 0.817076 1.317336 1.329378 0.080266 0.030321 -1.214067 -0.236801 0.296401 0.586404 0.503088 0.127148 -0.604594 -0.027596 -0.609856 -0.006741 -0.205760 -0.789693 -0.001402 0.807320 0.534526 0.436555 -0.565589 0.373391 0.167317 -0.234837 0.150725 0.274381 1.412684 0.832255 0.477736 0.465563 1.679761 1.403954 1.779030 1.966343 0.611989 0.515012 -0.436697 0.238083 0.804316 1.057571 1.068657 0.805614 0.099417 0.388532 0.194333 0.628344 0.655550 0.291700 0.862886 1.631887 1.146507 1.162966 0.414936 1.322504 0.810871 0.666347 0.886115 1.048955 -1.056851 -1.069154 -0.633602 -0.570038 -1.123711 -0.591713 -0.522034 -0.614797 -0.907685 -0.901563 -0.353225 -0.172393 0.092947 0.396775 0.716642 0.555485 -0.137832 -0.122155 0.302115 0.425280 1.700456 1.822841 1.963203 1.296433 1.160321 2.039625 2.118036 2.187420 2.238168 2.041475 1.977024 1.751513 -1.029525 -1.054564 -0.689686 -0.591785 -1.197349 -0.503690 -0.420796 -0.614087 -0.896047 -0.920173 -0.156436 -0.051181 0.273178 0.521838 0.833508 0.628847 -0.237066 -0.273287 0.051348 0.296623 1.786123 1.870232 2.136442 1.318946 1.271416 2.101127 2.188023 2.194085 2.249851 2.057380 1.967528 1.720260 0.622752 1.539590 -3.787809 -2.746904 -1.264052 0.238853 -1.221344 -1.533708 0.718575 -0.401004 0.317214 -1.015917 0.182688 1.328087 -0.045808 1.637770 3.390215 2.737582 0.153889 1.559392 1.184382 1.451419 3.588269 -0.422112 1.365203 -0.471392 3.485099 0.343212 2.812437 1.232994 -4.476702 -0.270898 -5.124503 -1.879408 -5.609735 -2.174212 -4.342858 -3.266903 -7.721680 -1.825862 -3.397647 -1.980910 -9.029943 -2.812480 -5.691467 -3.010847 2.244144 -1.077759 1.369240 2.528993 -0.493205 0.805710 0.077242 -0.672638 -0.783476 -0.277340 -3.323799 -3.893274 0.492115 3.530243 -3.162012 -2.773470
12.249132 -0.482363 0.253344 -0.080454 -0.241892 -1.151106 -0.399447 -0.799044 -0.975130 -1.230393 0.252248 0.161897 -1.124713 0.358362 0.991372 0.450586 0.781836 0.729059 0.323441 0.676165 0.382757 -0.032691 0.888946 -0.504223 -0.182358 0.791357 1.154949 1.671004 2.032583 1.135566 3.243177 1.485864 1.074855 -0.761078 -0.011429 -0.423434 -0.601058 -1.439844 -0.411527 -0.982960 -1.154575 -1.466740 -0.060025 -0.353118 -1.410622 0.099849 0.633169 0.289372 0.513696 0.442868 0.146358 0.406524 0.402558 -0.610947 -0.097073 -0.966669 -0.407000 0.526163 0.973926 0.840443 1.625250 0.828061 2.582104 1.005412 0.455925 -0.545094 -0.876006 -2.582157 -0.744648 -1.116719 -1.131463 -0.565436 -0.216300 0.191223 0.403005 -0.246502 0.203999 0.117927 0.447844 0.810064 -0.336465 0.657837 1.167026 1.081496 1.113579 1.450657 1.247061 1.266681 1.435840 0.824340 0.666644 1.190659 0.095720 1.647123 0.753634 0.021333 0.642782 -1.110584 -1.382558 -2.931259 -1.284065 -1.485125 -1.459505 -0.978925 -0.640336 -0.107580 0.069487 -0.607484 -0.115085 -0.211806 -0.025950 0.292112 -0.854094 0.690988 1.208495 1.426010 1.046736 1.882168 1.438082 1.271568 1.395483 1.217424 0.926478 1.064849 0.205961 1.313677 0.610195 -0.309171 0.617261 0.207487 0.055848 2.984047 1.961232 -3.898575 -2.794590 -1.448259 -1.311600 0.858377 -0.020673 1.793194 0.788407 -1.736443 -0.683083 -2.485215 1.501824 -1.872486 -0.819506 -2.150057 0.749021 -1.202518 0.309739 4.314304 4.070624 5.342994 4.979807 3.353657 4.328995 3.418003 1.878296 -2.774116 -3.019990 2.644739 -1.075647 4.321292 0.945578 3.217129 2.934163 -3.619358 -3.557795 -0.883287 -2.296747 -4.953919 -3.654736 -3.450861 -0.908831 -2.081727 -2.479799 -1.262987 -4.107839 -3.591285 -1.511076 -4.209242 -1.441295 -6.797549 -3.896353 2.907276 -2.707091 -3.026540 0.467083 0.239980 -1.329039
22.352418 0.503897 0.281484 0.008633 0.054889 0.719883 0.489183 0.819151 0.807219 -0.096747 -0.107850 -0.831463 -0.333401 0.172169 0.258969 0.271224 -0.041698 -0.188884 0.103998 -0.039002 0.300745 -0.220640 -0.424218 0.203121 0.488667 0.300260 0.364280 0.180590 0.563760 0.098120 -0.044627 -0.056369 -0.062116 0.704673 0.464946 0.275963 0.324487 1.082248 0.851690 1.154083 1.223639 0.303196 0.245034 -0.330440 0.002714 0.581463 0.652074 0.742159 0.471607 0.286598 0.398375 0.394939 0.652396 0.333787 0.299090 0.715297 0.933617 0.682515 0.785158 0.706369 1.018307 0.477471 0.462871 0.444279 0.468583 -0.517397 -0.525464 -0.349394 -0.329297 -0.225174 0.029793 0.100696 0.045335 -0.219879 -0.236786 -0.150555 -0.054998 0.174147 0.285357 0.840076 0.732448 -0.567892 -0.584313 0.000520 0.054097 0.592484 0.676206 0.819399 0.561040 0.656411 1.090096 1.284623 1.377882 1.492866 1.442995 1.363361 1.236676 -0.565777 -0.589553 -0.412724 -0.402334 -0.326985 0.025775 0.043920 -0.037119 -0.214102 -0.235530 -0.039043 0.006293 0.268018 0.375590 0.830194 0.739718 -0.687514 -0.713597 -0.073073 0.052502 0.628559 0.703621 0.897088 0.541578 0.793345 1.217447 1.379282 1.427034 1.539868 1.475894 1.369769 1.238916 0.374417 0.692895 -1.021768 -0.308626 -1.081002 -0.434311 -1.715593 -1.719394 1.599971 1.348025 0.501623 -0.508722 -0.016928 0.469658 0.074924 0.563183 2.517701 2.544513 0.710720 1.262396 2.142865 2.516878 0.348103 -1.679299 -0.637550 -1.458916 1.823116 0.348965 1.679047 1.163286 -3.823263 -2.242023 -5.059129 -3.877219 -3.970151 -1.921932 -3.692391 -3.799857 -2.866561 0.134964 -1.042160 -0.106031 -3.057623 -0.476923 -2.203359 -1.625666 1.756562 -0.503336 1.505414 2.569723 -0.293123 -0.168650 -1.077890 -1.766282 -0.235884 0.014776 -1.374642 -1.586153 0.056008 1.517407 -1.869209 -1.475242
6.641610 0.200749 0.604279 0.420176 0.238027 -0.680985 -0.156104 -0.380989 -0.528962 -0.619134 0.229287 0.179525 -0.660689 0.094340 0.511752 0.242757 0.455324 0.551904 0.452246 0.487176 0.349334 -0.342949 0.029699 -0.414078 0.011562 0.480209 0.821241 0.521439 1.017173 0.830550 2.056715 1.069260 0.800349 -0.127047 0.339616 0.301004 0.153755 -0.936315 -0.255714 -0.438839 -0.625104 -0.992571 -0.142528 -0.545959 -1.237754 -0.170413 0.197141 0.111694 0.247653 0.275147 0.249961 0.173728 0.241771 -1.025655 -0.898358 -0.959154 -0.353963 0.287522 0.673277 -0.244659 0.548582 0.484715 1.505318 0.650655 0.282924 -0.034921 -0.282194 -1.447822 -0.264085 -0.802791 -0.799734 -0.608921 -0.335998 -0.158459 -0.027131 0.038265 0.312911 0.033818 0.291590 -0.026329 -0.705762 0.524884 0.806308 0.361229 0.392631 1.030370 0.898100 0.970269 1.038147 0.685373 0.565875 0.922479 0.243981 1.156115 0.618960 0.210082 0.557185 -0.592083 -0.790817 -1.840264 -0.781181 -1.313035 -1.281806 -1.050310 -0.793464 -0.202597 -0.111149 -0.219459 0.057979 0.010265 0.120751 -0.396970 -1.087493 0.513806 0.807734 0.611500 0.427635 1.131034 0.868686 0.812621 0.867604 0.956596 0.759615 0.829567 0.246949 0.923827 0.501860 0.015053 0.474732 -0.426302 -0.182778 1.350945 0.657010 -1.421682 -0.792036 -0.006857 0.015712 -1.702798 -2.216457 1.932848 1.186701 -1.345703 -0.586280 -2.606742 0.330186 -1.004778 -0.017267 -3.161433 -1.548836 -1.995390 -1.256729 3.454029 2.807297 5.222337 4.888654 2.861663 3.034339 1.964967 0.613039 0.328717 0.619773 3.644772 0.586197 3.405116 2.245064 3.597974 3.514230 -3.361194 -2.123379 -2.350198 -3.203805 -5.184135 -4.057623 -4.250132 -1.586657 -1.754188 -1.974816 -0.387233 -2.275096 -2.252916 -1.114327 -0.274987 1.000551 -5.352990 -3.502476 1.782321 -1.838117 -1.298841 0.924932 -0.845505 -1.385469
-6.505887 -0.565837 -0.283227 0.159603 0.174206 -0.282243 -0.166677 -0.083480 -0.103520 -0.288453 0.104220 0.355452 0.274232 0.438342 0.242809 0.429920 0.593329 0.246304 0.194737 0.607605 0.402520 -0.471910 -0.667002 -0.732645 -0.655840 -0.023100 0.117675 -0.218953 -0.337477 0.053108 0.380127 0.302922 0.293504 -0.634322 -0.373656 -0.135579 -0.133528 -0.383288 -0.381358 -0.159527 -0.243356 -0.638664 -0.274420 -0.265824 -0.335438 0.146442 -0.031067 0.338745 0.463852 0.234672 0.295622 0.451504 0.326975 -0.818855 -1.220735 -0.629195 -0.532879 -0.203344 -0.120371 -0.573726 -0.559207 -0.202744 -0.060935 -0.137506 -0.204429 -0.028715 -0.002622 -0.256946 -0.222109 -0.554734 -0.782612 0.110507 0.173473 -0.259866 -0.173532 -0.110059 -0.214762 0.019682 0.063778 0.134701 0.240154 -0.178517 -0.180112 -0.241537 -0.307257 0.009702 0.029481 -0.422567 -0.179020 0.475371 0.265590 0.135203 0.049906 0.602176 0.693551 -0.230885 -0.128888 -0.421451 -0.369062 -0.520741 -0.490108 -0.698064 -0.983141 -0.208201 -0.131846 -0.519443 -0.419477 -0.307866 -0.394789 -0.302862 -0.272642 -0.196805 -0.061968 -0.119158 -0.088846 -0.081551 -0.177337 0.321727 0.335211 -0.433991 -0.152345 0.654473 0.436513 0.070949 0.061998 0.428674 0.550607 -0.352121 -0.190759 -0.474700 -0.813001 0.641499 0.442966 0.528505 -0.121284 0.723996 1.769526 0.104217 0.677441 -2.044396 -1.063565 1.646410 1.250498 -1.973836 -1.487114 -2.441825 -2.169990 -0.847815 -1.076889 -0.520307 -1.345061 -0.977128 0.215276 0.121102 0.910950 -0.006080 1.211686 -1.047888 -0.880501 2.717546 1.581534 1.157319 0.187989 0.162521 -1.070643 0.879667 1.146045 3.383406 2.584202 1.638902 -0.319788 2.205077 0.461409 2.968491 2.785096 -2.274522 0.111285 -3.710925 -4.019705 -2.987940 -3.161684 -1.702126 -1.933157 0.421178 -0.853705 1.850566 2.167132 4.200778 1.447495 2.443610 2.805970
-3.348136 -0.425524 -0.587890 -0.601484 -0.414087 -0.267681 -0.726367 -0.764758 -0.694403 0.028906 -0.595935 -0.179119 0.265031 -0.548411 -0.940933 -0.695911 -0.700203 -0.866120 -1.127534 -0.544919 -0.671339 0.839920 1.019105 0.385544 -0.006877 -0.249398 -0.493135 0.955647 0.400605 0.582406 0.339070 1.033413 1.388591 -0.354938 -0.565934 -0.722727 -0.549682 -0.224128 -0.770154 -0.857101 -0.756048 0.175810 -0.489900 0.203960 0.638346 -0.483136 -0.867593 -0.663739 -0.627782 -0.506578 -0.812007 -0.432659 -0.580302 1.462259 1.820851 0.949491 0.506970 -0.176003 -0.424510 1.569732 0.858992 0.801945 0.552654 1.225078 1.614489 -0.737184 -0.383685 0.562407 -0.144373 0.514398 0.403140 -0.122199 -0.392822 0.895890 0.889984 0.538887 0.306087 -0.144868 -0.420095 -0.698442 -0.244888 0.413654 0.415464 0.453303 0.341526 -0.297919 -0.145193 -0.033387 -0.017082 -1.338141 -1.276061 -1.537050 -0.903875 -2.185291 -1.819835 -0.788996 -0.844454 -0.281985 0.009405 0.978410 0.333197 1.182047 1.008635 0.181461 -0.063382 1.570204 1.585608 1.102877 0.868636 0.036647 -0.131422 -0.414833 0.065941 1.227859 1.241013 1.049614 1.013307 0.199075 0.361112 0.462492 0.527905 -1.134857 -1.068434 -1.247346 -0.644267 -2.097259 -1.779330 -0.319290 -0.430078 0.504381 0.288063 -0.811123 -0.687419 1.111758 0.791230 -0.220262 -0.191262 -0.115612 -0.364862 1.690980 1.897656 -1.616262 -1.434956 1.914870 0.241093 -0.226702 -0.156946 -1.722897 -2.192054 -1.066359 -1.090440 0.658965 -0.118620 -0.566309 -0.661551 -2.087796 -1.731520 -2.327929 -1.139917 3.089551 2.612447 0.269606 1.424186 0.419576 0.650611 -1.037079 -0.343782 -0.089215 0.456512 0.065203 1.180930 0.986159 2.010375 -0.743880 -1.732107 2.924648 -0.138988 0.734503 1.537578 1.588680 0.819242 1.676082 1.449896 2.574568 3.003884 -2.347970 -0.769394 -2.099315 -0.294167 -2.552946 -1.907596
15.121916 0.340823 0.180299 0.143868 0.166640 0.514860 0.394996 0.675431 0.688542 -0.110948 -0.116161 -0.505252 -0.247829 0.011827 0.119655 0.085809 -0.073029 -0.161797 0.113222 -0.042266 0.205179 -0.135211 -0.371933 -0.006942 0.244392 0.348538 0.354412 -0.028950 0.267302 0.270463 -0.017061 0.067153 0.042643 0.438054 0.269853 0.275879 0.309646 0.661025 0.543928 0.805008 0.869119 0.124237 0.100671 -0.153452 0.006955 0.321272 0.409983 0.394276 0.261540 0.117815 0.280681 0.245736 0.419256 0.216976 0.079821 0.275567 0.483391 0.604609 0.651764 0.367304 0.597741 0.523311 0.373301 0.411115 0.416863 -0.253286 -0.278882 -0.227749 -0.253359 -0.309071 -0.129699 -0.104709 -0.146799 -0.201789 -0.223004 -0.100550 -0.049358 0.263468 0.344825 0.582724 0.518450 -0.177136 -0.203937 0.017571 0.070637 0.487060 0.539696 0.640089 0.460844 0.539781 0.803778 0.945145 0.945959 1.095586 1.052670 0.952617 0.863242 -0.353306 -0.385538 -0.340628 -0.364061 -0.423573 -0.175127 -0.186776 -0.240429 -0.332548 -0.351804 -0.159118 -0.122035 0.205798 0.280191 0.513087 0.446803 -0.331075 -0.368060 -0.115792 -0.014915 0.463266 0.505179 0.661448 0.427091 0.613614 0.869812 1.013190 0.982755 1.101056 1.050832 0.948052 0.839710 0.185972 0.328998 -0.739851 -0.468095 -0.625046 -0.165513 0.056182 0.345941 0.399925 0.225633 0.107697 -0.593163 0.064834 0.450360 -0.889033 -0.756264 2.563059 2.318827 0.284243 0.813817 0.883754 0.892976 0.248015 -1.089532 -0.656174 -1.185253 1.267465 0.074204 1.310658 0.693136 -3.752409 -2.221271 -3.444771 -2.489399 -1.937609 -0.478509 -1.377938 -1.446932 -2.030242 0.043400 -0.625325 -0.089213 -2.379990 -0.450180 -1.676722 -0.952220 1.333574 -0.446284 0.732391 1.262266 -0.260774 0.375379 -0.526216 -0.663900 -0.078835 0.067054 -1.033175 -0.983831 -0.237616 1.059135 -1.058247 -0.755766
5.434573 0.173051 0.410860 0.324941 0.186669 -0.315709 -0.002793 -0.132875 -0.246022 -0.338586 0.198634 0.033694 -0.457778 0.140077 0.391826 0.190979 0.327330 0.286128 0.196889 0.260501 0.177414 -0.081764 0.138535 -0.150077 0.080004 0.241331 0.452052 0.353663 0.611684 0.373609 1.230987 0.530703 0.365040 -0.066789 0.215349 0.206285 0.090233 -0.493871 -0.089509 -0.201166 -0.330613 -0.585406 -0.055588 -0.461253 -0.876770 0.055033 0.276588 0.170657 0.256188 0.101690 0.080362 0.095378 0.143426 -0.419216 -0.367109 -0.412838 -0.092643 0.195726 0.412105 -0.081056 0.370948 0.180848 0.865166 0.272701 0.028716 -0.262697 -0.430202 -1.065927 -0.336831 -0.328621 -0.348053 -0.261662 -0.092836 0.086204 0.155389 0.181442 0.338330 0.084781 0.248140 0.117368 -0.275833 0.289753 0.453537 0.261025 0.287157 0.652225 0.555670 0.617713 0.650822 0.330219 0.271819 0.526051 0.120740 0.699075 0.383977 0.171136 0.368235 -0.667645 -0.797011 -1.359537 -0.698558 -0.543317 -0.560115 -0.430940 -0.277500 0.000315 0.047920 -0.026637 0.132774 0.072888 0.146619 -0.103229 -0.511290 0.272485 0.452901 0.413685 0.300177 0.710607 0.532006 0.511709 0.542542 0.509141 0.404560 0.471155 0.128060 0.590288 0.333833 0.060769 0.327774 -0.242810 -0.052960 0.722199 0.461908 -0.979528 -0.570400 -0.531692 -0.728592 -0.061381 -0.274645 1.224990 0.754678 -0.813097 -0.294317 -1.014151 0.728734 -1.896236 -1.480177 -1.497971 -0.330579 -0.326420 0.093652 2.046936 1.828821 2.994810 2.761430 1.498514 1.716462 1.296943 0.262244 0.844441 0.996121 1.833610 0.288593 1.203053 0.457607 1.001810 0.906568 -1.999986 -1.291295 -1.294531 -1.697528 -3.027238 -2.286856 -2.258354 -0.714059 -1.230385 -1.206744 -0.226290 -1.359196 -1.482447 -0.717848 -0.616141 0.176427 -3.214197 -1.978963 1.538522 -0.735347 -0.686949 0.453290 -0.340905 -0.787898
-5.233882 -0.265837 -0.011971 0.338244 0.376285 0.051851 0.157256 0.151772 0.078941 -0.308431 -0.048074 0.346909 0.168717 0.202316 -0.003237 0.093036 0.169242 0.230981 0.040053 0.557525 0.363094 -0.316212 -0.229575 -0.540061 -0.555148 -0.048553 0.068139 -0.149873 -0.238110 0.079177 0.278752 0.195913 0.159111 -0.369464 -0.141750 0.050410 0.063883 -0.150148 -0.116499 -0.018936 -0.131714 -0.767688 -0.510598 -0.332624 -0.462051 -0.108668 -0.277822 -0.066059 -0.004218 0.271486 0.180338 0.479880 0.357623 -0.702057 -0.824993 -0.592750 -0.557205 -0.214073 -0.140468 -0.443963 -0.447259 -0.162939 -0.081846 -0.162725 -0.241215 0.142923 0.140736 -0.060495 -0.039247 -0.321525 -0.536183 -0.061163 0.012766 0.226128 0.263417 0.189911 0.123981 0.009090 0.014267 0.185047 0.254319 -0.340424 -0.319912 -0.469326 -0.510827 -0.031521 -0.052195 -0.226562 0.026280 0.018787 -0.188565 -0.201381 -0.260255 0.271060 0.339539 -0.124038 -0.076486 -0.203865 -0.189951 -0.317491 -0.303350 -0.498180 -0.761214 -0.402695 -0.300228 0.143506 0.188605 0.110344 0.054458 -0.109144 -0.105440 0.022228 0.125807 -0.170046 -0.117577 -0.224457 -0.306055 0.128068 0.107267 -0.287281 0.007419 0.160191 -0.052089 -0.215047 -0.229196 0.167315 0.247012 -0.201608 -0.099332 -0.429349 -0.666774 0.403324 0.249412 0.636007 -0.175532 0.672797 1.353511 -0.236763 0.722662 -0.057943 0.590629 0.638559 0.089656 -1.283189 -1.195101 -1.814973 -1.645328 -1.794099 -2.042259 0.212634 -0.045302 -0.204172 0.730974 0.530795 1.337365 -1.007540 0.083079 -1.577684 -1.607388 2.591920 1.478674 1.072326 0.057247 -0.542728 -1.208881 1.008807 0.918623 2.157091 1.495039 0.287971 -1.013427 2.509846 1.123845 3.184352 3.107086 -1.882946 -0.185797 -2.356777 -2.533462 -1.721737 -2.075749 -1.182000 -1.266650 0.378087 -0.242226 1.568070 2.083604 2.504150 0.495777 1.746142 1.952118
-2.908101 -0.108913 -0.313587 -0.268511 -0.137363 0.077515 -0.353753 -0.228093 -0.122232 0.082559 -0.456628 -0.285124 0.149315 -0.377826 -0.581213 -0.380575 -0.282463 -0.797536 -0.812112 -0.663677 -0.671686 0.581960 0.194491 0.164749 -0.068231 -0.282066 -0.498136 0.429822 -0.030303 0.291570 -0.123650 0.649041 0.942529 -0.082711 -0.319795 -0.349460 -0.232011 0.041627 -0.473998 -0.371291 -0.243223 0.210932 -0.407000 0.042503 0.456021 -0.291498 -0.489521 -0.303523 -0.213398 -0.505056 -0.585206 -0.499913 -0.561668 1.106121 1.009560 0.697751 0.369276 -0.132103 -0.365058 0.975855 0.377852 0.476118 0.069880 0.816792 1.148173 -0.737420 -0.462807 0.410995 -0.282751 0.250756 0.191117 -0.170088 -0.417918 -0.057269 -0.080718 -0.120624 -0.354571 -0.298957 -0.491735 -0.921120 -0.456011 0.500555 0.425104 0.510717 0.453588 -0.072735 0.037283 0.038264 -0.038268 -0.209695 -0.128214 -0.437853 0.044846 -1.573819 -1.226210 -0.562133 -0.655505 -0.308799 -0.074758 0.797675 0.161769 0.850961 0.732717 0.215976 -0.031587 0.540791 0.557490 0.461045 0.232884 -0.051036 -0.134859 -0.549812 -0.091227 1.018216 0.931013 0.873328 0.879451 0.174752 0.301767 0.311166 0.268698 -0.312162 -0.206961 -0.403758 0.057227 -1.461867 -1.155784 -0.229122 -0.370099 0.306439 0.069023 -0.789700 -0.522101 0.670848 0.633793 -0.032597 0.358888 0.198902 -0.343104 -0.274873 0.237166 0.250061 0.286716 1.322184 -0.339859 -0.418988 -0.222636 -0.212038 -0.743180 -2.240561 -2.393494 -0.308531 -1.002705 -1.588279 -1.564248 -1.145178 -1.187304 -0.413181 -0.286964 2.412885 2.073215 0.487551 1.849055 0.620542 0.989778 -1.624898 -1.027239 0.771693 1.418790 1.452621 2.347281 -0.199366 0.766955 -2.025856 -2.408527 2.180304 0.203507 0.002668 1.039871 1.025021 0.718525 1.304907 1.000602 2.270828 2.142622 -1.306433 0.166337 -0.479179 0.508113 -1.374059 -1.114088
-6.031513 -0.325628 -0.182157 -0.076792 -0.077528 -0.247776 -0.139051 -0.262630 -0.245868 0.036336 0.132449 0.363089 0.158603 0.229158 0.120508 0.197613 0.301298 0.022739 -0.251464 0.021665 -0.194675 0.346152 0.687596 0.286357 0.115723 -0.195965 -0.152654 0.002841 -0.186776 -0.128054 0.049759 -0.018353 -0.008727 -0.397433 -0.253108 -0.178523 -0.172877 -0.336463 -0.235517 -0.354337 -0.385302 -0.262520 -0.145233 -0.019645 -0.154792 0.201196 0.099178 0.150979 0.244231 -0.176577 -0.343980 -0.224847 -0.343568 0.066478 0.222038 0.070570 -0.043400 -0.439237 -0.417468 -0.360920 -0.460164 -0.500593 -0.381560 -0.430935 -0.444972 0.537179 0.544305 0.423529 0.485056 0.237619 0.097044 0.148534 0.199176 -0.060341 -0.016366 -0.152974 -0.162403 0.215286 0.173221 -0.004449 0.002773 -0.107635 -0.036540 -0.275689 -0.338272 -0.704048 -0.712163 -0.767016 -0.577062 0.005262 -0.190571 -0.211271 -0.272710 -0.085987 -0.075030 -0.094176 0.030428 0.274473 0.291518 0.179492 0.244101 0.072214 -0.118160 -0.056299 0.006823 -0.136236 -0.096903 -0.278809 -0.262562 -0.095684 -0.159567 -0.298731 -0.301769 0.038420 0.132730 -0.093465 -0.189938 -0.523407 -0.537401 -0.628754 -0.398012 0.053598 -0.153969 -0.182177 -0.199100 -0.260731 -0.234748 -0.256970 -0.116197 -0.377368 -0.210553 0.516245 0.228696 0.327449 0.072702 0.032573 0.269199 -0.235812 -0.135582 -0.355261 0.558234 -0.270894 -0.520282 -0.269543 0.284687 -1.327315 -0.858495 0.200201 -0.372138 -0.712984 -0.667396 -0.567214 0.496549 1.563176 2.056592 -0.967892 0.113442 -1.222855 -1.227823 1.885792 0.311052 1.639383 0.559175 0.776893 0.317927 1.250697 1.476132 1.182844 -0.619807 0.752899 0.035302 1.739077 0.225215 1.419427 0.914327 -2.522629 -0.226551 -1.734974 -2.045474 -0.356000 -0.788219 0.781003 1.200510 0.150288 -0.205756 1.496814 1.191321 0.013634 -1.562163 1.631421 0.861232
-2.330611 -0.574169 -0.648795 -0.473960 -0.382516 -0.121816 -0.350256 -0.215941 -0.180491 -0.071894 -0.356441 -0.240790 0.022852 -0.330938 -0.543926 -0.339740 -0.277452 -0.200499 -0.173106 -0.046088 -0.034289 0.110535 -0.200050 -0.120703 -0.214200 0.303108 0.136537 0.486706 0.203403 0.666134 0.453341 0.863243 1.016386 -0.645013 -0.731408 -0.615569 -0.561851 -0.053462 -0.282604 -0.217678 -0.166160 -0.040103 -0.332971 0.001011 0.239206 -0.456630 -0.615082 -0.456537 -0.359525 -0.186993 -0.216815 -0.023363 -0.086558 0.365607 0.222433 0.019285 -0.115725 0.253692 0.074393 0.777026 0.362461 0.745144 0.503419 0.960653 1.144917 -1.094806 -0.897630 -0.313698 -0.776378 -0.126382 -0.221390 -0.320593 -0.483122 0.196796 0.171350 0.150024 -0.037464 -0.126148 -0.256173 -0.299514 0.029108 0.050255 -0.032296 0.148604 0.134068 0.203712 0.256708 0.096249 0.091747 -0.215982 -0.224351 -0.351137 -0.099747 -0.718943 -0.507698 -0.246631 -0.353648 -0.720786 -0.561546 -0.040940 -0.462023 0.251518 0.116724 -0.038602 -0.172797 0.690778 0.675620 0.709413 0.504446 -0.095112 -0.142352 -0.114562 0.233657 0.636476 0.520998 0.639657 0.635467 0.524153 0.594452 0.498738 0.521761 -0.093845 -0.089873 -0.125785 0.117105 -0.622149 -0.426968 -0.093996 -0.225130 0.291831 -0.021791 -0.396598 -0.353263 0.358345 0.182389 0.771883 0.768852 0.448782 0.311632 0.140422 -0.191384 0.767655 0.662424 0.576611 -0.650545 -0.279787 -0.423351 -0.724819 -0.369353 -0.553304 -0.620564 -0.537163 -0.475396 -3.267250 -2.605728 -0.925997 -1.063662 -0.276126 -0.112360 0.997888 0.805773 -0.687623 0.850017 -0.550854 -1.199853 -0.722805 -0.949549 1.722326 1.718313 0.783499 0.860522 1.458389 1.615209 0.749857 0.264922 2.556737 0.544465 0.663890 1.102350 -0.600920 -0.075232 -1.081473 -1.072798 1.526279 1.926222 -0.849021 0.264637 0.203646 1.324825 -0.664933 -0.540686
-0.496306 -0.337608 -0.305351 -0.289083 -0.290586 -0.490519 -0.452914 -0.409630 -0.389075 0.022681 0.016936 -0.132934 -0.158546 -0.222127 -0.187439 -0.119553 -0.085861 -0.233235 -0.177276 -0.399551 -0.389754 0.564517 0.515140 0.543468 0.457670 -0.040941 0.009136 0.026366 0.011229 -0.032473 0.076151 0.105988 0.082332 -0.250579 -0.215204 -0.168291 -0.167629 -0.433157 -0.386190 -0.376956 -0.363610 0.461001 0.440580 0.373963 0.339273 0.144215 0.171706 0.158373 0.180248 -0.352873 -0.294932 -0.495049 -0.473686 0.823710 0.802457 0.619439 0.519161 0.039941 0.100506 0.089836 0.082229 0.105643 0.203711 0.275528 0.263168 -0.467199 -0.468163 -0.405444 -0.358649 0.019859 0.023781 -0.186903 -0.195830 -0.176368 -0.177568 -0.087376 -0.084623 0.288714 0.279860 0.014235 -0.017379 0.038296 0.058876 0.099232 0.071489 0.130114 0.136933 0.133298 0.132147 0.228342 0.177407 0.187348 0.186273 -0.220521 -0.202694 -0.084949 -0.025030 -0.333247 -0.337233 -0.326057 -0.273868 0.070188 0.063744 -0.068541 -0.079844 -0.145133 -0.154346 -0.047343 -0.041865 0.286703 0.253062 0.008623 -0.014801 0.106239 0.121460 0.170762 0.148618 0.139109 0.149281 0.253283 0.249256 0.164331 0.118914 0.226381 0.218877 -0.191113 -0.178736 -0.077827 -0.022696 0.026649 0.139603 0.260813 0.177797 0.064406 0.141086 -0.358192 -0.647297 -0.179858 -0.344268 -0.221498 -0.218336 -0.710209 -0.141166 0.481371 0.888342 0.088610 0.059806 -0.111884 0.295543 0.054429 0.107347 0.147044 -0.028517 -0.383122 -0.002501 -0.723117 -0.747161 1.296846 1.194338 -0.409436 -0.288956 -0.231500 -0.026818 1.078005 0.520103 0.663670 0.150448 -0.344593 -0.542491 0.546344 -0.148233 -0.633612 -0.926354 -0.679531 -0.654647 -0.054495 0.272768 0.622328 0.378268 -0.148425 0.347179 -0.030940 0.095591 -0.336717 -0.302115 0.115032 -0.642849 -0.471807 -0.653185 0.462889 0.429560
3.333085 -0.130302 -0.068383 -0.051868 -0.125647 -0.022843 0.108719 0.023728 -0.082485 -0.219019 0.008052 0.027170 -0.179871 -0.065152 -0.105385 -0.084082 -0.178308 0.570720 0.374136 0.622391 0.510762 -0.371729 -0.145137 -0.136815 0.156292 0.393715 0.535536 0.100113 0.462550 0.509053 0.875387 0.570226 0.391270 -0.312828 -0.197511 -0.196586 -0.275141 -0.019041 0.178352 0.067211 -0.041682 -0.378066 -0.009494 -0.267670 -0.482961 -0.173359 -0.180871 -0.158040 -0.183594 0.308724 0.171527 0.396524 0.362896 -0.816535 -0.843092 -0.568189 -0.150141 0.263771 0.429108 -0.167249 0.270251 0.446514 0.774924 0.512320 0.300217 0.377655 0.246193 -0.076512 0.270224 0.167841 0.084952 0.111808 0.250553 0.751227 0.805337 0.588035 0.662037 -0.474694 -0.377219 -0.127671 -0.294993 0.504944 0.534142 0.423748 0.452930 0.037542 -0.048679 0.006520 0.120744 -0.755561 -0.803995 -0.615688 -0.792504 0.072397 -0.075011 -0.038123 -0.036238 0.768608 0.670574 0.352419 0.654042 0.339990 0.258882 0.309413 0.465926 0.628569 0.643142 0.465281 0.509524 -0.319861 -0.296830 -0.020608 -0.199575 0.085427 0.112458 0.050136 0.041753 -0.200466 -0.282961 -0.240113 -0.122606 -0.866217 -0.947335 -0.845724 -1.007537 0.212152 0.088985 0.026820 0.046880 -0.057867 -0.090374 0.512554 0.205033 -0.592797 -0.601234 0.530051 0.200155 0.221921 0.248079 1.190511 0.893664 0.381774 -0.210759 -1.055446 -0.204046 0.438901 0.369199 -0.802406 -0.415186 -0.521466 0.037682 0.337119 0.465474 1.387339 1.636413 0.997154 1.218748 -2.569959 -2.125870 0.191710 -0.353272 0.298343 -1.152954 -0.067631 -0.991179 0.459971 0.257119 0.920537 0.364840 -0.258417 -0.940668 0.545740 0.427325 0.240066 0.474602 -0.880150 -0.932812 0.553916 -0.558680 -0.642716 -1.363870 -0.705492 -0.071470 -0.657448 0.021979 1.441996 1.054761 -0.567193 1.060489 -1.179311 -1.811558
8.909454 0.093234 0.011309 0.015372 0.038879 0.332414 0.252478 0.434441 0.462907 -0.068320 -0.071535 -0.265480 -0.171700 0.060003 0.121288 0.133688 0.075444 -0.066928 0.121396 0.025265 0.189870 -0.195603 -0.359515 -0.060850 0.077841 0.227250 0.216814 0.012096 0.192446 0.155122 -0.083720 -0.005772 -0.006123 0.118646 0.028782 0.067964 0.093506 0.397495 0.308766 0.478156 0.535319 0.081534 0.066047 -0.069956 -0.020004 0.176876 0.236028 0.257202 0.201012 0.139693 0.252768 0.233366 0.345920 0.056580 -0.020956 0.151241 0.253852 0.416243 0.434877 0.314205 0.428873 0.347083 0.206072 0.241422 0.256832 -0.105295 -0.101913 -0.076543 -0.132349 -0.205220 -0.081591 -0.042103 -0.080247 -0.191510 -0.214743 -0.130617 -0.106497 0.094587 0.129855 0.288345 0.267974 -0.013836 -0.039197 0.095028 0.131628 0.363508 0.401366 0.431730 0.321863 0.424989 0.550549 0.655187 0.653644 0.636963 0.622645 0.541437 0.488789 -0.164221 -0.173220 -0.148821 -0.203459 -0.279801 -0.106609 -0.087699 -0.131270 -0.273752 -0.297859 -0.163821 -0.141477 0.049224 0.093488 0.239997 0.223015 -0.163117 -0.196791 -0.044024 0.015519 0.277773 0.311412 0.376422 0.238051 0.383260 0.505870 0.608116 0.590699 0.565680 0.549082 0.472314 0.407046 0.024726 0.157153 -0.373721 -0.211871 -0.325799 -0.068506 0.218692 -0.022030 0.235740 0.177606 -0.017261 -0.428367 -0.043975 0.250463 -0.052064 0.381318 1.290462 1.172518 0.257993 0.558720 0.594484 0.601389 -0.400446 -1.033685 -0.778757 -0.987950 1.106558 0.253802 0.943517 0.680697 -3.080400 -2.151408 -1.576186 -1.006920 -1.132438 -0.311644 -0.647615 -0.802523 -0.918795 0.150899 -0.152943 0.205329 -1.637108 -0.531683 -0.945819 -0.612105 1.174744 -0.108434 0.589627 0.944641 0.196459 0.446871 -0.369018 -0.550269 -0.517125 -0.346153 -0.545101 -0.453125 -0.287525 0.550722 -0.560689 -0.400429
3.685877 0.194324 0.299274 0.254038 0.172067 -0.039424 0.135355 0.081809 0.000438 -0.092128 0.158927 0.010785 -0.205286 0.161780 0.276621 0.183902 0.221829 0.138265 0.092856 0.152842 0.115699 -0.122125 0.033920 -0.102771 0.044966 0.081077 0.227870 0.209279 0.341945 0.128830 0.663680 0.223780 0.140278 0.004885 0.142735 0.166877 0.098131 -0.193544 0.040211 0.005120 -0.086182 -0.263594 -0.008540 -0.295056 -0.487258 0.054531 0.160743 0.122760 0.140459 0.028461 0.017383 0.045350 0.091964 -0.372710 -0.302026 -0.272983 -0.066598 0.073665 0.226719 -0.102121 0.161932 0.002241 0.419623 0.041406 -0.093406 -0.081530 -0.182530 -0.566193 -0.142019 -0.215237 -0.232160 -0.169757 -0.067749 -0.003316 0.037206 0.074722 0.160158 0.025415 0.119394 0.072091 -0.151902 0.092803 0.178129 0.067820 0.068072 0.301165 0.246423 0.292849 0.325831 0.253934 0.221625 0.394405 0.184553 0.521150 0.345342 0.200884 0.301694 -0.370865 -0.446439 -0.772564 -0.392485 -0.373651 -0.388645 -0.288672 -0.198237 -0.039293 -0.011257 -0.044515 0.034141 0.053145 0.087191 -0.044512 -0.274641 0.133770 0.228107 0.207791 0.136994 0.395264 0.303641 0.284164 0.307023 0.376924 0.326464 0.396501 0.210055 0.453619 0.311111 0.138374 0.274101 -0.206038 -0.049439 0.454101 0.252629 -0.507238 -0.248820 -0.559963 -0.343326 -0.185264 -0.266895 0.777340 0.490012 -0.449398 -0.165715 -0.782737 0.031716 -0.350914 -0.184427 -0.930803 -0.328235 -0.145018 0.143673 0.981066 0.803385 1.838541 1.676789 0.940136 1.006598 0.776716 0.230219 1.259340 1.087749 0.214779 -0.639144 0.741178 0.432022 0.541935 0.439398 -1.075468 -0.640003 -1.143908 -1.291424 -1.759954 -1.347650 -1.533349 -0.689055 -0.782731 -0.651968 0.020900 -0.553975 -0.695437 -0.396418 0.065025 0.363581 -1.930339 -1.239632 0.659456 -0.677146 -0.437704 0.036644 -0.282190 -0.421366
-2.728991 -0.232373 -0.075916 0.177936 0.211752 0.107767 0.169379 0.165014 0.128406 -0.148103 0.004489 0.262437 0.119085 0.229477 0.086856 0.154020 0.212685 0.141766 0.019450 0.387665 0.272279 -0.258480 -0.118951 -0.368873 -0.401870 -0.039427 0.006420 -0.117023 -0.156344 -0.011512 0.036997 0.005612 -0.003148 -0.341785 -0.204338 -0.036593 -0.021276 -0.040276 -0.030423 0.036446 -0.024215 -0.376248 -0.231454 -0.100176 -0.205065 0.052241 -0.062190 0.040391 0.091409 0.217310 0.153249 0.371715 0.302613 -0.435119 -0.440998 -0.357510 -0.353307 -0.154602 -0.123633 -0.282233 -0.276279 -0.181771 -0.172429 -0.237489 -0.272429 0.207133 0.213092 0.053928 0.051483 -0.214881 -0.328190 -0.006638 0.038071 0.100363 0.115026 0.059334 0.030200 -0.027874 -0.031178 0.105687 0.151012 -0.181547 -0.165135 -0.265448 -0.295473 -0.036743 -0.038378 -0.169480 -0.008736 -0.023834 -0.171858 -0.166315 -0.204997 0.103220 0.149297 -0.151028 -0.116400 0.067058 0.078055 -0.031331 -0.043581 -0.261477 -0.392251 -0.141147 -0.074232 0.087838 0.103746 0.048981 0.031640 -0.053779 -0.054587 0.059196 0.121146 -0.088045 -0.050695 -0.126297 -0.181172 0.063216 0.058960 -0.202305 -0.011415 0.062874 -0.088973 -0.162479 -0.172104 0.055363 0.107998 -0.189824 -0.123078 -0.354708 -0.424784 0.255455 0.160429 0.362433 -0.085976 0.515530 0.892504 0.060225 0.344645 -0.093058 0.279555 0.279202 0.028566 -0.740715 -0.569542 -1.221390 -0.734808 -0.450260 -0.740300 0.031713 -0.243193 -0.362303 0.260787 0.131955 0.606953 -0.429516 0.190426 -0.870370 -0.789869 1.433067 0.444837 0.640823 0.021705 -1.082487 -1.352494 0.947595 1.124433 1.375799 0.839416 0.384662 -0.351146 1.426643 0.588407 1.976098 1.861756 -1.257741 -0.065985 -1.412410 -1.533822 -0.598155 -1.077206 -0.727463 -0.843506 0.116434 -0.325846 0.913322 1.364186 1.306340 -0.053613 1.188861 1.246038
-1.372984 -0.004087 -0.151963 -0.135801 -0.060185 0.146288 -0.133080 -0.048521 0.002230 0.108898 -0.267473 -0.211395 0.103910 -0.196251 -0.325257 -0.206970 -0.164453 -0.535687 -0.529682 -0.428036 -0.421071 0.253233 -0.021816 -0.009786 -0.140062 -0.178520 -0.315614 0.399373 0.040204 0.180180 -0.032437 0.427769 0.636688 -0.029452 -0.193920 -0.223002 -0.157078 0.081893 -0.235690 -0.165580 -0.104211 0.164879 -0.243408 -0.011208 0.288223 -0.180589 -0.302262 -0.199502 -0.156554 -0.374448 -0.415471 -0.340444 -0.369797 0.626658 0.578873 0.352029 0.165880 -0.098618 -0.241294 0.738016 0.286017 0.288444 0.064048 0.512528 0.741430 -0.649590 -0.471895 0.105010 -0.347438 0.057670 0.002860 -0.202289 -0.363304 0.054356 0.045446 0.010746 -0.157084 -0.068748 -0.194106 -0.449310 -0.142897 0.252593 0.188254 0.259938 0.213609 -0.063113 0.005359 -0.027145 -0.069613 -0.089114 -0.033751 -0.220514 0.092188 -0.928436 -0.708398 -0.325776 -0.388864 -0.261638 -0.111097 0.472093 0.056341 0.540367 0.450475 0.145898 -0.015090 0.387900 0.402008 0.341193 0.170107 0.029011 -0.029917 -0.277131 0.030814 0.631349 0.554694 0.534302 0.532097 0.143498 0.230643 0.222161 0.192809 -0.136237 -0.062084 -0.177067 0.116989 -0.870902 -0.670689 -0.118380 -0.214144 0.152484 0.041800 -0.499387 -0.333766 0.473845 0.423660 -0.041275 0.240630 -0.135422 -0.133439 -0.148479 0.138514 0.276578 0.274378 0.705105 -0.333698 -0.041001 -0.202080 -0.435797 -0.713938 -0.888576 -0.974652 -0.341883 -0.854770 -0.899198 -0.941483 -0.696312 -0.748849 -0.149875 -0.067162 1.855604 1.631456 0.362083 1.117958 0.808192 1.083743 -1.962028 -1.565534 0.549140 1.108981 0.464059 1.166192 0.024128 0.600290 -1.412003 -1.692584 1.516868 0.289668 -0.076182 0.767687 0.595115 0.538780 1.067890 0.745393 1.386648 1.330394 -1.008547 -0.163571 -0.334814 0.211817 -0.935507 -0.669057
-7.016658 -0.181893 -0.072992 0.076637 0.078599 -0.111760 -0.019135 -0.150293 -0.141769 0.084197 0.157908 0.440155 0.205977 0.182344 0.079733 0.118078 0.235861 -0.075580 -0.348705 -0.051765 -0.281366 0.310816 0.640171 0.151736 -0.062983 -0.306904 -0.277731 -0.048209 -0.288443 -0.209076 -0.110225 -0.136125 -0.119368 -0.255482 -0.142021 -0.035920 -0.027696 -0.203276 -0.135000 -0.244640 -0.280106 -0.341507 -0.250781 -0.083417 -0.230865 -0.045026 -0.142190 -0.112974 -0.006232 -0.180349 -0.321366 -0.186857 -0.331338 0.133719 0.294090 0.029439 -0.139317 -0.471994 -0.467458 -0.313875 -0.493314 -0.478516 -0.428631 -0.445012 -0.446635 0.532928 0.550720 0.466768 0.466687 0.283343 0.147208 0.179754 0.215943 0.068507 0.095382 -0.030349 -0.057836 0.184006 0.114750 -0.063584 -0.027702 -0.015551 0.035769 -0.184139 -0.232452 -0.596269 -0.610737 -0.680739 -0.500068 -0.177105 -0.382711 -0.430598 -0.473272 -0.342840 -0.312618 -0.321066 -0.212891 0.225779 0.248728 0.170441 0.176127 0.067628 -0.114815 -0.070223 -0.014642 0.088671 0.116735 -0.075658 -0.070473 0.038979 -0.042757 -0.172764 -0.151007 0.059788 0.132466 -0.070735 -0.149090 -0.499025 -0.512804 -0.627682 -0.397059 -0.162919 -0.374649 -0.418876 -0.416648 -0.481848 -0.439128 -0.444108 -0.324330 -0.377990 -0.201008 0.483877 0.240136 0.385699 0.119858 0.278110 0.485907 -0.202863 -0.113456 -0.196206 0.262225 -0.141173 -0.368148 -0.281236 -0.030142 -1.523426 -1.012625 0.147527 -0.072023 -0.901740 -0.889781 0.115231 1.116305 0.876321 1.220191 -1.307278 -0.185074 -1.368965 -1.107826 1.829656 0.368614 2.101211 0.966529 0.893470 0.388310 1.324650 1.568497 0.530324 -1.201415 1.091179 0.535054 2.122317 0.504210 1.660471 1.008355 -2.409175 -0.041141 -1.461349 -1.771169 0.182523 -0.381951 0.708514 1.032776 0.431213 -0.039204 1.152992 0.967297 -0.001154 -1.440854 1.572051 0.865848
-2.031690 -0.346923 -0.456276 -0.299037 -0.242086 0.093655 -0.109692 0.027552 0.065756 0.176741 -0.153394 -0.088298 0.231388 -0.152336 -0.316435 -0.177102 -0.159207 -0.382769 -0.260542 -0.241488 -0.167769 0.088592 -0.362011 -0.120414 -0.159546 0.189254 0.039366 0.223819 -0.013123 0.374025 0.041323 0.488427 0.631473 -0.465477 -0.570748 -0.486789 -0.463709 0.098917 -0.091006 -0.020603 0.023316 0.082606 -0.243899 0.092209 0.352757 -0.353998 -0.467511 -0.382288 -0.338081 -0.311966 -0.257849 -0.153007 -0.176194 0.401693 0.174474 0.122533 0.025549 0.202821 0.041171 0.516259 0.159834 0.468223 0.141637 0.605148 0.779362 -0.852620 -0.689876 -0.144403 -0.610389 -0.147984 -0.220157 -0.331870 -0.477878 -0.207808 -0.241772 -0.223848 -0.389293 -0.388605 -0.478860 -0.524665 -0.180599 0.276982 0.170616 0.292544 0.273879 0.228105 0.262071 0.158548 0.143726 -0.026146 -0.011001 -0.111270 0.120637 -0.399247 -0.186021 0.022572 -0.100155 -0.473485 -0.345554 0.162535 -0.263170 0.233248 0.131626 -0.017455 -0.142209 0.257850 0.238409 0.317965 0.127292 -0.193598 -0.211009 -0.188658 0.170661 0.586002 0.446377 0.494421 0.526498 0.378942 0.454504 0.410131 0.417483 -0.051075 -0.012172 -0.039559 0.169462 -0.392707 -0.201604 0.067408 -0.095463 0.102709 -0.185885 -0.534710 -0.322298 0.422147 0.225705 0.731161 0.717695 0.391719 0.247097 -0.357412 -0.090326 0.581215 0.580061 0.461558 -0.686669 -0.208863 -0.367168 -0.259425 -0.507111 -0.095546 -0.461924 -1.140639 -1.180321 -2.056644 -1.515404 -1.141650 -1.412478 0.043009 -0.037230 1.003963 1.125352 -0.871642 0.913984 -0.529599 -0.890618 -0.981241 -1.017107 1.981778 2.180713 -0.221263 -0.138996 1.433871 1.679539 0.326918 0.047584 2.046255 0.541664 0.283481 0.917919 -0.229668 0.284855 -0.510610 -0.804403 1.430599 1.350845 -0.398982 0.682945 0.446257 0.998244 -0.184083 0.077262
-0.165365 -0.195486 -0.197405 -0.209880 -0.215392 -0.231363 -0.217109 -0.183573 -0.156872 0.145743 0.119169 0.012763 -0.042882 -0.024299 0.009311 0.071072 0.122961 -0.217832 -0.136758 -0.341500 -0.319624 0.296470 0.296756 0.365942 0.281224 -0.090403 -0.072911 -0.031874 -0.009536 -0.097261 -0.140433 -0.044172 -0.042934 -0.186157 -0.177560 -0.164733 -0.171501 -0.214205 -0.199170 -0.189633 -0.157290 0.315984 0.293020 0.270026 0.213990 0.123073 0.154446 0.106805 0.156050 -0.215210 -0.155784 -0.317846 -0.294472 0.550638 0.587585 0.440343 0.351466 -0.027308 0.004372 0.031998 0.033589 -0.006659 -0.009381 0.086085 0.100162 -0.345910 -0.330302 -0.250969 -0.257300 -0.008150 0.022352 -0.169579 -0.186174 -0.295164 -0.311964 -0.228838 -0.216407 0.043086 0.028357 -0.149868 -0.163733 -0.051264 -0.041206 -0.030372 -0.040608 -0.000440 0.003351 -0.019580 -0.043613 0.026199 -0.008029 -0.017373 -0.010218 -0.463989 -0.453871 -0.311193 -0.292728 -0.016778 -0.009222 0.031003 0.026254 0.218496 0.257313 0.133505 0.119399 -0.003738 -0.031286 0.057512 0.071802 0.299739 0.276135 0.103126 0.095775 0.422582 0.417622 0.435229 0.430225 0.369929 0.375044 0.448380 0.427763 0.083843 0.051562 0.125435 0.122730 -0.297736 -0.293743 -0.173123 -0.164643 -0.017323 0.144737 0.049554 0.081024 0.017029 0.190090 -0.197846 -0.540448 -0.171799 -0.276412 -0.150233 -0.277921 -0.406954 -0.254448 0.751998 0.891484 0.158930 0.113219 0.007407 0.291943 -0.168836 0.356620 -0.276493 -0.328579 -0.420023 -0.336621 0.270566 0.047335 0.739395 0.700756 -0.543553 -0.477687 0.188027 0.180755 0.812070 0.646962 0.355308 0.155582 -0.312923 -0.598317 0.370701 0.164905 -1.657350 -1.646169 -0.292590 -0.172375 0.330651 0.451783 0.786607 0.689286 0.550016 0.763328 0.070579 0.069602 -0.605093 -0.430118 0.010752 -0.442173 -0.506109 -0.660059 0.166506 -0.000119
2.729437 0.042559 0.059677 0.107316 0.013121 0.151053 0.282654 0.262500 0.163704 -0.008866 0.136619 -0.023039 -0.111004 0.059203 0.041161 0.086014 0.000186 0.359411 0.304163 0.405831 0.382695 -0.409455 -0.410915 -0.224160 0.084182 0.347595 0.465791 0.075825 0.364126 0.382406 0.627609 0.410111 0.279182 -0.181348 -0.112839 -0.034611 -0.128444 0.072124 0.275883 0.243444 0.142682 -0.347407 -0.077621 -0.557943 -0.683878 -0.236927 -0.225406 -0.163635 -0.175706 0.149178 0.135385 0.256207 0.277321 -0.770298 -0.936624 -0.575404 -0.160508 0.223254 0.362813 -0.170955 0.171434 0.292420 0.509155 0.302965 0.147472 0.220794 0.105274 -0.173054 0.094796 -0.050869 -0.109824 -0.035961 0.063919 0.314671 0.364281 0.263616 0.316554 -0.388134 -0.276309 -0.140315 -0.255044 0.309709 0.307184 0.254545 0.266164 0.117945 0.037321 0.059011 0.131767 -0.373636 -0.392578 -0.169223 -0.344798 0.313689 0.190439 0.106616 0.104793 0.513975 0.425161 0.131544 0.363758 0.099646 0.052019 0.156259 0.267211 0.263280 0.275782 0.210419 0.236086 -0.256496 -0.216037 -0.064333 -0.191063 0.048547 0.039493 0.021254 0.017071 -0.050445 -0.117002 -0.078638 -0.017466 -0.411928 -0.451306 -0.289528 -0.467464 0.401550 0.303343 0.137234 0.144171 -0.227230 -0.238589 0.261168 0.199190 -0.444034 -0.460757 0.577620 0.166096 0.074184 0.017713 0.759181 0.488212 0.213353 0.199346 -1.231110 -0.347966 0.417432 0.395818 -0.688835 -0.262316 -0.013551 -0.131949 0.087800 -0.021509 1.044013 1.288530 0.520142 0.547082 -0.677170 -0.670186 0.299335 0.367840 0.219086 -0.709307 -0.066182 -0.460989 0.345896 0.034080 0.558108 0.593118 -0.698519 -1.285823 0.614809 0.623721 -1.122519 -0.558144 -0.716635 -0.586735 0.402752 -0.341006 -0.564203 -0.870903 -0.222323 0.120644 -0.923690 -0.639045 0.880383 0.734920 -0.183126 0.788132 -0.440598 -0.714419
-3.443943 -0.066014 0.044508 0.137120 0.114874 -0.149644 -0.035540 -0.152002 -0.198585 0.011646 0.148517 0.294123 0.109638 0.172269 0.141958 0.107674 0.188031 0.127205 -0.116526 0.138348 -0.000337 0.145065 0.407537 -0.064041 -0.141350 -0.163672 -0.115636 -0.077546 -0.123556 -0.136944 0.047984 -0.072929 -0.115592 -0.117023 -0.004887 0.051836 0.026697 -0.229950 -0.120529 -0.213923 -0.282796 -0.081088 0.043212 0.119393 -0.035857 0.111429 0.087621 0.049633 0.120235 -0.013514 -0.156269 -0.029850 -0.100452 -0.029066 0.113986 -0.173232 -0.205353 -0.427022 -0.385309 -0.364775 -0.357536 -0.395497 -0.254011 -0.369356 -0.427274 0.239537 0.208394 0.055254 0.189809 0.178790 0.108638 0.118253 0.186906 0.299540 0.312091 0.208273 0.243253 0.019291 -0.005036 -0.082661 -0.133951 -0.196806 -0.130535 -0.290194 -0.311917 -0.480691 -0.520079 -0.556555 -0.426889 0.029658 -0.097181 -0.113221 -0.190699 0.001288 -0.026850 -0.024857 0.059281 0.074771 0.042947 -0.110459 0.021936 0.019763 -0.074871 -0.065876 0.005925 0.132574 0.137726 0.011564 0.061951 -0.165283 -0.207258 -0.264814 -0.317841 0.029032 0.106196 -0.050332 -0.100090 -0.278102 -0.329317 -0.392758 -0.235953 0.018760 -0.113555 -0.142786 -0.193915 0.007194 -0.016323 -0.019362 0.094479 -0.279539 -0.282192 0.530962 0.333983 0.123325 -0.052046 -0.134682 0.143908 0.100281 0.119101 0.314659 0.417360 -0.251667 -0.316987 -0.433074 -0.002221 -1.328292 -0.972096 0.049382 -0.090579 -0.171978 -0.340924 0.759780 1.547846 0.527281 0.936799 -0.577346 0.182451 -0.657751 -0.554704 1.341501 0.529414 1.163988 0.362276 0.349881 -0.157385 0.636470 0.799032 0.371621 -0.412887 0.536694 -0.060462 1.027790 -0.007200 1.091242 0.875220 -3.024283 -1.266009 -0.331366 -0.458413 0.009297 -0.417283 0.045323 0.194117 0.269621 -0.210049 0.666518 0.477178 -0.006717 -0.869909 1.097958 0.768756
-1.607087 -0.163876 -0.200765 -0.237879 -0.165051 -0.112930 -0.282742 -0.232109 -0.212324 -0.141774 -0.286345 -0.195461 -0.049509 -0.250999 -0.312932 -0.302260 -0.309020 -0.102493 -0.075297 -0.115022 -0.123089 0.009374 -0.138158 -0.226315 -0.422605 0.168204 0.025672 0.374713 -0.096942 0.218262 0.034286 0.316834 0.454066 -0.056566 -0.136881 -0.237843 -0.189128 -0.013354 -0.228713 -0.217200 -0.183247 0.038648 -0.129700 0.139009 0.279964 -0.132777 -0.201280 -0.226369 -0.238375 0.051219 0.033825 0.028467 -0.062896 0.348888 0.328234 0.026904 -0.230740 0.274520 0.109044 0.630191 0.044912 0.401210 0.171271 0.485021 0.641140 -0.481526 -0.344352 0.063110 -0.288650 0.098490 0.039856 -0.125115 -0.239320 0.192162 0.185188 0.125210 -0.002001 0.103601 -0.008538 -0.099757 0.112669 -0.030537 -0.094685 0.024256 0.011125 0.051246 0.087773 0.035983 0.004010 -0.481417 -0.468681 -0.664322 -0.465439 -0.861032 -0.717009 -0.552738 -0.589329 -0.071006 0.041519 0.412560 0.105563 0.444360 0.360822 0.185368 0.077715 0.432116 0.450478 0.427897 0.308579 0.270218 0.240294 0.239205 0.451715 0.363901 0.286595 0.333675 0.348146 0.390446 0.448253 0.437543 0.417164 -0.438055 -0.415153 -0.523284 -0.326875 -0.666361 -0.540430 -0.328872 -0.391416 0.301987 0.152891 -0.120265 -0.193157 0.410652 0.172618 0.253933 0.457957 0.124203 0.142481 -0.318840 -0.257272 0.767574 0.208056 0.799904 -0.354935 -0.582796 -0.548290 0.369908 0.204319 -0.192738 -0.127115 -0.402856 -0.717423 -1.320051 -1.136873 -0.816172 -0.725376 -0.552241 -0.246098 0.289561 -0.110707 -0.797634 0.489417 -0.228849 -0.216956 -1.032875 -0.894189 1.099843 0.781342 0.840035 1.224448 1.393237 1.490281 1.085271 0.271502 2.401542 1.438325 -2.224073 -1.190648 0.245510 0.458385 -0.395026 -0.486434 1.952974 1.710872 -0.776497 0.033107 0.374520 0.257120 -0.107646 -0.230912
-0.814103 -0.276251 -0.178343 -0.192013 -0.198505 -0.429283 -0.344903 -0.404694 -0.410442 -0.071682 -0.087250 -0.133761 -0.121603 -0.222605 -0.145689 -0.232702 -0.259539 0.026580 -0.014187 -0.122909 -0.153093 0.182714 0.177271 0.065938 0.009654 0.055924 0.100864 0.119997 0.055584 0.147038 0.347312 0.240066 0.176741 -0.150131 -0.056881 -0.073584 -0.081153 -0.341590 -0.258532 -0.324980 -0.342626 0.112150 0.083366 0.076448 0.076923 -0.105118 -0.054063 -0.125791 -0.154736 -0.008323 -0.033781 -0.147176 -0.164269 0.376293 0.403103 0.125994 0.058769 0.236817 0.265736 0.226172 0.177840 0.349448 0.501626 0.448453 0.383263 -0.460146 -0.501616 -0.531034 -0.427570 -0.019446 -0.054427 -0.261039 -0.246398 0.209707 0.222610 0.173755 0.172683 0.161400 0.144644 -0.095243 -0.166373 0.096877 0.121856 0.055975 0.043890 -0.129173 -0.144442 -0.100048 -0.059127 0.212509 0.175533 0.177098 0.134383 0.068697 0.040246 0.171450 0.223224 -0.366622 -0.408965 -0.455592 -0.351835 -0.015444 -0.067266 -0.205753 -0.186289 0.175574 0.188651 0.123949 0.133865 0.112784 0.086845 -0.136246 -0.197437 0.112120 0.144889 0.077612 0.072216 -0.106543 -0.128356 -0.031857 0.004893 0.140072 0.103711 0.159360 0.125322 0.124079 0.097327 0.202060 0.248321 0.107564 -0.006511 0.469644 0.216179 0.045822 0.069840 -0.153682 -0.264747 -0.275296 -0.155008 0.285827 0.229594 -0.246418 -0.247550 0.000377 0.044136 0.112259 -0.091845 -0.045762 0.182287 0.127897 0.300388 0.121572 -0.033190 -0.135253 0.419188 0.189953 0.284549 0.126381 -0.015224 -0.055997 0.085042 -0.205251 -0.120128 0.771506 0.128297 0.151247 -0.457587 0.363631 0.207041 0.345518 0.251508 0.122983 -0.368754 -0.250683 -0.396669 0.122288 -0.052234 0.120621 0.081533 -1.574861 -1.210879 0.765643 1.210038 0.118466 0.332479 0.106324 -0.240384 -0.801254 -0.543692 0.127560 0.112639
1.878289 0.013020 0.015298 0.015586 -0.023019 -0.093974 -0.023588 -0.078231 -0.137330 -0.060791 0.097329 0.113543 -0.076480 0.065863 0.080339 0.027907 -0.009747 0.349733 0.303958 0.302356 0.260880 -0.314388 -0.203584 -0.065542 0.020810 0.057233 0.098686 -0.238240 -0.016829 -0.021606 0.110448 -0.046528 -0.158159 0.112630 0.135143 0.154834 0.129340 0.021196 0.091220 0.060584 0.000921 -0.090411 0.113440 -0.073380 -0.268594 0.083639 0.088112 0.071768 0.039232 0.346470 0.328159 0.304605 0.294586 -0.405869 -0.410663 -0.164823 -0.034384 0.138720 0.203184 -0.161000 0.089077 0.072574 0.241726 0.062092 -0.060794 0.331405 0.257675 0.040188 0.197010 0.211659 0.194683 0.166214 0.245878 0.335936 0.342772 0.304512 0.347015 -0.076255 -0.035923 0.128497 0.056317 0.165229 0.151369 0.149423 0.171856 0.225157 0.175862 0.215666 0.245539 -0.629408 -0.650617 -0.599121 -0.642712 -0.223974 -0.250077 -0.238276 -0.248379 0.607241 0.558327 0.312832 0.452189 0.417213 0.411597 0.404093 0.485176 0.287332 0.272197 0.287848 0.317258 0.049876 0.045058 0.216755 0.144322 -0.186572 -0.196876 -0.194091 -0.174144 -0.086484 -0.128982 -0.061670 -0.029034 -0.609623 -0.639715 -0.609769 -0.663490 -0.153252 -0.189888 -0.261052 -0.271502 0.025934 0.043303 0.426334 0.262617 -0.177398 -0.283627 -0.001068 -0.072598 0.064904 0.160508 0.502980 0.345950 0.148174 0.050225 -0.436855 -0.252485 0.184175 -0.005759 0.256923 0.118704 0.070066 0.296178 0.066092 0.303127 0.572228 0.351066 0.149213 0.145902 -1.208254 -0.663529 0.244146 -0.169787 0.018198 -0.628836 -0.606672 -0.762657 -0.189628 -0.077172 0.407753 -0.024429 0.012158 -0.478308 0.334520 0.294700 0.943912 0.692015 -0.388650 -0.295762 0.646047 -0.052237 0.911654 0.184543 -1.569872 -1.363362 -0.000991 0.052214 0.597474 0.586738 0.276746 0.662085 -0.674660 -1.170101
5.051651 -0.134636 -0.152842 -0.186462 -0.221851 -0.063947 -0.059868 0.054738 0.076160 -0.124213 -0.032329 -0.297873 -0.302494 0.101229 0.222933 0.227648 0.255490 0.228826 0.486114 0.216340 0.417347 -0.577547 -0.765860 -0.338007 -0.099603 0.256851 0.246019 -0.147974 0.147354 0.144737 0.029568 0.020420 -0.006215 -0.120780 -0.137102 -0.160569 -0.195490 -0.065827 -0.043418 0.054102 0.096500 0.335639 0.394171 0.197673 0.148023 0.405846 0.527169 0.543287 0.561130 0.287272 0.431853 0.321437 0.462041 -0.478484 -0.575682 -0.227228 -0.006120 0.422593 0.434083 0.140608 0.411008 0.392181 0.335891 0.280514 0.259281 -0.327132 -0.355667 -0.490010 -0.400309 -0.469077 -0.312904 -0.227622 -0.230893 -0.277655 -0.296259 -0.138364 -0.064613 -0.151674 -0.067241 -0.018286 -0.104961 -0.040575 -0.045421 0.004917 0.035952 0.433609 0.441831 0.431049 0.296138 0.508591 0.604597 0.671678 0.592529 0.556598 0.480096 0.317488 0.299070 -0.163275 -0.195599 -0.336408 -0.247771 -0.384108 -0.189541 -0.118742 -0.138093 -0.305434 -0.332026 -0.100601 -0.030030 -0.067691 0.018997 0.063441 -0.014914 0.030642 0.008488 0.031235 0.057182 0.487196 0.482809 0.504518 0.346892 0.460396 0.553417 0.606388 0.515764 0.609761 0.535337 0.360558 0.347385 0.022012 -0.062143 -0.210882 0.040844 -0.327432 -0.097385 -0.264466 -0.451687 -0.075566 -0.127018 0.049728 -0.379579 0.023385 0.254227 0.300478 0.628160 0.842057 0.497991 -0.150703 0.436704 0.293467 0.397910 -0.322750 -0.755169 -0.678674 -0.536785 2.009921 1.343887 1.634755 1.193117 -1.418021 -0.697572 -1.031096 -0.269808 -0.493410 0.023461 -0.188261 -0.322441 -0.924487 0.031443 -0.074386 0.117617 -2.653985 -1.437871 -1.583446 -0.818712 1.167286 -0.291614 0.715711 0.708327 -0.089729 0.523519 -0.535812 -0.708113 -2.231999 -1.922906 -0.269722 -0.032674 0.126632 0.832846 -0.538808 -0.224475
1.864126 0.207968 0.287481 0.133407 0.135621 -0.121387 -0.085225 -0.147381 -0.212011 -0.264766 -0.095078 -0.233976 -0.334547 0.003071 -0.011171 -0.066474 -0.124387 0.322886 0.095507 0.304416 0.163362 -0.228415 0.363979 -0.124430 -0.298596 -0.226722 -0.141436 0.301796 0.105863 -0.201286 0.362118 -0.140780 -0.165553 0.337695 0.399273 0.251695 0.267269 -0.078575 -0.069487 -0.119296 -0.181991 0.000807 0.164222 -0.093151 -0.163968 0.280344 0.235805 0.202281 0.133688 0.354096 0.188171 0.329595 0.271251 -0.316450 0.101543 -0.205920 -0.345744 -0.110008 -0.012293 0.253062 0.145342 -0.076787 0.371928 -0.071256 -0.142871 0.137493 0.085254 -0.178087 0.122025 0.077483 0.046872 0.150053 0.206940 0.405580 0.438355 0.276589 0.319228 0.357959 0.329691 0.441089 0.215610 -0.403273 -0.319839 -0.241651 -0.270419 -0.109216 -0.113408 -0.158704 -0.093309 -0.123540 -0.156807 -0.144727 -0.174164 -0.009560 -0.134668 -0.206032 -0.101232 0.122883 0.096792 -0.135025 0.147029 0.106856 0.081636 0.192219 0.243579 0.327419 0.362527 0.180977 0.241355 0.410839 0.356111 0.458247 0.228007 -0.402170 -0.290835 -0.171996 -0.240821 -0.020480 -0.052381 -0.110336 -0.062745 -0.116304 -0.159658 -0.155665 -0.166390 0.023119 -0.080993 -0.178676 -0.042579 0.241097 0.435781 0.812992 0.279121 -0.178933 -0.029495 -1.046193 -0.738080 -0.287620 -0.300999 0.549827 0.208915 0.131559 -0.189157 -0.267331 0.446946 0.109299 0.378130 0.432041 0.315071 0.083644 0.532306 0.696012 1.072931 0.477249 0.246562 1.072905 0.997422 -0.188271 0.234151 0.129918 -0.515561 0.008374 -0.984035 0.358493 0.158853 0.113040 -0.003375 -0.465880 -1.088752 -0.490981 -0.144641 -0.163461 -0.521636 0.507323 -0.079245 -0.521957 0.148904 -0.255609 -0.465840 0.052933 -0.257928 -0.048629 0.246325 0.326713 0.746766 -2.026071 -2.703324 -0.349433 -0.826331 -0.431478 -0.768145
-0.506547 -0.242065 -0.103089 -0.011036 0.007084 -0.141136 -0.047611 -0.119815 -0.141705 -0.197313 -0.131441 -0.047915 -0.096872 -0.007507 -0.016259 -0.081025 -0.103106 0.216705 0.066107 0.313447 0.267876 -0.295688 -0.130037 -0.353673 -0.356881 0.063312 0.082355 0.051759 0.007468 0.122295 0.305591 0.071857 0.024749 -0.159304 -0.041830 0.004721 0.017444 -0.127115 -0.044416 -0.088230 -0.133390 -0.233342 -0.197165 -0.177209 -0.214020 -0.019833 -0.032441 0.036113 -0.002898 0.271901 0.163144 0.341567 0.316658 -0.312534 -0.208873 -0.274525 -0.257036 0.229836 0.230076 0.193809 0.181910 0.289100 0.414252 0.208557 0.142093 -0.045439 -0.097010 -0.318746 -0.198845 -0.237764 -0.293236 -0.183747 -0.138197 0.287561 0.308068 0.172139 0.188699 -0.043866 -0.037582 0.010760 -0.058253 0.189960 0.220397 0.132910 0.108507 0.036526 0.011803 0.045395 0.159217 -0.124370 -0.197574 -0.114530 -0.187124 0.073389 0.045047 -0.064950 -0.012343 0.248308 0.199657 0.010279 0.121070 0.098163 0.024172 0.100335 0.157932 0.334322 0.359110 0.215066 0.248207 0.009347 0.016305 0.059427 0.006884 -0.135387 -0.077600 -0.166694 -0.204328 -0.204405 -0.235467 -0.248577 -0.134452 -0.154706 -0.227883 -0.186524 -0.234771 0.021010 0.001639 -0.119063 -0.044722 -0.102582 -0.278204 0.455984 0.263205 0.104301 -0.118961 0.124724 0.363622 -0.196018 0.015443 0.419556 0.516805 0.001966 -0.134456 -0.758448 -0.573254 0.064682 0.051020 -0.032840 0.113283 0.176558 0.036019 0.097822 0.237645 0.291324 0.653932 0.018388 0.295898 -0.408421 -0.240354 0.539132 0.162471 -0.265008 -0.398378 -0.338084 -0.897682 0.405820 0.192590 0.809030 0.626613 -0.093180 -0.213027 1.147502 0.638600 0.653457 0.461705 -1.008399 -0.719545 -0.474204 -0.581961 -1.050927 -0.946226 0.199589 0.443632 0.157879 0.096058 0.104792 0.359223 -0.767469 -1.076512 0.790598 0.886722
-0.406579 0.003022 -0.053558 -0.135120 -0.072377 -0.174959 -0.337827 -0.309645 -0.286730 0.054000 -0.056587 0.061580 0.062703 0.051135 0.028848 -0.001282 0.049080 -0.100431 -0.080028 -0.169477 -0.191156 -0.140418 -0.135640 -0.070117 -0.274641 -0.369022 -0.439386 -0.191952 -0.365560 -0.337092 -0.268850 -0.242982 -0.166962 0.252166 0.174502 0.067322 0.131801 0.003836 -0.228565 -0.185047 -0.158796 0.434758 0.221348 0.614951 0.645668 0.397509 0.356746 0.312088 0.300076 0.107965 0.096074 0.015522 -0.005916 0.215623 0.325871 0.291369 0.030339 -0.125916 -0.194309 0.159464 -0.007969 -0.079408 -0.023231 0.013481 0.095530 0.397347 0.484554 0.656442 0.498596 0.745808 0.744761 0.641039 0.591450 0.322104 0.291162 0.353030 0.269309 0.538715 0.441518 0.398868 0.497765 -0.440505 -0.473658 -0.395762 -0.413357 -0.276016 -0.224526 -0.292810 -0.338870 0.013503 0.021434 -0.223290 -0.018032 -0.372381 -0.245542 -0.132359 -0.153617 -0.029632 0.054387 0.231640 0.094938 0.363861 0.352260 0.244996 0.178906 0.041940 0.031717 0.118438 0.034801 0.242496 0.174081 0.118661 0.236606 -0.723385 -0.756610 -0.715950 -0.712650 -0.619148 -0.571663 -0.612683 -0.645584 -0.069234 -0.044069 -0.219954 -0.027986 -0.416142 -0.318948 -0.157132 -0.192213 0.380333 0.281809 0.100122 -0.006451 0.325474 0.283523 -0.696774 -0.206095 -0.209064 -0.037691 -0.202542 -0.088942 0.392011 0.239028 0.730422 0.057948 -0.270866 -0.231573 0.524772 -0.280506 -0.095365 -0.077668 -0.342126 -0.050819 -0.924050 -1.222366 -0.015606 0.168535 -0.124510 0.064259 1.009304 0.555398 0.111846 0.155916 -0.237786 0.160959 -0.900025 -0.686045 0.269926 0.046113 0.560271 1.164426 -0.029981 -0.368740 0.657704 -0.210553 0.927063 0.675817 0.322857 0.550542 0.635566 0.251745 -0.447701 -0.647237 0.935075 0.754079 -0.511108 -0.625152 0.826074 0.866842 -1.768222 -1.485792
4.014916 -0.003199 -0.039448 -0.033563 -0.018059 0.118946 0.075709 0.161140 0.181842 -0.012295 -0.040153 -0.118443 -0.070947 0.005741 0.033243 0.048321 0.027721 -0.062426 0.051321 -0.020267 0.062401 -0.116498 -0.212948 -0.045757 0.007223 0.105986 0.089867 0.031501 0.099073 0.099861 -0.027198 0.020701 0.026535 0.029629 -0.013125 0.009899 0.021909 0.158891 0.110639 0.190904 0.225403 0.053003 0.020944 -0.013495 0.013849 0.054154 0.075989 0.087820 0.065428 0.090145 0.155425 0.134955 0.183046 0.051669 0.006550 0.096594 0.127629 0.240574 0.234446 0.212113 0.237653 0.224455 0.142685 0.172070 0.187139 -0.078121 -0.071321 -0.041975 -0.092822 -0.099579 -0.048975 -0.044861 -0.075114 -0.121049 -0.134589 -0.099292 -0.103118 0.012193 0.020779 0.082438 0.087216 0.001273 -0.018762 0.045444 0.061330 0.153297 0.174955 0.186937 0.132600 0.128871 0.180489 0.220814 0.228494 0.180187 0.184091 0.158314 0.126217 -0.045068 -0.042344 -0.015210 -0.064251 -0.076467 -0.006030 -0.003995 -0.033082 -0.090582 -0.100290 -0.043307 -0.045427 0.055085 0.075007 0.134130 0.140454 0.019126 -0.008344 0.061047 0.088944 0.202850 0.224350 0.253742 0.188484 0.182399 0.234630 0.282936 0.281661 0.226615 0.227517 0.208311 0.165663 0.042831 0.059863 -0.170887 -0.077098 -0.143796 -0.029228 0.187392 0.085395 0.067055 0.046930 -0.070658 -0.223922 0.020771 0.115680 0.113164 -0.059195 0.736743 0.560955 0.065233 0.206259 0.200497 0.236133 -0.356531 -0.610794 -0.522345 -0.592938 0.472850 0.061869 0.489288 0.371698 -1.524923 -0.743038 -0.747003 -0.360123 -0.334266 0.002559 -0.253120 -0.349177 -0.289449 0.180190 -0.023852 0.155880 -0.734729 -0.165415 -0.478488 -0.340667 0.933177 0.176632 0.357736 0.444292 0.139148 0.302784 -0.214588 -0.248901 -0.296152 -0.107304 -0.267166 -0.143226 -0.198152 0.253805 -0.329679 -0.217957
2.226923 0.119181 0.160239 0.155544 0.096389 0.039766 0.144404 0.114172 0.065832 0.062707 0.180754 0.075359 -0.024593 0.158565 0.214562 0.182723 0.191224 0.053864 0.031157 0.074240 0.061303 -0.060985 -0.006666 0.002614 0.129615 0.023400 0.118880 0.018508 0.190522 0.051541 0.313832 0.088527 0.019932 -0.018952 0.053789 0.086818 0.036995 -0.072128 0.081919 0.060856 0.006666 -0.103484 0.032715 -0.169323 -0.264764 0.032943 0.092912 0.089245 0.099747 -0.031345 -0.029911 -0.007847 0.034856 -0.255773 -0.245867 -0.117135 0.054818 -0.028933 0.073732 -0.207917 0.051193 -0.078793 0.143011 -0.063582 -0.156651 0.069199 -0.007745 -0.240622 0.006363 -0.083247 -0.087712 -0.046168 0.025115 -0.049902 -0.031293 0.010381 0.073184 -0.084863 -0.014776 -0.020438 -0.140725 0.055551 0.094582 0.020441 0.020981 0.090650 0.047413 0.096422 0.123126 0.142842 0.132266 0.251876 0.128146 0.338424 0.243651 0.167016 0.208671 -0.109304 -0.169229 -0.366465 -0.152446 -0.180572 -0.181983 -0.127630 -0.060356 -0.062596 -0.056986 -0.058467 -0.008519 -0.066922 -0.042943 -0.106282 -0.226780 0.098138 0.142527 0.118870 0.084567 0.152336 0.098819 0.100374 0.119236 0.234563 0.214410 0.269091 0.152477 0.307030 0.231373 0.139149 0.202630 -0.148992 -0.091471 0.171291 0.145416 -0.286213 -0.153644 -0.295854 -0.249133 -0.099374 -0.134835 0.452213 0.337617 -0.298526 -0.060160 -0.578701 0.105485 -0.045565 0.022528 -0.568191 -0.232029 -0.070517 0.054820 0.464498 0.322025 1.158663 1.042602 0.449548 0.456250 0.334535 0.066641 1.061327 0.623128 0.318044 -0.313383 0.377053 0.169364 0.265712 0.215218 -0.503179 -0.272291 -0.786049 -0.891029 -0.917666 -0.764345 -1.069810 -0.519832 -0.787591 -0.565889 0.562685 0.105082 -0.320649 -0.263444 0.170556 0.303254 -1.187068 -0.897264 0.544167 -0.070581 -0.246693 0.040837 -0.219758 -0.241268
-2.457674 -0.137248 -0.032581 0.108863 0.132295 0.055360 0.094185 0.066071 0.046405 -0.048670 0.028556 0.215024 0.115292 0.155522 0.054331 0.102778 0.149361 0.089787 -0.003312 0.235508 0.148811 -0.146575 -0.033663 -0.183310 -0.235241 -0.043166 -0.020028 -0.023682 -0.080583 -0.016697 0.022830 -0.011226 -0.010064 -0.224236 -0.131688 -0.045598 -0.037133 -0.055674 -0.046206 -0.029317 -0.067171 -0.261498 -0.182686 -0.078831 -0.140841 -0.010338 -0.088439 -0.017826 0.018940 0.128144 0.074281 0.226488 0.170915 -0.290972 -0.269537 -0.220493 -0.244948 -0.155143 -0.146369 -0.174074 -0.200681 -0.168665 -0.160240 -0.203300 -0.219471 0.194058 0.200192 0.107951 0.099754 -0.065506 -0.148871 0.035895 0.058370 0.085137 0.093979 0.035400 0.014240 -0.043574 -0.053030 0.030458 0.065671 -0.112630 -0.103355 -0.166410 -0.189981 -0.070261 -0.079822 -0.144112 -0.035780 -0.128157 -0.232859 -0.233592 -0.245985 -0.069376 -0.034791 -0.185802 -0.165566 0.096806 0.107500 0.046176 0.027686 -0.089522 -0.190426 -0.062073 -0.020547 0.102274 0.113177 0.042601 0.028986 -0.041043 -0.045143 0.022019 0.070334 -0.011644 0.009338 -0.038839 -0.085950 0.010451 0.005046 -0.141702 -0.008662 -0.025294 -0.131188 -0.185430 -0.175938 -0.066574 -0.027689 -0.174374 -0.129674 -0.206593 -0.257456 0.197699 0.152070 0.248079 -0.055482 0.278533 0.449827 0.031016 0.219487 -0.014193 0.260414 0.128410 -0.063134 -0.348045 -0.324062 -0.704340 -0.643620 -0.333306 -0.544983 0.014236 -0.182973 -0.289750 0.228214 0.104128 0.376597 -0.487920 0.002204 -0.585694 -0.502581 1.202003 0.535237 0.343016 0.308083 -0.419339 -0.674014 0.561454 0.738416 0.962982 0.443800 0.188400 -0.162045 1.162324 0.504790 1.260601 1.152017 -0.715195 0.069765 -0.804150 -0.955849 -0.149536 -0.473145 -0.427339 -0.500721 0.095778 -0.156886 0.525898 0.897166 0.697343 -0.207539 0.737070 0.761964
-1.000085 -0.002343 -0.102531 -0.087579 -0.047503 0.126611 -0.040810 0.013469 0.052066 0.153868 -0.099541 -0.068692 0.139475 -0.063849 -0.152032 -0.060264 -0.034335 -0.330068 -0.313474 -0.281095 -0.265920 0.158039 -0.034796 0.043368 -0.014108 -0.114290 -0.195217 0.159274 -0.009546 0.085710 -0.097517 0.215116 0.340380 -0.050550 -0.156186 -0.155809 -0.120318 0.064369 -0.123302 -0.073658 -0.028846 0.136032 -0.130321 0.008859 0.201379 -0.113971 -0.187693 -0.107113 -0.072297 -0.270542 -0.283393 -0.244053 -0.253886 0.379172 0.313405 0.245166 0.150143 -0.122449 -0.206112 0.345998 0.113551 0.104992 -0.060019 0.240856 0.384645 -0.408359 -0.299168 0.064358 -0.226852 -0.024695 -0.048464 -0.163324 -0.259349 -0.102486 -0.111800 -0.104228 -0.208529 -0.141340 -0.213777 -0.382119 -0.183947 0.149559 0.104538 0.142485 0.116345 -0.086658 -0.041930 -0.070417 -0.099273 0.006609 0.042521 -0.067963 0.118551 -0.519817 -0.380502 -0.155547 -0.206779 -0.086344 0.005495 0.365170 0.099470 0.341895 0.296883 0.125854 0.030420 0.195463 0.196294 0.196131 0.088079 0.010252 -0.024098 -0.187149 0.008324 0.403126 0.350181 0.332718 0.343833 0.070201 0.132234 0.125063 0.105015 -0.010565 0.037518 -0.021735 0.146289 -0.464835 -0.338548 -0.018029 -0.092334 0.064389 -0.012634 -0.405759 -0.230611 0.325424 0.281598 0.062386 0.077975 -0.115386 -0.108225 -0.206278 0.057603 0.188282 0.208282 0.468758 -0.076712 -0.069644 0.032400 -0.219173 -0.446746 -0.621790 -0.647423 -0.323015 -0.632638 -0.601013 -0.540860 -0.448285 -0.531362 -0.046420 -0.020879 1.097961 1.045315 0.571564 0.658164 0.435218 0.595356 -0.998041 -0.884705 0.386956 0.729716 0.339977 0.632168 -0.002077 0.288856 -0.955831 -1.086463 0.770346 0.153127 0.177940 0.678620 0.351674 0.271513 0.796383 0.581898 0.751732 0.662225 -0.483200 0.082712 -0.138111 0.141356 -0.489532 -0.311018
-5.183810 -0.225250 -0.137696 -0.023284 -0.018842 -0.147008 -0.079267 -0.160311 -0.144488 0.076902 0.115444 0.314718 0.137177 0.133633 0.072192 0.114567 0.214903 0.022208 -0.117158 0.027806 -0.108513 0.101640 0.280174 0.046416 -0.083337 -0.141415 -0.133856 0.018722 -0.133353 -0.079606 -0.019313 -0.044921 -0.029989 -0.239755 -0.150548 -0.071310 -0.065528 -0.198028 -0.153261 -0.212420 -0.226006 -0.210875 -0.161735 -0.030138 -0.148736 -0.034268 -0.095184 -0.052435 0.035757 -0.080896 -0.150461 -0.090269 -0.177938 -0.049730 0.030675 -0.059140 -0.163982 -0.302837 -0.313023 -0.200220 -0.323635 -0.297072 -0.273115 -0.283942 -0.282653 0.323175 0.336531 0.258642 0.249462 0.129725 0.038382 0.082161 0.096181 -0.024753 -0.009089 -0.079782 -0.106410 0.057110 0.010380 -0.109351 -0.078977 0.048658 0.070185 -0.086148 -0.119772 -0.328383 -0.337289 -0.404129 -0.285183 -0.116253 -0.273731 -0.303818 -0.331437 -0.312346 -0.288720 -0.311993 -0.241051 0.199503 0.220344 0.146764 0.140521 0.067562 -0.055568 -0.007677 0.021824 0.036674 0.054119 -0.056374 -0.058642 0.018323 -0.030987 -0.122541 -0.098139 0.103189 0.138506 -0.011361 -0.067859 -0.264294 -0.273937 -0.367709 -0.216174 -0.091565 -0.249691 -0.277941 -0.279123 -0.370347 -0.339075 -0.359438 -0.284673 -0.245128 -0.197542 0.381907 0.222299 0.296788 0.072577 0.300310 0.410496 -0.327555 -0.141743 -0.234588 0.089429 -0.054326 -0.228160 -0.028724 -0.013029 -0.774468 -0.672751 0.086987 -0.224009 -0.612784 -0.621332 -0.373945 0.384821 0.301922 0.618849 -0.588454 0.048048 -0.669805 -0.456496 1.053470 0.185976 1.477922 0.804755 0.687842 0.618248 1.036338 1.109029 0.722726 -0.449671 0.801185 0.413334 1.162198 0.163506 0.961268 0.546608 -1.084688 0.152075 -0.811892 -1.126258 0.152646 -0.115084 0.377422 0.597205 -0.063496 -0.241791 0.721420 0.705008 -0.050657 -0.885671 0.981748 0.630040
-1.334444 -0.225837 -0.316774 -0.207430 -0.179699 0.101566 -0.033520 0.038894 0.059774 0.190833 -0.059314 -0.027677 0.207607 -0.074359 -0.206590 -0.101327 -0.107219 -0.219042 -0.174739 -0.111852 -0.076681 0.045587 -0.187169 -0.049980 -0.061669 0.138087 0.037466 0.172587 0.031158 0.260109 0.025801 0.315988 0.409873 -0.318403 -0.397214 -0.339309 -0.331740 0.093116 -0.023562 0.005622 0.028836 0.058395 -0.170815 0.029864 0.216909 -0.261011 -0.358581 -0.285438 -0.262054 -0.201751 -0.186995 -0.084666 -0.107994 0.184950 0.068297 0.058058 0.007827 0.106821 -0.002255 0.287751 0.070692 0.282348 0.052961 0.357542 0.472905 -0.449689 -0.347588 0.013207 -0.304054 -0.027172 -0.075346 -0.159615 -0.247088 -0.032141 -0.056749 -0.045903 -0.152787 -0.256560 -0.318045 -0.333426 -0.100487 0.206766 0.133302 0.188600 0.174581 0.078099 0.096627 0.059162 0.059920 -0.144571 -0.130388 -0.173212 -0.010765 -0.306178 -0.167471 -0.002823 -0.095453 -0.217536 -0.138474 0.199539 -0.088422 0.201533 0.132728 0.028397 -0.045017 0.250436 0.231473 0.267704 0.141098 -0.146776 -0.167924 -0.140609 0.099422 0.367773 0.276075 0.286413 0.310255 0.142973 0.198138 0.185205 0.200387 -0.161425 -0.131431 -0.134571 0.006772 -0.302862 -0.183732 0.022882 -0.097617 0.063572 -0.147945 -0.381381 -0.268909 0.320063 0.207532 0.473680 0.430436 0.222242 0.185557 -0.095707 0.085127 0.312960 0.285131 0.283653 -0.433553 0.036746 -0.140523 -0.289968 -0.188090 -0.074399 -0.175617 -0.743675 -0.747528 -1.309853 -0.966088 -0.809643 -0.893343 -0.248633 -0.211047 0.967969 0.975794 -0.616830 0.434895 -0.222197 -0.902582 -0.556251 -0.703986 1.313998 1.294116 -0.183043 -0.117687 1.170677 1.189188 0.203500 -0.048050 1.250535 0.274656 0.358420 0.764248 -0.035532 0.209010 -0.086835 -0.190424 0.922501 0.856024 -0.287001 0.502453 0.091111 0.469888 -0.196310 -0.003988
-0.757296 -0.144396 -0.132070 -0.136187 -0.133529 -0.162099 -0.148470 -0.145508 -0.120911 0.109949 0.083735 0.050203 0.000362 -0.004117 0.003793 0.049389 0.092752 -0.112256 -0.073917 -0.180727 -0.176987 0.148571 0.177346 0.215837 0.145017 -0.057355 -0.049786 0.024786 0.014025 -0.055797 -0.080643 -0.032827 -0.027717 -0.175983 -0.158254 -0.153268 -0.156374 -0.179804 -0.164587 -0.174298 -0.150717 0.197486 0.172346 0.195524 0.158809 0.045003 0.056454 0.041629 0.078090 -0.137333 -0.107191 -0.189608 -0.185542 0.320278 0.363437 0.261890 0.187958 -0.046419 -0.034348 0.024030 0.003599 -0.022677 -0.032984 0.027544 0.037548 -0.278358 -0.265366 -0.225695 -0.235971 -0.097912 -0.086637 -0.198656 -0.215431 -0.225905 -0.236270 -0.202996 -0.199463 -0.036533 -0.053132 -0.169154 -0.170869 0.062593 0.066628 0.063334 0.052323 0.040155 0.039598 0.022797 0.022256 0.044258 0.005907 -0.000771 0.009195 -0.273383 -0.261720 -0.168438 -0.153925 0.024587 0.032974 0.048644 0.035809 0.145678 0.155744 0.080444 0.070983 0.032143 0.016434 0.045334 0.053868 0.173955 0.158168 0.049141 0.054022 0.288874 0.286001 0.288355 0.273639 0.204520 0.207958 0.245571 0.251538 0.023562 -0.011840 0.026765 0.035271 -0.232321 -0.223287 -0.142600 -0.129690 -0.022007 0.062415 0.102703 0.088952 0.053610 0.129212 -0.113526 -0.333614 -0.169268 -0.223490 -0.090855 -0.121546 -0.271714 -0.203298 0.550595 0.587002 0.130612 -0.000456 -0.039947 0.132731 -0.027170 0.068077 -0.340246 -0.223551 -0.302407 -0.180834 0.097346 0.006139 0.440520 0.424659 -0.182612 -0.229317 0.195546 0.318963 0.689715 0.453686 0.135261 0.324958 -0.015032 -0.364731 0.250810 0.130996 -0.774172 -0.894799 -0.146177 -0.095821 0.338152 0.369196 0.507334 0.357234 0.449795 0.546255 0.078058 0.085398 -0.459814 -0.299078 -0.034698 -0.202145 -0.353572 -0.519978 0.157521 0.057121
1.623590 0.018222 0.013691 0.056698 -0.003712 0.124700 0.208739 0.189991 0.132907 0.050454 0.112302 0.014093 -0.020169 0.056796 0.029967 0.073987 0.017825 0.236295 0.199218 0.270116 0.260845 -0.279945 -0.286807 -0.132620 0.084217 0.243936 0.309050 0.040179 0.252091 0.269851 0.383374 0.275110 0.196037 -0.157171 -0.125184 -0.054353 -0.111684 0.053424 0.181741 0.162923 0.105730 -0.238635 -0.077785 -0.414524 -0.480194 -0.207047 -0.210891 -0.140372 -0.138649 0.078787 0.064315 0.154652 0.169057 -0.492564 -0.606760 -0.349516 -0.068277 0.127720 0.208045 -0.123268 0.112127 0.191593 0.301202 0.200708 0.111001 0.167688 0.098556 -0.066672 0.080423 -0.043881 -0.079253 -0.032395 0.028788 0.169502 0.198415 0.141138 0.171101 -0.322612 -0.255126 -0.169448 -0.223445 0.283913 0.276327 0.228886 0.238490 0.105311 0.056590 0.074087 0.123119 -0.271346 -0.281688 -0.131124 -0.234200 0.150614 0.085513 0.055993 0.045617 0.384327 0.333515 0.149292 0.276982 0.069484 0.041608 0.109128 0.177502 0.154899 0.159369 0.131335 0.141849 -0.206383 -0.183590 -0.088585 -0.152712 0.086340 0.075125 0.046740 0.053451 -0.029055 -0.064245 -0.030105 0.011628 -0.309417 -0.333030 -0.213798 -0.323860 0.208329 0.153173 0.067903 0.057510 -0.156352 -0.198959 0.105145 0.081186 -0.249971 -0.266487 0.445027 0.169938 0.024285 -0.073845 0.465196 0.356996 0.137521 0.155850 -0.752464 -0.256311 0.386627 0.411875 -0.413387 -0.143842 -0.273596 -0.106453 0.007671 -0.087816 0.576686 0.826158 0.296154 0.237205 -0.520147 -0.457919 0.331453 0.329167 0.171452 -0.378995 -0.087129 -0.413491 0.527356 -0.065632 0.430051 0.416213 -0.436306 -0.890802 0.411995 0.485059 -0.737454 -0.432009 -0.432223 -0.456088 0.477384 -0.050081 -0.243932 -0.483682 -0.093637 0.177571 -0.630182 -0.425264 0.536051 0.575713 -0.217884 0.467827 -0.214446 -0.416864
-6.004510 -0.000043 0.103419 0.160421 0.147458 -0.162466 -0.064610 -0.240241 -0.284954 0.083237 0.142026 0.407015 0.259843 0.068412 0.001136 -0.051934 0.016307 -0.000801 -0.304132 -0.021837 -0.228093 0.377894 0.635060 0.071252 -0.094575 -0.282110 -0.250953 -0.040785 -0.209801 -0.204325 0.030424 -0.069573 -0.089051 -0.123718 -0.019852 0.022733 0.006373 -0.299916 -0.198795 -0.358641 -0.435207 -0.070920 -0.012363 0.171307 0.070666 -0.071679 -0.135881 -0.205603 -0.149765 -0.146816 -0.321423 -0.192108 -0.320088 0.182422 0.309776 -0.074298 -0.196971 -0.515265 -0.502687 -0.366115 -0.476776 -0.439534 -0.290451 -0.354663 -0.391870 0.280598 0.266061 0.216493 0.291536 0.372716 0.235575 0.177494 0.237746 0.399306 0.418916 0.260512 0.250229 0.005285 -0.049681 -0.175883 -0.169905 -0.099963 -0.046441 -0.224054 -0.252491 -0.610932 -0.653662 -0.672003 -0.518178 -0.259678 -0.408039 -0.481739 -0.512560 -0.361853 -0.356781 -0.251718 -0.177988 0.173897 0.161261 0.112429 0.189571 0.282719 0.102830 0.062535 0.125718 0.324735 0.343607 0.133392 0.133787 -0.102101 -0.170403 -0.275272 -0.280010 0.088119 0.152574 -0.017728 -0.072459 -0.467157 -0.514608 -0.569322 -0.379314 -0.258746 -0.411284 -0.490161 -0.493431 -0.340290 -0.329649 -0.222194 -0.126472 -0.166478 -0.216316 0.522130 0.234623 0.246024 0.010209 -0.006934 0.281610 0.108579 0.108856 0.180809 0.581858 -0.183697 -0.378684 -0.393328 -0.290493 -1.668015 -1.334571 0.034508 -0.403859 -0.331170 -0.487305 0.943248 1.588954 0.857422 1.118721 -1.486436 -0.369811 -1.336460 -1.066420 2.155443 1.275693 1.682702 0.798492 0.771197 -0.029600 0.612800 0.755371 0.682544 -0.109888 0.359842 -0.173904 2.080199 0.678121 1.556628 1.090980 -2.786844 -0.791611 -0.555061 -0.757610 -0.108448 -0.656176 0.328226 0.576165 1.192303 0.716039 0.733669 0.519459 -0.000316 -0.946854 0.984007 0.636323
-1.923899 -0.257263 -0.313105 -0.263906 -0.214744 -0.016855 -0.129433 -0.077519 -0.033758 0.072412 -0.092732 0.023881 0.159948 -0.141993 -0.171665 -0.141493 -0.130345 -0.185170 -0.074361 -0.203858 -0.144538 0.153905 -0.237767 -0.046628 -0.080482 0.268096 0.123986 0.110505 -0.073963 0.275775 -0.163712 0.290012 0.360237 -0.316073 -0.392560 -0.417351 -0.396563 -0.057188 -0.170258 -0.178747 -0.121547 0.067638 -0.071513 0.206413 0.324329 -0.215075 -0.223891 -0.232566 -0.198478 -0.146624 -0.102829 -0.158363 -0.199804 0.373950 0.167517 0.122700 0.041320 0.242428 0.086513 0.299857 0.001236 0.320850 -0.055295 0.361241 0.471364 -0.399245 -0.302895 0.053615 -0.305640 -0.046853 -0.075631 -0.230594 -0.330211 -0.127734 -0.149336 -0.160876 -0.248435 -0.206955 -0.267333 -0.335721 -0.104676 0.284793 0.199885 0.247556 0.259419 0.107331 0.126379 0.144779 0.111833 -0.270743 -0.249051 -0.359354 -0.237408 -0.540408 -0.391972 -0.242465 -0.319983 0.027812 0.098329 0.426298 0.091290 0.333175 0.288853 0.104901 0.018043 0.152389 0.142192 0.182831 0.090963 -0.014961 -0.005101 0.002887 0.242709 0.474303 0.365433 0.346746 0.388863 0.263581 0.311675 0.359485 0.334803 -0.348754 -0.316575 -0.352581 -0.238691 -0.504853 -0.371543 -0.175818 -0.274652 0.120009 -0.117487 -0.369534 -0.174362 0.231123 -0.013034 0.736473 0.629073 0.322001 0.316278 -0.554905 -0.300377 0.462460 0.246619 0.626465 -0.515165 -0.176305 -0.395868 0.257460 0.235771 -0.265045 -0.443182 -0.916688 -0.929973 -1.245480 -0.841539 -1.037668 -1.268179 -0.292762 -0.280142 -0.047918 -0.116655 -0.648521 0.846827 -0.243030 -0.339571 -0.668257 -0.563138 1.395604 0.810453 0.996512 0.985972 1.261620 1.412943 0.473764 0.166320 1.931331 0.815725 -1.216958 -0.507078 0.206175 0.528648 -0.478763 -0.599887 1.175833 0.822057 0.491745 1.585773 0.308794 0.480379 0.287131 0.272856
-2.171081 -0.190645 -0.115196 -0.143180 -0.137181 -0.357107 -0.286470 -0.388615 -0.384005 0.029418 -0.038704 0.015089 0.019516 -0.205479 -0.162009 -0.244220 -0.256614 -0.029703 -0.107675 -0.183355 -0.245269 0.337449 0.347527 0.221276 0.103562 -0.019281 0.000584 0.149332 0.026173 0.056497 0.207716 0.131408 0.092474 -0.152546 -0.082816 -0.098495 -0.097832 -0.333127 -0.264793 -0.365286 -0.375479 0.134470 0.068781 0.133912 0.146572 -0.160636 -0.135686 -0.224705 -0.242140 -0.095629 -0.139274 -0.227971 -0.271465 0.428469 0.476928 0.176696 0.049505 0.065308 0.067248 0.155330 0.038364 0.166114 0.272879 0.255355 0.217555 -0.334226 -0.356661 -0.332755 -0.284780 0.103975 0.047991 -0.178590 -0.178050 0.160731 0.172216 0.086600 0.071944 0.031327 -0.009299 -0.225570 -0.257470 0.025589 0.037412 -0.022465 -0.034739 -0.369960 -0.390055 -0.326970 -0.278819 -0.141681 -0.194101 -0.211259 -0.219208 -0.326543 -0.329298 -0.124501 -0.092916 -0.053702 -0.076526 -0.066653 -0.023577 0.323519 0.245301 0.065575 0.077758 0.317044 0.328824 0.202544 0.197860 0.155939 0.114560 -0.090252 -0.112388 0.244340 0.262349 0.207280 0.194069 -0.153925 -0.171874 -0.066757 -0.015152 0.024276 -0.025491 0.010364 0.010647 -0.052797 -0.054120 0.132863 0.159151 0.126011 0.043016 0.443440 0.187495 0.072058 0.096774 -0.057976 -0.182313 -0.171534 -0.100416 0.209553 0.213209 -0.270296 -0.288287 0.159479 -0.038939 -0.054108 -0.224519 0.105629 0.202410 0.044371 0.137273 -0.015277 0.044520 0.104743 0.098369 -0.360554 -0.056297 -0.257110 -0.217290 0.242658 0.167966 0.168465 0.146306 1.005608 0.315916 0.118154 -0.339228 0.586593 0.122073 0.060049 0.540972 0.670379 -0.033125 0.077778 -0.241571 0.123989 0.181997 0.217743 0.163429 -0.922383 -0.793702 0.806755 1.222754 0.571205 0.787712 0.157233 -0.168681 -0.914290 -0.727751 0.007740 -0.073695
1.374626 -0.019810 -0.036211 0.019347 -0.043193 -0.006913 0.111030 0.066084 0.018909 0.112074 0.223115 0.214616 0.062883 0.130775 0.167457 0.140963 0.104757 0.298680 0.355055 0.228450 0.257686 -0.214092 -0.313468 0.028186 0.239317 0.187115 0.228815 -0.341907 0.020254 0.067438 0.001880 -0.025640 -0.161748 -0.072085 -0.056235 0.049660 0.000292 -0.005427 0.136665 0.125381 0.081604 -0.087953 0.107516 -0.177491 -0.348645 -0.035122 0.003154 0.028492 0.030389 0.175999 0.234553 0.148750 0.184688 -0.421072 -0.606399 -0.180314 0.081972 0.131949 0.193385 -0.377378 -0.000405 0.022944 0.058981 -0.022997 -0.152130 0.343020 0.250702 0.035720 0.162798 0.102241 0.107762 0.098419 0.180803 0.095981 0.096736 0.132790 0.188853 -0.204199 -0.127662 -0.002528 -0.044519 0.229385 0.192866 0.140414 0.176974 0.188195 0.133464 0.192684 0.210774 -0.411188 -0.417924 -0.310186 -0.406515 0.017111 -0.005811 -0.038830 -0.074402 0.528844 0.456488 0.211548 0.314819 0.191892 0.215314 0.235396 0.320228 0.049128 0.018734 0.114067 0.146956 -0.086651 -0.060427 0.064726 0.020863 -0.068597 -0.114505 -0.155149 -0.108670 -0.079831 -0.121540 -0.035111 -0.020779 -0.413564 -0.427288 -0.341981 -0.461114 0.028710 -0.000586 -0.119085 -0.162135 -0.121996 -0.174385 0.122225 0.199793 -0.200639 -0.329293 0.407055 0.111164 0.084152 0.175999 0.276144 0.159773 0.063228 0.137138 -0.556939 -0.406292 0.373915 0.116641 0.035795 0.124425 0.082622 0.165741 -0.172707 -0.095887 0.374572 0.661545 0.061221 -0.177677 -0.723006 -0.432790 0.062226 0.065335 0.194888 -0.323599 -0.534001 -0.635835 0.056536 0.043402 0.413253 0.195626 0.159918 -0.880475 0.161673 0.154187 0.260822 0.398959 -0.539809 -0.456964 1.035311 0.272055 0.543434 0.081668 -1.192518 -1.060699 -0.549621 -0.647522 1.199232 1.496392 0.275478 0.715078 -0.196500 -0.493710
1.530873 -0.092799 -0.098634 -0.105211 -0.123955 -0.095007 -0.080462 -0.055336 -0.052220 -0.050269 -0.029742 -0.100696 -0.112303 -0.013952 0.052025 0.025065 0.040259 0.121792 0.235775 0.101278 0.190246 -0.240960 -0.377092 -0.183754 -0.070951 0.146041 0.131961 -0.053832 0.082237 0.112471 0.085229 0.069228 0.050324 -0.090382 -0.096002 -0.095453 -0.114942 -0.117892 -0.094946 -0.066381 -0.054866 0.220851 0.222171 0.177965 0.152389 0.112007 0.178367 0.166302 0.173438 0.119191 0.187913 0.129863 0.187916 -0.227093 -0.301071 -0.154902 -0.056310 0.205188 0.198270 0.064286 0.181594 0.238254 0.217905 0.188563 0.171926 -0.157589 -0.178992 -0.238759 -0.203765 -0.142616 -0.086054 -0.082941 -0.082949 -0.001670 -0.012577 0.041964 0.066658 -0.088342 -0.055800 -0.039175 -0.069432 0.013193 0.000487 0.006374 0.027841 0.184864 0.182852 0.194018 0.132418 0.142175 0.174932 0.200765 0.165794 0.147823 0.118084 0.077678 0.057356 -0.091184 -0.112309 -0.173333 -0.137593 -0.127291 -0.058890 -0.056907 -0.065273 -0.063172 -0.075231 0.009634 0.032105 -0.068022 -0.031464 -0.017047 -0.045963 0.072197 0.049843 0.039845 0.056013 0.212920 0.204830 0.226069 0.158992 0.099589 0.135122 0.152928 0.109548 0.200586 0.169427 0.125511 0.104782 0.065489 -0.058133 -0.062346 0.027360 -0.125502 -0.058184 0.055636 -0.066532 -0.071665 -0.040430 0.035793 -0.122065 -0.013416 0.117400 0.130787 0.097704 0.368298 0.070692 -0.161260 0.132428 0.202638 0.147530 -0.121413 -0.279229 -0.422644 -0.384617 0.826345 0.378119 0.709596 0.561878 -0.531676 -0.097795 -0.349967 0.061580 -0.044877 0.028063 -0.009669 -0.174871 -0.158802 0.276823 -0.093300 0.038183 -1.214479 -0.317343 -0.704273 -0.370787 0.778423 -0.100491 0.529004 0.415202 -0.083902 0.250601 -0.310614 -0.328372 -0.861669 -0.657585 -0.118817 0.041271 -0.066292 0.453921 -0.428283 -0.120237
1.190336 0.110644 0.135783 0.076091 0.054877 -0.028295 0.024055 -0.029176 -0.063534 -0.026177 0.051362 -0.023434 -0.084156 0.045733 0.068458 0.021923 -0.020319 0.159316 0.077977 0.129678 0.086225 -0.052906 0.172111 0.025330 0.008339 -0.048182 -0.004409 0.061806 0.068316 -0.070134 0.094660 -0.086201 -0.138753 0.109285 0.138485 0.097698 0.084770 -0.074179 -0.007898 -0.060306 -0.094214 0.026510 0.138024 -0.047826 -0.102202 0.128808 0.137646 0.110387 0.079114 0.109581 0.055366 0.087544 0.072182 -0.163150 -0.015323 -0.051239 -0.052199 -0.044866 0.008017 -0.033224 0.025011 -0.077246 0.089859 -0.107160 -0.173928 0.186154 0.129541 -0.040193 0.118887 0.042740 0.042248 0.069149 0.115852 0.133021 0.141506 0.091975 0.136075 0.066623 0.077963 0.133443 0.021767 -0.016207 0.013280 -0.001426 -0.007377 -0.021351 -0.042571 0.001923 0.032979 -0.164425 -0.173505 -0.116988 -0.167560 -0.002768 -0.067935 -0.098077 -0.060662 0.333719 0.290974 0.137730 0.278886 0.202831 0.210977 0.237232 0.283079 0.204671 0.206663 0.139493 0.187701 0.235229 0.222941 0.265776 0.150926 -0.193563 -0.152642 -0.145753 -0.161482 -0.138102 -0.163449 -0.134612 -0.116941 -0.287065 -0.301151 -0.260862 -0.307515 -0.099320 -0.156946 -0.202909 -0.150260 0.045041 0.113501 0.315821 0.141358 -0.124974 -0.077179 -0.383034 -0.373231 -0.095293 -0.040317 0.255869 0.162192 -0.097632 -0.164308 -0.176868 0.182425 0.143002 0.159068 0.254771 0.240132 0.108863 0.280476 0.298356 0.436931 0.545328 0.476235 0.259284 0.364023 -0.193632 -0.007102 0.091356 -0.114222 0.047508 -0.415035 0.209367 0.039044 0.083110 0.045937 -0.217491 -0.606282 -0.270530 -0.163930 0.149535 -0.519836 0.082603 -0.151032 -0.550891 -0.160811 0.091875 -0.154542 0.165175 0.007676 0.065256 0.241388 -0.064323 -0.017135 -0.460592 -0.629952 -0.318648 -0.481535 -0.018933 -0.217021
-2.807514 -0.091478 0.030094 0.094168 0.122833 -0.053083 0.025757 -0.118735 -0.150350 -0.113750 -0.104173 0.124410 0.062197 -0.065362 -0.121750 -0.206285 -0.231102 0.115746 -0.129540 0.194049 0.069895 -0.027101 0.231348 -0.170609 -0.278948 -0.078554 -0.060313 0.108870 -0.053223 0.030624 0.212987 0.025739 -0.005644 -0.116828 -0.010366 0.014965 0.032926 -0.115202 -0.044807 -0.153429 -0.214742 -0.259417 -0.264408 -0.116072 -0.133492 -0.203174 -0.254547 -0.232403 -0.273073 0.106896 -0.060084 0.165498 0.077604 -0.089567 0.074527 -0.166648 -0.247845 -0.013526 -0.023638 0.090276 -0.032854 0.070662 0.177454 0.034404 -0.015322 0.105505 0.072331 -0.037530 0.023116 0.048186 -0.068061 -0.048430 -0.007409 0.440947 0.458188 0.247587 0.235727 -0.030867 -0.066340 -0.024100 -0.038661 0.094360 0.119419 0.018355 -0.002930 -0.262145 -0.301325 -0.236567 -0.086891 -0.350270 -0.450089 -0.411129 -0.435501 -0.165269 -0.164061 -0.127429 -0.095293 0.273577 0.244177 0.168505 0.214177 0.278038 0.127127 0.113537 0.174292 0.523870 0.548630 0.289534 0.289457 0.018606 -0.008556 0.030241 0.026598 -0.107539 -0.057590 -0.148374 -0.192250 -0.407019 -0.439821 -0.438804 -0.271415 -0.374666 -0.472753 -0.476955 -0.476879 -0.210627 -0.202691 -0.175492 -0.119875 -0.083867 -0.195676 0.485080 0.203909 0.174336 -0.096504 0.139721 0.419222 -0.038075 0.234502 0.548516 0.788018 -0.029331 -0.339648 -0.633836 -0.785681 -0.429245 -0.425093 -0.091607 -0.228055 0.051258 0.041770 0.316854 0.741518 0.567560 0.779441 -1.074581 -0.331402 -1.097516 -1.097674 1.373304 0.695566 0.293300 -0.027107 -0.036559 -0.765475 0.249209 0.146569 0.984919 0.297515 -0.163997 -0.152768 2.398543 1.401903 1.097276 1.010995 -1.229073 -0.464132 -0.570196 -0.652960 -0.629466 -0.883633 0.356462 0.639317 1.001437 0.920698 0.333047 0.546597 -0.639761 -1.101700 0.690328 0.554102
-1.164455 -0.057933 -0.136941 -0.122952 -0.083319 -0.057345 -0.169756 -0.110034 -0.054661 0.206468 0.050777 0.161222 0.212096 0.066326 0.099085 0.083798 0.155818 -0.210290 -0.052407 -0.302430 -0.230081 -0.033020 -0.400626 -0.008438 -0.048275 -0.171689 -0.257535 -0.403750 -0.382087 -0.186333 -0.454976 -0.167558 -0.118816 0.030377 -0.054404 -0.042372 -0.005231 -0.022226 -0.171318 -0.090736 -0.034169 0.368057 0.170158 0.481166 0.544781 0.197130 0.232024 0.214780 0.249129 -0.099417 -0.003465 -0.189944 -0.160920 0.297663 0.146938 0.331919 0.229746 -0.047117 -0.134469 -0.102829 -0.116941 -0.053615 -0.240081 0.009047 0.087545 0.227199 0.297307 0.497794 0.261589 0.407241 0.436611 0.329090 0.272847 -0.169738 -0.212575 -0.031853 -0.098119 0.167804 0.118940 -0.001241 0.159795 -0.080233 -0.148436 -0.150404 -0.145180 -0.072963 -0.039780 -0.067482 -0.135173 0.230763 0.253791 0.075720 0.210098 -0.235358 -0.085836 -0.020459 -0.081134 -0.042932 0.014868 0.207706 -0.009759 0.170674 0.194402 0.087035 0.019466 -0.347578 -0.376178 -0.159563 -0.234167 -0.021348 -0.034399 -0.169525 0.008729 -0.265773 -0.348072 -0.387030 -0.338886 -0.305942 -0.257898 -0.260246 -0.317470 0.114902 0.160179 0.053676 0.164783 -0.288232 -0.166503 -0.055580 -0.144416 0.141227 -0.049253 -0.329510 -0.101710 0.332215 0.195256 0.030648 0.283258 -0.248743 -0.050278 -0.712575 -0.375826 0.412752 0.433064 0.569434 -0.302306 -0.060118 -0.239445 0.328598 -0.214497 -0.402242 -0.557445 -0.635483 -0.626472 -0.858528 -0.901766 -0.280254 -0.524893 0.266755 0.396992 0.560160 0.631162 0.315234 0.935507 -0.132614 0.199082 -0.521489 -0.421846 0.451564 0.640771 0.516452 0.776352 -0.405961 -0.456890 0.191155 -0.495187 0.784605 0.335226 0.520623 0.772471 0.393504 0.400996 -0.271590 -0.633662 0.438187 0.023786 0.461524 0.760979 0.913952 0.983861 -0.777140 -0.409803
-2.382998 -0.050325 0.030229 0.043489 0.012892 -0.173674 -0.090363 -0.161834 -0.185907 -0.006864 0.084755 0.105873 -0.016547 0.058283 0.076428 0.044689 0.084586 0.164664 0.100398 0.117011 0.049570 0.007680 0.091084 -0.031151 -0.068351 0.020457 0.058747 0.032322 -0.014043 0.013837 0.159166 0.075471 0.035018 -0.059336 0.023556 0.016360 -0.012903 -0.198680 -0.117512 -0.174711 -0.217072 -0.076877 0.020321 -0.007174 -0.108311 0.012484 0.026705 0.018621 0.054794 -0.014832 -0.047953 -0.071052 -0.107830 -0.186997 -0.154827 -0.185796 -0.199516 -0.165861 -0.142092 -0.192705 -0.204431 -0.174831 -0.070510 -0.139974 -0.191649 0.078569 0.044870 -0.065844 0.038019 0.108442 0.061018 0.042380 0.083484 0.161560 0.172103 0.149903 0.171670 0.053131 0.055650 -0.041535 -0.083981 0.020968 0.037205 -0.041328 -0.050619 -0.081967 -0.114085 -0.122387 -0.066228 0.020771 -0.059469 -0.075354 -0.128472 -0.100102 -0.125657 -0.128527 -0.083788 -0.114512 -0.141183 -0.244513 -0.144001 -0.073062 -0.137515 -0.158990 -0.118704 -0.037554 -0.028018 -0.063652 -0.038073 -0.159911 -0.167069 -0.256590 -0.298067 0.110829 0.132931 0.054639 0.027921 -0.007869 -0.044791 -0.078103 -0.008612 0.064968 -0.015851 -0.041063 -0.083360 -0.055052 -0.075634 -0.085284 -0.027652 -0.090627 -0.149301 0.404989 0.289693 0.074109 -0.064914 -0.254811 -0.152459 -0.073783 -0.012775 0.167994 0.164302 0.096339 -0.137414 -0.088901 0.083347 -0.731614 -0.663393 -0.089019 -0.071912 -0.222534 -0.072237 0.171035 0.368805 0.314313 0.581395 0.054426 0.282021 -0.164250 -0.126143 1.103093 0.597538 0.567692 0.353966 0.485458 0.134003 0.264773 0.220879 0.382446 -0.099052 0.334427 0.088465 0.293861 -0.188308 0.330216 0.254315 -1.110526 0.015824 -0.430783 -0.571423 -0.334862 -0.301332 -0.034931 0.080146 -0.268893 -0.341157 0.471618 0.419622 0.213040 -0.190100 0.472923 0.307682
-1.443165 -0.057721 -0.077299 -0.085544 -0.049669 -0.093957 -0.189722 -0.184819 -0.169642 -0.105318 -0.195948 -0.133645 -0.043452 -0.218119 -0.264733 -0.275006 -0.285670 0.003618 -0.010271 0.001184 -0.025039 0.044405 0.040927 -0.092331 -0.261494 0.109345 0.015156 0.187688 -0.105315 0.109985 -0.059858 0.112804 0.180285 0.045297 -0.001430 -0.075090 -0.054825 0.011494 -0.121730 -0.135924 -0.117808 0.000656 -0.096310 0.065200 0.140736 -0.168287 -0.214537 -0.232986 -0.242904 0.119214 0.084438 0.089014 0.005574 0.205055 0.247848 0.007595 -0.211721 0.177539 0.063413 0.347156 -0.027882 0.232520 0.042679 0.232334 0.319682 -0.334140 -0.253584 -0.010721 -0.240799 0.015986 -0.006168 -0.137738 -0.203260 0.086632 0.068906 0.044665 -0.021231 0.020465 -0.067432 -0.139359 -0.015135 -0.034027 -0.065501 -0.015444 -0.010922 -0.014526 0.005814 0.007222 -0.006963 -0.398283 -0.401910 -0.519740 -0.391008 -0.574691 -0.488602 -0.345680 -0.374537 -0.002499 0.058683 0.275058 0.084153 0.288476 0.254157 0.119902 0.060810 0.297035 0.292932 0.272945 0.215838 0.177702 0.142384 0.126650 0.246784 0.230750 0.194451 0.204153 0.231535 0.209046 0.245325 0.272723 0.270036 -0.202468 -0.198992 -0.259947 -0.140822 -0.265399 -0.203123 -0.033220 -0.086512 0.173051 0.112217 0.014644 -0.084059 0.366109 0.228715 0.208927 0.211715 0.033162 0.056252 -0.110171 -0.104625 0.378862 -0.022466 0.601633 -0.242476 -0.399185 -0.495378 0.442909 0.364079 -0.099721 -0.070811 -0.181581 -0.015918 -1.061962 -0.831002 -0.532001 -0.454298 -0.474550 -0.242758 -0.118035 -0.404343 -0.534063 0.375716 -0.197058 -0.352712 -0.289763 -0.256044 0.689906 0.245448 0.562729 0.722821 1.110112 0.961603 1.246760 0.551183 1.401029 0.346415 -1.146341 -0.512582 0.289283 0.334737 -0.258306 -0.303138 1.427720 1.266398 -0.850843 -0.202837 0.171485 -0.129212 0.272988 0.041736
2.414158 0.032058 0.002349 -0.098731 -0.132491 -0.189844 -0.177672 -0.165029 -0.159121 -0.008734 -0.018145 -0.234788 -0.184132 -0.120020 -0.013974 -0.077858 -0.110147 -0.006745 0.069507 -0.144833 -0.088676 0.041436 -0.025609 0.063061 0.088323 0.093601 0.091935 0.010419 0.053293 0.042621 0.051590 0.036556 0.001848 0.176170 0.152909 0.078330 0.053313 -0.036474 -0.011158 -0.033840 -0.021391 0.215321 0.198338 0.049443 0.065548 0.030880 0.118466 0.040513 0.012986 0.063148 0.107809 -0.061835 -0.030616 0.243615 0.235348 0.121499 0.129143 0.247303 0.253264 0.156400 0.185285 0.223512 0.249968 0.254167 0.224749 -0.264782 -0.296844 -0.287298 -0.223000 0.001773 0.063701 -0.119623 -0.117808 -0.023144 -0.028500 0.022220 0.059453 0.045892 0.055691 -0.086117 -0.151902 0.105289 0.111756 0.133217 0.151553 0.098357 0.096246 0.148355 0.079374 0.222113 0.285781 0.280810 0.258114 0.095398 0.046576 0.161212 0.172277 -0.153275 -0.188224 -0.205727 -0.131303 0.035133 0.112781 -0.010607 -0.027980 -0.039899 -0.048454 0.024157 0.059842 0.073028 0.075497 -0.051039 -0.121275 0.031408 0.030539 0.053610 0.087309 0.040889 0.034016 0.151707 0.064911 0.148839 0.213211 0.259062 0.222816 0.132945 0.083278 0.182110 0.178712 0.152870 0.141066 0.062291 0.052831 -0.163031 0.027489 -0.403598 -0.583601 -0.080786 -0.181849 0.101773 -0.191651 -0.067901 -0.012219 0.240178 0.408320 0.327189 0.292768 0.325815 0.639900 0.054209 0.216110 0.282534 -0.161426 -0.043630 -0.137976 0.699133 0.275366 0.726473 0.606267 -0.732376 -0.319206 -0.471153 -0.119550 0.417732 0.374478 -0.368785 -0.596151 -0.620687 -0.294481 0.050704 0.258428 -1.045623 -0.732033 -1.058289 -1.020819 0.278986 -0.099443 0.133115 0.741804 -0.275657 0.067111 0.353451 0.474459 -0.259704 -0.150968 -0.461776 -0.646078 -0.484881 -0.009652 -0.315631 -0.364341
2.102270 0.011474 0.107393 0.085298 0.020146 -0.178617 -0.004644 -0.102120 -0.181605 -0.171561 0.090366 0.016785 -0.213164 0.002956 0.073889 -0.033542 -0.083594 0.367997 0.294494 0.338116 0.280210 -0.210051 0.044369 -0.089876 -0.029944 0.182720 0.285926 0.059754 0.188920 0.076490 0.407098 0.030349 -0.114505 0.051787 0.171068 0.156071 0.100441 -0.101996 0.108818 0.012735 -0.067846 -0.247347 0.063448 -0.191340 -0.420223 -0.041578 0.028735 -0.045003 -0.079388 0.312198 0.276223 0.284549 0.277533 -0.352781 -0.249539 -0.262266 -0.156307 0.168177 0.279949 -0.056197 0.140082 0.080023 0.386347 0.041420 -0.117048 0.172848 0.058889 -0.305285 0.035574 -0.022597 -0.037779 0.017313 0.125542 0.241015 0.262125 0.177845 0.273656 0.041440 0.109214 0.241123 0.030980 0.072641 0.113611 0.098620 0.119516 0.233629 0.168572 0.220389 0.276611 -0.247455 -0.298555 -0.152402 -0.324409 0.290064 0.151300 0.032653 0.084455 0.182721 0.089216 -0.286711 0.028140 -0.064053 -0.064299 0.003445 0.116375 0.210367 0.213783 0.150782 0.242968 0.134251 0.151611 0.283246 0.071133 -0.188802 -0.140605 -0.131551 -0.146608 0.037596 -0.039730 0.011918 0.057661 -0.252852 -0.322957 -0.238858 -0.399122 0.208045 0.080606 -0.118901 -0.037683 -0.024012 0.044618 0.656210 0.371326 -0.389366 -0.338784 -0.165748 -0.322286 0.077531 0.012606 0.663752 0.330224 -0.147555 -0.200263 -0.529017 0.074149 0.021573 -0.114331 0.091329 0.407337 0.343700 0.659321 0.562694 0.767973 0.711713 0.922269 0.343851 0.463447 -0.345979 -0.201194 -0.358079 -0.550272 -0.184136 -0.810834 -0.145091 -0.718609 0.639821 0.391162 -0.175036 -0.649442 -0.393398 -0.880899 0.271583 0.000045 0.711125 0.768889 -0.600996 -0.311719 0.370580 -0.827157 -0.168014 -0.296484 -1.018348 -0.671631 -0.647983 -0.340126 0.310272 -0.203706 -0.250831 -0.013287 0.194504 -0.273077
3.609307 0.036377 -0.001272 -0.065178 -0.102578 -0.060794 -0.057028 -0.016533 -0.032748 -0.119280 -0.066615 -0.238348 -0.183190 -0.079479 0.010663 -0.040621 -0.071802 0.026514 0.119727 -0.023851 0.061577 -0.141232 -0.241981 -0.104939 0.008640 0.110526 0.114701 -0.129463 0.019346 0.037707 0.029854 0.021129 -0.010696 0.147695 0.112891 0.055588 0.025212 0.039774 0.064529 0.086656 0.086484 0.196442 0.229643 0.088013 0.104389 0.121346 0.202692 0.159775 0.135828 0.171596 0.217604 0.134049 0.193769 -0.005933 -0.071554 0.023820 0.139875 0.315886 0.327363 0.114012 0.269103 0.292521 0.296407 0.275411 0.249290 -0.286656 -0.321469 -0.342207 -0.267670 -0.220731 -0.149812 -0.189148 -0.172895 -0.054278 -0.059861 0.025835 0.075660 -0.077866 -0.028045 -0.030678 -0.090315 -0.010819 -0.011933 0.016535 0.041297 0.223376 0.211178 0.259996 0.174575 0.196353 0.285038 0.299746 0.267349 0.280981 0.229922 0.220070 0.196365 -0.104633 -0.142290 -0.170837 -0.093387 -0.081928 0.007412 -0.036954 -0.041219 -0.067435 -0.075965 0.043624 0.078550 -0.013542 0.031141 0.030651 -0.031248 0.041394 0.027637 0.043651 0.077725 0.272281 0.254781 0.320428 0.217463 0.212482 0.297332 0.304754 0.258680 0.361371 0.308684 0.304166 0.284645 0.107840 0.074630 -0.230993 -0.118224 -0.188355 -0.059254 -0.263706 -0.293659 0.088954 -0.069242 0.169445 -0.048458 0.117218 0.147601 -0.093366 0.193501 0.172053 0.106375 -0.098509 0.240265 0.133441 0.203341 0.496902 0.041515 0.069035 0.042926 0.743113 0.260428 0.582293 0.258974 -0.349573 0.087143 -0.651529 -0.123619 -0.369824 -0.119118 -0.438469 -0.435118 -0.617227 -0.047989 -0.378717 -0.302305 -1.242866 -0.604364 -0.765090 -0.356758 0.016968 -0.311082 0.265003 0.399933 -0.528891 0.331987 -0.195506 -0.292147 -0.357156 -0.356693 -0.234708 -0.279048 0.168423 0.487132 -0.366706 -0.327160
1.982386 0.039530 0.126915 0.041657 0.027564 -0.200575 -0.111880 -0.158761 -0.210151 -0.208811 0.004285 -0.070638 -0.245584 0.023332 0.086720 0.008367 -0.015615 0.250207 0.158490 0.164029 0.103967 -0.110843 0.139576 -0.011689 -0.049905 -0.051530 0.050562 0.023954 0.094952 -0.088402 0.265584 -0.060286 -0.157901 0.198564 0.281182 0.177163 0.168810 -0.098634 -0.011678 -0.069023 -0.110416 -0.047288 0.170875 -0.005163 -0.154205 0.187599 0.240269 0.176298 0.143923 0.246484 0.172710 0.167754 0.162815 -0.162684 0.010602 -0.062360 -0.044606 -0.025915 0.093184 0.039358 0.173159 -0.034373 0.301330 -0.021178 -0.139289 0.145320 0.061345 -0.241278 0.067661 -0.027983 -0.031807 0.047218 0.125198 0.076123 0.103019 -0.005406 0.076895 0.109566 0.140422 0.221128 0.009349 -0.203518 -0.137725 -0.101221 -0.103711 -0.058500 -0.089187 -0.076767 -0.037343 0.036976 0.009108 0.047160 -0.061641 0.176790 0.057577 -0.044731 0.039525 0.149371 0.086653 -0.184726 0.090435 0.013685 0.025744 0.078587 0.150962 0.042146 0.057645 -0.032836 0.055247 0.138929 0.140834 0.199163 -0.004992 -0.181865 -0.107607 -0.047345 -0.090686 0.035572 -0.020210 -0.013611 0.008849 0.155469 0.110139 0.129781 0.041127 0.257969 0.164775 0.041147 0.162473 0.098703 0.226507 0.659765 0.375953 -0.397202 -0.320079 -0.666708 -0.573718 -0.027452 -0.068103 0.303461 0.115936 -0.024202 -0.086199 -0.288670 0.305069 0.100932 0.241418 0.258556 0.249030 -0.086690 0.152997 0.515084 0.598250 0.665020 0.630725 0.739099 0.880557 0.078743 0.188757 -0.383659 -0.662735 0.261028 -0.608227 0.288882 -0.019353 0.307421 0.266429 -0.426894 -0.641392 0.120941 0.007940 -0.559595 -0.783081 -0.087417 -0.058669 -0.684356 -0.204743 0.160266 -0.336555 -0.097704 -0.842278 -0.441886 -0.300792 -0.398003 -0.132777 -0.171165 -0.809419 -0.071134 -0.072901 -0.247633 -0.594297
3.724435 0.225916 0.189817 0.096590 0.072493 0.100539 0.095984 0.071980 0.026391 -0.106590 -0.076494 -0.186917 -0.109392 -0.079139 -0.042052 -0.140622 -0.237050 -0.008920 -0.083371 -0.009809 0.001462 0.010117 0.088729 -0.067376 -0.013445 0.007279 0.033338 -0.068673 -0.006072 -0.027838 0.064904 -0.018111 -0.054066 0.355561 0.318401 0.242989 0.229254 0.228044 0.245756 0.212711 0.178418 -0.019012 -0.001786 -0.120904 -0.068685 0.015220 0.049341 0.006181 -0.072899 0.130407 0.056945 0.114421 0.126006 0.129529 0.184756 0.109711 0.171188 0.147149 0.175699 0.104325 0.185862 0.122290 0.212636 0.121080 0.084243 -0.068205 -0.119928 -0.147030 -0.048173 -0.072898 -0.057498 -0.121189 -0.077911 0.164923 0.169253 0.114635 0.159232 -0.035727 -0.006567 0.044713 -0.025346 -0.016114 0.010326 0.018946 0.036194 0.033460 0.014786 0.117712 0.089269 -0.079064 0.003363 0.023404 0.007979 0.252320 0.207016 0.284764 0.275168 0.166003 0.115707 0.100519 0.203926 0.189112 0.212499 0.141680 0.165750 0.399214 0.404019 0.355208 0.387250 0.236229 0.251170 0.288467 0.212846 -0.281150 -0.252421 -0.248604 -0.220695 -0.169847 -0.196056 -0.092326 -0.134381 -0.165204 -0.086545 -0.067063 -0.089566 0.185856 0.139488 0.214146 0.207389 0.123649 0.133226 -0.155951 -0.193406 -0.186350 -0.077729 -0.442907 -0.283118 0.231296 0.126946 0.573053 0.429359 0.074732 -0.073939 -0.469412 -0.166025 -0.019016 0.126955 0.105970 0.110176 0.153856 0.326336 1.179241 0.716280 0.725906 0.664086 -0.171457 -0.204265 -0.257334 -0.523469 0.406355 0.573570 -0.547244 -0.401407 -0.848872 -0.616116 -0.668307 -0.577683 -0.897698 -0.403553 -0.592176 -0.396971 0.108352 0.346498 -0.207187 -0.141315 -0.963516 -0.614077 -0.017387 0.203149 -0.387840 -0.409056 -0.085728 0.479648 0.569384 0.482749 -0.183166 -0.304605 -0.145229 -0.038078 -0.296753 -0.334397
1.188074 -0.051277 0.043001 -0.027698 -0.026631 -0.273633 -0.215630 -0.222003 -0.230644 -0.197311 -0.018407 0.001850 -0.175458 -0.023770 0.121434 0.000353 0.062127 0.071570 0.108806 -0.026734 -0.036875 -0.037918 -0.100459 -0.102802 -0.144759 0.017837 0.063628 -0.059586 -0.024454 -0.004711 0.185070 0.044331 -0.025698 0.100342 0.184174 0.097223 0.089589 -0.160236 -0.100576 -0.123510 -0.137835 0.000737 0.130326 0.268017 0.131107 0.164276 0.294398 0.180183 0.199048 0.148352 0.169047 0.022752 0.032483 0.038794 0.037718 0.018579 -0.000823 0.090007 0.134083 -0.013731 0.073746 0.064955 0.227211 0.102813 0.031275 0.206774 0.168235 -0.003288 0.176080 0.185378 0.197025 0.216166 0.250120 -0.001871 0.004174 0.042164 0.089050 0.305713 0.323607 0.279450 0.161142 -0.126117 -0.093853 -0.096687 -0.086365 0.067846 0.044379 0.042765 0.034280 0.411680 0.384096 0.337501 0.235739 0.289577 0.215036 0.090733 0.154994 -0.179971 -0.216328 -0.375931 -0.220312 -0.153153 -0.136579 -0.125289 -0.098337 -0.288315 -0.278523 -0.231058 -0.180876 0.021183 0.042725 -0.019110 -0.126447 -0.288330 -0.264641 -0.237009 -0.262012 -0.072591 -0.122268 -0.133880 -0.146022 0.278784 0.245020 0.190104 0.114573 0.069602 0.016673 -0.117801 -0.021331 0.106504 0.085501 0.413816 0.341300 -0.304235 -0.298318 -0.321344 -0.105222 -0.129569 -0.136888 -0.233008 -0.218794 0.235358 0.209359 -0.042243 0.104032 -0.443064 -0.254988 0.078088 0.111092 -0.379907 -0.399509 0.286443 0.284275 0.252618 0.196786 0.529340 0.586792 0.747568 0.461668 -0.510788 -0.586725 0.545059 0.285162 0.565128 0.322612 0.340721 0.324384 -0.123983 -0.076773 0.234517 0.311812 -0.879612 -1.027438 -0.223849 -0.063241 -0.058564 0.052742 -0.346832 -0.493715 -0.670613 -0.341501 -0.415642 -0.836302 -0.406095 -0.345529 0.453867 -0.227515 0.401982 0.596479 -0.182809 -0.328590
4.927881 -0.207094 -0.230779 -0.257333 -0.266019 -0.046399 -0.071148 0.069166 0.111384 -0.111185 -0.079658 -0.362137 -0.359125 0.071102 0.161530 0.227869 0.226480 0.202052 0.480324 0.211491 0.402817 -0.660198 -0.829747 -0.272474 -0.107926 0.327115 0.309726 0.049264 0.245708 0.209778 0.060824 0.064567 0.050498 -0.013310 -0.040673 -0.065233 -0.078447 0.158671 0.126361 0.260220 0.320136 0.000539 0.037935 -0.195331 -0.224978 0.205386 0.295542 0.383165 0.382248 0.340589 0.490650 0.358041 0.486486 -0.469220 -0.540428 -0.080990 0.061111 0.514687 0.512374 0.342156 0.490993 0.388426 0.315058 0.275125 0.270118 -0.215748 -0.230071 -0.339536 -0.309299 -0.419042 -0.287134 -0.178293 -0.208442 -0.443917 -0.463530 -0.308061 -0.262865 -0.101301 -0.041807 0.044892 -0.018704 0.038902 0.002757 0.116026 0.139760 0.506363 0.531569 0.514762 0.401080 0.377293 0.448957 0.549636 0.512104 0.354668 0.311562 0.150002 0.117895 -0.095198 -0.109968 -0.219035 -0.194135 -0.314847 -0.141546 -0.053910 -0.086549 -0.387104 -0.410543 -0.187198 -0.144040 -0.023336 0.049731 0.119556 0.072297 0.035077 -0.011711 0.088948 0.116357 0.539964 0.560080 0.570154 0.428014 0.463992 0.537869 0.629734 0.575042 0.434095 0.391554 0.222453 0.181611 0.027000 0.013883 -0.090148 0.102568 -0.244340 -0.090094 -0.295226 -0.511071 -0.160442 -0.139903 -0.127076 -0.521523 0.216540 0.298013 0.597980 0.720387 1.207231 0.919694 0.121576 0.555568 0.299786 0.484300 -1.258330 -1.612521 -0.933811 -0.856947 2.249053 1.052060 1.709355 1.404998 -1.808991 -1.309082 -1.194315 -0.500661 -0.449505 0.076861 -0.317489 -0.543852 -0.390486 0.389323 -0.022589 0.320971 -2.442310 -1.304600 -1.518349 -1.047203 1.991390 0.475003 0.638731 0.691977 0.190165 0.653057 -0.532265 -0.756327 -2.313335 -1.416656 -0.460950 -0.175929 -0.090210 0.593396 -0.544408 -0.286969
