7.464519 -0.086821 -0.639372 -1.532531 -1.602554 -1.715723 -2.165672 -2.078238 -2.065268 -2.709625 -3.164855 -4.176746 -2.917614 -3.428731 -2.142733 -3.279630 -3.017821 -2.665999 -2.333623 -4.612337 -4.177727 -2.257528 -4.500582 -3.146418 -2.238756 -3.576212 -3.911100 -2.403489 -2.694434 -2.888436 -4.142948 -2.710764 -2.861287 4.104679 3.694264 3.144713 3.258037 2.941552 2.403236 2.729682 3.293640 2.303578 1.756254 1.539275 1.479509 1.866882 1.685092 2.383044 2.875879 3.454397 3.024946 2.444574 3.150139 3.586089 3.024779 3.081456 4.312371 2.987980 2.720998 3.769860 4.078234 3.185048 2.799002 3.690838 4.540066 0.758532 0.743630 2.637127 2.588467 0.236778 0.436445 -0.385405 0.260630 -1.460932 -0.969862 -1.523491 -0.895944 -0.428522 0.176683 -0.247513 -0.022207 -0.684162 -0.016134 1.575824 0.549189 -0.139463 0.021336 0.264954 0.166307 -0.994950 0.504015 -0.339987 0.172394 0.091274 -0.315792 0.437349 0.367867 -1.212911 -1.420061 -0.698497 -0.811107 -0.510015 0.866100 0.122283 -0.001977 -0.260624 -0.879150 0.625556 0.235657 1.337719 1.587593 0.525436 0.185485 -0.508531 -0.503208 0.536343 0.276784 0.392451 0.269926 1.377026 0.650827 -0.236263 0.499530 -0.192354 0.507517 0.913084 -0.279367 0.105623 0.399206 1.124735 -0.048215 -0.947031 0.120473 -1.524732 -2.128353 -2.029824 -2.429713 1.078948 -0.815857 -0.451168 3.975471 -2.903523 0.531703 0.731193 0.941209 -0.306920 -2.789044 -0.562372 1.956916 -2.143201 -3.377060 0.291283 0.667178 -1.803232 1.647381 -1.340795 -0.187313 0.458057 1.197470 5.222609 5.396398 1.091758 -1.689246 -0.900877 -1.602022 -3.359728 -2.818173 0.089314 1.292969 -2.089794 0.654103 -3.179512 -2.826284 -1.781920 -3.171145 0.838974 0.856672 1.481516 1.609621 0.129900 1.153041 -0.236804 -1.108359 -0.275157 2.844723 0.317735 -1.445893 0.624570 1.937770 -2.333708 -1.546433
4.103385 -2.229495 -1.582913 -1.293695 -1.748250 0.311973 2.280353 0.181502 0.178832 -0.574047 1.807485 2.154602 1.232248 1.728440 0.533919 2.305313 2.704462 -0.101515 -1.438482 1.252259 -0.475228 1.938147 4.772479 2.442262 1.679978 2.591492 1.340151 3.231538 3.196380 2.340595 5.844323 3.612380 4.841548 -3.996994 -2.684024 -3.114155 -3.591940 -0.872512 2.556952 -0.402171 -0.565939 -2.847855 1.291696 -2.673929 -2.199911 -0.110630 -1.232721 0.764998 1.951022 -1.865307 -2.513677 -0.969896 -0.639551 -3.277180 -2.689803 -0.759806 1.168804 -0.820350 -0.154620 -4.970827 -0.848251 -1.093474 -0.505358 -1.323215 -1.965027 3.229324 3.509611 0.684059 2.897470 -0.101182 -0.314798 1.232971 1.720513 0.186205 0.838386 0.519155 -0.209775 2.052681 1.684959 2.776589 1.635612 -0.151563 -0.045474 -1.081453 -0.301895 -1.221703 -0.790884 -0.146587 0.415318 0.302590 0.130913 2.584324 0.399260 2.802716 1.635058 1.951495 0.524088 -3.464009 -2.430744 -3.477885 -2.752165 -3.102135 -3.616792 -3.346350 -3.121932 -1.769915 -1.144106 -1.750411 -2.174391 -0.639012 -1.440063 -2.323392 -2.108035 0.281955 0.934975 0.765412 -0.146640 1.529946 0.829631 0.441868 0.555737 2.702504 1.904534 1.492812 0.780135 0.662994 0.323271 -0.687529 1.045135 0.099825 3.176331 1.081742 -3.126300 -2.854656 3.789902 -1.003579 0.937324 -2.746260 -2.417229 -0.324914 1.361712 3.904122 -3.641135 -2.024218 4.802923 0.767111 -0.637195 -2.600703 -3.475188 -3.862739 2.061178 -0.190366 -1.440448 1.530263 -0.887697 2.446309 -0.600935 0.851035 0.120920 3.290634 3.057887 1.485160 0.250031 -0.061348 1.329090 1.120053 3.709635 -1.474813 -1.848664 0.776600 0.077391 -2.887319 -1.337885 0.869496 -2.333370 -3.312437 -4.219888 -4.124313 -3.595365 -3.655323 -0.084931 1.136105 -2.184956 0.684800 -2.147193 0.452241 1.793453 -1.038316 -0.755341 -2.153010 1.321053
5.715811 0.306911 0.354383 -0.798768 -0.668088 -1.258958 -1.606141 -1.585961 -1.671297 -1.970737 -2.032191 -2.875707 -2.126437 -2.473786 -1.517398 -2.324849 -2.056606 -1.825759 -1.617998 -2.883982 -2.739473 -2.034491 -2.710041 -1.527621 -1.054831 -2.564346 -2.640189 -0.898851 -1.234568 -2.077913 -2.592890 -1.896249 -1.946391 3.179871 3.057323 2.398217 2.561325 2.218578 1.750865 2.216468 2.591785 1.259045 1.018895 0.404206 0.455598 1.058936 1.242951 1.691309 1.859704 2.449888 2.102388 1.648579 1.934230 1.747099 1.300965 2.177347 2.759216 1.692136 1.539159 2.317347 2.564693 1.806115 1.699295 2.497490 3.066012 0.526613 0.561825 1.232251 1.211087 2.223596 2.186267 1.827517 1.667562 -0.559185 -0.326091 -0.582792 -0.257299 -0.294150 0.017397 0.252064 0.201271 -1.044973 -0.547583 0.895758 0.235167 -0.384486 -0.359106 0.076904 0.051053 -0.744212 0.192639 -0.508800 -0.067111 -0.066846 -0.240883 0.380286 0.437351 -1.694893 -1.866656 -1.091251 -1.117097 -0.273832 0.398986 -0.402436 -0.446669 -0.100494 -0.320861 0.331183 0.190138 0.685273 0.899149 0.088537 0.030254 -0.945714 -0.773876 0.980644 0.693786 0.170986 0.137895 0.583785 0.293909 -0.073030 0.413678 -0.247763 0.352551 0.394064 -0.231467 0.310305 0.153640 1.228865 -0.269515 -1.009916 1.230470 -0.836726 -1.472087 -2.022263 -2.950183 0.985154 -0.549339 0.020889 1.782579 -1.845109 0.226039 0.696109 -0.592231 -0.509200 -1.759146 -0.033799 1.265593 -1.332277 -1.973184 -0.091187 0.671683 -0.728609 1.007505 -0.390782 -0.253260 -0.060979 0.176296 4.150842 4.058809 0.726473 -1.079884 -0.326053 -1.212530 -2.570979 -2.289318 -0.005198 0.753532 -1.258922 0.485751 -2.029983 -1.894303 -0.776485 -1.690922 0.541198 0.725005 1.422858 1.342150 -0.012188 0.775854 -0.029008 0.044933 -0.211231 1.685321 0.221650 -0.359870 -0.034995 1.082587 -1.033752 -1.185301
3.589364 0.420382 0.612879 0.474171 0.343980 0.486192 1.202585 0.351310 0.345110 0.486088 1.050945 1.392634 0.585962 1.154065 0.283135 1.476205 1.370507 0.193554 0.192607 0.388867 -0.318441 1.142099 2.626367 1.779273 1.502752 1.389432 1.058797 1.102146 0.803063 1.475349 2.930354 1.755722 2.149579 -1.224117 -0.910804 -0.169238 -0.262665 -1.194428 0.340888 -0.138503 -0.292980 -1.056286 -0.037304 -2.632881 -2.889293 -0.442946 -1.118430 0.174889 0.512801 -1.112792 -0.906600 -1.143629 -0.830984 -2.510927 -2.578007 -0.544612 0.340585 -0.324041 -0.282964 -3.279598 -1.238825 -0.685999 -0.143347 -0.933186 -1.102084 1.197947 1.231104 0.308895 0.853289 -0.107851 -0.309714 0.516031 0.546865 -0.335527 -0.093690 0.909618 0.892150 1.144579 1.204983 1.289366 0.829865 -0.294831 -0.354828 -1.222473 -0.954574 0.373031 0.386854 0.728745 0.845976 0.663515 0.529802 1.421400 0.603501 1.732546 1.347163 0.675034 0.363516 -2.033755 -1.732231 -1.973153 -1.853270 -1.938703 -2.264588 -1.593762 -1.905294 -0.408714 -0.323476 -0.079937 -0.323413 0.959488 0.654585 -0.587113 -0.751046 -0.460417 -0.310263 0.096007 -0.769510 0.629132 0.002438 -0.103675 -0.099330 1.906025 1.464027 0.740998 0.338672 0.122096 -0.041313 -0.655800 -0.037630 0.407389 1.151249 0.758397 -1.794725 0.305686 2.243956 -1.794885 0.173450 -2.269679 -2.693900 0.238886 0.689228 1.409861 -0.951816 -2.342208 2.964628 0.074616 -0.158749 -1.968245 -1.950474 -2.543363 0.755280 0.614434 -0.208931 0.554902 -0.778362 -0.036909 -0.536952 0.426547 0.544393 2.560162 2.442103 0.825297 0.658450 -0.275526 1.259291 1.138091 2.025260 -2.641218 -0.583339 0.998021 0.246803 -2.358655 -1.174117 -0.323371 -1.551772 -1.605128 -2.400749 -1.413746 -1.554153 -3.111903 0.699603 1.166925 0.031874 -0.480903 -1.309484 1.401431 2.267842 -1.036850 -1.964296 -0.477549 0.599149
0.010571 -2.264851 -1.949552 -0.964264 -1.168075 0.134362 0.954444 -0.073908 0.109011 1.324648 1.627933 3.250428 3.391502 2.007242 1.339360 2.031717 2.161264 -1.123197 -1.508470 0.996433 0.948431 0.801716 2.207489 0.811953 0.301316 1.192676 0.895924 1.735300 1.175331 1.787634 2.698546 2.607471 2.988115 -2.751272 -2.458079 -2.743786 -2.944837 -0.616143 0.707777 -0.303168 -0.326235 -1.409837 -0.735460 -1.461554 -1.480797 -0.017227 -1.032106 1.219702 1.597528 -1.462611 -1.349694 -0.509964 -0.412767 -2.504118 -2.095389 0.150816 0.219103 -0.602514 -0.530429 -1.399401 -0.714556 -0.752807 -0.771775 -1.330878 -1.594883 2.005645 2.147135 1.420744 1.824264 -0.562987 -0.627394 1.313941 1.316525 0.057151 0.106953 -0.065515 -0.366849 0.862625 0.672015 1.402288 1.300416 0.086971 -0.095877 0.026578 0.183592 -0.532159 -0.473882 -0.859480 -0.588192 0.156944 -0.006366 0.630630 0.072204 1.271526 1.154915 0.551390 -0.078733 -2.130794 -1.680682 -1.384305 -1.513686 -1.341266 -1.744163 -1.141927 -1.315034 -1.139383 -0.968936 -1.186058 -1.296523 -1.179014 -1.621166 -1.282884 -0.974366 0.439008 0.525080 0.582609 0.274241 1.368943 1.192515 -0.055531 0.131881 1.617658 1.277764 0.545598 0.358412 0.010017 0.353533 -0.779998 -0.237991 -0.178838 0.738875 -0.251288 -0.342874 0.100850 1.747315 0.950161 0.377533 -0.484884 -0.049605 -1.485034 -0.304350 1.878737 0.259151 -0.168927 0.657168 0.620928 0.009739 -0.488266 -1.237925 -0.529051 0.279231 -0.756688 -1.014272 -0.037665 -2.224207 1.319976 0.659502 -0.560719 -0.808099 0.383125 -0.184716 0.697065 1.221871 0.751687 0.931042 0.375237 1.657022 -0.486015 -1.628050 -0.883281 -0.628038 -0.463162 -0.055754 0.332567 0.610806 -1.552328 -0.966092 -2.212501 -1.198917 0.369987 -0.779699 -0.539169 -0.570316 0.973067 -0.451873 0.007015 -0.017729 -0.323772 -0.656602 0.055125 2.119499
-0.675723 -1.738681 -1.975429 -1.129601 -1.418918 -0.353971 0.532039 -0.404359 -0.496484 -0.063730 0.845850 1.413068 1.080892 0.866132 0.504965 0.999651 1.390877 -2.642057 -2.401559 0.064513 0.045138 -1.071716 -2.200181 -1.609396 -2.068112 -0.823238 -0.948857 0.508218 0.129559 -0.143105 0.149687 1.121714 1.734447 -1.638201 -1.540444 -2.809149 -3.292281 -0.098025 0.961989 -1.430890 -1.671281 0.831703 1.196332 2.006822 2.375335 0.964999 0.083001 0.657105 1.338530 -1.053300 -0.982092 -1.787901 -1.453824 2.213835 2.810799 2.044063 0.733746 -2.388808 -1.421418 3.854334 1.933682 0.606683 0.801553 2.691744 2.888276 -2.318923 -2.125272 -0.784941 -1.142368 -1.883133 -2.033128 -1.116654 -1.499284 -1.083270 -1.328954 -2.469599 -2.181580 -0.283683 -0.924373 -1.142789 -0.800876 -1.502539 -1.504496 -0.839644 -1.163086 -1.640682 -1.754575 -2.025759 -1.305211 -1.138592 -1.357183 -1.940461 -1.711404 -1.627154 -1.912151 -1.014121 -1.321425 0.119300 0.633496 1.962021 1.958168 2.236311 2.247301 1.135710 1.042367 2.911518 2.926815 1.890153 1.811012 1.418911 1.040130 1.112078 1.362757 3.073913 3.058828 2.608464 2.735446 1.420471 1.200011 1.742789 1.765455 0.293298 0.082821 -0.036481 0.052914 -0.633067 -0.676143 1.848515 1.856303 -1.232526 0.399726 -0.072693 0.651530 -0.463853 -0.059874 1.619210 0.192451 -0.619988 0.294511 -0.777101 0.248408 -0.912031 -0.745834 1.493974 -0.032290 0.410034 -0.488763 -0.408929 0.290921 -0.517193 -0.502958 -0.860736 0.077812 -0.169129 -1.221619 0.681748 3.100145 -0.026571 -2.041487 -0.550295 -0.491436 1.150154 1.315832 0.725217 -0.115937 -0.510700 -0.159631 0.147888 -1.110070 -1.616002 -1.120409 0.495413 0.040870 0.268376 0.940204 -0.090328 1.159862 -0.254216 0.836359 2.934951 -0.223539 -1.431581 -1.033874 0.989449 0.707319 -0.729754 -1.081987 0.174532 0.221002 0.153872 -0.415465
3.744583 0.107923 0.276773 -0.174623 0.040526 -0.798320 -1.037267 -0.808477 -0.731480 -1.293461 -1.314976 -1.847253 -1.295874 -1.624659 -1.038798 -1.672290 -1.536033 -1.515486 -1.314347 -1.974454 -1.862550 -1.258169 -1.428917 -1.130850 -0.959653 -1.832773 -1.857566 -0.627854 -0.890270 -1.369613 -1.830175 -1.204825 -1.274372 2.009796 2.054629 1.616536 1.866706 1.564133 1.231565 1.680555 2.008405 0.611680 0.420974 0.383730 0.291915 0.931095 0.996455 1.336404 1.253783 1.496829 1.297289 1.031016 1.128270 0.998661 0.788045 1.347299 1.588410 0.988052 0.952869 1.420795 1.410208 1.270294 1.195129 1.731443 1.921774 0.503116 0.545149 0.923826 0.873428 1.211873 1.199533 1.085023 0.997373 1.163309 1.238415 0.994403 1.065072 1.315016 1.377789 1.177523 1.211566 -0.334748 -0.102624 0.496951 0.263993 -0.219694 -0.202697 0.127326 0.099619 -0.432397 0.050577 -0.371497 -0.133936 0.228858 0.264052 0.588065 0.529559 -1.694473 -1.803838 -1.260570 -1.281038 -0.598958 -0.145314 -0.648974 -0.677782 -0.755294 -0.924995 -0.593542 -0.657207 -0.008925 0.103031 -0.258352 -0.328042 -0.925025 -0.797446 0.017587 0.023738 -0.422693 -0.365308 0.016895 -0.218307 -0.179661 0.121604 -0.223208 0.094875 0.089043 -0.103995 0.301395 0.115537 0.573903 -0.293851 -0.355466 1.185373 -0.398416 -0.854741 -0.978972 -0.954143 0.694717 0.163854 0.189359 1.094046 -0.867990 -0.350092 0.117135 -1.348022 -0.136132 -0.668978 0.014116 0.809806 -1.166836 -0.964214 -0.202028 0.151662 -0.269010 0.805993 -0.135073 -0.090150 -0.604329 -0.068661 2.796940 2.003676 0.035358 -0.894050 -0.209966 -0.698754 -1.183391 -1.293178 0.018172 0.476171 -0.997655 0.344180 -1.182491 -0.993145 0.101104 -0.775977 0.032195 0.241378 0.861787 0.940263 0.005512 0.291845 0.167008 0.513337 -0.265063 0.836395 0.003748 -0.158285 -0.274680 0.032782 -0.137087 -0.442913
2.685050 0.673008 0.807553 1.020896 0.948990 0.520414 0.787982 0.553038 0.538837 0.230204 0.498132 0.968071 0.263327 0.593832 0.153303 0.727916 0.681973 -0.034595 0.011099 0.179060 -0.269195 0.749747 1.850308 1.122370 0.747612 0.563486 0.363682 0.725758 0.371967 0.675673 1.509634 0.947374 1.122936 -0.619208 -0.443251 0.194501 0.196215 -0.652686 -0.018246 0.046569 -0.070127 -1.013079 -0.604747 -1.633638 -1.899054 -0.134329 -0.408190 0.265329 0.285259 -0.950785 -0.728666 -0.826006 -0.668695 -0.807948 -0.776292 0.080711 0.285479 -0.458593 -0.434251 -1.987178 -1.053230 -0.718948 -0.365584 -0.936654 -1.064023 0.614939 0.608640 -0.021995 0.291265 0.012357 -0.137717 0.488720 0.487506 0.092115 0.166438 0.826370 0.730156 0.718335 0.760806 0.791763 0.557460 0.075029 -0.014174 -0.418341 -0.330765 0.343589 0.328988 0.581796 0.640666 0.576285 0.485412 1.032601 0.526593 1.006914 0.834378 0.403972 0.307250 -1.670022 -1.537433 -1.636620 -1.606124 -0.867261 -1.022293 -0.519456 -0.726791 -0.416768 -0.424405 -0.244946 -0.413521 0.488796 0.269716 -0.390448 -0.460415 -0.477837 -0.410470 0.010862 -0.592008 0.235734 -0.225335 -0.223185 -0.229301 1.347696 0.942771 0.389902 0.185633 0.195603 0.137381 -0.632278 -0.159478 0.199690 0.547471 0.571752 -0.724053 0.639278 1.307797 -1.127483 -0.084307 -0.444341 -1.338995 0.043015 0.351687 0.231537 -0.268425 -1.537473 1.426127 -0.257548 -0.519748 -1.060990 -0.711389 -0.828065 0.521352 0.421257 -0.337995 0.298012 -0.350544 -0.637802 -0.841179 0.143820 0.377632 1.882329 1.546776 -0.023136 0.244623 -0.692102 0.527331 0.647825 0.958176 -1.951203 -0.245853 0.778232 -0.064151 -1.077773 -0.783829 -0.118498 -0.877136 -0.990051 -1.289140 -0.280713 -0.831615 -1.948237 0.482462 1.096659 0.023232 -0.325901 -1.045259 1.056468 1.703027 -0.827971 -1.175366 0.082197 0.618287
0.034236 -0.508879 -0.418198 0.035179 -0.092805 1.027230 1.454359 0.837407 0.888699 0.927128 0.841721 2.043415 1.818987 1.493382 1.084892 1.217720 1.137044 -0.159700 -0.467772 0.759026 0.572261 0.423026 1.735439 0.172023 -0.489694 0.978546 0.827031 0.723399 0.338222 1.197806 1.561321 1.339176 1.527551 -1.180344 -1.040080 -1.114612 -1.209699 -0.292372 0.220752 -0.159616 -0.213135 -1.827938 -1.712592 -1.952286 -2.002378 -0.136395 -0.427206 0.400482 0.400148 -0.614013 -0.562853 -0.271369 -0.177539 -2.208178 -2.117903 -0.365143 -0.568232 -0.318381 -0.390410 -0.992182 -0.647458 -0.612753 -0.713382 -0.946631 -1.037011 1.146195 1.258313 0.825349 0.825736 -0.240552 -0.327179 0.409278 0.366565 0.070165 0.145283 -0.121991 -0.159721 0.083988 0.039105 0.635032 0.629536 -0.257177 -0.510627 -0.787713 -0.572120 0.091489 0.103244 0.161929 0.276442 0.198434 -0.005051 0.440460 0.224424 0.610553 0.598028 0.122430 -0.131182 -0.876805 -0.614291 -0.599247 -0.816618 -1.354563 -1.714445 -1.261530 -1.379435 -0.036919 0.061795 -0.444828 -0.427924 -0.517961 -0.692251 -0.268132 -0.042290 0.525323 0.411760 0.250866 0.193740 0.680670 0.511931 -0.282531 0.045096 1.280971 1.030029 0.638271 0.657359 -0.281193 0.002184 -0.434643 -0.358821 -0.114414 0.099075 -0.173672 -0.326950 0.426634 0.833929 0.555811 0.436381 -0.298984 0.604439 -0.300296 -0.065603 1.355902 0.884080 0.356093 0.698204 0.344018 0.741705 -0.877760 -1.613294 0.081264 0.470139 0.487871 -0.176498 0.639989 -1.089201 0.787380 0.506640 -0.143962 -0.066007 0.175935 -0.718459 0.371263 1.159111 0.154034 0.968121 1.226068 1.411110 -1.410471 -2.562282 -1.250465 -1.363357 -0.663615 -0.197088 0.380465 0.683524 -1.033364 -0.520022 -1.543232 -0.987021 0.208506 -0.644400 0.178382 -0.237914 0.588406 -0.593308 -0.043828 0.323378 -0.323251 -0.688986 -0.097751 1.184418
0.221628 -0.142795 -0.282377 -0.260032 -0.360348 0.358803 0.440175 0.245152 0.344866 -0.010747 -0.384360 0.279518 0.591583 0.102827 0.180636 0.032007 0.170565 -0.870980 -0.794711 -0.517153 -0.347109 -0.406398 -0.798145 -1.247369 -1.578844 -0.667770 -0.796774 -0.115296 -0.657623 -0.277184 -0.479561 0.087738 0.287482 -0.262364 -0.354502 -0.424185 -0.430743 0.166514 0.096858 -0.386670 -0.296951 -0.132987 -0.717082 1.117698 1.392176 0.193239 0.262146 0.167483 0.307418 0.145080 0.093812 -0.213905 -0.222203 1.391409 2.182766 0.483582 -0.163515 -0.124457 -0.263502 2.017358 0.831973 0.045737 -0.144912 0.605992 0.732586 -1.173514 -1.043354 -0.698715 -1.026282 -1.144671 -1.095196 -1.306024 -1.332126 -1.068563 -1.096130 -1.587214 -1.620003 -1.147799 -1.198708 -1.228999 -1.007987 -0.081420 -0.047947 0.166670 0.061324 -0.017614 -0.014015 0.029961 -0.062638 0.487308 0.519389 0.295272 0.495412 -0.678842 -0.671395 -0.504109 -0.594057 0.277053 0.432214 0.857357 0.583126 1.066586 1.148628 0.215539 0.205536 1.197054 1.125854 0.503153 0.413652 0.130983 0.081235 0.276026 0.456313 1.991672 1.657576 1.363919 1.478666 0.582443 0.643574 0.843314 0.808039 0.236203 0.195686 0.120491 0.412355 -0.361127 -0.290442 0.496162 0.464771 -0.210635 -0.423681 0.335243 -0.236598 -0.474320 -0.335650 0.453048 0.201053 0.617993 0.837111 -0.417255 0.147211 -0.618962 0.777759 0.430732 0.646634 0.597655 0.400916 -0.479473 -0.232002 -0.545240 -1.167088 0.392568 0.325800 0.259401 -0.776595 0.330287 0.509016 0.528998 0.169117 0.123608 -1.043606 0.234172 0.792951 -0.144893 0.299218 -0.376353 0.607991 -0.355018 -1.477724 -2.005845 -0.418720 -0.824427 -0.425201 0.275637 -0.673708 0.895002 0.929918 0.136569 0.620964 1.590853 -1.170183 0.196614 -1.123751 0.331769 0.262215 -0.868258 -1.370104 0.874562 0.895726 -0.838262 1.048909
-0.496462 -1.642422 -1.647599 -1.188437 -1.301890 -0.028337 0.583924 -0.157183 -0.041997 1.014519 1.035942 2.132883 1.985985 1.381280 0.795137 1.210037 1.083941 0.375600 0.190389 1.261670 0.920715 1.557822 2.296104 1.749212 1.131827 1.784407 1.517137 1.657523 1.260180 2.158268 2.325405 2.386437 2.469074 -2.157871 -2.131008 -2.209962 -2.290273 -0.599240 0.282019 -0.567516 -0.604874 -1.302744 -1.002977 -1.092196 -0.935641 0.702463 0.164478 0.604648 0.819250 -1.180176 -1.069339 -0.922926 -0.768660 -1.434719 -1.585061 -0.513158 -0.639677 -0.864945 -0.895593 -1.382867 -1.078936 -1.335705 -1.480743 -1.574126 -1.705942 1.801015 1.926330 1.713627 1.790984 0.771299 0.727910 1.368085 1.325238 -0.100392 -0.197288 -0.296646 -0.441472 0.961517 0.782489 1.165810 1.123405 0.015010 -0.210207 -0.537701 -0.331037 -0.478952 -0.504703 -0.684240 -0.573496 0.139764 -0.015270 0.285705 0.028988 0.780273 0.798689 0.847841 0.482158 -1.585769 -1.379996 -1.230586 -1.431916 -0.939574 -1.278779 -1.190350 -1.310226 -0.729490 -0.680550 -1.167896 -1.143651 -1.485446 -1.714271 -1.530721 -1.331788 0.622750 0.533217 0.282580 0.308386 0.568281 0.409193 -0.148710 -0.002017 1.144853 0.925323 0.661207 0.503908 -0.350369 -0.019828 -0.232494 -0.036467 -0.325546 0.486288 -0.088238 -0.570670 0.517107 1.161900 0.564141 0.703506 0.071102 0.384047 0.000094 -0.208929 1.565159 -0.225960 0.073719 0.260058 0.469663 0.392451 -0.380058 -0.832885 0.720762 0.819116 -1.101008 -0.599008 -0.168265 -1.226545 0.897465 0.819122 -0.128413 -0.453409 -0.047690 -0.919331 0.349512 0.846796 0.191632 1.010477 0.485858 1.258321 -0.767020 -1.456638 -0.174358 -0.487668 0.338842 0.241343 -0.383903 0.597150 -1.755765 -1.099727 -1.718824 -1.102595 0.074091 -0.289867 -0.968256 -0.026746 0.558739 -0.712572 -0.069543 0.109804 -0.258823 -0.299530 0.248437 1.314321
-0.168490 -1.493556 -1.672092 -1.298254 -1.293950 -0.382461 0.076271 -0.420880 -0.385093 -0.148903 0.060542 0.419168 0.431541 0.297807 0.431372 0.305717 0.345711 -0.227641 -0.032735 0.053616 0.486204 0.234142 -0.590053 -0.115313 -0.254914 0.215886 0.113119 0.100629 -0.135088 0.547445 0.485670 0.991658 1.153078 -2.027869 -1.812634 -2.649745 -2.831605 0.017435 0.724157 -0.091751 0.051145 0.217348 0.401194 1.296397 1.379317 0.228665 0.103734 0.127194 0.453982 -0.508930 -0.522453 -0.671010 -0.647887 0.765330 1.341753 0.291283 -0.066905 -0.286718 -0.507477 1.812251 0.656591 0.805074 0.414225 1.488327 1.582450 -1.339044 -1.200914 -0.585909 -0.929894 -0.525737 -0.594400 -0.283311 -0.743666 -0.701124 -0.701418 -1.277997 -1.346834 -0.544508 -0.673518 -0.613884 -0.423530 -0.875496 -0.955340 -0.846273 -0.965664 -0.924204 -1.061527 -1.289098 -0.920741 -1.046950 -0.961734 -1.441348 -1.159880 -0.798317 -0.801224 -0.477536 -0.619987 0.334654 0.444732 0.872890 0.696159 1.081807 1.143874 0.674108 0.560120 1.856894 1.738298 1.455237 1.493612 0.192746 0.211895 0.486585 0.762352 2.303468 2.117552 1.753710 1.743790 0.991594 0.936011 1.128094 1.102357 0.042885 0.119077 0.159442 0.508546 -0.443446 -0.345657 0.723710 0.615420 -0.156853 -0.393172 -0.427646 -0.132477 0.151386 -0.434292 -0.186092 0.782687 0.401983 1.566861 -0.377332 0.120776 -0.400837 1.079398 0.845585 0.203872 0.116342 0.184064 -0.231842 0.203407 0.592448 -0.781299 -0.957169 -0.385534 -0.832590 -1.691949 0.119682 1.181602 -0.052490 0.019638 0.046822 -0.495004 0.163984 0.081677 -0.086161 -0.436855 -0.542970 -0.268726 -0.179239 0.153240 -0.964869 -0.619046 0.689639 0.713895 0.029645 -0.839491 -0.003550 0.084199 0.063276 0.642622 1.903243 -1.067822 -1.302478 -0.600531 0.512365 1.607019 -0.613399 -2.012964 0.571512 0.889262 0.284170 0.589632
-1.261381 -0.329003 -0.308105 -0.418001 -0.360209 -0.248615 -0.292131 -0.298682 -0.183715 -0.892403 -0.868118 -0.715727 -0.744920 -0.984955 -0.854785 -1.043732 -1.064275 0.236663 0.526126 0.709173 0.863684 -0.124339 -0.054575 0.241005 0.534438 0.239542 0.259978 -0.181745 0.095905 -0.220540 0.105397 -0.174172 -0.167154 -1.358720 -1.196527 -1.089487 -1.107357 -1.234452 -1.037774 -1.217838 -1.392987 2.009046 2.060191 2.049360 2.150892 1.564898 1.465702 0.568804 0.537649 -1.680317 -1.663470 -1.452948 -1.638294 1.315340 1.382441 0.342090 0.493157 0.063688 0.261159 -0.262315 0.421102 1.376938 1.367030 1.210064 1.149546 -0.373424 -0.405705 -0.656475 -0.580098 -0.074314 -0.106697 -0.166535 -0.055766 -0.535920 -0.476064 -0.547835 -0.651873 0.139830 0.160498 0.282957 0.080849 -0.463561 -0.538616 -0.886579 -0.793821 -1.157239 -1.155855 -0.981423 -0.931974 0.226362 0.263520 0.131145 0.050076 0.040094 0.032671 0.217595 0.177494 0.318151 0.287006 -0.036944 0.155973 0.463466 0.500955 0.172594 0.296966 0.107216 0.169138 0.194905 0.138314 -0.087779 -0.155089 0.481198 0.418827 0.722081 0.813148 0.598089 0.551902 0.215637 0.279580 0.610530 0.498498 -0.119606 -0.004572 -0.000649 0.060436 0.285642 0.247455 0.120462 0.171773 0.263196 0.045425 -0.003758 -0.005663 -0.496530 0.059582 -0.263508 0.190316 -0.011001 0.371328 0.523193 0.142247 0.319230 0.292567 -0.768508 0.258701 0.298399 -0.198957 -0.573858 -0.321654 0.619532 -0.254372 -0.016443 0.314922 0.430272 0.047358 -0.066300 0.046918 0.448372 0.089665 -0.900244 -0.190198 0.286887 -0.165604 -0.320292 -0.398006 0.062849 -0.592894 0.000840 -0.126231 0.614859 -0.374114 0.736448 0.386397 -0.133639 -0.277385 0.013307 0.036496 0.057789 0.457772 0.250300 0.156601 -0.252211 0.405413 -0.356009 0.150702 -0.340019 -0.328367 0.109844 -0.039056 -0.106242 0.015544
-0.352602 -0.834943 -0.784459 -0.739212 -0.667429 -0.271601 -0.374523 -0.589136 -0.848063 0.080155 0.282199 0.916657 0.694089 0.024366 -0.272623 -0.206813 -0.364924 0.470680 0.355113 1.381322 1.243018 0.913672 1.118387 1.857183 1.870864 1.059466 1.136798 0.461137 0.938789 1.103815 1.037971 1.261998 1.241860 -2.497494 -2.347886 -2.014170 -2.140492 -0.242185 -0.513660 -0.453450 -0.506669 -0.189247 0.927458 -1.262566 -1.381297 -0.519946 -1.014051 -0.658692 -0.175204 -0.883265 -1.005334 -0.648855 -0.604289 -0.692778 -1.105704 -0.097305 0.556254 0.006644 0.208292 -0.157995 0.535717 1.005283 1.148465 1.458936 1.417070 -1.170656 -1.124822 -0.846963 -0.732717 0.196606 0.115384 0.394127 0.382994 0.298163 0.268856 0.357158 0.424078 -0.685902 -0.780394 -0.425365 -0.550236 1.006334 1.016015 0.683020 0.784741 0.615774 0.517237 0.070767 0.302735 -0.019236 -0.093500 -0.313367 -0.389244 -0.303707 -0.106138 -0.129310 -0.105879 1.391662 1.269777 1.376268 1.333553 1.037212 1.023705 1.179034 1.194474 -0.082633 -0.060383 -0.211410 -0.123681 0.164499 0.063282 0.159362 0.268210 -0.661601 -0.495572 -0.675365 -0.730699 -0.566303 -0.748895 -0.994030 -0.907265 -1.073672 -1.138892 -1.484589 -1.587002 0.177052 0.201410 0.394068 0.299271 0.323489 0.625368 -0.767739 -0.268982 0.282371 0.426966 -0.065787 0.225412 -0.544940 0.592436 0.505953 -1.336221 1.109260 -0.224515 1.419000 0.534973 -0.032058 -0.140379 -0.525621 0.206885 0.362991 0.703407 -0.842933 -0.180497 0.176166 0.054432 0.824239 -0.111317 -1.256493 -0.358224 0.107553 0.370476 0.632952 0.076171 0.256827 0.094317 0.032975 -0.633737 -0.766060 0.134568 0.009158 -0.489053 0.253808 0.178219 -0.315261 -0.162918 -0.565474 -0.377302 -0.679332 1.297546 -0.531809 1.046363 -0.296245 0.839041 -0.117142 0.403372 0.657501 0.228720 -0.416905 -0.753988 -0.705466 -1.108136
1.052577 -0.228712 -0.098887 -0.271134 -0.087959 -0.323798 -0.316495 -0.194816 -0.186459 -0.658864 -0.319818 -0.859409 -0.558966 -0.450292 -0.144978 -0.366680 -0.281227 -1.158801 -0.942222 -1.416333 -1.331491 -0.854357 -0.921743 -0.780415 -0.939230 -1.161983 -1.116081 -0.665333 -0.777003 -0.866085 -1.170191 -0.821091 -0.929649 0.716111 0.677443 0.669054 0.804800 0.662599 0.441770 0.774453 0.987655 0.224177 0.071233 0.369443 -0.006295 0.471429 0.480188 0.840198 0.885511 0.957246 0.789920 0.630827 0.691406 0.706991 0.474304 0.627231 0.576939 0.905752 0.797809 0.857212 0.812954 1.011076 0.903714 1.177008 1.262919 0.509791 0.545984 0.702567 0.633816 0.772105 0.696574 0.641327 0.640542 0.618736 0.666136 0.470575 0.488270 0.436105 0.485945 0.464385 0.591412 0.904187 0.927213 0.845211 0.827704 0.711271 0.667028 0.670226 0.763815 0.479773 0.647927 0.405745 0.566476 0.483810 0.584691 0.888213 0.958694 -0.814699 -0.873672 -0.701469 -0.741555 -0.604049 -0.380988 -0.566642 -0.555627 -0.526048 -0.666031 -0.547282 -0.556472 -0.315886 -0.268455 -0.414140 -0.371580 -1.130133 -1.105233 -0.981380 -0.821670 -1.073351 -1.044712 -0.753620 -0.909751 -0.491615 -0.465621 -0.459019 -0.335109 -0.288894 -0.297697 -0.238611 -0.342663 -0.234751 -0.106313 0.285818 0.741882 -0.002808 -0.310085 0.527250 0.307598 0.376251 0.488624 0.102633 0.454843 -0.467426 -0.287866 0.251317 0.128889 0.144886 0.261288 -0.244417 0.398848 -0.109290 0.052675 0.097717 0.129287 -0.041696 0.191684 -0.407811 -0.064332 -0.537211 -0.039159 0.775813 -0.072877 -0.176069 -0.163799 -0.153415 -0.050451 -0.130801 -0.058808 -0.407742 0.091662 -0.086121 0.131596 -0.379497 -0.434296 0.046915 -0.220818 0.088545 0.150372 0.253129 0.110750 -0.121335 -0.066695 0.239277 0.082975 -0.393394 0.278822 -0.220247 -0.274333 -0.196445 -0.283858 0.344001 -0.089225
1.812438 0.442373 0.489905 0.647308 0.580626 0.798191 0.903528 0.825491 0.779471 0.355975 0.489186 0.851759 0.390055 0.775281 0.382202 0.843058 0.772572 -0.123474 -0.176409 0.018447 -0.373955 0.429913 1.256740 0.623071 0.209422 0.320748 0.184694 0.650518 0.153784 0.418521 1.079093 0.622611 0.785247 -0.772930 -0.639119 -0.113523 -0.136588 -0.497700 -0.071394 0.002089 -0.143989 -0.667028 -0.562690 -0.642829 -0.894600 -0.153852 -0.402560 0.050563 0.028680 -0.797615 -0.727795 -0.691501 -0.648893 -0.508733 -0.452933 -0.053979 -0.119397 -0.363386 -0.350523 -1.347530 -0.870579 -0.475786 -0.229604 -0.626970 -0.710821 0.452096 0.495417 0.033793 0.186846 0.058291 -0.131504 0.315943 0.297492 0.093891 0.129334 0.452059 0.387859 0.406961 0.394713 0.523402 0.385843 0.085603 -0.020357 -0.502820 -0.400443 -0.024900 -0.072827 0.103534 0.219509 0.333898 0.246436 0.668089 0.301297 0.741658 0.635912 0.392356 0.302724 -1.130135 -1.008071 -1.010868 -1.077226 -0.585146 -0.759375 -0.396686 -0.576852 -0.226507 -0.240710 -0.255060 -0.424127 0.399228 0.125653 -0.342352 -0.316897 -0.020993 -0.031899 0.242238 -0.247655 0.349147 -0.029265 -0.168264 -0.085671 1.072786 0.611209 0.264867 0.170233 0.166145 0.183311 -0.284729 -0.045998 0.141104 0.351187 0.450918 -0.443766 0.542704 0.917846 -0.518254 0.463726 -0.137241 -0.462288 -0.046552 0.325424 0.087613 0.016894 -0.705392 1.064222 0.206736 -0.024279 -0.891917 -0.437200 -0.275641 0.145288 0.292348 -0.407646 0.177819 -0.130880 -0.335301 -0.526778 0.095814 -0.006347 1.328633 0.875529 -0.298559 -0.113887 -0.474971 0.284610 0.562696 0.442768 -1.331732 -0.255317 0.302928 -0.240664 -0.619589 -0.525414 -0.162140 -0.679270 -0.793646 -0.820744 -0.352541 -0.698007 -1.139455 0.195613 0.775683 -0.038319 -0.154995 -0.583157 0.630382 0.949898 -0.723327 -0.956948 0.208647 0.590783
0.286983 -0.286558 -0.230394 0.094133 0.039679 0.989687 1.201375 0.838679 0.865634 0.658830 0.548150 1.202624 1.020040 1.105325 0.777223 0.795236 0.665463 -0.282805 -0.536714 0.318533 0.118173 0.299839 1.237223 -0.022343 -0.596548 0.569048 0.470717 0.559996 0.251092 0.771549 0.986152 0.849687 0.976028 -0.941042 -0.894282 -0.906212 -0.981173 -0.200642 0.029053 -0.167183 -0.214127 -0.769686 -0.779130 -0.701812 -0.714310 0.099080 0.005101 0.246523 0.203166 -0.440207 -0.420467 -0.256998 -0.227626 -1.158615 -1.092713 -0.251187 -0.490005 -0.445449 -0.462543 -0.609691 -0.533873 -0.640542 -0.616246 -0.803378 -0.831555 0.647014 0.745831 0.459800 0.418056 -0.320140 -0.402562 0.108124 0.098122 -0.006220 0.026561 -0.236743 -0.270167 0.093360 0.029256 0.405360 0.407661 -0.005631 -0.149647 -0.495496 -0.315962 0.156461 0.162415 0.165348 0.270354 -0.003291 -0.180136 0.106402 -0.022702 0.315304 0.291636 0.017178 -0.132546 -0.301663 -0.146647 -0.113880 -0.340402 -0.681230 -0.876929 -0.613460 -0.685650 0.017385 0.064414 -0.339682 -0.284425 -0.217796 -0.312751 -0.060979 0.123897 0.425318 0.295429 0.206570 0.124987 0.500831 0.384353 -0.257533 -0.013920 0.682083 0.488192 0.235934 0.287403 -0.215971 -0.057816 -0.231339 -0.180740 -0.131355 0.047414 -0.065330 -0.327233 0.325127 0.527867 0.408550 0.635259 0.147195 0.597018 0.013044 -0.043607 0.796589 0.500045 0.288251 0.753422 0.280041 0.531986 -0.584315 -0.587416 0.130854 0.409407 0.249269 -0.016140 0.388213 -0.523753 0.310003 0.200289 0.010458 -0.267750 0.207630 -0.312816 0.101733 0.539642 -0.336949 0.354655 0.608954 0.699610 -1.127261 -1.626727 -0.715139 -0.726227 -0.365961 0.030791 0.215674 0.410641 -0.702607 -0.226752 -0.898345 -0.564264 0.086794 -0.366675 0.309204 0.007545 0.338495 -0.599553 -0.198699 0.196596 -0.476783 -0.379174 -0.111778 0.622983
0.367151 0.037159 -0.055198 0.012442 -0.024881 0.662118 0.489867 0.560615 0.636794 0.181064 -0.305871 0.158402 0.433788 0.219770 0.366038 0.045668 0.028817 -0.687921 -0.581737 -0.583984 -0.392732 -0.438861 -0.710423 -1.168205 -1.437529 -0.565308 -0.601983 -0.153093 -0.542722 -0.320391 -0.291007 -0.108937 -0.019290 -0.237909 -0.281294 -0.262273 -0.258377 0.220097 0.090056 -0.042535 0.060087 -0.126362 -0.557007 0.896074 1.120303 0.079168 0.197861 0.004959 0.091641 0.067322 0.021570 -0.099845 -0.131530 1.023243 1.792262 0.360709 -0.083261 -0.076241 -0.202336 1.054648 0.342105 0.068337 -0.184484 0.268269 0.309425 -0.939106 -0.889031 -0.754210 -1.046933 -1.019554 -0.996381 -1.106405 -1.126422 -0.444937 -0.481461 -0.717074 -0.757493 -0.585158 -0.574498 -0.410025 -0.280536 -0.109778 -0.167701 -0.151999 -0.139135 -0.206089 -0.136735 -0.132469 -0.187550 0.134606 0.150170 0.044582 0.272006 -0.426914 -0.372806 -0.355503 -0.431505 0.388231 0.441912 0.621105 0.400737 0.823071 0.870033 0.254410 0.260365 0.882476 0.832026 0.416165 0.256722 -0.013650 0.051606 0.242995 0.450597 1.623167 1.205015 0.817464 0.941148 0.401273 0.498388 0.606131 0.560637 0.212980 0.143430 0.193022 0.474840 -0.368732 -0.264546 0.270603 0.219573 -0.226203 -0.566939 0.585168 -0.178289 -0.123250 -0.193872 0.177676 0.489810 0.827408 1.228229 -0.193735 0.013326 -0.442771 0.897007 0.118030 0.509773 0.395690 0.459391 -0.175809 -0.019994 0.145322 -0.431985 0.423758 0.112179 0.313135 -0.511728 -0.171437 -0.046571 0.479631 0.298672 0.167619 -1.107967 -0.151418 0.211300 -0.603326 0.116063 -0.601863 0.182897 -0.412082 -0.797049 -1.374989 -0.532338 -0.223723 0.066757 0.280222 -0.799027 0.718875 0.451935 0.382688 0.518349 1.050579 -1.175214 0.176818 -0.504014 0.049030 0.351136 -0.790429 -1.038512 0.340189 0.415264 -0.334576 0.968983
-0.623433 -0.682095 -0.658211 -0.410785 -0.479136 0.587189 0.896504 0.323385 0.445176 1.070239 0.967744 1.930255 1.616448 1.434764 0.961190 1.114232 0.986757 -0.259782 -0.617201 0.374591 0.139630 0.562447 1.479479 0.563936 -0.041913 0.906323 0.812188 0.961216 0.582437 0.978850 1.017572 0.952559 1.021633 -1.160025 -1.113009 -1.202259 -1.259071 -0.087668 0.321172 -0.202751 -0.234908 -1.357077 -1.328561 -1.194942 -1.100386 0.297606 0.029641 -0.004554 -0.018928 -0.775873 -0.708178 -0.650834 -0.507808 -0.659329 -0.614736 -0.145378 -0.463616 -0.522977 -0.571265 -0.797568 -0.690542 -0.716001 -0.868393 -0.872815 -0.980022 1.126784 1.224856 1.104714 1.044051 0.296563 0.243323 0.599811 0.552959 0.000320 -0.055280 -0.347123 -0.394174 0.183342 0.070693 0.492525 0.541911 0.105987 -0.120373 -0.428955 -0.211124 -0.246217 -0.315000 -0.392557 -0.342271 0.075690 -0.090894 0.109996 -0.024198 0.358625 0.411416 0.329856 0.086696 -0.740810 -0.570596 -0.615013 -0.792047 -0.970776 -1.179111 -0.986222 -1.075986 -0.041404 0.031970 -0.690282 -0.587550 -0.395300 -0.542950 -0.170460 -0.028314 0.525307 0.468647 0.123829 0.239259 0.251846 0.110924 -0.295380 -0.074298 0.656663 0.522138 0.334656 0.282083 -0.279583 -0.026433 -0.031940 -0.068250 -0.324638 0.255671 -0.142919 -0.396531 0.194705 0.686625 0.408544 0.659801 0.447984 0.832579 0.120968 -0.474231 1.156794 0.155894 0.240951 0.420778 0.604982 0.653265 -0.613659 -0.726023 0.681264 1.178895 -0.202480 0.030546 0.359365 -0.587259 0.655008 0.952295 0.077789 -0.393730 -0.434392 -1.073039 0.328574 0.870057 0.169142 0.996550 1.046321 1.225077 -1.762059 -2.371164 -0.888868 -1.041458 0.167442 0.215734 0.006055 0.918977 -1.015413 -0.415810 -1.205578 -0.952364 0.344640 -0.121853 -0.264763 0.075347 0.455023 -0.724880 -0.119987 0.285462 -0.458693 -0.580513 0.453931 0.795660
0.152935 -0.388021 -0.439495 -0.420978 -0.392273 0.377893 0.246078 0.164035 0.217513 0.490614 -0.045883 0.564775 0.907918 0.333861 0.439095 0.056386 -0.014270 -0.538670 -0.199896 -0.602613 -0.047879 -0.326339 -0.840890 -0.838176 -0.962161 -0.121132 -0.113306 -0.021817 -0.316592 -0.027213 -0.280238 0.055256 0.080696 -0.701797 -0.725661 -1.143003 -1.155913 0.476812 0.394914 0.148851 0.236681 -0.077025 -0.663699 1.283976 1.499545 -0.393189 -0.216389 -0.705196 -0.570009 -0.007492 -0.112782 -0.247092 -0.265253 0.818086 1.395721 0.236179 -0.130902 0.069062 -0.017187 1.445077 0.490990 0.397833 -0.015719 0.677403 0.733834 -0.778619 -0.675882 -0.323628 -0.667119 -0.422611 -0.393388 -0.571615 -0.680773 -1.013226 -1.064733 -1.583005 -1.581606 -1.392446 -1.418411 -1.095994 -0.910841 0.109788 0.047453 0.111026 0.148440 -0.234034 -0.250137 -0.290090 -0.262733 -0.278314 -0.211130 -0.381233 -0.091873 -0.385188 -0.263106 -0.061830 -0.102952 0.848475 0.865298 0.917831 0.736469 0.894492 1.016598 0.577711 0.608152 1.054663 0.951346 0.678158 0.601120 -0.483824 -0.364150 0.293347 0.544389 1.678233 1.250573 0.983925 1.108476 0.483435 0.580934 0.822696 0.723220 -0.260076 -0.217311 -0.035672 0.255311 -0.297781 -0.179979 0.368469 0.118222 -0.207319 -0.601504 0.183304 -0.126007 -0.180390 -0.590888 -0.216026 0.585200 1.076736 1.778654 -0.050241 0.039652 -0.410206 1.159319 0.809413 0.086342 0.227238 0.688320 0.016425 -0.191640 0.824686 -0.401404 -0.072868 -0.099446 -0.189451 -0.542334 0.244990 0.236495 0.039387 0.233483 0.124271 -1.133739 -0.196357 0.130905 -0.148668 0.000319 -0.668094 0.024059 -0.278364 -0.867471 -1.928104 -1.286596 0.139262 0.640176 0.157875 -0.948902 0.326802 0.569203 0.627418 0.594625 1.586603 -1.186280 0.151298 -0.185891 0.120001 0.633988 -0.912862 -1.584050 0.329765 0.515317 -0.253598 1.062250
-0.621587 -0.387939 -0.319542 -0.418683 -0.404461 -0.344052 -0.320886 -0.427521 -0.455370 0.054924 -0.064875 0.109770 0.106646 -0.154873 -0.143762 -0.255952 -0.349129 -0.363652 -0.381556 -0.518240 -0.446706 0.231753 0.130667 0.209456 0.104129 -0.175838 -0.103623 -0.167503 -0.095593 -0.049918 -0.208407 -0.030394 -0.144161 -0.219118 -0.191749 -0.247904 -0.269972 -0.294131 -0.277013 -0.381541 -0.392538 0.813451 0.749728 1.147783 1.255057 0.192295 0.185872 -0.256997 -0.316033 -0.205577 -0.267190 -0.258907 -0.252377 1.344994 1.203450 0.508394 0.336599 -0.039574 0.000843 0.010407 -0.074552 0.361982 0.188550 0.442790 0.366683 -0.681366 -0.694159 -0.588169 -0.667212 -0.415363 -0.463618 -0.523341 -0.581656 -0.560493 -0.606482 -0.732096 -0.708187 -0.687530 -0.708781 -0.565761 -0.515460 -0.459182 -0.565828 -0.738019 -0.584651 -0.811768 -0.792812 -0.872958 -0.774033 -0.446107 -0.475060 -0.516503 -0.462042 -0.621866 -0.592449 -0.415474 -0.462306 0.669701 0.635615 0.711148 0.649194 0.727213 0.736690 0.612447 0.639340 0.660249 0.654358 0.494834 0.533735 0.514749 0.514238 0.623588 0.649008 1.174870 1.097533 0.980772 1.100059 0.765928 0.763220 0.832285 0.904632 0.029465 0.017595 0.072696 0.077591 0.210816 0.216622 0.249803 0.149156 -0.066794 -0.021892 -0.262622 -0.036652 0.108392 -0.046423 0.302931 0.319901 -0.083157 0.997530 0.220478 -0.156638 0.204397 0.104913 0.072705 0.147636 0.456270 0.209793 -0.237069 0.132320 0.453323 0.543761 -0.222231 -0.015458 -0.210861 0.268237 -0.163043 0.041682 -0.039403 -0.092816 -0.398255 -0.304287 0.175452 0.124330 0.170914 -0.225655 -0.064648 -0.098467 -0.529438 -0.374807 -0.101889 -0.176101 -0.456152 -0.462688 -0.167989 0.052321 -0.162462 0.115474 0.065125 0.006385 -0.050391 0.036016 0.160068 0.230618 -0.188356 0.041641 -0.135137 -0.122005 -0.079256 -0.053143 0.257690 -0.103448
-0.137452 -0.062665 -0.053572 -0.114707 -0.162145 0.113035 0.088356 -0.004006 -0.117909 0.669217 0.475801 0.652341 0.691013 0.326707 0.251254 0.147426 -0.033295 0.090730 0.097159 -0.095212 0.016258 0.677531 0.902710 0.820092 0.662404 0.357607 0.423093 0.381628 0.420834 0.500663 0.463280 0.572179 0.499555 -0.760862 -0.654714 -0.630020 -0.750935 -0.065210 0.049960 -0.040564 -0.099387 -0.275189 0.124416 -1.089237 -1.116555 -0.701385 -0.762217 -0.691727 -0.432785 -0.396310 -0.454623 -0.350240 -0.380973 -0.402701 -0.807320 -0.505316 -0.105167 -0.026385 0.077290 -0.017375 -0.036734 0.341271 0.240838 0.491313 0.434027 -0.512818 -0.470762 -0.283503 -0.351763 0.079734 -0.034908 -0.089569 -0.149753 0.549208 0.550191 0.386330 0.457222 -0.395892 -0.338433 -0.336372 -0.270811 0.906387 0.801224 0.523285 0.640538 0.268614 0.172878 -0.083943 0.105005 -0.340238 -0.372777 -0.371577 -0.387898 -0.307258 -0.300139 -0.088666 -0.179686 1.212841 1.159016 0.996637 0.871570 0.706621 0.609890 0.601562 0.578427 0.063715 0.071192 -0.056524 -0.066472 -0.078827 -0.132329 -0.082345 0.000427 0.020539 -0.117855 -0.311619 -0.268545 -0.435148 -0.523501 -0.511229 -0.400965 -0.751953 -0.779699 -0.864693 -0.912277 -0.185161 -0.168227 -0.055393 -0.100979 0.178262 0.113142 -0.395289 0.030853 0.219458 0.125058 0.327636 0.326676 -0.200031 0.360857 0.158472 -0.164191 0.536346 0.093413 0.507052 0.206114 0.212181 0.348997 -0.130484 -0.048880 0.051533 0.315007 -0.142013 0.059357 -0.336030 0.255121 0.089847 0.213583 -0.165925 -0.153686 0.013875 0.242573 0.422240 0.297540 0.487392 0.034479 0.037668 -0.274411 -0.630033 -0.307777 -0.248976 -0.415943 -0.449189 -0.244873 -0.817756 -0.115976 -0.503913 -0.018925 -0.022419 0.183584 -0.071347 0.556776 -0.300251 0.420439 0.102121 -0.076640 0.044118 0.129060 -0.138687 -0.697304 0.297442 -0.546426
-0.786894 -1.013625 -0.983715 -0.796235 -0.896902 -0.149806 0.144387 -0.199539 -0.135282 0.824639 0.825725 1.549024 1.459480 0.946095 0.548622 0.828625 0.732815 0.484706 0.237826 1.021076 0.686865 1.180869 1.451254 1.099268 0.769676 1.553507 1.439995 1.165420 1.067190 1.531012 1.730394 1.604872 1.690972 -1.337338 -1.313384 -1.447013 -1.507681 -0.677882 -0.206125 -0.617355 -0.671004 -0.318113 -0.189618 -0.248815 -0.068414 0.275702 -0.053370 0.073182 0.214921 -0.791113 -0.720745 -0.711633 -0.625548 -0.891901 -1.057231 -0.486112 -0.550245 -0.910572 -0.895512 -1.360286 -1.115596 -1.102848 -1.236678 -1.260420 -1.377355 1.401967 1.454227 1.284866 1.351659 0.922215 0.891368 1.136456 1.138693 0.641084 0.594420 0.492266 0.420264 0.863213 0.767795 0.969026 0.920787 -0.293489 -0.468624 -0.821871 -0.655047 -0.763652 -0.746988 -0.860104 -0.780687 0.264122 0.147845 0.352270 0.150691 0.530229 0.494088 0.525878 0.298570 -1.279308 -1.118934 -1.139935 -1.228875 -1.031257 -1.237728 -1.268223 -1.320114 -0.698966 -0.611633 -1.017700 -0.975994 -1.345018 -1.491889 -1.336327 -1.216651 0.696791 0.639819 0.371290 0.399569 0.438796 0.366081 0.031685 0.175628 0.571793 0.450822 0.337025 0.240632 -0.131955 0.107240 0.025569 0.187335 -0.218074 0.256054 -0.195314 -0.332619 0.236438 0.719427 0.663212 0.555188 -0.014471 0.470237 0.253584 -0.144041 1.228211 -0.127540 0.033928 0.199102 0.294949 0.230243 -0.238763 -0.426986 0.356204 0.618588 -0.380068 -0.179508 0.089535 -0.567777 0.608737 0.749791 0.013954 -0.404882 -0.373862 -0.651874 0.192084 0.543034 0.056781 0.659692 0.285453 0.630190 -0.227458 -0.755518 0.015264 -0.240198 0.194133 0.003671 -0.301693 0.504162 -1.308609 -0.899416 -1.194463 -0.860331 0.131376 -0.127659 -0.766402 -0.064004 0.401584 -0.666250 -0.186768 -0.026592 -0.401421 -0.172470 0.361582 0.909666
-0.594311 -1.213191 -1.385687 -1.329419 -1.294465 -0.892696 -0.784809 -0.878966 -0.794240 -0.337130 -0.438300 -0.211787 0.134383 -0.311509 -0.100827 -0.398755 -0.350980 -0.451544 -0.285480 -0.466720 0.010890 -0.285562 -0.828761 -0.747696 -0.829944 -0.327487 -0.318567 0.007765 -0.230263 -0.306583 -0.448393 -0.167335 -0.008593 -0.188700 -0.185155 -0.827649 -0.816323 0.269069 0.209600 -0.317024 -0.165920 0.876541 0.431976 1.644126 1.912785 0.609696 0.646554 0.102691 0.040981 0.663081 0.485358 0.376506 0.335308 1.088675 1.556806 0.240967 -0.284171 0.689824 0.517779 1.790491 0.596414 0.915819 0.283746 1.063942 1.114548 -0.956303 -0.891439 -0.500225 -0.861287 -0.539362 -0.516857 -0.779456 -1.002952 -0.569003 -0.597215 -1.022263 -1.094911 -0.825512 -1.031925 -1.050761 -0.754195 -0.737137 -0.771750 -0.650734 -0.648718 -0.954891 -0.942393 -1.051308 -1.007827 -0.889079 -0.882897 -1.317872 -0.991101 -1.244173 -1.186425 -0.772697 -0.826307 0.942404 1.009424 1.195320 1.073155 1.193443 1.267375 0.786706 0.821212 1.071884 1.075109 0.772783 0.775498 0.039586 0.133327 0.463697 0.714889 1.849773 1.666984 1.486769 1.588577 1.107914 1.261744 1.268961 1.211108 -0.062322 0.004728 0.192602 0.502884 0.120859 0.220428 0.822177 0.695669 -0.217095 -0.596529 -0.210198 0.153234 -0.191318 -0.468831 0.315064 0.378461 0.451012 1.625109 0.083136 0.073297 0.125203 0.852764 0.875639 -0.639014 0.352278 0.219499 0.358591 0.263934 0.749740 -0.764910 -0.758271 -0.527071 -0.512856 -0.203993 0.111859 0.680466 0.374227 -0.281508 -0.348684 -1.053577 0.212775 0.026891 -0.059861 -0.424255 -0.809022 -0.447900 0.528941 -0.161645 -0.771501 -0.685819 0.376744 0.704353 0.325959 -0.544967 0.315289 0.098721 -0.178598 0.144386 1.705230 -1.225973 -0.603258 -0.421418 0.382721 0.829732 -0.952946 -1.970689 0.941639 0.881795 0.259877 0.486081
-1.057744 -0.767901 -0.755825 -0.753731 -0.734950 -0.855615 -0.806973 -0.813379 -0.806622 -0.241196 -0.447680 -0.055592 0.145080 -0.360684 -0.302685 -0.362523 -0.449357 0.089709 0.184188 0.287259 0.364994 0.096811 -0.242125 0.062039 0.214084 -0.014264 -0.023393 -0.130743 0.022519 -0.143980 -0.016328 -0.086615 -0.164521 -0.220488 -0.179782 -0.065828 -0.058362 -0.437504 -0.607632 -0.387950 -0.419649 0.721976 0.672618 0.908714 1.038010 0.212467 0.154116 0.035810 -0.007307 -0.226871 -0.263356 -0.369155 -0.311901 0.842365 0.576438 0.101815 0.197879 0.531288 0.623968 -0.034734 0.399705 0.885579 0.883843 0.848670 0.767515 -0.277712 -0.378018 -0.415312 -0.363711 -0.005867 -0.030006 -0.236688 -0.146691 0.045106 0.042490 0.015476 0.033790 0.064685 0.190512 0.029969 -0.020755 0.003580 -0.061670 -0.178282 -0.085595 -0.423565 -0.305771 -0.352822 -0.332058 0.193920 0.219104 0.255482 0.272836 0.071297 0.129513 0.367379 0.323580 0.161466 0.105018 -0.004008 0.017611 0.117781 0.137633 0.055879 0.062493 -0.023384 -0.009538 -0.015001 -0.115152 -0.141354 -0.181147 0.158105 0.030301 0.037302 0.027574 -0.082933 -0.064477 -0.525507 -0.457616 -0.171090 -0.221414 0.026998 0.007918 0.126982 0.055491 0.366319 0.309537 0.246644 0.259633 0.362233 -0.035911 0.037363 -0.146636 -0.092593 0.004760 -0.255420 0.245842 -0.096997 0.466386 0.462447 0.113507 -0.107092 -0.009297 -0.573229 0.172066 0.221684 -0.090467 -0.361947 0.183772 0.536877 -0.013248 -0.088456 0.083459 0.095005 0.450727 -0.171333 -0.263285 0.374282 0.219214 -0.649041 -0.061856 0.104045 -0.156751 -0.258230 -0.408716 0.028281 -0.467373 -0.042303 0.313290 0.479906 -0.175651 0.240979 -0.083604 -0.276130 -0.327225 -0.223602 -0.107703 0.131253 0.374215 -0.285096 -0.013768 -0.197542 0.154830 -0.305018 0.020016 -0.063688 -0.092756 0.271470 0.066397 -0.047099 0.212138
-0.660792 -1.003027 -1.042978 -1.016739 -1.027794 -1.007331 -1.146899 -1.038943 -1.215477 -0.213243 -0.225061 0.352101 0.248105 -0.203169 -0.202668 -0.117617 -0.084990 0.138041 0.063652 0.450700 0.290322 0.531642 0.550145 0.479680 0.600895 0.157696 0.153274 0.045436 0.231686 0.188808 0.060888 0.286693 0.295678 -0.460262 -0.521378 -0.018699 0.000496 -0.086901 -0.439961 0.070403 0.083999 0.330649 0.466089 -0.717175 -0.670479 0.041140 -0.105028 0.100614 0.179078 0.297666 0.289377 0.135235 0.164320 -0.321015 -0.825377 -0.274722 0.164254 0.545921 0.636499 0.428904 0.707415 0.859760 0.793150 0.974422 0.931306 -0.662102 -0.738733 -0.567514 -0.570567 -0.267969 -0.294118 -0.353591 -0.330527 -0.217954 -0.256744 -0.136116 -0.027163 -0.705504 -0.580274 -0.594195 -0.579448 0.718172 0.745980 0.643283 0.677379 0.815725 0.828846 0.645446 0.655823 -0.282156 -0.287148 -0.285708 -0.233307 -0.420734 -0.257149 -0.048072 -0.017445 1.240383 1.230939 1.322737 1.220734 1.040040 1.060691 0.989435 0.939003 0.166547 0.143554 0.117031 0.090836 0.521847 0.419260 0.297461 0.304171 -0.825875 -0.726763 -0.651424 -0.708610 -0.417089 -0.512462 -0.456213 -0.445402 -0.936707 -0.949979 -0.936829 -0.944044 -0.016043 -0.061108 -0.064617 -0.128714 0.249287 0.142391 -0.351216 0.069048 0.030381 0.017507 0.054676 0.132414 -0.184235 0.235516 0.500873 -0.831952 0.570894 -0.137451 0.641526 0.037406 0.125132 -0.060093 -0.255172 0.610494 0.129166 0.660666 -0.439374 0.061590 -0.219542 0.215920 0.357874 0.309373 -0.155089 -0.146554 -0.333907 -0.120403 0.433815 0.339563 0.196002 0.029379 -0.357015 -0.636756 -0.671807 0.250484 0.190181 -0.047604 -0.243567 -0.267938 -0.278846 0.410168 -0.035169 0.297126 -0.456762 1.052485 -0.478310 0.635789 -0.661463 -0.086208 -0.717615 0.122819 0.212937 0.208742 0.646599 0.015115 -0.280191 -0.781998
-1.293168 -0.410105 -0.389202 -0.298867 -0.341926 -0.531878 -0.484126 -0.409793 -0.426836 -1.161263 -1.090733 -1.184394 -1.289721 -0.978244 -0.590661 -0.889792 -0.862676 0.331278 0.862915 -0.341655 0.919521 -0.287656 -0.347931 -0.160496 0.089136 -0.276677 -0.036226 -0.855286 -0.498367 -0.951108 -0.950838 -0.974734 -0.948446 -0.906655 -0.741823 -0.752629 -0.802676 -0.671636 -0.588428 -0.880600 -0.988903 2.123481 2.161481 1.808334 1.833546 0.924013 0.691082 1.055636 0.865062 -0.016805 -0.177802 0.151640 0.150823 -0.221129 -0.138920 0.030998 0.229116 1.237393 1.311245 1.102783 1.309098 1.127500 1.158832 1.038412 1.051151 -0.292976 -0.311344 -0.451840 -0.405046 -0.440303 -0.532876 -0.398006 -0.414008 0.226105 0.246708 0.192094 0.145628 0.116806 0.143160 0.297589 0.179449 -0.605445 -0.643986 -0.677681 -0.678453 -0.744883 -0.801010 -0.885369 -0.809578 0.053643 0.026218 0.089501 0.106950 -0.027626 0.001534 -0.089874 -0.065242 0.343080 0.369918 0.171360 0.260326 -0.060203 0.203935 0.083267 0.056759 -0.248269 -0.264377 0.124142 -0.167075 -0.290578 -0.115784 -0.175320 -0.219826 0.595185 0.628534 0.286208 0.288146 0.336980 0.339362 0.735896 0.581786 0.026029 0.097284 0.151341 0.183731 0.586434 0.531232 0.303716 0.413775 0.466370 -0.242681 -0.033168 0.326239 -0.281121 -0.366278 -0.483830 0.341056 0.176462 0.169555 0.465499 0.309450 0.177021 0.485164 -0.909490 0.036563 -0.027510 -0.178897 -0.092931 -0.185834 0.379681 -0.660031 0.143061 0.372326 0.094570 0.261688 -0.394358 -0.040761 -0.059227 0.379782 -0.955589 -0.176219 0.058355 -0.194390 -0.068487 -0.556311 0.093727 -0.739577 -0.441539 -0.108295 0.394693 -0.247102 0.161882 0.039322 -0.040414 -0.260272 0.077486 0.466522 0.453942 0.411454 0.493491 0.326343 0.240191 0.104613 -0.339125 0.224874 -0.295871 -0.525742 0.725645 -0.065276 0.273000 0.191707
-1.607243 -0.925659 -1.245648 -0.992573 -1.184127 -0.901761 -0.741209 -0.952064 -0.970655 -0.663078 -1.068220 -0.903445 -0.686141 -0.972879 -1.211052 -1.080383 -1.373129 0.267781 -0.171865 0.681426 -0.007199 0.363557 0.958969 0.366449 0.455698 -0.069093 -0.164198 0.539082 0.425744 -0.606674 -0.071763 -0.632094 -0.398700 0.205819 0.141581 0.558252 0.492091 0.632223 0.050225 0.254455 0.169928 1.474675 1.311873 0.707710 1.199835 1.029229 0.656915 0.846345 0.732013 0.209602 0.281991 0.363197 0.544609 -0.565372 -0.840269 -0.545983 -0.314141 0.423259 0.675269 -0.375961 0.856478 0.441255 0.400736 0.155974 0.153846 -0.154241 -0.233210 -0.283342 -0.240891 -0.585152 -0.615151 -0.558509 -0.448221 0.184815 0.140219 -0.116695 -0.082239 -0.601731 -0.550944 0.133666 -0.074270 -0.397752 -0.531152 -0.469546 -0.451765 -0.445048 -0.284444 -0.495246 -0.573755 -0.577146 -0.658266 -0.396255 -0.607630 -0.374086 -0.262239 -0.145901 -0.168828 0.326593 0.431555 0.652456 0.626957 0.456089 0.418601 0.255744 0.166991 0.111620 0.272676 -0.089927 -0.110006 0.725397 0.403375 0.160371 0.084261 -0.009394 0.398026 0.739473 0.390801 0.529717 0.493890 0.030127 0.019388 0.567682 0.442474 0.370709 0.355778 0.010069 -0.000252 -0.006618 0.093087 0.153891 0.368156 -0.444721 -0.030268 -0.296654 0.714206 1.096845 -0.085356 -0.237627 -0.456526 -0.074669 -1.002364 2.235793 -0.402467 0.220065 0.015273 0.645669 -0.481248 0.135110 0.078251 -0.288289 0.252698 -0.280273 0.164826 -0.205104 0.779441 1.067781 0.374849 0.683791 -0.126589 -1.190960 -0.340436 0.630277 0.084930 0.450685 0.296346 -0.103287 -0.882369 0.029852 -0.693837 -0.593438 -0.661902 -0.364066 0.048981 0.235898 0.364526 -0.210354 0.407563 -1.225608 -0.040727 -0.252869 0.653647 0.448809 -0.261454 -0.365664 -0.827707 -0.302691 0.361236 0.426392 0.076934 -0.182029 -0.123515
-1.050818 -1.083249 -1.010214 -0.666995 -0.657355 -0.337737 -0.489551 -0.338923 -0.290633 -0.154706 -0.176814 -0.165588 -0.238454 -0.217474 -0.334322 -0.464876 -0.532611 -0.151991 -0.152125 0.339399 0.413464 -0.044998 0.456892 0.125304 -0.047177 -0.308586 -0.350144 -0.426354 -0.473760 -0.506900 -0.375559 -0.570211 -0.570308 -0.683488 -0.606081 -0.594696 -0.580666 -0.287325 -0.366185 -0.290894 -0.345332 0.205052 0.058150 -0.093719 -0.094368 0.334546 0.190074 0.590556 0.417578 0.099177 0.090219 0.345268 0.339389 -0.121069 -0.044493 0.556692 0.533318 1.071146 1.123221 0.705488 1.039677 1.396843 1.394967 1.217827 1.150864 -0.855469 -0.840411 -1.052539 -0.996558 -1.057630 -1.110082 -0.789464 -0.727399 -0.027527 -0.033688 -0.127403 -0.196907 0.044666 -0.047840 0.196170 0.110938 0.474559 0.324823 -0.001567 0.171710 0.118340 0.124475 0.169308 0.207750 -0.330440 -0.417434 -0.254680 -0.426831 -0.179871 -0.142884 -0.420075 -0.496470 1.308139 1.391461 1.250145 1.189418 0.969863 0.890149 1.062542 1.084823 0.529254 0.627200 0.317052 0.338150 0.231623 0.194719 0.554019 0.532643 -0.264830 -0.231319 -0.496692 -0.440229 -0.543697 -0.494398 -0.584594 -0.588766 -0.128614 -0.200586 -0.061017 -0.182481 -0.163747 -0.044965 -0.290421 -0.215235 -0.173857 0.173734 0.063300 -0.222459 0.039125 0.451647 0.260798 0.631213 -0.143302 0.217827 0.229696 -0.104324 0.512126 -0.053950 -0.211340 0.087560 0.469356 0.478221 -0.592465 -0.303370 0.105263 0.446693 0.323110 0.153926 0.404918 -0.006165 0.292247 -0.063697 -0.460904 0.163993 -0.664968 -0.079998 0.318423 0.144229 -0.143040 0.351615 0.494280 0.188716 -0.518727 -0.654447 -0.133002 -0.379988 0.361623 0.660926 0.024252 0.020723 -0.693535 -0.495201 -0.179588 0.400303 0.130726 -0.021831 0.512487 0.756501 0.035083 -0.282865 -0.237773 0.333834 -0.526514 -0.698431 -0.156730 0.052867
-0.977968 -0.971554 -1.211708 -0.941462 -0.957260 -0.971874 -1.510947 -1.017970 -1.060576 -0.748581 -0.760568 -1.008907 -0.933012 -0.890965 -0.758201 -0.954558 -0.836110 -0.245800 -0.280036 -0.273110 -0.453125 -0.630126 -1.007563 -0.724178 -0.523948 -0.857084 -0.775135 -0.594348 -0.884136 -0.872756 -1.119918 -0.869229 -0.739899 0.322454 0.204737 0.305877 0.483662 0.486711 -0.368237 0.254340 0.306508 1.033628 0.459227 1.191904 1.286489 1.146540 1.424505 0.949893 0.581882 1.084005 0.946252 0.862138 0.757162 0.750948 1.011603 0.852637 0.958093 0.844829 0.855306 1.247508 1.162243 0.989998 1.004281 0.970016 1.039536 1.169766 0.903761 0.972486 0.729284 0.943335 0.994177 0.689176 0.815297 0.501227 0.426157 0.397876 0.448715 0.197812 0.240477 0.399324 0.482794 0.084178 0.130516 0.375030 0.315791 0.207951 0.251023 0.148611 0.053101 0.493421 0.474929 0.288132 0.510977 0.029411 0.220176 0.167607 0.243420 -0.713821 -0.653611 -0.280777 -0.437945 -0.251946 -0.130932 -0.297470 -0.360222 -0.391151 -0.401684 -0.445350 -0.578634 -0.487969 -0.547103 -0.628484 -0.536283 -1.174443 -1.080664 -1.023880 -0.980014 -1.140317 -1.063223 -1.267086 -1.322823 -0.116168 -0.108822 -0.075780 0.172003 0.279666 0.380982 0.231922 0.148122 0.063753 -0.109945 0.297003 0.284188 -0.298631 -0.257173 -0.045771 -0.161895 0.809884 0.652922 0.216234 -0.685398 0.033788 0.603461 0.151755 0.013908 0.290268 -0.241398 0.057817 0.578664 0.266031 0.131731 -0.080924 -0.141925 0.328274 0.283999 -0.008841 0.154364 -0.191706 0.380864 -0.744969 -0.272824 0.448112 -0.021594 -0.158694 0.390436 -0.565198 -0.532845 -0.020003 0.334135 -0.309661 0.128914 0.578716 -0.377353 -0.292776 0.115348 1.009821 0.260505 0.205515 0.926203 0.335755 0.308811 -0.532181 -0.066358 -0.369721 0.597943 0.018056 -0.661768 0.058734 0.689827 -0.688589 -0.671877
-0.009839 -0.120152 -0.105613 -0.116399 -0.157969 -0.071069 -0.069767 -0.056764 -0.129923 0.033441 0.040503 0.092743 0.044871 0.119941 0.083721 0.115253 0.068349 -0.641471 -0.480151 -0.402798 -0.604471 -0.484973 -0.363150 -0.408195 -0.561582 -0.341020 -0.320915 -0.027675 -0.204382 -0.111618 -0.082812 -0.066004 -0.069955 0.146056 0.144390 0.153294 0.206463 0.089903 0.108683 0.225652 0.302323 -0.265852 -0.152441 -0.084411 -0.212264 -0.071063 -0.080182 0.069850 0.167763 0.506138 0.348740 0.242216 0.248515 0.134952 0.178872 0.145422 0.065964 0.418435 0.336911 0.198766 0.114627 0.392064 0.306911 0.466172 0.537301 0.200652 0.235675 0.252077 0.219486 0.220812 0.154076 0.184739 0.166157 0.077588 0.117754 0.043837 0.035118 -0.014938 0.016537 0.071666 0.114416 0.056820 0.098268 0.017903 0.054511 -0.019720 -0.050620 -0.034791 0.048817 -0.058137 -0.027351 0.041843 0.025276 0.080094 0.118977 0.200626 0.157667 -0.187717 -0.156426 -0.087550 -0.159669 -0.131723 -0.089783 -0.130738 -0.155208 -0.040638 -0.090751 -0.087608 -0.103164 -0.050424 -0.126486 -0.144699 -0.106484 -0.089008 -0.176066 0.006638 -0.029145 -0.092126 -0.139004 -0.178847 -0.152277 0.099238 -0.027124 -0.051474 0.003217 -0.053121 -0.024590 -0.050590 -0.012326 -0.016249 0.017086 0.289048 0.274960 -0.010861 -0.023078 0.400526 0.427096 0.249159 0.206779 -0.109986 -0.101436 -0.102860 0.108283 0.274189 0.468548 0.222377 0.299013 0.088309 0.145749 0.126825 0.317820 -0.158241 -0.154853 0.062821 -0.032093 -0.126790 -0.128014 -0.048236 0.068119 0.060636 0.271198 0.272946 0.286628 0.164978 0.216415 0.202460 0.331328 -0.064554 -0.006338 0.169593 0.171515 0.119494 0.027641 0.165530 0.249129 -0.189480 -0.208494 0.043295 -0.112840 -0.007945 -0.123285 -0.084785 0.050934 0.014117 -0.125794 -0.070960 -0.202194 -0.041992 -0.081890 0.097774 0.006166
0.204628 0.256804 0.320753 0.419792 0.431800 0.596481 0.563584 0.625074 0.570532 0.750645 0.684775 1.086965 0.837716 0.937339 0.688603 0.839809 0.743355 -0.110425 -0.136005 0.173506 -0.057691 0.229783 0.556735 0.363764 -0.004390 0.449431 0.348799 0.815856 0.399287 0.688909 1.014155 0.878834 0.921449 -0.912583 -0.836932 -0.422829 -0.415334 -0.691059 -0.368557 -0.347551 -0.462832 -0.804279 -0.641346 -0.597905 -0.759059 -0.420578 -0.546333 -0.435338 -0.306144 -0.526230 -0.611230 -0.524503 -0.586001 -0.290285 -0.300345 -0.159820 -0.326512 -0.414118 -0.448147 -0.863030 -0.716245 -0.489720 -0.338484 -0.533866 -0.584200 0.621592 0.682011 0.361780 0.453399 0.335860 0.091268 0.379434 0.371019 0.137860 0.153984 0.269832 0.217917 0.149952 0.116171 0.301849 0.219502 0.198929 0.117996 -0.381607 -0.268477 -0.257760 -0.257438 -0.128626 0.081102 -0.080589 -0.108104 0.329265 0.056769 0.348514 0.283884 0.330921 0.191351 -0.694678 -0.651846 -0.624210 -0.749732 -0.445278 -0.621094 -0.412492 -0.509160 -0.245783 -0.289538 -0.387717 -0.510743 -0.052179 -0.280784 -0.567174 -0.499859 0.368122 0.283242 0.309229 0.080246 0.171095 -0.051239 -0.108591 0.092467 0.696018 0.269147 0.117906 0.082705 -0.001676 0.060474 -0.047039 0.105229 0.157104 0.128826 0.350536 0.061274 0.414458 0.551549 -0.069669 0.619618 -0.046879 0.073353 0.056157 0.356020 -0.216646 0.171445 -0.262985 1.130960 0.228982 0.291001 -0.704409 -0.098234 0.267527 0.144231 0.151120 -0.369997 -0.028104 -0.266741 -0.262600 -0.445774 -0.042682 -0.077516 0.169387 0.242900 0.204514 0.350086 -0.161254 0.158219 0.534386 0.376428 -0.732057 -0.175929 0.254637 -0.145561 0.043563 -0.130819 -0.135508 -0.315393 -0.616747 -0.376210 -0.111060 -0.273897 -0.469867 -0.095288 0.304156 -0.135567 -0.072646 -0.295241 0.115081 0.185496 -0.124976 -0.262173 0.040909 0.324177
0.045492 -0.331201 -0.252014 0.013120 -0.003611 0.731152 0.883889 0.586973 0.605249 0.709673 0.620840 1.135944 0.923951 1.069222 0.784338 0.760342 0.670212 -0.202725 -0.366136 0.239669 0.111890 0.394000 1.025853 0.076052 -0.423576 0.531796 0.491441 0.537853 0.263771 0.743770 1.047782 0.828894 0.921825 -0.895540 -0.853392 -0.884032 -0.936415 -0.330237 -0.082366 -0.317760 -0.361363 -0.564038 -0.586994 -0.501915 -0.520812 -0.066787 -0.189681 -0.057028 -0.087560 -0.407937 -0.403344 -0.295077 -0.277388 -0.836212 -0.788747 -0.274355 -0.524891 -0.372213 -0.390251 -0.555357 -0.452873 -0.524016 -0.483330 -0.615166 -0.647668 0.624278 0.701347 0.459582 0.434031 -0.166970 -0.274991 0.137955 0.131895 -0.026627 -0.004870 -0.249842 -0.281333 -0.028887 -0.096124 0.230304 0.227589 -0.030416 -0.157102 -0.539286 -0.373440 -0.064747 -0.040980 -0.016802 0.098369 -0.131166 -0.285997 -0.036937 -0.131108 0.210582 0.206285 0.019249 -0.119676 -0.153011 -0.037788 -0.038473 -0.234071 -0.512369 -0.701230 -0.497355 -0.562100 -0.037098 -0.008972 -0.376684 -0.370573 -0.275977 -0.388756 -0.174923 -0.034958 0.540661 0.417542 0.310245 0.231611 0.470570 0.343028 -0.185998 0.045219 0.659495 0.457766 0.265512 0.312998 -0.000145 0.109847 -0.001056 0.048365 -0.137046 0.023419 -0.015623 -0.291339 0.291448 0.516599 0.376922 0.665376 0.065828 0.536227 0.096173 -0.108502 0.556719 0.401331 0.150455 1.032367 0.397551 0.541099 -0.526274 -0.376443 0.273715 0.340164 0.201098 -0.026755 0.261923 -0.450003 0.161683 0.072395 -0.046402 -0.251820 0.043938 -0.478948 0.061318 0.409296 -0.200761 0.333328 0.595611 0.640057 -0.978518 -1.181105 -0.442347 -0.640643 -0.228431 0.091291 0.120942 0.090473 -0.613357 -0.159730 -0.574639 -0.368716 -0.034281 -0.392613 0.366647 -0.033151 0.183326 -0.382407 -0.175501 0.038855 -0.251565 -0.243673 0.033686 0.555788
0.069436 -0.029804 -0.091896 -0.039784 -0.096123 0.504284 0.373518 0.383186 0.427765 0.452917 -0.022674 0.460989 0.659527 0.417556 0.557358 0.191718 0.108607 -0.411563 -0.254278 -0.353852 -0.166026 -0.334125 -0.417735 -0.788894 -0.968087 -0.096015 -0.116292 -0.230731 -0.423531 0.096794 -0.062039 0.102971 0.104997 -0.367858 -0.379167 -0.380848 -0.376508 -0.005309 -0.006205 -0.195020 -0.098677 -0.222834 -0.472119 0.511788 0.638117 -0.123817 -0.030538 -0.217580 -0.148004 -0.041372 -0.070905 -0.138946 -0.163651 0.694790 1.192884 0.150282 -0.137256 -0.123175 -0.168976 0.589195 0.246074 -0.044690 -0.172748 0.095685 0.098090 -0.637658 -0.607534 -0.578965 -0.765367 -0.753870 -0.763496 -0.851013 -0.835429 -0.467584 -0.484358 -0.715950 -0.747676 -0.686217 -0.662063 -0.493088 -0.417645 -0.117178 -0.190882 -0.305518 -0.272966 -0.316554 -0.274827 -0.314244 -0.332841 0.024270 0.039670 -0.046317 0.125138 -0.429867 -0.372508 -0.311812 -0.399111 0.519001 0.535535 0.637932 0.433246 0.854130 0.905444 0.346077 0.349022 0.894323 0.830092 0.533908 0.408037 0.023232 0.076638 0.230883 0.389254 1.365334 1.000946 0.524695 0.656259 0.238617 0.312376 0.477990 0.404923 0.164081 0.093245 0.191837 0.364017 -0.139131 -0.078677 0.258032 0.231601 -0.234371 -0.449669 0.518896 -0.170470 -0.110713 -0.059524 0.210973 0.519506 0.621852 0.976894 -0.019544 -0.025063 -0.193185 0.610521 -0.088318 0.797294 0.508554 0.588676 -0.284526 0.061798 0.274976 -0.022159 0.460179 0.069274 0.324636 -0.380756 -0.157887 -0.139968 0.292800 0.124285 -0.046702 -0.965933 -0.013602 0.020302 -0.317241 0.154420 -0.222963 0.148551 -0.416476 -0.524514 -0.880845 -0.457393 -0.091280 0.089176 0.107035 -0.623659 0.224590 0.240790 0.298926 0.427028 0.523002 -0.779731 0.198712 -0.158663 -0.108851 0.093437 -0.592397 -0.609599 0.194751 0.183661 -0.101269 0.653135
-0.278618 -0.486785 -0.424824 -0.222682 -0.267111 0.420756 0.609123 0.254968 0.356548 0.878206 0.793624 1.421285 1.178168 1.051666 0.717227 0.824080 0.744345 -0.120406 -0.289467 0.374987 0.260074 0.406787 0.963241 0.309200 -0.131135 0.720249 0.701016 0.843324 0.558808 0.784097 0.903488 0.804184 0.861149 -0.832747 -0.775159 -0.830410 -0.869984 -0.127834 0.133219 -0.206889 -0.250632 -0.915668 -0.901064 -0.765365 -0.729650 0.008910 -0.149305 -0.197673 -0.243615 -0.682439 -0.679652 -0.592119 -0.538764 -0.365610 -0.293119 -0.192113 -0.429510 -0.533138 -0.547317 -0.561546 -0.538856 -0.569904 -0.634977 -0.605212 -0.658666 0.577235 0.664744 0.574646 0.543628 0.065746 -0.011431 0.281862 0.239471 -0.195885 -0.217546 -0.442209 -0.473169 -0.029433 -0.125948 0.171370 0.186227 0.117350 -0.021967 -0.324396 -0.176769 -0.208279 -0.248930 -0.311123 -0.233068 0.066494 -0.060153 0.061634 -0.027483 0.248443 0.266364 0.189052 0.053732 -0.218998 -0.110508 -0.132111 -0.270052 -0.441284 -0.595841 -0.417065 -0.462716 0.210458 0.257831 -0.241235 -0.159487 -0.110399 -0.211452 0.075591 0.181128 0.440964 0.379721 0.064837 0.092507 0.102209 0.007053 -0.299737 -0.103695 0.410192 0.305268 0.130222 0.131884 -0.227213 -0.063193 -0.107487 -0.096215 -0.179242 0.125663 -0.182080 -0.355201 0.126588 0.443980 0.331212 0.754102 0.107547 0.592789 0.101433 -0.355883 0.670279 0.193096 0.088248 0.550282 0.684589 0.623281 -0.428032 -0.364606 0.380621 0.668748 -0.048508 0.112285 0.252996 -0.329292 0.436458 0.401903 -0.171615 -0.279269 -0.199212 -0.594063 0.209466 0.408813 -0.112061 0.477673 0.611903 0.657419 -1.008186 -1.263738 -0.544710 -0.543799 -0.071997 0.108338 0.042146 0.369013 -0.553753 -0.255186 -0.663973 -0.469377 0.126766 -0.189745 0.052770 0.183432 0.182204 -0.350907 -0.176417 -0.003372 -0.353897 -0.303835 0.382953 0.511285
-0.053659 -0.139663 -0.169044 -0.126216 -0.141480 0.275575 0.107241 0.145677 0.171690 0.683621 0.172898 0.531461 0.846235 0.425350 0.479250 0.209400 0.088422 -0.258491 -0.019104 -0.204697 0.157097 -0.391629 -0.625885 -0.798285 -0.850101 0.098008 0.160647 0.018675 -0.112821 0.087789 0.001997 0.084743 0.101721 -0.507901 -0.514355 -0.796338 -0.846730 0.184998 0.132848 -0.002650 0.071501 -0.142264 -0.576933 0.765771 0.927808 -0.427739 -0.299940 -0.658059 -0.557988 -0.073598 -0.128853 -0.139516 -0.159744 0.498788 0.854544 -0.011176 -0.207924 0.035020 -0.058840 0.729268 0.182556 0.169826 -0.103185 0.272612 0.324453 -0.382380 -0.283278 -0.142209 -0.355153 -0.229277 -0.211935 -0.382770 -0.418772 -0.642107 -0.677012 -0.943081 -0.923676 -0.928367 -0.917839 -0.683886 -0.565658 0.013180 -0.045006 -0.102032 -0.043773 -0.165851 -0.169864 -0.193436 -0.202436 -0.155246 -0.146007 -0.174845 -0.005411 -0.248539 -0.152500 -0.055833 -0.073700 0.711790 0.692563 0.635550 0.519798 0.667993 0.720121 0.404914 0.461933 0.895267 0.842771 0.675993 0.593824 -0.416778 -0.290237 0.196257 0.382505 0.910356 0.642623 0.373109 0.505905 0.177220 0.252576 0.378167 0.305186 -0.208707 -0.213105 -0.091694 0.075018 -0.225925 -0.157071 0.126893 0.010227 -0.185331 -0.462950 0.227981 -0.199420 -0.095635 -0.306289 0.103238 0.649961 0.610268 1.162620 -0.002858 -0.316594 -0.047087 0.662253 0.405243 0.140977 0.421955 0.794989 0.059508 -0.076056 0.429538 -0.033527 0.315875 0.148039 0.164227 0.015672 -0.095436 0.090035 0.073094 0.113396 -0.071529 -1.046961 -0.063388 0.121917 -0.164303 0.030138 -0.416968 -0.017260 -0.157239 -0.560728 -0.999346 -0.834807 0.028540 0.393945 0.080487 -0.554120 0.290618 0.296241 0.512673 0.451335 0.896477 -0.820898 0.172344 0.103774 0.087377 0.293126 -0.771874 -0.880758 0.118498 0.065775 0.027703 0.534244
-0.575819 -0.302479 -0.232440 -0.262770 -0.234879 -0.143090 -0.161223 -0.192733 -0.213946 0.300420 0.172587 0.315470 0.316806 0.138200 0.093282 0.027618 -0.080547 -0.224576 -0.290605 -0.287672 -0.271361 0.216444 0.101342 0.158515 0.012078 -0.059285 0.002123 -0.093783 -0.049437 -0.025495 -0.099286 -0.056799 -0.162938 -0.300667 -0.289098 -0.311655 -0.330381 -0.148242 -0.215069 -0.235891 -0.245519 0.497718 0.337025 0.808761 0.946651 0.112871 0.075173 -0.135884 -0.181630 -0.188259 -0.216554 -0.276197 -0.278482 0.716977 0.628773 0.197076 0.007445 -0.013255 -0.004430 -0.141448 -0.210608 0.154176 0.001300 0.163618 0.090344 -0.535837 -0.549672 -0.533977 -0.615637 -0.538518 -0.588957 -0.587674 -0.640070 -0.595428 -0.642398 -0.723365 -0.683969 -0.717695 -0.722373 -0.588983 -0.548124 -0.005232 -0.122391 -0.344640 -0.195800 -0.242395 -0.210594 -0.279372 -0.216405 -0.046584 -0.083929 -0.068398 -0.021001 -0.038790 -0.013782 0.045361 -0.000173 0.683471 0.646506 0.616032 0.544859 0.477637 0.449489 0.446759 0.465632 0.440096 0.440448 0.297054 0.315653 0.287633 0.273079 0.461199 0.462455 0.660923 0.567795 0.422905 0.521891 0.248732 0.254306 0.302372 0.413988 -0.049861 -0.086212 0.007814 -0.015606 0.134346 0.152887 0.169308 0.067392 -0.078120 -0.076583 -0.198638 -0.176201 0.144667 -0.007289 0.360022 0.624596 -0.017078 0.745619 0.158438 -0.159548 0.138080 0.270354 0.115083 0.198749 0.506095 0.464204 -0.214530 0.067730 0.571953 0.463322 -0.057442 0.039882 -0.099140 0.151611 -0.104359 0.057788 -0.027769 -0.107408 -0.383906 -0.501570 -0.024405 0.201466 0.062941 -0.171292 -0.026657 0.014881 -0.552000 -0.349279 0.017590 -0.191705 -0.289299 -0.140928 -0.147350 0.108482 -0.055171 0.166255 -0.036717 -0.042315 -0.112725 -0.063452 0.353935 0.123143 -0.151082 -0.084235 -0.141123 -0.036856 -0.091997 -0.241813 0.378289 0.064733
-0.263165 0.049456 0.021980 0.018692 -0.027003 0.189473 0.166879 0.092297 0.006799 0.893236 0.610171 0.848662 0.890668 0.579923 0.532184 0.459171 0.259111 0.123425 0.125998 -0.021709 -0.016148 0.505958 0.656427 0.594146 0.366491 0.333945 0.346324 0.290501 0.250832 0.402290 0.274442 0.417043 0.340303 -0.622335 -0.591409 -0.482813 -0.562674 -0.120567 -0.018670 -0.059928 -0.086241 -0.438484 -0.260047 -1.021620 -1.011147 -0.722896 -0.717705 -0.603410 -0.294783 -0.407950 -0.439860 -0.385759 -0.443969 -0.318971 -0.608213 -0.482525 -0.311353 -0.165061 -0.113139 0.080782 -0.087557 0.103149 0.017690 0.182506 0.149824 -0.386076 -0.343393 -0.215297 -0.303637 -0.090973 -0.208431 -0.185656 -0.252608 0.414630 0.389149 0.255750 0.307290 -0.306750 -0.252225 -0.259665 -0.184641 0.735234 0.629010 0.379185 0.494067 0.248254 0.204858 -0.057610 0.091955 -0.211841 -0.223816 -0.153265 -0.136745 -0.226591 -0.212867 -0.014031 -0.080823 1.027118 0.994569 0.794375 0.643813 0.411202 0.316143 0.329318 0.285417 0.131836 0.092216 0.034138 -0.013497 -0.011916 -0.078165 -0.042288 0.015176 0.066735 -0.119570 -0.307430 -0.291808 -0.293298 -0.380145 -0.330652 -0.223780 -0.576505 -0.624262 -0.681088 -0.715029 -0.155751 -0.145703 -0.119406 -0.137368 0.104095 -0.027052 -0.202321 -0.073158 0.300827 0.107803 0.320828 0.594761 -0.164452 0.157498 0.040151 -0.103719 0.298521 0.144192 0.330288 0.396380 0.362530 0.519755 -0.184311 0.017639 -0.053305 0.335276 0.007473 0.222291 -0.205409 -0.009109 0.078209 0.169589 -0.145446 0.157173 -0.125310 -0.129519 0.175087 0.291139 0.224874 0.083220 -0.000062 -0.158480 -0.602946 -0.301159 -0.220091 -0.317129 -0.171946 0.061366 -0.436064 0.038432 -0.262213 0.047146 -0.003212 0.238304 -0.030200 0.165323 -0.087621 0.179569 -0.039706 -0.018641 -0.144039 0.104624 -0.148070 -0.312942 0.338600 -0.369399
-0.807939 -0.601070 -0.590906 -0.410771 -0.476116 0.262280 0.468556 0.155158 0.223210 0.773536 0.711034 1.284918 1.158476 0.892463 0.573108 0.741705 0.656556 0.007237 -0.330611 0.489314 0.297100 0.617303 1.448335 0.533663 0.116441 0.919450 0.852481 0.803210 0.592899 0.745262 0.987112 0.757820 0.857024 -1.140855 -1.089123 -1.133748 -1.179329 -0.535696 -0.252754 -0.564064 -0.578798 -0.122334 -0.125084 0.038225 0.111610 0.314565 0.112520 0.068462 0.063609 -0.745974 -0.707648 -0.622546 -0.526184 -0.691657 -0.679506 -0.399077 -0.563715 -0.510883 -0.525194 -0.799261 -0.668808 -0.577530 -0.709646 -0.755048 -0.828646 0.791129 0.856243 0.732306 0.719778 0.279459 0.241355 0.495046 0.477405 0.310289 0.293109 0.062977 0.041322 0.189797 0.105904 0.409194 0.416404 -0.102435 -0.260015 -0.566572 -0.395283 -0.405386 -0.435278 -0.556557 -0.517939 0.071711 -0.069981 0.099061 -0.038985 0.199833 0.217820 0.191975 0.011255 -0.236554 -0.095504 -0.210624 -0.288382 -0.450939 -0.662185 -0.459763 -0.533479 -0.223592 -0.143774 -0.751372 -0.676476 -0.697360 -0.812492 -0.542194 -0.458376 0.543657 0.497732 0.229089 0.326488 0.148964 0.072884 -0.253757 -0.041313 0.345537 0.224232 0.193577 0.129402 -0.084075 0.108789 0.053418 0.075566 -0.298159 0.195681 0.005331 -0.312267 0.065032 0.539999 0.567079 0.565585 0.358070 0.628450 0.052659 -0.412035 0.954475 0.106926 0.056658 0.287054 0.488737 0.512578 -0.252582 -0.622206 0.572443 0.918541 0.032418 0.160156 0.341976 -0.481422 0.526292 0.859267 0.059610 -0.397331 -0.577925 -0.990203 0.222643 0.542186 0.089865 0.831566 0.800861 0.895511 -1.084343 -1.638013 -0.478980 -0.537576 0.338205 0.483545 -0.026690 0.780463 -0.861731 -0.458622 -0.957780 -0.753512 0.208686 -0.112075 -0.310677 0.200117 0.516894 -0.645554 -0.200583 0.201020 -0.422582 -0.466548 0.357067 0.478900
-0.280626 -0.311470 -0.366099 -0.356648 -0.325445 0.115935 -0.054156 0.002861 0.042584 0.315940 -0.045974 0.333459 0.613159 0.088702 0.232611 -0.077285 -0.130960 -0.217443 0.077536 -0.395882 0.100620 -0.220063 -0.664114 -0.649535 -0.725546 -0.065516 -0.049007 0.030591 -0.159337 -0.052335 -0.474542 -0.085898 -0.113991 -0.524945 -0.556960 -0.988271 -0.973632 0.065219 -0.146266 -0.267247 -0.172978 0.248914 -0.151720 1.164608 1.335114 -0.038655 0.182408 -0.325707 -0.258331 0.165487 0.052623 -0.052028 -0.099795 0.820096 1.292028 0.185646 -0.184093 0.117126 0.034687 0.988105 0.248494 0.288885 -0.047186 0.435269 0.469725 -0.841405 -0.780608 -0.557228 -0.826676 -0.665211 -0.637542 -0.805141 -0.870806 -0.780306 -0.817555 -1.130025 -1.137966 -1.196474 -1.240878 -0.994001 -0.841252 0.098836 0.039523 0.033558 0.110492 -0.429590 -0.368591 -0.318059 -0.301569 -0.229436 -0.195715 -0.280662 -0.058161 -0.340146 -0.226048 -0.054942 -0.088153 1.056752 1.045726 1.096367 0.938322 0.879685 0.959328 0.716883 0.777766 0.676550 0.630157 0.457312 0.446885 -0.230796 -0.094091 0.428811 0.589437 1.270292 0.945397 0.748130 0.866207 0.372262 0.484520 0.650131 0.581222 -0.317154 -0.300635 -0.106985 0.129988 -0.009066 0.095325 0.424482 0.241900 -0.160674 -0.567351 0.220594 -0.079316 -0.015909 -0.522086 0.043979 0.541435 0.712027 1.616646 -0.200082 0.024814 -0.361745 0.999436 0.508302 -0.044124 0.303163 0.436840 0.222644 0.068251 0.886621 -0.492537 0.062017 0.014669 -0.363017 -0.313018 -0.025954 0.088367 -0.102347 0.248625 -0.115137 -1.118645 -0.280393 -0.018255 -0.193417 -0.191037 -0.561952 -0.157623 0.181482 -0.754781 -1.182647 -0.829066 0.283634 0.678032 0.380584 -0.663189 0.450550 0.406917 0.558705 0.376012 1.192553 -1.075970 0.190009 -0.301926 0.335579 0.577995 -0.931144 -1.487168 0.529712 0.784322 -0.267448 0.805620
-0.934677 -0.525756 -0.473509 -0.470927 -0.483010 -0.509379 -0.475176 -0.503825 -0.512229 0.183823 -0.036134 0.170640 0.304192 -0.098274 -0.090801 -0.199206 -0.313432 0.038464 -0.030284 -0.150759 -0.195606 0.518415 0.295696 0.490864 0.423717 -0.104905 -0.041856 -0.032414 -0.032916 -0.167000 -0.046257 -0.158054 -0.245388 -0.293141 -0.287055 -0.281882 -0.290254 -0.336016 -0.413715 -0.407129 -0.407607 0.507330 0.332827 0.691406 0.848255 0.106516 0.008018 -0.132413 -0.224829 -0.086115 -0.028882 -0.172821 -0.149205 0.765871 0.576938 0.094671 -0.034854 0.264041 0.275487 -0.051614 -0.029604 0.471653 0.335556 0.485678 0.399497 -0.533974 -0.587950 -0.485285 -0.549198 -0.213076 -0.222658 -0.366339 -0.383253 -0.116689 -0.193171 -0.215882 -0.189027 -0.359175 -0.360017 -0.356821 -0.328689 -0.386955 -0.487200 -0.632660 -0.516984 -0.775525 -0.744707 -0.789812 -0.787526 -0.420911 -0.456064 -0.505470 -0.473590 -0.578868 -0.529018 -0.396812 -0.418668 0.681615 0.626786 0.620478 0.557889 0.703430 0.625302 0.630201 0.635624 0.419565 0.444062 0.170221 0.197497 0.215103 0.214867 0.374622 0.341441 0.532917 0.454961 0.348130 0.455851 0.119112 0.144196 0.223186 0.311330 0.296181 0.251680 0.369979 0.315706 0.492052 0.539919 0.589015 0.524383 0.000420 -0.043824 -0.098030 -0.235661 0.155170 0.081539 0.226631 0.392497 0.064634 0.618517 0.158092 -0.270322 0.043399 -0.028512 0.035776 -0.036337 0.514225 0.259426 -0.122550 0.163719 0.569967 0.577871 -0.060471 0.088932 0.030696 0.227193 -0.118801 -0.014314 0.111329 0.009684 -0.587449 -0.376747 0.076356 0.022648 0.048556 -0.069679 0.093227 0.014196 -0.325678 -0.059060 -0.122898 -0.251536 0.175291 0.081128 -0.295868 0.068274 -0.258756 -0.196864 0.147645 0.111676 -0.350663 -0.227905 -0.080927 0.411870 -0.060226 -0.155962 -0.122749 -0.014453 -0.019301 -0.123242 0.375594 0.202823
-0.439259 -0.200161 -0.235028 -0.243988 -0.265003 -0.315237 -0.403272 -0.355789 -0.496601 0.447805 0.350985 0.581057 0.506226 0.222163 0.304939 0.191153 0.098248 0.398512 0.438855 -0.013119 0.048324 0.948768 0.913488 1.013199 0.907270 0.258891 0.283219 0.042797 0.100625 0.302195 -0.211034 0.204781 0.043883 -0.433349 -0.401735 -0.064224 -0.059319 -0.259576 -0.266512 -0.013811 -0.020186 -0.333618 -0.072479 -1.131969 -1.144750 -0.520466 -0.481229 -0.337611 -0.159307 -0.023985 0.011780 -0.079313 -0.103448 -0.339193 -0.822635 -0.412207 -0.081336 0.052356 0.124057 0.063343 0.071732 0.229558 0.181665 0.285180 0.235179 -0.198811 -0.214728 -0.129424 -0.163866 0.087893 0.036093 0.002666 -0.023104 0.233604 0.159573 0.218742 0.325148 -0.353065 -0.227941 -0.216633 -0.177886 0.763534 0.711465 0.527909 0.600178 0.586777 0.543343 0.360378 0.437915 -0.477807 -0.464261 -0.443558 -0.375491 -0.283328 -0.219745 -0.005353 -0.014517 0.851579 0.751925 0.643443 0.475396 0.517897 0.483681 0.464528 0.434198 0.223540 0.130858 0.192278 0.166754 0.257313 0.220901 0.103500 0.153772 -0.499024 -0.596957 -0.636632 -0.634933 -0.472709 -0.560482 -0.502237 -0.463860 -0.636343 -0.639467 -0.717825 -0.717063 -0.164697 -0.188921 -0.308480 -0.376893 0.232288 -0.043991 -0.301341 0.059177 0.280978 -0.074388 0.029357 0.266708 0.035373 0.267831 0.166745 -0.386984 0.116312 0.071362 0.401549 0.208588 0.109122 0.163136 0.030525 0.626103 0.149488 0.602011 -0.225762 0.051172 -0.243169 -0.096463 0.074507 0.029994 -0.429714 0.343744 -0.205713 0.004015 0.114373 0.054901 0.158006 -0.005172 -0.182075 -0.450059 -0.519207 0.300147 -0.030865 -0.273467 -0.038870 0.099881 -0.424457 0.032694 0.001540 0.181926 0.010678 0.642383 -0.313337 0.426787 -0.367888 0.173809 -0.269186 0.408299 0.000192 0.092759 0.098384 0.065007 0.288169 -0.543845
-0.872338 -0.215801 -0.218404 -0.227312 -0.210060 -0.248686 -0.368589 -0.260961 -0.268596 -0.327091 -0.430224 -0.417678 -0.381692 -0.490131 -0.375856 -0.574463 -0.622752 0.101292 0.182444 -0.027843 0.049867 0.155361 -0.087034 -0.019071 0.053332 -0.179396 -0.191810 -0.336855 -0.284683 -0.204889 -0.238714 -0.226577 -0.229210 -0.184582 -0.162914 -0.162159 -0.135386 -0.202885 -0.300250 -0.225854 -0.216883 1.049521 0.925453 0.866753 0.900425 0.291258 0.373896 0.178775 0.127720 0.034233 -0.046379 0.020510 -0.043659 0.188842 0.250534 -0.042620 -0.045113 0.284278 0.315507 0.288029 0.262750 0.441104 0.427343 0.401495 0.390003 -0.224689 -0.239366 -0.266722 -0.279957 -0.173897 -0.222318 -0.239041 -0.215460 0.063592 0.071303 -0.040188 -0.018572 -0.198758 -0.178972 -0.121699 -0.111131 0.070696 0.057491 -0.080486 -0.034629 -0.180335 -0.134390 -0.164404 -0.119145 -0.164602 -0.155333 -0.107831 -0.052264 -0.135517 -0.110131 -0.051905 -0.071572 0.295731 0.289093 0.245368 0.210440 0.225591 0.255604 0.260402 0.255656 0.062613 0.027470 0.119102 0.065698 -0.052020 -0.049767 0.097397 0.107129 0.265702 0.197663 0.033325 0.091274 -0.025525 0.003812 0.103166 0.072456 -0.235980 -0.249030 -0.149475 -0.096771 0.115688 0.108181 0.156708 0.151196 -0.049582 -0.130851 0.220561 0.036977 0.035083 -0.161587 -0.031126 0.213668 0.015545 0.495775 0.020810 0.221502 -0.057869 0.163256 -0.301708 0.218091 0.306755 0.180595 -0.085474 0.003772 0.424081 0.280735 0.235272 0.078824 -0.023862 0.043431 -0.068798 -0.166421 -0.118283 0.086012 -0.568442 -0.111335 0.021635 -0.112323 -0.029111 -0.287036 -0.068559 -0.260651 -0.110085 0.025996 0.022528 -0.023913 -0.216422 0.128684 -0.063083 -0.031018 0.015933 -0.054235 0.184371 0.134382 -0.109068 -0.165054 0.155024 0.176813 -0.270457 0.164365 -0.220689 -0.249409 0.061763 -0.056377 -0.048859 -0.112838
-0.413453 -0.212795 -0.207562 -0.162842 -0.204550 -0.188929 -0.193410 -0.231015 -0.257879 -0.099104 -0.164273 -0.007879 -0.019847 -0.249422 -0.251552 -0.328482 -0.371812 0.084139 -0.033204 0.223487 -0.006546 0.417089 0.500506 0.400394 0.348118 0.069560 0.043066 0.013696 0.037835 0.109975 0.000975 0.047326 0.021740 -0.297425 -0.260666 -0.228283 -0.240889 -0.335419 -0.300868 -0.337337 -0.365613 0.298660 0.451718 0.167772 0.170669 0.288221 0.289550 0.218713 0.225206 -0.074584 -0.079304 -0.000220 -0.032085 -0.047767 -0.234210 -0.035183 -0.014760 0.122483 0.196925 -0.000138 0.139547 0.246216 0.257150 0.162447 0.109218 -0.181215 -0.213576 -0.273325 -0.220621 -0.206046 -0.226001 -0.211846 -0.170893 0.064746 0.072240 -0.014563 0.001479 -0.145243 -0.147089 -0.084290 -0.105560 0.214829 0.197379 0.103191 0.154391 0.003703 -0.000537 0.009986 0.026954 0.010128 -0.018923 0.041158 -0.014118 -0.003077 0.000902 0.024152 -0.028129 0.462399 0.465976 0.521827 0.483261 0.571061 0.560928 0.546081 0.534195 0.401541 0.396877 0.282592 0.279712 0.448426 0.393093 0.427952 0.412295 -0.360083 -0.350374 -0.412246 -0.388398 -0.434404 -0.476433 -0.509144 -0.482579 -0.315916 -0.357046 -0.381386 -0.421499 -0.323209 -0.337971 -0.372181 -0.338989 -0.002366 0.123685 -0.014928 0.000790 0.016584 0.115350 0.207709 0.028490 -0.166454 0.208243 -0.042631 -0.073290 0.268437 -0.291162 -0.033779 0.060237 0.428506 -0.025073 -0.233892 0.064023 0.156178 0.559507 0.252479 0.187624 0.119104 0.188105 0.233241 -0.038845 -0.051315 -0.179102 -0.233424 0.129173 0.302575 0.002081 0.133202 0.158103 0.240733 -0.242794 -0.220642 -0.304512 0.082925 0.109057 -0.172623 -0.309087 -0.264136 0.379688 -0.268054 -0.223196 -0.311059 0.177996 -0.562763 0.238384 0.027229 0.330899 -0.149820 -0.259616 -0.141778 0.263429 -0.200530 -0.095119 0.007018 -0.359375
-0.595036 -0.423882 -0.341990 -0.242304 -0.239770 0.023117 0.113683 -0.042668 0.040153 0.174915 0.161741 0.376073 0.350042 0.246440 0.146441 0.070053 0.008741 -0.044258 -0.122257 0.199756 0.237617 -0.131100 0.115114 0.030635 -0.136170 -0.004750 -0.049942 -0.077610 -0.153639 -0.033761 0.011810 -0.137425 -0.143466 -0.469020 -0.397821 -0.463737 -0.444618 -0.129918 -0.030199 -0.154259 -0.133733 -0.264297 -0.292059 -0.453748 -0.488850 -0.145916 -0.224663 0.084780 -0.000075 0.025803 0.051314 0.102428 0.150840 -0.021071 0.020278 0.144279 0.041165 0.437999 0.420857 0.112836 0.241415 0.516841 0.449298 0.395509 0.341964 -0.346111 -0.325597 -0.455999 -0.437810 -0.565984 -0.572121 -0.388725 -0.390969 -0.150570 -0.162556 -0.273901 -0.276298 -0.284559 -0.326804 -0.126725 -0.127041 0.438016 0.352942 0.145219 0.269254 0.259131 0.235744 0.267404 0.298068 -0.225146 -0.248695 -0.114997 -0.180837 -0.138230 -0.077550 -0.175644 -0.254878 0.873905 0.907948 0.775047 0.735802 0.515609 0.429406 0.651493 0.637373 0.354625 0.400348 0.074101 0.131470 0.003445 0.000320 0.316169 0.328960 -0.191734 -0.212503 -0.381279 -0.268598 -0.367198 -0.349870 -0.466400 -0.393552 -0.130768 -0.132722 -0.145594 -0.186308 -0.049369 0.042900 -0.044348 -0.091743 -0.146359 0.040309 -0.040994 -0.156546 0.083048 0.162710 0.066036 0.301149 0.046995 0.570785 0.109772 -0.184697 0.295393 0.044206 0.132561 0.089044 0.384098 0.431276 -0.350708 -0.252298 0.484517 0.820612 0.056010 0.110763 0.318124 -0.241922 0.163772 0.148243 -0.129869 -0.100400 -0.401171 -0.275435 0.216696 0.192500 -0.036608 0.338420 0.485954 0.364427 -0.708531 -0.825867 -0.203557 -0.292898 0.123992 0.454760 -0.205535 0.349935 -0.580252 -0.329848 -0.325534 -0.025243 -0.116008 -0.173392 0.247086 0.441220 -0.018113 -0.314981 -0.152170 0.392557 -0.419935 -0.345955 0.205246 0.314617
-0.307951 -0.159540 -0.206824 -0.243319 -0.182972 -0.200606 -0.296275 -0.272252 -0.253009 -0.247736 -0.184884 -0.243895 -0.242813 -0.242601 -0.061204 -0.341150 -0.309026 -0.073441 -0.029778 -0.221792 -0.213529 -0.256582 -0.618078 -0.395631 -0.395876 -0.350434 -0.403469 -0.256134 -0.485331 -0.252860 -0.629312 -0.246158 -0.218285 -0.011733 -0.001833 0.026045 0.150570 -0.155652 -0.206505 -0.116183 -0.046515 0.180822 0.015776 0.717328 0.649173 0.377688 0.641106 0.252376 0.056568 0.197076 0.016868 0.049154 -0.081298 0.721988 1.028481 0.613252 0.368491 0.079466 0.035624 0.821765 0.497215 0.242449 0.415712 0.407810 0.483764 0.807109 0.825096 0.887460 0.813750 0.626160 0.650396 0.527179 0.568827 0.380590 0.363437 0.260453 0.312480 0.206312 0.194865 0.308990 0.367957 0.168959 0.233328 0.330595 0.285985 0.178215 0.124062 0.082603 0.126389 0.082246 0.163933 -0.019995 0.177848 0.004700 0.109755 0.085341 0.144580 -0.497235 -0.461965 -0.342768 -0.450039 -0.379369 -0.301677 -0.312469 -0.333347 -0.332920 -0.409329 -0.393259 -0.401259 -0.343583 -0.317051 -0.297415 -0.230150 -0.497482 -0.523294 -0.514997 -0.428209 -0.666262 -0.664900 -0.648565 -0.648047 -0.188203 -0.130610 -0.169280 0.032246 -0.014257 0.028074 0.097568 0.052495 -0.011316 -0.156294 0.155227 0.149150 -0.035990 -0.552326 -0.311397 -0.053807 0.609907 0.768482 0.080286 0.241200 -0.835359 0.261240 -0.176460 0.141629 0.263410 -0.024960 -0.094538 0.131696 0.530496 0.231151 -0.122174 0.193992 0.172566 -0.332299 -0.225755 -0.164485 -0.316836 0.401053 -0.203736 -0.059589 0.114695 -0.118445 -0.046549 -0.287242 -0.164499 0.153575 -0.347337 -0.059061 -0.292227 0.265387 0.421561 0.035611 -0.233638 -0.183992 0.441917 -0.070277 0.717311 0.546061 -0.051883 -0.320024 -0.267803 0.198595 -0.088325 0.636046 0.011719 -0.663790 0.021308 0.824229 0.125362 -0.154764
-0.944836 -0.405631 -0.411995 -0.241875 -0.304028 -0.001108 0.144703 -0.026286 0.029346 0.482664 0.473375 0.780653 0.723747 0.526204 0.293876 0.461000 0.402024 0.764341 0.588438 1.114425 0.907823 1.124060 1.258609 1.078868 0.883637 1.208141 1.122003 0.944663 0.871775 1.087536 1.307878 1.154447 1.225751 -0.801826 -0.780604 -0.862687 -0.897035 -0.498801 -0.227167 -0.465590 -0.511114 -0.164364 -0.111607 -0.220883 -0.083618 0.055732 -0.091636 -0.059641 0.046899 -0.813102 -0.793183 -0.766842 -0.713725 -0.963453 -1.005037 -0.775059 -0.791109 -0.850587 -0.831519 -1.166667 -1.005345 -0.977533 -1.069228 -1.114875 -1.202695 1.281069 1.305843 1.166895 1.190475 0.890718 0.856203 1.006373 1.007711 0.831845 0.809260 0.746767 0.708341 0.853579 0.802395 0.907690 0.891199 0.126931 0.016632 -0.227372 -0.094761 -0.161338 -0.152731 -0.199433 -0.146447 0.162063 0.068626 0.255550 0.136146 0.419372 0.385412 0.419273 0.262014 -1.090042 -0.998371 -1.066404 -1.118640 -1.068486 -1.274116 -1.283241 -1.326448 -1.002686 -0.936369 -1.214217 -1.199653 -1.456101 -1.554629 -1.432361 -1.350780 0.486518 0.444615 0.232021 0.249808 0.214063 0.180576 -0.032122 0.087634 0.157176 0.083554 0.027805 -0.034104 -0.171520 -0.029812 -0.026794 0.031986 -0.125881 0.085875 -0.055486 -0.112758 0.088617 0.400888 0.411338 0.408576 -0.125308 0.301348 0.217863 -0.086477 0.742713 0.017650 -0.059220 0.253356 0.266987 0.195771 -0.117620 -0.227311 0.465135 0.404783 -0.003826 -0.055448 -0.030073 -0.298055 0.515117 0.524980 0.080793 -0.307785 -0.547275 -0.557412 0.088147 0.435929 -0.006103 0.330238 0.123690 0.278328 -0.034240 -0.381994 0.142166 -0.158568 0.020011 0.038582 -0.250488 0.207878 -0.702445 -0.292917 -0.773775 -0.404745 0.127814 0.067690 -0.295644 -0.259835 0.161539 -0.371795 -0.124704 -0.156220 0.039542 -0.003346 0.133244 0.494123
-0.992001 -0.705958 -0.804796 -0.742811 -0.718771 -0.624623 -0.604144 -0.629406 -0.582142 -0.377754 -0.443356 -0.523112 -0.222708 -0.423495 -0.313384 -0.528636 -0.524630 -0.072998 -0.077087 -0.041981 0.193580 -0.116681 -0.543440 -0.275040 -0.269940 -0.200072 -0.165960 -0.063211 -0.149827 -0.247912 -0.437024 -0.173464 -0.113472 0.064288 0.044162 -0.492176 -0.475404 0.192281 0.041734 -0.341046 -0.249664 0.715076 0.465628 1.007571 1.223300 0.387216 0.435085 0.005058 -0.095623 0.652691 0.466273 0.453586 0.367141 0.733651 1.031055 0.113843 -0.409100 0.353541 0.296251 1.206881 0.358089 0.507422 0.093742 0.666940 0.712765 -0.926541 -0.874451 -0.524257 -0.799652 -0.569279 -0.547036 -0.757564 -0.895536 -0.684671 -0.709933 -0.964592 -0.992851 -0.877530 -1.066719 -1.050459 -0.853680 -0.673914 -0.692051 -0.566448 -0.552775 -0.809589 -0.812469 -0.911426 -0.856158 -0.808431 -0.806031 -1.182209 -0.924179 -1.172039 -1.057869 -0.746934 -0.757471 0.991669 1.002962 1.128292 1.047215 1.087532 1.122568 0.795708 0.853264 0.804833 0.798605 0.651582 0.692652 0.147224 0.225175 0.518104 0.670611 1.318300 1.241502 1.111769 1.237373 0.809023 0.936602 0.944605 0.966963 0.165400 0.221728 0.397085 0.615545 0.470717 0.534141 1.018462 0.905533 -0.065127 -0.375441 -0.281846 0.176199 -0.190999 -0.443858 0.296539 0.220836 0.256683 1.197322 0.149336 -0.134946 -0.105198 0.535951 0.622426 -0.422213 0.257866 0.150338 0.306037 0.356691 0.819223 -0.369633 -0.480794 -0.041751 -0.219608 -0.054827 0.153333 0.529121 0.059610 -0.160730 -0.569103 -0.831814 0.055674 -0.023541 -0.057468 -0.442178 -0.482457 -0.403616 0.470674 -0.032253 -0.407082 -0.248777 0.214673 0.442159 0.168992 -0.337225 0.360208 0.064948 -0.053473 0.230203 1.058453 -0.685680 -0.356403 -0.184655 0.207547 0.847898 -0.657277 -1.562665 0.717966 1.015267 0.033489 0.098550
-0.834859 -0.233331 -0.241798 -0.419793 -0.395038 -0.895699 -1.095901 -0.907012 -0.958420 -0.560785 -0.762992 -0.801497 -0.518226 -0.990725 -0.802005 -0.927024 -1.009256 -0.088842 0.139933 -0.235708 -0.136275 -0.069116 -0.610567 -0.093690 0.177110 -0.379467 -0.337886 -0.488173 -0.262700 -0.484688 -0.695056 -0.496531 -0.616316 0.573002 0.541028 0.583118 0.599010 0.156342 -0.034550 0.102341 0.122269 0.799303 0.729213 0.868344 1.006248 0.083600 0.097807 -0.185748 -0.157714 0.552314 0.520501 0.324031 0.313195 1.099723 0.943662 0.084065 0.196041 0.596488 0.667621 0.405053 0.521861 0.770171 0.780597 0.870165 0.833514 -0.481934 -0.552021 -0.367849 -0.383534 0.029383 0.044530 -0.306513 -0.271323 -0.020181 -0.033772 -0.060588 -0.030564 -0.168526 -0.090550 -0.322838 -0.309758 0.231857 0.233390 0.294408 0.294657 -0.038155 0.051273 -0.030069 -0.025595 0.127962 0.240465 0.012072 0.122111 -0.225165 -0.161613 0.175161 0.152157 0.295777 0.222540 0.282192 0.281003 0.458856 0.607848 0.368706 0.394425 0.121686 0.062813 0.294558 0.171416 0.211108 0.218107 0.222228 0.125049 -0.116001 -0.162265 -0.296946 -0.183467 -0.554362 -0.468254 -0.056762 -0.230317 -0.449982 -0.405832 -0.294587 -0.337597 0.102374 0.008199 0.096418 0.047333 0.182094 -0.086665 0.066583 0.139220 -0.147886 -0.125955 -0.090738 -0.038179 -0.001693 0.189795 0.153774 -0.016421 -0.203057 -0.229229 -0.256692 0.018913 0.175731 -0.142158 0.040366 0.430793 0.122547 -0.069435 0.068232 0.351809 -0.227158 0.525552 -0.073408 -0.131684 0.087353 0.284379 -0.458200 0.064205 0.057578 -0.317372 -0.062391 -0.402566 -0.486816 -0.740153 0.197126 0.684988 0.211170 0.071220 -0.152717 -0.155844 -0.261135 -0.472953 0.131642 0.233841 0.323663 0.765764 -0.262145 0.047730 -0.042092 0.186704 -0.416860 0.184052 -0.149968 -0.358373 0.362416 0.223137 -0.134201 -0.395426
0.152844 -0.507517 -0.430560 -0.446467 -0.468914 -0.696058 -0.616334 -0.730371 -0.842129 -0.273314 -0.067506 0.055710 -0.126147 -0.308307 -0.481225 -0.278443 -0.363057 0.221954 0.100226 0.503917 0.265442 0.755460 1.041912 1.022481 0.920445 0.458895 0.485445 0.189324 0.466577 0.382283 0.521105 0.328184 0.249080 -0.323673 -0.254475 -0.052059 -0.111500 -0.240881 -0.074153 0.045860 -0.043056 0.138823 0.498877 -0.643735 -0.651420 -0.012386 -0.218777 -0.033352 -0.012818 -0.057971 0.003126 0.057670 0.114107 -0.271496 -0.774296 -0.150479 0.124086 0.175602 0.355150 -0.397749 0.170985 0.303106 0.494562 0.364999 0.298073 -0.211105 -0.238667 -0.270562 -0.084396 -0.092225 -0.145536 0.003913 0.024237 0.068519 0.069018 0.133619 0.189454 -0.084358 -0.061021 -0.031379 -0.149703 0.390441 0.334262 0.145395 0.250706 0.187881 0.199923 0.135195 0.225264 -0.206680 -0.223791 -0.070645 -0.252201 0.004702 -0.038869 0.098985 0.074611 0.692553 0.631756 0.531121 0.578861 0.441076 0.394448 0.438085 0.435276 0.243982 0.251022 0.298208 0.316485 0.458924 0.380740 0.271300 0.194876 -0.782748 -0.665119 -0.667052 -0.781769 -0.389492 -0.513259 -0.528748 -0.519505 -0.236190 -0.284711 -0.368134 -0.564600 -0.028316 -0.087897 -0.252003 -0.111319 0.208954 0.413261 -0.319973 -0.230235 0.219086 0.428499 -0.104350 0.028800 -0.720240 -0.295818 0.326918 -0.212401 0.672191 -0.594965 -0.005606 0.100581 0.058818 -0.189221 -0.205398 -0.064157 -0.120819 0.618336 -0.168427 0.091185 0.123886 0.313206 0.271726 0.034454 -0.107225 -0.096419 0.361004 0.691419 0.222755 -0.195285 0.106895 0.036334 0.302571 -0.133650 -0.368458 0.335075 0.638532 0.008311 -0.366480 -0.048583 -0.346636 0.012989 -0.765514 -0.757122 -0.452273 -0.273208 -1.139722 0.473765 0.074294 0.523484 -0.259874 -0.438582 0.242680 0.504821 -0.188073 -0.299443 0.063325 -0.671186
-1.072501 -0.400398 -0.416470 -0.539184 -0.445348 -0.595897 -0.786403 -0.614524 -0.670541 -0.908865 -0.919653 -1.086712 -0.987002 -0.913197 -0.753954 -0.959444 -1.022593 -0.110303 0.068121 -0.450458 -0.172282 -0.082757 -0.413277 -0.096289 0.015885 -0.527392 -0.531252 -0.746698 -0.593470 -0.627476 -0.664570 -0.726451 -0.750518 0.216039 0.218249 0.215892 0.218668 -0.057112 -0.210779 -0.039932 -0.033798 1.289066 1.132532 0.896907 1.046152 0.404246 0.432862 0.439563 0.356745 0.696488 0.641564 0.724223 0.711270 0.203135 0.137506 0.418733 0.465988 0.884480 0.924916 0.892244 0.961049 0.853533 0.829750 0.752810 0.733882 -0.417763 -0.454785 -0.551446 -0.551766 -0.540604 -0.544569 -0.536604 -0.510058 -0.179748 -0.182707 -0.235695 -0.210242 -0.389919 -0.330962 -0.230897 -0.257788 -0.214023 -0.228070 -0.252161 -0.209292 -0.426283 -0.334289 -0.262004 -0.245762 -0.159311 -0.104118 -0.009147 0.045856 -0.213224 -0.209399 -0.158367 -0.180062 0.517130 0.502503 0.480127 0.444463 0.402285 0.512171 0.425674 0.434467 0.028476 0.001063 0.265821 0.144298 0.027143 0.079461 0.106917 0.081030 0.262978 0.206717 0.148621 0.157631 0.196777 0.225076 0.444246 0.308306 -0.017999 -0.007119 0.103879 0.153521 0.414462 0.377281 0.373259 0.412041 0.216166 -0.149333 0.070683 0.058982 0.008638 -0.132475 -0.152106 0.104013 0.112514 0.270232 0.171425 0.232540 -0.026170 0.035056 -0.431031 0.099376 0.116851 -0.055205 -0.073975 0.148237 0.296477 -0.122311 0.152534 0.237066 0.049794 0.320144 -0.177522 -0.196934 0.130756 0.241681 -0.671801 -0.122208 -0.014201 -0.207430 -0.177710 -0.397246 -0.144756 -0.454842 -0.241040 0.052281 0.303263 -0.056318 -0.078609 -0.014368 -0.058306 -0.232095 0.018428 0.213975 0.225402 0.408244 -0.024730 0.089928 0.353042 0.091743 -0.306167 0.001845 -0.254976 -0.316085 0.373460 0.224928 -0.160895 -0.007871
-1.216156 -0.668824 -0.657362 -0.598955 -0.616741 -0.416027 -0.586669 -0.474683 -0.549854 -0.796259 -0.849082 -0.778473 -0.775639 -0.760004 -0.788083 -0.788234 -0.816569 0.078525 -0.077182 0.041547 -0.287371 0.275419 0.236662 0.369000 0.316534 -0.181904 -0.213547 -0.264954 -0.309708 -0.279059 -0.116607 -0.375876 -0.325243 0.294841 0.270389 0.430732 0.445550 0.310915 -0.009761 0.204872 0.128330 0.845719 0.786938 0.432377 0.605081 0.543393 0.513103 0.511234 0.403644 0.322203 0.341118 0.329664 0.386275 -0.052732 -0.233731 0.171979 0.276035 0.329043 0.429729 0.145168 0.545778 0.338993 0.407833 0.204947 0.159407 -0.010280 -0.081948 -0.189782 -0.120283 -0.267979 -0.285624 -0.243703 -0.183363 -0.012629 -0.022191 -0.084330 -0.053965 -0.188802 -0.097180 0.019957 -0.094950 -0.116054 -0.169366 -0.237433 -0.159831 -0.431236 -0.327264 -0.343969 -0.318738 -0.327618 -0.318010 -0.328126 -0.339324 0.027064 0.013000 -0.064211 -0.131164 0.113839 0.142061 0.223622 0.175737 0.255544 0.260971 0.146240 0.082810 -0.173569 -0.170946 -0.213179 -0.241623 0.094159 -0.013122 -0.138516 -0.167568 0.237972 0.293669 0.308330 0.173363 0.300597 0.250729 0.103238 0.105808 0.428702 0.360009 0.308254 0.350336 0.127057 0.139540 0.157117 0.251994 0.161956 0.167686 -0.029476 0.036736 0.076713 0.177624 0.150585 -0.004129 -0.062242 -0.063264 0.144897 0.077452 0.525990 -0.111585 -0.307301 0.219955 0.286990 -0.216484 -0.239144 0.204896 0.298784 0.159957 -0.003665 -0.095820 0.053119 0.293357 0.319335 -0.178083 0.212013 0.188950 -0.815811 -0.028253 0.192646 -0.086699 -0.002252 -0.109352 0.005403 -0.452414 -0.220558 -0.047516 0.227727 -0.073457 -0.011839 -0.122517 -0.191026 0.136699 -0.229684 0.033873 -0.331326 0.075313 -0.361849 0.301621 0.310120 0.049333 -0.472137 -0.411264 -0.030979 -0.003870 0.143161 0.266280 -0.226167 -0.118132
0.068278 -0.220161 -0.338096 -0.472452 -0.491257 -0.441479 -0.632514 -0.524285 -0.586032 -0.543356 -0.769831 -0.980782 -0.753148 -0.650039 -0.466121 -0.783699 -0.849925 -0.142978 -0.082805 -0.391922 -0.333934 -0.283859 -0.107526 -0.342089 -0.305802 -0.504816 -0.486963 -0.266395 -0.390382 -0.384697 -0.537985 -0.387045 -0.403136 0.718626 0.652717 0.686622 0.666888 0.373866 0.190061 0.334357 0.289795 0.022268 -0.140204 -0.416332 -0.385020 -0.093676 0.008114 0.162113 0.120386 0.727772 0.649348 0.664922 0.593022 0.384862 0.351513 0.534588 0.639497 0.782468 0.824541 1.082989 1.002288 0.908939 0.852259 0.866636 0.867563 -0.952880 -0.973160 -0.921094 -0.965690 -0.752419 -0.728825 -0.832302 -0.809911 -0.524898 -0.522192 -0.628625 -0.622775 -0.596159 -0.541261 -0.558513 -0.579350 -0.096600 -0.086054 0.047793 -0.000379 -0.131211 -0.106803 0.023342 0.014338 -0.445508 -0.379146 -0.354875 -0.310937 -0.396695 -0.392374 -0.339608 -0.324033 1.037736 0.986120 1.129919 1.071935 1.127462 1.244245 1.067097 1.070928 1.026684 0.936220 1.072713 1.011246 1.060136 1.095218 1.007089 0.954945 -0.337675 -0.385007 -0.250643 -0.224782 -0.253317 -0.192207 -0.048608 -0.190173 -0.213994 -0.190123 -0.116844 -0.008818 0.078572 0.036196 0.119998 0.134814 0.095505 -0.095123 0.118686 0.228126 -0.122062 -0.044637 -0.146798 -0.413133 0.267433 -0.019536 0.066100 0.285413 -0.007884 -0.157553 0.055696 -0.116114 0.064090 -0.197204 0.072028 0.386193 -0.225382 -0.279967 0.238774 0.269794 -0.118160 0.610082 0.109687 -0.026934 0.109249 0.396876 0.164762 0.559026 0.243287 -0.293054 -0.165999 -0.132814 -0.299625 -0.642931 -0.276568 0.038275 -0.292077 0.176768 -0.295393 -0.062738 -0.338686 -0.321117 -0.129822 -0.053929 0.308098 0.739421 -0.026889 0.201434 -0.297130 0.257528 -0.226094 -0.072151 -0.199298 0.002648 0.320747 0.399609 -0.702256 -0.287297
0.067992 -0.562004 -0.581495 -0.605121 -0.558476 -0.578386 -0.633523 -0.528080 -0.464075 -0.803720 -0.618876 -1.011028 -1.082952 -0.558607 -0.639212 -0.611697 -0.600132 -0.109710 -0.232027 -0.232068 -0.399586 0.041205 -0.174394 -0.116267 -0.170637 -0.203998 -0.205708 -0.315229 -0.375923 -0.176379 -0.026839 -0.160206 -0.121913 0.372993 0.385011 0.339673 0.398077 0.289722 0.084311 0.228090 0.194168 0.704186 0.411878 0.813782 0.872946 0.501071 0.483539 0.367573 0.144995 0.407405 0.323713 0.306740 0.280636 0.393682 0.590215 0.584751 0.608478 0.410905 0.434717 0.157919 0.459926 0.441061 0.636911 0.426299 0.429679 0.911284 0.892891 0.734475 0.850598 0.716969 0.719079 0.805781 0.833721 0.540015 0.594169 0.672790 0.646313 0.823637 0.720562 0.764505 0.607235 0.166194 0.160428 0.140721 0.212349 0.036179 0.117872 0.159668 0.161844 0.576349 0.590801 0.623032 0.499268 0.565110 0.486704 0.341497 0.332035 -0.755840 -0.735329 -0.726195 -0.690338 -0.632708 -0.606880 -0.635560 -0.642561 -0.510464 -0.487968 -0.448118 -0.474630 -0.225502 -0.243335 -0.315193 -0.376178 -1.028578 -0.961647 -0.934434 -1.020916 -0.822995 -0.823633 -0.904470 -0.925671 0.056353 -0.004950 -0.110581 -0.006813 -0.222554 -0.164088 -0.377781 -0.176522 -0.048901 0.223631 0.305789 -0.198779 0.031793 0.126946 -0.262655 -0.053411 0.189513 0.063878 0.259958 0.290823 -0.058006 -0.026834 -0.766972 0.173823 -0.062853 -0.146449 -0.082872 -0.353029 -0.020283 0.012995 0.197773 0.341156 0.338648 0.178105 -0.332674 -0.372129 0.091131 0.469356 0.198617 0.423317 -0.018261 -0.443538 -0.393866 -0.051938 0.270433 0.363373 -0.290936 0.026491 0.585346 0.591241 0.092407 -0.162367 -0.051882 -0.318956 -0.280541 -0.888701 0.296367 -0.400894 -0.706512 -0.190622 0.087646 0.022008 -0.180219 -0.203562 0.070800 -0.033853 -0.034051 0.342493 -0.029400 -0.013658
-1.381550 -0.905210 -0.874318 -0.862310 -0.895329 -0.835851 -0.660791 -0.848427 -0.904924 -0.975587 -0.909832 -0.778453 -0.780409 -0.965401 -0.597460 -0.958955 -1.035937 -0.177022 0.675382 -0.848629 0.458630 -0.680169 -1.081202 -0.761335 -0.547836 -0.885824 -0.755585 -1.073528 -0.973227 -0.697798 -1.089387 -0.845640 -0.886989 0.425176 0.516664 0.469652 0.519888 0.469448 0.335958 0.470716 0.511808 0.385939 0.410281 0.328580 0.333720 0.627419 0.439167 0.801411 0.647507 1.079188 0.973615 1.156971 1.193488 0.864632 0.646946 0.845496 0.970363 0.910481 0.929934 0.827156 0.965956 0.889128 0.834988 0.895757 0.900366 -0.174801 -0.196889 -0.160610 -0.164474 -0.209236 -0.269922 -0.225280 -0.275152 -0.323562 -0.329645 -0.435385 -0.432255 -0.341978 -0.272373 -0.222977 -0.234936 0.103647 0.049547 0.034736 0.083822 -0.205012 -0.157010 -0.137014 -0.012387 -0.110137 -0.095980 -0.084094 0.017572 0.043359 0.116587 0.194129 0.179146 0.039506 0.064672 0.118296 0.067597 0.032798 0.228224 0.065874 0.021342 0.084091 0.053000 0.403132 0.129456 -0.049302 0.012625 -0.052940 0.002899 0.150545 0.029634 -0.603686 -0.344580 0.091294 0.079677 0.595521 0.367128 0.109173 0.117342 0.100659 0.160655 0.229299 0.213910 0.179108 0.170061 0.672548 -0.238543 -0.085821 0.319225 0.136329 -0.138916 -0.442650 0.127907 0.150517 0.123567 -0.025234 0.151715 -0.102622 -0.148705 -0.696028 0.074350 0.097372 0.132836 -0.014254 0.040626 0.522780 -0.262127 0.038778 0.420729 -0.238653 0.277918 -0.219156 -0.065252 -0.018315 0.578095 -0.934387 -0.347810 -0.085421 -0.136834 -0.106200 -0.444260 -0.024961 -0.462160 -0.453240 -0.174216 0.223890 -0.318933 0.006072 -0.108802 -0.127173 -0.385913 -0.102319 0.352768 0.244666 0.251132 0.023600 0.178353 0.539706 -0.042855 -0.603068 0.233447 -0.151880 -0.257362 0.779808 0.348901 0.095793 0.172060
